tree
version=v2
num_class=1
num_tree_per_iteration=1
label_index=0
max_feature_idx=399
objective=binary sigmoid:1
feature_names=tpc_0 tpc_1 tpc_2 tpc_3 tpc_4 tpc_5 tpc_6 tpc_7 tpc_8 tpc_9 tpc_10 tpc_11 tpc_12 tpc_13 tpc_14 tpc_15 tpc_16 tpc_17 tpc_18 tpc_19 tpc_20 tpc_21 tpc_22 tpc_23 tpc_24 tpc_25 tpc_26 tpc_27 tpc_28 tpc_29 tpc_30 tpc_31 tpc_32 tpc_33 tpc_34 tpc_35 tpc_36 tpc_37 tpc_38 tpc_39 tpc_40 tpc_41 tpc_42 tpc_43 tpc_44 tpc_45 tpc_46 tpc_47 tpc_48 tpc_49 tpc_50 tpc_51 tpc_52 tpc_53 tpc_54 tpc_55 tpc_56 tpc_57 tpc_58 tpc_59 tpc_60 tpc_61 tpc_62 tpc_63 tpc_64 tpc_65 tpc_66 tpc_67 tpc_68 tpc_69 tpc_70 tpc_71 tpc_72 tpc_73 tpc_74 tpc_75 tpc_76 tpc_77 tpc_78 tpc_79 tpc_80 tpc_81 tpc_82 tpc_83 tpc_84 tpc_85 tpc_86 tpc_87 tpc_88 tpc_89 tpc_90 tpc_91 tpc_92 tpc_93 tpc_94 tpc_95 tpc_96 tpc_97 tpc_98 tpc_99 tpc_100 tpc_101 tpc_102 tpc_103 tpc_104 tpc_105 tpc_106 tpc_107 tpc_108 tpc_109 tpc_110 tpc_111 tpc_112 tpc_113 tpc_114 tpc_115 tpc_116 tpc_117 tpc_118 tpc_119 tpc_120 tpc_121 tpc_122 tpc_123 tpc_124 tpc_125 tpc_126 tpc_127 tpc_128 tpc_129 tpc_130 tpc_131 tpc_132 tpc_133 tpc_134 tpc_135 tpc_136 tpc_137 tpc_138 tpc_139 tpc_140 tpc_141 tpc_142 tpc_143 tpc_144 tpc_145 tpc_146 tpc_147 tpc_148 tpc_149 tpc_150 tpc_151 tpc_152 tpc_153 tpc_154 tpc_155 tpc_156 tpc_157 tpc_158 tpc_159 tpc_160 tpc_161 tpc_162 tpc_163 tpc_164 tpc_165 tpc_166 tpc_167 tpc_168 tpc_169 tpc_170 tpc_171 tpc_172 tpc_173 tpc_174 tpc_175 tpc_176 tpc_177 tpc_178 tpc_179 tpc_180 tpc_181 tpc_182 tpc_183 tpc_184 tpc_185 tpc_186 tpc_187 tpc_188 tpc_189 tpc_190 tpc_191 tpc_192 tpc_193 tpc_194 tpc_195 tpc_196 tpc_197 tpc_198 tpc_199 tpc_200 tpc_201 tpc_202 tpc_203 tpc_204 tpc_205 tpc_206 tpc_207 tpc_208 tpc_209 tpc_210 tpc_211 tpc_212 tpc_213 tpc_214 tpc_215 tpc_216 tpc_217 tpc_218 tpc_219 tpc_220 tpc_221 tpc_222 tpc_223 tpc_224 tpc_225 tpc_226 tpc_227 tpc_228 tpc_229 tpc_230 tpc_231 tpc_232 tpc_233 tpc_234 tpc_235 tpc_236 tpc_237 tpc_238 tpc_239 tpc_240 tpc_241 tpc_242 tpc_243 tpc_244 tpc_245 tpc_246 tpc_247 tpc_248 tpc_249 tpc_250 tpc_251 tpc_252 tpc_253 tpc_254 tpc_255 tpc_256 tpc_257 tpc_258 tpc_259 tpc_260 tpc_261 tpc_262 tpc_263 tpc_264 tpc_265 tpc_266 tpc_267 tpc_268 tpc_269 tpc_270 tpc_271 tpc_272 tpc_273 tpc_274 tpc_275 tpc_276 tpc_277 tpc_278 tpc_279 tpc_280 tpc_281 tpc_282 tpc_283 tpc_284 tpc_285 tpc_286 tpc_287 tpc_288 tpc_289 tpc_290 tpc_291 tpc_292 tpc_293 tpc_294 tpc_295 tpc_296 tpc_297 tpc_298 tpc_299 tpc_300 tpc_301 tpc_302 tpc_303 tpc_304 tpc_305 tpc_306 tpc_307 tpc_308 tpc_309 tpc_310 tpc_311 tpc_312 tpc_313 tpc_314 tpc_315 tpc_316 tpc_317 tpc_318 tpc_319 tpc_320 tpc_321 tpc_322 tpc_323 tpc_324 tpc_325 tpc_326 tpc_327 tpc_328 tpc_329 tpc_330 tpc_331 tpc_332 tpc_333 tpc_334 tpc_335 tpc_336 tpc_337 tpc_338 tpc_339 tpc_340 tpc_341 tpc_342 tpc_343 tpc_344 tpc_345 tpc_346 tpc_347 tpc_348 tpc_349 tpc_350 tpc_351 tpc_352 tpc_353 tpc_354 tpc_355 tpc_356 tpc_357 tpc_358 tpc_359 tpc_360 tpc_361 tpc_362 tpc_363 tpc_364 tpc_365 tpc_366 tpc_367 tpc_368 tpc_369 tpc_370 tpc_371 tpc_372 tpc_373 tpc_374 tpc_375 tpc_376 tpc_377 tpc_378 tpc_379 tpc_380 tpc_381 tpc_382 tpc_383 tpc_384 tpc_385 tpc_386 tpc_387 tpc_388 tpc_389 tpc_390 tpc_391 tpc_392 tpc_393 tpc_394 tpc_395 tpc_396 tpc_397 tpc_398 tpc_399
feature_infos=[-0.285198555957:0.68312757201600005] [-0.016376921138799998:0.34337349397599998] [-0.024452554744500001:0.087713742875199993] [-0.018573551263000001:0.064579256360100007] [-0.044907975460100003:0.056904927133900003] [-0.83333333333299997:0.97560975609800005] [-0.28333333333299998:0.246360582307] [-0.013076923076899999:0.062525667351100003] [-0.043452380952399998:0.083674863387999995] [-0.045885286783000002:0.089427950760299996] [-0.023985959438400001:0.069337442218800005] [-0.35563380281700002:0.442779291553] [-0.097560975609799996:0.115839243499] [-0.022706834532400001:0.071374335611200004] [-0.021372965322:0.066436085891299998] [-0.024060150375900001:0.071183759557100004] [-0.40845070422500002:0.083365347675800006] [-0.023082032547299999:0.0612612612613] [-0.0154474235904:0.080391322841300003] [-0.075054229934900005:0.102040816327] [-0.50617283950600001:0.22493224932200001] [-0.82831325301199998:0.095989029825199995] [-0.047506639126599998:0.092861464004799998] [-0.103795966785:0.085643153526999999] [-0.00355160932297:0.16314935064899999] [-1.1507936507900001:2.1499999999999999] [-0.29271206690599999:0.74358974358999996] [0.00013413816230699999:0.073878627968299998] [-0.046264855687599998:0.123923444976] [-0.023763894212300001:0.119784656797] [0.0050251256281400002:0.10334088335199999] [-0.55059523809499999:0.67029972752] [-0.50495049505:0.166666666667] [-0.0030330062444199998:0.086741750642199994] [-0.0080181279414299998:0.074424898511499998] [-0.091155234656999998:0.096401599289200002] [-0.043243243243200002:0.112981834293] [0.0053453947368400003:0.076432186605999999] [0.0047890535917900004:0.107494322483] [-0.0133201776024:0.13986784141] [-0.238683127572:0.18932655654399999] [-0.075198344256600005:0.12534818941500001] [-0.0146831530139:0.087970445624600005] [-0.039556061468400003:0.094329334787399993] [0.020487702112:0.090097402597399998] [-0.24603174603200001:0.38211382113800002] [-0.47583643122699998:0.63015873015900004] [0.0190198366394:0.079844206426500003] [-0.057569296375299998:0.13397129186599999] [-0.114401076716:0.123711340206] [-0.050239234449799997:0.0824677368587] [-0.36619718309900001:0.50612745098] [-0.090053763440900006:0.61111111111100003] [0.0180817610063:0.082170542635700006] [0.00067957866123000003:0.086406362979000007] [-0.033082706766899998:0.075532775829500007] [-0.0088424437299:0.38497652582199998] [0.0108248208568:0.092090731458700004] [0.015461997019400001:0.112717992344] [-0.0629095674967:0.13167520117000001] [-0.072774528914899994:0.60905349794200003] [-0.13947696139499999:0.153614457831] [-0.051114922813000001:0.12298507462699999] [-0.025611838360799999:0.103762135922] [0.0029593758407300001:0.125] [-1.6587301587300001:2.4666666666700001] [-0.33213859020300002:0.67529411764699998] [0.0171459576777:0.092486869148199993] [-0.34328358208999998:0.121084337349] [-0.183041722746:0.23298969072199999] [-0.090909090909100002:0.15014164305899999] [-0.27608346709499998:0.59803921568600005] [-0.038978494623699997:0.66831683168300005] [-0.0091719077568100001:0.11302307391499999] [0.0262439579187:0.12092504876] [-0.043685756240799997:0.091182364729500004] [-0.065727699530500006:0.114345114345] [0.0276651562127:0.100501231841] [0.0085925416738299992:0.14334325818800001] [-0.101321585903:0.19970738844200001] [-0.25285895806899999:0.31421446384000001] [-0.0252694165738:0.548192771084] [0.0049071153172099997:0.14692843571899999] [0.010571970723800001:0.14650059311999999] [0.0282648823258:0.14694736842100001] [-1.11666666667:0.50793650793699996] [-0.36959553696000003:0.24989078200100001] [-0.051609956611100002:0.126115407496] [-0.020486555697799998:0.477611940299] [-0.0157761884729:0.34858681022900001] [0.000958466453674:0.19976076555] [-0.71662125340600002:0.51760563380299995] [-1.0462962963:0.220297029703] [0.010077059869600001:0.13759647188499999] [0.0061571894241199999:0.12750098077700001] [0.0223101835193:0.143319463708] [0.0051689126822999998:0.16377486246299999] [0.00091890650126300001:0.141780290433] [-0.000851788756388:0.13494769013800001] [-0.0236232551005:0.23328964613399999] [-0.091814159292:0.64197530864200003] [-0.34036144578299998:0.072463768115899996] [-0.034522439585699997:0.073882960009400006] [-0.043933054393300003:0.076343421865300007] [-0.0022765214751899999:0.12987012986999999] [-0.23333333333299999:0.0943204524672] [-0.34820322180899999:0.61111111111100003] [-0.0087961365988300007:0.066511085180900001] [-0.060537096040099998:0.099247581511999999] [-0.106325706595:0.086728317920499995] [-0.044856459330099997:0.079464149794500005] [-0.226651480638:0.54779411764700003] [-0.12109375:0.42592592592599998] [-0.0023752969121100002:0.088815789473700002] [-0.013910969793300001:0.069700219124399998] [-0.064724919093900005:0.067525544202599999] [-0.23004694835699999:0.074160114367399999] [-0.0026036016489500002:0.080961685498300004] [0.000235100505466:0.097295398665300001] [-0.0198237885463:0.090304836121900003] [-0.104613385315:0.82304526748999995] [-0.40361445783099997:0.111854329246] [-0.089327447416299999:0.110447761194] [-0.065750149432200006:0.085841822135700005] [-0.021612411442899999:0.0865715691097] [-0.89682539682499995:1.34579439252] [-0.180406212664:0.50767085076700003] [-0.023370127630200001:0.074674583238200004] [-0.16844349680199999:0.11071428571399999] [-0.238223418573:0.10437817258900001] [-0.107057416268:0.096865621873999996] [-0.28521126760600002:0.64215686274499995] [-0.125:1.1203703703700001] [-0.0069483995899299999:0.116783919598] [-0.027583465818800001:0.081763160899900003] [-0.086642599277999999:0.086628165259899997] [-0.43661971831000002:0.087727071333599999] [-0.021623340488099999:0.104295887893] [-0.023715415019799999:0.11682004090000001] [-0.085903083700399993:0.088514996342399996] [-0.14214463840399999:0.21017699114999999] [-0.019862490450700002:0.56927710843400003] [0.024781849912700001:0.19140774836999999] [0.015386259215700001:0.14984623986599999] [-0.015184381778700001:0.12588916459899999] [-0.96825396825400001:1.4833333333300001] [-0.17719950433699999:0.38571428571400002] [0.029400386847200002:0.12735505781500001] [-0.073808303434099998:0.232057416268] [-0.060796645702299999:0.20000000000000001] [-0.048533333333299997:0.13125112836300001] [-0.58802816901400001:1.40625] [-0.14814814814800001:0.205452775073] [0.021993670886099999:0.13750000000000001] [0.0271560940841:0.136833402232] [-0.013289036544900001:0.14981949458499999] [-0.018175698418:0.15558698727] [0.035967594007899999:0.13955845911199999] [0.030212123558100001:0.16122233930499999] [-0.0451727192205:0.14411119239199999] [-0.80246913580199997:0.21951219512199999] [-0.15560165975099999:0.16867469879499999] [-0.066341463414599997:0.082823960880199998] [-0.044621026894900002:0.078242604586000006] [-0.0030493273542599999:0.140482128013] [-0.756097560976:0.10297029703] [-0.53531598513:0.81111111111099998] [-0.0089359200470299997:0.078333333333300004] [-0.023709902371:0.37100213219599998] [-0.084791386271899999:0.114888123924] [-0.053616244581300002:0.080003751641299997] [-0.24470338983100001:0.58946078431399995] [-0.0625:0.91666666666700003] [-0.037638202775800003:0.116090146751] [-0.0030515932155300001:0.070618630687500003] [-0.070382616910699997:0.092977734279399996] [-0.052859202306600003:0.35680751173699998] [-0.016099234626600002:0.079450970040900001] [-0.00068965517241400002:0.127926223694] [-0.046640574037800003:0.101863671177] [-0.14532871972299999:0.48148148148100001] [-0.036144578313300001:0.205432287682] [-0.00115446779035:0.117739403454] [-0.0214467466376:0.132327831531] [-0.103084415584:0.093050475493799994] [-2.1833333333299998:1.6190476190500001] [-0.82380952381000006:0.66294919454800005] [-0.023825428635:0.080606193718399999] [-0.046024034773699998:0.101957214383] [-0.0564564564565:0.22072678331100001] [-0.0067686357243299999:0.181818181818] [-0.65686274509800002:0.57042253521099995] [-1.40740740741:0.283203125] [-0.0273164674841:0.077628793225099996] [-0.0152295152295:0.074923547400600005] [-0.018733850129200001:0.15257439773299999] [0.0038268356852399999:0.34741784037599999] [-0.00302138208863:0.0718628787085] [-0.034878774989400001:0.076304221613999995] [-0.0250896057348:0.13325991189399999] [-0.205962059621:0.32921810699600002] [-0.060240963855400002:0.19209431345399999] [0.016014975041599998:0.110896445131] [-0.00072700836059600002:0.12606715993199999] [-0.063311688311700004:0.084414430424699996] [-2.5833333333300001:1.7619047618999999] [-0.76153846153799998:0.52664188351899999] [0.019807834441999999:0.095211948165999996] [-0.084048027444299997:0.104049719326] [-0.028259231348899998:0.238223418573] [-0.0055855161787399998:0.18122009569399999] [-0.64828431372499995:0.55985915493000005] [-0.090759075907600004:0.45370370370399998] [0.00064129970072699998:0.0789007092199] [0.0045973808860399999:0.089704383282400005] [0.019633225458499999:0.17902692489399999] [0.0112413298254:0.29577464788699998] [-0.0048424093110200003:0.074489300921700002] [-0.059974478945100003:0.078498946965300007] [0.0057012542759400002:0.12775330396500001] [-0.209476309227:0.20760233918099999] [-0.66566265060200003:0.103613632471] [-0.042881646655200001:0.077402253147799999] [-0.072360616844600004:0.076644370122600003] [-0.035188866799199997:0.091720779220800006] [-0.793650793651:2.4666666666700001] [-0.29615861214400002:0.61746031745999996] [-0.0067162389062099996:0.075365579302600003] [-0.12579957356099999:0.103804127883] [-0.092866756393000002:0.098071176310800007] [-0.047846889952200003:0.092608326253199993] [-0.77816901408500005:0.59375] [-0.37623762376199998:0.86111111111100003] [-0.0212789415656:0.101105527638] [-0.00915553028149:0.073182257780899998] [-0.056390977443599999:0.073796326486299996] [-0.234741784038:0.088513638894000005] [-0.027482461850000001:0.085549231161300004] [-0.0258610556013:0.088445807771000001] [-0.036911231884099997:0.107615302109] [-0.124567474048:0.58024691358000002] [-0.20331950207499999:0.154552410099] [-0.032740879326500001:0.100863422292] [-0.023762929829499999:0.098315998018800005] [-0.046373365041600001:0.071441265327900003] [-1.75700934579:1.03174603175] [-0.64358974358999999:0.234200743494] [-0.026074790129700001:0.0645541162616] [-0.024886018237099999:0.15565031982899999] [-0.10630630630600001:0.111709286676] [-0.031691078561900003:0.084330143540699995] [-0.35548172757500002:0.71830985915500001] [-0.53703703703700001:0.32673267326700001] [-0.045829145728600001:0.0562943262411] [-0.015214583034300001:0.0704271274861] [-0.039156626505999999:0.114620938628] [-0.0704225352113:0.116559485531] [-0.021997151448000001:0.058601226993900003] [-0.0365801786474:0.059026069847500001] [-0.056928034371600003:0.11213389121300001] [-0.19341563785999999:0.25270758122699999] [-0.010113129928:0.55722891566300004] [-0.03035982009:0.117733844792] [-0.0125404530744:0.12585428755600001] [-0.10551948051899999:0.10742300987800001] [-0.99186991869899999:0.47619047618999999] [-0.63650793650799997:0.54894671623299995] [0.0020073603211799998:0.110638297872] [-0.060634770251099999:0.19616204690799999] [-0.028178694158099999:0.232839838493] [0.00346238589865:0.168062200957] [-0.62377450980399995:0.55281690140799999] [-0.5:0.24731182795699999] [-0.000870776732846:0.108525413712] [-0.0262505167425:0.099799955545699995] [0.014835747085800001:0.212781954887] [0.010700636942699999:0.64319248826300002] [0.0097642048405499997:0.096857651053700006] [-0.061675882603100002:0.10487804878] [-0.0117044623263:0.13882421420300001] [-0.75720164609100005:0.242767295597] [0.0117252931323:0.348547717842] [0.0446944057336:0.19462686567199999] [0.048548972188599999:0.17794793261899999] [0.027397260273999999:0.107222085285] [-0.30158730158699998:1.6000000000000001] [-0.36190476190499998:0.32465923172200001] [0.042719086316700003:0.139450114559] [-0.074626865671599998:0.19665071770299999] [-0.0238816010764:0.14639175257699999] [0.012567998499299999:0.118803562426] [-0.501298701299:0.73569482288800003] [-0.052734375:0.25925925925900001] [0.0093085106383000004:0.12523093164400001] [0.048232940653499999:0.18264140429100001] [0.048268296505200002:0.29920634920599998] [-1.09389671362:0.22607489597800001] [0.029956427015300002:0.12859665524] [0.0224345304103:0.14674606550399999] [0.0071129707113000004:0.16931216931199999] [-0.053585500394:0.26433915211999998] [-0.0208418471598:0.12952646239599999] [-0.0043814809405599998:0.0819672131148] [-0.0122501611863:0.072407045009799997] [0.0045081146062899997:0.091022443890299995] [-0.043737574552699998:1.0467289719599999] [-0.16604708798000001:0.44941176470600003] [0.00747252747253:0.0685831622177] [-0.117270788913:0.095125786163499995] [-0.091520861372799994:0.081787300757799997] [-0.032000000000000001:0.073235685752299995] [-0.40845070422500002:0.329656862745] [-0.37623762376199998:0.085543766578199995] [0.0085697399527199999:0.085547962541100003] [0.0136191677175:0.074794638996999993] [-0.0586466165414:0.0660091047041] [-0.041063614944499997:0.1220657277] [0.011480623079800001:0.060292543703200002] [0.00612674708022:0.10208421948099999] [-0.031758326878400002:0.079069767441900002] [-0.22743682310499999:0.20054200542] [-0.16390041493800001:0.060771534261099998] [-0.0102899906455:0.061206120612099998] [-0.0016750418760500001:0.057521320994400001] [-0.0061011040093000004:0.0658295964126] [-0.211382113821:0.80000000000000004] [-0.29120198265199998:0.509523809524] [0.00307692307692:0.056554967666099999] [-0.059701492537299998:0.087907375643200003] [-0.0177514792899:0.078347045624499997] [-0.0083474019883699995:0.071266735324400005] [-0.45624999999999999:0.49142156862699998] [-0.16336633663399999:0.092592592592599998] [-0.00576241134752:0.076315789473700005] [0.012615719731300001:0.064493975151399999] [-0.048120300751899998:0.075458392101600005] [-0.049171842650100002:0.18309859154899999] [-5.3899638872399997e-05:0.058508740635000001] [-0.0048622366288499997:0.081667375584900004] [-0.027600232422999998:0.086500655307999996] [-0.42798353909499998:0.46570397111900003] [0.0021720243266699999:0.34638554216900003] [-0.0149253731343:0.17086471046500001] [0.0083658672615700008:0.17814140166699999] [0.057425175426000001:0.16725105189299999] [-0.71962616822400005:0.72222222222200005] [-0.44:0.22102747909199999] [0.045617657179400001:0.149297083769] [0.017543859649100001:0.23027718550099999] [0.030919334890799999:0.29629629629600002] [0.036696359411299999:0.182416267943] [-0.232843137255:0.65492957746500002] [-0.014605647516999999:0.64851485148499999] [0.032017543859599998:0.15678059536899999] [0.0071174377224199996:0.14704817095299999] [0.0162835249042:0.24812030075200001] [0.0051004475903:0.42723004694799999] [0.034218653489800001:0.15046406070000001] [-0.028073160357299998:0.15584263065199999] [0.0244923076923:0.22542595019700001] [-0.54320987654300001:0.31768953068599998] [0.00051422694549200002:0.58734939759000004] [-0.013731343283599999:0.12775902363] [0.0057361376672999996:0.115538362347] [0.019472738166600001:0.100122699387] [-2.2333333333300001:0.67460317460300001] [-0.293650793651:0.31282051282099999] [0.016504962640800001:0.091553386778200005] [-0.031578947368400001:0.31556503198300001] [-0.0076789107029800003:0.115801354402] [0.0059804847340300003:0.101263847714] [-0.49375000000000002:0.31690140845100001] [-0.023809523809500001:0.18518518518499999] [-0.0094472361808999993:0.090077177508299994] [-0.016439119531899998:0.085326325011000001] [0.0054151624548699996:0.154887218045] [-0.0045859872611499998:0.352112676056] [0.0121298608634:0.104790814306] [-0.0046788600595500003:0.094275302691900001] [-0.010241404535499999:0.13363363363399999] [-0.105463786531:0.16894087069499999] [-0.0153203342618:0.17454294584300001] [-0.0058614193008199996:0.102851941748] [-0.020901490367100001:0.102162777462] [-0.032834580216100001:0.075347476225299997] [-0.75:0.62698412698399997] [-0.76190476190500001:0.64560099132600002] [-0.0125807169895:0.0730724223118] [-0.068230277185499996:0.098315885298099995] [-0.0048185514229799999:0.18707940780599999] [0.0064320847521799999:0.146531100478] [-0.52941176470600004:0.51408450704200004] [-0.86111111111100003:0.166015625] [0.0020453115166800002:0.078569748294500003] [-0.00096525096525099997:0.072547917837299997] [0.0022609819121399998:0.12139820500700001] [0.0053167922020400001:0.29107981220700002] [-0.0056880067772000003:0.068924397805899998] [-0.0085070182900900005:0.065906499429899998] [0.00049333991119900002:0.14809960681500001]
tree_sizes=1302 1867 1943 1726 1786 1722 1417 1571 1497 1578 1588 1273 1203 1486 1501 1413 1433 1436 1208 1385 1509 1424 1489 1394 1412 1337 1533 1450 1260 1243 1347 1405 1128 1360 1287 1326 1113 1073 1263 1188 1066 982 1056 1091 1119 972 966 891 847 779 775 847 776 643 647 778 398 646

Tree=0
num_leaves=16
num_cat=0
split_feature=94 140 100 3 90 133 296 375 223 10 316 24 209 358 12
split_gain=41.8337 35.1042 29.7943 25.6994 18.0402 14.9792 13.0234 11.7102 11.216 10.7392 6.88937 6.54327 3.8173 2.48742 0.540484
threshold=0.053079593861700004 0.064821565874150014 0.060183002893500002 0.0070883071623750009 0.06503491883455001 0.043930106403800011 0.072522677336000027 0.053314047535400005 0.057709956325550003 0.021953625206050004 0.026121664447200005 0.049109073393850004 0.028626317124200003 0.12783335130300003 0.012971560433200002
decision_type=2 2 2 2 2 2 2 2 2 2 2 2 2 2 2
left_child=6 4 3 -3 5 -2 -1 -6 11 -5 -8 -7 -9 -11 -14
right_child=1 2 -4 9 7 8 10 12 -10 13 -12 -13 14 -15 -16
leaf_value=-0.31260551396270947 -0.62680884195280084 0.62573427845947827 0.62632005822298942 0.1560411317143246 -0.41644727841674473 0.62656061812103159 -0 0.088834442498028604 -0.62501944996237024 -0.62769010836800265 0.62754114071350731 -0.069138984889196703 0.41644727841674473 -0.20787510687111882 0.62734717097626813
leaf_count=8 16 8 11 8 6 13 8 7 6 88 50 9 6 6 32
internal_value=0 -0.425823 -1.14019 -1.45415 0.483964 -0.454027 1.3933 1.29333 0.427776 -1.72501 1.72329 1.08927 1.64339 -1.91433 1.89335
internal_count=282 216 121 110 95 44 66 51 28 102 58 22 45 94 38
shrinkage=0.313943


Tree=1
num_leaves=23
num_cat=0
split_feature=1 127 296 225 288 381 313 312 387 28 358 317 342 65 286 181 318 244 367 56 318 228
split_gain=28.5935 19.6723 11.3946 11.7969 9.19053 8.22446 7.66217 7.45336 9.04996 5.16949 3.96886 3.22346 3.06574 2.35317 1.80558 1.67928 0.575631 0.427011 0.143993 0.126179 0.107956 0.0379924
threshold=0.034137368176650008 0.044017890276900007 0.082857287663850018 0.056722001975650006 0.082741242617000013 0.023276479397250003 0.034111417982600006 0.036743110726100009 0.043569841824400012 0.044797757906350009 0.096317222425500018 0.027922176647150004 0.086802018266150013 0.047958085584000006 0.10031523396650001 0.046852014848650009 0.040808962555700011 0.015865484063950004 0.063352357886200014 0.031517402533600004 0.042526037636700008 0.047343100396700005
decision_type=2 2 2 2 2 2 2 2 2 2 2 2 2 2 2 2 2 2 2 2 2 2
left_child=2 5 3 6 13 -2 9 17 10 -1 -9 -7 -8 -3 -10 20 -5 -4 -13 -19 -6 -14
right_child=1 4 7 16 15 11 12 8 14 -11 -12 18 21 -15 -16 -17 -18 19 -20 -21 -22 -23
leaf_value=0.2317585477759409 0.22844079170406947 -0.51756543051103521 0.31905952269057014 -0.57233369796667888 0.59935740400813609 -0.00032010412533737409 0.045383415381182637 -0.11847398376511226 -0.033620945133387085 -0.49997707339366199 0.48735899811850669 -0.48393083379895457 0.48043498555019504 0.037548602182886769 -0.50832267572090029 0.12229380868603226 -0.31821987069480295 0.5793936350663047 -0.58150095838136795 0.49045546467390261 0.48023584262580055 0.56048143464847466
leaf_count=7 8 7 6 11 6 6 9 6 6 10 20 68 13 6 8 6 6 10 8 38 11 6
internal_value=0 -0.73717 0.59556 -0.0930705 0.556065 -1.25988 0.469933 1.0545 0.370217 -0.632891 1.10252 -1.45938 1.13805 -0.837697 -0.974179 1.34268 -1.54564 1.55867 -1.57693 1.62448 1.67354 1.61573
internal_count=282 126 156 62 36 90 45 94 40 17 26 82 28 13 14 23 17 54 76 48 17 19
shrinkage=0.313943


Tree=2
num_leaves=24
num_cat=0
split_feature=14 147 27 296 225 26 154 308 97 217 372 263 199 38 26 268 98 393 347 241 124 196 70
split_gain=18.871 16.786 5.70489 7.48753 7.38301 7.22092 4.9925 4.95913 5.09653 3.41948 7.48484 1.84334 1.76063 1.12355 0.985501 0.914432 0.554261 0.270725 0.0717887 0.0524553 0.0446419 0.0201263 0.0147439
threshold=0.026602274028450005 0.067515591224950003 0.029910877513700005 0.082857287663850018 0.056722001975650006 0.041644964767100008 0.060232026839400009 0.037264088720950002 0.076425223707650022 0.03257067792385001 0.065122782853100011 0.046719708473800005 0.033436857799200005 0.048910475505700012 0.072814458389150016 0.075439238298950009 0.06924501177310001 0.05526837989020001 0.10093570392700001 0.029908409236550002 0.041577045928500006 0.053381095653850005 0.05181160294570001
decision_type=2 2 2 2 2 2 2 2 2 2 2 2 2 2 2 2 2 2 2 2 2 2 2
left_child=2 13 5 4 7 -1 -3 8 -4 10 -5 -11 -9 19 -13 21 -6 18 20 -2 -8 -7 -20
right_child=1 6 3 9 16 15 17 12 -10 11 -12 14 -14 -15 -16 -17 -18 -19 22 -21 -22 -23 -24
leaf_value=0.44281953046878569 0.42008544581718577 0.21740625169186711 -0.45608027747240454 -0.45998093701725545 -0.47151879733652885 -0.43564916693363709 -0.41757152021034899 0.036851523185433319 0.28858065273528255 0.012227770321786798 0.43300764471881686 0.44557280704020952 0.45582974105310603 0.10608143057673494 0.16060554758691964 -0.14381543086315263 -0.20549325680757141 -0.27260509767691149 -0.52506932824223229 0.52855576454938424 -0.48682397836504793 -0.51229577158761253 -0.44980140573990385
leaf_count=7 6 6 10 8 11 7 54 6 8 6 11 61 19 6 7 6 6 6 6 6 7 6 6
internal_value=0 -0.773334 0.431399 0.597935 -0.00147392 -0.513372 -1.20222 0.485583 -0.405383 1.00305 0.151263 1.22166 1.11158 1.1562 1.32844 -1.20361 -1.21991 -1.36081 -1.39854 1.53143 -1.35947 -1.51355 -1.56539
internal_count=282 103 179 153 60 26 85 43 18 93 19 74 25 18 68 19 17 79 73 12 61 13 12
shrinkage=0.313943


Tree=3
num_leaves=21
num_cat=0
split_feature=14 140 156 317 350 268 16 296 279 387 171 120 308 308 183 265 107 39 395 236
split_gain=12.4901 12.8008 4.49934 4.02999 3.79083 4.2419 3.16494 3.15269 4.42419 2.5606 3.91275 2.48192 2.28042 1.05691 0.285797 0.280152 0.238259 0.00456951 0.00298386 0.001179
threshold=0.024868437827250001 0.060441758739450006 0.040178087793300003 0.037148930155550007 0.076778945736050014 0.032525870076950007 0.026716841173500004 0.08011515424890002 0.064113050725900012 0.043569841824400012 0.0060910883525700016 0.046188847652500011 0.037264088720950002 0.050593583623600009 0.023140377761100003 0.049145274075450003 0.037692339261150003 0.063919755610600024 0.037804084717100006 0.036745558893200005
decision_type=2 2 2 2 2 2 2 2 2 2 2 2 2 2 2 2 2 2 2 2
left_child=2 3 -1 -2 5 -4 -3 8 11 15 -11 -6 18 14 -8 -9 -5 -16 -7 -18
right_child=1 6 4 16 7 12 13 9 -10 10 -12 -13 -14 -15 17 -17 19 -19 -20 -21
leaf_value=-0.41351346030387393 -0.30907607595564734 0.12800966750719428 0.39054562990156605 0.23568819026236826 -0.14718727367076223 -0.44878511201995641 -0.54409686088197762 0.21213155056709659 -0.35819368039677624 0.43408373029975933 -0.099640919349014007 0.48015771319803213 0.10404482576638517 -0.096285283222474302 -0.38625542787339462 0.39944847964532049 0.40413701347824982 -0.42517287823390915 -0.39112820414309457 0.45528821265958586
leaf_count=8 6 8 9 6 6 6 7 6 11 12 19 9 6 7 61 61 11 9 8 6
internal_value=0 -0.606252 0.437705 0.766901 0.531703 -0.239783 -1.07764 0.721374 -0.000381533 0.93132 0.382146 0.826404 -0.798833 -1.22214 -1.30879 1.22171 1.22147 -1.24974 -1.34046 1.35403
internal_count=282 121 161 29 153 29 92 124 26 98 31 15 20 84 77 67 23 70 14 17
shrinkage=0.313943


Tree=4
num_leaves=22
num_cat=0
split_feature=14 154 247 366 122 262 198 243 150 70 100 7 292 74 76 42 158 160 379 392 289
split_gain=7.9128 8.62153 3.13716 4.84345 2.78574 3.14556 2.4522 2.44814 2.29854 2.62455 2.26134 3.55871 1.30842 1.16101 0.82762 0.440939 0.242227 0.030081 0.0130653 0.00308833 0.00279053
threshold=0.024868437827250001 0.067868009851450015 0.037089316853300004 0.053810088849200001 0.049378322022800007 0.064182650970650013 0.047544179381500011 0.030305846079600005 0.054807601974350008 0.05052213179775001 0.042791865064400005 0.020212642652850003 0.082472257679800001 0.072318256234850012 0.077216731954300011 0.045661327155400007 0.05500335826665001 0.034907675624150002 0.070593534496600011 0.04807377231180001 0.061712198546950009
decision_type=2 2 2 2 2 2 2 2 2 2 2 2 2 2 2 2 2 2 2 2 2
left_child=2 4 8 13 5 -2 16 -5 9 -1 11 12 -10 17 19 -9 -3 -4 -18 -12 -6
right_child=1 6 3 7 20 -7 -8 15 10 -11 14 -13 -14 -15 -16 -17 18 -19 -20 -21 -22
leaf_value=0.36274293427117332 -0.43475554236730773 -0.183323594555245 -0.37756536184757433 -0.19777248188999572 0.42906180082008055 0.28124138014405914 0.18821004581506703 0.15055168132181523 0.38811011450254224 -0.32784734652021963 0.36825950742525598 -0.39258103292615426 -0.043943296662363768 0.017500081700564066 0.11264507595355834 0.45026962471161963 -0.37049575948050339 -0.4627684189759847 -0.42406343341464947 0.40595318018712179 0.37409558901045958
leaf_count=7 8 6 9 8 6 9 6 6 14 10 50 8 6 6 11 9 69 7 6 10 11
internal_value=0 -0.53417 0.381071 -0.178311 0.554582 -0.219193 -1.02336 0.633984 0.627972 -0.27664 0.789063 0.187902 0.765425 -1.03529 1.07092 1.17532 -1.15836 -1.34825 -1.20087 1.19975 1.2709
internal_count=282 121 161 45 34 17 87 23 116 17 99 28 20 22 71 15 81 16 75 60 17
shrinkage=0.313943


Tree=5
num_leaves=21
num_cat=0
split_feature=16 140 296 365 123 174 318 132 235 144 155 325 10 366 65 167 253 330 143 381
split_gain=5.5095 5.86075 2.53375 2.98891 2.96379 2.21419 2.09348 2.25809 1.89543 1.87323 1.66983 1.09833 0.790229 0.72369 0.466428 0.396122 0.320038 0.103459 0.0973108 0.0224886
threshold=0.025113730819800003 0.064821565874150014 0.082857287663850018 0.056213608031950003 0.020124378959500002 0.053816813669150004 0.036502430082400006 0.064734783267450011 0.04369919966820001 0.061065418090650005 0.086896410306200003 0.011498503413850001 0.041422239554600011 0.062870392739250006 0.064069608991400004 0.041353365784100003 1.0000000180025095e-35 0.023518735655750005 0.072328682691150017 0.023276479397250003
decision_type=2 2 2 2 2 2 2 2 2 2 2 2 2 2 2 2 2 2 2 2
left_child=2 6 3 14 -4 15 7 18 -8 10 -3 -6 17 -7 -1 -5 -11 -13 -2 -18
right_child=1 9 4 5 11 13 8 -9 -10 16 -12 12 -14 -15 -16 -17 19 -19 -20 -21
leaf_value=-0.3900728339136455 -0.3936367957892849 0.37101515491025067 -0.36832053826450728 0.10174906375813293 -0.033011089149333296 0.085269140048766401 0.36367202681348804 0.35125585881395366 -0.19265825516737098 -0.10060760585522913 -0.30715339147037501 0.22257841175256604 0.023942823642657162 -0.36906851352104991 -0.089608167660230262 0.38895548190536311 -0.41873214475990733 0.36810585873622365 -0.22976374084102535 -0.35284499756105919
leaf_count=13 6 6 6 6 8 6 27 7 6 6 6 6 6 6 6 14 6 58 6 71
internal_value=0 -0.422681 0.4141 -0.0726119 0.741253 0.461099 0.343192 -0.401678 0.804287 -0.913547 0.142046 0.903766 1.02746 -0.550854 -0.947776 1.01101 -1.09997 1.13434 -1.038 -1.15189
internal_count=282 147 135 51 84 32 52 19 33 95 12 78 70 12 19 20 83 64 12 77
shrinkage=0.313943


Tree=6
num_leaves=17
num_cat=0
split_feature=14 154 156 188 295 333 187 27 33 350 98 184 212 86 386 198
split_gain=3.67269 4.18064 2.02189 1.45701 1.33484 1.76458 1.54956 1.40127 1.02126 0.985356 1.4906 0.749479 0.743879 0.714204 0.479077 0.197254
threshold=0.024868437827250001 0.060232026839400009 0.040178087793300003 0.05696437981195001 0.08570793521895001 0.033804857306550008 0.032479076685000004 0.024270308612900002 0.063770117516600014 0.078301790598350005 0.06448691657955001 0.031497522558250009 0.044501890242300009 0.061020571391400012 0.035966030546550003 0.045906295090150005
decision_type=2 2 2 2 2 2 2 2 2 2 2 2 2 2 2 2
left_child=2 11 -1 8 5 12 -7 -6 15 10 -9 -2 -4 -8 -11 -3
right_child=1 3 4 -5 7 6 13 9 -10 14 -12 -13 -14 -15 -16 -17
leaf_value=-0.35983525041241782 -0.05542629564623322 -0.34613085717885111 -0.37654564806840929 0.19561955400506573 -0.2122404421063569 -0.29133354214994062 0.33744441879191001 0.34230924631455611 0.082872770793478545 0.35226364535914478 -0.35977612247542651 0.35883847708218075 0.048993787981476578 -0.0078222493448784295 0.18558575601999328 -0.14721166551377526
leaf_count=8 6 80 11 7 8 7 17 7 6 48 6 15 6 8 35 7
internal_value=0 -0.468942 0.30975 -0.803426 0.400711 0.00543484 0.425017 0.63599 -0.932079 0.754322 -0.0867632 0.774994 -0.776784 0.751183 0.895597 -1.04912
internal_count=282 121 161 100 153 49 32 104 93 96 13 21 17 25 83 87
shrinkage=0.313943


Tree=7
num_leaves=19
num_cat=0
split_feature=90 147 388 295 223 64 108 32 170 390 335 70 347 177 225 267 17 168
split_gain=2.61368 2.14953 1.97249 1.78454 1.49543 1.424 1.39761 1.33986 1.3053 1.23262 1.24413 0.941079 0.323748 0.32273 0.2439 0.169449 0.0678272 0.0485047
threshold=0.043750903973300011 0.071680940299650012 0.017619214173550005 0.079952762855850013 0.061638108580500006 0.036266250636250004 0.046058164037700002 0.057066948372500009 0.047686554454700013 0.024063949677700005 0.028345748048300003 0.064671737836700008 0.070855440058900002 0.036232018416050012 0.042470705881750011 0.059235230076650006 0.028454800054250003 0.062645229485750006
decision_type=2 2 2 2 2 2 2 2 2 2 2 2 2 2 2 2 2 2
left_child=3 4 6 -1 8 7 -3 15 17 14 -11 -8 -5 -7 -10 -4 -9 -2
right_child=1 2 5 12 -6 13 11 16 9 10 -12 -13 -14 -15 -16 -17 -18 -19
leaf_value=-0.29791037111730267 0.34834679355079406 -0.26408569505180934 -0.062157678582664889 0.029384218364961048 -0.3185626817640077 -0.084217189235556447 0.34746449604214014 0.33702230991376653 0.06574914774915476 0.16880158319182398 -0.29438850498021363 -0.17737480093486641 0.34308020531952282 -0.34398030298794047 0.34803270447123985 -0.34058657825816602 0.14366691539989782 0.19383329785617551
leaf_count=8 24 10 6 6 9 8 18 9 6 10 14 6 43 73 11 9 6 6
internal_value=0 -0.176255 -0.472838 0.722024 0.257579 -0.745741 0.254597 -0.00441401 0.430955 0.0755006 -0.360745 0.724723 0.987022 -1.01241 0.817706 -0.796859 0.874568 1.04792
internal_count=282 225 145 57 80 111 34 30 71 41 24 24 49 81 17 15 15 30
shrinkage=0.313943


Tree=8
num_leaves=18
num_cat=0
split_feature=1 114 256 122 295 247 144 225 167 114 168 307 252 353 118 280 326
split_gain=2.00755 1.77232 1.41348 1.17754 1.09811 1.12582 1.00257 0.982287 1.08549 0.908212 0.830594 0.751134 0.853092 0.518613 1.09097 0.465015 0.103114
threshold=0.034137368176650008 0.045576037245500002 0.053026839654000006 0.050929198785400011 0.08570793521895001 0.036466816494800006 0.068581932082300012 0.056722001975650006 0.056902636033250006 0.035287030623800002 0.062645229485750006 0.040517435915950008 0.040059683878300008 0.091483393572850014 0.053413417171100007 0.052369542707150003 -1.0000000180025095e-35
decision_type=2 2 2 2 2 2 2 2 2 2 2 2 2 2 2 2 2
left_child=4 2 16 6 7 13 -3 8 11 -4 -7 -1 -13 14 -6 -9 -2
right_child=1 3 9 -5 5 10 -8 15 -10 -11 -12 12 -14 -15 -16 -17 -18
leaf_value=0.3399250715761889 -0.1189482046914199 0.25659107280060739 -0.25179972819324742 0.33813484850540981 -0.26296541260662232 -0.33432480055342156 -0.35772967971744701 0.047997335549243826 -0.27839552371281812 0.33885398589724591 0.18340359822222596 0.28481165702327288 -0.36897345673155874 0.33554112473169811 0.32983395712775188 -0.3436495753347189 -0.33553197072776808
leaf_count=19 6 6 7 17 7 10 10 6 8 9 9 6 6 56 15 14 71
internal_value=0 -0.405074 -0.741853 0.34166 0.298358 0.594615 -0.387482 -0.0878121 0.27021 0.287119 -0.252777 0.617856 -0.156005 0.838739 0.297856 -0.74572 -1.02403
internal_count=282 126 93 33 156 97 16 59 39 16 19 31 12 78 22 20 77
shrinkage=0.313943


Tree=9
num_leaves=19
num_cat=0
split_feature=1 127 350 268 81 374 263 296 190 15 36 217 186 99 152 371 232 113
split_gain=1.37395 1.27606 0.831336 0.910186 0.795684 0.757454 0.718151 0.775415 0.994084 0.937187 0.603184 0.523598 0.50522 0.226593 0.204223 0.0855158 0.0235214 0.0129533
threshold=0.034137368176650008 0.041992166063250007 0.076778945736050014 0.032525870076950007 0.091738491486650017 0.066280852500200008 0.06860849873335001 0.081053820928400008 0.031395212473700009 0.023009030948750005 0.038969614725150002 0.030248599936550002 0.073841949611100008 0.066408799227800019 0.07288998963075001 0.066840291577700009 0.054487860033050006 0.036751137928850007
decision_type=2 2 2 2 2 2 2 2 2 2 2 2 2 2 2 2 2 2
left_child=2 5 3 -1 11 16 7 10 9 -9 -4 -3 -8 -5 -13 -10 -2 -12
right_child=1 4 6 13 -6 -7 12 8 15 -11 17 14 -14 -15 -16 -17 -18 -19
leaf_value=0.32193207045635641 -0.33170922500671962 -0.16450415755076242 0.22408164330242678 -0.064658827491128681 -0.32190420146678644 0.037628009044241018 0.33146770923308305 0.31932808044777877 0.3329896278932935 -0.34768889342494147 -0.19768278730776734 0.33224116600734499 -0.10831155642355501 -0.3433803235562653 0.048172564995751975 0.1201822459975574 -0.1982294843643789 -0.33292768211098595
leaf_count=9 65 7 7 9 10 11 48 9 25 8 6 20 6 12 7 6 6 11
internal_value=0 -0.383436 0.278021 -0.355569 0.227783 -0.768886 0.452841 0.166523 0.4765 -0.357829 -0.539483 0.531005 0.881905 -0.761088 0.823008 0.958084 -1.02442 -0.982339
internal_count=282 126 156 30 44 82 126 72 48 17 24 34 54 21 27 31 71 17
shrinkage=0.313943


Tree=10
num_leaves=19
num_cat=0
split_feature=16 144 147 325 341 247 366 329 282 47 335 312 109 392 103 253 175 329
split_gain=1.04679 1.05439 0.914757 0.879595 0.762691 0.735262 0.837889 0.647696 0.586401 0.540023 0.383271 0.269616 0.242411 0.161468 0.0881451 0.0541324 0.0170852 0.0130941
threshold=0.025113730819800003 0.061065418090650005 0.065329086950700013 0.0087151799023650021 0.1092876507915 0.036466816494800006 0.053810088849200001 0.053333052885650011 0.076759364458750021 0.056222884167200012 0.034500458895100006 0.028997451725950005 0.041148020805850005 0.054520965979750008 0.040212653508050006 0.0082657931271700024 0.051101293391300005 0.050415378494850012
decision_type=2 2 2 2 2 2 2 2 2 2 2 2 2 2 2 2 2 2
left_child=3 4 -3 -1 14 8 11 15 9 -5 -8 -7 -9 16 -2 -4 -10 -17
right_child=1 2 7 5 -6 6 10 12 13 -11 -12 -13 -14 -15 -16 17 -18 -19
leaf_value=-0.29622770101464735 0.069559302453484559 0.31881555989431948 -0.1569131880534213 0.21274397166608366 -0.28852252065073392 0.0054597518187336613 0.33035917267347459 0.31655792911788433 0.32851470579431508 -0.32386454068349152 -0.11208341923137317 -0.33964600682293744 -0.20696086149534149 0.046804127251448176 0.32466990852759198 -0.3281262676178231 0.19729725909401416 -0.19033400509653975
leaf_count=8 6 8 9 10 8 8 12 7 59 7 7 11 6 7 22 74 6 7
internal_value=0 -0.352082 -0.642486 0.289829 0.433286 0.415934 -0.080995 -0.805404 0.703142 -0.0762355 0.618357 -0.715862 0.423593 0.932735 0.883692 -0.975662 1.01683 -1.02372
internal_count=282 147 111 135 36 127 38 103 89 17 19 19 13 72 28 90 65 81
shrinkage=0.313943


Tree=11
num_leaves=15
num_cat=0
split_feature=98 184 251 156 15 120 366 388 203 165 340 32 59 300
split_gain=0.741269 0.763817 0.59152 0.595095 0.585734 0.563941 0.57216 0.41127 0.38218 0.261516 0.260596 0.210022 0.0665979 0.03593
threshold=0.047582001841750009 0.031497522558250009 0.027913803368100006 0.069708691846500012 0.023009030948750005 0.080160803296550009 0.053810088849200001 0.034742166870000007 0.046910879599050007 0.050257508017150003 0.039056747777700011 0.03559323123815001 0.059733589902700009 0.048092459355400012
decision_type=2 2 2 2 2 2 2 2 2 2 2 2 2 2
left_child=10 12 7 5 8 6 -4 11 -5 -6 -1 -3 -2 -12
right_child=1 2 3 4 9 -7 -8 -9 -10 -11 13 -13 -14 -15
leaf_value=-0.083630468967162447 -0.3259212056108346 -0.068097750812300434 -0.091358986125372743 -0.30686469190446436 -0.32176060902330617 -0.32638735356269677 0.23441449892272906 -0.23043791984187345 0.27303136561819014 0.033658662355706449 0.32256105633883825 0.32262718218336311 -0.041571508031116713 0.12145972414170693
leaf_count=6 29 6 26 6 59 7 40 7 14 6 29 35 6 6
internal_value=0 -0.122963 0.0103885 -0.153603 -0.546448 0.168954 0.350601 0.614028 0.345302 -0.854976 0.732889 0.850718 -0.947729 0.94984
internal_count=282 241 206 158 85 73 66 48 20 65 41 41 35 35
shrinkage=0.313943


Tree=12
num_leaves=14
num_cat=0
split_feature=105 25 382 220 229 196 164 84 350 120 235 342 154
split_gain=0.483615 0.602286 0.594985 0.505804 0.463169 0.377098 0.4121 0.323874 0.322961 0.231538 0.174389 0.167834 0.0424843
threshold=0.021330195487850003 0.038257891375800004 0.022276382702700003 0.062923795111600012 0.053728605419650008 0.057330990062400007 0.057716464113850008 0.069164270000550018 0.067337956392650014 0.034099503951650005 0.053027846668950003 0.098926225350800021 0.082578305161700019
decision_type=2 2 2 2 2 2 2 2 2 2 2 2 2
left_child=11 8 9 5 -5 7 -7 -4 -2 -3 -11 -1 -10
right_child=1 2 3 4 -6 6 -8 -9 12 10 -12 -13 -14
leaf_value=0.072483740636417437 -0.18612165475211875 -0.098266474757027336 0.032542181830159118 0.31778899087290113 -0.17344929279671908 -0.18902092954650174 0.31682607735321822 -0.265189209327024 0.32145936436599742 0.31955259428440769 -0.048621791281354791 -0.30892063684652954 0.11225904348968149
leaf_count=6 8 6 20 22 9 13 12 83 33 33 6 24 7
internal_value=0 0.0955347 -0.0632583 -0.258514 0.438461 -0.457909 0.223438 -0.652339 0.737202 0.582746 0.816164 -0.761058 0.941715
internal_count=282 252 204 159 31 128 25 103 48 45 39 30 40
shrinkage=0.313943


Tree=13
num_leaves=18
num_cat=0
split_feature=90 89 293 262 133 108 36 196 32 339 147 102 105 28 188 321 318
split_gain=0.452435 0.388681 0.495635 0.402696 0.371584 0.331702 0.321044 0.233815 0.227965 0.208475 0.159351 0.301332 0.164801 0.0974574 0.049738 0.0452935 0.0247699
threshold=0.043750903973300011 0.057253227404350009 0.085154480212950009 0.056794729335150007 0.057551795405700011 0.050515135753450006 0.059819757456300006 0.035087018512900005 0.029919966885850004 0.034251846142000004 0.067515591224950003 0.029493679206750004 0.05328827146400001 0.057090944533300006 0.034378133278550001 0.029974460178400004 0.047638137097800008
decision_type=2 2 2 2 2 2 2 2 2 2 2 2 2 2 2 2 2
left_child=7 10 3 6 8 16 14 -1 -5 -9 11 -2 -13 -7 -3 -11 -4
right_child=1 2 5 4 -6 13 -8 9 -10 15 -12 12 -14 -15 -16 -17 -18
leaf_value=0.30584645801162369 -0.32123662299857103 -0.31962897969678761 -0.31765852878066053 -0.04054267634318149 -0.30492848804983641 -0.17227627563678632 0.24125686927956741 -0.24593859705326937 0.26346706024310601 0.30104596343259638 -0.31583972473218896 0.30890550778579334 -0.13526481092774478 0.30261868370615125 -0.061962535237580087 -0 -0.12137488992412965
leaf_count=34 6 18 30 14 6 6 8 7 65 10 38 8 6 7 7 6 6
internal_value=0 -0.132544 0.04368 0.28036 0.525232 -0.596937 -0.403638 0.602729 0.664659 -0 -0.627132 -0.255331 0.387212 0.532265 -0.833063 0.663099 -0.926802
internal_count=282 225 167 118 85 49 33 57 79 23 58 20 14 13 25 16 36
shrinkage=0.313943


Tree=14
num_leaves=18
num_cat=0
split_feature=16 140 154 67 226 3 130 72 59 146 231 340 210 94 32 367 256
split_gain=0.332266 0.45569 0.325147 0.254484 0.243312 0.217554 0.206198 0.208233 0.235872 0.195765 0.187357 0.184311 0.116626 0.0450774 0.0336039 0.0116665 0.00817452
threshold=0.025113730819800003 0.064821565874150014 0.05170273413060001 0.034625575160250006 0.057182830384200009 0.015304119182550003 0.051637805726750009 0.05755707484425001 0.036162960473150006 0.08317755419105001 0.052942133363850008 0.089367092881700014 0.044565894253650006 0.056705266162350006 0.037431258355700006 0.053647232413050007 0.017786727640900005
decision_type=2 2 2 2 2 2 2 2 2 2 2 2 2 2 2 2 2
left_child=2 4 11 -4 12 -3 7 8 -5 15 -9 -1 -2 -7 -8 -6 -14
right_child=1 5 3 6 9 13 14 10 -10 -11 -12 -13 16 -15 -16 -17 -18
leaf_value=-0.31585534058009684 -0.087521805385929088 0.13279973158004466 -0.23902904334837011 -0.040494050257246159 -0.1145379341542186 -0.0858352446561121 0.10147409677261514 0.1955032614304176 0.28345100555011105 0.28618045499004635 -0.30947073308408191 0.17380491416025262 0.1283859155815032 -0.31530430090773381 0.31644487056923243 -0.30889498472450821 0.31259282789761278
leaf_count=10 6 7 8 16 6 9 8 7 31 7 10 6 6 79 39 7 20
internal_value=0 -0.315248 0.240455 0.394519 0.238421 -0.74855 0.497892 0.239871 0.485157 -0.409488 -0.451475 -0.602075 0.686623 -0.920114 0.917165 -0.837734 0.92318
internal_count=282 147 135 119 52 95 111 64 47 20 17 16 32 88 47 13 26
shrinkage=0.313943


Tree=15
num_leaves=17
num_cat=0
split_feature=14 144 325 221 178 20 266 110 32 14 50 50 380 366 115 193
split_gain=0.242805 0.375726 0.217538 0.24652 0.200821 0.19586 0.170475 0.162691 0.134987 0.131004 0.0934468 0.0814625 0.0624395 0.0578109 0.0553621 0.0471617
threshold=0.024868437827250001 0.062479444574400009 0.0087151799023650021 0.057534198722550008 0.065243692974850012 0.066664451827250018 0.040528296756550009 0.068906637428000017 0.06185280719100001 0.015317577993850001 0.058533969203750001 0.065808046349600011 0.057635781046600006 0.064977492626900016 0.042558762124450006 0.046229387986150013
decision_type=2 2 2 2 2 2 2 2 2 2 2 2 2 2 2 2
left_child=2 5 13 6 9 14 8 15 -4 10 -5 12 -8 -1 -2 -3
right_child=1 7 3 4 -6 -7 11 -9 -10 -11 -12 -13 -14 -15 -16 -17
leaf_value=0.048217167601001254 -0 -0.31366460559423548 -0.2992701172791814 -0.25954983986664104 0.29903054265861284 -0.28825745193614033 0.30475176057581133 0.21418390937086945 0.17170764108871284 0.21978826574566498 0.026604092022376871 -0.069943991505487954 0.13022730932252533 -0.30876775697291153 0.30890436466623705 -0.080298020695429767
leaf_count=6 7 75 7 21 9 6 53 8 9 7 10 6 26 7 17 8
internal_value=0 -0.36004 0.190277 0.293447 -0.15646 0.415531 0.553347 -0.752828 -0.219234 -0.392864 -0.578489 0.716531 0.7923 -0.718833 0.766158 -0.888244
internal_count=282 121 161 148 47 30 101 91 16 38 31 85 79 13 24 83
shrinkage=0.313943


Tree=16
num_leaves=17
num_cat=0
split_feature=80 350 184 234 114 90 17 169 41 199 55 59 363 177 345 324
split_gain=0.193533 0.192592 0.235142 0.191274 0.187216 0.25524 0.205069 0.15624 0.175292 0.162428 0.136168 0.0778327 0.0223629 0.0153727 0.0130356 0.00274407
threshold=0.052340266495100006 0.078301790598350005 0.031497522558250009 0.059346551664400012 0.045576037245500002 0.066875321101600008 0.025332766017100005 0.053783348486800005 1.0000000180025095e-35 0.029691032761600004 0.017689369527350004 0.059031406962250003 0.043961198106950004 0.038029969331350007 0.094770000265850016 0.034364679938350011
decision_type=2 2 2 2 2 2 2 2 2 2 2 2 2 2 2 2
left_child=3 10 12 7 5 11 -7 8 -1 15 -2 -4 -3 -12 -6 -9
right_child=1 2 4 -5 14 6 -8 9 -10 -11 13 -13 -14 -15 -16 -17
leaf_value=-0.2683843195037105 0.19449996134712749 -0.0099773120361891787 -0.30364755843595398 -0.23401254919631964 0.30743197945714179 0.24285606212981214 -0.15043101768279965 0.28670056935406124 0.31283837460941366 -0.23760731873736976 -0.064311692557850811 0.13231921087813933 -0.30740361535881788 -0.31116523395410456 0.069760731107144217 0.092221825134136001
leaf_count=6 6 6 23 9 21 28 22 7 54 11 7 7 18 45 6 6
internal_value=0 -0.186024 0 0.359138 0.191498 -0.035015 0.354272 0.533323 0.823667 -0.0822822 -0.725666 -0.767835 -0.858938 -0.925568 0.885444 0.773739
internal_count=282 189 131 93 107 80 50 84 60 24 58 30 24 52 27 13
shrinkage=0.313943


Tree=17
num_leaves=17
num_cat=0
split_feature=1 250 127 361 155 80 81 378 287 199 162 238 82 262 48 392
split_gain=0.151144 0.182187 0.18081 0.133356 0.218732 0.175681 0.112856 0.112424 0.104657 0.101158 0.092301 0.0278174 0.0223981 0.0212654 0.00836475 0.00805671
threshold=0.034137368176650008 0.018679601633050002 0.04106808968085001 0.064535267559700002 0.053384741222750005 0.05516732704990001 0.091738491486650017 0.062572856814350014 0.076849767429750013 0.034890256789750003 0.055619549890650009 0.055227487796300011 0.064796030458800016 0.062201810422450009 0.059513947010450007 0.014577565826700003
decision_type=2 2 2 2 2 2 2 2 2 2 2 2 2 2 2 2
left_child=1 8 10 5 -5 7 9 11 -1 -4 15 -3 -11 -6 -7 -2
right_child=2 3 6 4 13 14 -8 -9 -10 12 -12 -13 -14 -15 -16 -17
leaf_value=-0.062184431293438952 -0.059832478695399358 0.29613023063188848 -0.19336553619445671 -0.19181064782978102 0.015072563497263335 -0.30802219950520549 -0.28059926331282781 -0.23568350293039789 0.30051986837145761 0.30138119403101316 0.03247842392506977 0.013595713171915231 0.065042119850352367 0.30665725488828716 -0.12517113971854729 -0.30951892395349806
leaf_count=8 6 12 7 10 6 23 12 7 47 21 9 6 9 31 6 62
internal_value=0 0.197433 -0.330308 -0.0422462 0.36906 -0.368594 0.186631 0.236353 0.717133 0.461227 -0.726901 0.670903 0.758036 0.873249 -0.87932 -0.942599
internal_count=282 156 126 101 47 54 49 25 55 37 77 18 30 37 29 68
shrinkage=0.313943


Tree=18
num_leaves=14
num_cat=0
split_feature=93 217 268 325 362 390 242 111 345 231 262 175 3
split_gain=0.112682 0.132243 0.149668 0.111406 0.118151 0.111955 0.0750257 0.0718041 0.114692 0.0887896 0.0656862 0.0548011 0.00224197
threshold=0.036979150529200006 0.033851295722100008 0.038070153912400005 0.0087151799023650021 0.05669991136070001 0.056346316360500005 0.025949435006650003 0.053999262913650009 0.092060040443400007 0.069217457025200019 0.064896941754900017 0.04637264062375001 0.027326568855950004
decision_type=2 2 2 2 2 2 2 2 2 2 2 2 2
left_child=-1 2 12 11 5 10 -4 9 -9 -6 -5 -3 -2
right_child=1 3 6 4 7 -7 -8 8 -10 -11 -12 -13 -14
leaf_value=0.29372344385891541 0.26765635050833192 -0.29841057684676631 0.082203640155213836 -0.21844457259647088 0.24624472201516862 0.24022936269854836 -0.30843932835543292 -0.24317881126721308 0.23997459302847446 -0.13379747475514728 0.13823256828747138 0.094039121111560098 0.056242565813327393
leaf_count=20 6 16 9 43 67 12 55 10 16 6 10 6 6
internal_value=0 -0.0648452 -0.535804 0.0935896 0.210122 -0.213431 -0.802201 0.45278 -0.0684293 0.636048 -0.488166 -0.642259 0.69548
internal_count=282 262 76 186 164 65 64 99 26 73 53 22 12
shrinkage=0.313943


Tree=19
num_leaves=17
num_cat=0
split_feature=98 184 353 89 366 247 351 21 202 324 14 25 151 255 31 268
split_gain=0.0894033 0.105182 0.0909861 0.121926 0.0907281 0.115267 0.0792731 0.0666679 0.0664219 0.0616481 0.0596934 0.057245 0.0465586 0.0229176 0.0214959 0.0133451
threshold=0.047582001841750009 0.031497522558250009 0.096664243745800016 0.057253227404350009 0.053810088849200001 0.037922117594850001 0.15283764367800004 0.060170234275850006 0.049998945211450006 0.026056546912200006 0.021263415087150003 0.064142984403500011 0.064680080290950015 0.041499027569550005 0.039828812721250002 0.041954541575000011
decision_type=2 2 2 2 2 2 2 2 2 2 2 2 2 2 2 2
left_child=9 15 4 8 11 12 7 -5 10 -1 -4 14 -6 -10 -3 -2
right_child=1 2 3 6 5 -7 -8 -9 13 -11 -12 -13 -14 -15 -16 -17
leaf_value=-0.082525034443716602 -0 -0 0.2748085875135089 0.29400561347963783 -0.286858592422083 0.27303841015963332 -0.24603651761525669 0 0.020779132021465675 0.2977443893643012 -0.23508261595836219 0.13191424910410884 0.092156171450459387 -0.29648349704708671 -0.30424395463885839 -0.29791141359709766
leaf_count=8 7 9 9 51 9 14 9 22 6 33 6 7 11 9 44 28
internal_value=0 -0.092465 0.00960649 0.257546 -0.30015 0.14262 0.562945 0.691258 -0.334292 0.622407 0.304396 -0.682987 -0.492326 -0.775317 -0.854696 -0.840199
internal_count=282 241 206 112 94 34 82 73 30 41 15 60 20 15 53 35
shrinkage=0.313943


Tree=20
num_leaves=18
num_cat=0
split_feature=16 142 296 342 225 195 397 160 317 398 33 94 150 323 42 352 390
split_gain=0.0802286 0.10743 0.0791657 0.0927739 0.0900666 0.0745135 0.0727624 0.05998 0.0707699 0.0589284 0.0326241 0.0298066 0.0167515 0.0127798 0.0127521 0.010494 0.00125515
threshold=0.025113730819800003 0.058100163529800006 0.082857287663850018 0.10054399642900001 0.042470705881750011 0.020273893428800004 0.040323190764650012 0.040554510534600005 0.039191184791900008 0.018247769095200001 0.049818165176150002 0.044688168294250007 0.076458878112600007 0.019743966012400003 0.042149535770900005 0.13948638892500001 0.039694948378450008
decision_type=2 2 2 2 2 2 2 2 2 2 2 2 2 2 2 2 2
left_child=2 12 6 13 16 -3 7 14 -9 10 -7 -11 -2 -4 -1 -13 -5
right_child=1 5 3 4 -6 9 -8 8 -10 11 -12 15 -14 -15 -16 -17 -18
leaf_value=-0 0.27953752550998762 0.24728818217395501 0.018066754792589027 0.26505485251436361 -0.24929835268761702 -0.19986607440764481 0.26972123617096905 -0.17173363140287481 0.27534783267637758 0.020033323122851908 0.25183761280947659 -0.30259968444711954 -0.031298302487067317 0.30373423050338899 -0.29446290159233313 -0.09072570913886506 0.031537929738533692
leaf_count=6 17 7 7 14 11 6 10 9 9 6 11 83 6 46 17 11 6
internal_value=0 -0.300636 0.214787 0.517293 -0.0957954 -0.505061 -0.142505 -0.364135 0.109115 -0.632834 0.26097 -0.788057 0.695872 0.887976 -0.803873 -0.878183 0.733264
internal_count=282 147 135 84 31 124 51 41 18 117 17 100 23 53 23 94 20
shrinkage=0.313943


Tree=21
num_leaves=17
num_cat=0
split_feature=1 295 247 127 333 374 185 315 194 45 347 36 194 64 14 351
split_gain=0.0588713 0.0623415 0.0643139 0.0622482 0.0534024 0.0474169 0.0471238 0.0438986 0.0384093 0.0341286 0.03116 0.0256849 0.0251791 0.0241202 0.0238257 0.012994
threshold=0.034137368176650008 0.08570793521895001 0.037089316853300004 0.04106808968085001 0.033804857306550008 0.066280852500200008 0.037647230723700006 0.043029845769350004 0.043545739329800007 0.051634664250300007 0.070855440058900002 0.036896454054600007 0.03265340992755001 0.054221659409250007 0.028107583094600003 0.083723474949900012
decision_type=2 2 2 2 2 2 2 2 2 2 2 2 2 2 2 2
left_child=1 4 10 5 11 -2 15 12 -8 -4 -3 -1 -6 -9 -12 -5
right_child=3 2 9 6 7 -7 8 13 -10 -11 14 -13 -14 -15 -16 -17
leaf_value=0.088236232511742591 -0.29819411034261822 -0.047220020628167228 -0.22362327622232209 0.27592358966523961 -0.075096918388048731 0.017341306221980435 -0.26927773935302401 0.070484748153067545 0.12571123431207665 0.18074563823616338 0.30220578738043674 -0.26863541309123762 0.28296042741637473 -0.25792915767098012 -0.049260253630032495 -0
leaf_count=6 66 7 11 17 6 11 18 7 8 6 67 18 16 6 6 6
internal_value=0 0.197019 0.496645 -0.304966 -0.136737 -0.663295 0.1366 0.208534 -0.339765 -0.252352 0.748682 -0.654619 0.655604 -0.333947 0.873965 0.688886
internal_count=282 156 97 126 59 77 49 35 26 17 80 24 22 13 73 23
shrinkage=0.313943


Tree=22
num_leaves=18
num_cat=0
split_feature=80 335 325 217 3 159 226 78 333 105 198 305 144 208 371 384 14
split_gain=0.0480128 0.0471469 0.0518208 0.0488739 0.0396651 0.0443073 0.0476675 0.0382253 0.0409671 0.0350591 0.0343278 0.0208788 0.0172666 0.00987548 0.00924124 0.00708643 0.00292849
threshold=0.052340266495100006 0.029067780492650002 1.0000000180025095e-35 0.033851295722100008 0.040419971717350005 0.057141386734700005 0.057939783620250006 0.048476723401650011 0.041442411724850005 0.045090861349500008 0.037198518106000007 0.044235594402900001 0.079189152104750013 0.030728078629950004 0.054823180393400006 0.05787437151940001 0.024195199258950004
decision_type=2 2 2 2 2 2 2 2 2 2 2 2 2 2 2 2 2
left_child=4 2 -2 -4 5 6 14 10 15 12 -3 -5 -10 -11 -1 -9 -7
right_child=1 7 3 11 -6 16 -8 8 9 13 -12 -13 -14 -15 -16 -17 -18
leaf_value=0 -0.24804488055437385 -0.21025156008482496 -0.17379950353883517 0.285119241050451 -0.22460536428834038 0.29239998398026218 -0.23675834580888278 -0.29243043209901637 -0.26280997936080397 0.24177464175506358 0.22554433839066226 -0.023069568783771987 0.055982194256877865 -0.058739526279211411 0.25454358174371733 -0 0.050437181339692286
leaf_count=7 9 7 10 37 8 47 12 62 12 13 15 6 6 6 11 6 8
internal_value=0 -0.170328 0.210193 0.468267 0.3485 0.484232 -0 -0.396756 -0.565897 -0.0368272 0.231713 0.745169 -0.535109 0.577219 0.548089 -0.868632 0.854944
internal_count=282 189 62 53 93 85 30 127 105 37 22 43 18 19 18 68 55
shrinkage=0.313943


Tree=23
num_leaves=17
num_cat=0
split_feature=90 295 156 90 388 193 384 106 189 330 252 184 83 147 303 383
split_gain=0.0380821 0.0469775 0.0392409 0.0430977 0.0525828 0.0288595 0.0284267 0.0276622 0.0217289 0.0170407 0.0156962 0.0151552 0.0144828 0.0134793 0.00920733 0.00552289
threshold=0.043750903973300011 0.087032815230950009 0.085666138174700021 0.06503491883455001 0.017619214173550005 0.043863687716300011 0.04510184552290001 0.058311180265300008 0.046501846865950006 0.037182758657500002 0.051025677241100006 0.052704991560350002 0.039934586945750007 0.06300589348305001 0.034673321686300003 0.034184417195700006
decision_type=2 2 2 2 2 2 2 2 2 2 2 2 2 2 2 2
left_child=1 11 3 4 14 -6 10 12 -8 -9 -5 -1 -4 -7 -2 -10
right_child=2 -3 7 6 5 13 8 9 15 -11 -12 -13 -14 -15 -16 -17
leaf_value=-0.23283325041681699 0.25092205807565698 0.28414526303316168 0.017125150640652221 0.28541814398058329 -0.25182602748472693 0.20863893384640325 -0.22885983022778675 0.21350912026219254 -0 -0.1347372114484712 -0 0.12967933564916367 -0.28891074038258852 -0.11416138632000894 -0 0.20820746128736511
leaf_count=9 16 42 6 33 44 6 13 8 6 8 10 6 56 6 6 7
internal_value=0 0.493296 -0.121866 0.0491095 -0.248288 -0.553883 0.430543 -0.542099 -0.0766632 0.0639584 0.733559 -0.353375 -0.804267 0.122797 0.561366 0.383452
internal_count=282 57 225 147 78 56 69 78 26 16 43 15 62 12 22 13
shrinkage=0.313943


Tree=24
num_leaves=18
num_cat=0
split_feature=16 156 155 84 251 348 290 164 283 241 297 201 34 329 274 75 220
split_gain=0.0294518 0.038325 0.0288693 0.0292882 0.0257289 0.0196924 0.0175473 0.0174057 0.0161926 0.0153643 0.0115375 0.00959778 0.00865533 0.00852914 0.00693088 0.00485175 0.0023686
threshold=0.023058075990000003 0.069708691846500012 0.053384741222750005 0.086488270759100011 0.027913803368100006 0.11222533589750001 0.044997959908000006 0.049269868704700008 0.078365514512950013 0.018903481182650003 0.084748280941100013 0.043792294008400005 0.057242070809800004 0.033869627188700006 0.075494555077100026 0.055446541390350004 0.024988712812350003
decision_type=2 2 2 2 2 2 2 2 2 2 2 2 2 2 2 2 2
left_child=2 7 3 11 9 6 -4 -2 -8 15 -7 -1 -6 -9 -10 -3 -11
right_child=1 4 5 -5 12 10 8 13 14 16 -12 -13 -14 -15 -16 -17 -18
leaf_value=0 -0.15544828658212012 -0.21041116575822924 -0.054271246428124954 0.20332889818904995 -0.27940533244392396 0.090778613075194123 -0.0040622722411579881 -0 0.28260082654747282 0 -0.20601580975167372 -0.26086336061523796 -0 0.24870811039796825 0 0 0.20809009242791343
leaf_count=6 8 7 8 8 78 9 6 6 64 6 6 13 7 26 6 6 12
internal_value=0 -0.256153 0.219787 -0.25106 -0.515281 0.426775 0.577745 0.337415 0.69819 0 -0.150269 -0.608446 -0.787969 0.596553 0.824546 -0.439137 0.511642
internal_count=282 156 126 27 116 99 84 40 76 31 15 19 85 32 70 13 18
shrinkage=0.313943


Tree=25
num_leaves=17
num_cat=0
split_feature=90 184 353 379 175 3 78 14 40 162 79 368 38 375 271 327
split_gain=0.0211618 0.0216463 0.0206598 0.0312166 0.0288724 0.0197956 0.0190973 0.017739 0.0135468 0.0121429 0.00791244 0.00735966 0.00580314 0.00557801 0.00364486 0.00250794
threshold=0.043750903973300011 0.031497522558250009 0.096664243745800016 0.063937129054700018 0.04637264062375001 1.0000000180025095e-35 0.056147416281200006 0.017524418177100005 0.051780352856350007 0.050681384341050011 0.086669336002650019 0.047203917997100005 0.037290447299050004 0.064740990192750023 0.038161403757600007 0.045062143477850009
decision_type=2 2 2 2 2 2 2 2 2 2 2 2 2 2 2 2
left_child=8 14 4 11 5 -3 7 -5 10 -6 -1 -4 -8 -7 -2 -13
right_child=1 2 3 6 9 13 12 -9 -10 -11 -12 15 -14 -15 -16 -17
leaf_value=0.26445796758844509 0 0.1079779039472952 -0 0.072013571677220847 0.22975621357614973 -0.26428618236021612 -0 -0.25313388374447265 -0.046724832738394929 -0.052189142972923888 -0 0.26896846394624829 0.21132547974527141 -0 -0.25442064352749061 0
leaf_count=39 6 6 6 8 10 56 6 20 11 10 7 44 11 6 29 7
internal_value=0 -0.105276 -0 0.231261 -0.278373 -0.575854 -0.14055 -0.482317 0.467496 0.333073 0.698082 0.686421 0.413051 -0.751662 -0.714027 0.786769
internal_count=282 225 190 102 88 68 45 28 57 20 46 57 17 62 35 51
shrinkage=0.313943


Tree=26
num_leaves=20
num_cat=0
split_feature=16 140 296 342 365 174 318 303 63 388 307 388 99 120 306 180 336 13 196
split_gain=0.0169689 0.0250452 0.0222537 0.0179158 0.0176403 0.0184187 0.0128671 0.0116586 0.0082691 0.00707489 0.00528485 0.00471652 0.00353967 0.00301419 0.0029646 0.00264079 0.00250896 0.00196937 0.00147701
threshold=0.025113730819800003 0.064821565874150014 0.082857287663850018 0.10054399642900001 0.056213608031950003 0.053816813669150004 0.035455758833950003 0.025691611623550003 0.048719850023200006 0.019839235945700005 0.045893367549350007 0.046501940566000009 0.074109266863400011 0.049804901259400007 0.043237970923700013 0.032765241304650007 0.041289555675400005 0.025596069961450005 0.048299883832450007
decision_type=2 2 2 2 2 2 2 2 2 2 2 2 2 2 2 2 2 2 2
left_child=2 6 4 11 14 15 9 13 18 -2 -8 -4 -7 -3 -1 -6 -10 -9 -5
right_child=1 7 3 8 5 12 10 17 16 -11 -12 -13 -14 -15 -16 -17 -18 -19 -20
leaf_value=-0.23913573934659563 0.076453826719336829 -0.075957781049704354 0.27367862850865993 -0 0 -0.18946881460173176 0.22343344696228634 -0 0.1747637533560342 -0.18964547654547353 -0 0 0 0.12449350491779686 -0 0.23444120597487361 -0 -0.27142622308390546 -0.17788131335515003
leaf_count=13 6 7 47 6 6 6 29 8 13 11 6 6 6 6 6 14 6 74 6
internal_value=0 -0.25634 0.180498 0.489321 -0.132117 0.169414 0.170221 -0.611936 -0 -0.279332 0.533618 0.783335 -0.380385 0 -0.622325 0.626291 0.370298 -0.793657 -0.431787
internal_count=282 147 135 84 51 32 52 95 31 17 35 53 12 13 19 20 19 82 12
shrinkage=0.313943


Tree=27
num_leaves=18
num_cat=0
split_feature=217 278 369 154 296 1 145 167 240 273 372 285 51 16 3 66 4
split_gain=0.0126818 0.0162217 0.0152331 0.0201209 0.0119411 0.0115347 0.00829219 0.00991085 0.00792383 0.00611443 0.00505906 0.00499356 0.00465961 0.00310018 0.00237499 0.000896508 0.000319077
threshold=0.03257067792385001 0.043986954467150008 0.053523029174400008 0.071884392654000012 0.074871877798200023 0.016570602465500003 0.087548824363350014 0.044411801078450004 0.044834855635850011 0.039127287542950008 0.051623689608750002 0.10296258692350001 0.063407942917850013 0.0148899895109 0.039012346422000008 0.05753940406695001 0.035383076926600011
decision_type=2 2 2 2 2 2 2 2 2 2 2 2 2 2 2 2 2
left_child=1 10 4 5 13 12 7 -7 -5 15 -1 -3 -4 -2 16 -6 -11
right_child=2 11 3 8 9 6 -8 -9 -10 14 -12 -13 -14 -15 -16 -17 -18
leaf_value=-0.057802436035995886 -0.14699122760281777 -0.24649567107123566 -0.17504526360372397 -0.2491163796769523 -0.072005296142130221 -0.0094367948298334312 -0.010846109958473148 0.24949595411453182 0 0.26383090918758306 0.16975228689748884 0 0.017943822162709077 0.026603583956468543 0 0.05468102360632119 0
leaf_count=10 6 41 12 34 10 6 10 34 8 57 15 6 7 6 7 7 6
internal_value=0 -0.364496 0.109943 -0.0707505 0.43747 0.169993 0.394528 0.590913 -0.580241 0.623007 0.228567 -0.68055 -0.299686 -0.150696 0.743505 -0 0.812115
internal_count=282 72 210 111 99 69 50 40 42 87 25 47 19 12 70 17 63
shrinkage=0.313943


Tree=28
num_leaves=15
num_cat=0
split_feature=98 13 350 327 325 399 273 225 324 390 96 378 274 327
split_gain=0.00984408 0.0106053 0.0116228 0.0169229 0.0114827 0.0109877 0.0087866 0.00822098 0.00760374 0.00559734 0.00501658 0.00323077 0.0013388 0.000594907
threshold=0.047582001841750009 0.030216742911050004 0.076778945736050014 0.038037833475350009 1.0000000180025095e-35 0.059024509248000005 0.05728142340955001 0.056722001975650006 0.026056546912200006 0.024063949677700005 0.062460229651800009 0.064315824891550008 0.04237181592550001 0.042458614925000006
decision_type=2 2 2 2 2 2 2 2 2 2 2 2 2 2
left_child=8 2 10 4 -4 12 -5 -6 -1 -8 13 -7 -3 -2
right_child=1 5 3 6 7 11 9 -9 -10 -11 -12 -13 -14 -15
leaf_value=-0.0099198211530201891 0.06074582633526085 -0 -0.076746677416092091 0.10621039224718333 0.25293011091285772 0.11895114962254677 0.020735714454098879 -0 0.22569901053202393 -0.19785822526733979 -0.2124303525034443 -0.073198837083804036 -0.23462512387092513 -0.034729972951097914
leaf_count=8 7 7 6 9 56 15 6 14 33 26 19 12 58 6
internal_value=0 -0.0889017 0.0317573 0.191749 0.480762 -0.429923 -0.221511 0.636711 0.44926 -0.477439 -0.42837 0.0458466 -0.7042 0
internal_count=282 241 149 117 76 92 41 70 41 32 32 27 65 13
shrinkage=0.313943


Tree=29
num_leaves=15
num_cat=0
split_feature=177 217 34 27 252 258 141 59 337 7 268 140 376 26
split_gain=0.00778786 0.00977961 0.0104593 0.00805601 0.00880773 0.00926266 0.00681706 0.00626781 0.00576454 0.00360205 0.0032426 0.00238888 0.00225143 7.17806e-05
threshold=0.036232018416050012 0.03257067792385001 0.059007409497400007 0.029910877513700005 0.040059683878300008 0.038484933134550009 0.045012309801600009 0.036162960473150006 0.024985321506700003 0.033453956960700006 0.075439238298950009 0.047404233403950009 0.040499499952700004 0.041644964767100008
decision_type=2 2 2 2 2 2 2 2 2 2 2 2 2 2
left_child=9 2 -2 11 6 8 -5 -7 -6 12 -8 13 -1 -3
right_child=1 3 -4 4 5 7 10 -9 -10 -11 -12 -13 -14 -15
leaf_value=-0 -0.23263541261963433 0.020684111974429997 0.057954565617582401 -0.044434888413131618 0.056064363016206126 -0.031867080535769497 0.2158854118883036 0.19731585455368844 -0.16110146054542335 -0 -0 -0.18878390326388114 0.21273645910772343 -0.017155955736134557
leaf_count=6 53 6 8 6 8 9 52 20 42 8 7 22 29 6
internal_value=0 -0.0879736 -0.490742 0.0163903 0.147352 -0.0438913 0.450297 0.324314 -0.351609 0.431513 0.59613 -0.416046 0.566045 0
internal_count=282 239 61 178 144 79 65 29 50 43 59 34 35 12
shrinkage=0.313943


Tree=30
num_leaves=17
num_cat=0
split_feature=80 179 230 9 211 189 164 194 382 375 254 381 206 226 381 397
split_gain=0.00680409 0.00705784 0.00698531 0.00921245 0.006747 0.00554234 0.0042856 0.00395966 0.00384112 0.00372126 0.00338231 0.00279087 0.00214343 0.00116984 0.00115976 0.000666157
threshold=0.052340266495100006 0.050923874524500007 0.018502593491200005 0.022344894398050003 0.041708773574700007 0.05667011150605001 0.063713839548200021 0.025968813256700005 0.025959493678600003 0.058875801762850004 0.026533961758750006 0.070456460304900007 0.046085327646700008 0.03131512951410001 0.033960512070200004 0.035519389364400009
decision_type=2 2 2 2 2 2 2 2 2 2 2 2 2 2 2 2
left_child=1 4 7 8 -1 6 -5 -2 -4 15 12 -6 -10 -9 -12 -3
right_child=2 9 3 5 11 -7 -8 13 10 -11 14 -13 -14 -15 -16 -17
leaf_value=-0.010255966040048425 -0.029211735285048793 -0.15100865536734812 0.14488182855387485 -0.24611191066583396 0.23685503381167153 0 0 0 -0.022557054840458109 0.062655615066171455 0 -0 0.12325791863952944 0.17818003095209914 -0.16457193179760593 0
leaf_count=10 10 8 14 83 54 9 9 7 8 9 6 6 13 18 12 6
internal_value=0 0.238304 -0.147488 -0.28961 0.484441 -0.544957 -0.66689 0.199137 0 -0.0803631 -0.113992 0.672361 0.0637491 0.454553 -0.42991 -0.402373
internal_count=282 93 189 154 70 101 92 35 53 23 39 60 21 25 18 14
shrinkage=0.313943


Tree=31
num_leaves=19
num_cat=0
split_feature=90 89 16 190 118 339 349 289 397 91 5 144 33 338 27 148 312 0
split_gain=0.00509558 0.00638037 0.00753199 0.00715093 0.00547598 0.0038103 0.00331011 0.00320398 0.00252927 0.00193371 0.0020152 0.0018566 0.0017308 0.00158857 0.00138857 0.0010308 0.000443381 0.000440418
threshold=0.043750903973300011 0.057253227404350009 0.025113730819800003 0.046907870405000003 0.045918326873400007 0.059447225938150008 0.057730355915050005 0.086233407010950017 0.026361447724750003 0.056406166600100005 0.018894117258900004 0.062479444574400009 0.029582347426750002 0.035944529851900005 0.051293544233100008 0.056272031250450008 0.028997451725950005 0.053354635087850009
decision_type=2 2 2 2 2 2 2 2 2 2 2 2 2 2 2 2 2 2
left_child=6 8 4 5 7 15 -1 -3 -2 10 -6 -5 -8 -11 17 -4 -13 -10
right_child=1 2 3 11 9 -7 12 -9 14 13 -12 16 -14 -15 -16 -17 -18 -19
leaf_value=-0 0 0.21781732212048655 0 0.11733759928621301 -0 0 -0 -0 -0.21167122449580952 -0.13402840831647028 0.13599264751616016 -0.063862264622042988 0.18622379219508065 0 -0 -0.22203117821730098 0 -0
leaf_count=8 14 32 6 14 6 7 6 6 32 8 14 6 43 6 6 56 6 6
internal_value=0 -0.0903594 0.0119864 -0.232244 0.280958 -0.540618 0.342372 0.575563 -0.430187 -0 0.207767 0.101682 0.512299 -0.233265 -0.551602 -0.662522 -0 -0.639251
internal_count=282 225 167 95 72 69 57 38 58 34 20 26 49 14 44 62 12 38
shrinkage=0.313943


Tree=32
num_leaves=14
num_cat=0
split_feature=1 144 295 361 181 1 203 160 362 10 73 194 120
split_gain=0.00368965 0.00738543 0.00661503 0.00499887 0.00421313 0.00386159 0.00345718 0.00342068 0.00333717 0.00177679 0.000558808 0.000524931 0.00026637
threshold=0.03563513999855001 0.066690229689000013 0.08570793521895001 0.031969104504100003 0.067931769421800015 0.024168291592550004 0.044120643401450006 0.065532687412450011 0.052820252896350006 0.041422239554600011 0.059386737401150004 0.04505296867345001 0.061943529535900009
decision_type=2 2 2 2 2 2 2 2 2 2 2 2 2
left_child=2 8 5 -3 9 7 -7 10 -2 -4 -1 -6 -10
right_child=1 3 4 -5 11 6 -8 -9 12 -11 -12 -13 -14
leaf_value=-0 -0.049713692138339496 0 0.20148588572640541 -0.21565491727023697 0.030529580189874204 -0.047141094495540645 0.1438234946568186 0 0.14958354344043784 -0 -0.18083126429859198 -0.055058830803907673 0
leaf_count=10 15 10 68 71 12 10 19 8 15 11 17 10 6
internal_value=0 -0.2146 0.105869 -0.520347 0.371258 -0.101487 0.142594 -0.331032 0.121388 0.559722 -0.493001 -0 0.418419
internal_count=282 117 165 81 101 64 29 35 36 79 27 22 21
shrinkage=0.313943


Tree=33
num_leaves=18
num_cat=0
split_feature=388 394 16 143 156 382 33 40 51 223 102 145 247 85 93 284 117
split_gain=0.00357709 0.00361574 0.00403233 0.00332873 0.00329926 0.00305179 0.0025132 0.00197872 0.00176999 0.00168896 0.00128733 0.00120832 0.000969604 0.000893197 0.000530145 0.000434192 3.48467e-06
threshold=0.017619214173550005 0.025184186847300002 0.023058075990000003 0.075506564879750007 0.069708691846500012 0.043597133878950006 0.059942915314950003 0.010321393354800002 0.088314000607000023 0.057709956325550003 0.051978373326000006 0.052846236660700006 0.037089316853300004 0.044824773163750005 0.093062551332200025 0.072704456996500008 0.051514692494550006
decision_type=2 2 2 2 2 2 2 2 2 2 2 2 2 2 2 2 2
left_child=3 11 5 7 15 6 9 -1 10 -3 -6 -2 13 -7 16 -4 -5
right_child=1 2 4 14 8 12 -8 -9 -10 -11 -12 -13 -14 -15 -16 -17 -18
leaf_value=-0 0 0.1971958397702088 0.061317167658077494 -0.068465833489063141 -0.18976223929782599 -0 -0 0.18925124217324066 0 -0 0 -0.16474981867147467 -0.088520441831108923 0.084176844578863458 0.011535823955818241 -0 -0
leaf_count=6 6 34 16 9 69 8 9 36 6 6 6 21 8 17 10 9 6
internal_value=0 -0.102878 0 0.255099 -0.248032 0.189178 0.397788 0.484456 -0.457599 0.537546 -0.540445 -0.427837 -0 0.0367167 -0 0 -0.196637
internal_count=282 215 188 67 106 82 49 42 81 40 75 27 33 25 25 25 15
shrinkage=0.313943


Tree=34
num_leaves=17
num_cat=0
split_feature=246 246 192 352 171 254 64 199 186 18 18 318 30 366 80 192
split_gain=0.00208379 0.00333802 0.00300897 0.00350003 0.00543454 0.00188692 0.00190817 0.00162838 0.00100793 0.000948214 0.000742721 0.000672747 0.00050202 0.000369124 0.000186664 5.22556e-05
threshold=0.025282278805100002 1.0000000180025095e-35 0.053407706458300008 0.10623183569350002 0.047758479087000004 0.042848236776600011 0.033421983392950008 0.027838876069550003 0.073841949611100008 0.032312616391650006 0.025495478836350002 0.040808962555700011 0.055250516845800006 0.049766743903950007 0.05516732704990001 0.026747573498100006
decision_type=2 2 2 2 2 2 2 2 2 2 2 2 2 2 2 2
left_child=1 10 3 4 5 6 -2 -3 9 -5 -1 -12 -6 -4 -14 -10
right_child=2 7 13 8 12 -7 -8 -9 15 -11 11 -13 14 -15 -16 -17
leaf_value=0 0 -0 -0 0.11510396843398411 -0 0 -0.20077321886999364 0.16316640614360092 0 -0 -0.10510993855956659 0 0.07739288103409861 0.096720323196861954 -0 -0.022593045992080556
leaf_count=9 6 16 6 22 12 6 89 47 6 7 11 7 10 14 7 7
internal_value=0 0.172069 -0.0988727 -0.200543 -0.337811 -0.528347 -0.58768 0.40425 0.0334157 0.248156 -0.0341375 -0.223907 0 0.235147 0.187626 -0.00295621
internal_count=282 90 192 172 130 101 95 63 42 29 27 18 29 20 17 13
shrinkage=0.313943


Tree=35
num_leaves=18
num_cat=0
split_feature=296 127 16 203 201 365 289 289 101 229 102 226 365 187 173 312 356
split_gain=0.00207166 0.00431729 0.00349236 0.00229813 0.00203014 0.00180468 0.00169676 0.00154157 0.00145136 0.00152684 0.00118469 0.000974358 0.000915112 0.000556267 0.000492098 0.000439004 0.000236086
threshold=0.082857287663850018 0.04106808968085001 0.023058075990000003 0.04315107882195001 0.066823783216850022 0.047241683611150005 0.074070502269950017 0.086233407010950017 0.012351689256400003 0.08277790755760002 0.051978373326000006 0.093281021126300004 0.056213608031950003 0.031559812746000011 0.066612949642350011 0.046103150659300006 0.11513655877600001
decision_type=2 2 2 2 2 2 2 2 2 2 2 2 2 2 2 2 2
left_child=3 2 5 16 6 -2 12 -7 -3 -10 11 15 -5 -14 -6 -4 -1
right_child=1 8 10 4 14 7 -8 -9 9 -11 -12 -13 13 -15 -16 -17 -18
leaf_value=-0.14759641228768985 -0 -0 -0.16725644995894046 -0 -0.10807037379512864 0.15464241469760232 -0 -0 0.18826830696669825 -0 0 0 -0 0.15360235647238316 0 -0 -0
leaf_count=22 11 6 48 8 19 31 11 6 49 7 6 6 7 22 6 11 6
internal_value=0 0.125729 -0.009431 -0.141983 0 0.169706 0.173171 0.35847 0.443943 0.512149 -0.340851 -0.422707 0.328302 0.43109 -0.275679 -0.485995 -0.432097
internal_count=282 181 119 101 73 48 48 37 62 56 71 65 37 29 25 59 28
shrinkage=0.313943


Tree=36
num_leaves=15
num_cat=0
split_feature=291 100 165 148 7 300 358 104 42 26 79 177 167 21
split_gain=0.00143416 0.00316806 0.00253761 0.0023358 0.00179379 0.0018959 0.00142529 0.00132689 0.00116851 0.00103004 0.000751684 0.000738382 0.000209222 0.00018908
threshold=0.078546134793150008 0.041164383486900012 0.049116807918650009 0.095830043186600003 0.046590341123850007 0.017904148566900004 0.12783335130300003 0.054658909842800009 0.049421475757350009 0.051644842982850006 0.064367890299050018 0.036232018416050012 0.050010420906750001 0.032075213791050008
decision_type=2 2 2 2 2 2 2 2 2 2 2 2 2 2
left_child=2 6 3 7 5 -3 8 11 13 -4 -7 -1 -11 -2
right_child=1 4 9 -5 -6 10 -8 -9 -10 12 -12 -13 -14 -15
leaf_value=0 0 -0 0.088641508244288514 0 -0 0.173557242795949 0 0 0 0 0 -0.18395499017091138 -0.042805032735666909 -0.14030134507664635
leaf_count=8 6 12 21 11 7 66 7 7 15 8 24 55 10 25
internal_value=0 0.0964753 -0.13665 -0.336462 0.29168 0.371076 -0.1116 -0.467206 -0.288353 0.0151345 0.464942 -0.538154 -0 -0.421581
internal_count=282 162 120 81 109 102 53 70 46 39 90 63 18 31
shrinkage=0.313943


Tree=37
num_leaves=14
num_cat=0
split_feature=90 295 147 34 34 77 324 33 175 377 294 96 324
split_gain=0.00126024 0.00214217 0.00195253 0.00278186 0.00265686 0.00257324 0.00148499 0.00107093 0.000789083 0.000538435 0.000533517 0.000230086 3.67708e-06
threshold=0.043750903973300011 0.087032815230950009 0.071680940299650012 0.057242070809800004 0.052642891839500008 0.044003665176100007 0.038651004266800008 0.018311479030400004 0.051101293391300005 0.057764879552600006 0.12528748061850001 0.063413080588050022 0.042580942052250007
decision_type=2 2 2 2 2 2 2 2 2 2 2 2 2
left_child=1 12 4 5 6 -4 8 -7 -2 -6 -9 -5 -1
right_child=2 -3 3 11 9 7 -8 10 -10 -11 -12 -13 -14
leaf_value=-0.0062676525441107142 0.15059011529590732 0.14087086641658716 0 -0 0 0 -0 -0.18670149348230627 -0 -0.084290578064500798 0 0.046426196831538959 0
leaf_count=9 38 42 18 6 12 7 11 92 6 13 8 14 6
internal_value=0 0.21698 -0.0602681 -0.22488 0.0400654 -0.381456 0.291002 -0.503902 0.410293 -0.154684 -0.562068 0 -0
internal_count=282 57 225 145 80 125 55 107 44 25 100 20 15
shrinkage=0.313943


Tree=38
num_leaves=17
num_cat=0
split_feature=80 190 174 98 373 6 78 203 181 385 26 82 155 281 389 367
split_gain=0.000815015 0.0018898 0.00213325 0.00223517 0.00168285 0.00145942 0.0011022 0.000768713 0.000544266 0.000303668 0.000524564 0.000214479 0.000188582 0.000165739 0.000146903 0.000142907
threshold=0.052340266495100006 0.044863574937500005 0.059478568090650004 0.057512972205450007 0.064426250213900013 0.042598805091050004 0.057562287704550012 0.036738311079850004 0.025963035651400002 0.022661530100100004 0.043846048070200004 0.066215146003400019 0.091785279025950003 0.081315174511100013 0.0059616644244050009 0.052034564091050013
decision_type=2 2 2 2 2 2 2 2 2 2 2 2 2 2 2 2
left_child=4 2 3 -2 5 7 12 -1 -9 -8 -11 -4 15 -6 -5 -3
right_child=1 6 11 14 13 -7 9 8 -10 10 -12 -13 -14 -15 -16 -17
leaf_value=-0 0 0 -0 -0 -0.039746427807075387 -0 0 0 0.16115055066438139 0 -0.080305631920632975 0.044562075650368162 -0 0 -0.17310090079011961 0.10589509232192168
leaf_count=7 16 6 7 7 14 7 8 10 48 6 15 20 6 7 78 20
internal_value=0 -0.0658471 -0.239909 -0.392392 0.130661 0.291556 0.0506723 0.394113 0.451295 -0 -0.146775 0 0.268553 -0.00556458 -0.534754 0.305145
internal_count=282 189 128 101 93 72 61 65 58 29 21 27 32 21 85 26
shrinkage=0.313943


Tree=39
num_leaves=16
num_cat=0
split_feature=296 7 47 365 127 390 8 100 266 239 304 243 289 286 27
split_gain=0.000849494 0.00208056 0.00120198 0.00114625 0.00108982 0.00100808 0.000870877 0.000682488 0.000561647 0.000549757 0.000400569 0.000259122 0.000339054 0.000253371 2.74708e-05
threshold=0.082857287663850018 0.025331342199300003 0.034891244425750007 0.064348780894450008 0.04106808968085001 0.024063949677700005 0.036450655424050009 0.058222085270350006 0.091734119439050008 0.050436754456400008 0.039672624047500007 0.030305846079600005 0.063314904568550004 0.075774634580250008 0.024270308612900002
decision_type=2 2 2 2 2 2 2 2 2 2 2 2 2 2 2
left_child=3 2 -2 5 7 -1 10 13 14 -6 -7 -5 -13 -3 -4
right_child=1 4 8 11 9 6 -8 -9 -10 -11 -12 12 -14 -15 -16
leaf_value=0 -0 0 0 -0 0.069576326192700738 -0.14353021038730654 0 0 -0 -0 0 0.071573480876664305 -0 -0.11671901683314781 0.15400241950962645
leaf_count=8 10 7 6 13 25 37 8 7 7 9 6 20 9 53 57
internal_value=0 0.0965285 0.311475 -0.103349 -0.0055322 -0.249527 -0.341341 -0.246305 0.412071 0.0519757 -0.411991 0 0.137572 -0.334933 0.466128
internal_count=282 181 80 101 101 59 51 67 70 34 43 42 29 60 63
shrinkage=0.313943


Tree=40
num_leaves=14
num_cat=0
split_feature=388 390 198 268 111 252 44 105 107 9 1 379 108
split_gain=0.000735635 0.00100187 0.00237662 0.00195109 0.0010649 0.000984887 0.000952861 0.000939141 0.00104763 0.000534486 0.000517513 0.000366235 1.77605e-05
threshold=0.017619214173550005 0.024063949677700005 0.038635952950950007 0.032525870076950007 0.048217690579750005 1.0000000180025095e-35 0.032563454479950009 0.045090861349500008 0.033766792483900007 0.022344894398050003 0.062924547485900012 0.031834876281900008 0.052350848401900005
decision_type=2 2 2 2 2 2 2 2 2 2 2 2 2
left_child=7 9 3 -3 10 -5 -7 -1 -9 -2 11 -4 -6
right_child=1 2 4 5 12 6 -8 8 -10 -11 -12 -13 -14
leaf_value=-0 0.07333412145054348 0 -0 0 -0.032806119998756274 0 -0.16691554473571166 -0 0.12994718374092645 -0 -0 0.11288240197759689 0
leaf_count=17 23 8 6 6 12 8 95 8 42 15 7 29 6
internal_value=0 -0.0495943 -0.147781 -0.333279 0 -0.43225 -0.477371 0.162338 0.296167 0.0718456 0.239444 0.311102 -0.0872688
internal_count=282 215 177 117 60 109 103 67 50 38 42 35 18
shrinkage=0.313943


Tree=41
num_leaves=13
num_cat=0
split_feature=225 1 365 251 185 183 154 109 49 307 77 239
split_gain=0.000527812 0.00190014 0.00118195 0.000970196 0.000880276 0.00106856 0.000789654 0.000512301 0.000507558 0.000234797 0.000174699 1.039e-05
threshold=0.056722001975650006 0.040295806034750005 0.043618057211450005 0.027913803368100006 0.063665866598050014 0.036609124476350008 0.067868009851450015 0.036048106281750002 0.065474380078650016 0.04721042943200001 0.079552401397500014 0.032413782205950002
decision_type=2 2 2 2 2 2 2 2 2 2 2 2
left_child=1 2 -1 11 5 -4 -3 -5 -7 -9 -8 -2
right_child=3 6 4 7 -6 8 10 9 -10 -11 -12 -13
leaf_value=-0 -0 0 0 0 -0 0.16673666400194997 -0.08985271587233834 -0.11502263052417035 -0 0 0 0.010173533502784542
leaf_count=29 7 10 32 12 10 65 51 25 6 7 7 21
internal_value=0 0.0779663 0.230934 -0.093996 0.316732 0.38184 -0.0958049 -0.25325 0.492946 -0.325529 -0.257358 0
internal_count=282 210 142 72 113 103 68 44 71 32 58 28
shrinkage=0.313943


Tree=42
num_leaves=14
num_cat=0
split_feature=296 14 242 382 349 154 26 357 5 270 105 216 262
split_gain=0.000462624 0.00117251 0.00113503 0.000688691 0.000770652 0.000669968 0.000520978 0.000550211 0.000120016 0.000108147 2.59499e-05 1.68588e-05 7.35893e-06
threshold=0.081053820928400008 0.024868437827250001 0.041164621487750006 0.050118208806450008 0.073382269097650013 0.070298743945250014 0.046961166913150006 0.11512587713600002 0.035551249764700012 0.042101578281100012 0.032249650515400005 0.044360053041250007 0.056794729335150007
decision_type=2 2 2 2 2 2 2 2 2 2 2 2 2
left_child=6 2 3 4 -2 12 10 9 -7 -8 -1 -12 -3
right_child=1 5 -4 -5 -6 8 7 -9 -10 -11 11 -13 -14
leaf_value=-0 -0 -0 -0 -0 0.15056392751613579 0 0 0 -0.082054303297895398 -0.090939864893696695 -0 0.020459489093901547 0.0090802814413038987
leaf_count=11 7 8 36 11 55 9 8 8 51 37 6 21 14
internal_value=0 0.0767473 0.215821 0.348616 0.41371 -0 -0.0856076 -0.193424 -0.231166 -0.267864 0 0.0491374 0
internal_count=282 191 109 73 62 82 91 53 60 45 38 27 22
shrinkage=0.313943


Tree=43
num_leaves=15
num_cat=0
split_feature=318 218 33 281 236 189 270 390 320 325 353 156 33 7
split_gain=0.0002485 0.000672015 0.000586774 0.000739642 0.000513306 0.00063764 0.000574647 0.000421832 0.000401982 0.000177068 0.000491013 0.000309489 0.000116067 0.000109492
threshold=0.03985259983005001 0.043353896988700007 0.063770117516600014 0.11247596677850001 0.057101432886950007 0.021077973342300004 0.064412035468400006 0.021813110271600003 0.046132143216800002 0.0087151799023650021 0.078623818600450021 0.098874506383300018 0.061838827366900002 0.035758151866500006
decision_type=2 2 2 2 2 2 2 2 2 2 2 2 2 2
left_child=1 2 3 7 5 -2 13 -1 -9 -3 -11 12 -12 -7
right_child=4 9 -4 -5 -6 6 -8 8 -10 10 11 -13 -14 -15
leaf_value=0 -0 -0 0 0 -0 0.11725815395477115 -0 -0.12567236763180448 0 -0 0.088327320806215082 -0 -0 0
leaf_count=7 19 8 11 9 18 49 14 66 14 6 40 6 7 8
internal_value=0 -0.0393428 -0.171013 -0.240694 0.0828121 0.182507 0.26986 -0.310545 -0.35036 0 0.0966198 0.198863 0.252357 0.352845
internal_count=282 174 107 96 108 90 71 87 80 67 59 53 47 57
shrinkage=0.313943


Tree=44
num_leaves=15
num_cat=0
split_feature=296 1 100 317 193 246 127 126 347 193 289 231 72 392
split_gain=0.000273704 0.000964923 0.000548675 0.000523838 0.000728929 0.000488961 0.000373052 0.000379481 0.000361117 0.000100406 8.09102e-05 0.000101867 2.99938e-05 1.3186e-05
threshold=0.082857287663850018 0.034137368176650008 0.025594753329800001 0.039191184791900008 0.046229387986150013 0.023319656814150002 0.04106808968085001 0.023566236133550005 0.070855440058900002 0.016507056325100005 0.070099036022800015 0.063327612206900016 0.056074965502950005 0.012348217421050002
decision_type=2 2 2 2 2 2 2 2 2 2 2 2 2 2
left_child=3 2 -2 4 5 -1 7 -3 -4 -10 11 -5 -8 -7
right_child=1 6 8 10 -6 13 12 -9 9 -11 -12 -13 -14 -15
leaf_value=0 -0 0 -0 0.041818741334306818 0 -0 0.017773117238429306 -0.080376226950195528 0 0.119243935001421 -0 -0 -0 -0.11601897992179291
leaf_count=7 20 7 8 19 12 6 20 50 7 59 16 9 10 32
internal_value=0 0.0629465 0.220696 -0.0662217 -0.182951 -0.293112 -0 -0.170099 0.314587 0.359251 0 0.0823024 0 -0.354176
internal_count=282 181 94 101 57 45 87 57 74 66 44 28 30 38
shrinkage=0.313943


Tree=45
num_leaves=13
num_cat=0
split_feature=134 353 107 184 358 98 73 134 220 165 217 168
split_gain=0.000129345 0.000783016 0.000864146 0.000601308 0.000427466 0.000660199 0.000621903 0.000364916 0.000196418 0.00012605 0.000474375 4.85424e-05
threshold=0.035814980250800009 0.096664243745800016 0.027733012817300003 0.031497522558250009 0.12783335130300003 0.039749545264050008 0.045391391126150003 1.0000000180025095e-35 0.054918026369200006 0.055993461975300009 0.038245138010050007 0.067781371889250014
decision_type=2 2 2 2 2 2 2 2 2 2 2 2
left_child=4 9 -3 -4 5 -1 -7 -8 -9 10 11 -2
right_child=1 2 3 -5 -6 6 7 8 -10 -11 -12 -13
leaf_value=0 -0.069853955208230512 -0 -0 0.12016355879708468 0 0 0 -0.12278074894236714 0 0 0 0
leaf_count=9 51 14 7 64 8 12 6 50 8 14 33 6
internal_value=0 0.0405372 0.203005 0.312756 -0.0523216 -0.152799 -0.242941 -0.323163 -0.362417 -0 -0.0762888 -0.208428
internal_count=282 189 85 71 93 85 76 64 58 104 90 57
shrinkage=0.313943


Tree=46
num_leaves=13
num_cat=0
split_feature=350 296 14 284 268 357 175 31 317 178 388 140
split_gain=0.000130744 0.000735745 0.00090298 0.00082473 0.000708201 0.000503591 0.000151162 0.000134473 0.000128811 0.000357197 3.96364e-05 2.57933e-05
threshold=0.076778945736050014 0.08011515424890002 0.024868437827250001 0.08942548830420001 0.032525870076950007 0.13890671215300002 0.047707314747100008 0.037628933506000002 0.039709522324750009 0.058946595199550013 0.046501940566000009 0.08585670036665001
decision_type=2 2 2 2 2 2 2 2 2 2 2 2
left_child=4 8 3 5 -1 10 7 -6 9 11 -3 -2
right_child=1 2 -4 -5 6 -7 -8 -9 -10 -11 -12 -13
leaf_value=0 -0.064759802158424001 0.13773468628119456 -0 -0 0 -0 0 -0.090203750090582513 0 0 0 -0
leaf_count=14 26 73 53 12 9 7 6 46 14 9 7 6
internal_value=0 0.043355 0.163579 0.273241 -0.0529832 0.353139 -0.223359 -0.257009 -0 -0.0955611 0.416809 -0.194552
internal_count=282 207 152 99 75 87 61 55 55 41 80 32
shrinkage=0.313943


Tree=47
num_leaves=12
num_cat=0
split_feature=231 325 184 7 82 107 398 80 33 24 219
split_gain=8.56288e-05 0.000765411 0.000786449 0.000594989 0.000268844 0.000312069 0.000360817 0.000281194 0.000219512 0.0001763 0.000119705
threshold=0.058241213116000008 0.011498503413850001 0.031497522558250009 0.046590341123850007 0.07726972541145001 0.050717519651500009 0.021544592337600001 0.045002783442000004 0.026458581312300004 0.055345311168750008 0.031766982343100006
decision_type=2 2 2 2 2 2 2 2 2 2 2
left_child=1 -1 -3 9 5 6 -2 -8 -9 10 -4
right_child=4 2 3 -5 -6 -7 7 8 -10 -11 -12
leaf_value=-0 0 -0 -0 -0 0 0 -0 0 -0.10404801320914123 0 0.11785308461208287
leaf_count=24 12 21 8 7 33 19 24 8 42 6 78
internal_value=0 0.0467066 0.184256 0.277373 -0.0272226 -0.108352 -0.168041 -0.22668 -0.295169 0.331208 0.358963
internal_count=282 144 120 99 138 105 86 74 50 92 86
shrinkage=0.313943


Tree=48
num_leaves=11
num_cat=0
split_feature=308 350 1 10 77 13 177 246 234 308
split_gain=5.36676e-05 0.00040181 0.000273934 0.000266077 0.000265077 0.000339408 0.000261743 0.000177724 0.000294819 8.02232e-06
threshold=0.037264088720950002 0.093246967670450015 0.053577757175900007 0.039629990849100009 0.040742076881850005 0.0096740522591450013 0.036232018416050012 1.0000000180025095e-35 0.057005069074700009 0.028246989054350004
decision_type=2 2 2 2 2 2 2 2 2 2
left_child=1 4 3 7 -1 -6 -7 -2 -9 -3
right_child=2 9 -4 -5 5 6 -8 8 -10 -11
leaf_value=0 -0 0.0083801228264353336 -0 -0 0 0 -0.095791344325447059 0.077665248970207074 -0 -0
leaf_count=6 9 38 19 23 8 9 59 68 7 36
internal_value=0 -0.0290793 0.0326929 0.112258 -0.155941 -0.203937 -0.262258 0.163209 0.200766 0
internal_count=282 156 126 107 82 76 68 84 75 74
shrinkage=0.313943


Tree=49
num_leaves=10
num_cat=0
split_feature=80 90 388 90 234 14 170 291 140
split_gain=4.12916e-05 0.000376569 0.000434293 0.00044553 0.000316792 0.000486815 0.000182649 0.000130706 0.000107328
threshold=0.052340266495100006 0.07442044703135002 0.014751725980200003 0.037784166216300007 0.059346551664400012 0.024868437827250001 0.055741957013600005 0.047462292857150007 0.064821565874150014
decision_type=2 2 2 2 2 2 2 2 2
left_child=4 2 -2 -4 5 6 -1 -5 -3
right_child=1 8 3 7 -6 -7 -8 -9 -10
leaf_value=0.08902879939798522 0 0.029678117502124325 0 0 -0 -0 -0 -0.090903675772293954 -0
leaf_count=55 29 36 6 7 9 23 6 83 28
internal_value=0 -0.0235055 -0.128947 -0.212034 0.0330617 0.138515 0.239268 -0.268925 0
internal_count=282 189 125 96 93 84 61 90 64
shrinkage=0.313943


Tree=50
num_leaves=10
num_cat=0
split_feature=140 21 105 296 184 318 140 98 147
split_gain=2.02038e-05 0.000350056 0.000288844 0.000269036 0.000205033 0.000162142 3.18849e-05 2.50247e-05 9.63617e-06
threshold=0.064821565874150014 0.055618971514050007 0.021330195487850003 0.064252284153750019 0.052704991560350002 0.028465964664250002 0.016137747515550003 0.051194110493950007 0.10346826071900002
decision_type=2 2 2 2 2 2 2 2 2
left_child=1 2 -1 -4 5 -2 -5 -7 -9
right_child=4 -3 3 6 -6 7 -8 8 -10
leaf_value=-0 0 -0 -0 0 0 -0 0.079054388638949966 -0.055638362963233434 -0
leaf_count=6 17 58 6 12 26 11 56 77 13
internal_value=0 0.016333 0.132693 0.188446 -0.0230901 -0.110239 0.232142 -0.152904 -0.166952
internal_count=282 138 80 74 144 118 68 101 90
shrinkage=0.313943


Tree=51
num_leaves=11
num_cat=0
split_feature=16 154 225 156 134 80 254 10 291 179
split_gain=2.39698e-05 0.000386986 0.000311779 0.00032178 0.000237557 0.000266272 0.000193351 8.60359e-05 4.05239e-06 1.34135e-05
threshold=0.025113730819800003 0.067868009851450015 0.056722001975650006 0.054425428719700006 1.0000000180025095e-35 0.020628471608850004 0.042848236776600011 0.039629990849100009 0.086068000498600014 0.034363625459750004
decision_type=2 2 2 2 2 2 2 2 2 2
left_child=2 -2 3 -1 -3 -6 -7 -5 9 -4
right_child=1 4 8 7 5 6 -8 -9 -10 -11
leaf_value=-0 0 0 0 0.070330908593449079 0 -0.087050459314219522 0 -0 0 -0.013033079808635509
leaf_count=19 35 7 8 62 7 92 6 7 21 18
internal_value=0 -0.029465 0.0120092 0.122612 -0.157343 -0.201993 -0.244335 0.202217 -0 -0.018621
internal_count=282 147 135 88 112 105 98 69 47 26
shrinkage=0.313943


Tree=52
num_leaves=10
num_cat=0
split_feature=388 80 80 250 225 80 134 250 138
split_gain=2.01594e-05 0.000149051 0.000128577 0.000242586 0.000413074 0.000539787 5.04788e-05 1.90849e-05 4.30789e-06
threshold=0.017619214173550005 0.073223296888150005 0.13358954439500001 1.0000000180025095e-35 0.015978689096950004 0.052340266495100006 0.037458612724200008 0.047346448266200006 0.038775315498550005
decision_type=2 2 2 2 2 2 2 2 2
left_child=1 6 3 -2 -5 -6 -1 -7 -8
right_child=2 -3 -4 4 5 7 8 -9 -10
leaf_value=-0 0 -0 0 0 0 -0.088080340245965824 0 -0 0.045188322612693371
leaf_count=6 26 16 8 23 53 99 6 6 39
internal_value=0 0.0278771 -0.0147917 -0.0628315 -0.109378 -0.167631 0.115454 -0.266186 0.136656
internal_count=282 67 215 207 181 158 51 105 45
shrinkage=0.313943


Tree=53
num_leaves=8
num_cat=0
split_feature=296 10 377 398 165 291 169
split_gain=1.55335e-05 0.000294681 0.000585413 0.000121462 0.000138756 6.77584e-05 1.79263e-05
threshold=0.082857287663850018 0.041422239554600011 0.070840795375700025 0.021544592337600001 0.057830155148350007 0.047462292857150007 0.032806262963250003
decision_type=2 2 2 2 2 2 2
left_child=3 2 -2 -1 5 -5 -7
right_child=1 -3 -4 4 -6 6 -8
leaf_value=0 0.069149469708705252 -0 -0 0 0 -0 -0.046269760271373847
leaf_count=25 105 53 23 6 6 9 55
internal_value=0 0.0236073 0.115991 -0 -0.080135 -0.120611 -0.137946
internal_count=282 181 128 101 76 70 64
shrinkage=0.313943


Tree=54
num_leaves=8
num_cat=0
split_feature=127 16 14 16 127 138 225
split_gain=5.23853e-06 0.000248782 0.000264325 0.000241421 0.000117542 4.65367e-05 1.28341e-05
threshold=0.042822846002300012 0.017479740049600002 0.040018273441650008 0.023058075990000003 1.0000000180025095e-35 0.061078610162400009 0.033163736657100006
decision_type=2 2 2 2 2 2 2
left_child=3 -2 6 -1 -5 -6 -3
right_child=1 2 -4 4 5 -7 -8
leaf_value=0 -0 0 -0 0 -0.054625606874806353 0 0.065364361394657039
leaf_count=75 34 8 10 10 89 9 47
internal_value=0 0.015519 0.128105 -0.00162646 -0.125006 -0.15688 0.193852
internal_count=282 99 65 183 108 98 55
shrinkage=0.313943


Tree=55
num_leaves=10
num_cat=0
split_feature=225 165 291 183 291 183 318 217 183
split_gain=1.46114e-06 0.00043881 0.000157458 0.000191993 8.90035e-05 1.95737e-05 3.83894e-05 1.66732e-05 5.19778e-05
threshold=0.056722001975650006 0.04814927382950001 0.11905056473400001 0.023140377761100003 0.095453024552700008 0.046105710063350007 0.030981714494900003 0.053676957271450006 0.023140377761100003
decision_type=2 2 2 2 2 2 2 2 2
left_child=1 5 3 -3 -2 6 -1 8 -8
right_child=4 2 -4 -5 -6 -7 7 -9 -10
leaf_value=0 -0.02458117621130507 -0 -0 0.079481147527418333 0 0 0 0 -0.032920909465349993
leaf_count=12 52 12 6 45 20 62 10 6 57
internal_value=0 0.00669929 0.167843 0.20487 -0 -0 -0.036233 -0.0646555 -0.0749964
internal_count=282 210 63 57 72 147 85 73 67
shrinkage=0.313943


Tree=56
num_leaves=4
num_cat=0
split_feature=170 170 170
split_gain=5.30556e-08 0.000165331 3.20912e-06
threshold=0.047686554454700013 0.060021051501700007 0.020587682525850002
decision_type=2 2 2
left_child=2 -2 -1
right_child=1 -3 -4
leaf_value=-0 -0.030225413968230978 0 0.003959445255678048
leaf_count=39 81 36 126
internal_value=0 -0 0.00143333
internal_count=282 117 165
shrinkage=0.313943


Tree=57
num_leaves=8
num_cat=0
split_feature=217 134 350 225 225 291 225
split_gain=1.35884e-06 0.000169368 0.00021231 0.000266053 0.000166477 7.98806e-06 2.96767e-05
threshold=0.033851295722100008 0.035814980250800009 0.076778945736050014 0.031966469402200007 0.061176046983200012 0.095453024552700008 0.035036756149400002
decision_type=2 2 2 2 2 2 2
left_child=5 -2 -3 -4 -5 6 -1
right_child=1 2 3 4 -6 -7 -8
leaf_value=0 -0 -0 -0 0.076101356086231281 -0 0 -0.018102638634939629
leaf_count=7 74 23 18 64 21 22 53
internal_value=0 0.00628673 0.0857399 0.139386 0.195752 -0 -0.0254415
internal_count=282 200 126 103 85 82 60
shrinkage=0.313943



feature importances:
tpc_296=16
tpc_16=14
tpc_14=14
tpc_225=14
tpc_1=12
tpc_80=12
tpc_90=11
tpc_140=10
tpc_388=10
tpc_318=9
tpc_350=9
tpc_217=9
tpc_184=9
tpc_154=9
tpc_127=9
tpc_268=8
tpc_156=8
tpc_33=8
tpc_98=8
tpc_325=8
tpc_366=7
tpc_390=7
tpc_291=7
tpc_147=7
tpc_144=7
tpc_295=7
tpc_365=6
tpc_247=6
tpc_7=6
tpc_105=6
tpc_289=6
tpc_10=6
tpc_3=6
tpc_26=6
tpc_183=5
tpc_177=5
tpc_175=5
tpc_170=5
tpc_165=5
tpc_134=5
tpc_120=5
tpc_262=5
tpc_353=5
tpc_308=5
tpc_100=5
tpc_32=5
tpc_317=5
tpc_27=5
tpc_324=5
tpc_392=4
tpc_107=4
tpc_382=4
tpc_155=4
tpc_199=4
tpc_381=4
tpc_167=4
tpc_193=4
tpc_194=4
tpc_196=4
tpc_198=4
tpc_203=4
tpc_226=4
tpc_231=4
tpc_246=4
tpc_252=4
tpc_358=4
tpc_347=4
tpc_312=4
tpc_342=4
tpc_59=4
tpc_34=4
tpc_174=3
tpc_21=3
tpc_82=3
tpc_335=3
tpc_333=3
tpc_329=3
tpc_327=3
tpc_78=3
tpc_77=3
tpc_307=3
tpc_36=3
tpc_160=3
tpc_164=3
tpc_168=3
tpc_94=3
tpc_70=3
tpc_42=3
tpc_181=3
tpc_254=3
tpc_251=3
tpc_250=3
tpc_189=3
tpc_190=3
tpc_64=3
tpc_234=3
tpc_223=3
tpc_220=3
tpc_108=3
tpc_114=3
tpc_13=3
tpc_102=3
tpc_89=3
tpc_367=3
tpc_379=3
tpc_397=3
tpc_398=3
tpc_375=3
tpc_263=2
tpc_377=2
tpc_378=2
tpc_256=2
tpc_253=2
tpc_9=2
tpc_266=2
tpc_270=2
tpc_384=2
tpc_93=2
tpc_274=2
tpc_243=2
tpc_387=2
tpc_242=2
tpc_241=2
tpc_5=2
tpc_239=2
tpc_236=2
tpc_235=2
tpc_229=2
tpc_50=2
tpc_47=2
tpc_51=2
tpc_28=2
tpc_345=2
tpc_18=2
tpc_351=2
tpc_340=2
tpc_339=2
tpc_352=2
tpc_17=2
tpc_330=2
tpc_357=2
tpc_15=2
tpc_24=2
tpc_361=2
tpc_25=2
tpc_273=2
tpc_31=2
tpc_362=2
tpc_303=2
tpc_300=2
tpc_371=2
tpc_38=2
tpc_372=2
tpc_40=2
tpc_286=2
tpc_374=2
tpc_284=2
tpc_281=2
tpc_349=2
tpc_72=2
tpc_188=2
tpc_109=2
tpc_187=2
tpc_186=2
tpc_185=2
tpc_65=2
tpc_111=2
tpc_179=2
tpc_118=2
tpc_171=2
tpc_84=2
tpc_122=2
tpc_178=2
tpc_169=2
tpc_73=2
tpc_133=2
tpc_138=2
tpc_162=2
tpc_81=2
tpc_143=2
tpc_79=2
tpc_145=2
tpc_148=2
tpc_150=2
tpc_192=2
tpc_96=2
tpc_99=2
tpc_201=2
tpc_336=1
tpc_83=1
tpc_130=1
tpc_348=1
tpc_20=1
tpc_132=1
tpc_389=1
tpc_341=1
tpc_91=1
tpc_4=1
tpc_393=1
tpc_338=1
tpc_337=1
tpc_6=1
tpc_141=1
tpc_142=1
tpc_394=1
tpc_395=1
tpc_97=1
tpc_326=1
tpc_146=1
tpc_85=1
tpc_323=1
tpc_321=1
tpc_399=1
tpc_363=1
tpc_373=1
tpc_104=1
tpc_380=1
tpc_110=1
tpc_103=1
tpc_369=1
tpc_368=1
tpc_106=1
tpc_113=1
tpc_76=1
tpc_12=1
tpc_115=1
tpc_86=1
tpc_117=1
tpc_8=1
tpc_383=1
tpc_101=1
tpc_385=1
tpc_356=1
tpc_386=1
tpc_123=1
tpc_124=1
tpc_376=1
tpc_126=1
tpc_202=1
tpc_267=1
tpc_265=1
tpc_180=1
tpc_258=1
tpc_66=1
tpc_255=1
tpc_44=1
tpc_45=1
tpc_244=1
tpc_63=1
tpc_195=1
tpc_240=1
tpc_56=1
tpc_238=1
tpc_0=1
tpc_41=1
tpc_232=1
tpc_48=1
tpc_230=1
tpc_55=1
tpc_228=1
tpc_49=1
tpc_206=1
tpc_208=1
tpc_221=1
tpc_209=1
tpc_219=1
tpc_218=1
tpc_210=1
tpc_216=1
tpc_212=1
tpc_293=1
tpc_30=1
tpc_316=1
tpc_315=1
tpc_313=1
tpc_151=1
tpc_152=1
tpc_211=1
tpc_306=1
tpc_305=1
tpc_304=1
tpc_75=1
tpc_158=1
tpc_297=1
tpc_159=1
tpc_294=1
tpc_320=1
tpc_292=1
tpc_39=1
tpc_290=1
tpc_74=1
tpc_288=1
tpc_287=1
tpc_285=1
tpc_283=1
tpc_282=1
tpc_280=1
tpc_279=1
tpc_278=1
tpc_173=1
tpc_271=1
tpc_67=1
