tree
version=v2
num_class=1
num_tree_per_iteration=1
label_index=0
max_feature_idx=342
objective=binary sigmoid:1
feature_names=V1 V2 V3 V4 V5 V6 V7 V8 V9 V10 V11 V12 V13 V14 V15 V16 V17 V18 V19 V20 V21 V22 V23 V24 V25 V26 V27 V28 V29 V30 V31 V32 V33 V34 V35 V36 V37 V38 V39 V40 V41 V42 V43 V44 V45 V46 V47 V48 V49 V50 V51 V52 V53 V54 V55 V56 V57 V58 V59 V60 V61 V62 V63 V64 V65 V66 V67 V68 V69 V70 V71 V72 V73 V74 V75 V76 V77 V78 V79 V80 V81 V82 V83 V84 V85 V86 V87 V88 V89 V90 V91 V92 V93 V94 V95 V96 V97 V98 V99 V100 V101 V102 V103 V104 V105 V106 V107 V108 V109 V110 V111 V112 V113 V114 V115 V116 V117 V118 V119 V120 V121 V122 V123 V124 V125 V126 V127 V128 V129 V130 V131 V132 V133 V134 V135 V136 V137 V138 V139 V140 V141 V142 V143 V144 V145 V146 V147 V148 V149 V150 V151 V152 V153 V154 V155 V156 V157 V158 V159 V160 V161 V162 V163 V164 V165 V166 V167 V168 V169 V170 V171 V172 V173 V174 V175 V176 V177 V178 V179 V180 V181 V182 V183 V184 V185 V186 V187 V188 V189 V190 V191 V192 V193 V194 V195 V196 V197 V198 V199 V200 V201 V202 V203 V204 V205 V206 V207 V208 V209 V210 V211 V212 V213 V214 V215 V216 V217 V218 V219 V220 V221 V222 V223 V224 V225 V226 V227 V228 V229 V230 V231 V232 V233 V234 V235 V236 V237 V238 V239 V240 V241 V242 V243 V244 V245 V246 V247 V248 V249 V250 V251 V252 V253 V254 V255 V256 V257 V258 V259 V260 V261 V262 V263 V264 V265 V266 V267 V268 V269 V270 V271 V272 V273 V274 V275 V276 V277 V278 V279 V280 V281 V282 V283 V284 V285 V286 V287 V288 V289 V290 V291 V292 V293 V294 V295 V296 V297 V298 V299 V300 V301 V302 V303 V304 V305 V306 V307 V308 V309 V310 V311 V312 V313 V314 V315 V316 V317 V318 V319 V320 V321 V322 V323 V324 V325 V326 V327 V328 V329 V330 V331 V332 V333 V334 V335 V336 V337 V338 V339 V340 V341 V342 V343
feature_infos=[0:1] [0:1] [0:1] [0:1] [0:1] [0:1] [0:0.20000000000000001] [0:1] [0:1] [0:1] [0:1] [0:1] [0:1] [0:0.33333333333333298] [0:1] [0:1] [0:1] [0:0.66666666666666696] [0:1] [0:0.90000000000000002] [0:0.20000000000000001] [0:1] [0:1] [0:1] [0:0.80000000000000004] [0:0.66666666666666696] [0:0.71428571428571397] none [0:1] [0:1] [0:1] [0:0.66666666666666696] [0:0.9375] [0:0.84615384615384603] [0:0.28571428571428598] [0:1] [0:1] [0:0.75] [0:0.75] [0:0.77777777777777801] [0:1] none [0:0.40000000000000002] [0:0.40000000000000002] [0:0.20000000000000001] [0:0.20000000000000001] [0:0.20000000000000001] [0:0.16666666666666699] none [0:1] [0:1] [0:1] [0:0.85714285714285698] [0:0.90000000000000002] [0:1] [0:0.28571428571428598] [0:1] [0:1] [0:1] [0:1] [0:1] [0:1] [0:0.25] [0:1] [0:1] [0:1] [0:0.77777777777777801] [0:1] [0:0.90000000000000002] [0:0.33333333333333298] [0:1] [0:1] [0:1] [0:0.88888888888888895] [0:0.85714285714285698] [0:1] [0:0.25] [0:1] [0:1] [0:0.66666666666666696] [0:0.80000000000000004] [0:0.875] [0:1] [0:0.20000000000000001] [0:1] [0:1] [0:0.875] [0:0.76923076923076905] [0:1] [0:1] [0:0.33333333333333298] [0:0.25] [0:0.28571428571428598] [0:0.33333333333333298] [0:0.33333333333333298] [0:0.16666666666666699] [0:0.33333333333333298] none [0:1] [0:1] [0:1] [0:1] [0:0.66666666666666696] [0:1] [0:0.20000000000000001] [0:1] [0:1] [0:1] [0:1] [0:0.69999999999999996] [0:1] [0:0.33333333333333298] [0:1] [0:1] [0:1] [0:0.57142857142857095] [0:0.80000000000000004] [0:0.75] [0:0.16666666666666699] [0:0.69999999999999996] [0:1] [0:0.55555555555555602] [0:1] [0:0.5] [0:0.57142857142857095] [0:0.20000000000000001] [0:0.76923076923076905] [0:1] [0:0.66666666666666696] [0:0.57142857142857095] [0:0.75] [0:0.66666666666666696] none [0:1] [0:0.875] [0:1] [0:0.40000000000000002] [0:0.66666666666666696] [0:0.66666666666666696] [0:0.25] [0:0.25] [0:0.22222222222222199] [0:0.20000000000000001] none none none none [0:0.80000000000000004] [0:1] [0:0.75] [0:0.66666666666666696] [0:1] [0:0.66666666666666696] none [0:1] [0:1] [0:1] [0:0.75] [0:0.66666666666666696] [0:0.77777777777777801] [0:0.25] [0:1] [0:1] [0:0.71428571428571397] [0:0.5] [0:0.75] [0:0.66666666666666696] none [0:0.80000000000000004] [0:1] [0:0.57142857142857095] [0:1] [0:0.44444444444444398] [0:0.5] none [0:0.66666666666666696] [0:0.875] [0:0.57142857142857095] [0:0.375] [0:0.44444444444444398] [0:0.5] none [0:0.75] [0:0.83333333333333304] [0:0.66666666666666696] [0:0.55555555555555602] [0:0.5] [0:0.59999999999999998] none none [0:0.375] none none none [0:0.16666666666666699] none [0:1] [0:1] [0:1] [0:0.85714285714285698] [0:0.66666666666666696] [0:1] none [0:1] [0:1] [0:1] [0:0.80000000000000004] [0:1] [0:1] [0:0.20000000000000001] [0:1] [0:1] [0:0.66666666666666696] [0:0.5] [0:0.66666666666666696] [0:0.44444444444444398] none [0:1] [0:0.69999999999999996] [0:0.5] [0:0.58333333333333304] [0:0.66666666666666696] [0:0.5] none [0:1] [0:0.63636363636363602] [0:0.83333333333333304] [0:0.625] [0:0.66666666666666696] [0:0.40000000000000002] [0:0.20000000000000001] [0:1] [0:1] [0:0.66666666666666696] [0:0.5] [0:0.66666666666666696] [0:0.5] none [0:0.28571428571428598] [0:0.25] none none none [0:0.20000000000000001] none [0:1] [0:1] [0:1] [0:1] [0:0.66666666666666696] [0:1] [0:0.40000000000000002] [0:1] [0:1] [0:1] [0:0.83333333333333304] [0:0.90000000000000002] [0:1] [0:0.16666666666666699] [0:0.76923076923076905] [0:1] [0:0.80000000000000004] [0:0.57142857142857095] [0:0.5] [0:0.66666666666666696] none [0:0.75] [0:0.80000000000000004] [0:0.57142857142857095] [0:0.66666666666666696] [0:0.5] [0:0.66666666666666696] [0:0.25] [0:0.72727272727272696] [0:1] [0:0.77777777777777801] [0:0.66666666666666696] [0:0.59999999999999998] [0:0.69999999999999996] none [0:0.66666666666666696] [0:1] [0:0.71428571428571397] [0:0.55555555555555602] [0:0.75] [0:0.625] none [0:0.33333333333333298] [0:0.25] none none none none none [0:0.25] [0:0.5] [0:0.25] none [0:0.28571428571428598] none none [0:0.25] [0:0.25] [0:0.33333333333333298] [0:0.25] [0:0.20000000000000001] [0:0.22222222222222199] none [0:0.33333333333333298] [0:0.25] [0:0.25] none none [0:0.20000000000000001] none none [0:0.16666666666666699] [0:0.16666666666666699] none none none none [0:0.20000000000000001] none none none none none none [0:0.25] [0:0.18181818181818199] [0:0.20000000000000001] none none none none none none none none none none none
tree_sizes=1094 1098 1319 1101 1099 1028 1336 1179 1025 1119 874 952 1119 1268 1122 1031 1110 1122 1029 1039 1029 950 1043 989 1079 1046 945 963 880 856 840 749 733 638 549 633 473 486 454 540 486 528 451 473 483 430 470 399 392 392 338 337 401 400 403 400 411 338 402 336 341 329 317 395 321 320 318 339 277 278 279 279 279 279 278 279 278 279 279 278 279 279 278 279 279 278 279 279 279 279 279 279 279 278 279 279 258 258 258 258 259 259

Tree=0
num_leaves=13
num_cat=0
split_feature=59 207 5 0 162 212 157 148 261 256 67 3
split_gain=53.2918 32.3415 21.2755 17.5877 14.6062 12.3613 11.6706 9.80943 7.20734 5.26475 0.940775 0.213816
threshold=0.30384615384615404 0.22649572649572652 0.28869047619047655 0.27922077922077954 0.16025641025641052 0.093073593073593072 0.17156862745098053 0.20416666666666652 0.17156862745098053 0.11882352941176451 0.16025641025641052 1.0000000180025095e-35
decision_type=2 2 2 2 2 2 2 2 2 2 2 2
left_child=1 3 10 7 -4 11 9 -1 -6 -7 -2 -5
right_child=2 -3 4 5 8 6 -8 -9 -10 -11 -12 -13
leaf_value=-0.72193020002767783 -0.59053077627315753 -0.69127236672621084 0.5690453220285272 0.72193020002767627 -0.85346209365111725 0.85397895674414181 -0.28424572411618387 0.32773192876411866 -0.04444578941670458 0.22432793900167797 -0.85468305524751187 0.8547305257398059
leaf_count=13 13 21 18 13 14 20 18 13 19 19 48 53
internal_value=0 0.705676 -1.07106 1.03329 -0.117151 1.34922 0.666063 -0.460347 -0.907927 1.28091 -1.86796 1.93855
internal_count=282 170 112 149 51 123 57 26 33 39 61 66
shrinkage=0.427593


Tree=1
num_leaves=13
num_cat=0
split_feature=106 206 5 60 131 147 170 128 211 8 235 213
split_gain=27.6438 16.6053 9.43931 8.36664 7.66789 7.21045 6.47094 4.99857 4.88759 5.50604 1.18383 0.688051
threshold=0.36931818181818205 0.22649572649572652 0.24404761904761904 0.43650793650793657 0.14550264550264552 0.28991596638655504 0.17028985507246402 0.095454545454545472 0.13392857142857154 0.53589743589743566 0.12771739130434803 0.08514492753623186
decision_type=2 2 2 2 2 2 2 2 2 2 2 2
left_child=1 3 -3 6 5 7 8 -2 11 -10 -6 -1
right_child=4 2 -4 -5 10 -7 -8 -9 9 -11 -12 -13
leaf_value=0.63436624699681232 0.066580678382849284 -0.65006800382569563 0.28521925690521133 -0.25168716293361493 -0.78849135712595686 0.26619412219573618 -0.079562365020232909 -0.63432372366258227 0.035851148165155777 0.67625930762646724 -0.48834152761492511 0.86703987437333163
leaf_count=48 13 25 14 16 24 21 17 25 27 18 20 14
internal_value=0 0.503258 -0.731747 0.840346 -0.874539 -0.367208 1.02709 -0.928139 1.21932 0.693009 -1.5346 1.6088
internal_count=282 179 39 140 103 59 124 38 107 45 44 62
shrinkage=0.427593


Tree=2
num_leaves=16
num_cat=0
split_feature=79 2 64 266 226 266 136 1 66 51 168 75 16 14 133
split_gain=16.6798 8.84877 10.7123 7.14 6.55839 4.58558 4.3048 3.17793 3.10344 4.52096 2.1423 0.651038 0.308975 0.298764 0.140905
threshold=0.14835164835164852 0.34313725490196051 0.10263157894736852 0.12250000000000001 0.08514492753623186 0.15587044534412953 0.074175824175824162 0.67708333333333359 0.14835164835164852 0.36602870813397154 0.095454545454545472 0.20714285714285705 0.16025641025641052 0.43303571428571458 0.28991596638655504
decision_type=2 2 2 2 2 2 2 2 2 2 2 2 2 2 2
left_child=1 2 -1 10 5 6 -2 12 11 -10 -4 13 -6 -3 -14
right_child=4 8 3 -5 7 -7 -8 -9 9 -11 -12 -13 14 -15 -16
leaf_value=0.58247034511999152 0.16172191748743081 0.37930117119109236 -0.25102260758659756 0.17954433185182533 -0.47260905512983958 0.37794107801022336 -0.54384368300742947 -0.10196848861285857 0.52154165963628529 -0.22986385851606836 -0.72694799372551233 0.75801088665723182 -0.55096158276512153 0.58187535703195437 -0.68920723822977059
leaf_count=22 16 13 17 24 19 18 17 16 17 14 17 14 15 22 21
internal_value=0 0.478838 -0.0472146 -0.531192 -0.641864 -0.0257229 -0.533193 -1.09932 1.02291 0.457549 -1.17236 1.38575 -1.37654 1.1965 -1.49735
internal_count=282 160 80 58 122 51 33 71 80 31 34 49 55 35 36
shrinkage=0.427593


Tree=3
num_leaves=13
num_cat=0
split_feature=169 106 207 67 171 245 206 157 84 158 57 59
split_gain=11.0611 8.89832 5.56421 4.92929 4.37941 3.80157 4.57553 2.41641 1.46764 0.440256 0.11855 0.0692104
threshold=0.29285714285714304 0.42261904761904806 0.29285714285714304 0.14550264550264552 0.17028985507246402 0.28991596638655504 0.1742424242424245 0.060661764705882353 0.21825396825396801 0.22649572649572652 0.34523809523809507 0.37980769230769257
decision_type=2 2 2 2 2 2 2 2 2 2 2 2
left_child=1 2 4 -3 5 6 -1 -5 -2 -7 -10 -9
right_child=8 3 -4 7 -6 9 -8 11 10 -11 -12 -13
leaf_value=0.34468000023481421 -0.13813551561781781 0.19904673220539501 -0.36278992205822452 -0.040464871313962716 -0.21405722133421567 0.54980881409390403 -0.33393793774258457 -0.62636757205687954 -0.59236261391985534 0.32312121102951269 -0.46482563829169526 -0.50948421970123192
leaf_count=41 15 17 15 15 14 65 14 16 21 13 20 16
internal_value=0 0.233963 0.54487 -0.534572 0.695424 0.848254 0.343602 -0.993835 -1.01716 1.20406 -1.26141 -1.36069
internal_count=282 226 162 64 147 133 55 47 56 78 41 32
shrinkage=0.427593


Tree=4
num_leaves=13
num_cat=0
split_feature=127 169 50 80 206 24 199 185 1 75 151 64
split_gain=7.20373 4.69503 5.09296 4.54488 4.33301 4.32613 2.68933 2.37013 2.03391 1.82241 0.107447 0.0473332
threshold=0.4083333333333336 0.14550264550264552 0.10317460317460311 0.084219858156028365 0.26136363636363652 0.08514492753623186 0.10319148936170201 0.10555555555555551 0.28991596638655504 0.16333333333333352 0.20714285714285705 0.32291666666666657
decision_type=2 2 2 2 2 2 2 2 2 2 2 2
left_child=1 2 -1 5 7 -3 -5 8 -4 -7 -2 -8
right_child=10 3 4 6 -6 9 11 -9 -10 -11 -12 -13
leaf_value=-0.37470710596862311 -0.52733621037275491 -0.42603240215189292 0.029547080839472516 0.0022130951801780153 -0.26003529012526377 0.042899399795998633 -0.59977367178198815 0.030755229256279274 0.52097720516706658 0.61592934232269536 -0.37369564554260709 -0.49648412378145718
leaf_count=15 27 13 15 17 15 14 13 22 80 14 13 24
internal_value=0 0.162443 0.465633 -0.302157 0.65374 0.347447 -0.83363 0.847606 1.04728 0.891193 -1.13669 -1.27523
internal_count=282 242 147 95 132 41 54 117 95 28 40 37
shrinkage=0.427593


Tree=5
num_leaves=12
num_cat=0
split_feature=81 127 7 184 169 5 2 206 281 63 121
split_gain=6.21347 4.23922 3.79038 3.64245 2.868 2.45613 1.52294 1.37662 0.700978 0.100794 0.00139109
threshold=0.28991596638655504 0.47727272727272757 0.37980769230769257 1.0000000180025095e-35 0.29285714285714304 0.1742424242424245 0.20714285714285705 0.12771739130434803 0.22875816993464052 0.27922077922077954 0.11437908496732001
decision_type=2 2 2 2 2 2 2 2 2 2 2
left_child=1 2 3 -1 5 7 -7 -4 -5 -2 -11
right_child=9 -3 4 8 -6 6 -8 -9 -10 10 -12
leaf_value=0.21904408302490211 -0.36095266354631034 -0.48350438894426795 0.30476026848211341 -0.56599076791709835 -0.27799816513073466 -0.0082484374860587063 0.4281379116252057 -0.25185157036851619 -0.19009620583846829 -0.54832628243417803 -0.47620138618139213
leaf_count=25 13 26 14 16 17 14 99 14 16 13 15
internal_value=0 0.178419 0.297983 -0.343365 0.535754 0.669039 0.868775 -0.0835501 -0.976465 -1.11408 -1.21468
internal_count=282 241 215 57 158 141 113 28 32 41 28
shrinkage=0.427593


Tree=6
num_leaves=16
num_cat=0
split_feature=204 199 147 211 226 107 266 136 169 2 64 53 163 252 136
split_gain=4.01541 3.04036 2.5756 2.42971 1.78595 1.76314 1.44628 1.21321 0.95316 0.948146 0.792066 0.442786 0.0890866 0.0534516 0.0146659
threshold=0.18665377176015502 0.14550264550264552 0.34523809523809507 0.29285714285714304 0.064583333333333368 0.24264705882352952 0.12632978723404253 0.060661764705882353 0.10555555555555551 0.46862745098039255 0.44949494949494956 0.10555555555555551 0.10263157894736852 0.20714285714285705 0.040833333333333353
decision_type=2 2 2 2 2 2 2 2 2 2 2 2 2 2 2
left_child=1 3 4 10 5 8 -3 -4 -2 12 11 -1 -6 -13 -14
right_child=2 6 7 -5 9 -7 -8 -9 -10 -11 -12 13 14 -15 -16
leaf_value=0.20997543685090495 0.4430145023678615 -0.50467142789566899 0.47482134132517667 -0.185086254347572 -0.36861894638841974 -0.34481687143210743 0.1355689483026945 -0.10363618270452446 -0.10099362671342504 -0.039722368287052716 0.072683019183857264 0.38447111169869375 -0.54244868944315994 0.51542299843905881 -0.46191262454575727
leaf_count=15 13 14 14 14 15 20 13 14 13 15 14 13 19 48 28
internal_value=0 0.404824 -0.386064 0.66371 -0.604306 -0.107234 -0.547452 0.494106 0.472358 -0.939956 0.891823 1.02977 -1.11608 1.15508 -1.19439
internal_count=282 131 151 104 123 46 27 28 26 77 90 76 62 61 47
shrinkage=0.427593


Tree=7
num_leaves=14
num_cat=0
split_feature=106 147 116 183 256 185 245 28 211 54 259 58 259
split_gain=2.34324 2.64484 2.28854 1.60283 1.65586 1.06542 1.1715 0.800452 0.858234 0.76136 0.690455 0.517451 0.0947661
threshold=0.14835164835164852 0.27525252525252558 0.14642857142857152 0.12632978723404253 0.14835164835164852 0.08514492753623186 0.5634920634920636 0.37980769230769257 0.16025641025641052 0.30384615384615404 0.30625000000000008 1.0000000180025095e-35 0.36931818181818205
decision_type=2 2 2 2 2 2 2 2 2 2 2 2 2
left_child=2 5 11 10 9 6 7 8 -2 -5 -3 -1 -7
right_child=1 3 -4 4 -6 12 -8 -9 -10 -11 -12 -13 -14
leaf_value=0.13230157327322722 -0.065474566003981022 0.48062461202619594 -0.2772835755152126 -0.10081411870803286 -0.3561583647081652 -0.49932869956485548 0.36282929558262 0.15146253245274693 -0.47087198214393711 0.38517517492325115 0.029748002915360321 0.48456141919591972 -0.29552246283333877
leaf_count=14 23 25 16 13 22 31 13 14 29 13 13 43 13
internal_value=0 -0.196252 0.572332 0.24413 -0.144423 -0.577073 -0.318407 -0.499191 -0.693208 0.411101 0.807509 0.925306 -1.06843
internal_count=282 209 73 86 48 123 79 66 52 26 38 57 44
shrinkage=0.427593


Tree=8
num_leaves=12
num_cat=0
split_feature=64 37 127 7 266 19 73 106 75 163 161
split_gain=1.87504 1.7836 1.48541 1.28263 1.65884 1.27197 0.81092 0.772508 0.582281 0.112939 0.00738869
threshold=1.0000000180025095e-35 0.12132352941176451 0.4083333333333336 0.37980769230769257 0.15587044534412953 0.11805555555555551 0.29285714285714304 0.13392857142857154 0.16333333333333352 0.095454545454545472 0.15587044534412953
decision_type=2 2 2 2 2 2 2 2 2 2 2
left_child=9 7 3 4 -3 -5 -7 -2 -9 -1 -10
right_child=1 2 -4 5 -6 6 -8 8 10 -11 -12
leaf_value=0.46526909759713436 0.11781540096317752 -0.45351867339665258 -0.4488736024202668 -0.19002145769144854 0.26268742251397398 0.33734960782936502 -0.12624493613350565 -0.12690894889517362 -0.50064937894354111 0.24122667176078194 -0.4035670793377425
leaf_count=19 16 22 27 23 17 73 13 24 19 14 15
internal_value=0 -0.120322 0.105112 0.226594 -0.395015 0.441086 0.641469 -0.638526 -0.820166 0.906587 -1.1126
internal_count=282 249 175 148 39 109 86 74 58 33 34
shrinkage=0.427593


Tree=9
num_leaves=13
num_cat=0
split_feature=207 58 109 249 119 273 64 212 119 219 169 12
split_gain=1.42466 1.26686 1.11676 0.904234 0.806689 0.791071 1.2917 0.589109 0.550558 0.458215 0.558911 0.446325
threshold=0.18465909090909102 0.45299145299145305 0.1742424242424245 0.20869565217391303 0.28174603174603202 1.0000000180025095e-35 0.17156862745098053 0.093073593073593072 0.14642857142857152 1.0000000180025095e-35 0.095454545454545472 0.55050505050505061
decision_type=2 2 2 2 2 2 2 2 2 2 2 2
left_child=1 2 5 7 11 6 -1 -4 -3 -7 -11 -2
right_child=4 8 3 -5 -6 9 -8 -9 -10 10 -12 -13
leaf_value=0.45390703377989577 -0.46286449961005094 0.023826720045153762 0.055082446436126344 0.32058350631034704 0.042690203217449756 0.46176364576494261 -0.35908295940541129 -0.45938170600362299 -0.40760942695029939 0.44873429966074163 -0.041316393062605865 -0.038364123364234927
leaf_count=13 44 20 14 16 23 51 13 16 20 20 18 14
internal_value=0 0.185846 0.366165 -0.208897 -0.522048 0.603155 -0.0310461 -0.604552 -0.494353 0.81707 0.406332 -0.850823
internal_count=282 201 161 46 81 115 26 30 40 89 38 58
shrinkage=0.427593


Tree=10
num_leaves=10
num_cat=0
split_feature=81 127 212 252 80 0 168 63 17
split_gain=1.15793 0.973799 1.02221 1.07355 1.04873 0.765062 0.478183 0.116162 0.00388265
threshold=0.28991596638655504 0.47727272727272757 0.30384615384615404 0.64171122994652408 0.21111111111111103 0.55777777777777815 0.11437908496732001 0.27922077922077954 0.10263157894736852
decision_type=2 2 2 2 2 2 2 2 2
left_child=1 2 3 4 5 -1 -6 -2 -5
right_child=7 -3 -4 8 6 -7 -8 -9 -10
leaf_value=-0.051147938253100163 -0.17186296665490225 -0.4416680195339584 -0.32236787131097372 0.36631482207967309 0.033372180629031793 0.28021383190536303 -0.47238196007974742 -0.44650755397348657 0.46807592289824052
leaf_count=49 13 26 23 13 14 83 15 28 18
internal_value=0 0.115394 0.200429 0.315392 0.13359 0.339552 -0.632195 -0.84555 1.02858
internal_count=282 241 215 192 161 132 29 41 31
shrinkage=0.427593


Tree=11
num_leaves=11
num_cat=0
split_feature=206 169 213 61 64 50 64 79 123 22
split_gain=0.84373 0.910306 0.657638 0.601811 0.568521 0.426221 0.308343 0.294409 0.18178 0.0501474
threshold=0.22649572649572652 0.14550264550264552 0.12916666666666651 0.21825396825396801 0.20526315789473704 0.13392857142857154 0.32291666666666657 0.23303167420814502 0.14835164835164852 0.36602870813397154
decision_type=2 2 2 2 2 2 2 2 2 2
left_child=1 2 5 -3 -2 -1 -5 9 -6 -7
right_child=4 3 -4 6 8 7 -8 -9 -10 -11
leaf_value=-0.046338634160560839 0.12816868664198905 0.123058265242494 -0.089876732996421044 -0.070655243554912317 -0.44846134967741569 0.4495615539992866 -0.43355723223851306 0.039975676367168422 -0.10489932078697431 0.25164410293188971
leaf_count=13 15 25 24 23 41 66 32 14 16 13
internal_value=0 0.152502 0.437753 -0.281583 -0.555101 0.665265 -0.64369 0.830759 -0.85691 0.980909
internal_count=282 210 130 80 72 106 55 93 57 79
shrinkage=0.427593


Tree=12
num_leaves=13
num_cat=0
split_feature=7 209 159 79 266 226 266 164 196 157 123 52
split_gain=0.824386 0.715882 0.61046 0.615353 0.572389 0.664952 0.500971 0.476772 0.353553 0.118337 0.103623 0.0626284
threshold=0.37980769230769257 0.074175824175824162 0.19090909090909103 0.14835164835164852 0.15587044534412953 0.12916666666666651 0.10555555555555551 0.13809523809523802 0.11805555555555551 0.26785714285714307 0.14835164835164852 0.11805555555555551
decision_type=2 2 2 2 2 2 2 2 2 2 2 2
left_child=4 2 7 6 11 -6 -4 8 -2 -10 -5 -1
right_child=1 -3 3 10 5 -7 -8 -9 9 -11 -12 -13
leaf_value=-0.12386619933770969 -0.068262048871328321 -0.40167589873929282 -0.11504168244075305 -0.44459590989496245 0.28540349493441253 -0.36319747282224141 0.44992067470789887 -0.10166839506284915 0.42796122058419633 0.14115359869393204 -0.099172261162609354 -0.45080832465882748
leaf_count=13 13 15 19 17 19 18 16 22 70 13 13 34
internal_value=0 0.200544 0.312028 -0.127426 -0.497798 0.000461581 0.342903 0.580114 0.760167 0.903777 -0.794609 -0.969512
internal_count=282 198 183 65 84 37 35 118 96 83 30 47
shrinkage=0.427593


Tree=13
num_leaves=15
num_cat=0
split_feature=2 169 107 70 5 9 252 120 214 8 206 264 56 38
split_gain=0.472354 0.541508 0.412636 0.34716 0.46821 0.336846 0.374231 0.356093 0.35717 0.272251 0.191734 0.0899058 0.0435587 0.00351376
threshold=0.51666666666666661 0.045086119554204655 0.15587044534412953 0.22649572649572652 0.36602870813397154 0.18350168350168353 0.31414473684210559 0.10263157894736852 0.069047619047619066 0.51470588235294112 0.043040293040293061 0.074175824175824162 0.44949494949494956 0.24038461538461553
decision_type=2 2 2 2 2 2 2 2 2 2 2 2 2 2
left_child=1 2 12 -2 -5 6 -3 8 -7 -4 -9 -6 -1 -12
right_child=3 5 9 4 11 7 -8 10 -10 -11 13 -13 -14 -15
leaf_value=0.43272736379177307 0.44334057503577179 -0.28149203181294152 -0.30322268187631135 -0.28727764856387511 0.079892922380924977 0.31244046111763851 0.31995948261723717 -0.073318364331400626 -0.32490756032707535 0.22371805302694125 -0.44187838012237457 0.41461267410520075 0.15298597916953602 -0.30712984410905803
leaf_count=29 20 13 16 20 13 16 15 19 13 13 54 14 13 14
internal_value=0 -0.173345 0.331941 0.439017 0.0962444 -0.403826 0.165751 -0.587223 0.0445576 -0.19336 -0.816403 0.643822 0.868234 -0.989147
internal_count=282 215 71 67 47 144 28 116 29 29 87 27 42 68
shrinkage=0.427593


Tree=14
num_leaves=13
num_cat=0
split_feature=59 199 37 131 249 82 2 273 227 247 30 234
split_gain=0.377438 0.429943 0.405961 0.333476 0.297167 0.239266 0.228773 0.167093 0.161581 0.0494246 0.0436639 0.00298642
threshold=0.11437908496732001 0.14550264550264552 0.12132352941176451 0.14550264550264552 0.055727554179566555 0.20714285714285705 0.27525252525252558 1.0000000180025095e-35 0.080128205128205107 0.36931818181818205 0.20526315789473704 0.13392857142857154
decision_type=2 2 2 2 2 2 2 2 2 2 2 2
left_child=1 7 8 4 -4 -5 -6 -1 10 -8 -2 -7
right_child=2 -3 3 5 6 11 9 -9 -10 -11 -12 -13
leaf_value=0.019115756532115485 -0.43855510371202544 -0.28046490991835571 -0.16044787678636419 0.052980767131088707 -0.049097979863410871 -0.4297375878694738 0.42176505528456526 0.42688860236144854 -0.037590607640723341 0.14576215100085743 -0.18784973889286946 -0.2621935040108207
leaf_count=17 22 14 22 21 23 18 34 48 20 14 16 13
internal_value=0 0.465167 -0.162774 0.0660111 0.339799 -0.417588 0.594828 0.761797 -0.631485 0.857927 -0.880084 -0.896097
internal_count=282 79 203 145 93 52 71 65 58 48 38 31
shrinkage=0.427593


Tree=15
num_leaves=12
num_cat=0
split_feature=7 274 199 89 157 5 79 67 135 120 52
split_gain=0.292413 0.349215 0.32304 0.312466 0.259521 0.249338 0.236746 0.204768 0.193868 0.107937 0.0663222
threshold=0.37980769230769257 0.38315217391304351 0.095454545454545472 0.27525252525252558 0.29285714285714304 0.28869047619047655 0.21980676328502402 0.22649572649572652 0.17914438502673802 0.17028985507246402 0.11805555555555551
decision_type=2 2 2 2 2 2 2 2 2 2 2
left_child=3 2 9 10 5 -4 -5 -7 -3 -2 -1
right_child=1 8 4 6 -6 7 -8 -9 -10 -11 -12
leaf_value=-0.058271197286674063 0.42417859567045219 -0.42210844407257314 -0.19294404654496747 0.263818741997493 -0.39509721541853671 0.4148894308098513 -0.31241296228063703 -0.073615345305452703 0.097905984793111328 0.12616770486396967 -0.42150036753005621
leaf_count=15 50 21 25 21 19 29 14 15 14 25 34
internal_value=0 0.178013 0.348207 -0.396791 0.00109536 0.225442 0.147369 0.581483 -0.537325 0.753356 -0.839076
internal_count=282 198 163 84 88 69 35 44 35 75 49
shrinkage=0.427593


Tree=16
num_leaves=13
num_cat=0
split_feature=81 175 176 169 4 108 207 280 229 120 23 5
split_gain=0.330809 0.231532 0.261774 0.227181 0.23515 0.217794 0.309235 0.15289 0.119113 0.0439793 0.0384162 0.092104
threshold=0.30384615384615404 0.080128205128205107 0.10263157894736852 0.087121212121212113 0.43650793650793657 0.29285714285714304 0.088007736943907164 0.11805555555555551 0.11437908496732001 0.14642857142857152 0.12916666666666651 0.35857142857142854
decision_type=2 2 2 2 2 2 2 2 2 2 2 2
left_child=1 5 10 -4 8 6 7 -1 -5 -8 -3 -12
right_child=-2 2 3 4 -6 -7 9 -9 -10 -11 11 -13
leaf_value=-0.072715759505247987 -0.38383162174338142 0.42801761169321129 0.41553651262229518 -0.40796902755329661 0.27299573471352906 -0.37578542110249752 -0.10806295359786898 0.39640226307725146 0.0087435065794820993 -0.41509042767875243 -0.067951741083707051 0.40817119769863497
leaf_count=19 36 30 14 28 13 27 21 32 17 14 15 16
internal_value=0 0.110393 0.360265 0 -0.252199 -0.204844 0.0407683 0.542151 -0.612469 -0.613619 0.805855 0.463375
internal_count=282 246 133 72 58 113 86 51 45 35 61 31
shrinkage=0.427593


Tree=17
num_leaves=13
num_cat=0
split_feature=169 198 232 198 73 204 245 59 84 184 119 84
split_gain=0.186983 0.203516 0.173103 0.14087 0.137374 0.115862 0.105044 0.0870623 0.0800668 0.0608831 0.0267921 0.00707248
threshold=0.29285714285714304 0.28869047619047655 0.22649572649572652 0.21825396825396801 0.20416666666666652 0.36931818181818205 0.46410256410256456 0.12916666666666651 0.21825396825396801 0.18465909090909102 0.041276595744680858 0.28174603174603202
decision_type=2 2 2 2 2 2 2 2 2 2 2 2
left_child=1 2 3 4 9 10 11 -5 -2 -1 -3 -4
right_child=8 5 6 7 -6 -7 -8 -9 -10 -11 -12 -13
leaf_value=0.38958507864428121 0.0099982999683629978 0.09907572870900376 -0.20017546665373293 0.10161480418204855 -0.15974565618946029 -0.097704967718539024 0.022148639717686727 -0.33335676177888607 -0.37998366427563984 0.018069849747234853 0.41195544660239308 -0.41238700198765094
leaf_count=47 15 15 17 14 13 15 22 15 41 13 29 26
internal_value=0 0.123452 -0.0674765 0.184476 0.460434 0.622225 -0.514926 -0.340054 -0.60634 0.711783 0.844099 -0.833733
internal_count=282 226 167 102 73 59 65 29 56 60 44 43
shrinkage=0.427593


Tree=18
num_leaves=12
num_cat=0
split_feature=2 106 107 213 173 5 169 63 248 168 266
split_gain=0.158196 0.168201 0.139362 0.132222 0.126984 0.0805459 0.107406 0.0774034 0.0707013 0.0400168 4.24366e-05
threshold=0.32456140350877205 0.34313725490196051 0.29285714285714304 0.074175824175824162 0.095454545454545472 0.10555555555555551 0.19090909090909103 0.35857142857142854 0.16843971631205704 0.17028985507246402 1.0000000180025095e-35
decision_type=2 2 2 2 2 2 2 2 2 2 2
left_child=2 5 3 7 8 -2 -7 10 -3 -5 -1
right_child=1 4 -4 9 -6 6 -8 -9 -10 -11 -12
leaf_value=0.17124003224641829 -0.083940151941452698 -0.40139728859175738 -0.38817826629805235 -0.03268385985717346 0.18443848951564112 0.42149167120906089 0.025517565816504217 -0.072120307834600703 0 -0.40268330340963349 0.39997461257165617
leaf_count=14 13 24 49 19 19 61 21 14 18 15 15
internal_value=0 0.232207 -0.331559 -0.030506 -0.197187 0.545846 0.690126 0.395821 -0.583805 -0.576199 0.812489
internal_count=282 156 126 77 61 95 82 43 42 34 29
shrinkage=0.427593


Tree=19
num_leaves=12
num_cat=0
split_feature=7 266 2 169 5 226 151 197 248 137 52
split_gain=0.118564 0.116989 0.11291 0.124481 0.0961879 0.0936775 0.0898302 0.0657187 0.0577057 0.0166729 0.010553
threshold=0.37980769230769257 0.15587044534412953 0.27525252525252558 0.29285714285714304 0.31009615384615402 0.18465909090909102 0.095454545454545472 0.19090909090909103 0.22649572649572652 0.20526315789473704 0.11805555555555551
decision_type=2 2 2 2 2 2 2 2 2 2 2
left_child=1 10 7 4 6 -3 -4 -2 -9 -6 -1
right_child=2 5 3 -5 9 -7 -8 8 -10 -11 -12
leaf_value=-0.090060235933706684 0.29651739815958456 0.20774582411191195 0.28039081636741514 -0.22037269984437136 0.41837314337576398 -0.32265199744344936 -0.16411765562877573 -0.35328851537903183 0.084325358328839833 0.14137943132733594 -0.41227806142186285
leaf_count=13 13 21 25 19 58 16 22 33 14 14 34
internal_value=0 -0.387456 0.183585 0.372051 0.534991 0.0601841 0.102176 -0.334881 -0.545624 0.859414 -0.858221
internal_count=282 84 198 138 119 37 47 60 47 72 47
shrinkage=0.427593


Tree=20
num_leaves=12
num_cat=0
split_feature=147 73 59 107 80 105 98 130 89 201 23
split_gain=0.0983608 0.114018 0.0999527 0.0681647 0.0637394 0.057975 0.0598848 0.0579547 0.0258383 0.0213914 0.00766482
threshold=0.27525252525252558 0.32456140350877205 0.12916666666666651 0.26136363636363652 0.24264705882352952 0.63068181818181812 0.095454545454545472 0.14835164835164852 0.16025641025641052 0.31666666666666654 0.29285714285714304
decision_type=2 2 2 2 2 2 2 2 2 2 2
left_child=2 4 3 8 7 6 -4 10 -1 -8 -2
right_child=1 -3 5 -5 -6 -7 9 -9 -10 -11 -12
leaf_value=0.38390237516129627 0.39870043398568056 -0.27080074623564371 0.19021989196566605 -0.20479003847592075 -0.088148534908262327 0.098898138518692308 -0.37180413180801469 -0.032435905954382664 -0 -0.076346413303087432 0.14258902897995168
leaf_count=32 52 20 14 14 15 13 66 13 13 17 13
internal_value=0 0.300954 -0.240283 0.301024 0.500548 -0.482718 -0.629202 0.668691 0.672442 -0.748005 0.839449
internal_count=282 113 169 59 93 110 97 78 45 83 65
shrinkage=0.427593


Tree=21
num_leaves=11
num_cat=0
split_feature=127 53 21 64 137 184 63 60 263 30
split_gain=0.0793561 0.0660533 0.0772726 0.0642816 0.0624083 0.0532217 0.032057 0.0317136 0.0304359 0.0118204
threshold=0.43650793650793657 0.40588235294117653 0.48076923076923106 0.18350168350168353 0.16025641025641052 0.08514492753623186 0.31009615384615402 0.28991596638655504 0.10555555555555551 0.19098277608915901
decision_type=2 2 2 2 2 2 2 2 2 2
left_child=1 2 3 6 7 8 -1 -3 -5 -7
right_child=-2 4 -4 5 -6 9 -8 -9 -10 -11
leaf_value=0.34213071675518303 -0.3823080919629181 0.36318341028665224 0.30738531300405081 0.096899067370203679 -0.15148713244278511 -0.40021987351854943 -0.017580107500087448 0 -0.25662752501555752 -0.12306956154997022
leaf_count=26 35 43 21 38 14 30 25 18 14 18
internal_value=0 0.0840289 -0.0891015 -0.232674 0.443531 -0.440195 0.28004 0.660288 -0.0154247 -0.756409
internal_count=282 247 172 151 75 100 51 61 52 48
shrinkage=0.427593


Tree=22
num_leaves=12
num_cat=0
split_feature=211 49 2 67 8 106 184 136 100 37 105
split_gain=0.0609267 0.0682236 0.0590996 0.0587012 0.0425369 0.0361393 0.0359526 0.0343719 0.030228 0.0135972 0.00147916
threshold=0.13392857142857154 0.85164835164835162 0.25462962962962959 0.14550264550264552 0.51470588235294112 0.30384615384615404 1.0000000180025095e-35 0.10555555555555551 0.28174603174603202 0.18465909090909102 0.20416666666666652
decision_type=2 2 2 2 2 2 2 2 2 2 2
left_child=2 3 6 4 -2 7 -1 -5 10 -10 -4
right_child=1 -3 8 5 -6 -7 -8 -9 9 -11 -12
leaf_value=0.1111726246237594 -0.17748996426136363 0.26270626097535071 0.13216534727910759 -0.26122716232784077 0.21545892512207424 -0.39405920933029387 -0.3187872257805428 0.24378459682749667 -0.13968739435373217 0.17966361104108766 0.39792593805592891
leaf_count=20 24 17 18 14 21 65 19 16 13 13 42
internal_value=0 -0.218302 0.301808 -0.370242 0.0267908 -0.66585 -0.227837 -0.0696407 0.57907 0.0190956 0.819867
internal_count=282 157 125 140 45 95 39 30 86 26 60
shrinkage=0.427593


Tree=23
num_leaves=12
num_cat=0
split_feature=207 280 169 128 22 211 24 205 57 247 2
split_gain=0.0460493 0.0467572 0.0479537 0.0430259 0.034337 0.0295817 0.0269729 0.0201999 0.0160489 0.0139075 0.00619868
threshold=0.17028985507246402 0.34523809523809507 0.13392857142857154 0.16228070175438603 0.22649572649572652 0.11437908496732001 0.12771739130434803 0.12916666666666651 0.38750000000000007 0.30384615384615404 0.46862745098039255
decision_type=2 2 2 2 2 2 2 2 2 2 2
left_child=1 2 3 6 10 -2 9 -7 -6 -1 -4
right_child=5 -3 4 -5 8 7 -8 -9 -10 -11 -12
leaf_value=0.38479714500938716 0.034246150322011788 0.35285809250256106 -0.35308165992469015 -0.14537292436783469 -0.10971721357831016 0 -0.029988963230154819 -0.3612670481673555 0.2136771879733366 0 -0
leaf_count=49 23 29 26 21 14 16 13 52 13 13 13
internal_value=0 0.159048 0.0151638 0.325001 -0.321702 -0.383035 0.572624 -0.638339 0.059183 0.759951 -0.700102
internal_count=282 191 162 96 66 91 75 68 27 62 39
shrinkage=0.427593


Tree=24
num_leaves=13
num_cat=0
split_feature=81 147 175 220 108 232 35 211 212 28 58 112
split_gain=0.0452586 0.0364949 0.0336742 0.033536 0.0258425 0.025079 0.0219441 0.0184223 0.0155491 0.0135785 0.00679512 0.00519083
threshold=0.28991596638655504 0.23303167420814502 1.0000000180025095e-35 0.074175824175824162 0.29285714285714304 0.087121212121212113 0.20416666666666652 0.13392857142857154 0.12916666666666651 0.37980769230769257 0.27525252525252558 0.11805555555555551
decision_type=2 2 2 2 2 2 2 2 2 2 2 2
left_child=1 2 9 4 11 -4 -5 -7 -8 -1 -9 -3
right_child=-2 3 5 6 -6 7 8 10 -10 -11 -12 -13
leaf_value=-0.30487951240438171 -0.30111428209386704 0 0.33399393861744042 0.22374184986042744 -0.0040835580513534954 0.15497102653703293 0.009864602739039191 -0 -0.30026515745967669 0 -0.31644654187433824 0.37326614804568631
leaf_count=40 41 13 17 14 14 22 16 13 14 13 14 51
internal_value=0 0.100584 -0.162109 0.342136 0.617608 0.15051 -0.0183661 -0.0898604 -0.345027 -0.547981 -0.480922 0.804642
internal_count=282 241 119 122 78 66 44 49 30 53 27 64
shrinkage=0.427593


Tree=25
num_leaves=13
num_cat=0
split_feature=79 5 266 184 162 64 16 203 98 0 159 53
split_gain=0.0415343 0.0265153 0.0232147 0.0188809 0.0170963 0.0170543 0.0175556 0.0126124 0.0124321 0.00885719 0.00663776 0.00059836
threshold=0.14835164835164852 0.36602870813397154 0.12250000000000001 0.14835164835164852 0.29285714285714304 0.10263157894736852 0.37980769230769257 0.24038461538461553 0.095454545454545472 0.88194444444444453 0.060661764705882353 0.34057971014492755
decision_type=2 2 2 2 2 2 2 2 2 2 2 2
left_child=2 8 5 7 10 -1 9 -3 -2 11 -4 -7
right_child=1 3 4 -5 -6 6 -8 -9 -10 -11 -12 -13
leaf_value=0.28214534451334194 0 0.31013208117866126 0.014838594614898047 -0.23453642295771371 -0 -0.32238399197331929 0.12975975072340329 -0 -0.31972628327625502 0 0.36625501094381707 -0.025834342427036201
leaf_count=21 14 16 13 17 16 22 15 16 59 14 44 15
internal_value=0 -0.308227 0.25791 0.0112612 0.539682 -0 -0.187308 0.328383 -0.615719 -0.452897 0.707371 -0.615209
internal_count=282 122 160 49 73 87 66 32 73 51 57 37
shrinkage=0.427593


Tree=26
num_leaves=12
num_cat=0
split_feature=81 252 169 64 206 17 73 150 100 5 218
split_gain=0.0208758 0.023246 0.0228753 0.0177561 0.0157612 0.0163019 0.0147052 0.0127357 0.011889 0.00695679 0.00361364
threshold=0.28991596638655504 0.64171122994652408 0.21111111111111103 0.4083333333333336 0.22649572649572652 0.10263157894736852 0.080128205128205107 0.14835164835164852 0.16025641025641052 0.24404761904761904 0.12916666666666651
decision_type=2 2 2 2 2 2 2 2 2 2 2
left_child=1 2 4 -3 5 6 -1 -7 -4 -6 -2
right_child=10 3 8 -5 9 7 -8 -9 -10 -11 -12
leaf_value=0.14094727707710791 -0 0.35513529394035026 0 -0 -0.28114878080487782 0.354995199811729 -0.19826608467435092 0 -0.31842668451570799 0 -0.3171661614828048
leaf_count=33 13 29 15 16 15 40 22 23 35 13 28
internal_value=0 0.0932976 -0.0202227 0.551049 0.124771 0.273734 -0 0.550964 -0.48602 -0.345396 -0.562181
internal_count=282 241 196 45 146 118 55 63 50 28 41
shrinkage=0.427593


Tree=27
num_leaves=12
num_cat=0
split_feature=199 59 37 80 147 85 2 273 196 9 74
split_gain=0.0196456 0.0211893 0.0289037 0.0135203 0.0137315 0.0124338 0.00807907 0.00575269 0.00410232 0.00257649 0.00175767
threshold=0.14550264550264552 0.12250000000000001 0.12916666666666651 0.21111111111111103 0.22649572649572652 0.57738095238095211 0.60769230769230764 1.0000000180025095e-35 0.36602870813397154 0.45993589743589752 0.24038461538461553
decision_type=2 2 2 2 2 2 2 2 2 2 2
left_child=1 7 10 4 9 6 8 -1 -2 -4 -3
right_child=5 2 3 -5 -6 -7 -8 -9 -10 -11 -12
leaf_value=0 -0.34690921753088599 -0.26593414714515617 0.093463219251533017 -0.11418512201638789 0.32836685091645629 0.02221655667222433 0 0.33632720097088303 -0 -0.12006925706167362 -0
leaf_count=17 38 33 14 14 31 25 17 49 16 13 15
internal_value=0 0.166055 -0 0.292817 0.482535 -0.319725 -0.524693 0.612771 -0.674528 -0 -0.525346
internal_count=282 186 120 72 58 96 71 66 54 27 48
shrinkage=0.427593


Tree=28
num_leaves=11
num_cat=0
split_feature=79 155 172 280 201 205 205 134 225 107
split_gain=0.0180011 0.0175413 0.0155595 0.0111823 0.0102879 0.00824374 0.00455116 0.00285463 0.0024837 0.00170925
threshold=0.22649572649572652 0.25833333333333358 1.0000000180025095e-35 1.0000000180025095e-35 0.27922077922077954 0.12916666666666651 0.14550264550264552 1.0000000180025095e-35 0.10263157894736852 0.20526315789473704
decision_type=2 2 2 2 2 2 2 2 2 2
left_child=1 2 3 -1 9 -2 8 -5 -4 -3
right_child=5 4 6 7 -6 -7 -8 -9 -10 -11
leaf_value=-0 0 -0 0.18136685383955287 0 0.060713166943697869 -0.27665407518366342 -0.1370048188228522 0.34353705382913896 -0 -0.28024595867858942
leaf_count=19 23 14 14 16 17 52 24 62 13 28
internal_value=0 0.13373 0.322278 0.551062 -0.233027 -0.425237 -0 0.699 0.166689 -0.514682
internal_count=282 207 148 97 59 75 51 78 27 42
shrinkage=0.427593


Tree=29
num_leaves=10
num_cat=0
split_feature=263 147 207 176 231 198 183 204 53
split_gain=0.0114782 0.0145445 0.0106777 0.00893647 0.00865402 0.00569157 0.00539122 0.00464813 0.00286603
threshold=0.10555555555555551 0.30384615384615404 0.095454545454545472 0.14642857142857152 0.10263157894736852 0.18465909090909102 0.25657894736842107 0.18665377176015502 0.14550264550264552
decision_type=2 2 2 2 2 2 2 2 2
left_child=1 2 4 5 8 -2 -3 -4 -1
right_child=3 6 7 -5 -6 -7 -8 -9 -10
leaf_value=-0.16078693146680459 -0.11777647559116383 0.28889326173621077 -0 -0.25088268901579636 0.24480497925207792 0.15821289017189336 0 -0.27647789120845001 0.015257484513215347
leaf_count=14 23 43 21 57 33 21 15 37 18
internal_value=0 0.14513 -0.030807 -0.284177 0.177643 0 0.507858 -0.403897 -0.0246551
internal_count=282 181 123 101 65 44 58 58 32
shrinkage=0.427593


Tree=30
num_leaves=10
num_cat=0
split_feature=106 2 173 176 38 53 5 67 168
split_gain=0.00843217 0.0113813 0.00943478 0.00521719 0.00519272 0.00459522 0.00437477 0.00316104 0.00190245
threshold=0.34313725490196051 0.34313725490196051 0.10263157894736852 0.10263157894736852 0.042572463768115958 0.10555555555555551 0.18465909090909102 0.16843971631205704 0.095454545454545472
decision_type=2 2 2 2 2 2 2 2 2
left_child=1 3 4 5 -2 -1 -3 -4 -5
right_child=2 6 7 8 -6 -7 -8 -9 -10
leaf_value=-0.039897880551968398 0 0 0.16303212678106541 -0 -0.2725486587743205 0.16803077737453428 0.26314824541309062 -0.012037435761942784 -0.22284565122469488
leaf_count=15 21 15 14 14 50 35 67 22 29
internal_value=0 0.151805 -0.227799 -0.0387632 -0.47452 0.102432 0.46924 0.0572583 -0.34824
internal_count=282 175 107 93 71 50 82 36 43
shrinkage=0.427593


Tree=31
num_leaves=9
num_cat=0
split_feature=73 37 213 109 56 120 130 198
split_gain=0.00863626 0.00749375 0.00597169 0.00807082 0.00481791 0.00458883 0.00348261 0.00162908
threshold=0.29285714285714304 0.26969696969697005 0.057189542483660157 0.22649572649572652 0.28869047619047655 0.10263157894736852 0.063164893617021267 0.17156862745098053
decision_type=2 2 2 2 2 2 2 2
left_child=1 2 3 6 -3 -4 -1 -2
right_child=7 4 5 -5 -6 -7 -8 -9
leaf_value=0.24344780535678415 -0.24984896029001946 -0 0 -0.11443688359135031 0.22807549745080322 -0.21498699298782281 0 -0
leaf_count=43 37 19 22 19 50 44 22 26
internal_value=0 0.0840941 -0.0242104 0.116887 0.368993 -0.309128 0.384966 -0.422255
internal_count=282 219 150 84 69 66 65 63
shrinkage=0.427593


Tree=32
num_leaves=9
num_cat=0
split_feature=206 199 245 266 214 196 131 82
split_gain=0.00706956 0.00909147 0.00423571 0.00320129 0.00287134 0.00178959 0.00148904 0.000564225
threshold=0.14835164835164852 0.087121212121212113 0.3867521367521371 0.12632978723404253 0.069047619047619066 0.24404761904761904 0.12771739130434803 0.10263157894736852
decision_type=2 2 2 2 2 2 2 2
left_child=1 4 7 5 -1 -3 -5 -2
right_child=2 3 -4 6 -6 -7 -8 -9
leaf_value=0.24696102236081824 -0 -0.20494294965293741 0 0.11835677530016625 0 -0 -0 -0.25795224963765007
leaf_count=57 20 20 36 22 25 27 25 50
internal_value=0 0.120949 -0.26889 -0.0540784 0.434745 -0.291466 0.0483535 -0.460999
internal_count=282 176 106 94 82 47 47 70
shrinkage=0.427593


Tree=33
num_leaves=7
num_cat=0
split_feature=79 107 226 7 147 5
split_gain=0.00561766 0.00529614 0.00465685 0.00333133 0.00319895 0.000791111
threshold=0.14835164835164852 0.29285714285714304 0.08514492753623186 0.4083333333333336 0.23303167420814502 0.34313725490196051
decision_type=2 2 2 2 2 2
left_child=1 3 5 -1 -3 -2
right_child=2 4 -4 -5 -6 -7
leaf_value=0 -0.047389226079342525 -0.14879386799236388 -0.20174641301180274 0.21248930006477626 0.025728296148821914 0.061569061737541363
leaf_count=32 26 30 71 72 26 25
internal_value=0 0.121106 -0.227717 0.327156 -0.0534981 0
internal_count=282 160 122 104 56 51
shrinkage=0.427593


Tree=34
num_leaves=6
num_cat=0
split_feature=206 59 149 7 134
split_gain=0.00382656 0.00460113 0.00603852 0.00383659 0.00606155
threshold=0.22649572649572652 0.26136363636363652 0.23611111111111102 0.36939571150097456 0.29285714285714304
decision_type=2 2 2 2 2
left_child=1 3 -3 -1 -5
right_child=-2 2 -4 4 -6
leaf_value=-0 -0.13657044926833242 -0.17177580470846784 0.054172340144042694 0.27121302210919684 -0
leaf_count=29 72 50 35 74 22
internal_value=0 0.0522811 -0.0892815 0.242135 0.39787
internal_count=282 210 85 125 96
shrinkage=0.427593


Tree=35
num_leaves=7
num_cat=0
split_feature=198 36 212 74 101 170
split_gain=0.0029519 0.00535524 0.00430542 0.00439287 0.0027807 0.00128988
threshold=0.28869047619047655 0.39230769230769258 0.069047619047619066 0.044642857142857158 1.0000000180025095e-35 0.088932806324110672
decision_type=2 2 2 2 2 2
left_child=2 -2 4 -4 -1 -5
right_child=1 -3 3 5 -6 -7
leaf_value=-0.037426636008321197 -0.0099530815936350187 0.19778005057043971 0 -0 0.12691933249951132 -0.26104801516476173
leaf_count=28 34 40 32 36 56 56
internal_value=0 0.18367 -0.111247 -0.28993 0.0305685 -0.456391
internal_count=282 74 208 124 84 92
shrinkage=0.427593


Tree=36
num_leaves=5
num_cat=0
split_feature=175 82 245 147
split_gain=0.00293367 0.0043745 0.00365011 0.00316412
threshold=0.064583333333333368 0.26136363636363652 0.24500000000000002 0.23303167420814502
decision_type=2 2 2 2
left_child=3 2 -2 -1
right_child=1 -3 -4 -5
leaf_value=-0.1660596748292105 -0 -0.040021947274780631 0.21268293756194206 0
leaf_count=62 39 63 67 51
internal_value=0 0.0828705 0.291579 -0.196613
internal_count=282 169 106 113
shrinkage=0.427593


Tree=37
num_leaves=5
num_cat=0
split_feature=211 2 49 8
split_gain=0.00215319 0.00411804 0.0036383 0.00283111
threshold=0.11437908496732001 0.25462962962962959 0.67948717948717963 0.60555555555555562
decision_type=2 2 2 2
left_child=1 -1 3 -2
right_child=2 -3 -4 -5
leaf_value=-0.014230026821801073 -0.17822680544994043 0.15923598075530129 0.023932352729816773 0
leaf_count=36 96 73 33 44
internal_value=0 0.117083 -0.12985 -0.277082
internal_count=282 109 173 140
shrinkage=0.427593


Tree=38
num_leaves=5
num_cat=0
split_feature=169 80 206 197
split_gain=0.00247896 0.00506212 0.00274734 0.00138035
threshold=0.14550264550264552 0.084219858156028365 0.14835164835164852 0.37980769230769257
decision_type=2 2 2 2
left_child=2 -2 3 -1
right_child=1 -3 -4 -5
leaf_value=0.17185582157168314 0 -0.19451494476593692 -0 0
leaf_count=76 47 75 49 35
internal_value=0 -0.167468 0.106073 0.278617
internal_count=282 122 160 111
shrinkage=0.427593


Tree=39
num_leaves=6
num_cat=0
split_feature=4 175 270 75 163
split_gain=0.00143531 0.00307781 0.00308679 0.000929144 0.000247054
threshold=0.16843971631205704 0.080128205128205107 0.042572463768115958 0.12916666666666651 1.0000000180025095e-35
decision_type=2 2 2 2 2
left_child=4 3 -3 -2 -1
right_child=1 2 -4 -5 -6
leaf_value=-0 0 0.18553345461015902 -0 -0.088396398632622261 -0.11601149827991615
leaf_count=30 42 60 47 43 60
internal_value=0 0.0538754 0.250922 -0.0504338 -0.183743
internal_count=282 192 107 85 90
shrinkage=0.427593


Tree=40
num_leaves=5
num_cat=0
split_feature=252 79 107 85
split_gain=0.00199253 0.00351609 0.00107215 0.00043544
threshold=0.67948717948717963 0.12916666666666651 0.29285714285714304 0.26969696969697005
decision_type=2 2 2 2
left_child=1 2 -1 -3
right_child=-2 3 -4 -5
leaf_value=0.07526588857484412 0.093128452528685915 -0 -0.013588505744843923 -0.18355021835743401
leaf_count=86 43 44 44 65
internal_value=0 -0.0920211 0 -0.311126
internal_count=282 239 130 109
shrinkage=0.427593


Tree=41
num_leaves=6
num_cat=0
split_feature=72 234 16 176 155
split_gain=0.00152673 0.00345494 0.00133315 0.000756178 1.52343e-05
threshold=0.12916666666666651 0.040833333333333353 0.14550264550264552 0.095454545454545472 0.22649572649572652
decision_type=2 2 2 2 2
left_child=2 -2 -1 -4 -3
right_child=1 4 3 -5 -6
leaf_value=-0 -0.16797149537229505 0.012043363887990467 0.14849849622843972 0 -0
leaf_count=46 63 37 44 40 52
internal_value=0 -0.135959 0.0871166 0.220115 0
internal_count=282 152 130 84 89
shrinkage=0.427593


Tree=42
num_leaves=5
num_cat=0
split_feature=199 261 245 9
split_gain=0.00137245 0.00179908 0.001603 0.00177396
threshold=0.14550264550264552 0.24264705882352952 0.28991596638655504 0.45993589743589752
decision_type=2 2 2 2
left_child=2 -2 -1 -4
right_child=1 -3 3 -5
leaf_value=-0 -0.14756724058031745 0 0.15381889056447429 -0
leaf_count=78 55 41 74 34
internal_value=0 -0.165207 0.0650734 0.207922
internal_count=282 96 186 108
shrinkage=0.427593


Tree=43
num_leaves=5
num_cat=0
split_feature=207 231 19 72
split_gain=0.00100797 0.00170515 0.00125263 0.000722885
threshold=0.18465909090909102 0.12132352941176451 0.18465909090909102 0.14835164835164852
decision_type=2 2 2 2
left_child=1 2 -1 -3
right_child=-2 3 -4 -5
leaf_value=0 -0.076365924883594949 0.13801520329763514 -0.10123611053140535 0
leaf_count=48 81 59 45 49
internal_value=0 0.033191 -0.00671418 0.206114
internal_count=282 201 93 108
shrinkage=0.427593


Tree=44
num_leaves=5
num_cat=0
split_feature=37 59 7 199
split_gain=0.000848112 0.00222719 0.000682839 0.000295689
threshold=0.26969696969697005 0.30384615384615404 0.36939571150097456 0.12771739130434803
decision_type=2 2 2 2
left_child=1 2 -1 -2
right_child=3 -3 -4 -5
leaf_value=-0.03634912227432624 0.079253643280995503 -0.14943125590721451 0.056370147109939664 0
leaf_count=35 40 68 94 45
internal_value=0 -0.0833078 0 0.10218
internal_count=282 197 129 85
shrinkage=0.427593


Tree=45
num_leaves=4
num_cat=0
split_feature=252 169 206
split_gain=0.000685743 0.00164158 0.00049145
threshold=0.67948717948717963 0.14550264550264552 0.14835164835164852
decision_type=2 2 2
left_child=1 2 -1
right_child=-2 -3 -4
leaf_value=0.053672328258040691 0.062384378113722862 -0.10058322072738167 -0.0039077581173209384
leaf_count=97 43 101 41
internal_value=0 -0.0543147 0
internal_count=282 239 138
shrinkage=0.427593


Tree=46
num_leaves=5
num_cat=0
split_feature=147 184 116 24
split_gain=0.000519587 0.00134367 0.00112813 1.45715e-06
threshold=0.27525252525252558 0.11805555555555551 0.13392857142857154 0.10263157894736852
decision_type=2 2 2 2
left_child=2 -2 3 -1
right_child=1 -3 -4 -5
leaf_value=0.0034798549413785152 0.10838638835246343 -0 -0.11197624793894638 -0
leaf_count=63 63 50 65 41
internal_value=0 0.074629 -0.0716508 0
internal_count=282 113 169 104
shrinkage=0.427593


Tree=47
num_leaves=4
num_cat=0
split_feature=82 196 254
split_gain=0.000423575 0.00143644 0.000639536
threshold=0.22649572649572652 0.24404761904761904 0.43650793650793657
decision_type=2 2 2
left_child=1 -1 -2
right_child=2 -3 -4
leaf_value=-0 0 0.089245889652062482 -0.094697041919735936
leaf_count=68 74 99 41
internal_value=0 0.0435626 -0.0898977
internal_count=282 167 115
shrinkage=0.427593


Tree=48
num_leaves=4
num_cat=0
split_feature=7 2 74
split_gain=0.000456752 0.000981165 0.00121084
threshold=0.37980769230769257 0.32456140350877205 0.11437908496732001
decision_type=2 2 2
left_child=-1 -2 -3
right_child=1 2 -4
leaf_value=-0.050191316533393607 -0 0.14135112180577178 -0
leaf_count=84 73 57 68
internal_value=0 0.020179 0.151759
internal_count=282 198 125
shrinkage=0.427593


Tree=49
num_leaves=4
num_cat=0
split_feature=64 53 3
split_gain=0.000516797 0.00173136 0.00119321
threshold=0.18350168350168353 0.40588235294117653 0.25543478260869557
decision_type=2 2 2
left_child=-1 2 -2
right_child=1 -3 -4
leaf_value=0.031699575722348383 -0.14338532116966834 0 0
leaf_count=81 82 65 54
internal_value=0 -0.075715 -0.215202
internal_count=282 201 136
shrinkage=0.427593


Tree=50
num_leaves=3
num_cat=0
split_feature=206 199
split_gain=0.000222621 0.00125458
threshold=0.14835164835164852 0.087121212121212113
decision_type=2 2
left_child=1 -1
right_child=-2 -3
leaf_value=0.096507770862151676 -0.02928166310901657 -0
leaf_count=82 106 94
internal_value=0 0.0342784
internal_count=282 176
shrinkage=0.427593


Tree=51
num_leaves=3
num_cat=0
split_feature=37 106
split_gain=0.000223837 0.000862207
threshold=0.26969696969697005 0.29285714285714304
decision_type=2 2
left_child=1 -1
right_child=-2 -3
leaf_value=0 0.018044945917342795 -0.078539469880283111
leaf_count=98 85 99
internal_value=0 -0.0549847
internal_count=282 197
shrinkage=0.427593


Tree=52
num_leaves=4
num_cat=0
split_feature=266 212 207
split_gain=0.000195854 0.00117643 0.000212202
threshold=0.10555555555555551 0.11437908496732001 0.088007736943907164
decision_type=2 2 2
left_child=2 -2 -1
right_child=1 -3 -4
leaf_value=0 0.094316442294794509 -0 -0.056038243469253596
leaf_count=64 78 84 56
internal_value=0 0.0393241 -0.0569756
internal_count=282 162 120
shrinkage=0.427593


Tree=53
num_leaves=4
num_cat=0
split_feature=79 109 266
split_gain=0.000227941 0.000579825 0.000549277
threshold=0.12916666666666651 0.14642857142857152 0.10555555555555551
decision_type=2 2 2
left_child=2 -2 -1
right_child=1 -3 -4
leaf_value=-0 0 -0.075786156543112729 0.065992333415612683
leaf_count=74 59 73 76
internal_value=0 -0.0664471 0.0328204
internal_count=282 132 150
shrinkage=0.427593


Tree=54
num_leaves=4
num_cat=0
split_feature=175 82 206
split_gain=0.000124104 0.000723723 0.000461162
threshold=1.0000000180025095e-35 0.15587044534412953 0.12250000000000001
decision_type=2 2 2
left_child=2 -2 -1
right_child=1 -3 -4
leaf_value=0 0.077535626583246156 -0 -0.073762554980572756
leaf_count=56 72 101 53
internal_value=0 0.0170465 -0.056172
internal_count=282 173 109
shrinkage=0.427593


Tree=55
num_leaves=4
num_cat=0
split_feature=2 213 106
split_gain=9.60613e-05 0.000982826 0.000431065
threshold=0.34313725490196051 0.074175824175824162 0.34313725490196051
decision_type=2 2 2
left_child=1 -1 -2
right_child=2 -3 -4
leaf_value=0 0.058485163611116123 -0.098467424641553586 -0
leaf_count=82 82 63 55
internal_value=0 -0.0469092 0.0119696
internal_count=282 145 137
shrinkage=0.427593


Tree=56
num_leaves=4
num_cat=0
split_feature=252 79 72
split_gain=5.20254e-05 0.000833131 3.93934e-05
threshold=0.64171122994652408 0.12916666666666651 0.19090909090909103
decision_type=2 2 2
left_child=1 2 -1
right_child=-2 -3 -4
leaf_value=0.018576449120541159 0.011652747138092133 -0.073859495828800026 -0
leaf_count=76 51 106 49
internal_value=0 -0.0246699 0
internal_count=282 231 125
shrinkage=0.427593


Tree=57
num_leaves=3
num_cat=0
split_feature=80 175
split_gain=4.56153e-05 0.000862926
threshold=0.16228070175438603 0.064583333333333368
decision_type=2 2
left_child=1 -1
right_child=-2 -3
leaf_value=-0 -0.01318813532579733 0.068965278895764176
leaf_count=82 91 109
internal_value=0 0.0199215
internal_count=282 191
shrinkage=0.427593


Tree=58
num_leaves=4
num_cat=0
split_feature=199 207 8
split_gain=6.93162e-05 0.000585221 7.69868e-05
threshold=0.095454545454545472 0.095454545454545472 0.43303571428571458
decision_type=2 2 2
left_child=2 -2 -1
right_child=1 -3 -4
leaf_value=-0 0 -0.066220467865616722 0.027456591737330942
leaf_count=68 60 95 59
internal_value=0 -0.0386679 0.00865494
internal_count=282 155 127
shrinkage=0.427593


Tree=59
num_leaves=3
num_cat=0
split_feature=37 74
split_gain=4.06009e-05 0.000359032
threshold=0.26969696969697005 0.11437908496732001
decision_type=2 2
left_child=1 -1
right_child=-2 -3
leaf_value=0 0.010345337153208543 -0.054167762498777909
leaf_count=99 85 98
internal_value=0 -0.0217553
internal_count=282 197
shrinkage=0.427593


Tree=60
num_leaves=3
num_cat=0
split_feature=204 261
split_gain=1.43731e-05 0.000435447
threshold=0.14550264550264552 0.20714285714285705
decision_type=2 2
left_child=-1 -2
right_child=1 -3
leaf_value=0.0087593107393298241 -0.05224449427533142 0
leaf_count=115 100 67
internal_value=0 -0.00443962
internal_count=282 167
shrinkage=0.427593


Tree=61
num_leaves=3
num_cat=0
split_feature=7 266
split_gain=6.89438e-05 0.000847741
threshold=0.61250000000000016 0.15587044534412953
decision_type=2 2
left_child=1 -1
right_child=-2 -3
leaf_value=-0.075337766051212146 0.019737643554303529 0
leaf_count=99 117 66
internal_value=0 -0
internal_count=282 165
shrinkage=0.427593


Tree=62
num_leaves=3
num_cat=0
split_feature=157 0
split_gain=9.44177e-05 0.000850694
threshold=0.17156862745098053 0.6201923076923076
decision_type=2 2
left_child=1 -1
right_child=-2 -3
leaf_value=-0 -0 0.078443780266404903
leaf_count=83 101 98
internal_value=0 0.0432663
internal_count=282 181
shrinkage=0.427593


Tree=63
num_leaves=4
num_cat=0
split_feature=147 175 184
split_gain=1.3851e-05 0.000212027 0.000153488
threshold=0.23303167420814502 1.0000000180025095e-35 0.11805555555555551
decision_type=2 2 2
left_child=1 -1 -2
right_child=2 -3 -4
leaf_value=-0.044229830392126392 0.036734824401424601 0 -0
leaf_count=61 79 83 59
internal_value=0 -0 0.0187579
internal_count=282 144 138
shrinkage=0.427593


Tree=64
num_leaves=3
num_cat=0
split_feature=113 207
split_gain=8.60094e-06 0.000502752
threshold=0.22649572649572652 0.095454545454545472
decision_type=2 2
left_child=1 -1
right_child=-2 -3
leaf_value=0.063105617852978843 -0 -0
leaf_count=80 129 73
internal_value=0 0.0142578
internal_count=282 153
shrinkage=0.427593


Tree=65
num_leaves=3
num_cat=0
split_feature=28 147
split_gain=5.99599e-07 0.000461544
threshold=0.40588235294117653 0.28991596638655504
decision_type=2 2
left_child=1 -1
right_child=-2 -3
leaf_value=-0.049072170793270059 0 0
leaf_count=141 70 71
internal_value=0 -0.00336496
internal_count=282 212
shrinkage=0.427593


Tree=66
num_leaves=3
num_cat=0
split_feature=7 207
split_gain=2.06351e-05 0.000382895
threshold=0.37980769230769257 0.14835164835164852
decision_type=2 2
left_child=-1 -2
right_child=1 -3
leaf_value=-0 0.047123867060890841 -0
leaf_count=84 123 75
internal_value=0 0.0203228
internal_count=282 198
shrinkage=0.427593


Tree=67
num_leaves=3
num_cat=0
split_feature=37 7
split_gain=1.61556e-06 9.43266e-06
threshold=0.26969696969697005 0.37980769230769257
decision_type=2 2
left_child=1 -1
right_child=-2 -3
leaf_value=-0.010196625835995331 0.00064498652797487753 0
leaf_count=64 85 133
internal_value=0 -0.00583066
internal_count=282 197
shrinkage=0.427593


Tree=68
num_leaves=2
num_cat=0
split_feature=37
split_gain=2.99819e-07
threshold=0.26969696969697005
decision_type=2
left_child=-1
right_child=-2
leaf_value=-0.0010482365035720731 0.0004096270869859218
leaf_count=197 85
internal_value=0
internal_count=282
shrinkage=0.427593


Tree=69
num_leaves=2
num_cat=0
split_feature=37
split_gain=1.12844e-07
threshold=0.26969696969697005
decision_type=2
left_child=-1
right_child=-2
leaf_value=-0.0006409442437291643 0.00026014167186725029
leaf_count=197 85
internal_value=0
internal_count=282
shrinkage=0.427593


Tree=70
num_leaves=2
num_cat=0
split_feature=37
split_gain=4.24897e-08
threshold=0.26969696969697005
decision_type=2
left_child=-1
right_child=-2
leaf_value=-0.00039188176214935189 0.00016520054209890817
leaf_count=197 85
internal_value=0
internal_count=282
shrinkage=0.427593


Tree=71
num_leaves=2
num_cat=0
split_feature=37
split_gain=1.60062e-08
threshold=0.26969696969697005
decision_type=2
left_child=-1
right_child=-2
leaf_value=-0.00023959126478776313 0.00010490697195202571
leaf_count=197 85
internal_value=0
internal_count=282
shrinkage=0.427593


Tree=72
num_leaves=2
num_cat=0
split_feature=37
split_gain=6.03306e-09
threshold=0.26969696969697005
decision_type=2
left_child=-1
right_child=-2
leaf_value=-0.00014648157913925116 6.6620933484860844e-05
leaf_count=197 85
internal_value=0
internal_count=282
shrinkage=0.427593


Tree=73
num_leaves=2
num_cat=0
split_feature=37
split_gain=2.27516e-09
threshold=0.26969696969697005
decision_type=2
left_child=-1
right_child=-2
leaf_value=-8.9552896373677228e-05 4.2305786519435852e-05
leaf_count=197 85
internal_value=0
internal_count=282
shrinkage=0.427593


Tree=74
num_leaves=2
num_cat=0
split_feature=37
split_gain=8.58519e-10
threshold=0.26969696969697005
decision_type=2
left_child=-1
right_child=-2
leaf_value=-5.4748757933855555e-05 2.686377587134157e-05
leaf_count=197 85
internal_value=0
internal_count=282
shrinkage=0.427593


Tree=75
num_leaves=2
num_cat=0
split_feature=37
split_gain=3.24162e-10
threshold=0.26969696969697005
decision_type=2
left_child=-1
right_child=-2
leaf_value=-3.3470763002330476e-05 1.7057587751327195e-05
leaf_count=197 85
internal_value=0
internal_count=282
shrinkage=0.427593


Tree=76
num_leaves=2
num_cat=0
split_feature=37
split_gain=1.22476e-10
threshold=0.26969696969697005
decision_type=2
left_child=-1
right_child=-2
leaf_value=-2.046213343095396e-05 1.0829953574880165e-05
leaf_count=197 85
internal_value=0
internal_count=282
shrinkage=0.427593


Tree=77
num_leaves=2
num_cat=0
split_feature=37
split_gain=4.63255e-11
threshold=0.26969696969697005
decision_type=2
left_child=-1
right_child=-2
leaf_value=-1.2511239729715048e-05 6.8788525753770863e-06
leaf_count=197 85
internal_value=0
internal_count=282
shrinkage=0.427593


Tree=78
num_leaves=2
num_cat=0
split_feature=37
split_gain=1.75247e-11
threshold=0.26969696969697005
decision_type=2
left_child=-1
right_child=-2
leaf_value=-7.6469663321244411e-06 4.3689770264868494e-06
leaf_count=197 85
internal_value=0
internal_count=282
shrinkage=0.427593


Tree=79
num_leaves=2
num_cat=0
split_feature=37
split_gain=6.64093e-12
threshold=0.26969696969697005
decision_type=2
left_child=-1
right_child=-2
leaf_value=-4.6767804604546446e-06 2.773951171191194e-06
leaf_count=197 85
internal_value=0
internal_count=282
shrinkage=0.427593


Tree=80
num_leaves=2
num_cat=0
split_feature=37
split_gain=2.51763e-12
threshold=0.26969696969697005
decision_type=2
left_child=-1
right_child=-2
leaf_value=-2.8596678348119509e-06 1.7609186816201982e-06
leaf_count=197 85
internal_value=0
internal_count=282
shrinkage=0.427593


Tree=81
num_leaves=2
num_cat=0
split_feature=37
split_gain=9.54694e-13
threshold=0.26969696969697005
decision_type=2
left_child=-1
right_child=-2
leaf_value=-1.7471347256943841e-06 1.1197603325774575e-06
leaf_count=197 85
internal_value=0
internal_count=282
shrinkage=0.427593


Tree=82
num_leaves=2
num_cat=0
split_feature=37
split_gain=3.62862e-13
threshold=0.26969696969697005
decision_type=2
left_child=-1
right_child=-2
leaf_value=-1.068707573503342e-06 7.1105368005250012e-07
leaf_count=197 85
internal_value=0
internal_count=282
shrinkage=0.427593


Tree=83
num_leaves=2
num_cat=0
split_feature=37
split_gain=1.37537e-13
threshold=0.26969696969697005
decision_type=2
left_child=-1
right_child=-2
leaf_value=-6.5409247782810932e-07 4.4697538760097495e-07
leaf_count=197 85
internal_value=0
internal_count=282
shrinkage=0.427593


Tree=84
num_leaves=2
num_cat=0
split_feature=37
split_gain=5.24275e-14
threshold=0.26969696969697005
decision_type=2
left_child=-1
right_child=-2
leaf_value=-3.9823604246671556e-07 2.8875895781361064e-07
leaf_count=197 85
internal_value=0
internal_count=282
shrinkage=0.427593


Tree=85
num_leaves=2
num_cat=0
split_feature=37
split_gain=1.98891e-14
threshold=0.26969696969697005
decision_type=2
left_child=-1
right_child=-2
leaf_value=-2.435491581676401e-07 1.8164459971642813e-07
leaf_count=197 85
internal_value=0
internal_count=282
shrinkage=0.427593


Tree=86
num_leaves=2
num_cat=0
split_feature=37
split_gain=7.63437e-15
threshold=0.26969696969697005
decision_type=2
left_child=-1
right_child=-2
leaf_value=-1.5013642993390654e-07 1.1415125812113016e-07
leaf_count=197 85
internal_value=0
internal_count=282
shrinkage=0.427593


Tree=87
num_leaves=2
num_cat=0
split_feature=37
split_gain=2.86758e-15
threshold=0.26969696969697005
decision_type=2
left_child=-1
right_child=-2
leaf_value=-9.0335181912176176e-08 7.3394473844012306e-08
leaf_count=197 85
internal_value=0
internal_count=282
shrinkage=0.427593


Tree=88
num_leaves=2
num_cat=0
split_feature=37
split_gain=1.11686e-15
threshold=0.26969696969697005
decision_type=2
left_child=-1
right_child=-2
leaf_value=-5.6404562403046163e-08 4.5748622132713149e-08
leaf_count=197 85
internal_value=0
internal_count=282
shrinkage=0.427593


Tree=89
num_leaves=2
num_cat=0
split_feature=37
split_gain=4.53492e-16
threshold=0.26969696969697005
decision_type=2
left_child=-1
right_child=-2
leaf_value=-3.5800702749898705e-08 2.9429437367670879e-08
leaf_count=197 85
internal_value=0
internal_count=282
shrinkage=0.427593


Tree=90
num_leaves=2
num_cat=0
split_feature=37
split_gain=1.36674e-16
threshold=0.26969696969697005
decision_type=2
left_child=-1
right_child=-2
leaf_value=-1.8901567191456783e-08 1.7540039154114759e-08
leaf_count=197 85
internal_value=0
internal_count=282
shrinkage=0.427593


Tree=91
num_leaves=2
num_cat=0
split_feature=37
split_gain=5.48919e-17
threshold=0.26969696969697005
decision_type=2
left_child=-1
right_child=-2
leaf_value=-9.5479655042325387e-09 1.4410708518604755e-08
leaf_count=197 85
internal_value=0
internal_count=282
shrinkage=0.427593


Tree=92
num_leaves=2
num_cat=0
split_feature=37
split_gain=2.41372e-17
threshold=0.26969696969697005
decision_type=2
left_child=-1
right_child=-2
leaf_value=-7.6171541259236261e-09 7.9049944612824319e-09
leaf_count=197 85
internal_value=0
internal_count=282
shrinkage=0.427593


Tree=93
num_leaves=2
num_cat=0
split_feature=37
split_gain=1.4245e-17
threshold=0.26969696969697005
decision_type=2
left_child=-1
right_child=-2
leaf_value=-5.6532553070620534e-09 6.3677793479950551e-09
leaf_count=197 85
internal_value=0
internal_count=282
shrinkage=0.427593


Tree=94
num_leaves=2
num_cat=0
split_feature=37
split_gain=6.60021e-18
threshold=0.26969696969697005
decision_type=2
left_child=-1
right_child=-2
leaf_value=-4.5859189952924013e-09 2.9639458451860696e-09
leaf_count=197 85
internal_value=0
internal_count=282
shrinkage=0.427593


Tree=95
num_leaves=2
num_cat=0
split_feature=37
split_gain=3.79131e-18
threshold=0.26969696969697005
decision_type=2
left_child=-1
right_child=-2
leaf_value=-3.3563475726133175e-09 2.5213102369474096e-09
leaf_count=197 85
internal_value=0
internal_count=282
shrinkage=0.427593


Tree=96
num_leaves=2
num_cat=0
split_feature=37
split_gain=4.48101e-19
threshold=0.26969696969697005
decision_type=2
left_child=-1
right_child=-2
leaf_value=-1.3412166191344871e-09 0
leaf_count=197 85
internal_value=0
internal_count=282
shrinkage=0.427593


Tree=97
num_leaves=2
num_cat=0
split_feature=37
split_gain=8.66573e-20
threshold=0.26969696969697005
decision_type=2
left_child=-1
right_child=-2
leaf_value=-5.8981185369279691e-10 0
leaf_count=197 85
internal_value=0
internal_count=282
shrinkage=0.427593


Tree=98
num_leaves=2
num_cat=0
split_feature=37
split_gain=8.66573e-20
threshold=0.26969696969697005
decision_type=2
left_child=-1
right_child=-2
leaf_value=-5.8981185369279691e-10 0
leaf_count=197 85
internal_value=0
internal_count=282
shrinkage=0.427593


Tree=99
num_leaves=2
num_cat=0
split_feature=37
split_gain=8.66573e-20
threshold=0.26969696969697005
decision_type=2
left_child=-1
right_child=-2
leaf_value=-5.8981185369868581e-10 0
leaf_count=197 85
internal_value=0
internal_count=282
shrinkage=0.427593


Tree=100
num_leaves=2
num_cat=0
split_feature=37
split_gain=8.66573e-20
threshold=0.26969696969697005
decision_type=2
left_child=-1
right_child=-2
leaf_value=-5.8981185369868581e-10 0
leaf_count=197 85
internal_value=0
internal_count=282
shrinkage=0.427593


Tree=101
num_leaves=2
num_cat=0
split_feature=37
split_gain=8.66573e-20
threshold=0.26969696969697005
decision_type=2
left_child=-1
right_child=-2
leaf_value=-5.8981185360446136e-10 0
leaf_count=197 85
internal_value=0
internal_count=282
shrinkage=0.427593



feature importances:
V38=43
V170=15
V3=14
V267=13
V207=13
V148=12
V8=12
V6=12
V65=11
V208=11
V80=10
V200=10
V107=9
V60=8
V108=7
V185=7
V253=7
V212=7
V176=7
V213=6
V246=6
V54=6
V81=6
V214=5
V74=5
V68=5
V82=5
V83=5
V199=5
V227=5
V158=5
V128=5
V9=5
V137=4
V76=4
V75=4
V169=4
V121=4
V64=4
V177=4
V1=4
V197=4
V205=4
V25=3
V10=3
V132=3
V281=3
V17=3
V120=3
V206=3
V110=3
V262=3
V164=3
V274=3
V85=3
V73=3
V53=3
V29=3
V59=3
V186=2
V2=2
V138=2
V215=2
V174=2
V235=2
V152=2
V156=2
V184=2
V233=2
V198=2
V160=2
V232=2
V171=2
V163=2
V202=2
V39=2
V86=2
V260=2
V264=2
V61=2
V58=2
V57=2
V51=2
V50=2
V135=2
V31=2
V24=2
V23=2
V20=2
V18=2
V5=2
V4=2
V90=2
V248=2
V249=2
V131=2
V129=2
V124=2
V250=2
V117=2
V109=2
V106=2
V257=2
V101=2
V99=2
V255=1
V265=1
V271=1
V226=1
V230=1
V275=1
V221=1
V236=1
V228=1
V282=1
V220=1
V122=1
V13=1
V15=1
V22=1
V36=1
V37=1
V52=1
V55=1
V62=1
V67=1
V71=1
V102=1
V113=1
V114=1
V219=1
V134=1
V136=1
V149=1
V150=1
V151=1
V159=1
V162=1
V165=1
V172=1
V173=1
V204=1
V210=1
