tree
version=v2
num_class=1
num_tree_per_iteration=1
label_index=0
max_feature_idx=49
objective=binary sigmoid:1
feature_names=V1 V2 V3 V4 V5 V6 V7 V8 V9 V10 V11 V12 V13 V14 V15 V16 V17 V18 V19 V20 V21 V22 V23 V24 V25 V26 V27 V28 V29 V30 V31 V32 V33 V34 V35 V36 V37 V38 V39 V40 V41 V42 V43 V44 V45 V46 V47 V48 V49 V50
feature_infos=[0.24722235362369499:47.274649825597898] [0.25622159527731297:31.277672359360199] [0:25.599528575121099] [0.50362591217364605:31.755194074770301] [0:4.3342859657556696] [0.88475480325590705:22.742801979224801] [0.23998626065932399:17.235996811247301] [1.1824995205228801:27.696259493784599] [0:8.3566300196764001] [0.47984054208222798:24.319552146365002] [0.23992027104111399:41.0668675252669] [0.71885117945730403:27.025547786476501] [0.23626844159006699:7.4235608120016598] [0:14.4365925696004] [0:17.190781754762899] [0.24721385628956399:21.249716335748602] [0.453253360113134:20.294672904928401] [0:6.4191767446516801] [0:14.0797407163166] [0.88475480325590705:31.277672359360199] [0.0215962342990258:0.031932216595382902] [0.021475572284422002:0.030705738641056801] [0.0187451328809073:0.029416952895869701] [0.020549137541912701:0.0296376851789318] [0.020544313384085602:0.0292910871508919] [0.0226168189034733:0.028887066365561102] [0.0207113625777622:0.030095420520967898] [0.0209242816446959:0.028830361690246501] [0.016585899390117301:0.028852291840777301] [0.021437771388844999:0.0288794972965658] [0.020595255900950099:0.0302096979906008] [0.020694099839521099:0.029447019882290801] [0.0216661761832222:0.027315134604036399] [0.017647497047660499:0.028150913283370299] [0.019123461474586399:0.0294839855971912] [0.020310994556428999:0.029525084093612701] [0.0201657690506464:0.027264881230477801] [0.016959512885564201:0.0270818765071109] [0.0202876870327716:0.0291920877210455] [0.0204484604341706:0.029575785168927799] [0.020274848581264299:0.028705578998262201] [0.021081955294385401:0.0281809446565661] [0.018631031737870202:0.0305342125817663] [0.020506102456355601:0.028870166272100199] [0.019564321891450898:0.031075409949772499] [0.021904924276146501:0.028581357181634601] [0.0188449305735423:0.030436067021831398] [0.018575498821096801:0.029079208443413] [0.018645903338249399:0.029739734038348901] [0.0203568162692408:0.0316957712376294]
tree_sizes=1151 1155 1085 1164 1319 780 1161 1223 1097 1238 1163 1169 1107 1003 1181 1091 1092 1179 1188 1188 1105 1170 1165 1034 1098 1091 1258 942 1181 1024 1167 1168 1188 1056 1007 1035 1111 995 1078 1034 976 1056 924 1020 986 884 974 1091 1024 845 1011 871 974 929 887 1055 946 879 910 916 772 956 669 853 709 685 708 674 600 787 719 573 695 525 640 456 527 405 513 322 395

Tree=0
num_leaves=14
num_cat=0
split_feature=18 0 12 0 10 25 12 35 9 30 13 0 0
split_gain=31.7294 39.6292 25.8833 13.7873 14.5361 9.60537 7.74425 7.31429 3.7069 2.39324 0.784987 0.117842 0.103604
threshold=3.5177495485895305 6.3181881676505904 0.78430380926579057 10.332176368074451 11.850503365753953 0.025398586596164601 3.1747323234741507 0.025210409856345102 3.5638549789331404 0.024159094458127854 1.9618419044485702 6.8181387052673115 4.1897117846707062
decision_type=2 2 2 2 2 2 2 2 2 2 2 2 2
left_child=1 2 -1 9 -5 -6 7 10 -4 -2 -3 -11 -10
right_child=3 6 8 4 5 -7 -8 -9 12 11 -12 -13 -14
leaf_value=0.39107737806147613 -0.27346833475224369 0.43008384971048841 -0.19516057727312117 0.35199031585719615 0.072845966042597868 -0.53104613522821464 0.030434828156132517 0.18041276461470657 -0.5868196469137863 -0.50839160718961263 0.58740907269077913 -0.58699151330075527 -0.50839160718961229
leaf_count=18 15 15 15 20 16 21 19 26 17 15 49 21 15
internal_value=0 0.528525 -0.707099 -0.85148 -0.174861 -0.917816 1.26565 1.51059 -1.48837 -1.6069 1.8742 -1.88747 -1.87341
internal_count=282 174 65 108 57 37 109 90 47 51 64 36 32
shrinkage=0.293861


Tree=1
num_leaves=14
num_cat=0
split_feature=18 0 7 10 9 21 6 4 29 12 25 21 25
split_gain=17.9765 22.8502 14.2008 17.2481 13.7273 6.74052 6.7317 5.58927 2.2484 1.62088 0.769833 0.13592 0.0975052
threshold=2.8776728759248758 5.3779694567428855 8.5815267119330283 15.344485785370301 3.1494712548854751 0.026162550537728004 2.6474959311745154 0.54510484749526811 0.024790071287445002 2.8083918912466852 0.024833599277615553 0.025476948858612954 0.025717108355852853
decision_type=2 2 2 2 2 2 2 2 2 2 2 2 2
left_child=1 4 6 5 -1 8 -2 9 -4 11 -8 -3 -12
right_child=2 7 3 -5 -6 -7 10 -9 -10 -11 12 -13 -14
leaf_value=0.13582068182473658 -0.0037655931972579576 0.41065288448145487 0.21223087529707668 -0.4029805013965661 -0.48821679597257328 -0.10527152560674141 -0.34538138402142027 0.076768679666518916 0.52281367733063133 0.24691645314871552 -0.54308686480711343 0.48625990088977433 -0.46929015555580711
leaf_count=25 15 15 16 23 26 15 15 24 18 16 20 38 16
internal_value=0 0.505266 -0.528906 0.0979514 -0.595826 0.779966 -1.21695 1.10909 1.28282 1.40683 -1.57386 1.58346 -1.73932
internal_count=282 144 138 72 51 49 66 93 34 69 51 53 36
shrinkage=0.293861


Tree=2
num_leaves=13
num_cat=0
split_feature=11 0 9 40 6 28 48 32 40 48 1 32
split_gain=21.7878 20.3697 11.3023 5.42631 5.088 5.46573 3.20896 1.91889 2.12919 0.845427 0.754404 0.607707
threshold=12.030868761936302 6.9218187473743056 2.9499000203874854 0.025595965799264604 5.7412353202819562 0.023687748387221753 0.024903611838398506 0.0252590773525951 0.024578891442210055 0.022913409252852304 5.9259722553017964 0.024125541473777306
decision_type=2 2 2 2 2 2 2 2 2 2 2 2
left_child=1 2 -1 4 5 -3 9 11 -9 -4 -2 -7
right_child=10 3 6 -5 -6 7 -8 8 -10 -11 -12 -13
leaf_value=0.17791788038535433 -0.30133823455900821 -0.021760001461882634 -0.27617204071460705 -0.052432991092714466 -0.013272922846867296 0.34335482340824836 -0.10629191662765924 0.08302704279959934 0.41641012163235308 -0.46694412574766125 -0.48229126508977543 0.4926617580057287
leaf_count=25 15 15 15 25 21 16 22 15 16 29 27 41
internal_value=0 0.245097 -0.548816 0.731998 0.914248 1.10872 -1.03757 1.31243 0.875233 -1.37649 -1.42951 1.54222
internal_count=282 240 91 149 124 103 66 88 31 44 42 57
shrinkage=0.293861


Tree=3
num_leaves=14
num_cat=0
split_feature=11 0 40 4 43 17 38 0 31 36 13 26 1
split_gain=13.1367 12.4309 6.92023 6.86395 5.54254 3.61578 3.50291 2.77845 2.4111 2.35899 1.97912 0.752846 0.0245103
threshold=12.030868761936302 10.493598518888051 0.025595965799264604 0.23961023555914054 0.023759220875009004 1.0228305305016854 0.023729634943074205 4.4887956056622214 0.024851364042478351 0.025132149368844853 4.5773931213315615 0.023774455584228953 3.8060350250879353
decision_type=2 2 2 2 2 2 2 2 2 2 2 2 2
left_child=1 2 3 7 -5 10 -6 -1 -4 -8 12 -2 -3
right_child=11 5 8 4 6 -7 9 -9 -10 -11 -12 -13 -14
leaf_value=0.079977909678376591 -0.22428336922351949 0.39519937760911589 -0.44307745922933883 0.21066299131011829 0.089065488766169154 0.019377609130646758 -0.37809764378850391 0.42279715747338598 -0.12065874976877591 -0.059632870119126637 0.15896884204234302 -0.41859234662768197 0.44109246003373226
leaf_count=20 15 21 19 21 15 18 30 21 20 15 17 27 23
internal_value=0 0.191494 -0.162679 0.100599 -0.27279 0.910992 -0.614336 0.847213 -0.966454 -0.926889 1.17762 -1.19997 1.43415
internal_count=282 240 161 122 81 79 60 41 39 45 61 42 44
shrinkage=0.293861


Tree=4
num_leaves=16
num_cat=0
split_feature=11 19 23 39 6 30 14 37 20 27 11 23 20 16 44
split_gain=8.45073 8.23526 5.14167 4.88212 5.39514 3.97696 3.40711 3.88075 3.09985 2.13294 1.48063 0.986228 0.444467 0.11409 0.00127723
threshold=10.250543764542252 8.7943431777526424 0.023985674784224954 0.023431327227497453 3.2709842284226256 0.025614526893931504 1.7277909027816802 0.024902143996295603 0.025094425312708554 0.023914727568077453 6.5190395149758613 0.024702028945433403 0.025278417514926651 8.3320247588099523 0.024874743041700304
decision_type=2 2 2 2 2 2 2 2 2 2 2 2 2 2 2
left_child=1 3 -2 -1 5 6 7 -5 -6 -3 -8 13 -4 -11 -14
right_child=2 9 12 4 8 -7 10 -9 -10 11 -12 -13 14 -15 -16
leaf_value=-0.3432529179529068 0.13385312981827499 0.061825145144821153 -0.24006186705199917 -0.20575598578971657 0.039224178831932209 -0.14144515296271448 0.3792705139712983 0.25045201564502817 -0.36019410318300177 0.37244183093213329 0.11773921021596971 0.20113287020709292 -0.4142207244776227 0.46691521547070841 -0.37298275230367961
leaf_count=18 15 15 15 17 16 22 31 16 23 16 15 15 18 15 15
internal_value=0 0.203254 -0.806684 -0.0678388 0.0796195 0.349033 0.594065 0.0424412 -0.67677 0.942437 1.00424 1.20813 -1.1986 1.44569 -1.35207
internal_count=282 219 63 158 140 101 79 33 39 61 46 46 48 31 33
shrinkage=0.293861


Tree=5
num_leaves=9
num_cat=0
split_feature=11 40 7 9 0 6 6 9
split_gain=5.81852 6.53032 5.38102 4.91371 10.4112 5.22621 3.61485 0.769783
threshold=12.030868761936302 0.025973355168116104 11.929925176888551 2.9499000203874854 5.4864698652463408 4.7035749583709512 1.9506507531623003 11.418747115713453
decision_type=2 2 2 2 2 2 2 2
left_child=1 2 3 -1 -5 6 -6 -2
right_child=7 -3 -4 4 5 -7 -8 -9
leaf_value=0.30254192795194917 -0.13160817734475394 -0.29022714983548931 0.4016608664407173 -0.37234258000301867 -0.032674024114512944 -0.18025304255197691 0.25554109601026354 -0.36085242536301282
leaf_count=25 15 24 25 36 31 27 72 27
internal_value=0 0.129909 0.271685 0.137174 -0.031383 0.275537 0.543136 -0.952708
internal_count=282 240 216 191 166 130 103 42
shrinkage=0.293861


Tree=6
num_leaves=14
num_cat=0
split_feature=29 29 12 0 11 35 49 21 29 41 4 7 3
split_gain=4.71967 4.5615 3.84024 8.2252 3.53179 3.15862 2.47092 1.92152 1.89756 1.82857 1.74774 3.2151 0.0406532
threshold=0.025730330330841652 0.025125770565337505 1.2411730687885851 6.8181387052673115 14.719248907328053 0.025402848002957102 0.025100372747764204 0.025796324319128504 0.023847629074358705 0.024596500385495001 0.24676729197762104 8.4064777834558715 4.4290761324892562
decision_type=2 2 2 2 2 2 2 2 2 2 2 2 2
left_child=1 2 8 12 5 6 -5 -3 -1 -9 -2 -12 -4
right_child=10 7 3 4 -6 -7 -8 9 -10 -11 11 -13 -14
leaf_value=0.045254254429995498 0.39568983857554962 -0.030093724997844108 -0.41682073240157219 0.30770468126112094 -0.3391949171337541 -0.1635077436950087 -0.01518087686929488 -0.093132304925469506 0.38409578020129387 -0.42116385504963888 -0.10391206435268512 0.3401555044275606 -0.347184038726429
leaf_count=15 18 22 15 44 15 15 19 15 19 26 20 19 20
internal_value=0 -0.168093 0.0663253 -0.15905 0.235232 0.423385 0.693665 -0.744546 0.776479 -1.05272 0.674551 0.357784 -1.30506
internal_count=282 225 162 128 93 78 63 63 34 41 57 39 35
shrinkage=0.293861


Tree=7
num_leaves=15
num_cat=0
split_feature=4 20 47 41 23 11 3 31 40 30 43 16 27 8
split_gain=3.50302 4.09681 3.54331 3.35603 2.92804 2.51932 3.83776 2.77608 1.83928 1.27816 1.16725 0.94901 0.535449 0.3191
threshold=0.54510484749526811 0.025310884044265954 0.023954599077775304 0.024107380144334351 0.025112875470664552 8.8174796262879269 4.913412204557571 0.024280326436560206 0.025098466796948504 0.024692203938832303 0.024303309569405251 9.9425973433473764 0.024858809916639805 2.2362642186644455
decision_type=2 2 2 2 2 2 2 2 2 2 2 2 2 2
left_child=1 4 9 -4 10 6 7 -2 -8 -3 -1 -7 -5 -12
right_child=5 2 3 12 -6 11 8 -9 -10 -11 13 -13 -14 -15
leaf_value=0.12191834214759037 0 0.012151334595307596 0.097470338479769811 -0.3763269925893038 -0.04104165706599279 -0.3728010904935542 0.32374815227292619 -0.44252892391239973 -0.044586004043536798 0.3458559732006618 0.4317101159675924 -0.091410159268232941 -0.18919225359084221 0.28087131193996007
leaf_count=23 17 15 21 21 22 29 18 15 15 15 20 15 19 17
internal_value=0 0.238458 -0.151951 -0.518894 0.689016 -0.387319 -0.089421 -0.710132 0.551901 0.623187 1.01507 -0.971173 -0.984273 1.26864
internal_count=282 173 91 61 82 109 65 32 33 30 60 44 40 37
shrinkage=0.293861


Tree=8
num_leaves=13
num_cat=0
split_feature=44 40 6 14 24 28 4 10 21 24 47 4
split_gain=2.78741 3.31784 2.41704 2.61831 2.26186 2.00799 2.30365 1.8782 1.50124 1.44489 1.21468 0.152701
threshold=0.025752749456586153 0.026034005986751454 5.7412353202819562 1.8404464476787401 0.025570271520138351 0.023687748387221753 1.0048876069523052 7.5307209198705651 0.026114158341362801 0.025306527963853857 0.024150516209929904 0.70024000908452166
decision_type=2 2 2 2 2 2 2 2 2 2 2 2
left_child=1 2 3 4 -1 -5 9 -2 -4 -7 -8 -10
right_child=7 -3 8 5 -6 6 10 -9 11 -11 -12 -13
leaf_value=-0.35250882905678033 0.31839687891665364 -0.38794773518179887 0.0093636285954525229 -0.14378580976905447 0.061690756027169065 0.29814524010840826 0.098311358258658041 -0.026485029559147246 -0.23845030567167036 0.072738039837318413 -0.24123742988338284 -0.37355689969220407
leaf_count=18 24 15 17 18 15 58 15 18 15 37 15 17
internal_value=0 -0.130789 -0.032776 0.118784 -0.550889 0.304353 0.457498 0.63288 -0.636097 0.700468 -0.225564 -1.0572
internal_count=282 240 225 176 33 143 125 42 49 95 30 32
shrinkage=0.293861


Tree=9
num_leaves=15
num_cat=0
split_feature=18 0 0 11 12 26 11 30 14 2 40 6 15 26
split_gain=2.60773 3.60558 2.47501 2.52171 2.12973 1.80288 1.66469 1.55251 1.44508 1.07119 0.865607 0.257129 0.216701 0.0121437
threshold=2.4630405145751606 4.4887956056622214 13.899004659422053 8.4743986384573216 0.7977419711006466 0.024798146811049703 9.7409196002998417 0.025098733907295053 3.7164819954961654 4.2842583820334506 0.024564041467505755 2.8173383926866955 6.3237849634249157 0.024091316555757053
decision_type=2 2 2 2 2 2 2 2 2 2 2 2 2 2
left_child=1 4 3 7 -1 11 -4 8 -2 -10 -7 -3 -5 -14
right_child=2 5 6 12 -6 10 -8 -9 9 -11 -12 -13 13 -15
leaf_value=0.10016413511990462 -0.11502344893017746 0.36064832919626932 0.33621438217402977 -0.22523831359598689 -0.27017063399344898 -0.095679181574337246 -0.10505965732215115 -0.23272907825729552 -0.035599807761835085 0.30225318652885247 0.18032951169252581 0.22616331136236789 -0.39283403680387941 -0.32800163999890453
leaf_count=16 23 29 15 21 25 16 15 20 15 16 15 22 15 19
internal_value=0 0.301692 -0.275504 -0.458816 -0.348782 0.675943 0.537035 -0.142091 0.127364 0.573202 0.154703 1.04582 -1.04792 -1.22402
internal_count=282 123 159 129 41 82 30 74 54 31 31 51 55 34
shrinkage=0.293861


Tree=10
num_leaves=14
num_cat=0
split_feature=29 29 40 12 0 4 27 15 8 8 4 0 48
split_gain=2.00407 2.53858 2.15094 1.9143 3.13097 2.09487 1.4541 1.16044 1.12481 0.926579 0.844534 1.26137 0.213083
threshold=0.025748020451311856 0.025125770565337505 0.025809606918984502 1.2411730687885851 6.8181387052673115 0.51365167725348815 0.024793295662039753 5.1005145818121358 0.98073197275402257 2.4888757956952907 0.24676729197762104 10.029020944325501 0.024938950824371205
decision_type=2 2 2 2 2 2 2 2 2 2 2 2 2
left_child=1 2 3 -1 -5 9 -7 8 -3 -6 -2 -12 -9
right_child=10 7 -4 4 5 6 -8 12 -10 -11 11 -13 -14
leaf_value=0.27220237250308088 0.34748557219527232 -0.22113416015554188 -0.24416827407345548 -0.33341331208614894 0.34308627793981855 0.081757845444919652 -0.26281946570185616 -0.22082608846178123 0.088641920596370813 0.047639947503575225 -0.043252815736421618 0.3069375190828158 -0.37808294831980266
leaf_count=29 17 16 19 26 29 28 16 17 16 15 22 15 17
internal_value=0 -0.129041 0.0978664 0.245946 0.0370606 0.29551 -0.17902 -0.61458 -0.252787 0.813935 0.55289 0.296216 -1.05579
internal_count=282 228 162 143 114 88 44 66 32 44 54 37 34
shrinkage=0.293861


Tree=11
num_leaves=14
num_cat=0
split_feature=11 7 39 18 7 9 15 2 14 49 23 1 0
split_gain=1.66893 2.09202 1.68332 2.37233 1.84523 3.19604 1.81068 1.70655 1.20571 0.79571 0.486857 0.461745 0.00494347
threshold=12.030868761936302 12.370180855094402 0.023571985591463455 2.8776728759248758 4.6881003803013961 2.9499000203874854 5.2002194188957258 4.2842583820334506 3.7164819954961654 0.024810206223969854 0.024921504785463556 5.9259722553017964 8.6394841866325667
decision_type=2 2 2 2 2 2 2 2 2 2 2 2 2
left_child=1 2 9 4 5 -4 12 -5 -9 -1 -10 -2 -6
right_child=11 -3 3 7 6 -7 -8 8 10 -11 -12 -13 -14
leaf_value=-0.038441874949175038 -0.048237569074649801 0.34283349222237053 0.22677929316684409 -0.28743011103909677 0.37297890068818557 -0.27208416072389885 -0.0039547587676116444 -0.12960973358170599 0.29398176601889553 -0.33648618342067654 0.036608421700085561 -0.32016467053779857 0.32425343322328481
leaf_count=15 15 20 20 26 17 24 18 26 15 15 15 27 29
internal_value=0 0.0851997 0.000158417 0.11829 0.436734 -0.0464381 0.810094 -0.294367 0.0222029 -0.673961 0.507308 -0.779467 1.18984
internal_count=282 240 220 190 108 44 64 82 56 30 30 42 46
shrinkage=0.293861


Tree=12
num_leaves=13
num_cat=0
split_feature=12 16 18 24 32 43 23 43 30 30 0 46
split_gain=1.16949 2.01478 1.74027 1.69162 1.37601 1.23317 0.910322 1.31346 0.850812 0.551155 0.340417 0.245673
threshold=0.50717003986164311 2.2637523951844556 2.4630405145751606 0.025598108097727553 0.024025049505645452 0.025304523550389205 0.023786563399253006 0.024829878299478452 0.024038273905221254 0.024526099909336102 10.941040457888951 0.024160976897492904
decision_type=2 2 2 2 2 2 2 2 2 2 2 2
left_child=-1 -2 4 5 -3 6 -4 -8 -6 -5 -7 -10
right_child=1 2 3 9 8 10 7 -9 11 -11 -12 -13
leaf_value=0.23804101398338307 -0.30356886594991705 -0.13957644085658077 0.10900818325855206 -0.081162496231620945 0.033186026058830857 0.080855240153552776 -0.011949678194029085 -0.35333013131231372 0.17182631665631576 -0.33467887247828038 0.32716913498705891 0.33364772568768158
leaf_count=15 21 18 25 16 21 15 42 16 15 29 15 34
internal_value=0 -0.0614998 0.0388487 -0.197269 0.433492 0.0371633 -0.175633 -0.43431 0.649653 -0.813854 0.721095 0.932524
internal_count=282 267 246 158 88 113 83 58 70 45 30 49
shrinkage=0.293861


Tree=13
num_leaves=12
num_cat=0
split_feature=44 40 11 19 32 11 41 24 27 20 26
split_gain=1.25134 1.21825 1.19006 1.8563 1.2914 1.27094 1.08387 0.631655 0.499809 0.26574 0.1653
threshold=0.025752749456586153 0.026034005986751454 12.030868761936302 8.7943431777526424 0.023647878485514601 7.381363230977481 0.025517564461812203 0.025409770061677453 0.023914727568077453 0.025383684812406156 0.023881820141098804
decision_type=2 2 2 2 2 2 2 2 2 2 2
left_child=1 2 3 4 -1 6 -6 -2 -5 -10 -4
right_child=7 -3 10 8 5 -7 -8 -9 9 -11 -12
leaf_value=-0.32759419457378064 0.25811495936657203 -0.3332333974746175 -0.11010807661484751 0.02091324334285867 0.13022338427715302 -0.20152655887145191 -0.14467141585536883 -0 0.32620294923505688 0.13359370464175133 -0.3123648561639808
leaf_count=16 25 15 15 16 56 27 23 17 29 19 24
internal_value=0 -0.112791 -0.0399564 0.056856 -0.174808 -0.0338709 0.193498 0.548038 0.639156 0.86708 -0.833275
internal_count=282 240 225 186 122 106 79 42 64 48 39
shrinkage=0.293861


Tree=14
num_leaves=14
num_cat=0
split_feature=29 18 7 45 8 21 46 8 32 38 12 37 42
split_gain=0.902468 0.975124 1.19136 1.19105 1.12654 1.05603 1.01996 1.72276 0.757858 0.493041 0.481324 0.800851 0.146907
threshold=0.025980291433215352 3.5177495485895305 8.5815267119330283 0.023887363631536752 0.98073197275402257 0.026162550537728004 0.024141140861862202 1.5483280433137454 0.024528819552319902 0.024548492941413504 1.4069407643813852 0.024650758240686705 0.025521679269249305
decision_type=2 2 2 2 2 2 2 2 2 2 2 2 2
left_child=1 3 12 4 -1 -4 7 -5 -6 -2 -8 -12 -3
right_child=9 2 5 6 8 -7 10 -9 -10 -11 11 -13 -14
leaf_value=-0.3305817772310996 0.27036345682061858 -0.32227240195802964 0.18056176660740103 -0.23798250587078629 -0.1714898238957063 -0.18759958807240212 0.31229974869169302 0.22509801354272002 0.15350587314329903 -0.00061489753590458123 0.24834700466766424 -0.12103123677594137 -0.15729378246097933
leaf_count=16 19 29 24 19 15 25 25 19 18 20 22 15 16
internal_value=0 -0.0879119 -0.441784 0.0876078 -0.360147 0.0175514 0.342091 -0.114244 0.0267909 0.568107 0.675379 0.346222 -0.937071
internal_count=282 243 94 149 49 49 100 38 33 39 62 37 45
shrinkage=0.293861


Tree=15
num_leaves=13
num_cat=0
split_feature=4 12 7 18 44 2 7 11 44 48 7 34
split_gain=0.857703 0.924431 0.821173 0.874059 1.42862 0.88178 0.774656 0.818169 1.02479 0.88638 0.319161 0.163529
threshold=0.53179217426554815 3.9085876290563855 9.0060461465831612 2.8776728759248758 0.025127156590421005 2.3381459346637956 4.8739728941084559 8.8174796262879269 0.024086252502890353 0.025213762737463601 12.059442171229103 0.024837931349584754
decision_type=2 2 2 2 2 2 2 2 2 2 2 2
left_child=1 2 3 4 5 -1 -2 8 -8 -10 -9 -4
right_child=6 -3 11 -5 -6 -7 7 10 9 -11 -12 -13
leaf_value=-0.1705856252259067 -0.31970976625381348 -0.16555507903969754 0.31910044088211542 -0.14185769792374736 0.31875297522337104 0.19709503632809749 0.26949536141040292 -0.32424115328529801 -0.1901812462688687 0.14063961200251671 -0.069272672122798473 0.1426331794209246
leaf_count=22 20 25 26 28 28 22 19 23 20 15 18 16
internal_value=0 0.198516 0.330784 0.132597 0.380603 -0.112246 -0.269917 -0.128966 0.116711 -0.197183 -0.698372 0.864614
internal_count=282 167 142 100 72 44 115 95 54 35 41 42
shrinkage=0.293861


Tree=16
num_leaves=13
num_cat=0
split_feature=11 7 6 8 9 46 41 13 9 30 19 3
split_gain=0.742649 0.790827 0.720746 0.846562 0.958228 0.674415 0.615615 0.551904 0.643196 0.356942 0.260038 0.251197
threshold=12.030868761936302 12.370180855094402 3.5678298107283202 1.0416011249147352 1.9144316467978353 0.024656497286630802 0.024614652809792002 1.8691447576466651 7.4399814801962103 0.024526099909336102 5.1339507592164404 12.632524860468001
decision_type=2 2 2 2 2 2 2 2 2 2 2 2
left_child=1 2 3 4 -1 -4 -7 -5 10 -6 -9 -2
right_child=11 -3 5 7 9 6 -8 8 -10 -11 -12 -13
leaf_value=0.15972921052479699 -0.30607288219815038 0.31329431012715042 -0.26156153714726799 -0.053909638419930926 -0.034568046331760451 0.22965151049038535 -0.11352020115645607 0.093880253830405533 -0.0031102902059895647 -0.28030503115698691 0.29932567037574087 -0.027944157495660264
leaf_count=15 27 20 27 18 17 15 28 15 21 23 41 15
internal_value=0 0.0756722 0.012714 0.169015 -0.234492 -0.370349 0 0.412999 0.584525 -0.615967 0.840815 -0.719235
internal_count=282 240 220 150 55 70 43 95 77 40 56 42
shrinkage=0.293861


Tree=17
num_leaves=14
num_cat=0
split_feature=4 23 10 17 0 28 7 46 24 8 34 16 8
split_gain=0.555587 0.699906 0.682771 0.837483 0.651768 0.696782 0.585714 0.702799 0.578086 0.289198 0.264476 0.253067 0.0727178
threshold=0.53179217426554815 0.024378123055182752 8.6210887530081663 0.25069677222381709 6.9991691984230355 0.025701234137081454 9.9053845449677365 0.024656497286630802 0.026149858956906902 2.0661028163836606 0.024489052628174853 4.0441687239127004 2.0661028163836606
decision_type=2 2 2 2 2 2 2 2 2 2 2 2 2
left_child=1 8 3 -3 9 6 7 -6 11 -2 -4 -1 -13
right_child=4 2 10 -5 5 -7 -8 -9 -10 -11 -12 12 -14
leaf_value=0.077910698207798529 -0.31390817316341441 -0.11447057070052774 -0.052073747804745121 0.2309044485011984 -0.15388168795560098 0.22779723834123508 -0.24514451775139914 0.22494699368092719 -0.063011199286597458 -0.051961678539971953 -0.31273752661170634 0.31397713604835215 0.17019818840977138
leaf_count=17 24 24 15 29 15 18 27 16 16 15 20 31 15
internal_value=0 0.180326 -0.115076 0.205644 -0.244592 -0.0034435 -0.252488 0.11051 0.500019 -0.761356 -0.668532 0.725807 0.936424
internal_count=282 167 88 53 115 76 58 31 79 39 35 63 46
shrinkage=0.293861


Tree=18
num_leaves=14
num_cat=0
split_feature=11 45 49 40 19 10 21 25 14 44 18 47 44
split_gain=0.481521 0.529579 0.645187 0.521492 0.447196 0.594952 0.485828 0.592899 0.38899 0.352496 0.239337 0.20702 0.120291
threshold=14.719248907328053 0.023989042392272956 0.024274827929218906 0.023997970966533003 7.7115603484176303 7.4116622262041014 0.026028987081373401 0.025248288570503302 2.2498232853986604 0.024339623450579651 3.9446279120359402 0.024471543049622804 0.024581981363818405
decision_type=2 2 2 2 2 2 2 2 2 2 2 2 2
left_child=1 2 -1 11 5 8 12 -8 -5 -4 -7 -3 -6
right_child=-2 3 9 4 6 10 7 -9 -10 -11 -12 -13 -14
leaf_value=0.080058257458746257 -0.29751980386814003 0.086294984105104819 -0.29068025128034403 -0.055579357556406285 0.11292717799461698 -0.074185937181324713 0.18358383753979879 -0.18605887925487877 0.25931817229209009 -0.051681145281771264 -0.30851832559237513 0.3059908263826206 0.30897982699898474
leaf_count=28 24 19 23 20 15 16 16 24 16 24 19 18 20
internal_value=0 0.0444962 -0.272608 0.199156 0.0567698 -0.213223 0.346322 -0.0346632 0.266255 -0.606604 -0.632976 0.707944 0.801376
internal_count=282 258 75 183 146 71 75 40 36 47 35 37 35
shrinkage=0.293861


Tree=19
num_leaves=14
num_cat=0
split_feature=29 29 12 19 11 4 4 34 25 21 26 27 30
split_gain=0.455399 0.685136 0.6105 0.901291 0.421622 0.341467 0.337141 0.307498 0.293189 0.270905 0.208556 0.202595 0.129169
threshold=0.025730330330841652 0.025125770565337505 1.2411730687885851 6.7184319905932854 8.8174796262879269 0.24676729197762104 0.48219940493548857 0.024489052628174853 0.024861266859057103 0.025796324319128504 0.024005410278400603 0.024931223446153304 0.024526099909336102
decision_type=2 2 2 2 2 2 2 2 2 2 2 2 2
left_child=1 2 10 12 8 -2 -6 -7 -5 -3 -1 -11 -4
right_child=5 9 3 4 6 7 -8 -9 -10 11 -12 -13 -14
leaf_value=0.31200287209408162 0.30963316177253675 -0.021392238748871098 -0.098971756325328356 0.025469129287386063 0.11108579202582682 -0.14095411766035087 -0.19091791408025582 0.14418909068669275 0.30341851963097993 -0.30238795627756138 0.087201459483694732 -0.080603064529386245 -0.29992609877119036
leaf_count=15 18 22 15 18 22 15 26 24 21 26 19 15 26
internal_value=0 -0.105364 0.0918499 -0.113264 0.222662 0.424098 -0.185751 0.150097 0.610045 -0.535542 0.629458 -0.771918 -0.785187
internal_count=282 225 162 128 87 57 48 39 39 63 34 41 41
shrinkage=0.293861


Tree=20
num_leaves=13
num_cat=0
split_feature=40 12 7 15 7 26 6 47 4 22 47 12
split_gain=0.354423 0.581507 0.474717 0.514431 0.485978 0.417018 0.376642 0.347696 0.477046 0.339881 0.273828 0.167459
threshold=0.025595965799264604 0.78430380926579057 4.5789103782739415 5.1005145818121358 8.5815267119330283 0.023628649429277754 4.7035749583709512 0.024198604855421555 0.51365167725348815 0.024548863198674355 0.024948467631576852 2.7303039582073954
decision_type=2 2 2 2 2 2 2 2 2 2 2 2
left_child=1 -1 9 7 11 -6 -7 -4 -9 -3 -2 -5
right_child=10 2 3 4 5 6 -8 8 -10 -11 -12 -13
leaf_value=0.27360949830633757 -0.003356938251368726 0.011839013849260033 0.29068324368160647 -0.055569622319524142 0.27103988155245173 0.11189671785764162 -0.19865699844255835 0.22589200738974402 -0.11859424026438124 -0.30718105496613268 -0.22695783486422388 -0.30532459541765478
leaf_count=21 28 15 29 15 17 25 25 27 15 19 26 20
internal_value=0 0.106513 0.00493313 0.136321 -0.14197 0.159686 -0.130322 0.494956 0.174037 -0.575244 -0.376558 -0.697058
internal_count=282 228 207 173 102 67 50 71 42 34 54 35
shrinkage=0.293861


Tree=21
num_leaves=14
num_cat=0
split_feature=11 0 4 27 0 9 10 13 0 47 1 0 9
split_gain=0.328686 0.462133 0.326311 0.337888 0.27735 0.460233 0.373417 0.246839 0.378237 0.156797 0.0807889 0.0585432 0.0243086
threshold=12.030868761936302 10.493598518888051 1.0048876069523052 0.025893955034408903 6.3181881676505904 3.1494712548854751 7.4116622262041014 4.1385726417401552 13.899004659422053 0.024109950955234404 5.9259722553017964 14.522622643802952 5.1827921340065055
decision_type=2 2 2 2 2 2 2 2 2 2 2 2 2
left_child=1 2 3 4 5 -1 12 11 -9 -4 -2 -3 -6
right_child=10 7 9 -5 6 -7 -8 8 -10 -11 -12 -13 -14
leaf_value=0.10215892769253412 -0.051906627381420559 0.29928348762524987 -0.063375689767989463 -0.1538806946780642 0.18053614022625003 -0.1953477284689783 -0.016897638769342034 -0.10737611325205215 0.25164186801491217 -0.30487713025066843 -0.29241494682332853 0.10491779096016626 0.30413360239460485
leaf_count=20 15 28 16 24 15 28 23 19 17 16 27 15 19
internal_value=0 0.0604581 -0.0893205 0.0264016 0.167812 -0.101154 0.459777 0.480552 0.137094 -0.607478 -0.711824 0.864905 0.879449
internal_count=282 240 161 129 105 48 57 79 36 32 42 43 34
shrinkage=0.293861


Tree=22
num_leaves=14
num_cat=0
split_feature=10 0 21 11 36 21 45 25 30 32 0 0 33
split_gain=0.26901 0.399378 0.300541 0.376135 0.558777 0.290394 0.269737 0.607986 0.443934 0.33301 0.260543 0.0774237 0.000822143
threshold=13.365460394018502 10.493598518888051 0.025393533481854653 5.6293626124313558 0.024431041903346103 0.026162550537728004 0.025142687045671953 0.025648722479674351 0.024692203938832303 0.025473047426723804 13.899004659422053 6.6739591220494958 0.024493439279210653
decision_type=2 2 2 2 2 2 2 2 2 2 2 2 2
left_child=1 2 3 4 -1 12 7 11 -9 -8 -2 -4 -3
right_child=10 5 6 -5 -6 -7 9 8 -10 -11 -12 -13 -14
leaf_value=-0.22086314891512362 -0.29649525437721597 0.19742375482559668 -0.30021211712739776 -0.3087003575394095 0.20425153402043086 0 0.27353723043518774 0.29491133851669693 -0.088021507608865554 -0.04246972914358068 0.0278283687584359 -0.12095385374628627 0.29765177926903086
leaf_count=15 33 18 15 18 16 23 21 18 19 18 21 19 28
internal_value=0 0.0751364 -0.0583634 -0.406591 -0.0440575 0.549802 0.117799 -0.0989184 0.42958 0.500279 -0.526144 -0.6601 0.939759
internal_count=282 228 159 49 31 69 110 71 37 39 54 34 46
shrinkage=0.293861


Tree=23
num_leaves=12
num_cat=0
split_feature=39 9 16 18 11 2 26 29 37 33 47
split_gain=0.300536 0.348865 0.482212 0.447747 0.30488 0.347421 0.271062 0.125431 0.110524 0.0845935 0.0386183
threshold=0.023630005988847454 2.9499000203874854 3.8993494773231006 2.5618417503355002 10.435119263195203 3.9353372353248304 0.024120376084622353 0.024730475590673606 0.024201818031338456 0.024540760961486403 0.024471543049622804
decision_type=2 2 2 2 2 2 2 2 2 2 2
left_child=7 -2 8 9 5 -5 -7 -1 -3 -4 -11
right_child=1 2 3 4 -6 6 -8 -9 -10 10 -12
leaf_value=-0.0048215365590817526 0.20774120743884217 -0.29163926433218795 0.068668285592386108 -0.18363156195019895 -0.26527120082974714 -0.081511586196162042 0.18246215397081714 -0.24253045817128643 -0.080461994118743954 0.13876100265481511 0.30251739209718576
leaf_count=16 24 16 20 25 42 19 42 20 24 15 19
internal_value=0 0.0942674 -0.012408 0.155319 -0.0874687 0.0653281 0.317026 -0.537193 -0.65046 0.67227 0.859752
internal_count=282 246 222 182 128 86 61 36 40 54 34
shrinkage=0.293861


Tree=24
num_leaves=13
num_cat=0
split_feature=12 8 6 20 0 23 11 13 19 18 4 24
split_gain=0.18548 0.367075 0.388403 0.316302 0.268237 0.220854 0.278795 0.20601 0.199761 0.151729 0.068639 0.0125319
threshold=0.78430380926579057 1.0416011249147352 3.6215338379957105 0.025061020103156004 7.8174307853088356 0.025082976228389155 12.030868761936302 2.6927672006061054 8.7943431777526424 2.8776728759248758 0.26239123964217653 0.025218435791744206
decision_type=2 2 2 2 2 2 2 2 2 2 2 2
left_child=-1 4 3 7 -2 6 8 -3 -4 -5 -10 -7
right_child=1 2 5 9 -6 11 -8 -9 10 -11 -12 -13
leaf_value=0.14254352093538555 -0.28580338981782166 -0.18170088858359859 -0.095309573685833454 0.28767855925192748 0.024594872867036478 -0.15876975692795806 -0.28627058171482955 0.10450179256979809 0.058840468033563152 0.076078063830620324 0.2914306603637386 -0.29359466429670367
leaf_count=27 33 16 18 36 16 15 29 21 15 26 15 15
internal_value=0 -0.0684632 0.0741755 0.356433 -0.59987 -0.29057 -0.0301059 -0.105334 0.22977 0.672498 0.639639 -0.825962
internal_count=282 255 206 99 49 107 77 37 48 62 30 30
shrinkage=0.293861


Tree=25
num_leaves=13
num_cat=0
split_feature=40 12 0 15 35 46 24 21 36 5 49 4
split_gain=0.225374 0.237167 0.297536 0.236252 0.264532 0.25827 0.213271 0.193904 0.154522 0.118172 0.115762 0.0111371
threshold=0.025595965799264604 0.78430380926579057 6.3181881676505904 5.2772412721853357 0.025239110930333656 0.024755027412625152 0.025549970909916505 0.026733787278614352 0.024714860693361453 10.398784419638501 0.025062194255663053 0.25604552898379956
decision_type=2 2 2 2 2 2 2 2 2 2 2 2
left_child=1 -1 8 4 11 9 -7 10 -3 -5 -2 -4
right_child=7 2 3 5 -6 6 -8 -9 -10 -11 -12 -13
leaf_value=0.24413669630506604 -0.06820407123441051 -0.26418545747694278 0.16867624784466442 -0.26732054286214679 -0.0067948851816036398 0.22699138872243824 -0.1295485042305615 0.083366161762988666 0 -0.014521759743953779 -0.29701893605738455 0.29674620301720872
leaf_count=21 19 29 18 17 23 29 18 15 16 27 20 30
internal_value=0 0.118639 0.0264753 0.192999 0.50962 -0.0963151 0.357398 -0.391387 -0.518676 -0.525204 -0.641336 0.903663
internal_count=282 228 207 162 71 91 47 54 45 44 39 48
shrinkage=0.293861


Tree=26
num_leaves=15
num_cat=0
split_feature=47 20 42 29 34 32 4 23 35 5 48 35 6 6
split_gain=0.168827 0.243955 0.21912 0.214118 0.216193 0.199226 0.132795 0.118459 0.103791 0.101142 0.204669 0.0670298 0.0334107 0.0191593
threshold=0.024150516209929904 0.026187686772733403 0.025101667504156506 0.025748020451311856 0.024005884101671305 0.024528819552319902 0.23961023555914054 0.024702028945433403 0.024681152550068603 7.9269132592190905 0.024771393534319504 0.02535352226062695 2.1964185245649155 2.9425090303501356
decision_type=2 2 2 2 2 2 2 2 2 2 2 2 2 2
left_child=2 3 5 4 8 -1 7 -6 -2 -8 -11 -4 -3 -7
right_child=1 12 11 -5 6 13 9 -9 -10 10 -12 -13 -14 -15
leaf_value=-0.010675837422340547 0.22312792310450555 -0.12053423870222855 -0.17385512327836125 0.15757122084236186 0.22223263638930332 0.29301628779013106 -0.28648056856138021 -0.11371382851618714 -0.0182251789834217 0.18550479104694667 -0.26044384041218027 0.049642016501476864 -0.29278303159668861 0.13119603982232364
leaf_count=24 19 15 18 27 15 25 18 15 16 18 19 15 21 17
internal_value=0 -0.142061 0.278397 -0 -0.172837 0.546503 -0.424118 0.0530726 0.315423 -0.65372 -0.221717 -0.284364 -0.746684 0.882631
internal_count=282 183 99 147 120 66 85 30 35 55 37 33 36 42
shrinkage=0.293861


Tree=27
num_leaves=11
num_cat=0
split_feature=39 12 0 29 31 38 32 31 19 49
split_gain=0.123024 0.175926 0.255128 0.147354 0.180858 0.172955 0.136523 0.117505 0.108693 0.100486
threshold=0.023630005988847454 1.3758610445214903 5.4864698652463408 0.026110974366216254 0.025360846111689053 0.024245853322654404 0.025073105412592205 0.024737967799502953 11.782466444409801 0.024810206223969854
decision_type=2 2 2 2 2 2 2 2 2 2
left_child=9 7 -3 4 5 8 -7 -2 -4 -1
right_child=1 2 3 -5 -6 6 -8 -9 -10 -11
leaf_value=0 0.027532252031180315 -0.28697409094311588 0.28167345246791181 0.23617795270416905 -0.18339829160924442 0.044876552070261949 -0.18011805429127911 0.24974108009741902 -0.009874596144402132 -0.25200523175759543
leaf_count=20 29 28 21 19 29 53 30 22 15 16
internal_value=0 0.0700254 -0.067928 0.0463239 -0.0419087 0.118904 -0.106771 0.454256 0.627216 -0.448079
internal_count=282 246 195 167 148 119 83 51 36 36
shrinkage=0.293861


Tree=28
num_leaves=14
num_cat=0
split_feature=40 42 11 3 9 0 4 46 24 43 5 12 46
split_gain=0.141868 0.159217 0.156418 0.171988 0.206159 0.168882 0.208066 0.155869 0.133027 0.0998727 0.0681781 0.0328588 0.00856549
threshold=0.025595965799264604 0.025064753438307903 12.030868761936302 5.7371689687673415 2.9499000203874854 5.7754443627640013 0.50725057030303666 0.024716641525159153 0.025825761205674553 0.024138106429374254 7.3936150797939009 3.3115705226872305 0.024560235767982302
decision_type=2 2 2 2 2 2 2 2 2 2 2 2 2
left_child=2 7 3 4 -1 -6 -7 -2 10 -8 -5 -4 -12
right_child=1 -3 11 8 5 6 9 -9 -10 -11 12 -13 -14
leaf_value=0.18109598503729055 0.151202375336496 -0.259470147153538 -0.01950113467500195 0.064183535951060508 -0.28723195602898871 0.27936374084829069 0.033785436622757514 -0.19919354187501409 -0.044141718515121449 -0.2139466021318234 0.16533536502469731 -0.27714096107681457 0.2908790277905936
leaf_count=21 19 20 15 19 28 18 16 15 15 19 17 24 36
internal_value=0 -0.37278 0.110099 0.189733 -0.0532767 -0.294424 -0.0244055 0.00455095 0.479776 -0.336051 0.664682 -0.652532 0.864499
internal_count=282 54 228 189 102 81 53 34 87 35 72 39 53
shrinkage=0.293861


Tree=29
num_leaves=12
num_cat=0
split_feature=30 18 7 7 21 8 22 7 6 36 42
split_gain=0.0945576 0.189656 0.187249 0.186935 0.1602 0.14134 0.105477 0.103408 0.0866241 0.0579581 0.0306356
threshold=0.025115215032663705 3.5177495485895305 4.8739728941084559 9.0060461465831612 0.026162550537728004 1.7842883856262652 0.024638502356471203 10.119032431772752 3.5678298107283202 0.025200881439890653 0.025258367068282103
decision_type=2 2 2 2 2 2 2 2 2 2 2
left_child=1 2 6 10 -5 9 -1 -4 -7 -2 -3
right_child=5 3 7 4 -6 8 -8 -9 -10 -11 -12
leaf_value=0.11861530993833996 -0.23199156106639759 -0.28691636314299168 0.26013814649581962 0.2450583663749194 -0.15259762909110139 0.21502545990514113 -0.15338872058933611 0.018903183651652326 -0.071531719790866269 -0.021594419283113765 -0.094999960697125144
leaf_count=16 23 23 50 21 19 16 24 26 26 19 19
internal_value=0 0.117162 0.352166 -0.27345 0.251108 -0.266342 -0.120462 0.650419 0.225488 -0.567187 -0.730816
internal_count=282 198 116 82 40 84 40 76 42 42 42
shrinkage=0.293861


Tree=30
num_leaves=14
num_cat=0
split_feature=12 7 18 11 10 13 4 30 19 20 9 17 20
split_gain=0.0840199 0.151586 0.121292 0.125815 0.118683 0.243318 0.0993253 0.0911826 0.122376 0.0908525 0.0431875 0.00635477 0.00357644
threshold=0.50717003986164311 4.8739728941084559 2.3763317914410504 10.250543764542252 3.7671098229122904 2.2195335489753254 0.72113250344584412 0.025463147815242105 7.7115603484176303 0.025061020103156004 7.9931911915828762 0.27832825619772955 0.025875673617836853
decision_type=2 2 2 2 2 2 2 2 2 2 2 2 2
left_child=-1 4 6 7 -2 -6 11 8 9 -4 -10 -3 -5
right_child=1 2 3 12 5 -7 -8 -9 10 -11 -12 -13 -14
leaf_value=0.1781911655000035 -0.28985923716409628 0.28475917394896794 0.09491833095681472 -0.27582724777159384 0.22391867325836709 -0.26717334879841587 0 -0.17307898970277641 0.072985592754443995 -0.16825438632611228 0.28203864151598529 0.12311007274465521 -0.081446619565049561
leaf_count=15 20 25 17 33 15 22 20 15 29 24 15 17 15
internal_value=0 -0.054379 0.0854415 -0.087511 -0.48772 -0.0707702 0.457256 0.0454642 0.18738 -0.166148 0.576171 0.833039 -0.811685
internal_count=282 267 210 148 57 37 62 100 85 41 44 42 48
shrinkage=0.293861


Tree=31
num_leaves=14
num_cat=0
split_feature=40 11 3 10 32 5 29 27 31 48 38 18 27
split_gain=0.070422 0.0869196 0.0971523 0.118293 0.114456 0.103691 0.0945448 0.118066 0.0877776 0.0595684 0.0488463 0.038049 0.0286792
threshold=0.025595965799264604 12.030868761936302 5.7371689687673415 7.2163161841632055 0.025584923562629053 5.8543004869636066 0.025257980745273755 0.024836781819274855 0.024883767000031056 0.025403613372360304 0.025129367618624904 3.9446279120359402 0.024456141136477653
decision_type=2 2 2 2 2 2 2 2 2 2 2 2 2
left_child=1 2 3 4 5 8 11 -8 -1 10 -2 -4 -3
right_child=9 12 6 -5 -6 -7 7 -9 -10 -11 -12 -13 -14
leaf_value=-0.21072599529560854 -0.26213681431468089 -0 0.27617818584371806 -0.18337809467035499 0.26781367112501542 0.23710401277506679 -0.16864631906110258 0.17824375278983556 0.084216341638108094 0.06381731232163107 -0.037769856323052596 0.064556194901886216 -0.26720702467121477
leaf_count=18 18 15 38 28 20 19 16 16 17 18 18 17 24
internal_value=0 0.0918551 0.164752 -0.057564 0.175417 -0.0656577 0.42332 0 -0.336125 -0.325227 -0.525997 0.727208 -0.593977
internal_count=282 228 189 102 74 54 87 32 35 54 36 55 39
shrinkage=0.293861


Tree=32
num_leaves=14
num_cat=0
split_feature=47 20 46 8 47 29 29 34 15 7 9 35 18
split_gain=0.0695133 0.103367 0.0871006 0.0962846 0.0752894 0.0636378 0.0923843 0.136132 0.0603597 0.0379909 0.0150924 0.0117271 0.0113567
threshold=0.024150516209929904 0.026187686772733403 0.023311338912286251 2.9972094035728856 0.024424271715340302 0.025748020451311856 0.025483808171169305 0.024175008361000356 4.042144999802356 4.8739728941084559 8.5450262027863122 0.0247789411845129 3.0664179056589655
decision_type=2 2 2 2 2 2 2 2 2 2 2 2 2
left_child=2 4 -1 9 -2 6 7 12 -9 -4 -11 -3 -6
right_child=1 11 3 -5 5 -7 -8 8 -10 10 -12 -13 -14
leaf_value=-0.099809287060891427 -0.16209550368702597 -0.26946082406431643 0.027560831739396524 -0.16948653184449947 0.27604411894854936 0.17896415896960974 -0.24662810026434751 0.089923471166231117 -0.16417819920023033 0.28077675902856969 0.075089368492761002 -0.091390350617588448 0.091961775753555589
leaf_count=17 19 16 18 17 16 23 15 18 41 32 15 20 15
internal_value=0 -0.130843 0.258963 0.466229 0 0.126937 -0.00889679 0.141793 -0.252425 0.63978 0.821474 -0.697855 0.718777
internal_count=282 183 99 82 147 128 105 90 59 65 47 36 31
shrinkage=0.293861


Tree=33
num_leaves=13
num_cat=0
split_feature=0 21 8 11 21 11 19 0 8 6 48 45
split_gain=0.0561838 0.108458 0.112848 0.0759297 0.0948842 0.0700485 0.0502431 0.0499844 0.0473547 0.0577973 0.0343006 0.00422205
threshold=10.493598518888051 0.026028987081373401 2.1897458862180406 7.381363230977481 0.025992300279359903 10.250543764542252 3.0367323759956206 7.8174307853088356 0.98073197275402257 2.6842728465502104 0.024136131259240252 0.024111060156940051
decision_type=2 2 2 2 2 2 2 2 2 2 2 2
left_child=3 5 -3 4 6 -2 -1 11 -6 -10 -5 -8
right_child=1 2 -4 10 8 -7 7 -9 9 -11 -12 -13
leaf_value=0.067851285944319537 0.28262110363822213 0.11353295783751416 -0.24645953200053081 -0 -0.021485456364045481 -0.018880855352068612 -0.2754883671604107 -0 0.27630527446213871 0 -0.23978409302784487 -0.11807664423471986
leaf_count=15 44 23 23 16 19 15 16 17 22 15 38 19
internal_value=0 0.256029 -0.157543 -0.119153 0.00686584 0.681714 -0.278297 -0.463072 0.3527 0.581438 -0.581172 -0.747673
internal_count=282 105 46 177 123 59 67 52 56 37 54 35
shrinkage=0.293861


Tree=34
num_leaves=12
num_cat=0
split_feature=12 0 49 15 30 21 14 41 1 24 31
split_gain=0.0543765 0.102416 0.067262 0.062954 0.0633388 0.0858238 0.0911597 0.0680572 0.0531221 0.0483403 0.0161789
threshold=0.50717003986164311 5.3779694567428855 0.023979421451126803 3.9055757946839607 0.025463147815242105 0.026162550537728004 3.4048412769680305 0.024401671729783903 5.9259722553017964 0.024625555227197105 0.024533340122339202
decision_type=2 2 2 2 2 2 2 2 2 2 2
left_child=-1 2 -2 9 5 6 -5 -7 -8 -3 -9
right_child=1 3 -4 4 -6 7 8 10 -10 -11 -12
leaf_value=0.17213359249106311 -0 -0 -0.27404467406214356 -0.10455428614878995 -0.15753249052430734 0.10325350591039871 0.26873857139453278 -0.03620590128885201 0.0047937589543213662 0.27327007633441541 -0.26939209971889982
leaf_count=15 18 15 35 19 28 17 42 16 25 27 25
internal_value=0 -0.0570151 -0.553581 0.0778212 -0.0294976 0.0978768 0.367667 -0.334674 0.632088 0.555197 -0.683554
internal_count=282 267 53 214 172 144 86 58 67 42 41
shrinkage=0.293861


Tree=35
num_leaves=12
num_cat=0
split_feature=44 40 10 32 47 29 29 48 9 8 32
split_gain=0.0437588 0.0685682 0.0670495 0.0502983 0.0535162 0.0547895 0.0589737 0.0594987 0.0263018 0.0230607 0.0187633
threshold=0.025752749456586153 0.026034005986751454 7.5307209198705651 0.023633916547969154 0.023644666125834702 0.025748020451311856 0.023962962555000352 0.024007567310369453 5.7206809179623255 1.7842883856262652 0.025233343766610256
decision_type=2 2 2 2 2 2 2 2 2 2 2
left_child=1 3 -2 -1 9 6 8 -8 -6 -5 -7
right_child=2 -3 -4 4 5 10 7 -9 -10 -11 -12
leaf_value=-0.18143224980082287 0.23726247639222228 -0.26428214570627034 -0.067996054620653126 0.013514448852772688 -0.0010505472499719674 0.19609114604427169 0.061232894237334981 -0.17128966192452191 0.22668440452108002 0.24732188701121921 0
leaf_count=21 24 15 18 22 15 18 20 80 15 19 15
internal_value=0 -0.0780349 0.390542 -0.000626543 0.0671954 -0.041788 -0.198272 -0.375501 0.352985 0.532108 0.417713
internal_count=282 240 42 225 204 163 130 100 30 41 33
shrinkage=0.293861


Tree=36
num_leaves=13
num_cat=0
split_feature=11 7 11 19 40 41 20 14 45 47 21 21
split_gain=0.0330361 0.0615352 0.0395222 0.0623426 0.04072 0.0518108 0.0483747 0.0435848 0.0357678 0.0333649 0.00391243 0.000676887
threshold=14.719248907328053 11.540626972052452 8.7252624656337954 8.7943431777526424 0.025595965799264604 0.025088134704433506 0.025465694126499804 3.05810693018705 0.025142687045671953 0.024109950955234404 0.025868471168163754 0.026114158341362801
decision_type=2 2 2 2 2 2 2 2 2 2 2 2
left_child=1 2 3 4 5 7 -6 -1 -7 -4 -3 -11
right_child=-2 10 9 -5 6 8 -8 -9 -10 11 -12 -13
leaf_value=0.20390122702725347 -0.23349698880256697 0.24431162946107099 0.012162532213002347 0.24162063530014866 0 -0.16269206558317417 -0.26702371281042558 -0.00043469706495295816 0.041736406977326806 -0.087457340114403134 0.064720725027246878 -0.26162617020211776
leaf_count=41 24 21 20 25 15 29 16 23 19 18 15 16
internal_value=0 0.0368487 -0.0403238 0.0455301 -0.0369755 0.0872289 -0.426242 0.369606 -0.219259 -0.431618 0.632792 -0.71176
internal_count=282 258 222 168 143 112 31 64 48 54 36 34
shrinkage=0.293861


Tree=37
num_leaves=12
num_cat=0
split_feature=12 0 22 26 6 48 4 1 7 46 8
split_gain=0.0326865 0.0676641 0.0496169 0.0351354 0.0453467 0.05194 0.0457635 0.035756 0.0329293 0.0294332 0.016095
threshold=0.50717003986164311 6.3181881676505904 0.024038507142708953 0.023219292067201702 4.7035749583709512 0.024903611838398506 0.7592572458904161 5.8728233852876555 9.309567903442046 0.024755027412625152 2.1337627686450351
decision_type=2 2 2 2 2 2 2 2 2 2 2
left_child=-1 2 -2 -3 5 6 8 -7 -5 -6 -4
right_child=1 3 10 4 9 7 -8 -9 -10 -11 -12
leaf_value=0.16115688896224445 0.04835818202685143 0.20619571308359982 -0.27211029741791443 -0.0024323586643344897 -0.21338986249525754 0.26561246701000429 -0.15496045510691031 -0 0.22918050056746889 0 -0.044691164662861348
leaf_count=15 18 23 35 26 31 34 20 15 22 28 15
internal_value=0 -0.0478222 -0.4708 0.0965643 0.0100807 0.183951 -0.0310438 0.628353 0.237503 -0.376507 -0.720535
internal_count=282 267 68 199 176 117 68 49 48 59 50
shrinkage=0.293861


Tree=38
num_leaves=13
num_cat=0
split_feature=0 8 25 21 9 7 22 47 4 34 44 35
split_gain=0.0295722 0.0546953 0.039527 0.038147 0.0346457 0.0474425 0.0559001 0.0306516 0.0284418 0.0246128 0.0137931 0.000631338
threshold=10.493598518888051 2.2910806215663704 0.026977819907186253 0.026028987081373401 5.8128944475856859 4.8739728941084559 0.024038507142708953 0.025225288537412304 0.25228260219961657 0.024737312465659852 0.024086252502890353 0.024506701017847955
decision_type=2 2 2 2 2 2 2 2 2 2 2 2
left_child=2 7 4 -3 5 6 -1 -2 -6 -7 -10 -12
right_child=1 3 -4 -5 8 9 -8 -9 10 -11 11 -13
leaf_value=0.098663962232816496 0.26139583493706192 0.073782276638969052 0.12604809983308435 -0.21347680111706682 0.026675356826403127 0.21703998110140063 -0.21877309566267364 -0 -0.018021186290850755 -0 -0.051319524286468222 -0.27145308407415736
leaf_count=16 42 26 18 22 16 18 32 15 18 19 16 24
internal_value=0 0.253307 -0.110891 -0.165498 -0.217396 -0 -0.35411 0.627364 -0.501853 0.371003 -0.661699 -0.827876
internal_count=282 105 177 48 159 85 48 57 74 37 58 40
shrinkage=0.293861


Tree=39
num_leaves=13
num_cat=0
split_feature=39 21 11 49 49 21 18 37 47 48 26 38
split_gain=0.0254901 0.0411848 0.0361966 0.0339402 0.0294523 0.0296046 0.024311 0.0224333 0.0166127 0.0163365 0.0101534 0.00377826
threshold=0.023571985591463455 0.025362149019162953 12.030868761936302 0.024274827929218906 0.024559811716977551 0.026233957152688305 3.9446279120359402 0.024201818031338456 0.024334542109021352 0.024647727356011551 0.02454343671551935 0.023931310295029751
decision_type=2 2 2 2 2 2 2 2 2 2 2 2
left_child=8 3 4 -2 5 10 11 -7 -1 -5 -3 -6
right_child=1 2 -4 9 6 7 -8 -9 -10 -11 -12 -13
leaf_value=0 0.052178480072377298 0.19678000654143268 -0.20607532356188871 -0 0.078351974213064474 -0.2167461639434721 0 0 -0.21267453408758474 -0.22609437660408888 0 0.25057592136713241
leaf_count=15 25 18 32 15 17 16 26 21 18 23 16 40
internal_value=0 0.0672726 0.226187 -0.256469 0.301389 0.00134045 0.514445 -0.282633 -0.422216 -0.541703 0.423509 0.706202
internal_count=282 249 186 63 154 71 83 37 33 38 34 57
shrinkage=0.293861


Tree=40
num_leaves=12
num_cat=0
split_feature=29 29 40 36 40 30 49 17 38 36 38
split_gain=0.023361 0.0319474 0.0245354 0.0257748 0.0220091 0.0200649 0.01928 0.0184137 0.0159515 0.0112088 0.00961742
threshold=0.025980291433215352 0.025125770565337505 0.025809606918984502 0.024701059449425005 0.025281416147232904 0.024483381265477853 0.025201336164972103 1.0228305305016854 0.024548492941413504 0.023551797962033705 0.025324272470293802
decision_type=2 2 2 2 2 2 2 2 2 2 2
left_child=1 2 3 4 5 9 10 -5 -2 -1 -3
right_child=8 6 -4 7 -6 -7 -8 -9 -10 -11 -12
leaf_value=0.1484132392913888 0.21257629989197246 -0.19116768354424069 -0.13807642836150313 0.19795209335770567 0.14575229217229987 -0.17444609164677619 0 -0 0 -0.06319234309900322 -0
leaf_count=15 19 32 19 47 16 29 29 20 20 16 20
internal_value=0 -0.0646964 0.0922278 0.200048 -0.0121013 -0.244013 -0.331186 0.475776 0.405575 0.0572005 -0.511239
internal_count=282 243 162 143 76 60 81 67 39 31 52
shrinkage=0.293861


Tree=41
num_leaves=13
num_cat=0
split_feature=0 9 11 7 6 48 14 6 23 8 26 36
split_gain=0.0224214 0.0626136 0.0259824 0.0182961 0.0284293 0.0205085 0.0179905 0.0167416 0.0135454 0.00908945 0.004757 0.00168648
threshold=6.3181881676505904 3.1494712548854751 12.030868761936302 11.929925176888551 4.7035749583709512 0.024903611838398506 3.4048412769680305 2.8892655285998705 0.024045273329065354 2.1897458862180406 0.023945915204643852 0.025579036307593554
decision_type=2 2 2 2 2 2 2 2 2 2 2 2
left_child=1 -1 3 4 5 6 8 -7 -2 -6 -4 -3
right_child=2 11 10 -5 9 7 -8 -9 -10 -11 -12 -13
leaf_value=0.057349448019545959 -0.14254931132804999 -0.26168908190724083 -0 0.20866325320807261 0 0.25295561269190525 0.11826804673211738 0 0.033930944477457092 -0.17997580506967001 -0.20869844714357641 -0.047380102529355261
leaf_count=28 17 37 15 26 15 30 29 15 16 15 23 16
internal_value=0 -0.236735 0.123628 0.210382 0.103951 0.263059 0.0265324 0.610097 -0.186918 -0.34863 -0.499498 -0.754042
internal_count=282 81 201 163 137 107 62 45 33 30 38 53
shrinkage=0.293861


Tree=42
num_leaves=11
num_cat=0
split_feature=40 12 0 35 30 10 31 39 2 0
split_gain=0.0183265 0.024035 0.0394297 0.0247088 0.0306266 0.0296043 0.0177697 0.0148214 0.0100026 0.0187532
threshold=0.025926350144474503 0.75530065663602564 5.4864698652463408 0.025239110930333656 0.024483381265477853 8.6210887530081663 0.025411294817761203 0.025588120068414901 9.5257880499740164 12.636973372631902
decision_type=2 2 2 2 2 2 2 2 2 2
left_child=1 -1 6 5 -5 7 -3 -4 9 -7
right_child=-2 2 3 4 -6 8 -8 -9 -10 -11
leaf_value=0.1998767693609137 -0.13190724489345529 -0.2235825319439618 0.25356367867726332 0.092850198295006542 -0.15719711740483719 -0.065082029000336911 0 0.010395999324226139 -0.173031594025774 0.15123562384754147
leaf_count=18 27 30 48 22 29 27 15 15 17 34
internal_value=0 0.0588753 -0 0.132904 -0.154194 0.313272 -0.509727 0.617709 -0 0.10208
internal_count=282 255 237 192 51 141 45 63 78 61
shrinkage=0.293861


Tree=43
num_leaves=13
num_cat=0
split_feature=44 29 29 15 12 5 8 29 21 4 3 17
split_gain=0.0172601 0.0213931 0.0268696 0.0180453 0.0160602 0.0268263 0.0190187 0.0141975 0.00823153 0.00735405 0.00642348 0.00161098
threshold=0.025752749456586153 0.025748020451311856 0.025125770565337505 3.9055757946839607 1.3758610445214903 8.167248257273652 2.9550474619884306 0.023847629074358705 0.025796324319128504 0.27616372081608304 5.4708620365820506 0.52976546879005315
decision_type=2 2 2 2 2 2 2 2 2 2 2 2
left_child=1 2 4 -2 7 10 11 -1 -4 -3 -6 -7
right_child=3 9 8 -5 5 6 -8 -9 -10 -11 -12 -13
leaf_value=-0 0.22071951289751224 0.20665412613641071 -0.002246947986864989 -0 -0.2236172489837909 0.17879468658560044 -0.10970931256826455 0.20575098511204862 -0.21128720854918193 0 -0 0
leaf_count=15 20 18 19 22 25 24 28 21 35 24 16 15
internal_value=0 -0.0736589 -0.185179 0.355137 -0 -0.167515 0.129101 0.343097 -0.535986 0.308933 -0.57615 0.476059
internal_count=282 240 198 42 144 108 67 36 54 42 41 39
shrinkage=0.293861


Tree=44
num_leaves=12
num_cat=0
split_feature=0 11 21 18 8 27 34 7 44 13 6
split_gain=0.0157176 0.0219087 0.0234579 0.0169475 0.0177514 0.019869 0.0154674 0.0150442 0.0132144 0.00553014 0.00462573
threshold=10.493598518888051 12.030868761936302 0.026028987081373401 3.5177495485895305 1.6158466195175551 0.024260220857313403 0.024038668752114151 9.309567903442046 0.025181494542177853 4.1385726417401552 2.2283991309982705
decision_type=2 2 2 2 2 2 2 2 2 2 2
left_child=3 2 -2 4 6 -6 -1 -5 10 -4 -8
right_child=1 -3 9 7 5 -7 8 -9 -10 -11 -12
leaf_value=0.037703134796350242 0.23656808912052835 -0.10445124978454468 0.096433408627980763 -0.19545353299702048 -0.033766887419826967 0.18238746370320752 -0.22439586687557639 0.0016747215441809793 0 -0.062217229908545744 -0
leaf_count=26 48 26 16 41 15 31 18 15 16 15 15
internal_value=0 0.244647 0.432554 -0.108469 0 0.31204 -0.186568 -0.457551 -0.422312 0 -0.634171
internal_count=282 105 79 177 121 46 75 56 49 31 33
shrinkage=0.293861


Tree=45
num_leaves=11
num_cat=0
split_feature=39 9 7 18 46 47 12 34 49 49
split_gain=0.0128825 0.015524 0.0267567 0.0235442 0.0135624 0.0115835 0.0106202 0.00911257 0.00822779 0.00522485
threshold=0.023630005988847454 2.9499000203874854 4.8739728941084559 2.4630405145751606 0.025528771910342554 0.025331425634784206 2.9508755346153204 0.024676725282935054 0.024146474899276002 0.024328393275711905
decision_type=2 2 2 2 2 2 2 2 2 2
left_child=9 -2 -3 6 5 8 -4 -6 -5 -1
right_child=1 2 3 4 7 -7 -8 -9 -10 -11
leaf_value=0 0.1476227801092837 -0.18243360548900098 0.21322827018564453 0 -0 0.02113048156872999 0 0.15652392441420782 -0.16767779188423529 -0.16745662995351787
leaf_count=15 24 34 44 17 15 29 15 23 45 21
internal_value=0 0.0667232 -0 0.100495 -0.0459299 -0.244645 0.511664 0.245231 -0.423459 -0.389469
internal_count=282 246 222 188 129 91 59 38 62 36
shrinkage=0.293861


Tree=46
num_leaves=12
num_cat=0
split_feature=0 12 10 35 41 25 19 49 15 2 36
split_gain=0.0100985 0.0221305 0.0110226 0.0131363 0.0172383 0.0138667 0.0197704 0.00870414 0.00683063 0.00458469 0.000908592
threshold=6.3181881676505904 0.75530065663602564 15.344485785370301 0.025009961812994506 0.025144181139303102 0.025774921988543951 8.9646904015158917 0.023979421451126803 5.1005145818121358 7.4951773525476559 0.025407962794105055
decision_type=2 2 2 2 2 2 2 2 2 2 2
left_child=1 -1 3 4 9 6 -5 -3 -6 -2 -9
right_child=2 7 -4 5 8 -7 -8 10 -10 -11 -12
leaf_value=0.10524190196830356 0.22654441441547982 -0 -0.11008476795457159 -0.16682654692256835 0.086504214225477508 0.13410261290268155 0.076048812623802281 -0.23566721217544281 -0.10502181920709777 0 -0
leaf_count=16 57 21 29 27 17 18 17 29 20 16 15
internal_value=0 -0.204931 0.104967 0.182903 0.377645 -0 -0.235498 -0.447417 -0 0.6202 -0.670594
internal_count=282 81 201 172 110 62 44 65 37 73 44
shrinkage=0.293861


Tree=47
num_leaves=14
num_cat=0
split_feature=29 40 12 5 11 29 24 23 14 49 12 24 1
split_gain=0.00800474 0.0084483 0.00969073 0.0117887 0.0133798 0.0122658 0.0111575 0.00593994 0.00563705 0.0039367 0.00593101 0.00263351 0.00148086
threshold=0.025980291433215352 0.025552279799220704 0.78430380926579057 7.6866320330452362 12.030868761936302 0.025064267312960051 0.025709037011454702 0.024526900710281654 3.7164819954961654 0.025100372747764204 1.3758610445214903 0.0248142147326522 6.4016963172215453
decision_type=2 2 2 2 2 2 2 2 2 2 2 2 2
left_child=1 2 -1 5 6 9 8 -3 -5 10 -4 -2 -6
right_child=11 7 3 4 12 -7 -8 -9 -10 -11 -12 -13 -14
leaf_value=0.16308198802922005 0 -0 0.14969557734025229 0 -0 -0.19822634111160059 -0 -0.17856975339878162 0.20924321182486186 -0.092293644259685878 -0 0.13714976026131304 -0.14647813144696026
leaf_count=18 15 24 15 17 15 22 17 22 37 17 19 24 20
internal_value=0 -0.0506737 0.00439608 -0.0301372 0.128208 -0.280817 0.324289 -0.335965 0.536287 -0 0.145148 0.321089 -0.335125
internal_count=282 243 197 179 106 73 71 46 54 51 34 39 35
shrinkage=0.293861


Tree=48
num_leaves=13
num_cat=0
split_feature=4 12 41 32 30 47 0 42 28 27 46 13
split_gain=0.00765229 0.00989015 0.0107231 0.0109276 0.00961442 0.0103863 0.00959225 0.00445168 0.00365038 0.00528126 0.00166444 0.000573108
threshold=0.7592572458904161 4.0251387396982805 0.024848786104259352 0.024191551964439405 0.024391828180355655 0.023954599077775304 6.9991691984230355 0.024676710261106401 0.025290697096048403 0.024172276143378954 0.024873487622775251 5.5805032221499866
decision_type=2 2 2 2 2 2 2 2 2 2 2 2
left_child=1 2 3 -1 7 -6 -2 -4 9 -8 -3 -5
right_child=6 10 4 11 5 -7 8 -9 -10 -11 -12 -13
leaf_value=-0 -0.17566432426327167 -0.14002048534697301 0.17267916613918127 0.19213811637041087 0.021822544930593941 -0.15774597733584356 0 -0 0.089545790246016665 -0.13269718422228854 -0 0
leaf_count=21 32 15 16 50 15 30 18 17 17 21 15 15
internal_value=0 0.0865434 0.178352 0.37243 -0 -0.271735 -0.214105 0.294139 -0 -0.146908 -0.328033 0.5536
internal_count=282 194 164 86 78 45 88 33 56 39 30 65
shrinkage=0.293861


Tree=49
num_leaves=10
num_cat=0
split_feature=0 9 11 35 35 48 48 27 26
split_gain=0.00671483 0.0177655 0.00861635 0.00950659 0.0110749 0.00841643 0.00268815 0.00172409 0.000930637
threshold=6.3181881676505904 3.1494712548854751 12.030868761936302 0.025119441414734805 0.024148058024464656 0.024903611838398506 0.024789259564044003 0.024945779102553304 0.023945915204643852
decision_type=2 2 2 2 2 2 2 2 2
left_child=1 -1 3 4 6 -5 -2 -7 -4
right_child=2 -3 8 5 -6 7 -8 -9 -10
leaf_value=0.025789163707973482 0.072735809599600146 -0.17626483125501086 -0 -0.089151731820917846 0.18398508991571408 0 -0.050508716875121894 0.12606289185054759 -0.13632520623204558
leaf_count=28 30 53 15 27 55 15 21 15 23
internal_value=0 -0.190741 0.0957772 0.183286 0.368041 -0 0 0.248779 -0.33144
internal_count=282 81 201 163 106 57 51 30 38
shrinkage=0.293861


Tree=50
num_leaves=13
num_cat=0
split_feature=44 10 0 35 6 30 21 40 44 15 14 35
split_gain=0.00537814 0.00952357 0.00820602 0.013648 0.0087233 0.00797546 0.00854927 0.00666392 0.00399816 0.00372633 0.00303733 0.000133528
threshold=0.025752749456586153 7.5307209198705651 6.9218187473743056 0.024633368579021302 5.7412353202819562 0.025501726350944654 0.026539957775279305 0.025310689451715804 0.025089253875264703 4.334686604729276 1.4977869764693852 0.024006203877871904
decision_type=2 2 2 2 2 2 2 2 2 2 2 2
left_child=2 -2 3 -1 5 6 7 11 -6 10 -5 -4
right_child=1 -3 4 9 8 -7 -8 -9 -10 -11 -12 -13
leaf_value=-0.18463638915638705 0.17135887742164999 -0 0 -0 -0.15060534856696964 -0.012823438473843807 -0 0 0 -0.091621541959877692 0.12923142327511847 0.22805959832845682
leaf_count=37 24 18 17 15 29 22 17 15 15 15 15 43
internal_value=0 0.256297 -0.0563273 -0.281662 0.0419743 0.202207 0.36491 0.520593 -0.283055 0 0.222956 0.690516
internal_count=282 42 240 82 158 114 92 75 44 45 30 60
shrinkage=0.293861


Tree=51
num_leaves=11
num_cat=0
split_feature=15 7 14 0 9 30 11 14 30 44
split_gain=0.003437 0.0137272 0.0101595 0.00803607 0.00484505 0.00462641 0.00773873 0.00616789 0.00444537 0.00368891
threshold=4.042144999802356 8.5815267119330283 5.2226759971561858 4.4887956056622214 2.9499000203874854 0.025392779391154304 12.260915629908451 3.6380084755953708 0.024002684142989155 0.024251286105675954
decision_type=2 2 2 2 2 2 2 2 2 2
left_child=3 2 9 4 -1 6 7 -3 -5 -2
right_child=1 5 -4 8 -6 -7 -8 -9 -10 -11
leaf_value=0 -0 0 0 -0 -0.14495832272813056 -0.045500973934755946 -0.021602283464542116 0.18387912650528712 0.15716152977952064 -0.21827794216569632
leaf_count=21 18 17 16 15 22 18 23 46 44 42
internal_value=0 -0.0912248 -0.426148 0.117896 -0.0485924 0.0764223 0.22469 0.40808 0.369974 -0.623064
internal_count=282 180 76 102 43 104 86 63 59 60
shrinkage=0.293861


Tree=52
num_leaves=12
num_cat=0
split_feature=29 32 12 45 28 23 43 19 29 41 7
split_gain=0.0055257 0.00727909 0.006218 0.00784324 0.00463101 0.00452515 0.00624895 0.00478899 0.00478408 0.00131822 2.27523e-05
threshold=0.025730330330841652 0.025872363708100254 1.3758610445214903 0.023989042392272956 0.024447144109479305 0.023786563399253006 0.023788936657043454 7.5238483270798859 0.024191799656877254 0.024287174553751002 8.4405220106995369
decision_type=2 2 2 2 2 2 2 2 2 2 2
left_child=2 4 3 -1 -2 7 -7 -4 10 -10 -8
right_child=1 -3 5 -5 -6 6 8 -9 9 -11 -12
leaf_value=-0.033331078860703856 -0 -0.0066164015634984545 -0.079589916699893792 0.12654799997140101 0.17987746643311897 0 -0.010589132132030591 0.0995339771226387 -0 -0.21111468748335593 0
leaf_count=26 15 15 17 33 27 19 15 27 23 50 15
internal_value=0 0.225208 -0.0878267 0.0782128 0.442139 -0.221391 -0.334167 0 -0.434606 -0.577802 -0
internal_count=282 57 225 59 42 166 122 44 103 73 30
shrinkage=0.293861


Tree=53
num_leaves=12
num_cat=0
split_feature=4 23 23 21 31 11 6 34 0 49 16
split_gain=0.00329428 0.00522903 0.00461351 0.00591835 0.0065356 0.00497264 0.00375196 0.00342313 0.0029729 0.00150872 0.00116992
threshold=0.53179217426554815 0.024440244396716753 0.025112875470664552 0.025476948858612954 0.023395038817243304 10.659203057380401 2.5107854141157202 0.024891884338753206 10.801205645977001 0.024539715186885306 7.5484659656410109
decision_type=2 2 2 2 2 2 2 2 2 2 2
left_child=2 8 3 9 -5 -6 -3 -4 -2 -1 -8
right_child=1 6 7 4 5 -7 10 -9 -10 -11 -12
leaf_value=0 -0.14048895193639863 0.10734152358686008 0 -0 0.17856206006870848 -0 -0.091522091722599175 -0.11061279235408687 -0 -0.073134762243431947 0
leaf_count=15 41 18 25 15 59 15 19 21 22 17 15
internal_value=0 -0.150462 0.0671792 0.204488 0.356358 0.501236 0 -0.0879337 -0.342092 -0 -0.127699
internal_count=282 115 167 121 89 74 52 46 63 32 34
shrinkage=0.293861


Tree=54
num_leaves=11
num_cat=0
split_feature=18 44 18 32 2 11 33 41 17 33
split_gain=0.00320205 0.00651317 0.00597462 0.00477101 0.0046281 0.00653267 0.00745262 0.00359279 0.00289171 0.00200517
threshold=2.8776728759248758 0.025217941648555304 1.4472712314622702 0.024391766758752403 3.9353372353248304 10.250543764542252 0.024132487526474355 0.025310492459792503 0.51312503931435904 0.024314060296518305
decision_type=2 2 2 2 2 2 2 2 2 2
left_child=1 2 9 -4 -2 6 -6 -5 -8 -1
right_child=4 -3 3 7 5 -7 8 -9 -10 -11
leaf_value=-0 -0.14695446329767298 0.1367706838812528 -0 0.15242953008092744 -0.052988749732942521 -0.14110749693820213 -0 -0 0.14787005297432304 -0.12939785227380807
leaf_count=16 26 33 17 39 15 47 15 15 35 24
internal_value=0 0.0748399 -0 0.159515 -0.140922 -0 0.117788 0.373959 0.379999 -0.284971
internal_count=282 144 111 71 138 112 65 54 50 40
shrinkage=0.293861


Tree=55
num_leaves=14
num_cat=0
split_feature=47 20 42 22 11 12 12 8 19 0 6 22 35
split_gain=0.00252022 0.00538766 0.00365877 0.00272717 0.00313486 0.00303216 0.00247095 0.00167521 0.00126704 0.00105214 0.000773055 0.000289069 0.000236301
threshold=0.024150516209929904 0.026187686772733403 0.025101667504156506 0.024100846729169054 7.285729753622646 1.4996716172494753 1.8828967889594852 1.5483280433137454 9.9246220331741366 12.636973372631902 2.7963322403589257 0.024976599224417351 0.02535352226062695
decision_type=2 2 2 2 2 2 2 2 2 2 2 2 2
left_child=2 3 7 5 6 -2 -5 -1 -7 11 -9 -6 -4
right_child=1 -3 12 4 9 8 -8 10 -10 -11 -12 -13 -14
leaf_value=0 0 -0.13171779366585204 -0.03364809904068803 0 -0 -0.14786376155484329 0.15055874854503287 0.1606479308897496 -0 0.012269796780887304 0 -0.07720313479244964 0
leaf_count=30 16 36 18 21 15 16 21 21 17 21 15 20 15
internal_value=0 -0.103879 0.0952891 -0 0.100309 -0.192763 0.3049 0.286717 -0.378991 -0 0.448893 -0.189988 -0
internal_count=282 183 99 147 98 49 42 66 33 56 36 35 33
shrinkage=0.293861


Tree=56
num_leaves=12
num_cat=0
split_feature=12 0 17 18 15 35 21 41 21 26 49
split_gain=0.00254655 0.00691408 0.00284632 0.00258464 0.00440462 0.00332478 0.00282122 0.00241092 0.00171771 0.000196641 3.71562e-05
threshold=0.78430380926579057 6.3181881676505904 0.52976546879005315 3.5177495485895305 5.7162411599260761 0.025472337665119252 0.026114158341362801 0.024401671729783903 0.025519789001588505 0.024147361429962901 0.023807954112552702
decision_type=2 2 2 2 2 2 2 2 2 2 2
left_child=-1 2 10 4 5 -3 8 -8 -5 -6 -2
right_child=1 3 -4 6 9 -7 7 -9 -10 -11 -12
leaf_value=0.065065730140056427 -0 0.15409649393028318 0 -0.010384385598247291 0 -0 0 -0.13977735126089905 0.088752044309784492 -0.029950715862959398 -0.18341527253719092
leaf_count=27 15 55 15 20 16 16 16 34 21 15 32
internal_value=0 -0.0689511 -0.385997 0 0.155 0.347073 -0.0902609 -0.300252 0 -0 -0.502178
internal_count=282 255 62 193 102 71 91 50 41 31 47
shrinkage=0.293861


Tree=57
num_leaves=11
num_cat=0
split_feature=18 3 12 8 14 28 11 48 29 20
split_gain=0.00215951 0.00462341 0.00381726 0.00465645 0.00364369 0.00462177 0.0019633 0.000745109 0.000344377 7.26381e-05
threshold=2.4630405145751606 5.7371689687673415 0.78430380926579057 1.0416011249147352 3.7164819954961654 0.025806998931220255 9.4002288063732653 0.025499157387793705 0.025483808171169305 0.025061020103156004
decision_type=2 2 2 2 2 2 2 2 2 2
left_child=1 2 -1 -4 5 -2 7 -6 -8 -5
right_child=4 -3 3 9 6 -7 8 -9 -10 -11
leaf_value=0.067763002896064808 -0.15494844119742454 0.11850012727197541 -0.14495976186779483 -0 0.08045423427473973 0 -0.069573169674452789 -0 0 0.02115191780003146
leaf_count=22 39 41 30 15 35 17 37 16 15 15
internal_value=0 0.0649558 -0 -0.208407 -0.122239 -0.321783 0 0.172497 -0.166866 0
internal_count=282 123 82 60 159 56 103 51 52 30
shrinkage=0.293861


Tree=58
num_leaves=12
num_cat=0
split_feature=13 46 36 45 46 11 26 6 14 24 43
split_gain=0.00158958 0.00429289 0.00551562 0.00328401 0.00245534 0.00385485 0.00253381 0.002193 0.00153708 0.00144104 0.00103119
threshold=4.1385726417401552 0.025528771910342554 0.025579036307593554 0.023989042392272956 0.023237957370876004 7.285729753622646 0.023688572228655853 1.6074616888028452 6.7359323029216256 0.025233652630906902 0.024303309569405251
decision_type=2 2 2 2 2 2 2 2 2 2 2
left_child=3 2 8 7 -5 6 -6 -1 -2 -3 -9
right_child=1 9 -4 4 5 -7 -8 10 -10 -11 -12
leaf_value=-0.08421811386405316 -0.17764159245756261 0.08296228003922268 0 -0 -0 -0 0.16935108550137981 -0 -0 -0 0.072822202387314142
leaf_count=20 44 17 21 15 16 24 47 19 17 18 24
internal_value=0 -0.125683 -0.30993 0.0476381 0.215504 0.30889 0.460014 -0.0411093 -0.493279 0 0
internal_count=282 117 82 165 102 87 63 63 61 35 43
shrinkage=0.293861


Tree=59
num_leaves=12
num_cat=0
split_feature=29 29 32 21 12 19 22 10 28 27 49
split_gain=0.00146881 0.00281031 0.00211917 0.00125868 0.00111558 0.0035362 0.00127946 0.00229568 0.00106403 0.0004197 0.000356695
threshold=0.025730330330841652 0.025125770565337505 0.025872363708100254 0.025796324319128504 1.2411730687885851 6.7184319905932854 0.023821716469829304 13.365460394018502 0.024447144109479305 0.024931223446153304 0.024869006860696301
decision_type=2 2 2 2 2 2 2 2 2 2 2
left_child=1 4 8 -3 10 -6 -7 -8 -2 -5 -1
right_child=2 3 -4 9 5 6 7 -9 -10 -11 -12
leaf_value=0.089984901708758724 0 -0 -0 -0.14285989461175236 -0.10810488742349242 -0 0.10772084220220006 -0 0.11503181648146608 -0 0
leaf_count=17 15 22 15 26 41 22 42 23 27 15 17
internal_value=0 -0.0690389 0.126997 -0.259683 0 -0.0292547 0 0.187188 0.282499 -0.380852 0.194967
internal_count=282 225 57 63 162 128 87 65 42 41 34
shrinkage=0.293861


Tree=60
num_leaves=10
num_cat=0
split_feature=4 20 25 28 38 43 47 41 23
split_gain=0.00147249 0.00395977 0.00263806 0.00243488 0.00189065 0.00303994 0.0017519 0.00344364 0.00101235
threshold=0.53179217426554815 0.025310884044265954 0.024651714565031353 0.025909176705737152 0.023639591997077904 0.023702781093910951 0.023954599077775304 0.024648745995727101 0.025112875470664552
decision_type=2 2 2 2 2 2 2 2 2
left_child=1 2 -1 4 -2 -6 -3 -8 -4
right_child=3 6 8 -5 5 -7 7 -9 -10
leaf_value=-0 0 0 0.15311249460374138 0 0 -0.13278206401339382 0 -0.13368028372174928 0
leaf_count=15 15 27 48 19 15 66 30 30 17
internal_value=0 0.0389181 0.275341 -0.130434 -0.242996 -0.332823 -0.0400438 -0.200696 0.398186
internal_count=282 167 80 115 96 81 87 60 65
shrinkage=0.293861


Tree=61
num_leaves=13
num_cat=0
split_feature=47 46 8 20 41 43 44 10 17 7 0 47
split_gain=0.00100722 0.00220832 0.00254276 0.00206544 0.00204718 0.00325197 0.00165761 0.00216902 0.00148356 0.00124148 0.00070477 0.000421594
threshold=0.024150516209929904 0.023311338912286251 2.9972094035728856 0.025310884044265954 0.023675129390326153 0.023885021085138604 0.024281325946237154 12.711403226872301 1.4857167958082951 4.8739728941084559 8.2610801223274919 0.024902427172317051
decision_type=2 2 2 2 2 2 2 2 2 2 2 2
left_child=1 -1 9 6 -5 -6 10 11 -7 -3 -2 -8
right_child=3 2 -4 4 5 8 7 -9 -10 -11 -12 -13
leaf_value=-0 -0.070883426270796884 0 -0 0 0 -0.15791126336144443 0 -0 -0 0.1412979709907177 0 0.12018794697971975
leaf_count=17 17 18 17 15 15 44 15 15 15 47 15 32
internal_value=0 0.0968985 0.243921 -0.0603891 -0.206864 -0.30883 0 0.185161 -0.447322 0.366187 -0.10202 0.333668
internal_count=282 99 82 183 89 74 94 62 59 65 32 47
shrinkage=0.293861


Tree=62
num_leaves=8
num_cat=0
split_feature=29 44 45 26 36 36 25
split_gain=0.000753001 0.00170829 0.00319247 0.00335063 0.00151016 0.00068868 0.000114682
threshold=0.025730330330841652 0.025752749456586153 0.025237614497431404 0.023416623416335453 0.025359389148755154 0.025085341705342202 0.025200968256852203
decision_type=2 2 2 2 2 2 2
left_child=1 2 3 -1 -5 -2 -4
right_child=5 -3 6 4 -6 -7 -8
leaf_value=0 0.06035631511108977 0.0117881636761792 0.024909720786502783 -0.12178669638869728 -0 -0 -0
leaf_count=20 35 29 23 98 22 22 33
internal_value=0 -0.0468841 -0.132447 -0.249497 -0.344791 0.107727 0
internal_count=282 225 196 140 120 57 56
shrinkage=0.293861


Tree=63
num_leaves=11
num_cat=0
split_feature=40 11 46 27 27 21 7 11 49 36
split_gain=0.000582328 0.00223323 0.00336903 0.00190583 0.00202999 0.00162734 0.000911773 6.80075e-05 6.12833e-05 5.77261e-06
threshold=0.025595965799264604 8.7252624656337954 0.023311338912286251 0.023639330346963101 0.025664267360485351 0.026733787278614352 11.374483423755501 12.956998868854901 0.024652373914292754 0.024701059449425005
decision_type=2 2 2 2 2 2 2 2 2 2
left_child=1 2 -1 -4 -5 9 8 -8 -3 -2
right_child=5 6 3 4 -6 -7 7 -9 -10 -11
leaf_value=-0 -0 -0.071707559480501337 -0 0.13176569435021784 -0 0 0.022811291750395542 -0 -0 -0.096735238842577093
leaf_count=23 15 34 20 81 20 15 15 19 16 24
internal_value=0 0.0470438 0.167961 0.28676 0.362567 -0.0885787 -0.0236745 0 -0.193628 -0.258293
internal_count=282 228 144 121 101 54 84 34 50 39
shrinkage=0.293861


Tree=64
num_leaves=9
num_cat=0
split_feature=0 11 21 9 47 0 12 21
split_gain=0.000688767 0.00254513 0.00244357 0.00226202 0.0012209 0.000477871 0.00113425 0.000658054
threshold=10.493598518888051 12.030868761936302 0.026028987081373401 5.8128944475856859 0.024109950955234404 4.4887956056622214 0.78430380926579057 0.025476948858612954
decision_type=2 2 2 2 2 2 2 2
left_child=3 2 -2 5 -5 6 -1 -7
right_child=1 -3 -4 4 -6 7 -8 -9
leaf_value=0 0.14355843428433096 -0 0 0 -0.10337160230391543 -0 -0.067197003897926127 0.063452623485233742
leaf_count=15 48 26 31 21 57 17 31 36
internal_value=0 0.0867069 0.264084 -0.0517335 -0.248411 0 -0 0.114049
internal_count=282 105 79 177 78 99 46 53
shrinkage=0.293861


Tree=65
num_leaves=9
num_cat=0
split_feature=18 39 0 12 0 10 6 20
split_gain=0.000590629 0.00179674 0.00193536 0.00214555 0.00158421 0.00237875 0.00250389 0.00118648
threshold=2.4630405145751606 0.023630005988847454 4.4887956056622214 2.9508755346153204 13.899004659422053 7.9107880470615211 2.6842728465502104 0.024794782566826806
decision_type=2 2 2 2 2 2 2 2
left_child=1 -1 -3 -4 5 -2 -7 -8
right_child=4 2 3 -5 -6 6 7 -9
leaf_value=-0 0 -0 0.13417769749351641 -0 0 0 -0 -0.16696770797159974
leaf_count=21 43 31 56 15 30 16 15 55
internal_value=0 0.0565915 0.183269 0.315687 -0.0662816 -0.172047 -0.323642 -0.473268
internal_count=282 123 102 71 159 129 86 70
shrinkage=0.293861


Tree=66
num_leaves=9
num_cat=0
split_feature=4 20 25 0 20 25 18 29
split_gain=0.000285317 0.0011802 0.00158798 0.000839527 0.00125274 0.000153015 0.000346053 1.27204e-05
threshold=0.53179217426554815 0.025310884044265954 0.024651714565031353 10.801205645977001 0.025650234632379504 0.024833599277615553 2.2139947417119807 0.024513789890332805
decision_type=2 2 2 2 2 2 2 2
left_child=1 2 -1 4 -2 -3 -7 -8
right_child=3 5 -4 -5 -6 6 7 -9
leaf_value=-0 -0.088384249726045527 0 0.086746046992464632 0 0 0 -0 -0.056207625322694736
leaf_count=15 47 24 65 34 34 25 15 23
internal_value=0 0.0300049 0.17331 -0.0579505 -0.154816 -0 -0.0659455 -0.151654
internal_count=282 167 80 115 81 87 63 38
shrinkage=0.293861


Tree=67
num_leaves=8
num_cat=0
split_feature=7 12 11 19 20 30 47
split_gain=0.000131243 0.00260438 0.00124685 0.00247878 0.000468035 0.000353091 0.000210653
threshold=6.3721693217877062 0.75530065663602564 12.030868761936302 8.2802957201109013 0.024079515656854004 0.025463147815242105 0.023582026491791353
decision_type=2 2 2 2 2 2 2
left_child=1 -1 3 -2 -3 -5 -6
right_child=2 4 -4 5 6 -7 -8
leaf_value=0.017415830087480683 -0 -0 -0.0065390651188687544 0.11060561302711922 -0 0 -0.096735489808757374
leaf_count=18 63 16 37 62 16 15 55
internal_value=0 -0.0412861 0.0183708 0.131077 -0.237334 0.318096 -0.285653
internal_count=282 105 177 140 87 77 71
shrinkage=0.293861


Tree=68
num_leaves=7
num_cat=0
split_feature=12 5 45 11 7 45
split_gain=0.000126526 0.00146228 0.00130415 0.000795678 0.0018728 0.000661373
threshold=1.3758610445214903 8.2544285148965315 0.023989042392272956 12.030868761936302 7.8939657247148611 0.025731836931462953
decision_type=2 2 2 2 2 2
left_child=2 5 -1 4 -3 -2
right_child=1 3 -4 -5 -6 -7
leaf_value=-0 -0.076647946458750074 -0 0.069794765751401922 -0.014177865581014975 0.087892609156432808 0
leaf_count=31 56 37 38 40 62 18
internal_value=0 -0.0282305 0.032952 0 0.128674 -0.194778
internal_count=282 213 69 139 99 74
shrinkage=0.293861


Tree=69
num_leaves=10
num_cat=0
split_feature=29 29 28 20 28 12 29 34 0
split_gain=0.000181699 0.00111927 0.000450846 0.00022558 0.000544647 0.000176866 0.000538756 0.000259182 4.14107e-05
threshold=0.025730330330841652 0.025125770565337505 0.025974609386826105 0.026131962152897904 0.024653850650073052 1.3758610445214903 0.023484925763768504 0.024175008361000356 13.697460431839202
decision_type=2 2 2 2 2 2 2 2 2
left_child=1 5 -3 4 -2 6 -1 -7 -9
right_child=3 2 -4 -5 -6 7 -8 8 -10
leaf_value=-0 -0 -0.068843556519922397 0 -0 0.063752308227813706 0 0.064556544361775492 -0.03056445009589169 -0
leaf_count=15 15 48 15 17 25 43 28 60 16
internal_value=0 -0.035439 -0.181284 0.0386564 0.108362 0 0.0866999 -0 -0.088515
internal_count=282 225 63 57 40 162 43 119 76
shrinkage=0.293861


Tree=70
num_leaves=9
num_cat=0
split_feature=30 46 12 39 13 20 41 40
split_gain=0.000127099 0.0010192 0.000684081 0.0012047 0.000613073 4.13397e-05 0.000156736 3.01451e-05
threshold=0.024391828180355655 0.024141140861862202 2.8651099407433205 0.023874468551557702 3.8646203651225455 0.025713621409317003 0.024848786104259352 0.024177823068953653
decision_type=2 2 2 2 2 2 2 2
left_child=2 -2 3 -1 -5 6 -3 -7
right_child=1 5 -4 4 -6 7 -8 -9
leaf_value=-0 -0.0577071721092869 0.02657763133653351 -0 0.08747654340467105 -0 0 -0 -0.013091432659159212
leaf_count=16 41 51 30 50 15 15 28 36
internal_value=0 -0.0361251 0.0211544 0.128758 0.23079 0 0.0353713 -0
internal_count=282 171 111 81 65 130 79 51
shrinkage=0.293861


Tree=71
num_leaves=7
num_cat=0
split_feature=0 9 6 3 6 46
split_gain=0.000157097 0.00242038 0.00107194 0.00117807 0.00168443 0.000426338
threshold=6.9218187473743056 3.1494712548854751 4.7035749583709512 9.177795574112098 1.9506507531623003 0.025353559689203751
decision_type=2 2 2 2 2 2
left_child=1 -1 3 4 -2 -4
right_child=2 -3 5 -5 -6 -7
leaf_value=0 -0 -0.089698633889735299 -0.040772442348133216 -0 0.10781845785515648 0
leaf_count=28 32 68 48 17 72 17
internal_value=0 -0.0559626 0.00172266 0.1391 0.2145 -0
internal_count=282 96 186 121 104 65
shrinkage=0.293861


Tree=72
num_leaves=9
num_cat=0
split_feature=18 0 15 30 0 12 18 19
split_gain=0.000116375 0.000796659 0.0012386 0.0031494 0.000709634 0.00136814 0.000324335 0.000317898
threshold=2.4630405145751606 13.899004659422053 4.042144999802356 0.024097794256531902 5.3779694567428855 2.8468360144992952 1.3372404527528052 3.0367323759956206
decision_type=2 2 2 2 2 2 2 2
left_child=4 2 -2 -4 7 6 -6 -1
right_child=1 -3 3 -5 5 -7 -8 -9
leaf_value=0 0 0 0 -0.12091939555126532 0 -0 0.11128572539325364 -0.042962342363152689
leaf_count=22 21 30 28 80 16 17 44 24
internal_value=0 -0.0417555 -0.129505 -0.219458 0.00466681 0.140747 0.28905 -0
internal_count=282 159 129 108 123 77 60 46
shrinkage=0.293861


Tree=73
num_leaves=6
num_cat=0
split_feature=29 47 11 29 38
split_gain=3.35747e-05 0.000384116 0.000765096 0.000506386 0.000103259
threshold=0.025730330330841652 0.023644666125834702 3.0787296105924953 0.023962962555000352 0.025053148869080503
decision_type=2 2 2 2 2
left_child=1 -1 -3 -4 -2
right_child=4 2 3 -5 -6
leaf_value=0 0.024898084920558908 0 0 -0.053595650582589256 -0
leaf_count=48 35 18 34 125 22
internal_value=0 -0.00979517 -0.0721354 -0.135603 0.0288541
internal_count=282 225 177 159 57
shrinkage=0.293861


Tree=74
num_leaves=8
num_cat=0
split_feature=4 18 7 21 29 44 32
split_gain=6.77639e-05 0.000525496 0.00125641 0.000493656 0.000177206 0.000380945 1.11168e-05
threshold=0.53179217426554815 3.5177495485895305 2.1208309591780705 0.024964123126014755 0.025748020451311856 0.023598544341272204 0.025554123679285851
decision_type=2 2 2 2 2 2 2
left_child=1 2 -1 -4 5 -2 -7
right_child=4 -3 3 -5 -6 6 -8
leaf_value=-0 0 -0 0 0.078357983302873566 0 -0.047058233153651367 -0
leaf_count=17 26 51 20 79 23 51 15
internal_value=0 0.0301108 0.105422 0.208421 -0.00368184 -0.0686268 -0.142084
internal_count=282 167 116 99 115 92 66
shrinkage=0.293861


Tree=75
num_leaves=5
num_cat=0
split_feature=0 11 40 11
split_gain=1.00948e-05 0.000889821 0.000665902 0.000558284
threshold=6.9218187473743056 12.030868761936302 0.025595965799264604 3.2405354232909005
decision_type=2 2 2 2
left_child=3 2 -2 -1
right_child=1 -3 -4 -5
leaf_value=0 0.049868154529050066 -0 -0 -0.044812023770686771
leaf_count=32 124 37 25 64
internal_value=0 0.0109445 0.116852 -0.0045229
internal_count=282 186 149 96
shrinkage=0.293861


Tree=76
num_leaves=6
num_cat=0
split_feature=39 12 29 39 49
split_gain=1.74881e-05 0.000508379 0.000106096 0.000591411 7.70894e-05
threshold=0.023630005988847454 1.3758610445214903 0.025748020451311856 0.024486823310904054 0.024328393275711905
decision_type=2 2 2 2 2
left_child=4 -2 3 -3 -1
right_child=1 2 -4 -5 -6
leaf_value=0 0.039094614592508285 0 0 -0.038383465568102432 -0.02414299850865969
leaf_count=15 51 47 41 107 21
internal_value=0 0 -0 -0.0428386 -0.0299809
internal_count=282 246 195 154 36
shrinkage=0.293861


Tree=77
num_leaves=4
num_cat=0
split_feature=39 39 47
split_gain=5.06039e-06 0.000114634 0.000184268
threshold=0.023630005988847454 0.025575211838686805 0.025225288537412304
decision_type=2 2 2
left_child=-1 2 -2
right_child=1 -3 -4
leaf_value=-0.0047556915426387293 0.023194338715967863 -0 -0
leaf_count=36 118 78 50
internal_value=0 0.000445786 0.0417633
internal_count=282 246 168
shrinkage=0.293861


Tree=78
num_leaves=6
num_cat=0
split_feature=47 49 47 49 0
split_gain=9.92955e-06 0.000335543 0.000361775 0.000642085 3.63979e-05
threshold=0.024150516209929904 0.024274827929218906 0.025424507915386703 0.025731948514546753 6.3181881676505904
decision_type=2 2 2 2 2
left_child=4 -2 3 -3 -1
right_child=1 2 -4 -5 -6
leaf_value=-0 0 -0.063657794617187194 0 0 0.010611777316460382
leaf_count=27 65 49 52 17 72
internal_value=0 -0.0112337 -0.0805779 -0.140639 0
internal_count=282 183 118 66 99
shrinkage=0.293861


Tree=79
num_leaves=3
num_cat=0
split_feature=39 39
split_gain=4.94128e-08 9.56492e-05
threshold=0.023630005988847454 0.025575211838686805
decision_type=2 2
left_child=-1 -2
right_child=1 -3
leaf_value=-0 0.011266343030476765 -0
leaf_count=36 168 78
internal_value=0 0.000701304
internal_count=282 246
shrinkage=0.293861


Tree=80
num_leaves=4
num_cat=0
split_feature=29 29 38
split_gain=1.22413e-06 0.000331834 1.34443e-05
threshold=0.025705889039871553 0.025125770565337505 0.024845782254277405
decision_type=2 2 2
left_child=1 -1 -2
right_child=2 -3 -4
leaf_value=0 0.0083341318436554387 -0.029688918944877556 -0
leaf_count=162 33 60 27
internal_value=0 -0.00367191 0
internal_count=282 222 60
shrinkage=0.293861



feature importances:
V1=57
V12=46
V13=40
V30=40
V8=31
V22=30
V5=27
V19=26
V48=26
V7=25
V41=24
V10=22
V9=22
V31=21
V21=20
V50=20
V45=18
V47=17
V33=16
V20=16
V11=16
V40=15
V36=15
V42=14
V24=14
V15=14
V27=14
V28=14
V49=14
V16=13
V37=12
V26=12
V25=12
V35=10
V29=10
V39=10
V14=10
V46=10
V44=9
V18=8
V32=8
V4=8
V2=7
V3=7
V23=7
V6=7
V17=6
V43=6
V38=4
V34=4
