tree
version=v2
num_class=1
num_tree_per_iteration=1
label_index=0
max_feature_idx=99
objective=binary sigmoid:1
feature_names=V1 V2 V3 V4 V5 V6 V7 V8 V9 V10 V11 V12 V13 V14 V15 V16 V17 V18 V19 V20 V21 V22 V23 V24 V25 V26 V27 V28 V29 V30 V31 V32 V33 V34 V35 V36 V37 V38 V39 V40 V41 V42 V43 V44 V45 V46 V47 V48 V49 V50 V51 V52 V53 V54 V55 V56 V57 V58 V59 V60 V61 V62 V63 V64 V65 V66 V67 V68 V69 V70 V71 V72 V73 V74 V75 V76 V77 V78 V79 V80 V81 V82 V83 V84 V85 V86 V87 V88 V89 V90 V91 V92 V93 V94 V95 V96 V97 V98 V99 V100
feature_infos=[0.0111872570644477:0.27306253128773] [0.0072186417282017901:0.087804121736505203] [0:0.118426592396531] [0.023140892482011101:0.110573279229182] [0:0.030508822285647798] [0.0185127139856088:0.174699025673094] [0:0.105307884980173] [0.0230379647089804:0.16602875974864101] [0:0.0577491338256143] [0.015796182747025999:0.14014881309301599] [0.013884535489206601:0.138498245886508] [0.0125434459623579:0.19901167534529501] [0.0056174558789342599:0.085839682693574795] [0:0.116055515613484] [0:0.084952627326974506] [0.0109919828165147:0.097897980700970305] [0.020773318294963199:0.11991554286645099] [0:0.0332709129655109] [0:0.066031082588321702] [0.019294618183503798:0.19006633972662401] [5.0196947724396703e-07:1.5198894406659999e-05] [2.7659555459497002e-07:3.3802673474692502e-06] [0:5.0173972460201204e-06] [1.19519115635037e-06:4.7445113402971198e-06] [0:1.00987208721446e-06] [9.2125134306930198e-07:7.4792813707011498e-06] [0:4.5185822288544002e-06] [8.5404296423691702e-07:6.3616977556843103e-06] [0:2.4781509177800898e-06] [6.7778733432815899e-07:6.1953772944502404e-06] [6.5968230228068001e-07:5.2117292857717104e-06] [4.8289533535275003e-07:1.1077160330277599e-05] [2.14541169989257e-07:3.62385701033327e-06] [0:4.6177761159647603e-06] [0:4.1217340763823797e-06] [4.1555168953967103e-07:3.80632283511432e-06] [8.0088627356450701e-07:4.8389454923897798e-06] [0:1.32232626432195e-06] [0:2.5619274876655399e-06] [6.77490220315755e-07:8.0008678588430392e-06] [0.0317379741945008:0.049570388529088703] [0.032864488111161098:0.047420633436731502] [0.029661885374899701:0.0439792644228158] [0.028436407110173801:0.046148277505647303] [0.027100805508410701:0.042919942580903599] [0.031030231589260798:0.043960637055944399] [0.029819973057831399:0.0437490503816583] [0.0301478836778841:0.040694321088944801] [0.021255814553623201:0.042207446786701401] [0.0281770548166996:0.040798732543734097] [0.028395157715817101:0.041864359368992701] [0.029311301915789401:0.041293121809895798] [0.027932090235227702:0.037433478314721901] [0.022038816733912302:0.0381070467005417] [0.025726137979281399:0.038291073934628703] [0.028053795551166199:0.040172425048434601] [0.0253474213210786:0.0363413443973667] [0.021123602304152202:0.037802370188318099] [0.0265036992084259:0.0360920875722896] [0.0273038101012925:0.039992133429471499] [0.023681895083887499:0.037782790042636703] [0.024830697781179401:0.0363990549954612] [0.019621602154561001:0.036350234077136799] [0.026320772575377498:0.0353108670338418] [0.022309450015357699:0.038415583764189298] [0.0240807339379146:0.035624335090074601] [0.020208225538457698:0.035949093251328799] [0.0235483079022955:0.035594421839258497] [0.0186436686724188:0.036509338398630298] [0.016595636743210001:0.037985223330344403] [0.032709769362590103:0.047351746238864803] [0.032109784322386002:0.046266613740908] [0.031184854780484099:0.049167945466877701] [0.029819778492174299:0.048505714036165902] [0.029133627211255599:0.045575932228694001] [0.030102585167838199:0.044350756758366798] [0.0298223453249538:0.043463085186684201] [0.0290645884580653:0.040424527077423097] [0.021926672135349101:0.039343371785768598] [0.028782174065692199:0.039379613945083998] [0.029917238420571601:0.042735941370261099] [0.0285154165835424:0.040711140297568102] [0.029502390065218199:0.0414657213405972] [0.0233855599116846:0.039533017220649197] [0.026660505157434799:0.039579592645144102] [0.0258774169507432:0.041061668019926403] [0.026344788730509602:0.036816049160155698] [0.0221123047338142:0.038679289293576398] [0.026628076131559601:0.036093339667807797] [0.028099314102045001:0.040308163509087801] [0.024259816666371999:0.039614273438613901] [0.023302649278957401:0.038175011454183602] [0.018052258852384401:0.037030607714086602] [0.0240778380346378:0.035265836669778103] [0.0226282842824676:0.037046248921876697] [0.023112541107524299:0.036146259931046899] [0.0228634823212121:0.0363785035785711] [0.023323009005664998:0.035602602932898797] [0.022718278310541601:0.035895563811102697] [0.018886418705309899:0.038447973398740398]
tree_sizes=644 643 572 651 645 651 646 644 574 568 728 652 572 650 580 656 661 579 653 657 577 573 655 656 662 661 657 583 643 660 660 642 569 587 566 643 656 573 592 629 603 615 539 552 550 549 555 538 399 406 415 421 400 413 357 335 400 338 339 339 341 361 339 340 319 321 320 334 330 320 333 319 321 259 260 260 260 260 260 260 260 260 260 260 260 260 259 260

Tree=0
num_leaves=7
num_cat=0
split_feature=0 27 20 27 31 46
split_gain=106.085 17.5875 13.9051 13.3262 2.95185 2.3374
threshold=0.075536663642613661 2.8287297539622404e-06 3.6711529816329756e-06 2.6951077753750257e-06 2.7268137870590056e-06 0.033444736824812811
decision_type=2 2 2 2 2 2
left_child=3 2 -2 4 -1 -3
right_child=1 5 -4 -5 -6 -7
leaf_value=-0.82883900361808849 -0.41429354789304973 1.326512277215103 0.79572095873091009 -0.16556627445802621 -1.3266413177159644 0.89453999217495361
leaf_count=32 32 46 35 32 62 43
internal_value=0 1.10241 0.328122 -1.36486 -1.74434 1.68504
internal_count=282 156 67 126 94 89
shrinkage=0.663506


Tree=1
num_leaves=7
num_cat=0
split_feature=39 14 0 38 85 66
split_gain=27.9939 9.5039 8.22072 5.96618 2.88445 1.81951
threshold=2.4922575617848251e-06 0.035894063451261761 0.091397625092862825 1.0711812625100204e-06 0.032834891256844211 0.032021088937858856
decision_type=2 2 2 2 2 2
left_child=1 4 3 -2 -1 -4
right_child=2 -3 5 -5 -6 -7
leaf_value=-0.48374475081402635 0.46493785636229834 0.10670995605313177 0.47961450190024396 -0.31969937515124769 -1.0554670735374632 0.92270192596331768
leaf_count=33 38 32 39 41 52 47
internal_value=0 -0.850552 0.580341 0.093538 -1.25783 1.08348
internal_count=282 117 165 79 85 86
shrinkage=0.663506


Tree=2
num_leaves=6
num_cat=0
split_feature=27 24 26 11 63
split_gain=13.5109 9.13186 10.3857 7.39185 3.31878
threshold=2.0500834299802352e-06 3.8811609293784305e-07 1.3549185123868251e-06 0.072852454768858516 0.03263189022125066
decision_type=2 2 2 2 2
left_child=-1 2 3 4 -2
right_child=1 -3 -4 -5 -6
leaf_value=-0.77240250283462764 1.137649635707318 -0.59045384150010283 -0.20498800431028494 0.015666188354652767 0.46913286322175429
leaf_count=63 48 33 62 41 35
internal_value=0 0.248285 0.462538 0.889537 1.31043
internal_count=282 219 186 124 83
shrinkage=0.663506


Tree=3
num_leaves=7
num_cat=0
split_feature=39 31 75 29 68 57
split_gain=8.05774 7.96081 7.80053 5.89526 2.65441 0.203768
threshold=2.6304456929493253e-06 2.2023148118723102e-06 0.034706145443531809 2.2379612616591153e-06 0.031478727637205058 0.033191177320468154
decision_type=2 2 2 2 2 2
left_child=1 -1 -2 -4 -3 -6
right_child=2 4 3 -5 5 -7
leaf_value=0.3318268461441799 -0.31083459556366827 -0.26023583838584918 1.0297832005791987 0.17763784897966853 -0.97978903284056396 -0.74927167351878043
leaf_count=32 49 41 39 56 32 33
internal_value=0 -0.481295 0.424033 0.836242 -0.923575 -1.31972
internal_count=282 138 144 95 106 65
shrinkage=0.663506


Tree=4
num_leaves=7
num_cat=0
split_feature=32 7 97 4 92 99
split_gain=5.66406 6.65878 6.38874 5.25314 1.89801 0.423342
threshold=1.1963435994840452e-06 0.06600537628616221 0.031216703927500155 0.0044970788836388208 0.032393872467901659 0.031813690867879857
decision_type=2 2 2 2 2 2
left_child=1 2 -1 5 -4 -3
right_child=-2 3 4 -5 -6 -7
leaf_value=0.38197159857874163 -0.68575918668023217 0.86213053556629493 -0.22180818302540461 -0.011301100052596064 -0.8877724529642822 0.57090563241653669
leaf_count=35 36 35 32 59 53 32
internal_value=0 0.161357 -0.403834 0.562189 -0.938568 1.0892
internal_count=282 246 120 126 85 67
shrinkage=0.663506


Tree=5
num_leaves=7
num_cat=0
split_feature=73 6 31 64 90 38
split_gain=4.84609 4.08621 4.28586 3.66203 3.09036 3.31466
threshold=0.032615216607015607 0.044242915728998654 3.3095740139699151e-06 0.031009271654500053 0.033201599083206364 1.1094507158945853e-06
decision_type=2 2 2 2 2 2
left_child=-1 2 3 -2 5 -5
right_child=1 -3 -4 4 -6 -7
leaf_value=0.68905174877827291 0.82384924490430611 -0.63344982521275628 -0.56573904223720051 0.75793450704630727 -0.34458954966388272 -0.15413456569175593
leaf_count=33 33 46 46 37 46 41
internal_value=0 -0.150347 0.0540245 0.292737 0.0463997 0.484829
internal_count=282 249 203 157 124 78
shrinkage=0.663506


Tree=6
num_leaves=7
num_cat=0
split_feature=20 86 19 84 90 76
split_gain=3.21724 2.39079 2.55114 1.78457 1.77205 1.56734
threshold=2.2508959456621404e-06 0.032450505501399253 0.070636309954802204 0.033303410894504802 0.032858458856153551 0.033280220256041458
decision_type=2 2 2 2 2 2
left_child=5 -2 3 -3 -4 -1
right_child=1 2 4 -5 -6 -7
leaf_value=0.044511748650584555 -0.23409208747823157 -0.33180770245122881 0.84222243431415111 0.32783972715099824 0.22162830430930949 -0.82444628669083719
leaf_count=32 60 32 45 32 35 46
internal_value=0 0.192443 0.399137 -0.032268 0.783172 -0.78445
internal_count=282 204 144 64 80 78
shrinkage=0.663506


Tree=7
num_leaves=7
num_cat=0
split_feature=29 5 23 7 82 93
split_gain=3.09194 4.1785 2.08581 1.89083 1.55655 0.735445
threshold=2.0595885836140903e-06 0.082420964363897065 2.1715315410548156e-06 0.083681875046080212 0.033438792287359763 0.032521964281770753
decision_type=2 2 2 2 2 2
left_child=4 3 -3 5 -1 -2
right_child=1 2 -4 -5 -6 -7
leaf_value=0.7190565010835247 -0.437462081529576 -0.221520328941925 0.51932934304015765 -0.031833022794136877 0.085463125172456189 -0.93556983825792539
leaf_count=38 48 39 48 32 43 34
internal_value=0 -0.223714 0.342486 -0.711422 0.585731 -1.06264
internal_count=282 201 87 114 81 82
shrinkage=0.663506


Tree=8
num_leaves=6
num_cat=0
split_feature=14 16 96 66 29
split_gain=2.67669 2.38473 1.61695 1.64109 0.864351
threshold=0.033840609165520709 0.048802869553081607 0.032648379400451608 0.031630711559590109 2.5138373434229257e-06
decision_type=2 2 2 2 2
left_child=2 -2 3 -1 -3
right_child=1 4 -4 -5 -6
leaf_value=-0.082658952882747827 -0.19757199782140372 0.71788993479586216 0.22568249053178049 -0.69643758969441227 0.2075608146706783
leaf_count=59 47 42 49 52 33
internal_value=0 0.399484 -0.340917 -0.571311 0.767489
internal_count=282 122 160 111 75
shrinkage=0.663506


Tree=9
num_leaves=6
num_cat=0
split_feature=20 8 96 95 18
split_gain=2.235 1.70726 1.19654 1.35431 0.395657
threshold=3.1990523572111101e-06 0.020644491307607152 0.03273038402248591 0.03179709153872206 0.031674260241707157
decision_type=2 2 2 2 2
left_child=1 4 3 -2 -1
right_child=2 -3 -4 -5 -6
leaf_value=-0.33562897585950036 0.36424654194421335 0.08836050946661872 0.72181050347042519 -0.19676790272214725 -0.73382515335024867
leaf_count=36 48 61 40 50 47
internal_value=0 -0.374614 0.341518 0.170368 -0.787933
internal_count=282 144 138 98 83
shrinkage=0.663506


Tree=10
num_leaves=8
num_cat=0
split_feature=52 20 17 81 38 88 4
split_gain=1.43646 1.14165 1.00083 1.06161 0.604252 0.58192 0.42823
threshold=0.032112252677974455 2.2508959456621404e-06 0.01051941290528305 0.032643407796543851 1.3277880508178951e-06 0.032667025835462403 0.0033235766025651553
decision_type=2 2 2 2 2 2 2
left_child=-1 4 3 -3 -2 -5 -7
right_child=1 2 -4 5 -6 6 -8
leaf_value=-0.56114234517794093 -0.70338522568785633 -0.065027598417748023 -0.24476768565441023 0.64857521097515447 0.085665991637231528 0.47408999529778023 0.020749440006957116
leaf_count=33 33 50 33 36 33 32 32
internal_value=0 0.117547 0.232758 0.375435 -0.618497 0.612942 0.356624
internal_count=282 249 183 150 66 100 64
shrinkage=0.663506


Tree=11
num_leaves=7
num_cat=0
split_feature=11 53 52 90 25 77
split_gain=1.5032 1.23253 1.38146 0.979624 0.771505 0.176982
threshold=0.055776951145821506 0.033011446652648206 0.033402739433472557 0.032383557680200202 3.0402569353301456e-06 0.033982215503358552
decision_type=2 2 2 2 2 2
left_child=-1 3 -3 -2 -4 -5
right_child=1 2 4 5 -6 -7
leaf_value=0.41006342294611348 0.066677680448637172 -0.29962033729256815 -0.034659704859879584 -0.72583973002447744 0.61324935362023836 -0.40063111524061479
leaf_count=54 33 50 32 33 48 32
internal_value=0 -0.173656 0.13502 -0.558263 0.544283 -0.879163
internal_count=282 228 130 98 80 65
shrinkage=0.663506


Tree=12
num_leaves=6
num_cat=0
split_feature=39 11 97 0 93
split_gain=1.18679 0.896014 1.27872 1.14956 0.346605
threshold=2.0484412052699854e-06 0.088397569502387155 0.031880830082433108 0.090768904992349367 0.032603762036814553
decision_type=2 2 2 2 2
left_child=-1 2 4 -4 -2
right_child=1 -3 3 -5 -6
leaf_value=-0.4971110694851385 0.62581698027258281 -0.34101288474088653 -0.26045104258335117 0.49188327216426869 0.1971117289615742
leaf_count=60 46 36 62 46 32
internal_value=0 0.141081 0.279638 -0.0792893 0.71567
internal_count=282 222 186 108 78
shrinkage=0.663506


Tree=13
num_leaves=7
num_cat=0
split_feature=88 10 4 55 16 96
split_gain=0.989937 0.872036 0.660417 0.737265 0.767738 0.422468
threshold=0.03146332596344726 0.097372459857615654 0.011251862440984551 0.032262695311726305 0.042987075886327906 0.032429806721679305
decision_type=2 2 2 2 2 2
left_child=-1 2 3 -2 -5 -6
right_child=1 -3 -4 4 5 -7
leaf_value=0.55040140710323915 -0.28378150448960282 -0.51691810384555259 -0.391007264801702 -0.36681867515681321 0.19340317713860825 0.65499567046243268
leaf_count=33 36 45 32 33 57 46
internal_value=0 -0.102045 0.0470996 0.19434 0.400816 0.587242
internal_count=282 249 204 172 136 103
shrinkage=0.663506


Tree=14
num_leaves=6
num_cat=0
split_feature=12 22 69 6 83
split_gain=0.708297 0.615206 0.642894 0.959652 0.625188
threshold=0.012365862284345953 1.1192259189413353e-06 0.030962166235782001 0.035346270207319556 0.032911428629987353
decision_type=2 2 2 2 2
left_child=-1 -2 -3 4 -4
right_child=1 2 3 -5 -6
leaf_value=0.55034316224261659 -0.50559233620024591 0.31747204981762145 0.53396628149061676 -0.54864756657555835 -0.13906792840818946
leaf_count=36 37 62 34 54 59
internal_value=0 -0.0802857 0.0415974 -0.193186 0.178225
internal_count=282 246 209 147 93
shrinkage=0.663506


Tree=15
num_leaves=7
num_cat=0
split_feature=39 54 11 60 84 22
split_gain=0.55608 0.710513 0.582846 0.439862 0.32998 0.134825
threshold=2.6775991790291804e-06 0.033035957188719912 0.055776951145821506 0.032786674453060757 0.033937683809917657 1.6281298027062203e-06
decision_type=2 2 2 2 2 2
left_child=2 -2 -1 -3 5 -4
right_child=1 3 4 -5 -6 -7
leaf_value=0.20723410605628068 0.49256058868369235 0.2893091069717314 -0.69174019667013165 -0.3606140035377543 -0.008079882214570254 -0.27912036414730707
leaf_count=33 62 40 35 33 37 42
internal_value=0 0.281173 -0.279439 -0.142097 -0.564118 -0.822102
internal_count=282 135 147 73 114 77
shrinkage=0.663506


Tree=16
num_leaves=7
num_cat=0
split_feature=0 26 95 28 44 86
split_gain=0.585775 0.441125 0.509665 0.391355 0.251825 0.0302411
threshold=0.067916378405268221 9.6667253655286105e-07 0.031962700498699613 6.1968354797014411e-07 0.034159864001398206 0.033096074151306352
decision_type=2 2 2 2 2 2
left_child=4 -2 -3 -4 -1 -6
right_child=1 2 3 -5 5 -7
leaf_value=-0.031127863798473307 0.40728360883398967 0.28618213478817128 0.071520948267625131 -0.53312981506260382 -0.39680116714536873 -0.70940228791983262
leaf_count=33 63 51 35 34 32 34
internal_value=0 0.158685 -0.0494001 -0.382457 -0.588412 -0.935559
internal_count=282 183 120 69 99 66
shrinkage=0.663506


Tree=17
num_leaves=6
num_cat=0
split_feature=14 73 20 11 11
split_gain=0.468495 0.393284 0.352992 0.269667 0.381345
threshold=0.036946776245350109 0.033321325052484509 3.6711529816329756e-06 0.088048402669237205 0.067432408697808352
decision_type=2 2 2 2 2
left_child=1 -1 -2 4 -3
right_child=2 3 -4 -5 -6
leaf_value=0.19833550496278926 0.036061904462687693 -0.44361909982190068 0.64712205739313211 -0.65664636715915026 0.20760554177865759
leaf_count=57 47 50 42 38 48
internal_value=0 -0.260014 0.369586 -0.477938 -0.247289
internal_count=282 193 89 136 98
shrinkage=0.663506


Tree=18
num_leaves=7
num_cat=0
split_feature=9 37 7 99 43 75
split_gain=0.310346 0.387978 0.530023 0.365485 0.199734 0.175335
threshold=0.043014186820586407 4.2281568070537206e-07 0.064565834697335969 0.030756793877887104 0.034535754722425656 0.034593267202710706
decision_type=2 2 2 2 2 2
left_child=-1 2 4 -4 -2 -5
right_child=1 -3 3 5 -6 -7
leaf_value=0.45660689576824853 -0.55393941748791642 -0.50981083821970929 -0.19708249966453747 0.12737309719147283 0.047929326332817428 0.61888255443504403
leaf_count=33 59 37 32 36 32 53
internal_value=0 -0.12241 0.0357781 0.345657 -0.528604 0.634309
internal_count=282 249 212 121 91 89
shrinkage=0.663506


Tree=19
num_leaves=7
num_cat=0
split_feature=99 73 12 4 43 11
split_gain=0.265253 0.462419 0.296959 0.190778 0.134063 0.0517068
threshold=0.031629430888272102 0.035016166371509512 0.026602420328331253 0.0044970788836388208 0.032741841062062557 0.064213488898587509
decision_type=2 2 2 2 2 2
left_child=2 4 3 -1 -2 -6
right_child=1 -3 -4 -5 5 -7
leaf_value=0.56643567541845163 0.0098337837535021587 0.35446009670977952 -0.16899116150163429 -0.037967202782280433 -0.31973389385592688 -0.64936299533256503
leaf_count=55 33 40 39 35 32 48
internal_value=0 -0.281363 0.270271 0.589425 -0.60957 -0.780681
internal_count=282 153 129 90 113 80
shrinkage=0.663506


Tree=20
num_leaves=6
num_cat=0
split_feature=73 7 32 4 0
split_gain=0.245011 0.223417 0.220468 0.194091 0.183286
threshold=0.032615216607015607 0.05417079910975061 1.1230100208661952e-06 0.0017793209055275 0.092788946137654219
decision_type=2 2 2 2 2
left_child=-1 -2 3 -3 -5
right_child=1 2 -4 4 -6
leaf_value=0.53296489189140739 -0.62288908069623183 0.45236015674175351 -0.37371270221319181 -0.21511823852266801 0.32978555450995928
leaf_count=33 66 51 33 54 45
internal_value=0 -0.108514 -0.00164395 0.170496 -0.0464099
internal_count=282 249 183 150 99
shrinkage=0.663506


Tree=21
num_leaves=6
num_cat=0
split_feature=96 72 14 96 78
split_gain=0.161723 0.213639 0.20258 0.198198 0.160253
threshold=0.029881007914088303 0.035019217091971859 0.035434768869796206 0.03248450729787826 0.033558089230273154
decision_type=2 2 2 2 2
left_child=-1 2 3 -2 -3
right_child=1 4 -4 -5 -6
leaf_value=-0.40175359991931836 -0.48686635754923152 -0.1737206543769515 0.23999532372896598 0.21630521475206355 0.57646962379825373
leaf_count=33 61 32 57 43 56
internal_value=0 0.111415 -0.10979 -0.419917 0.583111
internal_count=282 249 161 104 88
shrinkage=0.663506


Tree=22
num_leaves=7
num_cat=0
split_feature=16 24 89 95 93 4
split_gain=0.134872 0.138315 0.12244 0.110152 0.0518278 0.0377567
threshold=0.047691075287589209 2.5410849802953307e-07 0.032346494059825211 0.031221457927202555 0.032201045537127708 0.0055461153465786311
decision_type=2 2 2 2 2 2
left_child=3 2 -2 -1 -4 -5
right_child=1 -3 4 5 -6 -7
leaf_value=0.14000488747183681 -0.06303663146579605 -0.20682807975985781 0.65853534069967745 -0.57305490901577827 0.25424982784063865 -0.13971255938026619
leaf_count=36 41 49 34 44 44 34
internal_value=0 0.18676 0.394016 -0.366576 0.654332 -0.651968
internal_count=282 168 119 114 78 78
shrinkage=0.663506


Tree=23
num_leaves=7
num_cat=0
split_feature=27 93 29 81 94 5
split_gain=0.0998348 0.129611 0.124098 0.10174 0.0929626 0.023925
threshold=2.8024931428949252e-06 0.03256578385846081 2.2146144216876256e-06 0.032593906774143505 0.031849703503567008 0.081283358216661453
decision_type=2 2 2 2 2 2
left_child=1 2 -1 -2 -5 -3
right_child=3 5 -4 4 -6 -7
leaf_value=0.40957310253398682 -0.20605715612558487 -0.58778057571284004 -0.23797887589908054 0.55970766528897642 0.022490519643940068 -0.22870639535235329
leaf_count=39 32 32 62 42 43 32
internal_value=0 -0.21801 0.107894 0.265148 0.482181 -0.649206
internal_count=282 165 101 117 85 64
shrinkage=0.663506


Tree=24
num_leaves=7
num_cat=0
split_feature=29 27 56 25 74 52
split_gain=0.0887346 0.102218 0.131 0.0709068 0.0628675 0.0246549
threshold=3.3047095059212207e-06 3.0326874944341103e-06 0.03381753850754101 2.9896284052011857e-06 0.035193271468215208 0.033568153249997956
decision_type=2 2 2 2 2 2
left_child=1 2 4 -3 5 -1
right_child=-2 3 -4 -5 -6 -7
leaf_value=-0.17024079658805624 -0.41731648368101876 0.044321623609684474 0.37101995685195083 0.61552125796007162 0.037147632484788029 -0.53560419192953002
leaf_count=32 33 40 43 44 58 32
internal_value=0 0.106167 -0.0848786 0.523958 -0.320771 -0.575609
internal_count=282 249 165 84 122 64
shrinkage=0.663506


Tree=25
num_leaves=7
num_cat=0
split_feature=20 99 99 88 81 18
split_gain=0.162449 0.0611149 0.0915856 0.0469311 0.0431265 0.0198579
threshold=3.2373846954245856e-06 0.031629430888272102 0.032605067390688809 0.032189645711321456 0.033391433268386554 0.022757839472866102
decision_type=2 2 2 2 2 2
left_child=3 5 -3 -1 -5 -2
right_child=1 2 -4 4 -6 -7
leaf_value=0.036879017966475372 0.23379447576881443 -0.25793157273465789 0.46036722035116229 -0.62283608041957317 -0.16767537910928715 0.59696758696335017
leaf_count=37 32 39 32 56 54 32
internal_value=0 0.353916 0.0318486 -0.375665 -0.558876 0.655316
internal_count=282 135 71 147 110 64
shrinkage=0.663506


Tree=26
num_leaves=7
num_cat=0
split_feature=19 11 57 40 26 50
split_gain=0.081617 0.0745631 0.0531995 0.0419063 0.0339512 0.0141211
threshold=0.058197031457673958 0.088397569502387155 0.03358943050835516 0.035597478640218456 1.3906739480618402e-06 0.033228041516896005
decision_type=2 2 2 2 2 2
left_child=3 2 4 -1 5 -2
right_child=1 -3 -4 -5 -6 -7
leaf_value=-0.02117250986064078 0.21947772239400049 -0.30344331761857513 -0.05661157236975424 -0.5862548207567535 0.043217769318771394 0.58101977459595189
leaf_count=48 34 33 46 36 37 48
internal_value=0 0.171015 0.324582 -0.487976 0.526075 0.71197
internal_count=282 198 165 84 119 82
shrinkage=0.663506


Tree=27
num_leaves=6
num_cat=0
split_feature=20 75 83 96 72
split_gain=0.0565718 0.045541 0.0450512 0.0343342 0.0330981
threshold=3.2373846954245856e-06 0.034362093034013809 0.033522389507769659 0.032160991340417909 0.034836812188604509
decision_type=2 2 2 2 2
left_child=1 -1 3 -2 -3
right_child=2 4 -4 -5 -6
leaf_value=-0.51133370128313671 -0.2222368067415447 0.15620745970617747 0.38525339766662259 0.27455343152724182 -0.29800947821063528
leaf_count=48 36 58 59 40 41
internal_value=0 -0.262806 0.246271 -0.031225 -0.0316635
internal_count=282 147 135 76 99
shrinkage=0.663506


Tree=28
num_leaves=7
num_cat=0
split_feature=73 32 97 8 5 21
split_gain=0.039313 0.0661804 0.0551345 0.045751 0.0328949 0.0291757
threshold=0.032615216607015607 1.1538881725407053e-06 0.03182332354296951 0.021328673370880905 0.081283358216661453 1.3212588663185054e-06
decision_type=2 2 2 2 2 2
left_child=-1 2 4 5 -2 -4
right_child=1 -3 3 -5 -6 -7
leaf_value=0.43982857983336532 0.058427554626146898 -0.51219177647378611 -0 0.24345332216127896 0.54633922216022668 -0.49869858769143521
leaf_count=33 52 33 39 42 35 48
internal_value=0 -0.0790235 0.0538882 -0.231817 0.381816 -0.476031
internal_count=282 249 216 129 87 87
shrinkage=0.663506


Tree=29
num_leaves=7
num_cat=0
split_feature=16 24 6 29 41 70
split_gain=0.0360476 0.0397368 0.04451 0.0325338 0.038038 0.00785522
threshold=0.037395389981539608 4.1901546645212752e-07 0.025234406980677852 2.7162650349178955e-06 0.035327439143257554 0.035946206137697854
decision_type=2 2 2 2 2 2
left_child=-1 2 5 4 -4 -2
right_child=1 -3 3 -5 -6 -7
leaf_value=-0.3834681231635208 0.61106360349534783 -0.31907021113537487 -0.13567723607894275 -0.38333149743686662 0.36331704021764816 0.17858540983645807
leaf_count=42 36 34 44 35 59 32
internal_value=0 0.0967376 0.223472 0.0146476 0.186885 0.713628
internal_count=282 240 206 138 103 68
shrinkage=0.663506


Tree=30
num_leaves=7
num_cat=0
split_feature=27 42 97 64 79 67
split_gain=0.0381767 0.0313587 0.0297172 0.0255572 0.0253374 0.00424068
threshold=2.8024931428949252e-06 0.034982681336254456 0.031231915496248205 0.03231856511062816 0.034126328479380012 0.03312717550713936
decision_type=2 2 2 2 2 2
left_child=1 2 -1 4 -2 -4
right_child=3 -3 5 -5 -6 -7
leaf_value=0.05865869185686122 0.6203545194695369 0.13030738619625604 -0.59712881492612502 -0.041236179311697298 0.026168503639603196 -0.2380822230146851
leaf_count=33 36 49 50 49 32 33
internal_value=0 -0.229189 -0.468314 0.303486 0.570388 -0.721555
internal_count=282 165 116 117 68 83
shrinkage=0.663506


Tree=31
num_leaves=7
num_cat=0
split_feature=96 20 49 58 72 49
split_gain=0.0315643 0.0312261 0.0214818 0.029008 0.0189681 0.0124755
threshold=0.029881007914088303 3.5933452243334804e-06 0.033731763847254709 0.033070590379668703 0.034643145518516306 0.032976192103086707
decision_type=2 2 2 2 2 2
left_child=-1 2 5 -4 -3 -2
right_child=1 4 3 -5 -6 -7
leaf_value=-0.36965530031686922 -0 0.04334031686782959 0.31818861507165602 -0.31244046375571549 0.60660810473306126 -0.46403469898090677
leaf_count=33 32 32 46 42 57 40
internal_value=0 0.130086 -0.0575265 0.184348 0.543449 -0.385505
internal_count=282 249 160 88 89 72
shrinkage=0.663506


Tree=32
num_leaves=6
num_cat=0
split_feature=20 6 33 18 65
split_gain=0.0186916 0.0188551 0.0203817 0.0118407 0.00945699
threshold=2.2508959456621404e-06 0.035715941951533804 1.1730172620696604e-06 0.032242774905777406 0.032626027778368059
decision_type=2 2 2 2 2
left_child=4 2 -2 -4 -1
right_child=1 -3 3 -5 -6
leaf_value=-0.54280888763565727 -0.047380397925595001 -0.12893613130344966 0.53524482304323273 0.073910259866265718 0
leaf_count=46 57 61 53 33 32
internal_value=0 0.0969085 0.285417 0.535745 -0.540281
internal_count=282 204 143 86 78
shrinkage=0.663506


Tree=33
num_leaves=6
num_cat=0
split_feature=24 14 48 58 20
split_gain=0.0170399 0.0250556 0.0173588 0.0180114 0.00913608
threshold=6.3722413846534914e-08 0.032383179336667456 0.034329835104599908 0.032584940941329354 3.2802600814092352e-06
decision_type=2 2 2 2 2
left_child=1 -1 3 -2 -4
right_child=2 -3 4 -5 -6
leaf_value=-0.04579332323661299 0.027310771044087183 0.51698807940066993 -0.075983187990776621 -0.44344015292136041 0.32363349980327472
leaf_count=48 37 46 45 66 40
internal_value=0 0.297197 -0.161063 -0.392385 0.16575
internal_count=282 94 188 103 85
shrinkage=0.663506


Tree=34
num_leaves=6
num_cat=0
split_feature=12 27 24 69 83
split_gain=0.0147801 0.0144606 0.0185986 0.0131377 0.0182658
threshold=0.030989598599943803 2.6417701073306253e-06 1.8119464364732654e-07 0.030849613916672351 0.032911428629987353
decision_type=2 2 2 2 2
left_child=1 3 -3 -1 -5
right_child=-2 2 -4 4 -6
leaf_value=0.17461134309900417 -0.3313813730947206 0.4569235862551066 -0 0.15926178066218347 -0.51394868332079491
leaf_count=33 33 71 52 36 57
internal_value=0 0.107354 0.312989 -0.157346 -0.431725
internal_count=282 249 123 126 93
shrinkage=0.663506


Tree=35
num_leaves=7
num_cat=0
split_feature=73 96 14 0 92 66
split_gain=0.0128769 0.0119063 0.0138071 0.00912899 0.00873039 0.00557023
threshold=0.032615216607015607 0.03248450729787826 0.041565487183765605 0.069975145025151814 0.031912470668193006 0.031630711559590109
decision_type=2 2 2 2 2 2
left_child=-1 2 4 -3 -2 -6
right_child=1 3 -4 -5 5 -7
leaf_value=0.38475243869665915 0 -0.10644986870158273 0.092514928737425922 0.3463730135603017 -0.1056133545753281 -0.55296115880340591
leaf_count=33 32 41 43 53 40 40
internal_value=0 -0.0819218 -0.241549 0.244142 -0.450678 -0.596598
internal_count=282 249 155 94 112 80
shrinkage=0.663506


Tree=36
num_leaves=7
num_cat=0
split_feature=9 36 70 59 5 65
split_gain=0.0110055 0.0134262 0.0123467 0.0105718 0.00840389 0.00331407
threshold=0.043014186820586407 1.7114222826883601e-06 0.036144401133874259 0.033511566859658455 0.08225033044485526 0.031786624524399107
decision_type=2 2 2 2 2 2
left_child=-1 5 3 4 -3 -2
right_child=1 2 -4 -5 -6 -7
leaf_value=0.36900628962178572 -0.053503676445403422 -0.18847264931639482 -0.21784007667573069 0.49216530508665585 0.28706637396674139 -0.48531269788785097
leaf_count=33 34 45 53 36 32 49
internal_value=0 -0.0905915 0.0642201 0.290385 0 -0.490112
internal_count=282 249 166 113 77 83
shrinkage=0.663506


Tree=37
num_leaves=6
num_cat=0
split_feature=60 20 4 48 52
split_gain=0.0103495 0.00892596 0.00710975 0.00627781 0.00601966
threshold=0.032739565675589208 2.2508959456621404e-06 0.0066742331009450812 0.033207894992252456 0.033844291862227656
decision_type=2 2 2 2 2
left_child=1 -1 4 -3 -2
right_child=2 3 -4 -5 -6
leaf_value=-0.1889301442825907 -0.20678252284078741 -0 -0.42831687907614441 0.37475747296366935 0.17271659770878384
leaf_count=43 58 33 35 71 42
internal_value=0 0.232921 -0.233216 0.401666 -0.00380406
internal_count=282 147 135 104 100
shrinkage=0.663506


Tree=38
num_leaves=6
num_cat=0
split_feature=29 25 93 64 7
split_gain=0.00487795 0.00845827 0.00734912 0.00609824 0.00188714
threshold=2.0998591933118158e-06 3.0149716905189055e-06 0.031646027375100812 0.032432407434367601 0.073725411411854472
decision_type=2 2 2 2 2
left_child=2 4 -1 -3 -2
right_child=1 3 -4 -5 -6
leaf_value=0.40168994504304412 -0.47782068171338876 0.24785521797328347 -0.028692529628395073 -0.15037797307435569 -0.089665224562006568
leaf_count=32 50 59 55 51 35
internal_value=0 -0.143338 0.215677 0.080108 -0.432176
internal_count=282 195 87 110 85
shrinkage=0.663506


Tree=39
num_leaves=7
num_cat=0
split_feature=96 0 96 43 73 53
split_gain=0.00455272 0.00722134 0.00643667 0.00423399 0.00550439 0.00191569
threshold=0.029881007914088303 0.096608278003783757 0.031180350410210955 0.033024433426054059 0.035016166371509512 0.033398856789235355
decision_type=2 2 2 2 2 2
left_child=-1 2 -2 -4 -5 -3
right_child=1 5 3 4 -6 -7
leaf_value=-0.25237974690660253 0.24398101455704868 0 0.015752387667646594 -0.42742685354329912 0 0.45719307922223157
leaf_count=33 33 35 34 65 38 44
internal_value=0 0.0456969 -0.0721461 -0.237746 -0.399633 0.4655
internal_count=282 249 170 137 103 79
shrinkage=0.663506


Tree=40
num_leaves=7
num_cat=0
split_feature=19 52 65 81 12 84
split_gain=0.00551727 0.00374341 0.00515897 0.00335377 0.00330537 0.00139486
threshold=0.058197031457673958 0.033844291862227656 0.032626027778368059 0.033582871892760109 0.021053685128841804 0.033348165985887558
decision_type=2 2 2 2 2 2
left_child=5 2 4 -3 -2 -1
right_child=1 3 -4 -5 -6 -7
leaf_value=-0.37548667161196936 0 0 0.24630724094169737 0.41996065569116636 -0.32575316423953504 -0
leaf_count=43 36 50 39 36 37 41
internal_value=0 0.134235 -0 0.358369 -0.248064 -0.328309
internal_count=282 198 112 86 73 84
shrinkage=0.663506


Tree=41
num_leaves=7
num_cat=0
split_feature=11 45 69 44 21 25
split_gain=0.00258367 0.00271085 0.00300331 0.00223706 0.0010103 0.000221394
threshold=0.082464280882743476 0.034548524813440007 0.032104648699447354 0.03427170404841081 1.4760033777980901e-06 3.2516988087556907e-06
decision_type=2 2 2 2 2 2
left_child=1 2 -1 -3 -5 -2
right_child=5 3 -4 4 -6 -7
leaf_value=0.081036516935087094 -0.26951986802912675 -0 -0.23050914942092712 0.3520320805271373 0 -0
leaf_count=39 45 40 51 40 34 33
internal_value=0 0.0838196 -0.0539727 0.246879 0.391331 -0.288004
internal_count=282 204 90 114 74 78
shrinkage=0.663506


Tree=42
num_leaves=6
num_cat=0
split_feature=19 31 38 76 40
split_gain=0.00298809 0.00218335 0.00270562 0.00374967 0.000923708
threshold=0.058197031457673958 3.4084609773207505e-06 1.2533621096779203e-06 0.033601163619927557 0.035597478640218456
decision_type=2 2 2 2 2
left_child=4 2 3 -2 -1
right_child=1 -3 -4 -5 -6
leaf_value=-0 0 -0.093573516957187228 -0 0.39394609817806114 -0.30247792667235596
leaf_count=48 64 35 42 57 36
internal_value=0 0.103938 0.203948 0.336459 -0.269073
internal_count=282 198 163 121 84
shrinkage=0.663506


Tree=43
num_leaves=6
num_cat=0
split_feature=24 47 40 35 96
split_gain=0.00218182 0.00235722 0.0020732 0.00202184 0.00237973
threshold=4.1901546645212752e-07 0.034076310908724108 0.03634067893122981 1.7737531056592154e-06 0.03244642132160986
decision_type=2 2 2 2 2
left_child=1 3 -3 -1 -5
right_child=-2 2 -4 4 -6
leaf_value=0.074481918834420763 -0.23514475278927269 0.32391966693362417 -0 -0.280050604181248 0
leaf_count=68 38 50 35 54 37
internal_value=0 0.0307244 0.274535 -0.0508617 -0.229314
internal_count=282 244 85 159 91
shrinkage=0.663506


Tree=44
num_leaves=6
num_cat=0
split_feature=20 38 83 70 18
split_gain=0.00195281 0.00251825 0.00151796 0.000462076 0.00032157
threshold=3.2802600814092352e-06 1.1094507158945853e-06 0.033377347976322906 0.035628617949190006 0.023988875523912354
decision_type=2 2 2 2 2
left_child=1 -1 4 -3 -2
right_child=2 3 -4 -5 -6
leaf_value=0 -0.083694552166731051 -0 0.23152979432736107 -0.35082826650377641 0.049387265352762888
leaf_count=55 35 50 62 48 32
internal_value=0 -0.15309 0.139425 -0.363582 -0
internal_count=282 153 129 98 67
shrinkage=0.663506


Tree=45
num_leaves=6
num_cat=0
split_feature=9 0 83 44 42
split_gain=0.00127389 0.00313923 0.0014578 0.00104249 0.000703166
threshold=0.045676235714714658 0.071027922732306917 0.033262036693808159 0.034757497066366709 0.034220572891021254
decision_type=2 2 2 2 2
left_child=-1 -2 3 -3 -4
right_child=1 2 4 -5 -6
leaf_value=0.15793208989669449 -0.28476818420898381 -0.18571086071855164 0.2532683591607216 0 0
leaf_count=42 98 32 36 36 38
internal_value=0 -0.0676761 0.00687264 -0.079821 0.221242
internal_count=282 240 142 68 74
shrinkage=0.663506


Tree=46
num_leaves=6
num_cat=0
split_feature=6 31 69 19 64
split_gain=0.000985063 0.00333786 0.0019736 0.00126748 0.000890191
threshold=0.035715941951533804 2.3307422176773105e-06 0.03140322692605476 0.063152947338639465 0.031776701218050006
decision_type=2 2 2 2 2
left_child=1 -1 -2 -3 -5
right_child=2 3 -4 4 -6
leaf_value=0.30729516640608945 0 -0.20278954763165591 -0.26273467003471934 -0 0.16000541569523666
leaf_count=51 35 47 62 44 43
internal_value=0 0.0945604 -0.138627 -0.00664217 0.0296729
internal_count=282 185 97 134 87
shrinkage=0.663506


Tree=47
num_leaves=6
num_cat=0
split_feature=14 38 9 21 81
split_gain=0.000836461 0.00194364 0.00163969 0.00036953 0.00031712
threshold=0.035894063451261761 1.0231395129709452e-06 0.064954506844399421 1.4760033777980901e-06 0.03332621603580406
decision_type=2 2 2 2 2
left_child=1 4 -2 -3 -1
right_child=2 3 -4 -5 -6
leaf_value=-0 0.25302712700167673 -0 -0 -0.29389319319180762 0.10316099522227896
leaf_count=44 56 49 39 54 40
internal_value=0 -0.0797592 0.142924 -0.304517 0.0258922
internal_count=282 187 95 103 84
shrinkage=0.663506


Tree=48
num_leaves=4
num_cat=0
split_feature=84 39 79
split_gain=0.000727591 0.00199017 0.000878596
threshold=0.033348165985887558 2.5435969022846751e-06 0.033593574538081206
decision_type=2 2 2
left_child=1 -1 -2
right_child=2 -3 -4
leaf_value=-0.25776951059997527 -0 0 0.15787042573580978
leaf_count=68 54 85 75
internal_value=0 -0.109915 0.0960102
internal_count=282 153 129
shrinkage=0.663506


Tree=49
num_leaves=4
num_cat=0
split_feature=86 19 53
split_gain=0.000669717 0.00125051 0.000307855
threshold=0.032450505501399253 0.070636309954802204 0.033198011645331503
decision_type=2 2 2
left_child=-1 2 -2
right_child=1 -3 -4
leaf_value=-0.101616516218165 0 0.18108918372981747 -0.10092897804309016
leaf_count=87 63 84 48
internal_value=0 0.0623204 -0
internal_count=282 195 111
shrinkage=0.663506


Tree=50
num_leaves=4
num_cat=0
split_feature=16 68 68
split_gain=0.000498484 0.00100443 0.00118222
threshold=0.046573430388233659 0.030378864001760455 0.032126037488863661
decision_type=2 2 2
left_child=-1 -2 -3
right_child=1 2 -4
leaf_value=-0.087357389289075202 -0.022390600948663172 0.2782567594703319 0
leaf_count=108 40 51 83
internal_value=0 0.0560108 0.192679
internal_count=282 174 134
shrinkage=0.663506


Tree=51
num_leaves=4
num_cat=0
split_feature=11 29 20
split_gain=0.000494616 0.00118485 0.00103406
threshold=0.055776951145821506 2.0998591933118158e-06 3.6555660429524251e-06
decision_type=2 2 2
left_child=-1 -2 -3
right_child=1 2 -4
leaf_value=0.084988147973166589 0.024015633676798806 -0.21912837949875855 0
leaf_count=54 60 115 53
internal_value=0 -0.0733185 -0.206775
internal_count=282 228 168
shrinkage=0.663506


Tree=52
num_leaves=4
num_cat=0
split_feature=5 27 23
split_gain=0.000393479 0.000717337 0.000189919
threshold=0.083302514845847067 2.7430724070501706e-06 2.1715315410548156e-06
decision_type=2 2 2
left_child=1 -1 -2
right_child=2 -3 -4
leaf_value=-0.14253466683761662 0 0 0.13174028660841008
leaf_count=93 51 78 60
internal_value=0 -0.0413036 0.117735
internal_count=282 171 111
shrinkage=0.663506


Tree=53
num_leaves=4
num_cat=0
split_feature=75 12 29
split_gain=0.000271806 0.00110494 0.000227081
threshold=0.034362093034013809 0.021093470301599606 2.4640376194192553e-06
decision_type=2 2 2
left_child=-1 -2 -3
right_child=1 2 -4
leaf_value=-0.041452189125958577 0.17090886670655642 0 -0.086992293817740721
leaf_count=81 100 56 45
internal_value=0 0.0719644 -0
internal_count=282 201 101
shrinkage=0.663506


Tree=54
num_leaves=3
num_cat=0
split_feature=43 43
split_gain=0.000161878 0.000997559
threshold=0.034407193063194605 0.032804581591474209
decision_type=2 2
left_child=1 -1
right_child=-2 -3
leaf_value=0.027397797352566918 0.052013637026205158 -0.14300892023765147
leaf_count=63 99 120
internal_value=0 -0.0309262
internal_count=282 183
shrinkage=0.663506


Tree=55
num_leaves=3
num_cat=0
split_feature=70 7
split_gain=0.000214681 0.000924707
threshold=0.036083718675215058 0.06600537628616221
decision_type=2 2
left_child=1 -1
right_child=-2 -3
leaf_value=-0 -0.020448569109081254 0.14944560554597189
leaf_count=90 99 93
internal_value=0 0.0760945
internal_count=282 183
shrinkage=0.663506


Tree=56
num_leaves=4
num_cat=0
split_feature=60 46 24
split_gain=9.17848e-05 0.000390002 0.000144773
threshold=0.032739565675589208 0.033840197865787104 1.7518647995340653e-07
decision_type=2 2 2
left_child=1 -1 -2
right_child=2 -3 -4
leaf_value=0.11056087246838261 0 -0 -0.084507582932980274
leaf_count=86 73 61 62
internal_value=0 0.0304802 -0.05144
internal_count=282 147 135
shrinkage=0.663506


Tree=57
num_leaves=3
num_cat=0
split_feature=14 19
split_gain=7.38707e-05 0.000464369
threshold=0.035706321040402209 0.078599415821269822
decision_type=2 2
left_child=1 -1
right_child=-2 -3
leaf_value=-0.10709556012923979 0.016298989088781211 0
leaf_count=124 98 60
internal_value=0 -0.0440946
internal_count=282 184
shrinkage=0.663506


Tree=58
num_leaves=3
num_cat=0
split_feature=11 63
split_gain=9.46834e-05 0.00041211
threshold=0.055776951145821506 0.031964709085482011
decision_type=2 2
left_child=-1 -2
right_child=1 -3
leaf_value=0.053497641424861977 0 -0.097351602357198003
leaf_count=54 103 125
internal_value=0 -0.0128605
internal_count=282 228
shrinkage=0.663506


Tree=59
num_leaves=3
num_cat=0
split_feature=75 19
split_gain=8.19229e-05 0.000422789
threshold=0.034362093034013809 0.071351728668293077
decision_type=2 2
left_child=-1 -2
right_child=1 -3
leaf_value=-0.0038882834635955632 -0 0.11100661422760906
leaf_count=81 106 95
internal_value=0 0.0473192
internal_count=282 201
shrinkage=0.663506


Tree=60
num_leaves=3
num_cat=0
split_feature=96 29
split_gain=3.64263e-05 0.000290178
threshold=0.03254057102238956 2.1808157872524354e-06
decision_type=2 2
left_child=1 -1
right_child=-2 -3
leaf_value=0 0.025788229898750233 -0.078242530798620605
leaf_count=69 102 111
internal_value=0 -0.0186887
internal_count=282 180
shrinkage=0.663506


Tree=61
num_leaves=3
num_cat=0
split_feature=26 11
split_gain=5.98068e-05 0.000975704
threshold=1.3906739480618402e-06 0.072852454768858516
decision_type=2 2
left_child=1 -1
right_child=-2 -3
leaf_value=0.14871874191836632 -0.0075968125459193354 -0.010549149712186031
leaf_count=106 100 76
internal_value=0 0.0429001
internal_count=282 182
shrinkage=0.663506


Tree=62
num_leaves=3
num_cat=0
split_feature=5 49
split_gain=6.11172e-05 0.000194563
threshold=0.083302514845847067 0.033917699090667705
decision_type=2 2
left_child=1 -1
right_child=-2 -3
leaf_value=-0.086652147505566837 0.0033880523486567301 0
leaf_count=87 111 84
internal_value=0 -0.0468353
internal_count=282 171
shrinkage=0.663506


Tree=63
num_leaves=3
num_cat=0
split_feature=0 27
split_gain=8.41107e-06 0.00017771
threshold=0.075536663642613661 2.8287297539622404e-06
decision_type=2 2
left_child=-1 -2
right_child=1 -3
leaf_value=-0.013868026518755803 -0 0.075272529150660447
leaf_count=126 67 89
internal_value=0 0.00505531
internal_count=282 156
shrinkage=0.663506


Tree=64
num_leaves=3
num_cat=0
split_feature=5 29
split_gain=1.58916e-05 0.00037717
threshold=0.08351091290664707 2.2379612616591153e-06
decision_type=2 2
left_child=1 -1
right_child=-2 -3
leaf_value=0 0 -0.10111944431498425
leaf_count=71 105 106
internal_value=0 -0.0237686
internal_count=282 177
shrinkage=0.663506


Tree=65
num_leaves=3
num_cat=0
split_feature=75 39
split_gain=9.17001e-06 0.000470994
threshold=0.034807311755226757 2.6775991790291804e-06
decision_type=2 2
left_child=-1 -2
right_child=1 -3
leaf_value=-0 -0 0.11472017283262839
leaf_count=120 75 87
internal_value=0 0.0179945
internal_count=282 162
shrinkage=0.663506


Tree=66
num_leaves=3
num_cat=0
split_feature=54 11
split_gain=1.95027e-05 0.000120582
threshold=0.033111323069029509 0.066227513039948907
decision_type=2 2
left_child=-1 -2
right_child=1 -3
leaf_value=0 0 -0.067935707916342389
leaf_count=132 66 84
internal_value=0 -0.0285533
internal_count=282 150
shrinkage=0.663506


Tree=67
num_leaves=3
num_cat=0
split_feature=30 97
split_gain=1.26085e-06 4.74997e-05
threshold=3.4414262736565108e-06 0.031880830082433108
decision_type=2 2
left_child=1 -1
right_child=-2 -3
leaf_value=0.038413003373772278 -0.0059351091341127201 -0
leaf_count=75 90 117
internal_value=0 0
internal_count=282 192
shrinkage=0.663506


Tree=68
num_leaves=3
num_cat=0
split_feature=70 0
split_gain=3.58303e-06 8.40623e-05
threshold=0.036144401133874259 0.077794411830413163
decision_type=2 2
left_child=1 -1
right_child=-2 -3
leaf_value=-0 -0.0097310112692261391 0.044639262944547987
leaf_count=87 96 99
internal_value=0 0
internal_count=282 186
shrinkage=0.663506


Tree=69
num_leaves=3
num_cat=0
split_feature=14 19
split_gain=1.40999e-05 0.000142378
threshold=0.035894063451261761 0.070636309954802204
decision_type=2 2
left_child=1 -1
right_child=-2 -3
leaf_value=-0.069801663439547773 0 0
leaf_count=104 95 83
internal_value=0 -0.0221504
internal_count=282 187
shrinkage=0.663506


Tree=70
num_leaves=3
num_cat=0
split_feature=86 20
split_gain=3.0505e-06 5.26158e-05
threshold=0.032450505501399253 3.2802600814092352e-06
decision_type=2 2
left_child=-1 -2
right_child=1 -3
leaf_value=-0.0093653349442916374 -0 0.036926476121678556
leaf_count=87 100 95
internal_value=0 0
internal_count=282 195
shrinkage=0.663506


Tree=71
num_leaves=3
num_cat=0
split_feature=62 92
split_gain=2.12828e-06 0.000330537
threshold=0.033247823226594954 0.031912470668193006
decision_type=2 2
left_child=1 -1
right_child=-2 -3
leaf_value=0 0 -0.0888565186198009
leaf_count=84 78 120
internal_value=0 -0.00827557
internal_count=282 204
shrinkage=0.663506


Tree=72
num_leaves=3
num_cat=0
split_feature=6 36
split_gain=4.84281e-06 0.000112585
threshold=0.035715941951533804 1.8552856647734704e-06
decision_type=2 2
left_child=1 -1
right_child=-2 -3
leaf_value=-0 -0 0.054368618737984535
leaf_count=78 97 107
internal_value=0 0.0129596
internal_count=282 185
shrinkage=0.663506


Tree=73
num_leaves=2
num_cat=0
split_feature=54
split_gain=6.23626e-08
threshold=0.033111323069029509
decision_type=2
left_child=-1
right_child=-2
leaf_value=0 -0.0010947549819412461
leaf_count=132 150
internal_value=0
internal_count=282
shrinkage=0.663506


Tree=74
num_leaves=2
num_cat=0
split_feature=54
split_gain=1.09035e-08
threshold=0.033111323069029509
decision_type=2
left_child=-1
right_child=-2
leaf_value=0 -0.00045779252094506589
leaf_count=132 150
internal_value=0
internal_count=282
shrinkage=0.663506


Tree=75
num_leaves=2
num_cat=0
split_feature=54
split_gain=1.90593e-09
threshold=0.033111323069029509
decision_type=2
left_child=-1
right_child=-2
leaf_value=0 -0.00019140507426126019
leaf_count=132 150
internal_value=0
internal_count=282
shrinkage=0.663506


Tree=76
num_leaves=2
num_cat=0
split_feature=54
split_gain=3.33174e-10
threshold=0.033111323069029509
decision_type=2
left_child=-1
right_child=-2
leaf_value=0 -8.0027708861646734e-05
leaf_count=132 150
internal_value=0
internal_count=282
shrinkage=0.663506


Tree=77
num_leaves=2
num_cat=0
split_feature=54
split_gain=5.82431e-11
threshold=0.033111323069029509
decision_type=2
left_child=-1
right_child=-2
leaf_value=0 -3.3460288259653582e-05
leaf_count=132 150
internal_value=0
internal_count=282
shrinkage=0.663506


Tree=78
num_leaves=2
num_cat=0
split_feature=54
split_gain=1.01793e-11
threshold=0.033111323069029509
decision_type=2
left_child=-1
right_child=-2
leaf_value=0 -1.3988354629665225e-05
leaf_count=132 150
internal_value=0
internal_count=282
shrinkage=0.663506


Tree=79
num_leaves=2
num_cat=0
split_feature=54
split_gain=1.77848e-12
threshold=0.033111323069029509
decision_type=2
left_child=-1
right_child=-2
leaf_value=0 -5.8470067643340008e-06
leaf_count=132 150
internal_value=0
internal_count=282
shrinkage=0.663506


Tree=80
num_leaves=2
num_cat=0
split_feature=54
split_gain=3.11526e-13
threshold=0.033111323069029509
decision_type=2
left_child=-1
right_child=-2
leaf_value=0 -2.4471259864557536e-06
leaf_count=132 150
internal_value=0
internal_count=282
shrinkage=0.663506


Tree=81
num_leaves=2
num_cat=0
split_feature=54
split_gain=5.42915e-14
threshold=0.033111323069029509
decision_type=2
left_child=-1
right_child=-2
leaf_value=0 -1.0215858956573167e-06
leaf_count=132 150
internal_value=0
internal_count=282
shrinkage=0.663506


Tree=82
num_leaves=2
num_cat=0
split_feature=54
split_gain=9.51344e-15
threshold=0.033111323069029509
decision_type=2
left_child=-1
right_child=-2
leaf_value=0 -4.2763967129532186e-07
leaf_count=132 150
internal_value=0
internal_count=282
shrinkage=0.663506


Tree=83
num_leaves=2
num_cat=0
split_feature=54
split_gain=1.59932e-15
threshold=0.033111323069029509
decision_type=2
left_child=-1
right_child=-2
leaf_value=0 -1.7533833431938629e-07
leaf_count=132 150
internal_value=0
internal_count=282
shrinkage=0.663506


Tree=84
num_leaves=2
num_cat=0
split_feature=54
split_gain=2.74551e-16
threshold=0.033111323069029509
decision_type=2
left_child=-1
right_child=-2
leaf_value=0 -7.2647551231592654e-08
leaf_count=132 150
internal_value=0
internal_count=282
shrinkage=0.663506


Tree=85
num_leaves=2
num_cat=0
split_feature=54
split_gain=6.63175e-17
threshold=0.033111323069029509
decision_type=2
left_child=-1
right_child=-2
leaf_value=0 -3.5704526712376317e-08
leaf_count=132 150
internal_value=0
internal_count=282
shrinkage=0.663506


Tree=86
num_leaves=2
num_cat=0
split_feature=54
split_gain=8.9394e-18
threshold=0.033111323069029509
decision_type=2
left_child=-1
right_child=-2
leaf_value=0 -1.3108809474587273e-08
leaf_count=132 150
internal_value=0
internal_count=282
shrinkage=0.663506


Tree=87
num_leaves=2
num_cat=0
split_feature=54
split_gain=1.80127e-18
threshold=0.033111323069029509
decision_type=2
left_child=-1
right_child=-2
leaf_value=0 -5.8843462888589139e-09
leaf_count=132 150
internal_value=0
internal_count=282
shrinkage=0.663506



feature importances:
V55=17
V21=14
V12=13
V97=12
V30=11
V1=10
V28=9
V15=9
V20=9
V5=7
V6=7
V25=7
V74=7
V39=6
V40=6
V76=6
V8=6
V7=6
V82=5
V71=5
V84=5
V94=5
V53=5
V44=5
V98=5
V100=5
V32=5
V13=5
V17=5
V27=4
V65=4
V26=4
V70=4
V19=4
V85=4
V87=4
V10=4
V89=3
V33=3
V91=3
V22=3
V73=3
V93=3
V69=3
V67=3
V66=3
V96=3
V61=3
V41=3
V45=3
V54=3
V50=3
V77=2
V9=2
V37=2
V43=2
V80=2
V47=2
V23=2
V49=2
V64=2
V58=2
V24=2
V59=2
V60=1
V57=1
V34=1
V11=1
V36=1
V95=1
V38=1
V31=1
V90=1
V29=1
V86=1
V42=1
V68=1
V83=1
V18=1
V79=1
V78=1
V56=1
V63=1
V75=1
V46=1
V51=1
V48=1
