tree
version=v2
num_class=1
num_tree_per_iteration=1
label_index=0
max_feature_idx=419
objective=binary sigmoid:1
feature_names=aatp_0 aatp_1 aatp_2 aatp_3 aatp_4 aatp_5 aatp_6 aatp_7 aatp_8 aatp_9 aatp_10 aatp_11 aatp_12 aatp_13 aatp_14 aatp_15 aatp_16 aatp_17 aatp_18 aatp_19 aatp_20 aatp_21 aatp_22 aatp_23 aatp_24 aatp_25 aatp_26 aatp_27 aatp_28 aatp_29 aatp_30 aatp_31 aatp_32 aatp_33 aatp_34 aatp_35 aatp_36 aatp_37 aatp_38 aatp_39 aatp_40 aatp_41 aatp_42 aatp_43 aatp_44 aatp_45 aatp_46 aatp_47 aatp_48 aatp_49 aatp_50 aatp_51 aatp_52 aatp_53 aatp_54 aatp_55 aatp_56 aatp_57 aatp_58 aatp_59 aatp_60 aatp_61 aatp_62 aatp_63 aatp_64 aatp_65 aatp_66 aatp_67 aatp_68 aatp_69 aatp_70 aatp_71 aatp_72 aatp_73 aatp_74 aatp_75 aatp_76 aatp_77 aatp_78 aatp_79 aatp_80 aatp_81 aatp_82 aatp_83 aatp_84 aatp_85 aatp_86 aatp_87 aatp_88 aatp_89 aatp_90 aatp_91 aatp_92 aatp_93 aatp_94 aatp_95 aatp_96 aatp_97 aatp_98 aatp_99 aatp_100 aatp_101 aatp_102 aatp_103 aatp_104 aatp_105 aatp_106 aatp_107 aatp_108 aatp_109 aatp_110 aatp_111 aatp_112 aatp_113 aatp_114 aatp_115 aatp_116 aatp_117 aatp_118 aatp_119 aatp_120 aatp_121 aatp_122 aatp_123 aatp_124 aatp_125 aatp_126 aatp_127 aatp_128 aatp_129 aatp_130 aatp_131 aatp_132 aatp_133 aatp_134 aatp_135 aatp_136 aatp_137 aatp_138 aatp_139 aatp_140 aatp_141 aatp_142 aatp_143 aatp_144 aatp_145 aatp_146 aatp_147 aatp_148 aatp_149 aatp_150 aatp_151 aatp_152 aatp_153 aatp_154 aatp_155 aatp_156 aatp_157 aatp_158 aatp_159 aatp_160 aatp_161 aatp_162 aatp_163 aatp_164 aatp_165 aatp_166 aatp_167 aatp_168 aatp_169 aatp_170 aatp_171 aatp_172 aatp_173 aatp_174 aatp_175 aatp_176 aatp_177 aatp_178 aatp_179 aatp_180 aatp_181 aatp_182 aatp_183 aatp_184 aatp_185 aatp_186 aatp_187 aatp_188 aatp_189 aatp_190 aatp_191 aatp_192 aatp_193 aatp_194 aatp_195 aatp_196 aatp_197 aatp_198 aatp_199 aatp_200 aatp_201 aatp_202 aatp_203 aatp_204 aatp_205 aatp_206 aatp_207 aatp_208 aatp_209 aatp_210 aatp_211 aatp_212 aatp_213 aatp_214 aatp_215 aatp_216 aatp_217 aatp_218 aatp_219 aatp_220 aatp_221 aatp_222 aatp_223 aatp_224 aatp_225 aatp_226 aatp_227 aatp_228 aatp_229 aatp_230 aatp_231 aatp_232 aatp_233 aatp_234 aatp_235 aatp_236 aatp_237 aatp_238 aatp_239 aatp_240 aatp_241 aatp_242 aatp_243 aatp_244 aatp_245 aatp_246 aatp_247 aatp_248 aatp_249 aatp_250 aatp_251 aatp_252 aatp_253 aatp_254 aatp_255 aatp_256 aatp_257 aatp_258 aatp_259 aatp_260 aatp_261 aatp_262 aatp_263 aatp_264 aatp_265 aatp_266 aatp_267 aatp_268 aatp_269 aatp_270 aatp_271 aatp_272 aatp_273 aatp_274 aatp_275 aatp_276 aatp_277 aatp_278 aatp_279 aatp_280 aatp_281 aatp_282 aatp_283 aatp_284 aatp_285 aatp_286 aatp_287 aatp_288 aatp_289 aatp_290 aatp_291 aatp_292 aatp_293 aatp_294 aatp_295 aatp_296 aatp_297 aatp_298 aatp_299 aatp_300 aatp_301 aatp_302 aatp_303 aatp_304 aatp_305 aatp_306 aatp_307 aatp_308 aatp_309 aatp_310 aatp_311 aatp_312 aatp_313 aatp_314 aatp_315 aatp_316 aatp_317 aatp_318 aatp_319 aatp_320 aatp_321 aatp_322 aatp_323 aatp_324 aatp_325 aatp_326 aatp_327 aatp_328 aatp_329 aatp_330 aatp_331 aatp_332 aatp_333 aatp_334 aatp_335 aatp_336 aatp_337 aatp_338 aatp_339 aatp_340 aatp_341 aatp_342 aatp_343 aatp_344 aatp_345 aatp_346 aatp_347 aatp_348 aatp_349 aatp_350 aatp_351 aatp_352 aatp_353 aatp_354 aatp_355 aatp_356 aatp_357 aatp_358 aatp_359 aatp_360 aatp_361 aatp_362 aatp_363 aatp_364 aatp_365 aatp_366 aatp_367 aatp_368 aatp_369 aatp_370 aatp_371 aatp_372 aatp_373 aatp_374 aatp_375 aatp_376 aatp_377 aatp_378 aatp_379 aatp_380 aatp_381 aatp_382 aatp_383 aatp_384 aatp_385 aatp_386 aatp_387 aatp_388 aatp_389 aatp_390 aatp_391 aatp_392 aatp_393 aatp_394 aatp_395 aatp_396 aatp_397 aatp_398 aatp_399 aatp_400 aatp_401 aatp_402 aatp_403 aatp_404 aatp_405 aatp_406 aatp_407 aatp_408 aatp_409 aatp_410 aatp_411 aatp_412 aatp_413 aatp_414 aatp_415 aatp_416 aatp_417 aatp_418 aatp_419
feature_infos=[-2.2896551724099998:0.45192307692299999] [-2.7172413793099999:-0.18207282913200001] [-3.04261363636:-0.23266219239399999] [-2.9914893616999998:-0.40945945945899997] [-4.4314381270899998:0.081504702194399994] [-2.7103448275900002:0.081232492997200006] [-2.9431438127099998:0.47639484978500002] [-3.3072625698300002:-0.70989304812800003] [-3.3416666666700001:0.217261904762] [-2.7172413793099999:-0.21561338290000001] [-3.1448275862099999:-0.73777777777800002] [-3.39799331104:0.302884615385] [-2.872909699:0.31964809384199999] [-3.46927374302:-0.37555555555600001] [-3.8744680851100002:-0.427884615385] [-2.2045454545499998:-0.17307692307700001] [-2.05909090909:0.10576923076899999] [-5.0223463687200001:-0.50106157112500005] [-3.3724137930999998:-0.093178036605699996] [-2.5448275862099998:-0.34254143646399998] [-0.423558897243:0.68312757201600005] [-0.016376921138799998:0.34337349397599998] [-0.024452554744500001:0.079988851727999993] [-0.018573551263000001:0.0583910034602] [-0.044907975460100003:0.056904927133900003] [-0.18688524590200001:0.111111111111] [-0.28333333333299998:0.184634448575] [-0.013076923076899999:0.056467983022700001] [-0.0611023622047:0.083674863387999995] [-0.045885286783000002:0.097646800088000002] [-0.023985959438400001:0.067196367763900006] [-1.0826086956500001:1.09523809524] [-0.097560975609799996:0.115839243499] [-0.022706834532400001:0.071374335611200004] [-0.021372965322:0.066436085891299998] [-0.024060150375900001:0.115720524017] [-0.40845070422500002:0.085766423357700003] [-0.023082032547299999:0.060365689701499997] [-0.016022741956300001:0.080391322841300003] [-0.075054229934900005:0.102040816327] [-0.50617283950600001:0.60401002506299994] [-0.82831325301199998:0.10012554927800001] [-0.059232175502699998:0.092861464004799998] [-0.102832751261:0.085643153526999999] [-0.0070510161758600004:0.16314935064899999] [-0.32058287796000001:0.66822429906500003] [-0.27385377943:0.88402061855699998] [-0.0084800205576300008:0.069628150736200004] [-0.029208709506100002:0.101417322835] [-0.027282266526799999:0.131554307116] [0.0050251256281400002:0.10334088335199999] [-2.4826086956500002:1.45257452575] [-0.50495049505:0.166666666667] [-0.0030330062444199998:0.086741750642199994] [-0.0080181279414299998:0.081965442764599994] [-0.091155234656999998:0.094961240310100004] [-0.44133529700500002:0.33029197080299999] [0.0053453947368400003:0.076432186605999999] [0.0047890535917900004:0.107494322483] [-0.016443361754000001:0.13986784141] [-0.238683127572:0.18932655654399999] [-0.072742133224399999:0.076386338597100006] [-0.0146831530139:0.092216117216099999] [-0.039556061468400003:0.094329334787399993] [0.017209205888500001:0.090097402597399998] [-0.0473588342441:0.31803278688499997] [-0.47583643122699998:0.63015873015900004] [0.018575562400800001:0.086826973340299998] [-0.0125750214347:0.109426811937] [-0.114401076716:0.105456453305] [-0.050239234449799997:0.099722991689800006] [-0.46521739130400003:0.50612745098] [-0.090053763440900006:0.61111111111100003] [0.017252315108500001:0.094324213964899997] [0.00067957866123000003:0.086406362979000007] [-0.033082706766899998:0.11790393013100001] [-0.102110947472:0.38497652582199998] [0.0108248208568:0.095549738219899996] [0.015461997019400001:0.112717992344] [-0.0385462555066:0.105968331303] [-0.072774528914899994:0.60905349794200003] [-0.10889395667:0.153614457831] [-0.060545764639000001:0.125763564499] [-0.0367940673132:0.108260221818] [0.0029593758407300001:0.125] [-0.38433515482699998:0.53770491803300002] [-0.084710743801700003:0.96907216494799997] [0.020075400565500001:0.120805018296] [-0.042124542124500002:0.117479867361] [-0.183041722746:0.16841552990600001] [-0.090909090909100002:0.13469529085900001] [-0.55364806867000005:0.70476190476199996] [-0.038978494623699997:0.66831683168300005] [-0.0091719077568100001:0.113515720702] [0.0262439579187:0.12092504876] [-0.041381456129400002:0.18668122270699999] [-0.065727699530500006:0.33029197080299999] [0.013788591091900001:0.099541066624500005] [-0.0104330708661:0.14334325818800001] [-0.101321585903:0.141291108404] [-0.25285895806899999:0.185463659148] [-0.0252694165738:0.548192771084] [0.0049071153172099997:0.17032967032999999] [0.010571970723800001:0.16416552978599999] [0.032187041308500003:0.17566782810699999] [-0.607476635514:0.28233151183999999] [-0.36959553696000003:0.24989078200100001] [-0.051609956611100002:0.13126271029799999] [-0.020486555697799998:0.215759849906] [-0.0157761884729:0.34858681022900001] [0.000958466453674:0.19976076555] [-2.8265582655800001:4.3956521739100003] [-1.0462962963:0.220297029703] [0.010077059869600001:0.128279883382] [0.0061571894241199999:0.12750098077700001] [0.0223101835193:0.20100502512599999] [-0.15145985401500001:0.13922764227600001] [0.00091890650126300001:0.13589567604700001] [-0.000851788756388:0.136023622047] [-0.0236232551005:0.19043401239999999] [-0.094171997157099993:0.64197530864200003] [-0.34036144578299998:0.077883340698199993] [-0.056307129798899999:0.077098723975800004] [-0.042685292976299999:0.078988086028199997] [-0.0020325203252000001:0.12987012986999999] [-0.12204007286:0.54672897196299997] [-0.34820322180899999:0.61111111111100003] [-0.0130653266332:0.0749085206482] [-0.037851037850999997:0.099247581511999999] [-0.106325706595:0.086728317920499995] [-0.044856459330099997:0.089038785834699999] [-0.75217391304299996:0.90243902439000001] [-0.12109375:0.42592592592599998] [0.00037193156459199998:0.088815789473700002] [-0.0078918812271899993:0.069700219124399998] [-0.067336683417100002:0.066499868317100003] [-0.23004694835699999:0.30291970802899998] [0.000185770016719:0.068585732165200003] [0.0062893081761000004:0.097295398665300001] [-0.0276799194766:0.109909619109] [-0.104613385315:0.82304526748999995] [-0.40361445783099997:0.111854329246] [-0.097257769652699999:0.110447761194] [-0.083430345362800001:0.097091134148200003] [-0.021612411442899999:0.0865715691097] [-0.36429872495400001:0.89719626168199995] [-0.17458677685999999:0.75] [-0.019786034740599999:0.091427077888100006] [-0.050671550671600001:0.11071428571399999] [-0.238223418573:0.10437817258900001] [-0.107057416268:0.096865621873999996] [-0.53333333333300004:0.64215686274499995] [-0.125:1.1203703703700001] [0.0029678165349799998:0.116783919598] [-0.0125283614482:0.079150579150600003] [-0.15175879397:0.069545154910999996] [-0.43661971831000002:0.42518248175200002] [-0.00115007541478:0.104295887893] [-0.023715415019799999:0.11682004090000001] [-0.085903083700399993:0.080125877511499993] [-0.49624060150400001:0.37876106194699999] [-0.019862490450700002:0.58381502890199999] [0.024781849912700001:0.14780168381700001] [0.015386259215700001:0.16643929058699999] [-0.015184381778700001:0.136271013754] [-0.91121495327099999:0.36065573770499998] [-0.20104166666699999:0.38571428571400002] [0.029400386847200002:0.130229301593] [-0.073808303434099998:0.14465408804999999] [-0.060796645702299999:0.20000000000000001] [-0.048533333333299997:0.127781945486] [-1.5217391304300001:1.86666666667] [-0.14814814814800001:0.205452775073] [-0.012558670556899999:0.151515151515] [0.037357052096600001:0.136833402232] [0.023015873015899999:0.32096069868999999] [0.0078546882670599994:0.14939024390200001] [-0.0129646682499:0.145976207138] [-0.015232211333600001:0.16122233930499999] [-0.0451727192205:0.14289788933299999] [-0.80246913580199997:0.64661654135299995] [-0.089666484417700004:0.16867469879499999] [-0.066341463414599997:0.082823960880199998] [-0.044621026894900002:0.092769440654800001] [-0.0030493273542599999:0.140482128013] [-0.20085470085500001:0.135514018692] [-0.53531598513:0.81111111111099998] [-0.0089359200470299997:0.078333333333300004] [-0.023709902371:0.15433070866099999] [-0.084791386271899999:0.114888123924] [-0.053616244581300002:0.080003751641299997] [-0.43700159489599999:0.58946078431399995] [-0.0625:0.91666666666700003] [-0.037638202775800003:0.116090146751] [-0.0055762081784399998:0.074649012669799994] [-0.070382616910699997:0.087437185929599995] [-0.100147275405:0.35680751173699998] [-0.016099234626600002:0.086063986366100007] [-0.00068965517241400002:0.127926223694] [-0.046640574037800003:0.110038045069] [-0.14532871972299999:0.48148148148100001] [-0.121387283237:0.23013923013900001] [-0.016169601149800001:0.12768031189099999] [-0.0214467466376:0.132327831531] [-0.103084415584:0.083711010397199997] [-0.43606557376999999:0.44990892531900001] [-0.82380952381000006:0.66294919454800005] [-0.023825428635:0.080606193718399999] [-0.036034159550100003:0.113553113553] [-0.0564564564565:0.22072678331100001] [-0.0088797814207700002:0.181818181818] [-0.81904761904800005:0.74347826087000002] [-1.40740740741:0.283203125] [-0.025091003640100001:0.077628793225099996] [-0.0152295152295:0.074923547400600005] [-0.018733850129200001:0.15257439773299999] [-0.231751824818:0.39469808542000001] [-0.0030725596785600002:0.079484321233000005] [-0.034878774989400001:0.076304221613999995] [-0.0250896057348:0.13325991189399999] [-0.31077694235600001:0.32921810699600002] [-0.17919075144499999:0.18140868140899999] [0.016333938294000001:0.110896445131] [-0.00072700836059600002:0.14280170741199999] [-0.063311688311700004:0.094650632386499997] [-0.57476635513999996:0.57559198542800005] [-0.88144329896899998:0.52664188351899999] [0.0095767686129099999:0.095211948165999996] [-0.084048027444299997:0.104049719326] [-0.028259231348899998:0.238223418573] [-0.017537942664400001:0.18122009569399999] [-0.93333333333299995:0.96521739130399997] [-0.090759075907600004:0.45370370370399998] [-0.020536361440000001:0.0789007092199] [0.0045973808860399999:0.089704383282400005] [0.019633225458499999:0.17902692489399999] [-0.30839416058399999:0.29577464788699998] [0.00026888948642100002:0.087505452430599998] [-0.059974478945100003:0.085570231501199995] [-0.00709849157054:0.12775330396500001] [-0.11549395877800001:0.20760233918099999] [-0.66566265060200003:0.103613632471] [-0.062335711603500002:0.12648221343900001] [-0.077997671711299996:0.080781327594800001] [-0.035188866799199997:0.091720779220800006] [-0.34061930783200001:0.696261682243] [-0.29615861214400002:0.61746031745999996] [-0.0077051926298199996:0.096901131333000004] [-0.059301380991100001:0.103804127883] [-0.092866756393000002:0.10018726591800001] [-0.047846889952200003:0.092608326253199993] [-2.06086956522:1.60704607046] [-0.37623762376199998:0.86111111111100003] [-0.011806646988900001:0.101105527638] [-0.00915553028149:0.091514726507699998] [-0.080402010050299996:0.115720524017] [-0.234741784038:0.332116788321] [-0.0060906591925799997:0.083576855640000003] [-0.0098590401694800007:0.090482828538800006] [-0.049823855057899998:0.10245398773] [-0.26817042606500002:0.58024691358000002] [-0.13583815028900001:0.112791172865] [-0.032740879326500001:0.100863422292] [-0.012540894220300001:0.098315998018800005] [-0.046373365041600001:0.075654853620999996] [-0.39344262295100002:0.23497267759599999] [-0.45103092783499998:0.234200743494] [-0.026074790129700001:0.054439136880299999] [-0.024886018237099999:0.12608918503300001] [-0.10630630630600001:0.111709286676] [-0.031691078561900003:0.084330143540699995] [-0.68571428571399995:1.07826086957] [-0.53703703703700001:0.32673267326700001] [-0.045829145728600001:0.071260941265999994] [-0.0137921426581:0.0704271274861] [-0.039156626505999999:0.114620938628] [-0.180656934307:0.116559485531] [-0.021997151448000001:0.085906072796000002] [-0.0365801786474:0.083652890214499995] [-0.056928034371600003:0.11213389121300001] [-0.19341563785999999:0.26652452025599999] [-0.010113129928:0.55722891566300004] [-0.03035982009:0.13564899451599999] [-0.0125404530744:0.139760410724] [-0.10551948051899999:0.10742300987800001] [-0.65420560747699996:0.176684881603] [-0.63650793650799997:0.54894671623299995] [-0.0103295622233:0.110638297872] [-0.060634770251099999:0.14705882352899999] [-0.0193972693973:0.232839838493] [-0.016526138279900002:0.168062200957] [-0.63685636856399996:1.4173913043499999] [-0.5:0.24731182795699999] [-0.000870776732846:0.108525413712] [-0.0262505167425:0.088975250562499997] [-0.11026200873399999:0.245226130653] [-0.53649635036499999:0.64319248826300002] [-0.0088912531347400004:0.096857651053700006] [-0.061675882603100002:0.095453382239999995] [-0.0115350488021:0.13882421420300001] [-0.75720164609100005:0.23347547974399999] [0.0081555834378899995:0.17291847354699999] [0.0447326242168:0.19462686567199999] [0.048548972188599999:0.202561117579] [-0.0121951219512:0.109918833402] [0.026384535005200001:0.31475409836099999] [-0.36190476190499998:0.32465923172200001] [0.042719086316700003:0.139450114559] [0.034722222222199998:0.17119425935400001] [-0.0238816010764:0.12906610702999999] [0.0123030930206:0.12534626038800001] [-3.1043478260900002:1.89701897019] [-0.052734375:0.25925925925900001] [-0.025025914408400001:0.121047331319] [0.062374693695699999:0.18264140429100001] [0.053303419464600002:0.29920634920599998] [-1.09389671362:0.47079037800700002] [0.029956427015300002:0.12859665524] [0.0224345304103:0.14674606550399999] [-0.0280021540118:0.16931216931199999] [-0.090618336886999995:0.12802768166100001] [-0.0436914846188:0.0903614457831] [-0.014652014652000001:0.073099415204699994] [-0.0077307867212399999:0.070883315158099994] [0.0045081146062899997:0.091022443890299995] [-0.0136830102623:0.48130841121500001] [-0.16604708798000001:0.35714285714299998] [0.00747252747253:0.071876633559899997] [-0.043345543345499997:0.095125786163499995] [-0.091520861372799994:0.081081081081100001] [-0.032000000000000001:0.077571669477199998] [-0.184027777778:0.504761904762] [-0.37623762376199998:0.085543766578199995] [0.00456678929342:0.085547962541100003] [0.0117828858412:0.074794638996999993] [-0.0586466165414:0.073115860517400003] [-0.11585665193899999:0.35401459854] [0.00019386419812899999:0.0715859867771] [0.00085215168299999997:0.10208421948099999] [-0.031758326878400002:0.074534161490699996] [-0.22743682310499999:0.20054200542] [-0.13500000000000001:0.060771534261099998] [-0.059706959706999997:0.064330413016300006] [-0.109595270578:0.063629574309199993] [-0.0061011040093000004:0.0658295964126] [-0.016036308623300001:1.1728971962600001] [-0.29120198265199998:0.509523809524] [-0.013680902199999999:0.056815077847600003] [-0.036900369003700001:0.087907375643200003] [-0.017002445557199999:0.087591240875900006] [-0.0083474019883699995:0.10455311973] [-0.45138888888899997:0.72173913043500004] [-0.16336633663399999:0.092592592592599998] [-0.00576241134752:0.080937424498700006] [-0.0235657716824:0.062680617837599997] [-0.15376884422100001:0.075458392101600005] [-0.049171842650100002:0.39598540146] [-0.0084088595938499999:0.058896649698099997] [-0.0156937934952:0.081667375584900004] [-0.027327327327300002:0.084801762114499996] [-0.42798353909499998:0.46570397111900003] [0.0021720243266699999:0.48999999999999999] [-0.0149253731343:0.19339091250500001] [0.0092542188350600001:0.20009095043200001] [0.041263372389199998:0.22009291521499999] [-0.75700934579400003:0.21311475409799999] [-0.23195876288699999:0.22843056696799999] [0.031364349189800002:0.149297083769] [0.017543859649100001:0.19972105997199999] [0.026951151038700001:0.26648721399699998] [-0.016526138279900002:0.182416267943] [-0.50406504065000002:1.1608695652200001] [-0.014605647516999999:0.64851485148499999] [0.018603527422099999:0.146897675107] [0.017275006965700002:0.14704817095299999] [-0.19104803493399999:0.29748743718600001] [-0.26459854014599998:0.42723004694799999] [0.034218653489800001:0.15340393343399999] [-0.028073160357299998:0.15584263065199999] [0.0085773439810700007:0.22538649308399999] [-0.54320987654300001:0.55639097744400001] [-0.0103761348898:0.58734939759000004] [-0.013731343283599999:0.120165227187] [0.0057361376672999996:0.130513869941] [0.015955687830700001:0.103773584906] [-0.47196261682200003:0.36429872495400001] [-0.293650793651:0.20941759603499999] [0.00543204908963:0.091553386778200005] [0.00038986354775799999:0.15018315018299999] [-0.0057442557442600002:0.124257752364] [-0.00054406964091400004:0.094629898403500001] [-0.74525745257499998:0.97391304347800001] [-0.023809523809500001:0.18518518518499999] [-0.0094472361808999993:0.087470449172599996] [-0.016439119531899998:0.085617123424700001] [-0.062227074235799998:0.22211055276399999] [-0.36678832116799998:0.352112676056] [0.0121298608634:0.086383119024099994] [-0.0046788600595500003:0.096653543307100007] [0.0040241448692200001:0.13363363363399999] [-0.105463786531:0.18088130774700001] [-0.014522596727000001:0.165438165438] [-0.044196909809599998:0.110786106033] [-0.020901490367100001:0.102162777462] [-0.032834580216100001:0.071971496437100005] [-0.101639344262:0.247723132969] [-0.76190476190500001:0.64560099132600002] [-0.0203868269733:0.072620169651299998] [-0.0317385125533:0.085470085470100002] [-0.0072178477690299997:0.18707940780599999] [0.000355650395661:0.146531100478] [-0.52941176470600004:0.57391304347799998] [-0.86111111111100003:0.166015625] [-0.00116998161457:0.078569748294500003] [-0.00096525096525099997:0.073394495412800007] [-0.060043668122299998:0.12139820500700001] [-0.158759124088:0.29107981220700002] [-0.010281257386:0.067661046260300006] [-0.0085070182900900005:0.065906499429899998] [-0.0088766946416999996:0.13876651982400001]
tree_sizes=906 1618 1410 1325 1338 1632 1634 1651 1572 1387 1484 1350 1255 946 1107 798 1329 1192 1098 874 801 727 771 634 614 557 554 555 475 546 517 480 413 356 416 416 396 337 400 415 358 340 416 339 339 338 340 338 340 338 340 277 339 338 340 337 277 277 278 278 341 279 279 341 280 280 279 280 279 277 339 276 342 280 280 280 279 343 258 280 278 280 280 280 343 280 280 278 342 260 279 280 278 277 280 279 280 278 277 280 280 281 279 281 279 278 281 279 281 280 281 281 279 280 280 278 280 281 282 279 281 281 279 279 280 278 281 282 283 283 283 279 281 282 280 282 283 280 343 261 259 278 282 283 283 280 283 281 279 283 283 282 281 282 281 282 281 283 279 282 283 282 283 279 282 283 281 283 283 283 283 281 283 283 281 279 282 281 283 282 283 283 281 282 283 280 281 282 282 283 281 282 283 283 281 282 281 282 281 283 283 280 281 282 282 281 283 281 281 280 283 282 283 283 283 282 280 283 283 283 281 283 282 279 283 280 283 280 281 282 281 282 283 283 281 280 281 282 281 281 283 283 281 283 283 280 282 279 281 280 283 282 282 283 281 282 283 279 283 283 283 283 282 280 283 280 281 282 283 281 282 282 283 283 282 280 282 283 281 280 282 282 283 283 283 279 282 279 283 283 282 283 282 281 280 283 283 283 280 283

Tree=0
num_leaves=11
num_cat=0
split_feature=34 174 229 230 67 386 152 285 87 0
split_gain=61.6958 54.9916 15.2711 14.1727 14.4974 12.4567 11.958 11.8034 10.5208 1.54658
threshold=0.025336894822500004 0.065072280162900023 0.066717028219600016 0.028371885070550003 0.068467524952600015 0.042726837249950002 0.046089926678400013 0.080120720239700002 0.051101692292100008 -0.36289855677199995
decision_type=2 2 2 2 2 2 2 2 2 2
left_child=3 8 -3 -1 5 6 -5 -7 -2 -6
right_child=1 2 -4 4 9 7 -8 -9 -10 -11
leaf_value=-0.84905232426054977 -0.84553577738844909 -0.85149084372683104 0.84707197484146302 0.44551449380527441 -0 0.72191284892355534 -0.53143147930280066 -0 0.85085777638286542 -0.84905232426054977
leaf_count=7 3 88 4 21 2 92 16 20 22 7
internal_value=0 -1.11084 -1.82564 0.787717 0.911212 1.0602 0.0536085 1.39254 1.51852 -1.5514
internal_count=282 117 92 165 158 149 37 112 25 9
shrinkage=0.425851


Tree=1
num_leaves=20
num_cat=0
split_feature=21 147 30 266 314 8 37 23 27 60 166 399 270 282 8 373 25 21 44
split_gain=22.5887 14.1127 9.82883 10.8903 9.72376 8.91433 8.05437 7.87211 7.4133 6.88925 5.94397 5.09249 3.26033 6.0856 2.88297 1.59603 1.54987 0.955249 0.796527
threshold=0.03383788825540001 0.044645331995850003 0.041518238616800006 0.034985705019500012 0.090465350532150018 -0.23083303353699997 0.019915014477650001 0.030280714142700001 0.043279377112400007 -0.0028768358779949995 0.16240303813850002 0.030485320469600004 0.04059585860945001 0.064962476112850012 0.046253925690600009 0.10572041825900001 0.0083667164470300013 0.042851616399850002 0.030236371464500002
decision_type=2 2 2 2 2 2 2 2 2 2 2 2 2 2 2 2 2 2 2
left_child=2 4 3 12 -2 15 9 -8 11 -5 -6 14 16 -14 -3 18 -1 -10 -4
right_child=1 8 5 6 10 -7 7 -9 17 -11 -12 -13 13 -15 -16 -17 -18 -19 -20
leaf_value=-0.15206174872666089 0.46633164588216536 -0.7498574158917648 0.023511712017104495 0.36778114903121095 -0.64243111531172581 0.6775980039246271 0.61604977391402849 -0.4538870414420797 0.082477352781339386 -0.62637338256619579 0.84247402464326049 0.63417779536479868 -0.80895948793016781 0.52508434977843321 0.59873569698527906 -1.1203945665233768 0.62980014639299864 -0.60558746271959252 -0.61415558323135622
leaf_count=2 8 4 2 8 77 5 21 8 2 19 2 21 4 9 2 5 65 9 9
internal_value=0 -0.6941 0.524242 0.729516 -1.17558 -0.840961 0.0195929 0.796684 0.395788 -0.799161 -1.40503 0.992858 1.2329 0.25789 -0.742813 -1.63994 1.42084 -1.11073 -1.16596
internal_count=282 125 157 136 87 21 56 29 38 27 79 27 80 13 6 16 67 11 11
shrinkage=0.425851


Tree=2
num_leaves=17
num_cat=0
split_feature=34 174 244 120 123 136 261 360 229 208 87 213 27 99 21 1
split_gain=14.1363 11.4037 5.81171 6.10844 5.90817 6.40805 4.57773 4.67326 3.62203 2.98116 1.75122 1.5623 0.0952322 0.0500671 0.0312493 0.0103528
threshold=0.026483938775450005 0.065072280162900023 0.055971848177600002 0.054705663609950002 0.028039167629100005 0.048022345196050011 0.043481816184700005 0.091232213679200022 0.066717028219600016 0.05696437981195001 0.051101692292100008 0.015223741315900001 0.016677228420300002 0.036860713036400004 0.056806414878950003 -0.84583333333299993
decision_type=2 2 2 2 2 2 2 2 2 2 2 2 2 2 2 2
left_child=2 10 3 4 9 -6 11 -8 13 -1 -2 -5 -4 14 -3 -14
right_child=1 8 12 6 5 -7 7 -9 -10 -11 -12 -13 15 -15 -16 -17
leaf_value=0.49150548937922983 -0.52159664614485324 -0.73294399599662763 -0.88484920787001498 -0.055439717595640155 -0.32471332880500037 0.54955079597694734 -0.32327363264396619 0.67169245598461325 0.52002663241053038 -0.57175524074054251 0.52581365221385024 0.56834297468813089 -0.68045001098605373 -0.52647824398787002 -0.50991571084400678 -0.51244951424510354
leaf_count=25 2 2 2 4 44 11 15 6 4 3 18 60 2 80 2 2
internal_value=0 -0.749047 0.382569 0.468476 0.0295299 -0.402204 0.915908 -0.0136421 -1.1428 0.899703 0.979798 1.2352 -1.7064 -1.25495 -1.53308 -1.45442
internal_count=282 108 174 168 83 55 85 21 88 28 20 64 6 84 4 4
shrinkage=0.425851


Tree=3
num_leaves=16
num_cat=0
split_feature=34 160 294 161 267 191 1 270 27 229 232 105 202 92 269
split_gain=8.0197 6.28742 3.60336 5.1057 4.41948 7.2497 4.0666 3.12421 2.99525 2.20113 2.05153 1.67063 1.43839 1.36466 0.0251033
threshold=0.026483938775450005 0.060492162522800007 0.067490069885300014 0.080599391079250016 0.03687194816090001 0.045518178630800009 -2.2438851471099999 0.04059585860945001 0.0081424390447700015 0.066717028219600016 0.057535036595400012 0.042826895590450005 0.014962770704950001 0.060050896479150004 0.037645765958750008
decision_type=2 2 2 2 2 2 2 2 2 2 2 2 2 2 2
left_child=2 13 4 8 6 10 -1 -8 -4 -3 -6 -5 -10 -2 -7
right_child=1 9 3 11 5 14 7 -9 12 -11 -12 -13 -14 -15 -16
leaf_value=-0.67057234056408355 0.48341776039217776 -0.48942678979559623 0.51259711536127883 -0.53987589090301102 -0.55123476231011737 0.48503973091808278 0.46213928075469507 -0.18114913934036028 0.47405367005501597 0.48010006426244928 0.49105059777892135 0.53806083669183613 -0.62857940368227394 -0.47184583937705443 0.60537726223022403
leaf_count=3 18 83 4 2 21 9 85 10 2 4 3 12 18 3 5
internal_value=0 -0.685564 0.306624 -0.35179 0.510494 -0.226243 0.802972 0.919438 -0.991748 -1.04228 -1.04841 0.905316 -1.31544 0.820302 1.28715
internal_count=282 108 174 38 136 38 98 95 24 87 24 14 20 21 14
shrinkage=0.425851


Tree=4
num_leaves=16
num_cat=0
split_feature=34 174 381 54 132 204 231 148 367 229 64 87 208 163 1
split_gain=4.67271 4.10571 2.26341 3.87041 3.22821 2.14017 2.04323 1.85098 1.76559 1.30784 0.884529 0.636264 0.621113 0.346548 0.308499
threshold=0.026483938775450005 0.065072280162900023 0.048749089815750012 0.051216915632250011 0.040445763626400004 0.029888889825550002 0.11607343936650001 0.051798597103400006 0.076733937622750006 0.066717028219600016 0.040199586894100005 0.051101692292100008 -1.0000000180025095e-35 0.096086626581850007 -0.78441186601199997
decision_type=2 2 2 2 2 2 2 2 2 2 2 2 2 2 2
left_child=2 11 3 4 10 -4 8 -5 -7 -3 -1 -2 -9 -6 -8
right_child=1 9 5 7 13 6 14 12 -10 -11 -12 -13 -14 -15 -16
leaf_value=-0.48172399676363337 -0.4439916663201065 -0.46477801716790712 -0.50111123233217181 -0.53178667886203856 -0.55999712585370742 -0.11791036201355963 -0.53653250452499979 -0.20421706218573568 0.36505107550707933 0.45139664789343226 0.51121360581714614 0.46031366366831172 0.50808320744222102 0.045586915568576622 0.10579530104653126
leaf_count=2 2 84 6 3 21 13 4 2 91 4 7 18 21 2 2
internal_value=0 -0.650791 0.251752 -0.190357 -0.773018 0.500192 0.596938 0.706122 0.703197 -0.993448 0.758272 0.854864 1.03015 -1.24151 -0.943323
internal_count=282 108 174 58 32 116 110 26 104 88 9 20 23 23 6
shrinkage=0.425851


Tree=5
num_leaves=20
num_cat=0
split_feature=21 147 210 351 364 21 316 314 230 401 27 9 366 80 166 50 70 15 47
split_gain=2.94737 2.29204 2.00594 1.61412 1.95962 1.59648 1.41416 2.329 1.49226 1.38798 1.08129 0.973671 0.960768 0.947348 0.821587 0.218238 0.170308 0.167557 0.0677814
threshold=0.03383788825540001 0.044645331995850003 0.022475530549450003 0.015825974444700002 0.12053764629700002 0.018230746788350006 0.078352452854850013 0.088122420970500007 0.032365770840500005 0.021954292107450004 0.036003819870900004 -0.43583097233099993 0.11686971258000002 0.051308142829600008 0.16240303813850002 0.025619383841500001 0.047892104528900005 -0.35114400183399991 0.054482386004500012
decision_type=2 2 2 2 2 2 2 2 2 2 2 2 2 2 2 2 2 2 2
left_child=2 9 5 4 12 11 7 -5 -8 -2 15 -1 -4 18 17 -3 -7 -11 -12
right_child=1 10 3 6 -6 16 8 -9 -10 14 13 -13 -14 -15 -16 -17 -18 -19 -20
leaf_value=0.48768647401504733 0.44507391780238326 -0.10955644175921965 -0.46940991149533362 0.48154848479143214 0.47419108691843403 0.056346158953291883 -0.35734678065519809 -0.37612933959283273 0.44961916587349604 -0.47323079220355679 0.44996312444605469 -0.49068485498985071 0.13511366371695929 -0.46324760828192085 0.4550191938520517 0.46785077895940685 -0.55965977037872705 0.049462041739978618 0.0079725443892500539
leaf_count=7 6 2 16 12 10 2 6 13 70 77 5 2 7 12 2 17 12 2 2
internal_value=0 -0.506211 0.266123 0.437397 -0.180434 -0.580478 0.664048 0 0.916912 -0.86844 0.315828 0.473066 -0.670759 -0.399429 -1.00393 0.956915 -1.23018 -1.08297 0.834371
internal_count=282 125 157 134 33 23 101 25 76 87 38 9 23 19 81 19 14 79 7
shrinkage=0.425851


Tree=6
num_leaves=20
num_cat=0
split_feature=120 386 27 58 60 339 97 205 56 208 217 334 40 5 14 223 27 67 398
split_gain=1.94375 1.6765 1.30435 1.43573 1.2532 1.22784 1.00462 0.95703 1.19111 0.874181 0.835524 0.807795 0.690998 0.660414 0.58036 0.383855 0.33216 0.197301 0.13599
threshold=0.054705663609950002 0.047304881780000009 0.023826312655550002 0.045125905732750007 0.060118595849900001 0.018450416323700005 0.050186586576300006 0.044015438768300004 0.043520201374450007 0.032389162076000004 0.019975605178000004 0.030549319584600002 0.14502487031150002 -0.44204942250849993 -1.0852600499699998 0.046066885902150002 0.043279377112400007 0.066591039032500007 0.072912582722350017
decision_type=2 2 2 2 2 2 2 2 2 2 2 2 2 2 2 2 2 2 2
left_child=1 5 10 -4 7 17 13 16 -9 -6 -3 -12 -10 -7 -8 -5 18 -1 -2
right_child=4 2 3 15 9 6 14 8 12 -11 11 -13 -14 -15 -16 -17 -18 -19 -20
leaf_value=0.44022856186846065 0.45137515461782718 -0.45825697770174373 -0.46021996834692114 -0.2748934547785824 0.43063048098783197 0.44923677827176084 -0.47964526574901711 0.45634841674810361 -0.47254403631553055 -0.46783510018866503 -0.29840826196036319 0.44576023680599147 0.42691305802898732 -0.4403795685184545 0.43366405455523477 0.44500748642956217 -0.40928284486908656 -0.18554254631157721 0.055200068820100208
leaf_count=10 55 3 29 4 7 7 70 10 11 12 3 27 5 5 2 13 2 2 5
internal_value=0 -0.284024 0.150805 -0.443906 0.44352 -0.684917 -0.858113 0.653389 0.014595 -0.559501 0.626483 0.817441 -0.687074 0.290196 -1.05346 0.655551 0.959033 0.729278 1.0105
internal_count=282 175 79 46 107 96 84 88 26 19 33 30 16 12 72 17 62 12 60
shrinkage=0.425851


Tree=7
num_leaves=20
num_cat=0
split_feature=120 386 351 377 198 205 221 267 91 227 230 34 310 242 14 60 147 21 157
split_gain=1.1841 1.15165 0.781862 0.766874 0.912308 0.759529 0.885429 0.751623 0.655768 0.589822 0.481169 0.371374 0.364082 0.362333 0.297542 0.24914 0.21409 0.16268 0.0778278
threshold=0.056179992480050005 0.047304881780000009 0.016208455745150004 0.1015051748715 0.053339088905050007 0.044015438768300004 0.077550295400900013 0.029431214063450003 0.088912675561600013 0.061113690648150011 0.029236278197850001 0.031822757829100004 0.052206069448300009 0.029643702244350003 -1.2349179325999997 0.051465197308100008 0.025852378413300004 0.037141599352400009 0.070458745346050011
decision_type=2 2 2 2 2 2 2 2 2 2 2 2 2 2 2 2 2 2 2
left_child=1 3 7 18 -5 12 13 14 -6 -9 -4 -12 15 -7 -3 -2 17 -14 -1
right_child=5 2 10 4 8 6 -8 9 -10 -11 11 -13 16 -15 -16 -17 -18 -19 -20
leaf_value=-0.45682515083019271 0.40548067693966405 -0.47830727155153407 -0.42685997524984787 0.40771005134934063 -0.42572287343841209 0.41021117262786777 0.40184508370630512 0.40770207674559117 0.42572571367446632 -0.43809650878264833 0.41791744569778655 -0.12676998988365154 0.39755244503257103 -0.45829925977110741 0.40251195869840545 -0.42588445663480051 0.4366045723083537 -0.41105774080658863 -0.074314293210832022
leaf_count=62 4 18 4 15 19 3 12 10 6 6 35 10 3 12 2 5 50 3 3
internal_value=0 -0.239457 0.173406 -0.626478 -0.107118 0.46181 -0.176464 -0.329576 -0.633966 0.409415 0.619215 0.779042 0.789369 -0.819555 -0.949681 -0.282038 0.929827 -0.107401 -1.02604
internal_count=282 190 85 105 40 92 27 36 25 16 49 45 65 15 20 9 56 6 65
shrinkage=0.425851


Tree=8
num_leaves=19
num_cat=0
split_feature=120 387 41 328 60 35 230 22 344 208 27 160 19 70 104 117 4 65
split_gain=0.728635 0.667081 0.572153 0.690727 0.561256 0.52765 0.526357 0.433675 0.367396 0.356502 0.355491 0.327935 0.263867 0.25455 0.179259 0.0942332 0.0730403 0.0635317
threshold=0.054705663609950002 0.04986514355410001 0.037336078291850004 0.037292500544900006 0.060118595849900001 0.011289961089750002 0.043688171488850007 0.0083989501312300031 0.018424226479900004 0.032389162076000004 0.036003819870900004 0.073068804477550015 -0.84797448165899991 0.07177720262255001 0.061873172662300004 0.096099168330400012 -1.0111296424649998 0.006153208762425001
decision_type=2 2 2 2 2 2 2 2 2 2 2 2 2 2 2 2 2 2
left_child=1 7 6 5 8 -4 -3 16 -2 -6 13 -5 -12 -10 -9 -8 -1 -16
right_child=4 2 3 11 9 -7 15 14 10 -11 12 -13 -14 -15 17 -17 -18 -19
leaf_value=-0.14192930590959868 -0.42443219660807324 -0.41682288252394822 0.42284667454761582 0.35814465243773946 0.40597840972703941 -0.40910101296081486 0.44572637702553003 0.37522690039375228 0.4008307466083057 -0.43675174398638916 -0.42279729094368829 -0.22125609808940616 0.41219018812318486 -0.40454495133462604 0.087292318269884969 -0.32070918961039163 0.41675265147681878 -0.44184338249955629
leaf_count=2 3 9 4 25 7 33 21 2 71 12 9 10 3 2 2 2 6 59
internal_value=0 -0.243659 0.0297174 -0.260907 0.39871 -0.723051 0.660351 -0.751063 0.60777 -0.558713 0.706934 0.43949 -0.30332 0.867563 -0.938136 0.983827 0.61705 -1.00325
internal_count=282 175 104 72 107 37 32 71 88 19 85 35 12 73 63 23 8 61
shrinkage=0.425851


Tree=9
num_leaves=17
num_cat=0
split_feature=134 218 200 84 27 265 181 378 36 53 16 345 190 29 310 24
split_gain=0.537661 0.569747 0.503635 0.486957 0.435718 0.385249 0.335251 0.243743 0.228786 0.200763 0.152639 0.119627 0.0611824 0.042142 0.0213484 0.014651
threshold=0.045570523740600007 0.043156825413700008 0.12925817570900003 0.032475245283250014 0.0081424390447700015 0.037752517861900002 0.046201804908400007 0.089494925912200013 0.040650607353800002 0.036825494123250008 -0.57908554572249982 0.015409610698000002 0.063095605807000008 0.055486377582200007 0.044719379380500003 0.039713056575550007
decision_type=2 2 2 2 2 2 2 2 2 2 2 2 2 2 2 2
left_child=1 2 3 7 -5 11 9 -1 12 15 -8 -2 -3 -10 -13 -7
right_child=5 8 -4 4 -6 6 10 -9 13 -11 -12 14 -14 -15 -16 -17
leaf_value=-0.29270854463443186 -0.34514113594744117 0.42965949306885531 0.43059118180873196 0.41529153927409024 -0.3370637133938621 0.38655146723188838 0.4242971153595882 0.40338611317427814 -0.39820054978587482 -0.42777601444196989 -0.37329424494327434 0 -0.02530433805888227 0.13745420439651548 0.43348721457543782 -0
leaf_count=4 3 24 7 7 114 4 15 17 7 19 2 2 3 2 50 2
internal_value=0 -0.214784 -0.395738 -0.51121 -0.684504 0.473661 -0.0572068 0.463624 0.62156 -0.652071 0.703671 0.916548 0.899846 -0.594163 0.992148 0.683677
internal_count=282 185 149 142 121 97 42 21 36 25 17 55 27 9 52 6
shrinkage=0.425851


Tree=10
num_leaves=18
num_cat=0
split_feature=22 387 147 100 281 53 259 105 158 367 10 66 28 50 20 11 116
split_gain=0.416057 0.495992 0.356414 0.288105 0.367247 0.221876 0.174161 0.163 0.20307 0.155377 0.135484 0.11678 0.0829767 0.0571932 0.0315891 0.0207978 0.0045117
threshold=0.0083989501312300031 0.052036264333350006 0.037304942879050007 0.046172354494900009 0.085373545489200023 0.065470370543200013 0.059017562615500008 0.04065465620800001 0.049079611511900011 0.10860296783550001 -1.0253184218699998 0.060686738706050007 -0.0015504534272099996 0.048397288551100003 0.13436502825300004 -0.27571425016199996 0.038088483989200013
decision_type=2 2 2 2 2 2 2 2 2 2 2 2 2 2 2 2 2
left_child=7 5 3 15 -5 9 16 8 -1 12 -7 -8 -2 -11 -9 -3 -4
right_child=1 2 6 4 -6 10 11 14 -10 13 -12 -13 -14 -15 -16 -17 -18
leaf_value=-0.40840303974806791 0.31079017264672798 0.41877619659928822 0.062189852251249837 -0.38108831909001889 0.10453276073199198 -0.37964997959518715 -0.40047447511215595 0.43212587966331689 0.40870496203570023 -0.32058164453547811 0.40800213501569649 0.37271542811779479 -0.43005605866605573 0.38391549986867296 -0.038619036808513349 -0 0.42705363458516366
leaf_count=6 3 12 2 30 28 4 6 29 6 2 8 7 84 6 2 2 45
internal_value=0 -0.146936 0.151757 -0.148464 -0.355726 -0.658778 0.730202 0.675826 -0.045244 -0.837866 0.363952 -0.233512 -0.959558 0.383385 0.966771 0.892958 0.982434
internal_count=282 239 132 72 58 107 60 43 12 95 12 13 87 8 31 14 47
shrinkage=0.425851


Tree=11
num_leaves=16
num_cat=0
split_feature=22 387 47 161 94 282 4 21 204 139 210 156 101 49 207
split_gain=0.254934 0.317618 0.240961 0.284968 0.246513 0.200127 0.141243 0.188786 0.132064 0.113823 0.113822 0.0574623 0.0547923 0.0374112 0.0350126
threshold=0.0083989501312300031 0.052036264333350006 0.04141817188340001 0.071723598666500007 0.067730578655650006 0.07679206319375001 -0.96927672921849994 0.03383788825540001 0.031612972440100008 0.019331752723750002 0.011590285564850001 -0.0052989444134799992 0.047146072296350004 0.077804764167200016 0.019504642812850002
decision_type=2 2 2 2 2 2 2 2 2 2 2 2 2 2 2
left_child=9 6 3 4 -3 -5 11 -8 -4 -1 -11 -2 -10 -9 -12
right_child=1 2 8 5 -6 -7 7 13 12 10 14 -13 -14 -15 -16
leaf_value=-0.3607591643858663 0.27456243065915614 -0.37728807434329042 -0.36774123042153606 0.30991397343073329 0.3476433433714623 -0.3942470973912352 0.40237528533244832 -0.40688379191844865 -0.068720806922337244 -0.35062542118809836 -0.093799161909922241 -0.42504629947683953 0.414345317235771 0.152410426632903 0.4265522114832892
leaf_count=3 2 22 3 38 9 11 13 19 5 2 3 70 44 3 35
internal_value=0 -0.126864 0.130033 -0.132859 -0.598126 0.428512 -0.642376 -0.0203325 0.701501 0.650045 0.795375 -0.934785 0.865209 -0.757391 0.940203
internal_count=282 239 132 80 31 49 107 35 52 43 40 72 49 22 38
shrinkage=0.425851


Tree=12
num_leaves=15
num_cat=0
split_feature=10 4 92 104 167 26 23 94 401 287 293 61 35 19
split_gain=0.186423 0.226075 0.196426 0.281375 0.125486 0.115413 0.107528 0.104084 0.0925501 0.0835635 0.0684632 0.06508 0.0549731 0.000383496
threshold=-1.7774747474749997 -0.96927672921849994 0.050209184263300004 0.086414893702300016 0.062799507218050013 0.045164094906400006 0.0064204172459200008 0.048429024752800011 0.077527304254950011 0.053768172534350005 0.058130806257850005 0.05629228776830001 0.010157433441750002 -0.63301094022499982
decision_type=2 2 2 2 2 2 2 2 2 2 2 2 2 2
left_child=12 2 3 6 10 7 -2 13 -9 -5 -4 -6 -1 -3
right_child=1 5 4 9 11 -7 -8 8 -10 -11 -12 -13 -14 -15
leaf_value=-0.27752949028095297 0.34938711653973353 -0.066452049462200138 -0.33922408006358679 -0.32126553646352091 -0.42607595858953207 -0.37762264700870551 -0.4046707843245328 0.33764935725624778 -0.34516649706071223 0.41893941624608255 0.38381696124693926 0 0.41761580288973787 -0.35678159626962774
leaf_count=2 4 2 3 4 80 15 18 75 5 27 9 11 25 2
internal_value=0 -0.101977 -0.355982 0.102606 -0.704792 0.381764 -0.666228 0.526198 0.674086 0.798331 0.311962 -0.878248 0.836193 -0.691168
internal_count=282 255 156 53 103 99 22 84 80 31 12 91 27 4
shrinkage=0.425851


Tree=13
num_leaves=11
num_cat=0
split_feature=10 197 134 15 375 205 143 129 261 346
split_gain=0.117621 0.139871 0.117479 0.148055 0.11001 0.0747739 0.0442801 0.0319141 0.0269651 0.0224706
threshold=-1.7774747474749997 0.033168721401800008 0.050340901250200007 -0.4053252533054999 0.11936770736350001 0.044015438768300004 0.020333159037900003 0.061167718531150002 0.050785265614750004 0.03651155922165001
decision_type=2 2 2 2 2 2 2 2 2 2
left_child=7 9 3 4 -3 8 -5 -1 -4 -2
right_child=1 2 5 6 -6 -7 -8 -9 -10 -11
leaf_value=0.40811195685502671 0.40462219801377297 -0.28154591056388634 0.3813590094292742 -0.27504278716992725 0.16171315811456349 -0.34163706168450036 0.37756785867595788 -0.12661521613686855 -0.081308258011426729 -0
leaf_count=24 23 132 40 3 25 6 13 3 6 7
internal_value=0 -0.103764 -0.223239 -0.368921 -0.520222 0.462527 0.630233 0.798875 0.747222 0.79152
internal_count=282 255 225 173 157 52 16 27 46 30
shrinkage=0.425851


Tree=14
num_leaves=13
num_cat=0
split_feature=21 161 266 297 107 134 31 410 415 266 296 204
split_gain=0.0899089 0.0980781 0.0855619 0.100554 0.0851749 0.0743841 0.0569288 0.0513845 0.0334414 0.0262909 0.0257673 0.0114565
threshold=0.037141599352400009 0.08397474947990001 0.049672854812050006 0.06462122252745002 0.057881153297700001 0.045570523740600007 0.090755496759350004 0.067819486250600011 0.056543205131000009 0.065639991407950016 0.053920495813550011 0.042514278907150004
decision_type=2 2 2 2 2 2 2 2 2 2 2 2
left_child=1 2 3 5 11 -1 -4 9 -5 -6 -3 -2
right_child=4 10 6 8 7 -7 -8 -9 -10 -11 -12 -13
leaf_value=-0.22242569484270533 -0 -0.039072751599410517 -0.38267423907605153 0.40912100686839914 -0.40002833040454017 0.17375858742870653 0.29923619895347486 0.28748149037971726 -0.035987316110621219 0.058154954923241867 0.39528570601648255 0.35813601786365096
leaf_count=35 8 7 17 35 75 41 3 7 7 5 30 12
internal_value=0 0.174851 -0 0.189084 -0.446866 -0.123383 -0.647207 -0.704567 0.778189 -0.841961 0.800664 0.57479
internal_count=282 175 138 118 107 76 20 87 42 80 37 20
shrinkage=0.425851


Tree=15
num_leaves=9
num_cat=0
split_feature=27 193 10 99 405 79 340 402
split_gain=0.0640846 0.0784697 0.0827862 0.0633738 0.0597755 0.0582732 0.02521 0.00984153
threshold=0.010423084385250001 0.033849834931550006 -1.7774747474749997 0.050682566856650006 0.037183854161450001 0.037665272322550007 1.0000000180025095e-35 0.025089766428700002
decision_type=2 2 2 2 2 2 2 2
left_child=6 -2 7 4 -4 -5 -1 -3
right_child=1 2 3 5 -6 -7 -8 -9
leaf_value=-0.086284297765955156 0.3470051099316826 0 0.2453427266551082 0.14887576046583892 -0.18610925734895178 -0.29323934700404403 0.39564958689049751 0.38138939197442645
leaf_count=4 27 6 43 14 29 116 23 20
internal_value=0 -0.0815168 -0.19123 -0.315105 0.0991565 -0.541966 0.721261 0.727124
internal_count=282 255 228 202 72 130 27 26
shrinkage=0.425851


Tree=16
num_leaves=16
num_cat=0
split_feature=34 239 171 211 29 166 16 223 174 198 29 351 22 326 137
split_gain=0.0623844 0.0633154 0.059982 0.0650944 0.050165 0.0430274 0.0374862 0.032596 0.0295778 0.0278268 0.0242808 0.0221318 0.0105671 0.00783704 0.00655651
threshold=0.025336894822500004 0.069536906891550024 0.071561973007300009 0.044989113765250006 0.031680722172050008 0.03741074996000001 -0.80309288537549983 0.069036498852950018 0.063276926023900018 0.060304679851650007 0.042533530654900009 0.019295932439950005 0.0083989501312300031 0.044633129991950009 0.040149088810700007
decision_type=2 2 2 2 2 2 2 2 2 2 2 2 2 2 2
left_child=2 8 3 4 11 -5 14 13 -2 -6 -9 -1 -7 -8 -4
right_child=1 -3 6 5 9 12 7 10 -10 -11 -12 -13 -14 -15 -16
leaf_value=-0.061099496526764378 0.09559385897677454 0.3253957804314761 0 0.1868367791598049 -0.35745522071231811 -0 0.40888969302961575 -0.31021449130780793 -0.39925673662773198 0.20660150994382331 0.2865856300694149 0.38438352380176688 -0.39502609814614831 0.033621452645928807 -0.287907219121671
leaf_count=7 12 15 3 11 7 6 39 4 90 6 6 41 18 9 8
internal_value=0 -0.489163 0.183746 -0.0898533 0.319372 -0.556212 0.541096 0.697363 -0.762862 -0.371771 -0.00874059 0.715152 -0.807456 0.878243 -0.311969
internal_count=282 117 165 96 61 35 69 58 102 13 10 48 24 48 11
shrinkage=0.425851


Tree=17
num_leaves=14
num_cat=0
split_feature=197 186 9 167 254 109 308 167 320 200 276 156 15
split_gain=0.0348395 0.038067 0.0321548 0.0382569 0.028656 0.0260576 0.0252137 0.0223566 0.0209795 0.0177455 0.0149597 0.00978803 0.00186985
threshold=0.039564469327400008 0.050995450194450002 -0.65531814425649981 0.064217414286150007 0.04130527671970001 0.05316781496495001 0.095476329224700021 0.10312508432600002 0.033327693672350008 0.022234410096700002 0.042411840595900009 0.023434193229600005 -0.81393220338999994
decision_type=2 2 2 2 2 2 2 2 2 2 2 2 2
left_child=4 2 3 5 10 -2 11 -5 -4 -10 -1 -3 -6
right_child=1 6 8 7 12 -7 -8 -9 9 -11 -12 -13 -14
leaf_value=-0.30207698748922296 -0.16681552291759935 0 0.34562636093621468 -0.35335803264972432 0.045958469957990765 0.28304228512187063 -0.18667334567146618 0.03316844780763497 0.19018022357425055 -0.31062128447971349 0.16368917381869116 0.37139138385785964 0.38420553658710799
leaf_count=9 11 9 17 88 8 22 8 12 8 20 10 30 30
internal_value=0 -0.104506 -0.268183 -0.437863 0.484187 0.0780682 0.425674 -0.695318 0.262542 -0.145358 -0.137381 0.694201 0.803502
internal_count=282 225 178 133 57 33 47 100 45 28 19 39 38
shrinkage=0.425851


Tree=18
num_leaves=13
num_cat=0
split_feature=34 351 160 171 385 64 267 86 58 223 143 409
split_gain=0.0267301 0.0314263 0.0304335 0.0266058 0.0231948 0.0240573 0.0191159 0.0129217 0.0109763 0.0093849 0.0070924 0.00646586
threshold=0.027390556583450004 0.016208455745150004 0.060492162522800007 0.076336488604500013 0.049921501059650007 0.056340846157850004 0.029971477840950004 0.065727164472850014 0.055541911788000005 0.043470699906900008 0.047011566886000007 0.05229318156095001
decision_type=2 2 2 2 2 2 2 2 2 2 2 2
left_child=1 3 -2 11 6 9 10 -7 -5 -6 -3 -1
right_child=2 4 -4 8 5 7 -8 -9 -10 -11 -12 -13
leaf_value=-0.3652969650428104 0.20539535926483335 -0 -0.33584608225112894 -0.059066767686459742 0.057516678666120466 -0.23196276625077258 -0.25079643725070067 0.2020706131435018 0.30905396375456518 0.39064934249449584 0.30046037732921665 -0
leaf_count=17 18 8 84 6 19 9 20 10 11 55 16 9
internal_value=0 0.159677 -0.450366 -0.270529 0.356976 0.553886 -0.0621649 -0.0235666 0.282252 0.755887 0.359797 -0.673274
internal_count=282 180 102 43 137 93 44 19 17 74 24 26
shrinkage=0.425851


Tree=19
num_leaves=10
num_cat=0
split_feature=184 184 408 167 62 109 213 214 71
split_gain=0.0180461 0.0207357 0.0244536 0.0333026 0.0192049 0.0173149 0.013323 0.0118725 0.000982507
threshold=0.033975467670600008 0.065357327914750019 0.035765037623300008 0.075289587918450016 0.066930242145050015 0.05316781496495001 0.022667730396100004 0.041058235139000004 0.048834333270300005
decision_type=2 2 2 2 2 2 2 2 2
left_child=-1 2 3 8 -5 6 -3 -4 -2
right_child=1 5 7 4 -6 -7 -8 -9 -10
leaf_value=0.28964756157000027 0.031670752718392883 0.16964226069681418 -0.35877502264410505 -0.23329634761530021 0.1915867128619424 0.34720344106415557 -0.23754555956084158 0 0.34354315813731107
leaf_count=23 23 16 46 74 13 32 13 19 23
internal_value=0 -0.0411452 -0.211396 0.0104882 -0.30884 0.341407 -0 -0.637415 0.661322
internal_count=282 259 198 133 87 61 29 65 46
shrinkage=0.425851


Tree=20
num_leaves=9
num_cat=0
split_feature=387 4 294 408 356 23 255 310
split_gain=0.0132473 0.0240992 0.0177983 0.0249461 0.0180688 0.00809302 0.00789553 0.00486282
threshold=0.04986514355410001 -1.0337776258849998 0.067490069885300014 0.035765037623300008 0.031516186085750006 0.026646997066150004 0.019489617334000002 0.058022912357450003
decision_type=2 2 2 2 2 2 2 2
left_child=1 -1 3 7 -5 -3 -4 -2
right_child=2 5 6 4 -6 -7 -8 -9
leaf_value=-0.31362389697701859 0 0.24639159253425982 0.012851458487676864 0.1755221113746365 -0.26713062148176814 -0.062303343984469087 -0.25873485623249948 0.34909522934378384
leaf_count=57 16 23 23 21 23 25 14 80
internal_value=0 -0.254099 0.193432 0.380267 -0.0759642 0.21711 -0.255908 0.705117
internal_count=282 105 177 140 44 48 37 96
shrinkage=0.425851


Tree=21
num_leaves=8
num_cat=0
split_feature=386 214 154 299 172 370 23
split_gain=0.00985354 0.013312 0.0150059 0.0157506 0.0140967 0.0117612 0.00292958
threshold=0.043015850220250007 0.035992160031250005 0.043727352432250004 0.051982005373100007 0.054959953896350007 0.10256036308200002 0.017396638449250004
decision_type=2 2 2 2 2 2 2
left_child=5 2 6 -4 -3 -1 -2
right_child=1 4 3 -5 -6 -7 -8
leaf_value=-0.26034728213629482 -0 -0.025829598515003417 -0.11088076913351441 0.31123716336621093 0.30899935157624064 0.051837374964971941 -0.29422529488167126
leaf_count=64 12 20 29 41 53 28 35
internal_value=0 0.167588 -0.0515217 0.264473 0.466331 -0.266076 -0.493463
internal_count=282 190 117 70 73 92 47
shrinkage=0.425851


Tree=22
num_leaves=9
num_cat=0
split_feature=351 395 147 39 267 353 162 163
split_gain=0.00825392 0.0128085 0.010251 0.00717091 0.00621766 0.00601594 0.00524786 0.00237234
threshold=0.016208455745150004 0.057208590796600005 0.039661226422200012 0.022360465338200002 0.026445120722500003 0.030830423431000006 0.060480120629200003 0.078958942750850011
decision_type=2 2 2 2 2 2 2 2
left_child=5 2 3 -2 -4 -1 -3 -7
right_child=1 6 4 -5 -6 7 -8 -9
leaf_value=0.010976102390912712 0 0 0.2672165192307065 -0.30780671320545189 -0 -0.0032995080736059178 0.29516682642544101 -0.30387396010599343
leaf_count=22 16 33 30 52 31 24 49 25
internal_value=0 0.154407 -0.067223 -0.412791 0.24865 -0.264882 0.493377 -0.477617
internal_count=282 211 129 68 61 71 82 49
shrinkage=0.425851


Tree=23
num_leaves=7
num_cat=0
split_feature=251 232 271 14 82 317
split_gain=0.00647969 0.0111705 0.00943447 0.00663609 0.00491258 0.000225635
threshold=0.064932921243000014 0.032205553911450004 0.028124920549700002 -1.4693959821999998 0.045806522521100006 0.085821198300400012
decision_type=2 2 2 2 2 2
left_child=1 3 -2 5 -3 -1
right_child=2 4 -4 -5 -6 -7
leaf_value=-0.24457854055343928 0.034126097402193467 0 -0.24053910381507596 0.093501646264304281 0.26752950109435947 -0
leaf_count=29 47 24 56 24 78 24
internal_value=0 0.154575 -0.226779 -0.132851 0.441357 -0.418685
internal_count=282 179 103 77 102 53
shrinkage=0.425851


Tree=24
num_leaves=7
num_cat=0
split_feature=180 185 324 36 127 374
split_gain=0.00559715 0.00737227 0.00607257 0.00528972 0.00339695 0.00301213
threshold=0.016258913406950005 0.050024995102850009 0.03809988587000001 0.021235236200850004 0.04434586503715001 0.093534369088200009
decision_type=2 2 2 2 2 2
left_child=3 2 4 -1 -2 -3
right_child=1 5 -4 -5 -6 -7
leaf_value=0.24450718729908041 -0.25712637463439797 0.20265689142168158 0.0075309518063807358 -0 -0 -0
leaf_count=34 62 36 56 30 37 27
internal_value=0 -0.10423 -0.279199 0.297352 -0.44339 0.213137
internal_count=282 218 155 64 99 63
shrinkage=0.425851


Tree=25
num_leaves=6
num_cat=0
split_feature=197 167 276 71 109
split_gain=0.00446071 0.00656617 0.00966173 0.00726509 0.00409491
threshold=0.035729198752600007 0.067864191045200015 0.022708656934250004 0.059827464937100013 0.054085068892350006
decision_type=2 2 2 2 2
left_child=-1 4 -3 -4 -2
right_child=1 2 3 -5 -6
leaf_value=0.16548464889274278 -0 0.079822275365438775 -0.27817044872269436 0 0.21118513242017692
leaf_count=39 19 54 88 41 41
internal_value=0 -0.0617185 -0.231932 -0.446075 0.218932
internal_count=282 243 183 129 60
shrinkage=0.425851


Tree=26
num_leaves=6
num_cat=0
split_feature=34 171 266 304 37
split_gain=0.00436354 0.00898183 0.00513344 0.00321256 0.00312949
threshold=0.026483938775450005 0.071561973007300009 0.023602191293750002 0.077640987060600006 0.012011399213400002
decision_type=2 2 2 2 2
left_child=1 2 -1 -3 -4
right_child=-2 3 4 -5 -6
leaf_value=0.078420426535957877 -0.12723197628487384 0.24742785136120515 -0.2568651284042055 0 -0
leaf_count=38 108 52 18 21 45
internal_value=0 0.116571 -0.102767 0.421715 -0.346289
internal_count=282 174 101 73 63
shrinkage=0.425851


Tree=27
num_leaves=6
num_cat=0
split_feature=99 27 132 209 102
split_gain=0.00329415 0.00476871 0.00450737 0.00395163 0.00319399
threshold=0.050320777904900006 0.023826312655550002 0.050728724498000012 0.036890719708950005 0.075150349670100022
decision_type=2 2 2 2 2
left_child=4 2 -2 -3 -1
right_child=1 3 -4 -5 -6
leaf_value=0.18752559350845327 0.18936527323015023 -0.26783654987550898 -0.045649843627596873 -0 -0
leaf_count=57 34 72 38 44 37
internal_value=0 -0.100596 0.0520018 -0.36478 0.226398
internal_count=282 188 72 116 94
shrinkage=0.425851


Tree=28
num_leaves=5
num_cat=0
split_feature=4 97 167 397
split_gain=0.00273683 0.00375792 0.00326414 0.00265336
threshold=-0.96927672921849994 0.050186586576300006 0.068334099482850005 0.053292381375650004
decision_type=2 2 2 2
left_child=1 -1 -3 -2
right_child=3 2 -4 -5
leaf_value=0.060543325483331807 0.18404372917871425 -0 -0.21300482588860201 -0
leaf_count=45 48 45 93 51
internal_value=0 -0.113083 -0.271616 0.193551
internal_count=282 183 138 99
shrinkage=0.425851


Tree=29
num_leaves=6
num_cat=0
split_feature=351 402 296 274 376
split_gain=0.00230248 0.00473787 0.00270636 0.0022621 0.00193234
threshold=0.016208455745150004 0.025760197077300002 0.071792706243900009 0.024742808136200004 0.10951715922850001
decision_type=2 2 2 2 2
left_child=4 -2 3 -3 -1
right_child=1 2 -4 -5 -6
leaf_value=-0.16082357574294731 0.21194080276233154 0 0.10366696688004015 -0.1668442866616624 0
leaf_count=32 55 44 37 75 39
internal_value=0 0.108795 -0 -0.189838 -0.186311
internal_count=282 211 156 119 71
shrinkage=0.425851


Tree=30
num_leaves=5
num_cat=0
split_feature=214 265 161 254
split_gain=0.00171568 0.0042524 0.00389885 0.00327301
threshold=0.035992160031250005 0.038728514548850006 0.073965709440950017 0.047290619435100011
decision_type=2 2 2 2
left_child=1 3 -2 -1
right_child=2 -3 -4 -5
leaf_value=-0.065259974444818972 -0.00026285549984603033 -0.20915478290300893 0.18171357383229489 0.15763270222721956
leaf_count=52 57 63 57 53
internal_value=0 -0.10566 0.141507 0.00337383
internal_count=282 168 114 105
shrinkage=0.425851


Tree=31
num_leaves=5
num_cat=0
split_feature=120 327 229 63
split_gain=0.00143504 0.00254535 0.00232757 0.00200948
threshold=0.054705663609950002 0.044029297384650008 0.045151046535250004 0.047431158608700008
decision_type=2 2 2 2
left_child=2 -2 3 -1
right_child=1 -3 -4 -5
leaf_value=-0.20584561239376059 0.16800057776537913 -0 0.0082393737778149664 -0
leaf_count=69 61 46 62 44
internal_value=0 0.144223 -0.0973574 -0.275189
internal_count=282 107 175 113
shrinkage=0.425851


Tree=32
num_leaves=4
num_cat=0
split_feature=109 64 12
split_gain=0.00137088 0.00281925 0.00210962
threshold=0.05316781496495001 0.04704572962330001 -0.40894797026899993
decision_type=2 2 2
left_child=2 -2 -1
right_child=1 -3 -4
leaf_value=-0.16259017685206956 -0.0021876409694359662 0.14650843112593848 0
leaf_count=42 109 79 52
internal_value=0 0.0967934 -0.14325
internal_count=282 188 94
shrinkage=0.425851


Tree=33
num_leaves=3
num_cat=0
split_feature=181 236
split_gain=0.00104765 0.0023096
threshold=0.045241551793850011 0.059968366058400009
decision_type=2 2
left_child=1 -1
right_child=-2 -3
leaf_value=-0.12032448229080776 0.058051150784586864 0.006332775506927988
leaf_count=119 89 74
internal_value=0 -0.0844302
internal_count=282 193
shrinkage=0.425851


Tree=34
num_leaves=4
num_cat=0
split_feature=94 161 394
split_gain=0.00121213 0.00227638 0.00187657
threshold=0.070207021677950024 0.073965709440950017 0.059258838877700011
decision_type=2 2 2
left_child=1 2 -1
right_child=-2 -3 -4
leaf_value=0 0.082421869196917449 0.024823144987743885 -0.18535556276387868
leaf_count=66 81 98 37
internal_value=0 -0.060724 -0.245578
internal_count=282 201 103
shrinkage=0.425851


Tree=35
num_leaves=4
num_cat=0
split_feature=118 150 270
split_gain=0.0010607 0.0021352 0.00210367
threshold=0.064015461738850019 0.041566301807400008 0.027401282816200006
decision_type=2 2 2
left_child=2 -2 -1
right_child=1 -3 -4
leaf_value=0.16013497070329502 0.0088658811313447362 -0.12315525406982573 -0
leaf_count=67 77 90 48
internal_value=0 -0.0707496 0.145751
internal_count=282 167 115
shrinkage=0.425851


Tree=36
num_leaves=4
num_cat=0
split_feature=386 58 152
split_gain=0.000904922 0.00168429 0.00164527
threshold=0.048600902883150006 0.045125905732750007 0.04591288585835001
decision_type=2 2 2
left_child=2 -2 -1
right_child=1 -3 -4
leaf_value=0 -0 0.12046764750848249 -0.12823179379365829
leaf_count=66 62 74 80
internal_value=0 0.11077 -0.0892431
internal_count=282 136 146
shrinkage=0.425851


Tree=37
num_leaves=3
num_cat=0
split_feature=351 395
split_gain=0.000802051 0.00203945
threshold=0.016208455745150004 0.057208590796600005
decision_type=2 2
left_child=-1 -2
right_child=1 -3
leaf_value=-0.049174147434941938 -0 0.13268283014732324
leaf_count=71 129 82
internal_value=0 0.08553
internal_count=282 211
shrinkage=0.425851


Tree=38
num_leaves=4
num_cat=0
split_feature=251 394 205
split_gain=0.000599396 0.00148312 0.00126671
threshold=0.057337847622300007 0.059258838877700011 0.038167958286500006
decision_type=2 2 2
left_child=1 -1 -2
right_child=2 -3 -4
leaf_value=0.11656522941803231 0 -0 -0.11140150092311935
leaf_count=88 75 46 73
internal_value=0 0.0826934 -0.0869536
internal_count=282 134 148
shrinkage=0.425851


Tree=39
num_leaves=4
num_cat=0
split_feature=27 274 147
split_gain=0.000640655 0.00299168 0.0016876
threshold=0.023826312655550002 0.025055683755250004 0.037304942879050007
decision_type=2 2 2
left_child=1 -1 -2
right_child=2 -3 -4
leaf_value=0.16043004706167249 -0.13173017771017684 -0.021439226934696083 0
leaf_count=59 83 52 88
internal_value=0 0.0797139 -0.09793
internal_count=282 111 171
shrinkage=0.425851


Tree=40
num_leaves=3
num_cat=0
split_feature=214 386
split_gain=0.000499928 0.00205372
threshold=0.032472110026850007 0.048600902883150006
decision_type=2 2
left_child=-1 -2
right_child=1 -3
leaf_value=-0.046900195588706603 -0.021971056615704837 0.11657443003783727
leaf_count=117 86 79
internal_value=0 0.0542961
internal_count=282 165
shrinkage=0.425851


Tree=41
num_leaves=3
num_cat=0
split_feature=84 147
split_gain=0.000562894 0.00141451
threshold=0.036631474169100009 0.039661226422200012
decision_type=2 2
left_child=-1 -2
right_child=1 -3
leaf_value=0.044263784164929931 -0.095650501904061908 0
leaf_count=60 121 101
internal_value=0 -0.0769347
internal_count=282 222
shrinkage=0.425851


Tree=42
num_leaves=4
num_cat=0
split_feature=25 408 387
split_gain=0.00039869 0.00161695 0.00184618
threshold=0.017357220686600002 0.036616193181050007 0.055313487567900006
decision_type=2 2 2
left_child=-1 2 -2
right_child=1 -3 -4
leaf_value=-0.049148672072902903 -0 -0.026475457098999646 0.17598205544368087
leaf_count=49 90 68 75
internal_value=0 0.048077 0.211193
internal_count=282 233 165
shrinkage=0.425851


Tree=43
num_leaves=3
num_cat=0
split_feature=203 153
split_gain=0.000393208 0.00131776
threshold=0.045052477719800012 0.044398161706050009
decision_type=2 2
left_child=1 -1
right_child=-2 -3
leaf_value=-0.11454308306655357 0.026748548809727588 0
leaf_count=81 110 91
internal_value=0 -0.0809394
internal_count=282 172
shrinkage=0.425851


Tree=44
num_leaves=3
num_cat=0
split_feature=152 327
split_gain=0.000436026 0.00142833
threshold=0.045002232062000012 0.040917963932250008
decision_type=2 2
left_child=-1 -2
right_child=1 -3
leaf_value=0.036929592868913265 0 -0.11400884574309489
leaf_count=121 72 89
internal_value=0 -0.0700886
internal_count=282 161
shrinkage=0.425851


Tree=45
num_leaves=3
num_cat=0
split_feature=36 195
split_gain=0.000382565 0.00140065
threshold=0.021478082996000004 0.032560029198150008
decision_type=2 2
left_child=1 -1
right_child=-2 -3
leaf_value=0.12038954057253057 -0.028913954334800158 -0
leaf_count=60 161 61
internal_value=0 0.0777482
internal_count=282 121
shrinkage=0.425851


Tree=46
num_leaves=3
num_cat=0
split_feature=155 327
split_gain=0.000358731 0.000779979
threshold=0.020358036973000003 0.044406156271500012
decision_type=2 2
left_child=-1 -2
right_child=1 -3
leaf_value=-0.040321675348172221 0.07858256040946919 -0
leaf_count=80 110 92
internal_value=0 0.0538821
internal_count=282 202
shrinkage=0.425851


Tree=47
num_leaves=3
num_cat=0
split_feature=4 94
split_gain=0.000195664 0.000757818
threshold=-0.96927672921849994 0.058730997936550004
decision_type=2 2
left_child=1 -1
right_child=-2 -3
leaf_value=0 0.022017133899604045 -0.078090177098241273
leaf_count=72 99 111
internal_value=0 -0.0545369
internal_count=282 183
shrinkage=0.425851


Tree=48
num_leaves=3
num_cat=0
split_feature=351 380
split_gain=0.000196858 0.000599838
threshold=0.019295932439950005 0.049363658869500011
decision_type=2 2
left_child=-1 -2
right_child=1 -3
leaf_value=-0.026092792029362863 -0 0.07858050499838852
leaf_count=86 121 75
internal_value=0 0.0482939
internal_count=282 196
shrinkage=0.425851


Tree=49
num_leaves=3
num_cat=0
split_feature=36 171
split_gain=0.000207002 0.00107397
threshold=0.021478082996000004 0.067504162197750003
decision_type=2 2
left_child=1 -1
right_child=-2 -3
leaf_value=-0 -0.029787665506676601 0.10010714165825448
leaf_count=62 161 59
internal_value=0 0.0416302
internal_count=282 121
shrinkage=0.425851


Tree=50
num_leaves=3
num_cat=0
split_feature=181 180
split_gain=0.000244413 0.00118083
threshold=0.045241551793850011 0.028202956819050006
decision_type=2 2
left_child=1 -1
right_child=-2 -3
leaf_value=0 0.025292518196177595 -0.096887883698083391
leaf_count=80 89 113
internal_value=0 -0.0616007
internal_count=282 193
shrinkage=0.425851


Tree=51
num_leaves=2
num_cat=0
split_feature=120
split_gain=0.000186695
threshold=0.053370084332800008
decision_type=2
left_child=-1
right_child=-2
leaf_value=-0.019088750589042427 0.02648947517928529
leaf_count=157 125
internal_value=0
internal_count=282
shrinkage=0.425851


Tree=52
num_leaves=3
num_cat=0
split_feature=112 120
split_gain=0.000146579 0.000689029
threshold=0.085348970296450014 0.05348320816830001
decision_type=2 2
left_child=1 -1
right_child=-2 -3
leaf_value=-0.076614674824762211 0.030318673110242264 0
leaf_count=99 86 97
internal_value=0 -0.0299457
internal_count=282 196
shrinkage=0.425851


Tree=53
num_leaves=3
num_cat=0
split_feature=99 24
split_gain=0.000131111 0.000856087
threshold=0.064171479647850013 0.018480085975650002
decision_type=2 2
left_child=1 -1
right_child=-2 -3
leaf_value=-0 -0.0172543413050452 0.082886264008133356
leaf_count=50 101 131
internal_value=0 0.0475295
internal_count=282 181
shrinkage=0.425851


Tree=54
num_leaves=3
num_cat=0
split_feature=353 368
split_gain=0.000110571 0.000931332
threshold=0.030830423431000006 0.10044256354650001
decision_type=2 2
left_child=-1 -2
right_child=1 -3
leaf_value=0.022336397203820416 0 -0.089321591355403171
leaf_count=83 116 83
internal_value=0 -0.0350672
internal_count=282 199
shrinkage=0.425851


Tree=55
num_leaves=3
num_cat=0
split_feature=109 63
split_gain=8.53316e-05 0.000715253
threshold=0.05316781496495001 0.04511982638450001
decision_type=2 2
left_child=-1 -2
right_child=1 -3
leaf_value=-0.011647619330612981 -0 0.083996799067022274
leaf_count=94 97 91
internal_value=0 0.0420615
internal_count=282 188
shrinkage=0.425851


Tree=56
num_leaves=2
num_cat=0
split_feature=27
split_gain=5.86822e-05
threshold=0.023826312655550002
decision_type=2
left_child=-1
right_child=-2
leaf_value=0.011023542374168428 -0.015073458693006815
leaf_count=111 171
internal_value=0
internal_count=282
shrinkage=0.425851


Tree=57
num_leaves=2
num_cat=0
split_feature=266
split_gain=4.71575e-05
threshold=0.034746154446100012
decision_type=2
left_child=-1
right_child=-2
leaf_value=0.010547642633596015 -0.01292273300769017
leaf_count=143 139
internal_value=0
internal_count=282
shrinkage=0.425851


Tree=58
num_leaves=2
num_cat=0
split_feature=36
split_gain=4.31097e-05
threshold=0.021235236200850004
decision_type=2
left_child=-1
right_child=-2
leaf_value=0.0096010530033843449 -0.013001763015818896
leaf_count=118 164
internal_value=0
internal_count=282
shrinkage=0.425851


Tree=59
num_leaves=2
num_cat=0
split_feature=203
split_gain=3.91075e-05
threshold=0.045052477719800012
decision_type=2
left_child=-1
right_child=-2
leaf_value=-0.0099559109716013238 0.01165045989669038
leaf_count=172 110
internal_value=0
internal_count=282
shrinkage=0.425851


Tree=60
num_leaves=3
num_cat=0
split_feature=181 171
split_gain=3.69193e-05 0.000505787
threshold=0.045241551793850011 0.072883510551750005
decision_type=2 2
left_child=1 -1
right_child=-2 -3
leaf_value=-0.068103641882853075 0.014165934100758523 0
leaf_count=82 89 111
internal_value=0 -0.0182825
internal_count=282 193
shrinkage=0.425851


Tree=61
num_leaves=2
num_cat=0
split_feature=118
split_gain=6.01987e-05
threshold=0.064015461738850019
decision_type=2
left_child=-1
right_child=-2
leaf_value=0.020309318403546564 -0.0040795613307387686
leaf_count=115 167
internal_value=0
internal_count=282
shrinkage=0.425851


Tree=62
num_leaves=2
num_cat=0
split_feature=241
split_gain=3.09103e-05
threshold=0.047466549086250011
decision_type=2
left_child=-1
right_child=-2
leaf_value=0.012936359587814274 -0.0046939410552669326
leaf_count=167 115
internal_value=0
internal_count=282
shrinkage=0.425851


Tree=63
num_leaves=3
num_cat=0
split_feature=351 266
split_gain=3.19139e-05 0.000264576
threshold=0.016208455745150004 0.028888395074700004
decision_type=2 2
left_child=-1 -2
right_child=1 -3
leaf_value=-0.010156110441163867 0.049853479292105859 -0
leaf_count=71 89 122
internal_value=0 0.0223852
internal_count=282 211
shrinkage=0.425851


Tree=64
num_leaves=2
num_cat=0
split_feature=152
split_gain=2.37578e-05
threshold=0.045002232062000012
decision_type=2
left_child=-1
right_child=-2
leaf_value=0.0067874054723924765 -0.0095799733848497704
leaf_count=121 161
internal_value=0
internal_count=282
shrinkage=0.425851


Tree=65
num_leaves=2
num_cat=0
split_feature=118
split_gain=2.65797e-05
threshold=0.064015461738850019
decision_type=2
left_child=-1
right_child=-2
leaf_value=0.0092595152158196602 -0.0087133391158710147
leaf_count=115 167
internal_value=0
internal_count=282
shrinkage=0.425851


Tree=66
num_leaves=2
num_cat=0
split_feature=214
split_gain=2.75144e-05
threshold=0.035527417972600006
decision_type=2
left_child=-1
right_child=-2
leaf_value=-0.009927622815914328 0.0082113641156293018
leaf_count=162 120
internal_value=0
internal_count=282
shrinkage=0.425851


Tree=67
num_leaves=2
num_cat=0
split_feature=251
split_gain=1.77802e-05
threshold=0.064932921243000014
decision_type=2
left_child=-1
right_child=-2
leaf_value=0.0053803309744478696 -0.0095823591834237037
leaf_count=179 103
internal_value=0
internal_count=282
shrinkage=0.425851


Tree=68
num_leaves=2
num_cat=0
split_feature=27
split_gain=1.65859e-05
threshold=0.023826312655550002
decision_type=2
left_child=-1
right_child=-2
leaf_value=0.0063987712584469897 -0.0077430107184781284
leaf_count=111 171
internal_value=0
internal_count=282
shrinkage=0.425851


Tree=69
num_leaves=2
num_cat=0
split_feature=109
split_gain=2.01515e-05
threshold=0.05316781496495001
decision_type=2
left_child=-1
right_child=-2
leaf_value=-0.0098322790925199806 0.006095756040629805
leaf_count=94 188
internal_value=0
internal_count=282
shrinkage=0.425851


Tree=70
num_leaves=3
num_cat=0
split_feature=4 275
split_gain=1.24412e-05 0.00022172
threshold=-0.96927672921849994 0.044705640798700007
decision_type=2 2
left_child=1 -1
right_child=-2 -3
leaf_value=-0.045033004753937532 0.0075933619563691114 0
leaf_count=102 99 81
internal_value=0 -0.0118288
internal_count=282 183
shrinkage=0.425851


Tree=71
num_leaves=2
num_cat=0
split_feature=109
split_gain=2.126e-05
threshold=0.05316781496495001
decision_type=2
left_child=-1
right_child=-2
leaf_value=-0.0044382571166036904 0.0097161610955386439
leaf_count=94 188
internal_value=0
internal_count=282
shrinkage=0.425851


Tree=72
num_leaves=3
num_cat=0
split_feature=353 280
split_gain=1.69426e-05 0.000592272
threshold=0.030830423431000006 0.053725025770550008
decision_type=2 2
left_child=-1 -2
right_child=1 -3
leaf_value=0.011806744239082831 0 -0.069964537720889938
leaf_count=83 118 81
internal_value=0 -0.00562163
internal_count=282 199
shrinkage=0.425851


Tree=73
num_leaves=2
num_cat=0
split_feature=251
split_gain=5.62938e-05
threshold=0.064932921243000014
decision_type=2
left_child=-1
right_child=-2
leaf_value=0.016838196177700528 -3.7955698381092738e-06
leaf_count=179 103
internal_value=0
internal_count=282
shrinkage=0.425851


Tree=74
num_leaves=2
num_cat=0
split_feature=198
split_gain=2.89895e-05
threshold=0.052960194592800013
decision_type=2
left_child=-1
right_child=-2
leaf_value=0.013961119689851737 -9.9063236312807454e-05
leaf_count=127 155
internal_value=0
internal_count=282
shrinkage=0.425851


Tree=75
num_leaves=2
num_cat=0
split_feature=118
split_gain=1.41943e-05
threshold=0.064015461738850019
decision_type=2
left_child=-1
right_child=-2
leaf_value=0.010310312066042097 -0.00040192312353863987
leaf_count=115 167
internal_value=0
internal_count=282
shrinkage=0.425851


Tree=76
num_leaves=2
num_cat=0
split_feature=36
split_gain=1.28697e-05
threshold=0.021235236200850004
decision_type=2
left_child=-1
right_child=-2
leaf_value=0.0077622388819385468 -0.0038129066455241164
leaf_count=118 164
internal_value=0
internal_count=282
shrinkage=0.425851


Tree=77
num_leaves=3
num_cat=0
split_feature=181 152
split_gain=9.97469e-06 0.000232503
threshold=0.045241551793850011 0.049902232956200006
decision_type=2 2
left_child=1 -1
right_child=-2 -3
leaf_value=0 0.0088414688541338365 -0.044338160171006329
leaf_count=102 89 91
internal_value=0 -0.00546403
internal_count=282 193
shrinkage=0.425851


Tree=78
num_leaves=2
num_cat=0
split_feature=266
split_gain=1.9555e-05
threshold=0.034746154446100012
decision_type=2
left_child=-1
right_child=-2
leaf_value=0.010857542737307515 -0
leaf_count=143 139
internal_value=0
internal_count=282
shrinkage=0.425851


Tree=79
num_leaves=2
num_cat=0
split_feature=198
split_gain=1.56584e-05
threshold=0.052960194592800013
decision_type=2
left_child=-1
right_child=-2
leaf_value=0.010262265755774784 -0.00094803815619313612
leaf_count=127 155
internal_value=0
internal_count=282
shrinkage=0.425851


Tree=80
num_leaves=2
num_cat=0
split_feature=27
split_gain=7.87758e-06
threshold=0.023826312655550002
decision_type=2
left_child=-1
right_child=-2
leaf_value=0.006648558924966492 -0.0017283415735312223
leaf_count=111 171
internal_value=0
internal_count=282
shrinkage=0.425851


Tree=81
num_leaves=2
num_cat=0
split_feature=241
split_gain=5.77059e-06
threshold=0.047466549086250011
decision_type=2
left_child=-1
right_child=-2
leaf_value=0.0056846881785589908 -0.0021270422112928608
leaf_count=167 115
internal_value=0
internal_count=282
shrinkage=0.425851


Tree=82
num_leaves=2
num_cat=0
split_feature=214
split_gain=6.94304e-06
threshold=0.035527417972600006
decision_type=2
left_child=-1
right_child=-2
leaf_value=-0.0035185668235689148 0.0055393572848321422
leaf_count=162 120
internal_value=0
internal_count=282
shrinkage=0.425851


Tree=83
num_leaves=2
num_cat=0
split_feature=118
split_gain=6.59499e-06
threshold=0.064015461738850019
decision_type=2
left_child=-1
right_child=-2
leaf_value=0.0060368534680194296 -0.0030815398627959596
leaf_count=115 167
internal_value=0
internal_count=282
shrinkage=0.425851


Tree=84
num_leaves=3
num_cat=0
split_feature=155 251
split_gain=4.56847e-06 4.08056e-05
threshold=0.020358036973000003 0.060891174859600002
decision_type=2 2
left_child=-1 -2
right_child=1 -3
leaf_value=-0.0044744591768878907 0.019615690334334936 -0
leaf_count=80 108 94
internal_value=0 0.00773725
internal_count=282 202
shrinkage=0.425851


Tree=85
num_leaves=2
num_cat=0
split_feature=214
split_gain=5.15091e-06
threshold=0.035527417972600006
decision_type=2
left_child=-1
right_child=-2
leaf_value=-0.0051517738471166001 0.0023792611498631659
leaf_count=162 120
internal_value=0
internal_count=282
shrinkage=0.425851


Tree=86
num_leaves=2
num_cat=0
split_feature=266
split_gain=4.80143e-06
threshold=0.034746154446100012
decision_type=2
left_child=-1
right_child=-2
leaf_value=0.0028207259528063924 -0.0047288886289659068
leaf_count=143 139
internal_value=0
internal_count=282
shrinkage=0.425851


Tree=87
num_leaves=2
num_cat=0
split_feature=99
split_gain=3.72236e-06
threshold=0.050320777904900006
decision_type=2
left_child=-1
right_child=-2
leaf_value=0.0036395995499318655 -0.0032501568051177395
leaf_count=94 188
internal_value=0
internal_count=282
shrinkage=0.425851


Tree=88
num_leaves=3
num_cat=0
split_feature=327 351
split_gain=3.40675e-06 0.000181906
threshold=0.044029297384650008 0.019295932439950005
decision_type=2 2
left_child=1 -1
right_child=-2 -3
leaf_value=-0 -0.0047297173488766693 0.039819285308059206
leaf_count=62 108 112
internal_value=0 0.004885
internal_count=282 174
shrinkage=0.425851


Tree=89
num_leaves=2
num_cat=0
split_feature=359
split_gain=1.16291e-05
threshold=0.040273113713250007
decision_type=2
left_child=-1
right_child=-2
leaf_value=-0.0082369231215955428 0
leaf_count=135 147
internal_value=0
internal_count=282
shrinkage=0.425851


Tree=90
num_leaves=2
num_cat=0
split_feature=36
split_gain=7.25675e-06
threshold=0.021235236200850004
decision_type=2
left_child=-1
right_child=-2
leaf_value=0.0001520920468464606 -0.0071008357544591356
leaf_count=118 164
internal_value=0
internal_count=282
shrinkage=0.425851


Tree=91
num_leaves=2
num_cat=0
split_feature=27
split_gain=3.75477e-06
threshold=0.023826312655550002
decision_type=2
left_child=-1
right_child=-2
leaf_value=0.00072842828225587789 -0.0048961521516720369
leaf_count=111 171
internal_value=0
internal_count=282
shrinkage=0.425851


Tree=92
num_leaves=2
num_cat=0
split_feature=99
split_gain=2.94469e-06
threshold=0.050320777904900006
decision_type=2
left_child=-1
right_child=-2
leaf_value=0.0022098047988569295 -0.0034748280870341322
leaf_count=94 188
internal_value=0
internal_count=282
shrinkage=0.425851


Tree=93
num_leaves=2
num_cat=0
split_feature=4
split_gain=2.78034e-06
threshold=-0.96927672921849994
decision_type=2
left_child=-1
right_child=-2
leaf_value=-0.0030018202007116497 0.0028797058929910884
leaf_count=183 99
internal_value=0
internal_count=282
shrinkage=0.425851


Tree=94
num_leaves=2
num_cat=0
split_feature=178
split_gain=2.78751e-06
threshold=0.075973507940450005
decision_type=2
left_child=-1
right_child=-2
leaf_value=0.0020744186260735578 -0.0038537604569350292
leaf_count=163 119
internal_value=0
internal_count=282
shrinkage=0.425851


Tree=95
num_leaves=2
num_cat=0
split_feature=214
split_gain=1.92508e-06
threshold=0.035527417972600006
decision_type=2
left_child=-1
right_child=-2
leaf_value=-0.0027451894759521643 0.002140380493345122
leaf_count=162 120
internal_value=0
internal_count=282
shrinkage=0.425851


Tree=96
num_leaves=2
num_cat=0
split_feature=222
split_gain=1.71844e-06
threshold=0.049517830544400003
decision_type=2
left_child=-1
right_child=-2
leaf_value=0.0025136166220489043 -0.0021752722601133972
leaf_count=120 162
internal_value=0
internal_count=282
shrinkage=0.425851


Tree=97
num_leaves=2
num_cat=0
split_feature=99
split_gain=1.44789e-06
threshold=0.050320777904900006
decision_type=2
left_child=-1
right_child=-2
leaf_value=0.0025517386173366415 -0.0018135096882573654
leaf_count=94 188
internal_value=0
internal_count=282
shrinkage=0.425851


Tree=98
num_leaves=2
num_cat=0
split_feature=4
split_gain=1.69327e-06
threshold=-0.96927672921849994
decision_type=2
left_child=-1
right_child=-2
leaf_value=-0.0018577257771133697 0.0028892871935369264
leaf_count=183 99
internal_value=0
internal_count=282
shrinkage=0.425851


Tree=99
num_leaves=2
num_cat=0
split_feature=178
split_gain=1.22848e-06
threshold=0.075973507940450005
decision_type=2
left_child=-1
right_child=-2
leaf_value=0.0016880816949450654 -0.0022933740106094161
leaf_count=163 119
internal_value=0
internal_count=282
shrinkage=0.425851


Tree=100
num_leaves=2
num_cat=0
split_feature=359
split_gain=1.2655e-06
threshold=0.040273113713250007
decision_type=2
left_child=-1
right_child=-2
leaf_value=-0.0018673508124001008 0.0021361830818155412
leaf_count=135 147
internal_value=0
internal_count=282
shrinkage=0.425851


Tree=101
num_leaves=2
num_cat=0
split_feature=198
split_gain=1.14486e-06
threshold=0.052960194592800013
decision_type=2
left_child=-1
right_child=-2
leaf_value=0.0020804180937640695 -0.0017336863043937662
leaf_count=127 155
internal_value=0
internal_count=282
shrinkage=0.425851


Tree=102
num_leaves=2
num_cat=0
split_feature=11
split_gain=1.06563e-06
threshold=-0.85857579781899995
decision_type=2
left_child=-1
right_child=-2
leaf_value=-0.0022966899270310472 0.0014653296724507657
leaf_count=84 198
internal_value=0
internal_count=282
shrinkage=0.425851


Tree=103
num_leaves=2
num_cat=0
split_feature=120
split_gain=1.02228e-06
threshold=0.053370084332800008
decision_type=2
left_child=-1
right_child=-2
leaf_value=-0.0017075469306853258 0.0018888194439803968
leaf_count=157 125
internal_value=0
internal_count=282
shrinkage=0.425851


Tree=104
num_leaves=2
num_cat=0
split_feature=27
split_gain=1.0032e-06
threshold=0.023826312655550002
decision_type=2
left_child=-1
right_child=-2
leaf_value=0.0017019591461051979 -0.0018579636670473221
leaf_count=111 171
internal_value=0
internal_count=282
shrinkage=0.425851


Tree=105
num_leaves=2
num_cat=0
split_feature=99
split_gain=1.01603e-06
threshold=0.050320777904900006
decision_type=2
left_child=-1
right_child=-2
leaf_value=0.0022167756315033694 -0.001447772384984065
leaf_count=94 188
internal_value=0
internal_count=282
shrinkage=0.425851


Tree=106
num_leaves=2
num_cat=0
split_feature=214
split_gain=8.60361e-07
threshold=0.035527417972600006
decision_type=2
left_child=-1
right_child=-2
leaf_value=-0.0016374882395446815 0.0016571924898728929
leaf_count=162 120
internal_value=0
internal_count=282
shrinkage=0.425851


Tree=107
num_leaves=2
num_cat=0
split_feature=24
split_gain=9.13689e-07
threshold=0.018480085975650002
decision_type=2
left_child=-1
right_child=-2
leaf_value=-0.0019984795475871935 0.0014452029032057357
leaf_count=72 210
internal_value=0
internal_count=282
shrinkage=0.425851


Tree=108
num_leaves=2
num_cat=0
split_feature=222
split_gain=7.88349e-07
threshold=0.049517830544400003
decision_type=2
left_child=-1
right_child=-2
leaf_value=0.0018272804572286219 -0.0013637876589977214
leaf_count=120 162
internal_value=0
internal_count=282
shrinkage=0.425851


Tree=109
num_leaves=2
num_cat=0
split_feature=36
split_gain=6.82753e-07
threshold=0.021235236200850004
decision_type=2
left_child=-1
right_child=-2
leaf_value=0.0013356359636761414 -0.0016150694957807585
leaf_count=118 164
internal_value=0
internal_count=282
shrinkage=0.425851


Tree=110
num_leaves=2
num_cat=0
split_feature=203
split_gain=6.49761e-07
threshold=0.045052477719800012
decision_type=2
left_child=-1
right_child=-2
leaf_value=-0.0012667608773278354 0.0016203641968902623
leaf_count=172 110
internal_value=0
internal_count=282
shrinkage=0.425851


Tree=111
num_leaves=2
num_cat=0
split_feature=178
split_gain=5.93699e-07
threshold=0.075973507940450005
decision_type=2
left_child=-1
right_child=-2
leaf_value=0.0011779950177172502 -0.0015941405974842691
leaf_count=163 119
internal_value=0
internal_count=282
shrinkage=0.425851


Tree=112
num_leaves=2
num_cat=0
split_feature=24
split_gain=5.61978e-07
threshold=0.018480085975650002
decision_type=2
left_child=-1
right_child=-2
leaf_value=-0.0015823960668040398 0.0011198035891800239
leaf_count=72 210
internal_value=0
internal_count=282
shrinkage=0.425851


Tree=113
num_leaves=2
num_cat=0
split_feature=27
split_gain=6.24253e-07
threshold=0.023826312655550002
decision_type=2
left_child=-1
right_child=-2
leaf_value=0.0013314605973636952 -0.0014793930959860443
leaf_count=111 171
internal_value=0
internal_count=282
shrinkage=0.425851


Tree=114
num_leaves=2
num_cat=0
split_feature=241
split_gain=5.2458e-07
threshold=0.047466549086250011
decision_type=2
left_child=-1
right_child=-2
leaf_value=0.0013215513612024039 -0.0012548828413543947
leaf_count=167 115
internal_value=0
internal_count=282
shrinkage=0.425851


Tree=115
num_leaves=2
num_cat=0
split_feature=4
split_gain=5.84782e-07
threshold=-0.96927672921849994
decision_type=2
left_child=-1
right_child=-2
leaf_value=-0.0010778207940511982 0.0017180216575309036
leaf_count=183 99
internal_value=0
internal_count=282
shrinkage=0.425851


Tree=116
num_leaves=2
num_cat=0
split_feature=99
split_gain=4.41091e-07
threshold=0.050320777904900006
decision_type=2
left_child=-1
right_child=-2
leaf_value=0.0014802229507488978 -0.00093702523503818354
leaf_count=94 188
internal_value=0
internal_count=282
shrinkage=0.425851


Tree=117
num_leaves=2
num_cat=0
split_feature=198
split_gain=5.14656e-07
threshold=0.052960194592800013
decision_type=2
left_child=-1
right_child=-2
leaf_value=0.0014190819914301519 -0.0011423156846099027
leaf_count=127 155
internal_value=0
internal_count=282
shrinkage=0.425851


Tree=118
num_leaves=2
num_cat=0
split_feature=222
split_gain=4.04895e-07
threshold=0.049517830544400003
decision_type=2
left_child=-1
right_child=-2
leaf_value=0.0013360862698858272 -0.00095258922007946463
leaf_count=120 162
internal_value=0
internal_count=282
shrinkage=0.425851


Tree=119
num_leaves=2
num_cat=0
split_feature=11
split_gain=4.64456e-07
threshold=-0.85857579781899995
decision_type=2
left_child=-1
right_child=-2
leaf_value=-0.0015026737361455321 0.0009848107245391622
leaf_count=84 198
internal_value=0
internal_count=282
shrinkage=0.425851


Tree=120
num_leaves=2
num_cat=0
split_feature=178
split_gain=3.31772e-07
threshold=0.075973507940450005
decision_type=2
left_child=-1
right_child=-2
leaf_value=0.00087466179134022988 -0.001199337467770361
leaf_count=163 119
internal_value=0
internal_count=282
shrinkage=0.425851


Tree=121
num_leaves=2
num_cat=0
split_feature=203
split_gain=3.6597e-07
threshold=0.045052477719800012
decision_type=2
left_child=-1
right_child=-2
leaf_value=-0.00095814102853148807 0.0012107406653203844
leaf_count=172 110
internal_value=0
internal_count=282
shrinkage=0.425851


Tree=122
num_leaves=2
num_cat=0
split_feature=4
split_gain=2.80193e-07
threshold=-0.96927672921849994
decision_type=2
left_child=-1
right_child=-2
leaf_value=-0.00074102136385768022 0.0011955605768546884
leaf_count=183 99
internal_value=0
internal_count=282
shrinkage=0.425851


Tree=123
num_leaves=2
num_cat=0
split_feature=27
split_gain=2.773e-07
threshold=0.023826312655550002
decision_type=2
left_child=-1
right_child=-2
leaf_value=0.0009112585373268464 -0.00096367196136415119
leaf_count=111 171
internal_value=0
internal_count=282
shrinkage=0.425851


Tree=124
num_leaves=2
num_cat=0
split_feature=24
split_gain=3.05897e-07
threshold=0.018480085975650002
decision_type=2
left_child=-1
right_child=-2
leaf_value=-0.0011581262126836263 0.00083755067805382289
leaf_count=72 210
internal_value=0
internal_count=282
shrinkage=0.425851


Tree=125
num_leaves=2
num_cat=0
split_feature=109
split_gain=2.86571e-07
threshold=0.05316781496495001
decision_type=2
left_child=-1
right_child=-2
leaf_value=-0.00116860274891263 0.00077453267482629812
leaf_count=94 188
internal_value=0
internal_count=282
shrinkage=0.425851


Tree=126
num_leaves=2
num_cat=0
split_feature=36
split_gain=2.65471e-07
threshold=0.021235236200850004
decision_type=2
left_child=-1
right_child=-2
leaf_value=0.00081674516868102695 -0.0010256201934676565
leaf_count=118 164
internal_value=0
internal_count=282
shrinkage=0.425851


Tree=127
num_leaves=2
num_cat=0
split_feature=222
split_gain=2.43624e-07
threshold=0.049517830544400003
decision_type=2
left_child=-1
right_child=-2
leaf_value=0.0010089789702161782 -0.00076757125537364984
leaf_count=120 162
internal_value=0
internal_count=282
shrinkage=0.425851


Tree=128
num_leaves=2
num_cat=0
split_feature=241
split_gain=2.74332e-07
threshold=0.047466549086250011
decision_type=2
left_child=-1
right_child=-2
leaf_value=0.00096488358113048318 -0.00090036654381715992
leaf_count=167 115
internal_value=0
internal_count=282
shrinkage=0.425851


Tree=129
num_leaves=2
num_cat=0
split_feature=198
split_gain=2.06462e-07
threshold=0.052960194592800013
decision_type=2
left_child=-1
right_child=-2
leaf_value=0.00088685068373269894 -0.00073709770794503954
leaf_count=127 155
internal_value=0
internal_count=282
shrinkage=0.425851


Tree=130
num_leaves=2
num_cat=0
split_feature=152
split_gain=2.13385e-07
threshold=0.045002232062000012
decision_type=2
left_child=-1
right_child=-2
leaf_value=0.00092491991559937015 -0.00072976763693168522
leaf_count=121 161
internal_value=0
internal_count=282
shrinkage=0.425851


Tree=131
num_leaves=2
num_cat=0
split_feature=4
split_gain=2.32447e-07
threshold=-0.96927672921849994
decision_type=2
left_child=-1
right_child=-2
leaf_value=-0.00066884832395009038 0.0010959822714819388
leaf_count=183 99
internal_value=0
internal_count=282
shrinkage=0.425851


Tree=132
num_leaves=2
num_cat=0
split_feature=155
split_gain=2.00983e-07
threshold=0.020358036973000003
decision_type=2
left_child=-1
right_child=-2
leaf_value=-0.0010347751560609267 0.00062150284109430847
leaf_count=80 202
internal_value=0
internal_count=282
shrinkage=0.425851


Tree=133
num_leaves=2
num_cat=0
split_feature=27
split_gain=1.99453e-07
threshold=0.023826312655550002
decision_type=2
left_child=-1
right_child=-2
leaf_value=0.00076091121038463026 -0.00083034175687945176
leaf_count=111 171
internal_value=0
internal_count=282
shrinkage=0.425851


Tree=134
num_leaves=2
num_cat=0
split_feature=99
split_gain=2.16176e-07
threshold=0.050320777904900006
decision_type=2
left_child=-1
right_child=-2
leaf_value=0.0010251942424656202 -0.00066916392505524656
leaf_count=94 188
internal_value=0
internal_count=282
shrinkage=0.425851


Tree=135
num_leaves=2
num_cat=0
split_feature=178
split_gain=1.70814e-07
threshold=0.075973507940450005
decision_type=2
left_child=-1
right_child=-2
leaf_value=0.00063659783585005598 -0.0008529321438003883
leaf_count=163 119
internal_value=0
internal_count=282
shrinkage=0.425851


Tree=136
num_leaves=2
num_cat=0
split_feature=214
split_gain=1.73138e-07
threshold=0.035527417972600006
decision_type=2
left_child=-1
right_child=-2
leaf_value=-0.00074470262561049947 0.00073685710420276723
leaf_count=162 120
internal_value=0
internal_count=282
shrinkage=0.425851


Tree=137
num_leaves=2
num_cat=0
split_feature=24
split_gain=1.64653e-07
threshold=0.018480085975650002
decision_type=2
left_child=-1
right_child=-2
leaf_value=-0.0008553957236539471 0.00060987599096982894
leaf_count=72 210
internal_value=0
internal_count=282
shrinkage=0.425851


Tree=138
num_leaves=3
num_cat=0
split_feature=24 266
split_gain=1.73884e-07 1.76529e-05
threshold=0.027791436816200003 0.031719618246650004
decision_type=2 2
left_child=1 -1
right_child=-2 -3
leaf_value=0.012618560792505597 -0.0010039256785149783 -0
leaf_count=81 132 69
internal_value=0 0.00128195
internal_count=282 150
shrinkage=0.425851


Tree=139
num_leaves=2
num_cat=0
split_feature=203
split_gain=9.51488e-07
threshold=0.045052477719800012
decision_type=2
left_child=-1
right_child=-2
leaf_value=-0.0023162275361419521 0
leaf_count=172 110
internal_value=0
internal_count=282
shrinkage=0.425851


Tree=140
num_leaves=2
num_cat=0
split_feature=24
split_gain=5.82743e-07
threshold=0.018480085975650002
decision_type=2
left_child=-1
right_child=-2
leaf_value=-0.0021055843698709145 0
leaf_count=72 210
internal_value=0
internal_count=282
shrinkage=0.425851


Tree=141
num_leaves=2
num_cat=0
split_feature=99
split_gain=3.43999e-07
threshold=0.050320777904900006
decision_type=2
left_child=-1
right_child=-2
leaf_value=0.00040018686477475101 -0.00130218526831415
leaf_count=94 188
internal_value=0
internal_count=282
shrinkage=0.425851


Tree=142
num_leaves=2
num_cat=0
split_feature=251
split_gain=2.29477e-07
threshold=0.064932921243000014
decision_type=2
left_child=-1
right_child=-2
leaf_value=0.00022596641823972321 -0.0013313999878253409
leaf_count=179 103
internal_value=0
internal_count=282
shrinkage=0.425851


Tree=143
num_leaves=2
num_cat=0
split_feature=241
split_gain=1.89705e-07
threshold=0.047466549086250011
decision_type=2
left_child=-1
right_child=-2
leaf_value=0.00051057274972002135 -0.00095922542561645556
leaf_count=167 115
internal_value=0
internal_count=282
shrinkage=0.425851


Tree=144
num_leaves=2
num_cat=0
split_feature=214
split_gain=1.36001e-07
threshold=0.035527417972600006
decision_type=2
left_child=-1
right_child=-2
leaf_value=-0.00079644626806357787 0.00048043320770375963
leaf_count=162 120
internal_value=0
internal_count=282
shrinkage=0.425851


Tree=145
num_leaves=2
num_cat=0
split_feature=24
split_gain=1.2091e-07
threshold=0.018480085975650002
decision_type=2
left_child=-1
right_child=-2
leaf_value=-0.00082120339728065038 0.00041984524342008619
leaf_count=72 210
internal_value=0
internal_count=282
shrinkage=0.425851


Tree=146
num_leaves=2
num_cat=0
split_feature=222
split_gain=1.01335e-07
threshold=0.049517830544400003
decision_type=2
left_child=-1
right_child=-2
leaf_value=0.00058855501818223257 -0.00055106900052390195
leaf_count=120 162
internal_value=0
internal_count=282
shrinkage=0.425851


Tree=147
num_leaves=2
num_cat=0
split_feature=27
split_gain=1.18052e-07
threshold=0.023826312655550002
decision_type=2
left_child=-1
right_child=-2
leaf_value=0.0005494722189029721 -0.00067397128710291879
leaf_count=111 171
internal_value=0
internal_count=282
shrinkage=0.425851


Tree=148
num_leaves=2
num_cat=0
split_feature=109
split_gain=1.3005e-07
threshold=0.05316781496495001
decision_type=2
left_child=-1
right_child=-2
leaf_value=-0.00080940395906958361 0.0005010051162518236
leaf_count=94 188
internal_value=0
internal_count=282
shrinkage=0.425851


Tree=149
num_leaves=2
num_cat=0
split_feature=152
split_gain=7.93543e-08
threshold=0.045002232062000012
decision_type=2
left_child=-1
right_child=-2
leaf_value=0.00053939904383240296 -0.00047020316045380761
leaf_count=121 161
internal_value=0
internal_count=282
shrinkage=0.425851


Tree=150
num_leaves=2
num_cat=0
split_feature=198
split_gain=8.61901e-08
threshold=0.052960194592800013
decision_type=2
left_child=-1
right_child=-2
leaf_value=0.00056241292695403684 -0.00048832111628250424
leaf_count=127 155
internal_value=0
internal_count=282
shrinkage=0.425851


Tree=151
num_leaves=2
num_cat=0
split_feature=27
split_gain=8.32155e-08
threshold=0.023826312655550002
decision_type=2
left_child=-1
right_child=-2
leaf_value=0.00048922065934481232 -0.00053999571487859928
leaf_count=111 171
internal_value=0
internal_count=282
shrinkage=0.425851


Tree=152
num_leaves=2
num_cat=0
split_feature=24
split_gain=9.15386e-08
threshold=0.018480085975650002
decision_type=2
left_child=-1
right_child=-2
leaf_value=-0.00064149946832895745 0.00045228522800227366
leaf_count=72 210
internal_value=0
internal_count=282
shrinkage=0.425851


Tree=153
num_leaves=2
num_cat=0
split_feature=27
split_gain=5.23727e-08
threshold=0.023826312655550002
decision_type=2
left_child=-1
right_child=-2
leaf_value=0.00038441466649479048 -0.00043205260278901379
leaf_count=111 171
internal_value=0
internal_count=282
shrinkage=0.425851


Tree=154
num_leaves=2
num_cat=0
split_feature=109
split_gain=5.78287e-08
threshold=0.05316781496495001
decision_type=2
left_child=-1
right_child=-2
leaf_value=-0.00052906226966008285 0.00034551090845511982
leaf_count=94 188
internal_value=0
internal_count=282
shrinkage=0.425851


Tree=155
num_leaves=2
num_cat=0
split_feature=152
split_gain=4.18144e-08
threshold=0.045002232062000012
decision_type=2
left_child=-1
right_child=-2
leaf_value=0.0004002211831941901 -0.00033335235200127728
leaf_count=121 161
internal_value=0
internal_count=282
shrinkage=0.425851


Tree=156
num_leaves=2
num_cat=0
split_feature=155
split_gain=4.85913e-08
threshold=0.020358036973000003
decision_type=2
left_child=-1
right_child=-2
leaf_value=-0.0005204246074230639 0.00029555793960398755
leaf_count=80 202
internal_value=0
internal_count=282
shrinkage=0.425851


Tree=157
num_leaves=2
num_cat=0
split_feature=203
split_gain=4.38499e-08
threshold=0.045052477719800012
decision_type=2
left_child=-1
right_child=-2
leaf_value=-0.00033647893470102852 0.00041597303199858004
leaf_count=172 110
internal_value=0
internal_count=282
shrinkage=0.425851


Tree=158
num_leaves=2
num_cat=0
split_feature=4
split_gain=3.91052e-08
threshold=-0.96927672921849994
decision_type=2
left_child=-1
right_child=-2
leaf_value=-0.0002801163004902237 0.00044504154983545242
leaf_count=183 99
internal_value=0
internal_count=282
shrinkage=0.425851


Tree=159
num_leaves=2
num_cat=0
split_feature=241
split_gain=4.4887e-08
threshold=0.047466549086250011
decision_type=2
left_child=-1
right_child=-2
leaf_value=0.00039468136994212096 -0.00036126381275300678
leaf_count=167 115
internal_value=0
internal_count=282
shrinkage=0.425851


Tree=160
num_leaves=2
num_cat=0
split_feature=222
split_gain=4.67728e-08
threshold=0.049517830544400003
decision_type=2
left_child=-1
right_child=-2
leaf_value=0.00045091636467381669 -0.00032904020668113993
leaf_count=120 162
internal_value=0
internal_count=282
shrinkage=0.425851


Tree=161
num_leaves=2
num_cat=0
split_feature=214
split_gain=4.2501e-08
threshold=0.035527417972600006
decision_type=2
left_child=-1
right_child=-2
leaf_value=-0.00036411950503457979 0.00037098611314636886
leaf_count=162 120
internal_value=0
internal_count=282
shrinkage=0.425851


Tree=162
num_leaves=2
num_cat=0
split_feature=178
split_gain=3.55782e-08
threshold=0.075973507940450005
decision_type=2
left_child=-1
right_child=-2
leaf_value=0.00029019374453533758 -0.00039077592849843439
leaf_count=163 119
internal_value=0
internal_count=282
shrinkage=0.425851


Tree=163
num_leaves=2
num_cat=0
split_feature=24
split_gain=3.563e-08
threshold=0.018480085975650002
decision_type=2
left_child=-1
right_child=-2
leaf_value=-0.00039895492029435811 0.00028366673710097939
leaf_count=72 210
internal_value=0
internal_count=282
shrinkage=0.425851


Tree=164
num_leaves=2
num_cat=0
split_feature=27
split_gain=4.31637e-08
threshold=0.023826312655550002
decision_type=2
left_child=-1
right_child=-2
leaf_value=0.00035203802021683959 -0.00038947124191093287
leaf_count=111 171
internal_value=0
internal_count=282
shrinkage=0.425851


Tree=165
num_leaves=2
num_cat=0
split_feature=198
split_gain=3.33606e-08
threshold=0.052960194592800013
decision_type=2
left_child=-1
right_child=-2
leaf_value=0.00035388963676533417 -0.00030020684528304296
leaf_count=127 155
internal_value=0
internal_count=282
shrinkage=0.425851


Tree=166
num_leaves=2
num_cat=0
split_feature=11
split_gain=3.82729e-08
threshold=-0.85857579781899995
decision_type=2
left_child=-1
right_child=-2
leaf_value=-0.00043894375842477113 0.00027714056847668076
leaf_count=84 198
internal_value=0
internal_count=282
shrinkage=0.425851


Tree=167
num_leaves=2
num_cat=0
split_feature=152
split_gain=2.96732e-08
threshold=0.045002232062000012
decision_type=2
left_child=-1
right_child=-2
leaf_value=0.00033952404639716059 -0.00027871341473937645
leaf_count=121 161
internal_value=0
internal_count=282
shrinkage=0.425851


Tree=168
num_leaves=2
num_cat=0
split_feature=163
split_gain=3.78653e-08
threshold=0.078282737915050013
decision_type=2
left_child=-1
right_child=-2
leaf_value=0.00027130871518972179 -0.00044324133649495916
leaf_count=177 105
internal_value=0
internal_count=282
shrinkage=0.425851


Tree=169
num_leaves=2
num_cat=0
split_feature=120
split_gain=2.98262e-08
threshold=0.053370084332800008
decision_type=2
left_child=-1
right_child=-2
leaf_value=-0.00029517229834399942 0.00032181490858444278
leaf_count=157 125
internal_value=0
internal_count=282
shrinkage=0.425851


Tree=170
num_leaves=2
num_cat=0
split_feature=251
split_gain=2.95143e-08
threshold=0.064932921243000014
decision_type=2
left_child=-1
right_child=-2
leaf_value=0.00024455443940463655 -0.00038260060664598722
leaf_count=179 103
internal_value=0
internal_count=282
shrinkage=0.425851


Tree=171
num_leaves=2
num_cat=0
split_feature=11
split_gain=2.56588e-08
threshold=-0.85857579781899995
decision_type=2
left_child=-1
right_child=-2
leaf_value=-0.00036396946725539124 0.00022233446381650287
leaf_count=84 198
internal_value=0
internal_count=282
shrinkage=0.425851


Tree=172
num_leaves=2
num_cat=0
split_feature=222
split_gain=2.57524e-08
threshold=0.049517830544400003
decision_type=2
left_child=-1
right_child=-2
leaf_value=0.00032617189240894355 -0.00025259153529208424
leaf_count=120 162
internal_value=0
internal_count=282
shrinkage=0.425851


Tree=173
num_leaves=2
num_cat=0
split_feature=198
split_gain=2.07668e-08
threshold=0.052960194592800013
decision_type=2
left_child=-1
right_child=-2
leaf_value=0.00027985855949063483 -0.00023631479531413408
leaf_count=127 155
internal_value=0
internal_count=282
shrinkage=0.425851


Tree=174
num_leaves=2
num_cat=0
split_feature=99
split_gain=1.91427e-08
threshold=0.050320777904900006
decision_type=2
left_child=-1
right_child=-2
leaf_value=0.00030658211046542735 -0.00019858084151344832
leaf_count=94 188
internal_value=0
internal_count=282
shrinkage=0.425851


Tree=175
num_leaves=2
num_cat=0
split_feature=4
split_gain=2.59149e-08
threshold=-0.96927672921849994
decision_type=2
left_child=-1
right_child=-2
leaf_value=-0.0002234298249572721 0.00036711741616034563
leaf_count=183 99
internal_value=0
internal_count=282
shrinkage=0.425851


Tree=176
num_leaves=2
num_cat=0
split_feature=27
split_gain=1.98259e-08
threshold=0.023826312655550002
decision_type=2
left_child=-1
right_child=-2
leaf_value=0.00024640966398921084 -0.00025617187840345173
leaf_count=111 171
internal_value=0
internal_count=282
shrinkage=0.425851


Tree=177
num_leaves=2
num_cat=0
split_feature=24
split_gain=2.05199e-08
threshold=0.018480085975650002
decision_type=2
left_child=-1
right_child=-2
leaf_value=-0.00029923857251026121 0.00021891839287458217
leaf_count=72 210
internal_value=0
internal_count=282
shrinkage=0.425851


Tree=178
num_leaves=2
num_cat=0
split_feature=152
split_gain=1.64356e-08
threshold=0.045002232062000012
decision_type=2
left_child=-1
right_child=-2
leaf_value=0.00025559487560742537 -0.00020466840795658155
leaf_count=121 161
internal_value=0
internal_count=282
shrinkage=0.425851


Tree=179
num_leaves=2
num_cat=0
split_feature=178
split_gain=2.02318e-08
threshold=0.075973507940450005
decision_type=2
left_child=-1
right_child=-2
leaf_value=0.00021781778295844827 -0.0002958950577649409
leaf_count=163 119
internal_value=0
internal_count=282
shrinkage=0.425851


Tree=180
num_leaves=2
num_cat=0
split_feature=163
split_gain=1.56618e-08
threshold=0.078282737915050013
decision_type=2
left_child=-1
right_child=-2
leaf_value=0.00017371173301639964 -0.00028593578973153068
leaf_count=177 105
internal_value=0
internal_count=282
shrinkage=0.425851


Tree=181
num_leaves=2
num_cat=0
split_feature=214
split_gain=1.57063e-08
threshold=0.035527417972600006
decision_type=2
left_child=-1
right_child=-2
leaf_value=-0.00022799898102504758 0.00021903669624411773
leaf_count=162 120
internal_value=0
internal_count=282
shrinkage=0.425851


Tree=182
num_leaves=2
num_cat=0
split_feature=11
split_gain=1.56982e-08
threshold=-0.85857579781899995
decision_type=2
left_child=-1
right_child=-2
leaf_value=-0.00028334798882590016 0.00017537454610524954
leaf_count=84 198
internal_value=0
