tree
version=v2
num_class=1
num_tree_per_iteration=1
label_index=0
max_feature_idx=39
objective=binary sigmoid:1
feature_names=pse_pssm_0 pse_pssm_1 pse_pssm_2 pse_pssm_3 pse_pssm_4 pse_pssm_5 pse_pssm_6 pse_pssm_7 pse_pssm_8 pse_pssm_9 pse_pssm_10 pse_pssm_11 pse_pssm_12 pse_pssm_13 pse_pssm_14 pse_pssm_15 pse_pssm_16 pse_pssm_17 pse_pssm_18 pse_pssm_19 pse_pssm_20 pse_pssm_21 pse_pssm_22 pse_pssm_23 pse_pssm_24 pse_pssm_25 pse_pssm_26 pse_pssm_27 pse_pssm_28 pse_pssm_29 pse_pssm_30 pse_pssm_31 pse_pssm_32 pse_pssm_33 pse_pssm_34 pse_pssm_35 pse_pssm_36 pse_pssm_37 pse_pssm_38 pse_pssm_39
feature_infos=[-0.104948704712:0.83939985885699997] [-0.19245218378100001:0.43555329962400002] [-0.22868380426900001:0.27011283644599998] [-0.23333786139500001:0.35759496573799998] [-0.93240269753000005:0.48479646479499999] [-0.099631393705999993:0.53811977932800004] [-0.178774554807:0.871791852822] [-0.54080779862399997:0.19514577467999999] [-0.323541245177:0.53488296097300003] [-0.35897194796800003:0.39028088811400002] [-0.49384153106000001:0.190041000574] [-0.27088738531599998:0.800700621871] [-0.16298486927700001:0.55640670936799996] [-0.797053233892:0.087106513991699996] [-0.806582182205:0.432610455565] [-0.082781935594699999:0.54656460559499997] [-0.062954689475000006:0.68339110545500004] [-1.1503323375800001:0.215506981056] [-0.50247852262500003:0.26543933007999998] [-0.22091438337899999:0.34494242173799999] [0.58548008034700005:2.1315102159800001] [0.94979708496699999:3.2526992071600001] [0.935361237736:2.1489057284199999] [1.3889059184000001:3.3585371105499999] [0.72155162612900003:4.12887883357] [0.72903164910499996:1.6251148737600001] [1.02271670114:2.9152735562699998] [1.0469333321200001:4.6657554180699998] [0.62947522594500005:2.3671630190199999] [1.2302031733900001:3.6123487974500001] [1.1600372726499999:3.0365518360600001] [0.92723313080400005:2.84648576876] [0.95445175089199996:2.2926541351199998] [1.3238360595900001:3.70107275765] [0.362436042638:3.6471150052299999] [0.57555918408100004:1.6427865020000001] [0.44104221380199998:1.7856612647300001] [0.84688420866000003:7.2901714934799999] [0.57049831452699995:2.3141027213399998] [0.93143091013699997:3.6276212590700001]
tree_sizes=1202 1803 1334 1900 1612 1685 1228 1382 1386 1546 1018 1669 777 1695 1382 1537 1027 1472 1638 1307 1354 926 880 1064 995 1610 1188 1230 1381 1227 1393 1284 1119 1101 1150 1105 803 1105 756 750 801 959 775 642 708 731 817 783 745 591 671 597 606 637 532 619 512 586 535 496 507

Tree=0
num_leaves=15
num_cat=0
split_feature=0 9 12 0 23 2 10 20 5 36 38 10 27 3
split_gain=57.378 28.5232 15.083 19.0635 10.8072 9.61723 10.7508 9.51272 8.81427 6.54854 5.6493 2.30539 5.26515 1.70642
threshold=0.073385523225350011 0.086835543296250012 0.27990660644800008 0.13682680657000004 2.4302640575350005 0.020241535853700005 -0.24500115860199997 1.0669487958050003 0.12978543426800002 1.0052040807350002 1.5994573340600002 -0.14290617032499997 2.3176494345850007 -0.0049076420141599989
decision_type=2 2 2 2 2 2 2 2 2 2 2 2 2 2
left_child=7 2 3 13 -5 9 -7 -1 -9 10 -3 -4 -13 -2
right_child=1 5 11 4 -6 6 -8 8 -10 -11 -12 12 -14 -15
leaf_value=-0.68671339188571023 -0 -0.68311297311305708 0.68658437131215999 0.35041516714072041 -0.22841248677718232 0.68048374039620718 -0.68634484727191958 0.68311297311305663 -0.68212543234896406 0.68377238932753348 0.67721605090188786 -0.67721605090188908 0.68212543234896406 -0.68542463670057763
leaf_count=54 2 5 40 98 18 3 27 5 4 6 2 2 4 12
internal_value=0 0.483887 0.840707 0.492086 0.758327 -0.975855 -1.59833 -1.68172 0.219597 0.459365 -0.852024 1.8249 0.661308 -1.71054
internal_count=282 219 176 130 116 43 30 63 9 13 7 46 6 14
shrinkage=0.343541


Tree=1
num_leaves=23
num_cat=0
split_feature=7 3 30 5 34 35 1 15 10 24 1 28 2 17 6 23 6 17 29 14 35 18
split_gain=24.881 19.8485 14.2903 10.0451 7.41098 6.19512 10.7731 5.58582 4.39456 4.48971 4.26583 3.95648 7.0206 2.79412 2.70246 1.61153 1.54106 3.55424 0.891099 0.722243 0.0907007 0.0739864
threshold=-0.38615929838849999 0.11309375677450001 1.7900161642700001 0.20195145490500002 1.9864562625750002 0.96862598194650007 0.010434861757750002 0.34923134093850006 -0.21947113341749996 1.4420796324300003 -0.068692736379299985 1.7657492440750002 0.069786218468500014 -0.038078980848499998 0.079788428259050012 1.8997411203800003 0.049007120399750005 -0.16174281331449997 2.5077318986850003 -0.38451813222549996 0.92085340835600016 0.024192031607100001
decision_type=2 2 2 2 2 2 2 2 2 2 2 2 2 2 2 2 2 2 2 2 2 2
left_child=1 10 3 13 8 6 -6 -7 19 -10 -1 12 -5 18 -15 -13 17 -12 -2 -4 -18 -3
right_child=2 21 4 11 5 7 -8 -9 9 -11 16 15 -14 14 -16 -17 20 -19 -20 -21 -22 -23
leaf_value=0.54358776108355511 0.54180577121357287 0.5828917777243009 0.55763238423635408 0.64299038965825228 0.56620450676124745 0.52608002000872578 -0.22518518686051792 -0.36854104558805478 0.13443886232122032 -0.50145699027838408 0.5970710818546614 -0.18059465528439969 -0.5594490329869628 0.5072094342370207 -0.67000054674049703 0.56893068560649629 -0.51608997695635772 -0.62062584131948384 0.053785661849835041 -0 -0.58374598491641982 0.76438828621900201
leaf_count=2 60 7 3 3 11 21 39 4 7 28 2 2 11 2 2 5 45 3 2 2 19 2
internal_value=0 -0.996414 0.380797 1.01846 -0.0952282 0.282966 -0.140947 1.10681 -0.822071 -1.08328 -1.38335 -0.216024 -0.849513 1.42257 -0.269877 1.04121 -1.47305 -0.357479 1.53114 0.998734 -1.56269 1.82256
internal_count=282 80 202 87 115 75 50 25 40 35 71 21 14 66 4 7 69 5 62 5 64 9
shrinkage=0.343541


Tree=2
num_leaves=17
num_cat=0
split_feature=0 9 12 28 13 4 5 5 11 21 0 30 11 7 0 7
split_gain=17.1174 8.59079 6.13007 5.90209 7.64244 4.27986 3.81484 3.80669 2.16921 1.37058 0.817988 0.617652 0.616084 0.494905 0.0479515 0.0155456
threshold=0.073385523225350011 0.086835543296250012 0.27990660644800008 1.2048314877100001 -0.28680177459849993 0.31405212549650002 0.12978543426800002 0.057192203427550006 0.62643480098000015 1.7976862215400002 0.17172141487950002 1.4610855977450001 0.0175211109671 -0.29756114616399992 0.3790981738255001 -0.23515971984649997
decision_type=2 2 2 2 2 2 2 2 2 2 2 2 2 2 2 2
left_child=5 2 3 10 -5 12 7 13 11 14 -2 -8 -1 -3 -4 -9
right_child=1 6 9 4 -6 -7 8 15 -10 -11 -12 -13 -14 -15 -16 -17
leaf_value=0.017469636483187907 0 0.0028041299356495963 0.45274089303693787 -0.37023493918688638 0.11827243822058484 0.43907744809787014 0 0.43984830301002448 0.43535838509911839 -0.067461174907009452 0.51120322192813583 -0.46798077040325931 -0.44877706720351251 -0.48203071270697634 0.58652019869260075 0.55462130906253337
leaf_count=2 2 2 41 20 90 4 2 4 2 3 18 26 57 4 2 3
internal_value=0 0.276541 0.48248 0.260059 0.068652 -1.10265 -0.648289 0.357029 -1.10971 1.23055 1.34522 -1.27113 -1.26228 -0.979737 1.34366 1.45653
internal_count=282 219 176 130 110 63 43 13 30 46 20 28 59 6 43 7
shrinkage=0.343541


Tree=3
num_leaves=24
num_cat=0
split_feature=20 24 30 17 25 11 39 17 24 5 26 34 10 27 24 15 20 25 1 34 3 8 5
split_gain=10.0487 7.40635 6.27991 7.63977 5.88438 5.87933 6.23087 3.62914 3.58642 3.51055 2.95779 3.22846 2.46475 2.01296 2.98416 1.48538 1.24934 0.574258 0.556 0.336765 0.28378 0.164024 0.120377
threshold=1.0560970992750003 1.5272454349100002 1.8433009105050002 -0.26175399110449993 1.1188015699550002 0.10206501460000002 1.4160066241950002 -0.53052819555699993 2.8604670734200002 0.046321325218150002 1.2390812244450002 1.3542665182100002 -1.0000000180025095e-35 2.5814898908200004 1.9579439942200001 -0.028147754726349995 1.0669487958050003 1.1919977144800002 1.0000000180025095e-35 2.3523894349600005 0.014072141744050002 0.33295409940500004 0.12978543426800002
decision_type=2 2 2 2 2 2 2 2 2 2 2 2 2 2 2 2 2 2 2 2 2 2 2
left_child=1 12 10 4 9 6 17 -6 -8 -4 20 18 21 19 -15 -13 -5 -3 -12 -7 -2 -1 -18
right_child=2 5 3 16 7 13 8 -9 -10 -11 11 15 -14 14 -16 -17 22 -19 -20 -21 -22 -23 -24
leaf_value=0.44628743504914276 -0.087757294569797403 0.45247659078309771 -0.33695549767407551 0.12021510791428255 -0.28944026047555071 -0.44829084580744083 -0.64603220028222952 0.45792709405063192 0.52993027233022172 0.41680509185124698 -0.52688881242328345 -0.25728194701726664 -0.40537546308308031 0.33509191844219066 -0.43563931377028797 0.42873668836524276 -0.6135098302015648 -0.048548315873344183 0.0015623309551678372 -0.23222448603608489 -0.52063593646653528 0.68768720858562127 -0.41942586140527555
leaf_count=10 2 15 5 2 23 67 7 5 2 30 2 2 3 6 8 65 9 2 2 7 2 2 4
internal_value=0 -0.521933 0.392594 -0.0432327 0.316701 -0.746663 0.219166 -0.465316 -1.18654 0.941169 0.908319 1.02948 1.04019 -1.07641 -0.236225 1.17897 -1.44453 1.16236 -0.761741 -1.25135 -0.996628 1.45719 -1.66775
internal_count=282 129 153 78 63 114 26 28 9 35 75 71 15 88 14 67 15 17 4 74 4 12 13
shrinkage=0.343541


Tree=4
num_leaves=20
num_cat=0
split_feature=7 3 30 6 36 23 23 35 34 20 23 15 8 6 7 9 10 36 14
split_gain=7.74723 4.50651 4.504 3.49866 2.86587 2.68026 2.5268 2.64102 2.35954 2.82838 1.54042 1.91089 0.845953 0.695125 0.595912 0.509889 0.270704 0.118186 0.00822314
threshold=-0.36334127774899994 0.11309375677450001 2.1328503207650003 0.11701106209800001 1.2460054125350002 2.4842848952700005 2.3638592385500004 0.90919979455350008 1.3542665182100002 1.0560970992750003 2.2506610952500004 0.019721378999850003 0.062333449211650009 0.049007120399750005 -0.32698465760549994 0.056540904365800004 -0.18096573708249999 1.0052040807350002 -0.23236337415849997
decision_type=2 2 2 2 2 2 2 2 2 2 2 2 2 2 2 2 2 2 2
left_child=1 3 5 10 6 8 13 -8 12 -10 11 -1 -2 -4 -6 -3 -7 18 -5
right_child=2 15 4 17 14 16 7 -9 9 -11 -12 -13 -14 -15 -16 -17 -18 -19 -20
leaf_value=-0.40006501140282968 0.091058419378662436 0.41330508655931736 0.085818729872289667 -0.39765330194565651 -0.12862770061576431 -0.016876527110452785 -0.44452731002059209 0.24079441807351329 0.042207038771675601 0.32543868458706582 -0.42201843293923064 0.40738511527111432 -0.52827240895869376 -0.49560989647557935 0.43360568837022884 -0.092503269699049762 -0.47442949107464116 -0.59855853526228953 -0.44435699112477056
leaf_count=4 2 9 2 51 2 2 6 10 41 86 5 11 3 18 7 2 4 3 14
internal_value=0 -0.67482 0.283742 -0.909218 -0.387806 0.519537 -0.682645 -0.00546093 0.597711 0.679558 0.136316 0.597195 -0.835806 -1.30202 0.927249 0.927838 -1.10866 -1.22853 -1.19395
internal_count=282 99 183 88 45 138 36 16 132 127 20 15 5 20 9 11 6 68 65
shrinkage=0.343541


Tree=5
num_leaves=21
num_cat=0
split_feature=1 13 32 20 4 4 23 14 22 16 23 24 37 5 24 15 4 21 5 4
split_gain=4.30868 3.09415 3.92908 3.90468 3.04841 2.88428 2.7054 2.51142 2.27734 2.34406 1.43686 1.10091 0.994671 0.524284 0.404801 0.354117 0.32413 0.114283 0.0607448 0.0206626
threshold=0.019859019266700004 -0.15873998004299997 1.6958886277250003 0.86979975527450015 0.19394877641350003 -0.056000959526899992 2.0632184102200006 -0.13077355860099996 1.6167764064000003 0.13313305255350003 1.8997411203800003 2.7885533381400003 2.2193815945300002 -1.0000000180025095e-35 2.3545884523000002 -0.028147754726349995 -0.13268479751449996 1.7190404426150001 0.12978543426800002 -0.35873329675099991
decision_type=2 2 2 2 2 2 2 2 2 2 2 2 2 2 2 2 2 2 2 2
left_child=5 2 3 -2 7 8 -5 12 9 14 -11 -9 -3 -6 -1 -7 19 -17 -4 -10
right_child=1 4 18 6 13 15 -8 11 16 10 -12 -13 -14 -15 -16 17 -18 -19 -20 -21
leaf_value=0.14050433221840739 -0.39462700607331808 0.16715138781287148 -0.56586482823453943 -0.046710644877218564 -0.33930415825614552 -0.0087779387226566141 0.31386334441787522 -0.33361918819323383 -0.50208362610149482 -0.20017044658455554 0.47477465349065495 0.42337540101997723 -0.37595240958878762 0.4083735189627567 -0.42004928459323421 0.39800510060693267 0.064090765766118926 0.11949517937537234 -0.40094498574083132 -0.37522690130165076
leaf_count=2 16 4 2 27 2 3 45 2 3 3 12 6 73 9 6 44 2 2 12 7
internal_value=0 -0.234165 0.076714 0.283467 -0.643962 0.553224 0.510628 -0.827339 -0.0251793 0.433439 0.981095 0.594496 -1.01501 0.941499 -0.896846 1.06434 -1.10933 1.12616 -1.302 -1.28919
internal_count=282 198 102 88 96 84 72 85 35 23 15 8 77 11 8 49 12 46 14 10
shrinkage=0.343541


Tree=6
num_leaves=15
num_cat=0
split_feature=0 1 38 39 36 4 35 17 22 4 38 39 11 23
split_gain=3.06289 2.58772 1.92022 2.30996 2.41523 1.67018 2.32383 1.43668 1.24782 0.911049 0.83587 0.390527 0.380528 0.272991
threshold=0.073385523225350011 0.019859019266700004 1.7406837293350004 1.4380056049800001 1.1849958621000003 -0.056000959526899992 0.74000172793150021 -0.50227535172949989 1.5471939451200003 0.31405212549650002 1.6868044573100003 1.3300109986250002 0.0175211109671 1.8997411203800003
decision_type=2 2 2 2 2 2 2 2 2 2 2 2 2 2
left_child=9 5 3 -3 -5 6 13 8 -4 12 -8 -9 -1 -2
right_child=1 2 7 4 -6 -7 10 11 -10 -11 -12 -13 -14 -15
leaf_value=0.1039833443036652 0.048078958210989786 0.40516963898352543 0.34171444656741601 -0.10000233961913806 0.26798238073251163 0.38216328142375416 -0.35495048324125994 0.050657705111894019 -0.38435105180607093 0.35371813314880757 0.1814556916188399 -0.47471314729771397 -0.36706885093119168 0.44195416764936263
leaf_count=2 2 16 6 86 21 44 12 2 5 4 5 12 57 8
internal_value=0 0.121373 -0.0797844 0.0769529 -0.0677981 0.645227 0.118416 -0.769832 0.129351 -0.854459 -0.63593 -1.25393 -0.984413 1.07516
internal_count=282 219 148 123 107 71 27 25 11 63 17 14 59 10
shrinkage=0.343541


Tree=7
num_leaves=17
num_cat=0
split_feature=4 17 9 20 25 23 34 5 36 3 13 7 1 5 34 34
split_gain=2.09316 2.46137 2.46341 1.43945 1.38911 1.30723 1.01749 0.88877 0.887221 0.564555 0.533396 0.514065 0.40107 0.36463 0.22607 0.146473
threshold=0.13358614366800001 -0.26175399110449993 0.086835543296250012 0.81320589209200012 1.1919977144800002 1.8838080650750002 1.3542665182100002 0.16257291573850002 1.1849958621000003 1.0000000180025095e-35 -0.06877352178304999 -0.39072328885449997 -0.039835703345149992 0.14197194622700002 2.3221730588200002 2.0058165729450006
decision_type=2 2 2 2 2 2 2 2 2 2 2 2 2 2 2 2
left_child=1 2 3 14 5 13 -5 11 15 -10 -6 -2 -7 -3 -1 -4
right_child=7 4 8 6 10 12 -8 -9 9 -11 -12 -13 -14 -15 -16 -17
leaf_value=-0.36898143130084626 -0.33228992431016025 0.37451158383685962 -0.38537550247037577 -0.25368352327416555 0.4047150990153372 0.32044704692108966 0.14729788114624934 -0.39912911674554985 0.38887042380592296 -0.34789802990594321 -0.35279291323952416 0.38446108111666322 -0.42010648430705977 -0.32712905321680219 0.1316785106728125 -0.22181796749193802
leaf_count=15 3 4 20 6 4 2 115 2 4 3 2 35 43 3 2 19
internal_value=0 -0.103489 0.0724767 0.263529 -0.750697 -0.962987 0.354829 0.844218 -0.687851 0.456275 0.661123 1.01285 -1.17014 0.599122 -0.899374 -0.914611
internal_count=282 242 184 138 58 52 121 40 46 7 6 38 45 7 17 39
shrinkage=0.343541


Tree=8
num_leaves=17
num_cat=0
split_feature=0 1 9 13 38 9 0 16 22 4 34 23 4 2 14 9
split_gain=1.58962 1.60295 1.59931 2.33077 2.00921 1.88243 1.64327 1.2662 1.25233 0.889688 0.875056 0.510143 0.46289 0.233464 0.148213 0.093865
threshold=0.088860547719950014 0.019859019266700004 0.0088188481598550014 -0.17373259392649998 1.4019796660900001 -0.066084050259099983 0.23336796962200004 0.048323134274550004 1.6897038604450001 0.31405212549650002 1.3542665182100002 1.9813551529850002 0.19394877641350003 -0.028142033991299997 -0.41924403188149995 0.0065077859060800004
decision_type=2 2 2 2 2 2 2 2 2 2 2 2 2 2 2 2
left_child=9 8 5 4 -4 6 -3 -7 10 13 11 -2 -5 -1 -12 -10
right_child=1 2 3 12 -6 7 -8 -9 15 -11 14 -13 -14 -15 -16 -17
leaf_value=0.070425901736948765 -0.38424303267122545 0.32486718846780244 -0.18499496171652027 -0.41049311375562175 0.25098327706529111 -0.36659311001316819 -0.26403954998812168 0.35085930549366462 -0.4284572056997803 0.34270959732162015 0.062675362434447462 0.30234344202510077 0.3300715685080553 -0.35793119449631033 0.3632708863791913 -0.072447509101516802
leaf_count=3 3 11 29 26 23 4 14 34 2 8 5 2 2 61 53 2
internal_value=0 0.0943068 -0.0711708 -0.37234 0.0307866 0.311481 -0.293579 0.82014 0.62582 -0.753837 0.810313 -0.369085 -1.11464 -0.954807 1.00069 -0.939278
internal_count=282 210 143 80 52 63 25 38 67 72 63 5 28 64 58 4
shrinkage=0.343541


Tree=9
num_leaves=19
num_cat=0
split_feature=29 0 6 16 11 18 13 13 15 0 0 4 13 9 35 38 32 14
split_gain=1.55927 1.44847 1.68883 1.77514 1.63841 1.4887 1.11564 1.02661 0.898361 0.736997 0.63644 0.588151 0.354902 0.336371 0.243427 0.226324 0.0842971 0.0336099
threshold=2.5927142864450006 0.18380327775450003 0.12412113069400002 0.14567093850550003 -0.04304704894699999 0.037682564738300006 -0.27070163702549993 -0.32868085478699999 0.092935283711550007 0.038926390456900009 0.50872937385950012 -0.38911252893899995 -0.15333754603449998 0.037221717967600008 0.90919979455350008 1.4138829595150002 1.6280787573000002 -0.17852174490999997
decision_type=2 2 2 2 2 2 2 2 2 2 2 2 2 2 2 2 2 2
left_child=1 2 9 16 5 14 7 -6 -5 15 17 -12 -8 -11 -3 -1 -4 -2
right_child=10 4 3 8 6 -7 12 -9 -10 13 11 -13 -14 -15 -16 -17 -18 -19
leaf_value=0.30690549084991758 -0.36801221440335202 0.036607470380088603 -0.38077285282983314 -0.49936469410870543 0.2039308804602922 0.37594413440572449 0.37869223275174346 -0.21570731965047682 0.19735598157671103 0.36100797161725179 0.36092843417438208 -0.36256131246516543 0.16493660740100349 -0.0081493241566708442 -0.41242955508617457 -0.34816694785899083 -0.046256806681995083 -0.51096455018890474
leaf_count=3 18 2 64 2 18 6 37 12 18 31 4 3 27 10 9 12 4 2
internal_value=0 0.101485 -0.257476 -0.60315 0.364881 -0.506405 0.577374 0.087536 0.241564 0.49625 -0.856838 0.0731581 0.89903 0.803278 -1.04168 -0.678763 -1.07448 -1.21187
internal_count=282 255 144 88 111 17 94 30 20 56 27 7 64 41 11 15 68 20
shrinkage=0.343541


Tree=10
num_leaves=12
num_cat=0
split_feature=28 4 30 7 14 9 7 9 2 1 5
split_gain=0.968184 1.33849 1.45047 1.01294 1.1175 0.955884 0.930353 0.415921 0.346803 0.384894 0.245449
threshold=1.1309415382200003 -0.47832711012649992 1.7086797524200001 -0.31342779292499995 -0.33683218237449991 -0.042750846744349993 -0.39072328885449997 0.20637553957150004 0.069786218468500014 0.22205957652200004 0.30111397692650005
decision_type=2 2 2 2 2 2 2 2 2 2 2
left_child=7 8 6 5 -5 -4 -3 -1 9 -2 -8
right_child=1 2 3 4 -6 -7 10 -9 -10 -11 -12
leaf_value=0.36735457709875396 0.34988273294031924 -0.34181462590581857 0.21266707614379782 -0.27041659277023594 0.10708256320708967 -0.2995066913175139 0.36071844679197007 -0.33714775301272681 -0.39930393490641153 -0.35159055192520366 -0.10373565950308947
leaf_count=18 3 13 16 18 59 78 54 2 16 3 2
internal_value=0 -0.0859385 0.0377141 -0.147511 0.0948657 -0.617357 0.733131 0.875436 -0.922555 -0.0390964 0.959277
internal_count=282 262 240 171 77 94 69 20 22 6 56
shrinkage=0.343541


Tree=11
num_leaves=21
num_cat=0
split_feature=1 0 3 27 24 28 0 29 28 32 4 1 33 3 36 0 29 0 4 2
split_gain=0.692324 0.97303 1.02319 0.744124 0.853302 0.841981 0.716525 0.702053 0.530099 0.433255 0.405108 0.338485 0.280573 0.271399 0.268096 0.339883 0.33042 0.309903 0.0693679 0.0237972
threshold=0.019859019266700004 0.44822219518900003 -0.098225865165349993 2.6640227708600004 2.4647575368850005 1.2529187031150002 0.12645441108850003 2.4713398502850006 1.7251124355 1.3274118146200002 -0.22068710734949998 0.29965702339350003 2.2137151956700003 0.0058472549634100007 0.73629103105950011 0.13682680657000004 1.7695699224900003 0.50872937385950012 0.31405212549650002 0.060221676331700009
decision_type=2 2 2 2 2 2 2 2 2 2 2 2 2 2 2 2 2 2 2 2
left_child=8 3 11 4 5 -2 -6 9 14 -5 -10 -3 -4 -14 16 18 19 -17 -16 -1
right_child=1 2 12 7 6 -7 -8 -9 10 -11 -12 -13 13 -15 15 17 -18 -19 -20 -21
leaf_value=-0 0.13645047604328914 -0.40754866505964188 0.37494555175198307 -0.090623359805665563 -0.21812612209985802 -0.31456802141801188 0.20786308207393708 -0.35214471542287284 -0.23096229087572837 0.38079839785195418 0.362258275593214 0.31822922032194123 -0.34966141717281846 0.34904344772295093 -0.33621666614795753 0.35621603749626984 -0.36100082125959226 -0.32323539080503177 0.22726819985860391 0.32486159834473105
leaf_count=2 18 4 18 5 43 63 22 9 3 9 40 3 2 2 10 13 8 2 2 4
internal_value=0 -0.138027 0.485352 -0.307347 -0.463594 -0.727905 0.0842615 0.347497 0.437821 0.713042 0.867772 -0.781199 0.894868 -0.0449912 -0.0154339 0.346183 -0.575724 0.730829 -0.755977 0.735203
internal_count=282 198 29 169 146 81 65 23 84 14 43 7 22 4 41 27 14 15 12 6
shrinkage=0.343541


Tree=12
num_leaves=9
num_cat=0
split_feature=29 28 11 7 12 7 5 0
split_gain=0.480428 0.532553 0.569113 0.647553 0.656423 0.397652 0.175084 0.0296706
threshold=2.5927142864450006 1.1309415382200003 0.38860547367000003 -0.40006673521699992 0.27990660644800008 -0.11655804788449999 0.057192203427550006 0.15415966332650002
decision_type=2 2 2 2 2 2 2 2
left_child=1 -1 3 7 -5 -2 -7 -3
right_child=5 2 -4 4 -6 6 -8 -9
leaf_value=0.35217250657582344 -0.36606244778167757 -0.3424041434393324 -0.37103980320799368 0.0016944754796685002 0.26553618513629212 -0.30578566372889909 0.33963086102188977 0
leaf_count=17 21 49 8 120 59 2 4 2
internal_value=0 0.0716443 0.00695273 0.0715342 0.154084 -0.687165 0.436618 -0.949279
internal_count=282 255 238 230 179 27 6 51
shrinkage=0.343541


Tree=13
num_leaves=21
num_cat=0
split_feature=1 32 18 4 7 3 10 30 26 12 16 7 38 7 34 3 7 7 32 30
split_gain=0.41486 0.563312 0.79302 1.03287 0.437937 0.638583 0.47242 0.433038 0.354161 0.359869 0.334933 0.180824 0.14975 0.107013 0.0849488 0.0809483 0.0753186 0.0713872 0.0389775 0.0232156
threshold=0.019859019266700004 1.6958886277250003 -0.033110401999649992 0.13358614366800001 -0.31342779292499995 0.088922698344800002 -0.12890852370749997 1.7086797524200001 2.0426200433250004 0.1697375688345 0.13313305255350003 -0.40006673521699992 1.4891836984000002 -0.31342779292499995 1.3542665182100002 0.25817733665350007 -0.35257060793149991 -0.39072328885449997 1.5277307611050002 2.0323408877050002
decision_type=2 2 2 2 2 2 2 2 2 2 2 2 2 2 2 2 2 2 2 2
left_child=8 2 4 7 5 -2 -6 -4 9 12 13 19 16 -3 -13 -10 -1 -5 -14 -11
right_child=1 10 3 17 6 -7 -8 -9 15 11 -12 14 18 -15 -16 -17 -18 -19 -20 -21
leaf_value=-0.25054794443084172 -0.24327823018754191 -0.27266843924742151 0.086704984553045886 -0.21640110267467488 0.0092096813159648124 0.34947654972308378 0.30731768246535773 -0.33980321958179271 -0.34428622448774177 -0.29771597977957992 -0.37868713415039179 0.05502391678116058 -0.34398037511052931 0.34965035979838877 0.35303743347194355 0.23927619411746404 0.32070998901367159 0.35343587153023093 0.089821124857353968 0.067752590121145012
leaf_count=4 23 3 20 3 22 7 29 58 5 5 17 2 6 2 52 2 4 14 2 2
internal_value=0 -0.115165 -0.00195383 -0.455599 0.288905 -0.241774 0.513889 -0.771401 0.421502 0.585137 -0.838851 0.828447 -0.3272 0.503886 0.927706 -0.764319 0.491784 0.93127 -0.855953 -0.569668
internal_count=282 198 176 95 81 30 51 78 84 77 22 61 16 5 54 7 8 17 8 7
shrinkage=0.343541


Tree=14
num_leaves=17
num_cat=0
split_feature=3 7 12 34 14 5 36 38 4 20 1 0 7 1 0 4
split_gain=0.405859 0.393388 0.497342 0.485068 0.527785 0.366078 0.365694 0.333693 0.242639 0.174895 0.128611 0.111405 0.0930954 0.0552054 0.0373244 0.0171979
threshold=0.088922698344800002 -0.38615929838849999 0.27990660644800008 2.0058165729450006 -0.22131886336349996 0.077265489553350011 0.73629103105950011 1.8368948225900004 -0.22068710734949998 1.4264161296950002 -0.046277676660399995 0.44822219518900003 -0.26466184582999991 1.0000000180025095e-35 0.088860547719950014 0.23312296189750001
decision_type=2 2 2 2 2 2 2 2 2 2 2 2 2 2 2 2
left_child=1 10 3 5 -5 -3 11 13 12 -10 14 -2 -4 -8 -1 -12
right_child=6 2 8 4 -6 -7 7 -9 9 -11 15 -13 -14 -15 -16 -17
leaf_value=-0.20335385016379223 -0.35071191201430135 0.21698985929621614 -0.32397254369353146 0.17965465402045599 -0.11310402684735724 -0.28359535265388869 -0.038987314899379191 -0.32288230335142309 0.34876456558614471 -0.2549325999617002 -0.34487043690165164 0.26806753803472627 0.2675354895510445 0.35761797843950632 0.2905768593059242 0
leaf_count=3 4 6 7 47 32 34 2 3 49 2 63 2 2 21 3 2
internal_value=0 -0.107855 -0.0145601 -0.156682 0.0783283 -0.62784 0.535934 0.793608 0.651852 0.87964 -0.824548 -0.664207 -0.485153 0.989129 0.387063 -0.975268
internal_count=282 250 179 119 79 40 32 26 60 51 71 6 9 23 6 65
shrinkage=0.343541


Tree=15
num_leaves=19
num_cat=0
split_feature=1 24 30 6 28 26 27 30 9 26 12 7 32 23 5 3 1 30
split_gain=0.288479 0.340787 0.363181 0.315602 0.30439 0.38078 0.370245 0.300284 0.197758 0.177372 0.214663 0.0903208 0.0832114 0.0783693 0.0722346 0.0499977 0.0227104 0.0119649
threshold=0.019859019266700004 1.5272454349100002 2.4242330422700005 0.014673091482100003 1.6568775131300002 1.9786764139050004 2.0661901514950007 1.8680532851550002 0.16460061831650002 2.0426200433250004 0.1697375688345 -0.40006673521699992 1.5121255189250002 1.7874210467450002 0.2621230990620001 0.25817733665350007 0.10096837768450001 2.0323408877050002
decision_type=2 2 2 2 2 2 2 2 2 2 2 2 2 2 2 2 2 2
left_child=9 2 8 7 5 -5 -6 16 -2 10 12 17 14 -13 -1 -11 -3 -12
right_child=1 3 -4 4 6 -7 -8 -9 -10 15 11 13 -14 -15 -16 -17 -18 -19
leaf_value=-0.33010116185647426 0.3488408215773473 0.3512463119918286 -0.32981233824354894 -0.25784524572847356 -0.24595283818601199 0.060163106652086407 0.15444562600477948 -0.32430349265938668 -0.2995299348630886 -0.32254366119060068 -0.25913116888829735 0.021246873636094506 0.24972742350291952 0.35036599330345802 0.23741321525740899 0.20537540018679931 -0.01909876823476157 0.028296839899802043
leaf_count=10 23 13 7 62 27 23 36 3 2 5 5 6 4 48 2 2 2 2
internal_value=0 -0.106732 0.509393 -0.220621 -0.319969 -0.527814 0.0772435 0.551228 0.834078 0.445188 0.581311 0.810469 -0.293472 0.892529 -0.659204 -0.65385 0.975632 -0.44089
internal_count=282 198 32 166 148 85 63 18 25 84 77 61 16 54 12 7 15 7
shrinkage=0.343541


Tree=16
num_leaves=12
num_cat=0
split_feature=29 24 4 30 3 7 2 1 30 1 3
split_gain=0.234274 0.243365 0.246005 0.32038 0.366266 0.259972 0.12177 0.0977322 0.0853972 0.0877064 0.0721849
threshold=2.5927142864450006 1.5272454349100002 -0.47832711012649992 1.7086797524200001 0.088922698344800002 -0.38615929838849999 0.069786218468500014 0.096228269662250024 2.5768660412900002 -0.013560598484999997 0.0058472549634100007
decision_type=2 2 2 2 2 2 2 2 2 2 2
left_child=1 8 6 5 -5 -4 -3 10 9 -1 -2
right_child=7 2 3 4 -6 -7 -8 -9 -10 -11 -12
leaf_value=-0.24019372471999548 0.29333090079381202 0.1427912825645217 -0.27593200220303815 -0.070145869556269433 0.29094769480768373 0.29882373586183236 -0.35095624213024307 -0.34456679741818097 -0.25004416606727564 0.34315267628166402 -0.27391593373536982
leaf_count=2 4 3 15 137 12 50 10 18 2 24 5
internal_value=0 0.0682466 -0.00578083 0.0694128 -0.0742644 0.642533 -0.766529 -0.725257 0.758151 0.87721 0.102426
internal_count=282 255 227 214 149 65 13 27 28 26 9
shrinkage=0.343541


Tree=17
num_leaves=18
num_cat=0
split_feature=0 11 6 3 34 0 12 38 19 7 8 21 35 21 35 3 16
split_gain=0.184859 0.289522 0.549394 0.295158 0.338189 0.315657 0.278966 0.268051 0.141193 0.128997 0.0681052 0.0429224 0.0383013 0.0339636 0.0293503 0.0275963 0.0161387
threshold=0.13682680657000004 1.0000000180025095e-35 0.014673091482100003 -0.098225865165349993 2.0058165729450006 0.32746555748950007 0.31383439766250004 1.8954161810200001 0.071496934001350015 -0.38615929838849999 0.019327801285250006 1.3035989806200001 1.0116045763700001 1.4351381119600004 0.89766578682750009 1.0000000180025095e-35 0.11452534871900001
decision_type=2 2 2 2 2 2 2 2 2 2 2 2 2 2 2 2 2
left_child=6 2 13 8 5 -5 11 -6 -3 16 -10 -1 14 -2 -4 -11 -8
right_child=1 3 12 4 7 -7 9 -9 10 15 -12 -13 -14 -15 -16 -17 -18
leaf_value=0.16425724813548781 -0.10682170471772259 0.28558996757067306 -0 -0.17233569598776674 0.27734384918803501 0.18011982419646505 -0.29817828981757266 -0.22587206229446399 0.21499240818652374 0.32799506347230395 -0.35107290096124588 -0.34109502501374422 0.14882380456849806 0.34194423183363154 -0.36129642388141181 -0.11882486005745405 0.044305031057619605
leaf_count=2 2 8 3 36 64 22 13 5 3 24 9 65 2 10 10 2 2
internal_value=0 0.0932501 -0.439544 0.235778 0.350316 -0.0392376 -0.465165 0.671967 -0.617303 0.370645 -0.884745 -0.93346 -0.953016 0.886326 -0.994541 0.846358 -0.676995
internal_count=282 174 27 147 127 58 108 69 20 41 12 67 15 12 13 26 15
shrinkage=0.343541


Tree=18
num_leaves=20
num_cat=0
split_feature=20 27 19 7 16 25 13 18 18 19 14 7 37 7 12 21 28 3 22
split_gain=0.152821 0.22733 0.268105 0.223867 0.22172 0.283222 0.462422 0.21671 0.162336 0.25892 0.112321 0.107055 0.0957301 0.0933479 0.0818541 0.068118 0.0590736 0.0404166 0.0180599
threshold=1.1421486570050001 2.7383383632300005 -0.026048817284449997 -0.38615929838849999 0.06587723046845001 1.1188015699550002 -0.28680177459849993 -1.0000000180025095e-35 -0.051331485067199992 1.0000000180025095e-35 -0.40801752433849997 0.090432984551450005 4.391493139585001 -0.26466184582999991 0.30444423820400007 1.4933435550650003 1.3812739905150002 0.25817733665350007 1.6356210216700002
decision_type=2 2 2 2 2 2 2 2 2 2 2 2 2 2 2 2 2 2 2
left_child=1 2 3 18 14 8 17 12 11 -10 -8 -6 -4 -3 -2 -9 -5 -7 -1
right_child=4 13 7 16 5 6 10 15 9 -11 -12 -13 -14 -15 -16 -17 -18 -19 -20
leaf_value=-0.3206881710517826 -0.34114509390297953 -0.2520672183456738 -0.32631051941435113 -0.23494990607813029 0.34147840755257514 -0.35092196183465213 -0.26617425755612661 0.31403415061723622 0.33052012929988722 -0.25793043756865736 0.33798442056465239 -0.25510040296288339 0.10084501113744193 0.33782658175033148 0.24032569986415198 -0.088948487367894402 0.24760618697787323 0.15330260694280556 0.034291202980525563
leaf_count=45 8 7 40 5 33 11 3 8 17 11 16 2 4 10 5 15 38 2 2
internal_value=0 -0.208262 -0.345713 0.220488 0.197669 0.320253 -0.196298 -0.644422 0.638137 0.0559937 0.738361 0.908077 -0.856942 0.716477 -0.747983 0.32395 0.611644 -0.951797 -0.833058
internal_count=282 174 157 90 108 95 32 67 63 28 19 35 44 17 13 23 43 13 47
shrinkage=0.343541


Tree=19
num_leaves=16
num_cat=0
split_feature=34 1 13 24 4 3 2 0 31 12 31 35 7 2 21
split_gain=0.108491 0.192713 0.162964 0.213727 0.206976 0.205762 0.208372 0.157836 0.140047 0.0908352 0.0458824 0.0248318 0.0204633 0.00362397 0.000684245
threshold=1.3542665182100002 0.010434861757750002 -0.17373259392649998 2.4647575368850005 0.13358614366800001 -0.040219859371399998 0.10613348073100001 0.059605859217750003 1.4308013701250002 0.1697375688345 1.5573020024700004 0.92085340835600016 -0.40006673521699992 0.18674712202750002 1.5867816469550002
decision_type=2 2 2 2 2 2 2 2 2 2 2 2 2 2 2
left_child=10 9 5 4 -4 8 -7 -5 -3 11 -1 -2 14 -13 -11
right_child=1 2 3 7 -6 6 -8 -9 -10 12 -12 13 -14 -15 -16
leaf_value=0.097635258125643012 0.15003553264848715 -0.26993006673366865 -0.31645930551510149 -0.30285022560292618 0.26045215658932658 0.29977884893334944 -0.032172809626354007 0.26295089168228813 0.10936895369191126 0.0085161781251885255 -0.33233850309928398 -0 0.33769583382991397 -0.27390308772074695 -0.07966388019675269
leaf_count=2 5 15 46 25 10 36 30 25 17 2 8 3 48 7 3
internal_value=0 0.0526361 -0.0573695 -0.381988 -0.705138 0.160939 0.447246 0.321439 -0.365285 0.697113 -0.746715 -0.266981 0.923393 -0.68698 -0
internal_count=282 272 204 106 56 98 66 50 32 68 10 15 53 10 5
shrinkage=0.343541


Tree=20
num_leaves=17
num_cat=0
split_feature=29 20 24 6 17 13 25 2 30 17 7 17 1 24 1 20
split_gain=0.121089 0.123346 0.138321 0.170927 0.133862 0.154098 0.269768 0.114839 0.108456 0.0467053 0.0329376 0.0209491 0.0185944 0.00885329 0.00611858 0.00049002
threshold=2.5927142864450006 1.1421486570050001 1.5272454349100002 0.23699248590000002 -0.28478218110599995 -0.28680177459849993 1.1013817045150003 -0.028142033991299997 1.9213440110350002 -0.038078980848499998 -0.11655804788449999 -0.37187260147099993 0.13963208625950005 2.9692759895900003 0.019859019266700004 1.0191050994500002
decision_type=2 2 2 2 2 2 2 2 2 2 2 2 2 2 2 2
left_child=1 2 15 7 5 6 -3 -4 9 -6 -2 -7 -12 -5 -10 -1
right_child=10 4 3 13 8 11 -8 -9 14 -11 12 -13 -14 -15 -16 -17
leaf_value=0.31511355277506786 -0.32824423233500188 0.30893405679208491 -0.20638990913460353 -0.32337166324624778 0.30367103355107222 0.33393019001994456 -0.28634873611038486 0.088214183814417507 -0 -0.18768515695052723 0.21739934774669312 0.016774304614737379 -0.20350301045849178 -0 -0.32624018144318634 0
leaf_count=12 21 12 14 32 8 41 10 96 3 2 4 9 2 6 8 2
internal_value=0 0.0702067 -0.155354 -0.276033 0.321483 0.51796 0.00556984 -0.00385084 -0.329854 0.450715 -0.749296 0.904329 0 -0.908178 -0.89515 0.871461
internal_count=282 255 162 148 93 72 22 110 21 10 27 50 6 38 11 14
shrinkage=0.343541


Tree=21
num_leaves=11
num_cat=0
split_feature=0 29 24 14 31 9 1 11 3 20
split_gain=0.084791 0.0889995 0.0695268 0.0699864 0.149552 0.0937519 0.0280743 0.0197172 0.00938318 0.001472
threshold=0.073385523225350011 2.5927142864450006 3.1332052923100004 -0.22131886336349996 1.4712508082650002 0.0088188481598550014 0.096228269662250024 0.0175211109671 0.0058472549634100007 1.0853592149000002
decision_type=2 2 2 2 2 2 2 2 2 2
left_child=7 2 3 5 -5 -2 8 9 -3 -1
right_child=1 6 -4 4 -6 -7 -8 -9 -10 -11
leaf_value=-0 0.22499627609864095 0.19312555158138828 0.31474445510105337 -0.17307821378093066 0.24479666720585888 0.0012094650212403886 -0.31849436389964908 -0.30742957383817415 -0.13602945065020949 0.11075702605424773
leaf_count=2 40 4 25 35 15 82 15 59 3 2
internal_value=0 0.0598798 0.126996 0.0699827 -0.212163 0.228526 -0.698626 -0.747995 0.0352239 0
internal_count=282 219 197 172 50 122 22 63 7 4
shrinkage=0.343541


Tree=22
num_leaves=10
num_cat=0
split_feature=20 28 18 4 16 14 21 0 0
split_gain=0.0650064 0.0659716 0.0936612 0.0816349 0.0817069 0.0444441 0.0229302 0.0216933 0.00819073
threshold=0.86979975527450015 1.2048314877100001 -0.29953733240549996 -0.47832711012649992 0.21437102362750002 -1.0000000180025095e-35 1.7976862215400002 0.44822219518900003 0.44822219518900003
decision_type=2 2 2 2 2 2 2 2 2
left_child=5 6 -3 7 -5 -1 -2 -4 -8
right_child=1 2 3 4 -6 -7 8 -9 -10
leaf_value=-0.31546935470168519 0.31598708835235856 -0.31809482649479776 -0.31439918395413174 0.0098653624397564074 0.25367022550032814 0.1931073755719315 -0.17675077193477298 0.0051301213372773723 0.14458205909849928
leaf_count=37 18 6 11 175 21 2 5 3 4
internal_value=0 0.0573645 -0.000959589 0.063863 0.141025 -0.671745 0.718346 -0.718899 -0
internal_count=282 243 216 210 196 39 27 14 9
shrinkage=0.343541


Tree=23
num_leaves=13
num_cat=0
split_feature=12 0 12 24 32 7 5 21 21 3 37 7
split_gain=0.0611207 0.119542 0.0957135 0.110134 0.0947355 0.0696378 0.0344943 0.0331708 0.0285007 0.0109042 0.00801456 0.00159434
threshold=0.27990660644800008 0.14434851762750003 0.27010663325950007 2.8604670734200002 1.6958886277250003 -0.37626367285949996 0.11984039354400002 1.7976862215400002 1.4351381119600004 -0.017831717945549996 3.0126991347200005 -0.34705453297099992
decision_type=2 2 2 2 2 2 2 2 2 2 2 2
left_child=1 8 3 4 -3 6 -2 10 11 -9 -7 -1
right_child=5 2 -4 -5 -6 7 -8 9 -10 -11 -12 -13
leaf_value=-0 0.17292450399008169 0.046352907727325227 -0.30831777765771856 0.32441590676672605 -0.25706735933399738 -0 -0.28434474423276934 -0.20533153431940715 -0.32726484037538262 0.13273880229106291 0.32726407907282545 0.12191740590840171
leaf_count=2 6 101 5 16 14 2 27 4 54 2 47 2
internal_value=0 -0.0886196 0.0305592 0.123959 -0 0.427378 -0.358392 0.732622 -0.818565 -0.0678168 0.907414 0.108537
internal_count=282 194 136 131 115 88 33 55 58 6 49 4
shrinkage=0.343541


Tree=24
num_leaves=12
num_cat=0
split_feature=28 4 30 1 26 26 7 17 0 29 0
split_gain=0.0436543 0.0610531 0.0702999 0.0670284 0.0955987 0.0489761 0.0439291 0.0338547 0.0325577 0.0102086 0.0022528
threshold=1.1309415382200003 -0.47832711012649992 1.7086797524200001 0.010434861757750002 1.9527852923600004 2.0426200433250004 -0.38615929838849999 -0.77712653972799994 0.44822219518900003 2.5927142864450006 0.50872937385950012
decision_type=2 2 2 2 2 2 2 2 2 2 2
left_child=9 8 6 5 -5 -4 -3 -8 -2 -1 -10
right_child=1 2 3 4 -6 -7 7 -9 10 -11 -12
leaf_value=0.29665539332239232 -0.31686441032547141 -0.17210459206457326 0.24473249841198591 -0.13269117992231944 0.14252815227004595 -0.22866639712384274 -0.045004345609738122 0.32401509598787087 0.14732754758383274 -0 -0
leaf_count=17 18 15 39 93 34 5 2 52 2 3 2
internal_value=0 -0.0440991 0.0243761 -0.0798856 -0.201336 0.478117 0.566271 0.756277 -0.678539 0.735147 0.166332
internal_count=282 262 240 171 127 44 69 54 22 20 4
shrinkage=0.343541


Tree=25
num_leaves=21
num_cat=0
split_feature=25 7 32 13 2 13 29 32 20 37 14 29 4 4 29 9 24 12 7 14
split_gain=0.0400993 0.0773719 0.0728726 0.0725377 0.0637635 0.0614012 0.055657 0.0451604 0.0488973 0.0392534 0.0345953 0.0336284 0.0205105 0.0173102 0.0162435 0.00902623 0.0052687 0.00418499 0.00402985 0.00051289
threshold=1.1288378333350002 -0.36334127774899994 1.3537863208100001 -0.14267479431799998 -0.070582650277949979 -0.28680177459849993 2.5927142864450006 1.4164241389200003 1.1265243000150003 5.0946768045950011 -0.38451813222549996 1.8968988985300002 0.10599505986600001 -0.58452535880149992 2.4069259348550003 0.056540904365800004 1.4420796324300003 0.18450771919500003 -0.39072328885449997 -0.29294959699299994
decision_type=2 2 2 2 2 2 2 2 2 2 2 2 2 2 2 2 2 2 2 2
left_child=1 10 9 6 -5 13 -4 15 14 16 18 -10 -12 -2 -9 17 -3 -7 -1 -14
right_child=5 2 3 4 -6 7 -8 8 11 -11 12 -13 19 -15 -16 -17 -18 -19 -20 -21
leaf_value=-0 0.032808694148702827 -0 0.27836117594346699 -0.27990703839488307 0.12596158353145753 0.29433390074273397 -0.11994082419872146 -0.27968975511159777 -0.15353654643351269 0.20720272544705962 -0.31018303551086096 0.21149828140155191 -0 -0.32058504553709688 0 -0 -0.30353143443298847 0 0.20427519489599777 0.076622692470939724
leaf_count=6 4 4 57 9 30 11 11 23 7 8 50 15 4 15 8 4 6 3 4 3
internal_value=0 0.134312 0.284449 0.43055 -0.065811 -0.240379 0.678129 -0 -0.220316 -0.45571 -0.503666 0.215555 -0.74291 -0.824161 -0.660045 0.638924 -0.775731 0.774148 0.371854 0.0726427
internal_count=282 192 125 107 39 90 68 71 53 18 67 22 57 19 31 18 10 14 10 7
shrinkage=0.343541


Tree=26
num_leaves=15
num_cat=0
split_feature=34 24 0 24 11 38 30 5 1 11 38 28 12 1
split_gain=0.029924 0.0568454 0.0666825 0.0535577 0.0493313 0.0489212 0.0696816 0.0458009 0.0303308 0.0274057 0.00782515 0.00727542 0.00212993 0.000291676
threshold=1.3542665182100002 2.4647575368850005 0.12645441108850003 2.2423457400750002 -0.04304704894699999 1.5273689659850003 2.4242330422700005 0.21129013454850001 -0.039835703345149992 0.10206501460000002 1.4138829595150002 1.7657492440750002 0.2614982540475001 0.069437971815350011
decision_type=2 2 2 2 2 2 2 2 2 2 2 2 2 2
left_child=11 3 9 5 -4 6 -2 -7 -5 13 -11 -1 -10 -3
right_child=1 2 4 8 -6 7 -8 -9 12 10 -12 -13 -14 -15
leaf_value=-0.28416326180503282 0.17353055396356598 0.18429395423720521 -0.1385887536907458 0.15322967819082101 0.3228389421748451 -0.17413313325738383 -0.27546071508076708 0.1524863590523961 -0.3155579308422079 0 -0.28315559396036583 0 -0 0
leaf_count=8 64 10 5 5 49 49 8 13 18 10 35 2 4 2
internal_value=0 0.0388224 0.424382 -0.108013 0.742669 0.0166934 0.299329 -0.282447 -0.684291 -0.291517 -0.686583 -0.690432 -0.862337 0.450607
internal_count=282 272 111 161 54 134 72 62 27 57 45 10 22 12
shrinkage=0.343541


Tree=27
num_leaves=15
num_cat=0
split_feature=39 31 9 38 28 4 35 30 7 36 20 22 12 35
split_gain=0.0282713 0.0403578 0.0405899 0.0473415 0.0354218 0.0439355 0.0323249 0.0230543 0.0221855 0.0185852 0.0117977 0.00892882 0.00322987 0.00197864
threshold=1.3520346393700002 1.2343983611100002 0.0088188481598550014 1.6348435665700001 1.8097566986650002 -0.43655888789249991 0.96862598194650007 1.8096738174500002 -0.38615929838849999 0.68882539075650018 1.3244891360650002 1.4483588329050001 0.24443534244700002 0.74000172793150021
decision_type=2 2 2 2 2 2 2 2 2 2 2 2 2 2
left_child=8 6 3 9 5 -4 12 -5 -1 -3 -6 -8 -2 -10
right_child=1 2 4 7 10 -7 11 -9 13 -11 -12 -13 -14 -15
leaf_value=-0.10180969510146502 -0.31148745366290381 -0.036844484795062304 0.14737966534289945 0.12884563126531773 0.27731948883108659 -0.13281716741263475 0.21341836483266272 -0.25274676654093864 0 0.30141275156174935 -0.028060334880581093 -0.089516283173109196 -0 0.29355684712511393
leaf_count=26 11 3 32 12 15 91 3 8 6 36 5 2 7 25
internal_value=0 -0.0666751 0.0275746 0.415008 -0.123666 -0.230552 -0.570546 -0.244095 0.532496 0.754344 0.59981 0.219657 -0.840499 0.790437
internal_count=282 225 202 59 143 123 23 20 57 39 20 5 18 31
shrinkage=0.343541


Tree=28
num_leaves=17
num_cat=0
split_feature=20 5 28 14 18 3 29 8 27 30 37 3 2 12 20 1
split_gain=0.0275588 0.0360083 0.0403364 0.0336231 0.0410476 0.0347369 0.0305978 0.0292511 0.0303912 0.026885 0.0255524 0.0226424 0.0202499 0.0201273 0.0128575 0.00836276
threshold=1.1421486570050001 0.11984039354400002 1.6436340745100002 -0.41924403188149995 -0.051331485067199992 -0.098225865165349993 2.8485307810950005 1.0000000180025095e-35 2.5814898908200004 1.9213440110350002 4.391493139585001 -0.053014904292599994 0.091420599188250018 0.34707758941800004 1.3696170403650003 0.019859019266700004
decision_type=2 2 2 2 2 2 2 2 2 2 2 2 2 2 2 2
left_child=1 2 13 14 5 -5 -7 -3 10 11 -9 -6 -10 -1 -2 -11
right_child=3 7 -4 4 9 6 -8 8 12 15 -12 -13 -14 -15 -16 -17
leaf_value=-0.26230434395317404 0.036218123547056745 0.1910773553674254 0.27368067538414353 -0.16063415888047522 0.23916211960272687 0.28581725273946712 -0.15433995681861026 -0.30525128476177088 0.23570465336723109 0 -0 -0.12936951364641033 -0.16928901376018787 0.13193616603923605 -0.26992964079028886 -0.27899393028501679
leaf_count=15 8 10 32 6 24 39 2 44 8 4 51 8 9 5 9 8
internal_value=0 -0.192266 0.253344 0.186998 0.311993 0.57451 0.715112 -0.397792 -0.507184 -0.123957 -0.679442 0.246066 0.129649 -0.333154 -0.513809 -0.652114
internal_count=282 174 52 108 91 47 41 122 112 44 95 32 17 20 17 12
shrinkage=0.343541


Tree=29
num_leaves=15
num_cat=0
split_feature=29 20 24 6 14 17 25 12 23 4 0 0 27 1
split_gain=0.0175685 0.0201107 0.0268349 0.04269 0.0406257 0.0260702 0.0333775 0.0346763 0.0341972 0.0194099 0.0173222 0.0103197 0.00768724 0.00679268
threshold=2.5927142864450006 1.1421486570050001 1.6571218120200004 0.13508073333050005 -0.13077355860099996 -0.28478218110599995 1.1288378333350002 0.061055350959050007 2.1982849846800003 0.13358614366800001 0.059605859217750003 0.34876527442400007 1.9723661540850002 0.096228269662250024
decision_type=2 2 2 2 2 2 2 2 2 2 2 2 2 2
left_child=1 2 11 10 -5 6 7 -3 -8 12 -4 -1 -7 -2
right_child=13 5 3 4 -6 9 8 -9 -10 -11 -12 -13 -14 -15
leaf_value=0.25266305703870129 0 -0.098804202743357439 -0.15375758157589287 -0.28327298323747224 0.090056560022786766 0 -0.2044678877384728 0.31785267984879362 0.24004506826995659 0.1710573725810183 0.18020718783774159 -0.033028120145460568 -0.26334073768999755 -0.26188178756558372
leaf_count=15 9 7 18 76 9 4 11 41 13 7 41 3 10 18
internal_value=0 0.0421396 -0.127993 -0.271083 -0.565493 0.240872 0.416895 0.708994 -0.0584727 -0.262809 0.271061 0.509861 -0.599412 -0.571915
internal_count=282 255 162 144 85 93 72 48 24 21 59 18 14 27
shrinkage=0.343541


Tree=30
num_leaves=18
num_cat=0
split_feature=2 31 21 33 4 25 25 25 6 32 27 36 32 0 24 21 18
split_gain=0.0159166 0.0357486 0.0302282 0.0221361 0.0178015 0.0146121 0.0166858 0.0140926 0.0139523 0.0110617 0.0104986 0.00978305 0.00888058 0.00734343 0.00596851 0.00394487 0.000628031
threshold=0.020241535853700005 1.2343983611100002 1.7976862215400002 2.0122009931900005 -0.13268479751449996 1.1288378333350002 0.96803278261600012 1.0692438543800002 1.0000000180025095e-35 1.7175138924600002 1.9723661540850002 1.0052040807350002 1.4164241389200003 0.099776654493850023 1.7595370034950002 1.5540568872750002 0.024192031607100001
decision_type=2 2 2 2 2 2 2 2 2 2 2 2 2 2 2 2 2
left_child=1 10 3 4 9 6 8 13 -3 -2 -1 14 -9 -5 -7 -6 -8
right_child=2 5 -4 7 15 11 16 12 -10 -11 -12 -13 -14 -15 -16 -17 -18
leaf_value=0.037961593176514923 -0.27331700367257816 0.2012002540851128 -0.27718798542986989 -0 0.11977029220778257 -0.21438494963712015 0.29997725855129559 0.16394520613126623 -0.17094314597054974 0 -0.24019249002885371 0.1832523806825137 -0.089887474371134507 0.27758318768352375 0 -0.042823648415815693 0
leaf_count=4 23 8 40 8 39 5 32 13 8 5 13 6 27 23 6 14 8
internal_value=0 0.18944 -0.163941 0 -0.315623 0.417832 0.599463 0.297384 0 -0.635727 -0.476763 -0 -0 0.65663 -0.310033 0.0925198 0.833598
internal_count=282 90 192 152 81 73 56 71 16 28 17 17 40 31 11 53 40
shrinkage=0.343541


Tree=31
num_leaves=16
num_cat=0
split_feature=2 31 21 3 33 25 30 20 19 26 17 34 10 11 27
split_gain=0.0100418 0.0218945 0.0209138 0.0143724 0.0126751 0.0123581 0.0113986 0.0102731 0.0111975 0.00964483 0.0135045 0.00821883 0.00618911 0.00358931 0.00047146
threshold=0.020241535853700005 1.2343983611100002 1.7976862215400002 -0.098225865165349993 2.0122009931900005 1.2636822138100001 1.9843057296850002 1.0191050994500002 0.071496934001350015 1.9020477398600002 -0.24421721744399996 2.3221730588200002 -0.2896827619784999 0.52777338127750018 2.1197824720300003
decision_type=2 2 2 2 2 2 2 2 2 2 2 2 2 2 2
left_child=1 11 4 6 7 12 -3 -2 -9 10 -6 14 -5 -11 -1
right_child=2 3 -4 5 9 -7 -8 8 -10 13 -12 -13 -14 -15 -16
leaf_value=0.068004389441917848 -0.2429009531761491 0.16386993221007512 -0.25454366216829483 -0 0.24721095344238284 -0.012591635345253876 -0.16709615546176423 0.11170044341114656 -0.15350640022006823 -0.085274487711990365 -0.082150234222640686 -0.23350391867285125 0.2717406113173591 0.10120549109016225 -0
leaf_count=3 35 9 40 4 40 4 11 36 10 17 7 9 45 7 5
internal_value=0 0.174669 -0.132165 0.378473 0 0.57288 -0.0282475 -0.24879 -0 0.24685 0.502074 -0.371688 0.709171 -0.0177619 0
internal_count=282 90 192 73 152 53 20 81 46 71 47 17 49 24 8
shrinkage=0.343541


Tree=32
num_leaves=14
num_cat=0
split_feature=9 31 34 26 28 25 7 3 26 14 8 33 18
split_gain=0.0093422 0.00955331 0.0180758 0.0122996 0.0204754 0.0102977 0.0090262 0.0101954 0.0080619 0.00678938 0.0057559 0.00523988 0.00179463
threshold=0.086835543296250012 1.4712508082650002 1.3542665182100002 1.9267586585300001 1.6436340745100002 1.0692438543800002 -0.29756114616399992 0.11309375677450001 1.7084756047550003 -0.37837865470449994 0.43353168492500005 1.9684573240100003 0.007640339505950001
decision_type=2 2 2 2 2 2 2 2 2 2 2 2 2
left_child=1 3 -3 4 10 -6 7 -4 12 -8 -1 -5 -2
right_child=8 2 6 11 5 -7 9 -9 -10 -11 -12 -13 -14
leaf_value=-0.22985789024754436 0.10135468325224865 -0.14836220943861594 -0.10861826964904552 0.21815228804610842 0.16239387506803604 -0.061319447133494763 -0 0.19639413382831611 -0.20938280254888061 0.28599680912761166 0 -0 -0.046212558413327769
leaf_count=34 9 6 20 12 51 32 6 12 40 35 10 7 8
internal_value=0 0.0603446 0.28046 -0.0632899 -0.207255 0.104368 0.468681 0 -0.357161 0.701913 -0.57705 0.413124 0
internal_count=282 225 79 146 127 83 73 32 57 41 44 19 17
shrinkage=0.343541


Tree=33
num_leaves=13
num_cat=0
split_feature=0 19 0 38 12 19 12 28 34 2 10 22
split_gain=0.00866747 0.0109556 0.0109816 0.0118076 0.0151399 0.0114027 0.0108824 0.0103952 0.00777954 0.00747218 0.00405966 0.00357582
threshold=0.073385523225350011 1.0000000180025095e-35 0.32746555748950007 1.4019796660900001 1.0000000180025095e-35 0.12193241230550002 0.29347404914350006 1.2048314877100001 2.0058165729450006 -0.098094637745649985 -0.21947113341749996 1.4876973493500001
decision_type=2 2 2 2 2 2 2 2 2 2 2 2
left_child=-1 8 5 7 -5 6 -3 -4 10 -10 -2 -7
right_child=1 2 3 4 -6 11 -8 -9 9 -11 -12 -13
leaf_value=-0.17804146544483496 0.081420946452772286 -0.22402769478197523 0.12374528603677416 -0.10557899713420547 0.24721312237154294 0.11477937461177806 0.018492181120419848 -0.18059288305822763 -0 0.24704624499514566 -0.14778587277958952 -0.058074477527671343
leaf_count=63 11 42 13 4 24 18 15 12 7 52 13 8
internal_value=0 0.0419229 -0.0582215 0.156068 0.462702 -0.275931 -0.484409 -0.163508 0.357364 0.554174 -0 0.0910668
internal_count=282 219 136 53 28 83 57 25 83 59 24 26
shrinkage=0.343541


Tree=34
num_leaves=15
num_cat=0
split_feature=2 21 0 9 13 12 31 21 14 25 39 38 9 8
split_gain=0.00595314 0.00926086 0.00918126 0.00944791 0.00861534 0.00844414 0.0165278 0.00811856 0.00372953 0.00342899 0.00333362 0.00297786 0.00285572 0.000456638
threshold=0.020241535853700005 1.8220322610650002 0.14434851762750003 0.063289280205900009 -0.25778974607449995 0.27990660644800008 1.4712508082650002 1.3622148650900001 -0.31908623479499992 1.0774347170650003 1.9391183078900001 1.6603341284350002 -0.066084050259099983 0.23226745804050003
decision_type=2 2 2 2 2 2 2 2 2 2 2 2 2 2
left_child=1 5 7 4 9 6 10 -2 -7 -4 -1 -5 -6 -3
right_child=2 13 3 11 12 8 -8 -9 -10 -11 -12 -13 -14 -15
leaf_value=-0.24035137230199957 0 0.22813348482350634 0.0511057295406721 -0.1928836953424648 -0 -0 0.13030681425023977 -0.24429830821777651 0.19813969162996975 -0.11149966196014365 0 0 0.21594605268977196 0
leaf_count=17 18 12 8 22 6 6 15 73 25 13 8 5 47 7
internal_value=0 0.150893 -0.138439 0 0.201311 -0 -0.226587 -0.505807 0.381495 -0.0296549 -0.587145 -0.404803 0.517836 0.580284
internal_count=282 90 192 101 74 71 40 91 31 21 25 27 53 19
shrinkage=0.343541


Tree=35
num_leaves=14
num_cat=0
split_feature=9 17 38 13 25 20 39 36 11 33 24 12 23
split_gain=0.00406211 0.00523266 0.00670805 0.00577731 0.00843606 0.0063085 0.00485473 0.00391478 0.0038226 0.00370975 0.00244729 0.00162246 0.000461681
threshold=0.086835543296250012 -0.26175399110449993 1.5678914661300001 -0.27070163702549993 1.0774347170650003 1.1604708903000003 1.6182852270400001 0.96646829320500016 0.1182076160915 1.6620077503950001 2.2423457400750002 0.27990660644800008 2.0009185291100002
decision_type=2 2 2 2 2 2 2 2 2 2 2 2 2
left_child=1 3 10 4 9 8 -6 11 -5 -1 -3 -2 -4
right_child=7 2 12 5 6 -7 -8 -9 -10 -11 -12 -13 -14
leaf_value=-0 -0.20652850354201968 0.12418229805996472 -0 0.11274292903621549 0 0.24373857596850829 -0.20408664595375084 0 -0.031636721305372754 0.19017464474935469 -0.0027369244293374275 -0 -0.20123584939906219
leaf_count=7 26 17 10 32 6 38 16 19 46 13 17 12 23
internal_value=0 0.0646727 -0.152614 0.176194 -0 0.335711 -0.367277 -0.264228 0.0457305 0.324181 0.0748491 -0.467796 -0.495094
internal_count=282 225 67 158 42 116 22 57 78 20 34 38 33
shrinkage=0.343541


Tree=36
num_leaves=10
num_cat=0
split_feature=4 0 11 9 4 39 11 20 22
split_gain=0.00329904 0.00640937 0.00903786 0.00842329 0.00827877 0.00430729 0.00291836 0.000465272 0.000183251
threshold=0.13358614366800001 0.13682680657000004 -0.04304704894699999 0.0088188481598550014 -0.47832711012649992 1.895409535795 0.1182076160915 1.0669487958050003 1.3811661657650003
decision_type=2 2 2 2 2 2 2 2 2
left_child=1 6 8 4 -4 -5 -1 -2 -3
right_child=7 2 3 5 -6 -7 -8 -9 -10
leaf_value=0 0 -0 -0 -0.065936752472340279 0.23675355763608513 0.076513042313653121 -0.20471793124720403 0.15183707771815605 -0.189072800863331
leaf_count=14 17 5 10 57 45 33 71 23 7
internal_value=0 -0.043336 0.0110962 0.136106 0.453133 -0 -0.434127 0.344994 -0.467581
internal_count=282 242 157 145 55 90 85 40 12
shrinkage=0.343541


Tree=37
num_leaves=14
num_cat=0
split_feature=2 1 16 31 5 18 28 5 4 22 33 33 6
split_gain=0.00253574 0.00705026 0.00563056 0.00477683 0.00307553 0.00500591 0.00292823 0.00313888 0.00365296 0.00284744 0.0024119 0.000738467 0.000198386
threshold=0.020241535853700005 0.042632099388250008 0.15960848341100004 1.4308013701250002 0.12978543426800002 0.007640339505950001 1.7251124355 0.38198808559950009 -0.11851890689249998 1.1641665808300001 1.9321082130200002 2.0807724509550005 0.23699248590000002
decision_type=2 2 2 2 2 2 2 2 2 2 2 2 2
left_child=3 6 -3 4 5 -1 7 8 -2 -5 -6 -4 -13
right_child=1 2 11 9 10 -7 -8 -9 -10 -11 -12 12 -14
leaf_value=-0.16640413854162608 -0.17661597339738525 -0.22162267415644252 -0.059601083394886442 -0 0.15097714336400789 0.0093212295397892761 0.12610904602927925 0.10039129204073079 0 0.20122532954882716 -0 0.059512652693292374 -0
leaf_count=17 20 59 15 7 14 18 51 7 18 24 10 11 11
internal_value=0 -0.102534 -0.356805 0.118044 -0 -0.213973 0.0825683 -0 -0.245845 0.423636 0.209007 -0 0.0959172
internal_count=282 192 96 90 59 35 96 45 38 31 24 37 22
shrinkage=0.343541


Tree=38
num_leaves=9
num_cat=0
split_feature=29 28 12 22 27 11 30 1
split_gain=0.00252738 0.00309799 0.00401024 0.00423379 0.00395922 0.00259669 0.00181448 2.03906e-05
threshold=2.5927142864450006 1.2048314877100001 0.27990660644800008 1.3648763364500003 1.8809176435300003 1.0000000180025095e-35 1.7086797524200001 0.069437971815350011
decision_type=2 2 2 2 2 2 2 2
left_child=1 -1 3 6 -4 -5 -3 -6
right_child=-2 2 4 5 7 -7 -8 -9
leaf_value=0.14284312074838854 -0.11404643118081509 0 -0 -0.082956114923527086 0.18439912969650579 0.052462631599648701 -0.14654407409883602 0
leaf_count=26 27 9 26 10 45 84 43 12
internal_value=0 0.0484096 -0 -0.0915158 0.271298 0.000675238 -0.328084 0.464048
internal_count=282 255 229 146 83 94 52 57
shrinkage=0.343541


Tree=39
num_leaves=9
num_cat=0
split_feature=9 0 1 34 17 38 38 5
split_gain=0.00197137 0.00249304 0.00327045 0.00510848 0.00611811 0.0027626 0.0023922 0.00218357
threshold=0.086835543296250012 0.088860547719950014 0.096228269662250024 1.3542665182100002 -0.54818604884099986 1.3345485888300002 1.5491218146550001 0.12978543426800002
decision_type=2 2 2 2 2 2 2 2
left_child=1 -1 3 -3 -5 -4 -7 -2
right_child=7 2 5 4 -6 6 -8 -9
leaf_value=-0.073520966822682943 0 -0.044042583897171389 -0.12549297705064139 0.24275722886946405 0 0.13133767498494697 -0 -0.14176676909634617
leaf_count=53 22 6 11 41 73 18 23 35
internal_value=0 0.0560652 0.126024 0.252111 0.367186 -0 0.0655729 -0.210013
internal_count=282 225 172 120 114 52 41 57
shrinkage=0.343541


Tree=40
num_leaves=10
num_cat=0
split_feature=2 30 21 1 36 0 34 12 7
split_gain=0.00222668 0.00487891 0.00578485 0.0036809 0.00560954 0.00251034 0.0016717 0.00236615 0.00203036
threshold=0.020241535853700005 1.8433009105050002 1.8220322610650002 0.042632099388250008 1.1205236736950004 0.34876527442400007 1.3542665182100002 0.1697375688345 -0.37626367285949996
decision_type=2 2 2 2 2 2 2 2 2
left_child=1 -1 5 6 -5 -3 -2 -8 -9
right_child=3 2 -4 4 -6 -7 7 8 -10
leaf_value=0.16031306564547559 -0.051599152986177871 -0.16663319470533403 0.11989622206788221 -0.1802343935725835 0 0 -0 -0 0.17806248871314076
leaf_count=34 7 21 18 78 18 17 23 18 48
internal_value=0 0.119964 -0 -0.109594 -0.309252 -0.294232 0.00777899 0.185267 0.360419
internal_count=282 90 56 192 96 38 96 89 66
shrinkage=0.343541


Tree=41
num_leaves=12
num_cat=0
split_feature=2 23 17 6 3 0 6 3 30 7 10
split_gain=0.00124528 0.00290103 0.00241088 0.00204856 0.00537421 0.00223864 0.00127026 0.000880535 0.000424155 0.000319985 0.000260345
threshold=0.020241535853700005 2.4302640575350005 -0.26175399110449993 0.15044423612400001 0.088922698344800002 0.32746555748950007 0.032930386810550008 -0.078066840852049998 1.9017974754250002 -0.31342779292499995 -0.25102734670499993
decision_type=2 2 2 2 2 2 2 2 2 2 2
left_child=1 2 7 6 5 -5 -2 -1 -4 -6 -8
right_child=3 -3 8 4 9 -7 10 -9 -10 -11 -12
leaf_value=0 -0 -0.044936991870627871 0.025778620044075058 -0.19520740003371806 0.06666214429403175 -0 0 0.16598842269567249 -0.053972484495406883 -0 0.10762374157019712
leaf_count=17 21 13 15 81 12 15 18 33 12 9 36
internal_value=0 0.0991605 0.238302 -0.0800633 -0.206509 -0.412305 0.0226749 0.386667 -0 0.0821002 0.236935
internal_count=282 90 77 192 117 96 75 50 27 21 54
shrinkage=0.343541


Tree=42
num_leaves=10
num_cat=0
split_feature=9 20 11 1 36 36 20 1 9
split_gain=0.000888522 0.00247087 0.00225281 0.00197741 0.00335796 0.00185765 0.000766607 0.00029912 0.000296908
threshold=0.0088188481598550014 1.0384360670050004 -0.04304704894699999 0.047450884254400007 1.1849958621000003 0.88148776929700012 1.17205876731 0.026597508058050005 -0.082515666594749987
decision_type=2 2 2 2 2 2 2 2 2
left_child=1 5 -3 6 -5 -1 7 -2 -4
right_child=3 2 8 4 -6 -7 -8 -9 -10
leaf_value=-0.11385237007656174 0.078058398803234674 -0 0 -0.13372391143334816 0 0 -0 -0 0.16333218980903466
leaf_count=44 39 16 11 66 15 14 23 13 41
internal_value=0 0.0867814 0.25343 -0.068986 -0.226813 -0.0383984 0 0.165313 0.403497
internal_count=282 126 68 156 81 58 75 52 52
shrinkage=0.343541


Tree=43
num_leaves=7
num_cat=0
split_feature=4 11 11 0 28 22
split_gain=0.000777586 0.00167965 0.00214265 0.00361654 0.00179188 0.00170862
threshold=0.13358614366800001 1.0000000180025095e-35 0.10206501460000002 0.15415966332650002 1.5921088045350003 1.3288127674450003
decision_type=2 2 2 2 2 2
left_child=1 -1 4 -4 -3 -5
right_child=-2 2 3 5 -6 -7
leaf_value=-0.094906742399770788 0.068542170984780645 -0 -0.14578985186479743 -0.037614401238335454 0.15228600136321924 0.061477238213348329
leaf_count=18 40 14 84 21 34 71
internal_value=0 -0.0177453 0 -0.0457802 0.256345 0.00625209
internal_count=282 242 224 176 48 92
shrinkage=0.343541


Tree=44
num_leaves=9
num_cat=0
split_feature=25 7 5 20 9 7 9 30
split_gain=0.000794625 0.00349515 0.00290503 0.00253045 0.00181064 0.00105526 0.00191975 7.76938e-05
threshold=1.1288378333350002 -0.38615929838849999 0.013741221142900001 0.97895118785450008 -0.066084050259099983 -0.38615929838849999 0.0065077859060800004 2.0323408877050002
decision_type=2 2 2 2 2 2 2 2
left_child=1 -1 -3 -4 -5 -2 -7 -8
right_child=5 2 3 4 -6 6 7 -9
leaf_value=-0.082197511788809852 0 -0 -0 0 0.17283476749332619 0 -0 -0.14589894585524479
leaf_count=54 26 22 22 13 81 26 15 23
internal_value=0 0.0673153 0.204073 0.318007 0.413086 -0.0889791 -0.180345 -0.3496
internal_count=282 192 138 116 94 90 64 38
shrinkage=0.343541


Tree=45
num_leaves=9
num_cat=0
split_feature=2 31 25 3 28 17 7 22
split_gain=0.000851697 0.00182633 0.00168533 0.00363032 0.00238097 0.000682244 0.000582548 0.000483891
threshold=0.020241535853700005 1.4308013701250002 1.0774347170650003 0.11309375677450001 1.8367685999250003 -0.53052819555699993 -0.29756114616399992 1.3157576232050003
decision_type=2 2 2 2 2 2 2 2
left_child=1 6 5 4 -4 -2 -1 -8
right_child=2 -3 3 -5 -6 -7 7 -9
leaf_value=0.019836477087777842 0.066948028019451503 0.10696023903320516 -0.18594958905403347 0 0 -0 0 -0.079263294794374523
leaf_count=27 32 31 62 15 23 60 13 19
internal_value=0 0.0720428 -0.0879587 -0.224777 -0.400367 0 -0 -0.139131
internal_count=282 90 192 100 85 92 59 32
shrinkage=0.343541


Tree=46
num_leaves=10
num_cat=0
split_feature=32 24 13 29 10 11 12 8 13
split_gain=0.000432807 0.00184471 0.00130545 0.00259892 0.00233981 0.00227131 0.0022994 0.000237579 3.65924e-05
threshold=1.6958886277250003 2.7141291895400004 -0.18521355111749996 2.5077318986850003 -0.12890852370749997 0.10206501460000002 0.25293031053500009 0.22256490326650002 -0.28680177459849993
decision_type=2 2 2 2 2 2 2 2 2
left_child=2 -2 3 4 8 6 -4 -7 -1
right_child=1 -3 5 -5 -6 7 -8 -9 -10
leaf_value=-0 -0.1246359187392746 0 -0.00089685395204229361 -0 0.18376186219694671 -0 0.12456195237932831 -0.13407270445030328 0.015764721919396069
leaf_count=12 20 25 23 18 31 33 37 50 33
internal_value=0 -0.113818 0.031372 0.163592 0.302142 -0.0124077 0.054398 -0.304886 0
internal_count=282 45 237 94 76 143 60 83 45
shrinkage=0.343541


Tree=47
num_leaves=10
num_cat=0
split_feature=24 28 27 19 0 28 0 32 32
split_gain=0.000367779 0.00145956 0.00272921 0.00240904 0.00120526 0.00114366 0.000295304 0.000273596 5.43846e-09
threshold=2.4647575368850005 1.2048314877100001 2.6640227708600004 1.0000000180025095e-35 0.32746555748950007 1.7251124355 0.3790981738255001 1.5527845462850001 1.6280787573000002
decision_type=2 2 2 2 2 2 2 2 2
left_child=1 -1 3 -3 -5 8 -4 -7 -2
right_child=5 2 6 4 -6 7 -8 -9 -10
leaf_value=0.02809356373672367 0 0 0.04825630961793604 -0.19763961209947331 -0 0 -0 0.10975541314284204 -0.00021799211942680535
leaf_count=30 30 45 26 39 11 29 14 44 14
internal_value=0 -0.055185 -0.155527 -0.304927 -0.45823 0.0580421 0 0.233011 -0
internal_count=282 165 135 95 50 117 40 73 44
shrinkage=0.343541


Tree=48
num_leaves=9
num_cat=0
split_feature=29 17 23 25 23 25 39 27
split_gain=0.000193885 0.000621332 0.00194055 0.0020829 0.00192317 0.0014958 0.00040719 0.000103231
threshold=2.5927142864450006 -0.26175399110449993 1.8997411203800003 1.0774347170650003 2.4302640575350005 1.2459277628950003 1.4160066241950002 2.2041620714750008
decision_type=2 2 2 2 2 2 2 2
left_child=1 2 3 -1 5 -4 -3 -8
right_child=-2 6 4 -5 -6 -7 7 -9
leaf_value=0.012654801588638052 -0.039988697581403783 0 0.13384751683535234 -0.1263975777805163 -0 -0 -0.070697696030342816 -0
leaf_count=25 27 34 108 14 14 21 25 14
internal_value=0 0.0132257 0.0913628 -0.0123478 0.214104 0.309427 -0.0232579 -0.146625
internal_count=282 255 182 39 143 129 73 39
shrinkage=0.343541


Tree=49
num_leaves=7
num_cat=0
split_feature=4 28 24 27 26 28
split_gain=0.000352791 0.000974773 0.00196903 0.00308806 0.00112523 0.000230106
threshold=0.13358614366800001 1.2048314877100001 2.4647575368850005 2.7383383632300005 1.9786764139050004 1.7251124355
decision_type=2 2 2 2 2 2
left_child=1 -1 3 4 -3 -4
right_child=-2 2 5 -5 -6 -7
leaf_value=0.015893117950568112 0.034758449111348309 -0.16562600139886438 -0 0 -0 0.03685321155673036
leaf_count=29 40 62 38 30 25 58
internal_value=0 -0.046195 -0.117334 -0.24087 -0.393669 0
internal_count=282 242 213 117 87 96
shrinkage=0.343541


Tree=50
num_leaves=8
num_cat=0
split_feature=32 22 32 8 4 36 30
split_gain=0.000143694 0.000733836 0.00167677 0.00125259 0.000252953 0.000238153 0.000153188
threshold=1.6958886277250003 1.4876973493500001 1.3749751297600001 0.19853272671100003 -0.18923678322399998 1.0052040807350002 1.8433009105050002
decision_type=2 2 2 2 2 2 2
left_child=1 2 -1 -4 -2 -3 -5
right_child=4 5 3 6 -6 -7 -8
leaf_value=-0 -0.052954838675113275 -0.039370737664675033 0.1442626698363639 0.032805626968934631 0 0 -0.0041383953812682873
leaf_count=35 21 50 45 51 24 21 35
internal_value=0 0.0232999 0.117177 0.23989 -0.0669784 -0 0
internal_count=282 237 166 131 45 71 86
shrinkage=0.343541


Tree=51
num_leaves=7
num_cat=0
split_feature=2 33 5 30 9 8
split_gain=0.000135186 0.000942335 0.000713049 0.000642728 0.000333822 0.000146995
threshold=0.020241535853700005 2.0122009931900005 0.14197194622700002 1.8433009105050002 0.063289280205900009 0.22256490326650002
decision_type=2 2 2 2 2 2
left_child=3 2 -2 -1 -3 -5
right_child=1 4 -4 5 -6 -7
leaf_value=0.067856572722460332 0 0.041358177229773294 -0.098400337819826905 0 -0 -0.030598330562442631
leaf_count=34 36 68 59 28 29 28
internal_value=0 -0.0416522 -0.188561 0.0288009 0 -0
internal_count=282 192 95 90 97 56
shrinkage=0.343541


Tree=52
num_leaves=7
num_cat=0
split_feature=4 12 13 29 23 5
split_gain=7.5903e-05 0.000973074 0.000736939 0.000547829 0.00206065 0.000171793
threshold=1.0000000180025095e-35 0.22730216919950003 -0.17373259392649998 2.4713398502850006 2.1292332873450004 0.09351862412670002
decision_type=2 2 2 2 2 2
left_child=2 -2 3 4 -1 -4
right_child=1 -3 5 -5 -6 -7
leaf_value=-0 -0 0.07645470158448793 -0 -0.024984739284821485 0.12374205255069287 -0.078922947451259329
leaf_count=36 23 68 26 35 38 56
internal_value=0 0.0356038 -0.0238089 0 0.111518 -0.171281
internal_count=282 91 191 109 74 82
shrinkage=0.343541


Tree=53
num_leaves=8
num_cat=0
split_feature=39 3 19 12 20 31 10
split_gain=9.96154e-05 0.000720625 0.00103348 0.00209076 0.000452672 0.000263265 1.56536e-05
threshold=1.5408494806350002 0.088922698344800002 0.19808418584550003 0.2614982540475001 0.97895118785450008 1.3280410452750002 -0.086286614386649987
decision_type=2 2 2 2 2 2 2
left_child=4 2 3 6 -1 -6 -2
right_child=1 -3 -4 -5 5 -7 -8
leaf_value=-0 -0.14628405177775286 0 0 0 0.074278361310470484 0 -0
leaf_count=50 44 27 29 30 36 34 32
internal_value=0 -0.0399018 -0.129731 -0.214356 0.00637294 0.131922 -0.350254
internal_count=282 162 135 106 120 70 76
shrinkage=0.343541


Tree=54
num_leaves=6
num_cat=0
split_feature=25 28 32 13 7
split_gain=1.41495e-05 0.0012205 0.000584175 0.00052008 1.13865e-05
threshold=1.1288378333350002 1.6436340745100002 1.4164241389200003 -0.15873998004299997 -0.34705453297099992
decision_type=2 2 2 2 2
left_child=1 3 -2 -1 -4
right_child=2 -3 4 -5 -6
leaf_value=0 0 0.07882383173549698 -0 -0.059464012189181077 -0.056326308265051792
leaf_count=48 23 98 28 46 39
internal_value=0 0.00146001 -0.019059 -0.0102499 -0.140364
internal_count=282 192 90 94 67
shrinkage=0.343541


Tree=55
num_leaves=7
num_cat=0
split_feature=9 13 13 11 7 13
split_gain=4.28484e-05 0.000279633 0.00105828 0.000184422 0.000520869 3.28907e-07
threshold=0.086835543296250012 -0.28680177459849993 -0.15873998004299997 0.10206501460000002 -0.28705237630999997 -0.34792742187749998
decision_type=2 2 2 2 2 2
left_child=1 5 -3 4 -4 -1
right_child=-2 2 3 -5 -6 -7
leaf_value=0 -0.015824515887154483 0.078595647459462903 0.060993457591530256 -0.038839764258131022 -0 -0.0015689280230871063
leaf_count=17 57 69 34 59 27 19
internal_value=0 0.00701826 0.0715321 -0 0 -0
internal_count=282 225 189 120 61 36
shrinkage=0.343541


Tree=56
num_leaves=6
num_cat=0
split_feature=4 28 39 36 12
split_gain=6.1439e-05 0.000599964 0.00106861 0.000807298 0.00126248
threshold=0.13358614366800001 1.2048314877100001 1.3520346393700002 1.1205236736950004 0.2614982540475001
decision_type=2 2 2 2 2
left_child=1 -1 -3 4 -4
right_child=-2 2 3 -5 -6
leaf_value=0 0.0029671452212561311 0 -0.11085855687968907 0 0
leaf_count=29 40 47 96 25 45
internal_value=0 -0.0280363 -0.0978139 -0.168408 -0.225359
internal_count=282 242 213 166 141
shrinkage=0.343541


Tree=57
num_leaves=7
num_cat=0
split_feature=7 25 5 9 29 30
split_gain=3.17199e-05 0.000752413 0.00109826 0.00100819 0.000124189 0.000119785
threshold=-0.36334127774899994 1.1288378333350002 0.013741221142900001 -0.034864864106699991 2.1979151932600005 1.8433009105050002
decision_type=2 2 2 2 2 2
left_child=4 2 -2 -4 -1 -3
right_child=1 5 3 -5 -6 -7
leaf_value=-0.031691196415149142 -0 0 -0 0.11294831358327392 0 -0.026531235733229085
leaf_count=67 21 25 25 79 32 33
internal_value=0 0.021642 0.136515 0.233841 -0.00436263 -0
internal_count=282 183 125 104 99 58
shrinkage=0.343541


Tree=58
num_leaves=6
num_cat=0
split_feature=9 13 13 4 39
split_gain=5.33736e-06 0.00023093 0.000700543 3.40291e-05 1.80201e-07
threshold=0.086835543296250012 -0.27070163702549993 -0.15873998004299997 -0.015880967141449997 1.7250984091900003
decision_type=2 2 2 2 2
left_child=1 4 -3 -4 -1
right_child=-2 2 3 -5 -6
leaf_value=0 -0.0059923199753874855 0.071619186258543285 -0.014614649329980514 0 -0.00116091680065942
leaf_count=18 57 62 52 68 25
internal_value=0 0 0.068566 -0 -0
internal_count=282 225 182 120 43
shrinkage=0.343541


Tree=59
num_leaves=6
num_cat=0
split_feature=4 3 39 13 39
split_gain=1.39931e-05 0.000356573 0.000792643 0.000535696 0.000201181
threshold=0.13358614366800001 0.088922698344800002 1.3520346393700002 -0.32868085478699999 1.895409535795
decision_type=2 2 2 2 2
left_child=1 2 -1 -4 -5
right_child=-2 -3 3 4 -6
leaf_value=0 0 0 0 -0.081768435203871295 -0
leaf_count=45 40 32 23 112 30
internal_value=0 -0.0138332 -0.0792476 -0.15022 -0.200419
internal_count=282 242 210 165 142
shrinkage=0.343541


Tree=60
num_leaves=6
num_cat=0
split_feature=39 0 4 31 31
split_gain=2.24406e-05 0.00049258 0.000481676 0.000763838 0.000303216
threshold=1.7250984091900003 0.088860547719950014 -0.35873329675099991 1.5573020024700004 1.5030969463250001
decision_type=2 2 2 2 2
left_child=1 -1 -3 -4 -2
right_child=4 2 3 -5 -6
leaf_value=-0 -0.044922835690702843 -0 0.088003806617220154 -0 0
leaf_count=62 35 17 85 19 64
internal_value=0 0.0212278 0.110197 0.168147 -0
internal_count=282 183 121 104 99
shrinkage=0.343541



feature importances:
pse_pssm_0=42
pse_pssm_7=40
pse_pssm_4=37
pse_pssm_1=32
pse_pssm_3=28
pse_pssm_9=28
pse_pssm_12=26
pse_pssm_30=25
pse_pssm_28=25
pse_pssm_20=24
pse_pssm_13=24
pse_pssm_5=24
pse_pssm_24=23
pse_pssm_11=20
pse_pssm_2=20
pse_pssm_25=20
pse_pssm_29=19
pse_pssm_34=18
pse_pssm_17=17
pse_pssm_32=17
pse_pssm_23=17
pse_pssm_38=16
pse_pssm_14=16
pse_pssm_36=15
pse_pssm_21=15
pse_pssm_39=14
pse_pssm_27=13
pse_pssm_6=13
pse_pssm_31=13
pse_pssm_22=12
pse_pssm_10=11
pse_pssm_26=10
pse_pssm_18=10
pse_pssm_35=10
pse_pssm_8=9
pse_pssm_19=8
pse_pssm_33=8
pse_pssm_16=8
pse_pssm_15=5
pse_pssm_37=5
