tree
version=v2
num_class=1
num_tree_per_iteration=1
label_index=0
max_feature_idx=342
objective=binary sigmoid:1
feature_names=V1 V2 V3 V4 V5 V6 V7 V8 V9 V10 V11 V12 V13 V14 V15 V16 V17 V18 V19 V20 V21 V22 V23 V24 V25 V26 V27 V28 V29 V30 V31 V32 V33 V34 V35 V36 V37 V38 V39 V40 V41 V42 V43 V44 V45 V46 V47 V48 V49 V50 V51 V52 V53 V54 V55 V56 V57 V58 V59 V60 V61 V62 V63 V64 V65 V66 V67 V68 V69 V70 V71 V72 V73 V74 V75 V76 V77 V78 V79 V80 V81 V82 V83 V84 V85 V86 V87 V88 V89 V90 V91 V92 V93 V94 V95 V96 V97 V98 V99 V100 V101 V102 V103 V104 V105 V106 V107 V108 V109 V110 V111 V112 V113 V114 V115 V116 V117 V118 V119 V120 V121 V122 V123 V124 V125 V126 V127 V128 V129 V130 V131 V132 V133 V134 V135 V136 V137 V138 V139 V140 V141 V142 V143 V144 V145 V146 V147 V148 V149 V150 V151 V152 V153 V154 V155 V156 V157 V158 V159 V160 V161 V162 V163 V164 V165 V166 V167 V168 V169 V170 V171 V172 V173 V174 V175 V176 V177 V178 V179 V180 V181 V182 V183 V184 V185 V186 V187 V188 V189 V190 V191 V192 V193 V194 V195 V196 V197 V198 V199 V200 V201 V202 V203 V204 V205 V206 V207 V208 V209 V210 V211 V212 V213 V214 V215 V216 V217 V218 V219 V220 V221 V222 V223 V224 V225 V226 V227 V228 V229 V230 V231 V232 V233 V234 V235 V236 V237 V238 V239 V240 V241 V242 V243 V244 V245 V246 V247 V248 V249 V250 V251 V252 V253 V254 V255 V256 V257 V258 V259 V260 V261 V262 V263 V264 V265 V266 V267 V268 V269 V270 V271 V272 V273 V274 V275 V276 V277 V278 V279 V280 V281 V282 V283 V284 V285 V286 V287 V288 V289 V290 V291 V292 V293 V294 V295 V296 V297 V298 V299 V300 V301 V302 V303 V304 V305 V306 V307 V308 V309 V310 V311 V312 V313 V314 V315 V316 V317 V318 V319 V320 V321 V322 V323 V324 V325 V326 V327 V328 V329 V330 V331 V332 V333 V334 V335 V336 V337 V338 V339 V340 V341 V342 V343
feature_infos=[0:1] [0:1] [0:1] [0:1] [0:1] [0:1] [0:0.25] [0:1] [0:1] [0:1] [0:1] [0:0.88888888888888895] [0:1] none [0:1] [0:1] [0:1] [0:0.66666666666666696] [0:1] [0:0.90000000000000002] none [0:1] [0:1] [0:1] [0:0.80000000000000004] [0:0.66666666666666696] [0:0.75] none [0:1] [0:1] [0:0.71428571428571397] [0:0.66666666666666696] [0:0.9375] [0:0.83333333333333304] none [0:1] [0:1] [0:0.69999999999999996] [0:0.625] [0:0.88888888888888895] [0:1] none none none none none none none none [0:1] [0:1] [0:1] [0:1] [0:1] [0:1] none [0:1] [0:1] [0:1] [0:1] [0:1] [0:1] none [0:1] [0:1] [0:1] [0:0.875] [0:1] [0:0.875] none [0:1] [0:1] [0:0.90000000000000002] [0:0.80000000000000004] [0:0.90909090909090895] [0:1] none [0:1] [0:1] [0:0.66666666666666696] [0:0.75] [0:0.875] [0:1] none [0:1] [0:1] [0:1] [0:0.88888888888888895] [0:1] [0:1] none none none none none none none none [0:1] [0:1] [0:1] [0:1] [0:0.66666666666666696] [0:1] none [0:1] [0:1] [0:1] [0:1] [0:0.80000000000000004] [0:1] none [0:1] [0:1] [0:1] [0:0.57142857142857095] [0:0.80000000000000004] [0:0.75] none [0:1] [0:0.75] [0:0.88888888888888895] [0:1] [0:0.5] [0:0.57142857142857095] none [0:0.69999999999999996] [0:1] [0:0.59999999999999998] [0:0.57142857142857095] [0:0.5] [0:1] none [0:1] [0:1] [0:0.66666666666666696] [0:0.38888888888888901] [0:0.66666666666666696] [0:1] none none none none none none none none [0:0.80000000000000004] [0:0.90909090909090895] [0:0.75] [0:0.66666666666666696] [0:0.80000000000000004] [0:0.66666666666666696] none [0:1] [0:1] [0:1] [0:0.75] [0:0.71428571428571397] [0:0.66666666666666696] none [0:0.75] [0:1] [0:0.71428571428571397] [0:0.55555555555555602] [0:0.71428571428571397] [0:0.66666666666666696] none [0:0.80000000000000004] [0:1] [0:0.80000000000000004] [0:1] [0:0.5] [0:0.42857142857142899] none [0:0.66666666666666696] [0:0.80000000000000004] [0:0.57142857142857095] [0:0.40000000000000002] [0:1] [0:0.5] none [0:0.75] [0:1] [0:0.66666666666666696] [0:0.55555555555555602] [0:0.59999999999999998] [0:0.625] none none none none none none none none [0:1] [0:1] [0:1] [0:1] [0:0.76923076923076905] [0:1] none [0:1] [0:1] [0:1] [0:0.71428571428571397] [0:1] [0:1] none [0:0.66666666666666696] [0:1] [0:0.55555555555555602] [0:0.5] [0:0.5] [0:0.66666666666666696] none [0:1] [0:0.66666666666666696] [0:0.66666666666666696] [0:0.47999999999999998] [0:0.66666666666666696] [0:0.5] none [0:1] [0:0.625] [0:0.83333333333333304] [0:0.5] [0:0.80000000000000004] [0:0.75] none [0:1] [0:1] [0:1] [0:0.5] [0:0.66666666666666696] [0:0.66666666666666696] none none none none none none none none [0:1] [0:1] [0:0.78571428571428603] [0:1] [0:0.59999999999999998] [0:1] none [0:1] [0:1] [0:1] [0:0.83333333333333304] [0:0.88888888888888895] [0:1] none [0:0.71428571428571397] [0:1] [0:1] [0:0.42857142857142899] [0:0.66666666666666696] [0:0.66666666666666696] none [0:0.66666666666666696] [0:0.77777777777777801] [0:0.66666666666666696] [0:0.59999999999999998] [0:0.5] [0:0.66666666666666696] none [0:0.90000000000000002] [0:1] [0:0.83333333333333304] [0:0.66666666666666696] [0:0.59999999999999998] [0:0.57142857142857095] none [0:0.77777777777777801] [0:0.91666666666666696] [0:0.85714285714285698] [0:0.66666666666666696] [0:0.5] [0:0.92307692307692302] none none none none none none none none none none none none none none none none [0:0.40000000000000002] [0:0.33333333333333298] none none [0:0.28571428571428598] none none none none none none none none none none none none none none none none none none none none none none none none none none none none none none none none none none none none
tree_sizes=634 645 638 639 647 622 567 646 642 572 571 645 626 570 648 646 568 651 646 570 573 563 649 569 651 650 572 572 648 649 730 579 635 576 650 571 651 713 654 574 576 575 651 656 579 573 656 653 656 733 735 652 574 655 562 656 739 578 660 659 635 586 562 591 563 582 643 643 582 637 550 562 566 652 508 663 546 548 607 566 626 504 551 551 578 620 619 612 532 550 606 469 471 549 531 574 613 605 563 475 479 455 456 531 538 537 534 539 536 476 547 458 455 517 533 536 523 530 462 449 533 513 539 456 537 461 516 445 523 515 512 511 385 384 384 383

Tree=0
num_leaves=7
num_cat=0
split_feature=78 0 80 205 131 151
split_gain=60.1854 30.874 15.8314 9.58547 4.26565 2.54067
threshold=0.27922077922077954 0.27922077922077954 0.20714285714285705 0.21825396825396801 0.11437908496732001 0.10555555555555551
decision_type=2 2 2 2 2 2
left_child=1 -1 -2 4 5 -3
right_child=2 3 -4 -5 -6 -7
leaf_value=-0.25386769298030426 -0.1161441267810663 0.52298704026496556 -0.52306476414320857 0.04734393122665452 0.2151763575843566 0.32668106363975524
leaf_count=35 54 43 51 33 34 32
internal_value=0 0.711606 -1.19944 1.12636 1.41225 1.67903
internal_count=282 177 105 142 109 75
shrinkage=0.261741


Tree=1
num_leaves=7
num_cat=0
split_feature=80 106 2 101 81 122
split_gain=39.9761 17.8875 23.3242 12.5623 5.33536 2.83086
threshold=0.084219858156028365 0.4083333333333336 0.29814814814814805 1.0000000180025095e-35 0.14835164835164852 0.095454545454545472
decision_type=2 2 2 2 2 2
left_child=3 2 -2 -1 -5 -3
right_child=1 5 -4 4 -6 -7
leaf_value=-0.033734579592470275 -0.2783360394802975 -0.25364468664285489 0.26936863022248414 0.44070593140083875 0.16715664399109798 -0.46734733670307599
leaf_count=36 46 32 42 54 32 40
internal_value=0 -0.670162 -0.0560031 0.871087 1.29273 -1.42305
internal_count=282 160 88 122 86 72
shrinkage=0.261741


Tree=2
num_leaves=7
num_cat=0
split_feature=81 127 0 157 259 103
split_gain=31.6056 20.8319 16.488 5.35347 5.36021 0.949125
threshold=0.25543478260869557 0.37980769230769257 0.25543478260869557 0.1742424242424245 0.15587044534412953 0.27922077922077954
decision_type=2 2 2 2 2 2
left_child=1 2 -1 4 -4 -6
right_child=-2 -3 3 -5 5 -7
leaf_value=-0.13080449322392859 -0.36619083073887526 -0.30809052055685465 0.15179433517141158 0.053742369482400791 0.32481270577198096 0.45328157999630231
leaf_count=44 57 33 44 33 33 38
internal_value=0 0.346601 0.60879 0.942937 1.15559 1.50778
internal_count=282 225 192 148 115 71
shrinkage=0.261741


Tree=3
num_leaves=7
num_cat=0
split_feature=79 73 5 199 53 263
split_gain=20.269 12.9608 12.3705 7.10402 3.37227 2.52916
threshold=0.14835164835164852 0.18465909090909102 0.34313725490196051 0.12771739130434803 0.25265957446808507 0.10555555555555551
decision_type=2 2 2 2 2 2
left_child=1 3 5 4 -1 -2
right_child=2 -3 -4 -5 -6 -7
leaf_value=0.19402382020078837 -0.20783521474671834 -0.098313227994942548 0.060574592341766001 0.031773526620387703 0.43674235892634805 -0.41830864971430981
leaf_count=32 34 56 42 36 42 40
internal_value=0 0.482425 -0.689113 0.903111 1.2809 -1.22428
internal_count=282 166 116 110 74 74
shrinkage=0.261741


Tree=4
num_leaves=7
num_cat=0
split_feature=147 60 100 0 169 123
split_gain=17.7592 14.1492 7.82763 6.45299 6.11891 0.653968
threshold=0.28285714285714308 0.19375000000000003 0.30384615384615404 0.57738095238095211 0.074175824175824162 0.095454545454545472
decision_type=2 2 2 2 2 2
left_child=1 4 -2 5 -1 -3
right_child=2 3 -4 -5 -6 -7
leaf_value=0.26103337546035277 0.32385977545149847 -0.28228092840912511 -0.010581324637909142 -0.030808472221187388 -0.067003078560686796 -0.39349243079286472
leaf_count=35 61 39 37 32 40 38
internal_value=0 -0.40746 0.752454 -0.92603 0.317828 -1.29058
internal_count=282 184 98 109 75 77
shrinkage=0.261741


Tree=5
num_leaves=7
num_cat=0
split_feature=106 80 147 204 212 49
split_gain=14.1135 10.1375 8.24441 6.67171 5.34184 1.49687
threshold=0.4083333333333336 0.22875816993464052 0.25462962962962959 0.14550264550264552 0.10263157894736852 0.45804195804195852
decision_type=2 2 2 2 2 2
left_child=1 2 3 -1 -2 -4
right_child=4 -3 5 -5 -6 -7
leaf_value=0.20130363323325959 -0 -0.23200939192723596 0.20955280718483277 -0.11393408132518608 -0.30756375197507618 0.38809219475504891
leaf_count=42 32 34 32 45 60 37
internal_value=0 0.342219 0.563571 0.131752 -0.759054 1.16865
internal_count=282 190 156 87 92 69
shrinkage=0.261741


Tree=6
num_leaves=6
num_cat=0
split_feature=81 2 116 266 113
split_gain=13.1531 7.7771 6.76194 5.59888 1.40609
threshold=0.27922077922077954 0.17156862745098053 0.16843971631205704 0.095454545454545472 0.20638297872340453
decision_type=2 2 2 2 2
left_child=1 -1 3 -3 -5
right_child=-2 2 -4 4 -6
leaf_value=-0.14620577953601538 -0.29330678549477401 0.036790410233181178 -0.071009381611150488 0.37091387710824159 0.20189872400614836
leaf_count=55 53 48 47 47 32
internal_value=0 0.233239 0.469215 0.753753 1.14839
internal_count=282 229 174 127 79
shrinkage=0.261741


Tree=7
num_leaves=7
num_cat=0
split_feature=205 7 207 60 211 218
split_gain=9.95042 9.45268 6.98638 5.08042 3.70314 3.47848
threshold=0.43650793650793657 0.36602870813397154 0.095454545454545472 0.19375000000000003 0.13392857142857154 0.10555555555555551
decision_type=2 2 2 2 2 2
left_child=1 5 4 -4 -3 -1
right_child=-2 2 3 -5 -6 -7
leaf_value=-0.028768943935164663 -0.31736976414183987 0.35356478189482837 0.18494647894906105 -0.12943376405977533 0.091227627501748149 -0.32287647305140521
leaf_count=33 39 56 34 53 35 32
internal_value=0 0.175755 0.467884 -0.0227258 0.941091 -0.608554
internal_count=282 243 178 87 91 65
shrinkage=0.261741


Tree=8
num_leaves=7
num_cat=0
split_feature=81 147 155 7 89 212
split_gain=8.15134 8.39165 6.59862 6.15737 3.54989 3.34132
threshold=0.30384615384615404 0.28285714285714308 0.25833333333333358 0.40588235294117653 0.12916666666666651 0.11437908496732001
decision_type=2 2 2 2 2 2
left_child=1 2 3 -1 -5 -3
right_child=-2 5 -4 4 -6 -7
leaf_value=-0.17548827005368531 -0.30323631380588123 0.34636483736471518 -0.24783378597315192 0.30403481061838095 0.014499327934624896 0.082193652623183427
leaf_count=34 42 46 53 34 33 40
internal_value=0 0.163704 -0.174337 0.164394 0.585362 0.810401
internal_count=282 240 154 101 67 86
shrinkage=0.261741


Tree=9
num_leaves=6
num_cat=0
split_feature=127 7 280 130 89
split_gain=5.81078 5.52415 5.87498 8.77127 5.16333
threshold=0.4083333333333336 0.62828947368421062 0.064583333333333368 1.0000000180025095e-35 0.27922077922077954
decision_type=2 2 2 2 2
left_child=1 2 -1 -4 -3
right_child=-2 4 3 -5 -6
leaf_value=-0.29399996372328946 -0.29078732078086728 0.28604726851023371 0.21706959377180299 -0.16712881720711031 -0.036471172844996229
leaf_count=33 38 63 53 59 36
internal_value=0 0.135451 -0.186386 0.106695 0.616209
internal_count=282 244 145 112 99
shrinkage=0.261741


Tree=10
num_leaves=6
num_cat=0
split_feature=172 147 106 266 106
split_gain=5.41114 5.81689 5.04287 2.93927 2.41467
threshold=0.14835164835164852 0.25462962962962959 0.14835164835164852 0.10555555555555551 0.30384615384615404
decision_type=2 2 2 2 2
left_child=1 2 -1 -4 -3
right_child=-2 4 3 -5 -6
leaf_value=0.16300134238538291 -0.21290780069916443 0.32290292655360803 -0.2351445088039901 0.011884063855816463 0.07784183739846591
leaf_count=39 50 48 56 49 40
internal_value=0 0.184013 -0.147521 -0.486977 0.761632
internal_count=282 232 144 105 88
shrinkage=0.261741


Tree=11
num_leaves=7
num_cat=0
split_feature=81 101 106 7 183 66
split_gain=4.43422 4.85576 4.61584 2.67201 1.9026 0.718927
threshold=0.30384615384615404 1.0000000180025095e-35 0.4083333333333336 0.40588235294117653 0.12632978723404253 0.12916666666666651
decision_type=2 2 2 2 2 2
left_child=1 4 3 -3 -1 -5
right_child=-2 2 -4 5 -6 -7
leaf_value=-0.0076548720146834611 -0.26065257103420675 0.02156432396042687 -0.078532990365300162 0.32414648140743785 -0.24183123421042577 0.18135631936021585
leaf_count=32 42 35 52 52 32 37
internal_value=0 0.134441 0.401122 0.711042 -0.457146 1.0005
internal_count=282 240 176 124 64 89
shrinkage=0.261741


Tree=12
num_leaves=7
num_cat=0
split_feature=78 252 79 70 58 159
split_gain=4.39014 4.23094 4.64634 3.27977 3.45701 2.81263
threshold=0.44949494949494956 0.68333333333333357 0.13809523809523802 0.25833333333333358 0.21825396825396801 0.11805555555555551
decision_type=2 2 2 2 2 2
left_child=1 2 3 4 -1 -4
right_child=-2 -3 5 -5 -6 -7
leaf_value=0.16555305922437444 -0.27605757707374462 0.24242591918474807 0 0.24644771093051451 -0.16750029522687773 -0.28508834159841961
leaf_count=37 40 37 37 48 38 45
internal_value=0 0.136147 -0.0491792 0.320017 -0.060013 -0.587278
internal_count=282 242 205 123 75 82
shrinkage=0.261741


Tree=13
num_leaves=6
num_cat=0
split_feature=49 107 106 2 226
split_gain=3.91236 3.76443 3.43078 2.83134 2.8166
threshold=0.80909090909090919 0.29285714285714304 0.19375000000000003 0.28174603174603202 0.080128205128205107
decision_type=2 2 2 2 2
left_child=1 2 -1 -3 -4
right_child=-2 3 4 -5 -6
leaf_value=0.20105572011318912 0.23131818464500248 -0.33895469244016158 0.069633143587700189 -0.05255176004153464 -0.21622291367729271
leaf_count=60 33 43 53 55 38
internal_value=0 -0.144035 0.164927 -0.621199 -0.201945
internal_count=282 249 151 98 91
shrinkage=0.261741


Tree=14
num_leaves=7
num_cat=0
split_feature=147 207 208 183 98 285
split_gain=3.11688 2.9356 3.31697 2.33084 1.81634 0.849257
threshold=0.28285714285714308 0.095454545454545472 0.15894736842105253 0.12632978723404253 0.36181818181818204 0.081666666666666665
decision_type=2 2 2 2 2 2
left_child=1 2 -1 -2 5 -3
right_child=3 4 -4 -5 -6 -7
leaf_value=0.18866921678952603 0.28039760158647847 -0.35584238989215122 -0.12559959074903804 0.014708325994748209 -0.031559070210666063 -0.14070290542103864
leaf_count=45 46 33 36 52 32 38
internal_value=0 -0.237201 0.161045 0.470264 -0.635943 -1.0193
internal_count=282 184 81 98 103 71
shrinkage=0.261741


Tree=15
num_leaves=7
num_cat=0
split_feature=80 147 9 253 50 225
split_gain=3.141 3.19461 3.05288 1.79986 1.76935 1.15266
threshold=0.20714285714285705 0.28285714285714308 0.18350168350168353 0.40588235294117653 0.40588235294117653 0.095454545454545472
decision_type=2 2 2 2 2 2
left_child=1 2 -1 -2 -4 -3
right_child=3 5 4 -5 -6 -7
leaf_value=0.1407764727863387 0.00030657985622604413 0.32453325671442784 -0.23159286770410462 -0.30305995085650023 -0.00062929044874997177 0.10099894691602933
leaf_count=41 33 34 38 46 48 42
internal_value=0 0.18033 -0.0854969 -0.671395 -0.431046 0.761295
internal_count=282 203 127 79 86 76
shrinkage=0.261741


Tree=16
num_leaves=6
num_cat=0
split_feature=73 80 147 207 5
split_gain=2.61636 2.21197 2.20212 2.0844 0.426249
threshold=0.29285714285714304 0.20714285714285705 0.28285714285714308 0.095454545454545472 0.37980769230769257
decision_type=2 2 2 2 2
left_child=1 2 3 -1 -4
right_child=-2 -3 4 -5 -6
leaf_value=0.12493896826161389 -0.18410521572705274 -0.14446646095784363 0.14956948637385678 -0.09711228066182323 0.30829672100589556
leaf_count=58 59 51 33 47 34
internal_value=0 0.153226 0.309838 0.0731443 0.878702
internal_count=282 223 172 105 67
shrinkage=0.261741


Tree=17
num_leaves=7
num_cat=0
split_feature=81 101 80 169 266 70
split_gain=2.43263 2.27514 3.22524 2.02123 1.36314 0.331517
threshold=0.30384615384615404 1.0000000180025095e-35 0.084219858156028365 0.12916666666666651 0.087121212121212113 0.27922077922077954
decision_type=2 2 2 2 2 2
left_child=1 4 5 -4 -1 -3
right_child=-2 2 3 -5 -6 -7
leaf_value=-0.19293644047778744 -0.24859423958307275 0.30919157129448416 0.10409033246801197 -0.15334785432563552 0.043414318095563072 0.17237494198352207
leaf_count=32 42 41 52 48 32 35
internal_value=0 0.114383 0.349196 -0.0317817 -0.356687 0.964401
internal_count=282 240 176 100 64 76
shrinkage=0.261741


Tree=18
num_leaves=7
num_cat=0
split_feature=49 79 199 198 51 204
split_gain=2.19693 3.02758 2.61181 2.12879 1.12301 0.673465
threshold=0.80909090909090919 0.14835164835164852 0.1742424242424245 0.10555555555555551 0.43650793650793657 0.14550264550264552
decision_type=2 2 2 2 2 2
left_child=1 2 3 -1 -3 -5
right_child=-2 4 -4 5 -6 -7
leaf_value=-0.057903174740481587 0.20660697658256183 -0.082456937788463122 -0.16144091257643692 0.30284265224706919 -0.29781138004293234 0.11623488104505046
leaf_count=42 33 61 38 40 36 32
internal_value=0 -0.126891 0.193712 0.479938 -0.644222 0.843667
internal_count=282 249 152 114 97 72
shrinkage=0.261741


Tree=19
num_leaves=6
num_cat=0
split_feature=4 8 148 266 88
split_gain=1.90827 2.10863 1.67483 1.83155 1.40577
threshold=0.16843971631205704 0.60555555555555562 0.34523809523809507 0.087121212121212113 0.14835164835164852
decision_type=2 2 2 2 2
left_child=4 2 3 -2 -1
right_child=1 -3 -4 -5 -6
leaf_value=0.035198449995079921 -0.066302770379528322 0.22618791801087151 -0.1969369668045213 0.18080810697130348 -0.23519568026943116
leaf_count=33 53 44 32 58 62
internal_value=0 0.199601 -0.0229219 0.191993 -0.493804
internal_count=282 187 143 111 95
shrinkage=0.261741


Tree=20
num_leaves=6
num_cat=0
split_feature=205 0 4 130 107
split_gain=1.64711 1.7156 1.65048 1.56355 0.973278
threshold=0.43650793650793657 0.6201923076923076 0.22875816993464052 1.0000000180025095e-35 0.26136363636363652
decision_type=2 2 2 2 2
left_child=1 2 4 -3 -1
right_child=-2 3 -4 -5 -6
leaf_value=-0.042032502168090104 -0.23491247152129074 0.23553110883822767 0.05606837169714772 0.0034141062199555374 -0.29836423742936607
leaf_count=33 39 63 63 48 36
internal_value=0 0.104269 -0.206842 0.437355 -0.664529
internal_count=282 243 132 111 69
shrinkage=0.261741


Tree=21
num_leaves=6
num_cat=0
split_feature=147 81 74 2 254
split_gain=1.48587 1.56271 1.335 1.36899 1.02964
threshold=0.080128205128205107 0.29285714285714304 0.11437908496732001 0.4083333333333336 0.1742424242424245
decision_type=2 2 2 2 2
left_child=-1 2 4 -4 -2
right_child=1 -3 3 -5 -6
leaf_value=-0.14498194042141307 0.01058048894455842 -0.22128986145750548 -0.1290047316178102 0.11878757515809288 0.24171774476061453
leaf_count=58 35 36 47 46 60
internal_value=0 0.158045 0.274775 -0.0507295 0.616199
internal_count=282 224 188 93 95
shrinkage=0.261741


Tree=22
num_leaves=7
num_cat=0
split_feature=79 122 199 226 21 0
split_gain=1.26225 1.33084 1.59048 1.18311 0.450611 0.319921
threshold=0.14835164835164852 0.12916666666666651 0.095454545454545472 0.10263157894736852 0.20526315789473704 0.72077922077922063
decision_type=2 2 2 2 2 2
left_child=1 2 5 4 -2 -1
right_child=3 -3 -4 -5 -6 -7
leaf_value=0.14264894464209926 -0.086926112682603238 -0.11418572887475287 -0.018269346987262094 -0.24114097158443482 0.084400657580331745 0.29476401432868143
leaf_count=32 32 35 61 51 33 38
internal_value=0 0.233907 0.441226 -0.338013 -0.0226891 0.86498
internal_count=282 166 131 116 65 70
shrinkage=0.261741


Tree=23
num_leaves=6
num_cat=0
split_feature=51 53 134 80 159
split_gain=1.14273 1.84034 1.14467 1.03251 0.933031
threshold=0.43650793650793657 0.18350168350168353 0.27922077922077954 0.12916666666666651 0.060661764705882353
decision_type=2 2 2 2 2
left_child=1 -1 -2 4 -3
right_child=2 3 -4 -5 -6
leaf_value=-0.12421249393088703 0.091647771155823579 0.044307623537822659 -0.192555556206778 -0.025820528828221879 0.27372020790553869
leaf_count=56 36 32 51 57 50
internal_value=0 0.187992 -0.40993 0.453798 0.703167
internal_count=282 195 87 139 82
shrinkage=0.261741


Tree=24
num_leaves=7
num_cat=0
split_feature=252 172 106 147 253 10
split_gain=1.06996 1.26614 1.29844 1.16852 1.08283 0.314612
threshold=0.68333333333333357 0.14835164835164852 0.14835164835164852 0.28285714285714308 0.21825396825396801 0.22649572649572652
decision_type=2 2 2 2 2 2
left_child=1 2 -1 4 -4 -6
right_child=-2 -3 3 -5 5 -7
leaf_value=0.17866972768136632 0.14472075793584999 -0.2493182142904071 0.039373044248497475 0.11454967589380767 -0.26421613581928827 -0.096241779588687987
leaf_count=53 44 38 32 48 34 33
internal_value=0 -0.131175 0.00479738 -0.192483 -0.439607 -0.778256
internal_count=282 238 200 147 99 67
shrinkage=0.261741


Tree=25
num_leaves=7
num_cat=0
split_feature=67 252 134 259 80 106
split_gain=1.06154 0.964385 1.00994 1.44901 1.15379 0.529446
threshold=0.41428571428571453 0.6201923076923076 0.37171052631578955 0.15587044534412953 0.095454545454545472 0.23611111111111102
decision_type=2 2 2 2 2 2
left_child=1 2 3 5 -5 -1
right_child=-2 -3 -4 4 -6 -7
leaf_value=0.012498542795735635 -0.22628995983595679 0.16370987793556288 -0.18263271571065329 0.26702384294152237 -0.013805080674615514 -0.19818894002409795
leaf_count=32 45 44 41 47 40 33
internal_value=0 0.0960163 -0.057146 0.113787 0.517301 -0.380944
internal_count=282 237 193 152 87 65
shrinkage=0.261741


Tree=26
num_leaves=6
num_cat=0
split_feature=73 266 38 106 268
split_gain=0.865635 0.768173 1.03669 1.00275 0.239268
threshold=0.29285714285714304 0.087121212121212113 0.10319148936170201 0.36931818181818205 0.074175824175824162
decision_type=2 2 2 2 2
left_child=1 2 -1 4 -3
right_child=-2 3 -4 -5 -6
leaf_value=0.064244395006548952 -0.1564056320732278 0.276866370108104 -0.18463866455493377 -0.026945689231811638 0.12553004485094632
leaf_count=54 59 38 34 54 43
internal_value=0 0.123393 -0.174714 0.379668 0.762013
internal_count=282 223 88 135 81
shrinkage=0.261741


Tree=27
num_leaves=6
num_cat=0
split_feature=7 274 79 266 53
split_gain=0.854219 1.19747 0.921062 0.768436 0.518514
threshold=0.37980769230769257 0.37980769230769257 0.14835164835164852 0.13809523809523802 0.32291666666666657
decision_type=2 2 2 2 2
left_child=3 2 4 -1 -2
right_child=1 -3 -4 -5 -6
leaf_value=-0.21255101517172537 0.069994908688390353 -0.16664862455056409 -0.016353048892833497 0.045290328731192285 0.26840123961698725
leaf_count=51 50 40 60 34 47
internal_value=0 0.18115 0.363417 -0.423561 0.690483
internal_count=282 197 157 85 97
shrinkage=0.261741


Tree=28
num_leaves=7
num_cat=0
split_feature=78 7 259 38 51 40
split_gain=0.819312 0.703353 0.800353 0.799318 0.538568 0.253556
threshold=0.44949494949494956 0.36602870813397154 0.15587044534412953 0.10319148936170201 0.43650793650793657 0.15692307692307703
decision_type=2 2 2 2 2 2
left_child=1 -1 3 -3 5 -4
right_child=-2 2 4 -5 -6 -7
leaf_value=-0.084887274353686953 -0.22739255158085422 0.10025387282158789 0.10347121449495274 -0.18878574876825244 0.0028659217638651959 0.26815079799568919
leaf_count=63 40 32 35 33 37 42
internal_value=0 0.0947379 0.269597 -0.163619 0.540845 0.78616
internal_count=282 242 179 65 114 77
shrinkage=0.261741


Tree=29
num_leaves=7
num_cat=0
split_feature=49 79 151 107 88 253
split_gain=0.722443 0.92491 0.861419 0.56422 0.497101 0.364383
threshold=0.80909090909090919 0.14835164835164852 0.095454545454545472 0.16228070175438603 0.18350168350168353 0.42261904761904806
decision_type=2 2 2 2 2 2
left_child=1 2 3 -1 -4 -3
right_child=-2 5 4 -5 -6 -7
leaf_value=0.24841006658129253 0.16991586847517556 -0.06415292322786105 0.044653468153180255 0.013473365762257309 -0.1975465205464379 -0.24516747813440587
leaf_count=41 33 50 34 42 35 47
internal_value=0 -0.106973 0.156025 0.524754 -0.297376 -0.525796
internal_count=282 249 152 83 69 97
shrinkage=0.261741


Tree=30
num_leaves=8
num_cat=0
split_feature=81 101 80 2 114 260 168
split_gain=0.689314 0.72769 1.07116 0.710379 0.453263 0.370845 0.0736933
threshold=0.30384615384615404 1.0000000180025095e-35 0.084219858156028365 0.44097222222222204 0.15587044534412953 0.1742424242424245 0.059027777777777811
decision_type=2 2 2 2 2 2 2
left_child=1 5 6 4 -4 -1 -3
right_child=-2 2 3 -5 -6 -7 -8
leaf_value=-0.1593354043701401 -0.23640250971639434 0.15485567408895068 0.011083664192654686 0.15505527547586764 -0.22698111794856143 0.024100995757656112 0.27286423609354971
leaf_count=32 42 34 32 36 32 32 42
internal_value=0 0.0893717 0.312373 -0.0303831 -0.370082 -0.300619 0.895311
internal_count=282 240 176 100 64 64 76
shrinkage=0.261741


Tree=31
num_leaves=6
num_cat=0
split_feature=127 147 108 199 201
split_gain=0.573186 0.561362 0.621181 0.500788 0.466817
threshold=0.4083333333333336 0.14589665653495451 0.095454545454545472 0.14550264550264552 0.17708333333333351
decision_type=2 2 2 2 2
left_child=1 2 -1 4 -3
right_child=-2 3 -4 -5 -6
leaf_value=0.084309582130590019 -0.24341883202727249 0.2284939958877486 -0.16377675811169726 -0.045738742996915209 0.029150178323453537
leaf_count=33 38 60 50 50 51
internal_value=0 0.0800335 -0.265164 0.289969 0.512019
internal_count=282 244 83 161 111
shrinkage=0.261741


Tree=32
num_leaves=7
num_cat=0
split_feature=252 79 169 114 5 275
split_gain=0.486335 0.640259 0.553534 0.388651 0.369609 0.0713784
threshold=0.68333333333333357 0.13809523809523802 0.14550264550264552 0.14642857142857152 0.34313725490196051 0.10555555555555551
decision_type=2 2 2 2 2 2
left_child=1 2 3 -1 5 -3
right_child=-2 4 -4 -5 -6 -7
leaf_value=0.21151356312285569 0.12462412439872717 -0.26256534547504273 -0.10435093107871933 -0 -0.013808837697071296 -0.12785985697101257
leaf_count=49 44 33 47 41 35 33
internal_value=0 -0.126109 0.142644 0.425577 -0.51433 -0.838576
internal_count=282 238 137 90 101 66
shrinkage=0.261741


Tree=33
num_leaves=6
num_cat=0
split_feature=0 73 266 31 2
split_gain=0.491102 0.679224 0.726502 0.509799 0.409109
threshold=0.55777777777777815 0.21825396825396801 0.10555555555555551 1.0000000180025095e-35 0.44562647754137102
decision_type=2 2 2 2 2
left_child=1 2 -1 -2 -5
right_child=3 -3 -4 4 -6
leaf_value=-0.14805419458512878 0.18951334789585775 -0.25634199426339294 0.14894492094021058 -0.092156507633774809 0.11292600742524912
leaf_count=43 47 60 37 49 46
internal_value=0 -0.288392 0.0129163 0.232644 -0.0175767
internal_count=282 140 80 142 95
shrinkage=0.261741


Tree=34
num_leaves=7
num_cat=0
split_feature=80 147 253 31 196 225
split_gain=0.406594 0.707109 0.39678 0.38548 0.611362 0.100448
threshold=0.20714285714285705 0.28285714285714308 0.40588235294117653 0.10263157894736852 0.30384615384615404 0.095454545454545472
decision_type=2 2 2 2 2 2
left_child=1 3 -2 4 -1 -3
right_child=2 5 -4 -5 -6 -7
leaf_value=-0.072007530466141861 0.023334343028570275 0.26864693870314793 -0.26695129075584012 -0.1277008013066453 0.18586836422764144 0.12068980176195389
leaf_count=44 33 34 46 47 36 42
internal_value=0 0.119028 -0.507461 -0.0911877 0.144869 0.726078
internal_count=282 203 79 127 80 76
shrinkage=0.261741


Tree=35
num_leaves=6
num_cat=0
split_feature=81 101 74 200 199
split_gain=0.404519 0.497176 0.477396 0.520769 0.0780582
threshold=0.27922077922077954 1.0000000180025095e-35 0.10555555555555551 0.13392857142857154 0.095454545454545472
decision_type=2 2 2 2 2
left_child=1 -1 4 -4 -3
right_child=-2 2 3 -5 -6
leaf_value=-0.071376023831820679 -0.17656222120584733 0.2529725181452866 0.11136953145514125 -0.17243015705339929 0.12038643772981839
leaf_count=63 53 43 55 35 33
internal_value=0 0.0978551 0.341794 0 0.766352
internal_count=282 229 166 90 76
shrinkage=0.261741


Tree=36
num_leaves=7
num_cat=0
split_feature=205 169 78 2 22 233
split_gain=0.32773 0.365703 0.557756 0.493564 0.297633 0.257753
threshold=0.43650793650793657 0.074175824175824162 0.18465909090909102 0.36931818181818205 0.23303167420814502 0.11437908496732001
decision_type=2 2 2 2 2 2
left_child=1 2 -1 4 -3 -5
right_child=-2 3 -4 5 -6 -7
leaf_value=0.25443310852464879 -0.19530607248915674 -0.22922880561920625 -0.020494864622161681 0.18578691293852503 0.016556411705222138 -0.015559102689558811
leaf_count=58 39 43 35 35 33 39
internal_value=0 0.0788512 0.41673 -0.123191 -0.556132 0.217561
internal_count=282 243 93 150 76 74
shrinkage=0.261741


Tree=37
num_leaves=8
num_cat=0
split_feature=7 280 130 89 157 163 245
split_gain=0.303559 0.376003 0.585002 0.335424 0.218518 0.202103 0.144283
threshold=0.61250000000000016 0.046315789473684206 0.054093567251462006 0.27922077922077954 0.1742424242424245 0.095454545454545472 0.32456140350877205
decision_type=2 2 2 2 2 2 2
left_child=1 -1 5 6 -4 -3 -2
right_child=3 2 4 -5 -6 -7 -8
leaf_value=-0.20051188679699766 0.068022269154968229 0.23087830403142554 -0 -0.043589705209242907 -0.24360210597510004 0.013772505184641123 0.24541888812087789
leaf_count=34 33 32 32 45 34 32 40
internal_value=0 -0.199958 0.0121946 0.280258 -0.536053 0.486108 0.604224
internal_count=282 164 130 118 66 64 73
shrinkage=0.261741


Tree=38
num_leaves=7
num_cat=0
split_feature=80 147 106 259 253 72
split_gain=0.29473 0.428041 0.269267 0.306429 0.207255 0.120356
threshold=0.20714285714285705 0.28285714285714308 0.14835164835164852 0.14835164835164852 0.40588235294117653 0.12916666666666651
decision_type=2 2 2 2 2 2
left_child=1 2 -1 -4 -2 -3
right_child=4 5 3 -5 -6 -7
leaf_value=0.085796868010467792 -0.0021033616101030425 0.2624597451266617 -0.19860658727717942 0.010566200354342891 -0.26025234208005826 0.078714051772914156
leaf_count=41 33 44 34 52 46 32
internal_value=0 0.118992 -0.0727252 -0.296663 -0.519291 0.664396
internal_count=282 203 127 86 79 76
shrinkage=0.261741


Tree=39
num_leaves=6
num_cat=0
split_feature=274 8 65 147 4
split_gain=0.270076 0.361235 0.420995 0.391343 0.192894
threshold=0.37980769230769257 0.51470588235294112 0.10555555555555551 0.25462962962962959 0.19375000000000003
decision_type=2 2 2 2 2
left_child=1 2 -1 -4 -3
right_child=-2 4 3 -5 -6
leaf_value=0.13968614024271822 -0.13304385891765741 -0.0050223495197890787 -0.1911268668091981 0.069788665351251791 0.20641665461775452
leaf_count=41 62 33 51 50 45
internal_value=0 0.118282 -0.110788 -0.381158 0.535696
internal_count=282 220 142 101 78
shrinkage=0.261741


Tree=40
num_leaves=6
num_cat=0
split_feature=81 7 207 208 266
split_gain=0.262616 0.258864 0.298448 0.22593 0.215233
threshold=0.27922077922077954 0.36602870813397154 0.095454545454545472 0.15894736842105253 0.10555555555555551
decision_type=2 2 2 2 2
left_child=1 -1 3 -3 -4
right_child=-2 2 4 -5 -6
leaf_value=-0.084999836234362899 -0.16595318039574408 0.26531399147938189 -0.11321339163854245 0.031101752926675379 0.086019541016167558
leaf_count=62 53 54 35 34 44
internal_value=0 0.100063 0.265188 0.635915 -0.0322261
internal_count=282 229 167 88 79
shrinkage=0.261741


Tree=41
num_leaves=6
num_cat=0
split_feature=78 0 166 108 215
split_gain=0.215808 0.25641 0.262683 0.271594 0.26103
threshold=0.44949494949494956 0.27922077922077954 0.080128205128205107 0.070370370370370403 0.080128205128205107
decision_type=2 2 2 2 2
left_child=1 -1 3 -3 -5
right_child=-2 2 -4 4 -6
leaf_value=-0.1150236922906315 -0.1871437482834804 0.14706669075218043 0.17714077364349717 -0.16726200247973771 0.059057982087523754
leaf_count=62 40 44 59 39 38
internal_value=0 0.0812888 0.218296 0.0150849 -0.229949
internal_count=282 242 180 121 77
shrinkage=0.261741


Tree=42
num_leaves=7
num_cat=0
split_feature=79 197 199 123 155 203
split_gain=0.237404 0.220044 0.2991 0.201942 0.16239 0.123989
threshold=0.14835164835164852 0.088007736943907164 0.1742424242424245 0.11555555555555551 0.20714285714285705 0.27525252525252558
decision_type=2 2 2 2 2 2
left_child=1 -1 4 5 -3 -2
right_child=3 2 -4 -5 -6 -7
leaf_value=-0.10355793495087745 -0.069606318284234664 0.23801247439441953 -0.06255200029865568 0.066109598719553714 0.027228962812488287 -0.26104669038313805
leaf_count=32 43 65 36 41 33 32
internal_value=0 0.21608 0.380017 -0.297853 0.655006 -0.534898
internal_count=282 166 134 116 98 75
shrinkage=0.261741


Tree=43
num_leaves=7
num_cat=0
split_feature=67 252 172 106 259 266
split_gain=0.20352 0.194062 0.284209 0.282514 0.211116 0.163382
threshold=0.41428571428571453 0.68333333333333357 0.14835164835164852 0.14835164835164852 0.15587044534412953 0.10555555555555551
decision_type=2 2 2 2 2 2
left_child=1 2 3 -1 -5 -6
right_child=-2 -3 -4 4 5 -7
leaf_value=0.21412539551144325 -0.20266754365150547 0.1447782611896555 -0.23226302221236939 -0.15109425533085141 -0.070517052051610199 0.12951619767814099
leaf_count=45 45 36 32 43 32 49
internal_value=0 0.0804965 -0.0480388 0.0867114 -0.0920121 0.159276
internal_count=282 237 201 169 124 81
shrinkage=0.261741


Tree=44
num_leaves=6
num_cat=0
split_feature=80 257 36 282 61
split_gain=0.200328 0.176932 0.163968 0.118788 0.110263
threshold=0.20714285714285705 1.0000000180025095e-35 0.31666666666666654 0.12916666666666651 0.40588235294117653
decision_type=2 2 2 2 2
left_child=1 -1 -3 -4 -2
right_child=4 2 3 -5 -6
leaf_value=-0.083398497499771448 -0.013380128382404904 -0.038734801779163441 0.21863873139596446 0.05461596037872872 -0.25361115550161084
leaf_count=47 34 58 38 60 45
internal_value=0 0.119249 0.274938 0.473081 -0.540758
internal_count=282 203 156 98 79
shrinkage=0.261741


Tree=45
num_leaves=6
num_cat=0
split_feature=73 266 4 8 68
split_gain=0.162106 0.174082 0.229837 0.174689 0.104271
threshold=0.36931818181818205 0.10555555555555551 0.16843971631205704 0.4083333333333336 0.25833333333333358
decision_type=2 2 2 2 2
left_child=1 3 -3 -1 -4
right_child=-2 2 4 -5 -6
leaf_value=-0.12867262658283904 -0.19614564142255198 -0.085373947300074152 0.24486911515972787 0.054464863276252933 0.064002730986034484
leaf_count=61 37 36 49 56 43
internal_value=0 0.0729533 0.336791 -0.167607 0.597436
internal_count=282 245 128 117 92
shrinkage=0.261741


Tree=46
num_leaves=7
num_cat=0
split_feature=263 281 211 222 169 201
split_gain=0.171047 0.183252 0.170824 0.156835 0.160406 0.0886056
threshold=0.10555555555555551 0.069047619047619066 0.18350168350168353 0.11437908496732001 0.14550264550264552 0.17708333333333351
decision_type=2 2 2 2 2 2
left_child=1 -1 5 4 -2 -3
right_child=3 2 -4 -5 -6 -7
leaf_value=-0.094613611288051694 0.1012675806032623 0.24593493262718383 -0.022865666081273033 -0.24027375167070805 -0.1547718164466412 0.06982777322781375
leaf_count=32 39 54 53 34 36 34
internal_value=0 0.183279 0.367049 -0.335816 -0.0477583 0.634367
internal_count=282 173 141 109 75 88
shrinkage=0.261741


Tree=47
num_leaves=7
num_cat=0
split_feature=49 82 17 134 65 208
split_gain=0.13227 0.171348 0.198851 0.124142 0.123046 0.0278781
threshold=0.80909090909090919 0.21825396825396801 0.1742424242424245 0.19090909090909103 0.18465909090909102 0.19090909090909103
decision_type=2 2 2 2 2 2
left_child=1 2 3 -1 -3 -6
right_child=-2 4 -4 -5 5 -7
leaf_value=0.043585715093061757 0.13507973167174295 0.00080684407754972622 0.15967134281726461 -0.16162263660747109 -0.10135347645515143 -0.2501021116551122
leaf_count=56 33 33 47 36 32 45
internal_value=0 -0.0974055 0.127624 -0.181878 -0.443599 -0.748799
internal_count=282 249 139 92 110 77
shrinkage=0.261741


Tree=48
num_leaves=7
num_cat=0
split_feature=147 256 280 131 122 0
split_gain=0.130349 0.185427 0.198716 0.100884 0.0852703 0.0392148
threshold=0.080128205128205107 0.24038461538461553 0.095454545454545472 0.14550264550264552 0.10555555555555551 0.55777777777777815
decision_type=2 2 2 2 2 2
left_child=-1 2 -2 5 -3 -4
right_child=1 4 3 -5 -6 -7
leaf_value=-0.11420300924729865 -0.091647317552535912 0.005078469710809482 0.095166948196107867 0.022105098342899449 -0.19367055298502645 0.25044687701690693
leaf_count=58 32 39 32 35 35 51
internal_value=0 0.123271 0.328826 0.546426 -0.355145 0.77437
internal_count=282 224 150 118 74 83
shrinkage=0.261741


Tree=49
num_leaves=8
num_cat=0
split_feature=81 7 155 255 184 24 207
split_gain=0.127947 0.116292 0.135441 0.124861 0.0871328 0.0768659 0.0317403
threshold=0.30384615384615404 0.36602870813397154 0.22649572649572652 0.069047619047619066 1.0000000180025095e-35 0.10263157894736852 0.10555555555555551
decision_type=2 2 2 2 2 2 2
left_child=1 4 3 -3 -1 -4 -5
right_child=-2 2 5 6 -6 -7 -8
leaf_value=0.010449005935639339 -0.20467215856902451 -0.0024960064582770585 0.053003825786175296 0.25495305913408284 -0.18537928699556505 -0.14034983053183273 0.11234810937681011
leaf_count=32 42 33 33 41 34 32 35
internal_value=0 0.07572 0.229487 0.461768 -0.29153 -0.160721 0.735252
internal_count=282 240 174 109 66 65 76
shrinkage=0.261741


Tree=50
num_leaves=8
num_cat=0
split_feature=147 14 106 263 201 75 225
split_gain=0.117332 0.1225 0.133446 0.114669 0.0820973 0.0604727 0.0193136
threshold=0.28285714285714308 0.63068181818181812 0.14835164835164852 0.10555555555555551 0.087121212121212113 0.21825396825396801 0.095454545454545472
decision_type=2 2 2 2 2 2 2
left_child=1 2 -1 6 -4 -6 -2
right_child=3 -3 4 -5 5 -7 -8
leaf_value=0.045455440665289643 0.23823405216553234 0.11911471776887952 0.0066689490838813259 -0.057369945721694668 -0.23069875344336802 -0.02952515102142041 0.097059539738512182
leaf_count=41 33 33 39 32 39 32 33
internal_value=0 -0.150577 -0.288575 0.368159 -0.522334 -0.696523 0.672107
internal_count=282 184 151 98 110 71 66
shrinkage=0.261741


Tree=51
num_leaves=7
num_cat=0
split_feature=107 2 84 225 53 147
split_gain=0.100268 0.18922 0.105818 0.126143 0.0403435 0.032785
threshold=0.29285714285714304 0.30384615384615404 0.48529411764705904 0.10874704491725752 0.42261904761904806 0.18465909090909102
decision_type=2 2 2 2 2 2
left_child=2 -2 3 5 -3 -1
right_child=1 4 -4 -5 -6 -7
leaf_value=0.090520747189315021 -0.24511586574541475 -0.045741908513988502 -0.10126941096734282 -0.018946147240613023 0.096834553583426061 0.24075884448921095
leaf_count=34 50 32 34 56 32 44
internal_value=0 -0.269291 0.192884 0.351194 0.0759222 0.66692
internal_count=282 114 168 134 64 78
shrinkage=0.261741


Tree=52
num_leaves=6
num_cat=0
split_feature=78 0 84 166 7
split_gain=0.094875 0.0970313 0.111529 0.159043 0.160312
threshold=0.44949494949494956 0.27922077922077954 0.1742424242424245 0.080128205128205107 0.61250000000000016
decision_type=2 2 2 2 2
left_child=1 -1 -3 4 -4
right_child=-2 2 3 -5 -6
leaf_value=-0.099222506277106146 -0.18338560238041171 0.20659253789077867 -0.16231855951984234 0.16384450327861949 0.088517408582080612
leaf_count=62 40 39 45 51 45
internal_value=0 0.0767729 0.208089 0.0506345 -0.21313
internal_count=282 242 180 141 90
shrinkage=0.261741


Tree=53
num_leaves=7
num_cat=0
split_feature=81 65 266 50 89 59
split_gain=0.0933271 0.102693 0.120293 0.0857949 0.0848961 0.0533191
threshold=0.27922077922077954 0.12916666666666651 0.10555555555555551 0.43650793650793657 0.21825396825396801 0.11437908496732001
decision_type=2 2 2 2 2 2
left_child=1 5 3 -3 -4 -1
right_child=-2 2 4 -5 -6 -7
leaf_value=0.24020899828507697 -0.16042000126949787 -0.19513874632164427 0.21017769836085437 0.020995059381676555 -0.0072730418950984243 0.043917749333938182
leaf_count=34 53 37 39 35 47 37
internal_value=0 0.0937834 -0.0773503 -0.429304 0.255761 0.49656
internal_count=282 229 158 72 86 71
shrinkage=0.261741


Tree=54
num_leaves=6
num_cat=0
split_feature=106 101 212 199 147
split_gain=0.0859634 0.112474 0.0812162 0.0628302 0.029802
threshold=0.4083333333333336 0.064583333333333368 0.11437908496732001 0.14550264550264552 0.14589665653495451
decision_type=2 2 2 2 2
left_child=1 -1 -2 4 -3
right_child=2 3 -4 -5 -6
leaf_value=-0.057326073582571281 0.014852359958541339 0.059511541568123508 -0.19987641821352792 -0 0.22366154181450271
leaf_count=58 36 32 56 37 63
internal_value=0 0.158356 -0.36011 0.429048 0.644569
internal_count=282 190 92 132 95
shrinkage=0.261741


Tree=55
num_leaves=7
num_cat=0
split_feature=207 8 0 84 259 2
split_gain=0.0730737 0.0905792 0.0833822 0.0987588 0.0640061 0.0631385
threshold=0.19090909090909103 0.51470588235294112 0.30625000000000008 0.21825396825396801 0.19090909090909103 0.44562647754137102
decision_type=2 2 2 2 2 2
left_child=1 2 -1 -4 -2 -5
right_child=4 -3 3 5 -6 -7
leaf_value=-0.17852591913886967 -0.23965232744115497 0.14447827357619986 0.19420273709527747 -0.11989928800895926 -0.0046252498040300644 0.087332434513562346
leaf_count=32 36 61 33 37 47 36
internal_value=0 0.134949 -0.0571198 0.11391 -0.384576 -0.144845
internal_count=282 199 138 106 83 73
shrinkage=0.261741


Tree=56
num_leaves=8
num_cat=0
split_feature=147 60 50 51 113 158 80
split_gain=0.0728902 0.0905503 0.0882172 0.0701301 0.0492298 0.00608265 0.00482423
threshold=0.28285714285714308 0.19375000000000003 0.43650793650793657 0.45993589743589752 0.21825396825396801 0.18465909090909102 0.080128205128205107
decision_type=2 2 2 2 2 2 2
left_child=1 2 -1 6 -3 -6 -2
right_child=3 4 -4 -5 5 -7 -8
leaf_value=-0.046924495811932816 0.23555535492072371 -0.012057087919117833 0.18163776034588383 -0.037974288088192823 -0.23685329638754507 -0.094299774489619057 0.10496881077441364
leaf_count=40 34 40 35 32 34 35 32
internal_value=0 -0.153202 0.146901 0.353892 -0.468925 -0.746808 0.678073
internal_count=282 184 75 98 109 69 66
shrinkage=0.261741


Tree=57
num_leaves=6
num_cat=0
split_feature=79 53 58 109 162
split_gain=0.0623078 0.0735514 0.0715964 0.0699458 0.0449566
threshold=0.14835164835164852 0.32291666666666657 0.21825396825396801 0.20714285714285705 0.14550264550264552
decision_type=2 2 2 2 2
left_child=1 2 -1 -2 -3
right_child=3 4 -4 -5 -6
leaf_value=0.10699449171162174 0.0025575839601957003 0.2044743360711857 -0.12748766975259782 -0.18961698189717854 0.006249970445166295
leaf_count=36 57 44 54 59 32
internal_value=0 0.188032 -0.122986 -0.26607 0.499894
internal_count=282 166 90 116 76
shrinkage=0.261741


Tree=58
num_leaves=7
num_cat=0
split_feature=106 266 7 101 173 106
split_gain=0.0559664 0.0682356 0.0792622 0.0600284 0.0434312 0.0258683
threshold=0.4083333333333336 0.12632978723404253 0.40588235294117653 0.10263157894736852 1.0000000180025095e-35 0.25833333333333358
decision_type=2 2 2 2 2 2
left_child=1 2 -1 -4 -2 -3
right_child=4 5 3 -5 -6 -7
leaf_value=-0.15348864416756544 -0.17462311781007586 0.22425720988178063 -0.038999249240222786 0.16363490374507347 0.0054858517500673571 0.042833513096342826
leaf_count=39 41 39 33 47 51 32
internal_value=0 0.14097 -0.0510933 0.201194 -0.34425 0.544506
internal_count=282 190 119 80 92 71
shrinkage=0.261741


Tree=59
num_leaves=7
num_cat=0
split_feature=127 0 73 128 134 250
split_gain=0.050543 0.0587344 0.0942814 0.0666634 0.0498582 0.0393876
threshold=0.4083333333333336 0.55777777777777815 0.21825396825396801 0.087121212121212113 0.25833333333333358 0.17156862745098053
decision_type=2 2 2 2 2 2
left_child=1 2 4 5 -1 -3
right_child=-2 3 -4 -5 -6 -7
leaf_value=0.13318672185076078 -0.18537903039027714 0.088332932081978566 -0.22735060617109756 0.17199825240991554 -0.073175231962148674 -0.09643967479687586
leaf_count=37 38 34 46 56 32 39
internal_value=0 0.0707254 -0.194585 0.288801 0.103876 -0.0117795
internal_count=282 244 115 129 69 73
shrinkage=0.261741


Tree=60
num_leaves=7
num_cat=0
split_feature=80 112 199 39 89 253
split_gain=0.04746 0.0729779 0.078063 0.0845713 0.0727966 0.0349166
threshold=0.20714285714285705 0.40588235294117653 0.1742424242424245 0.13809523809523802 0.16025641025641052 0.40588235294117653
decision_type=2 2 2 2 2 2
left_child=1 2 3 4 -1 -2
right_child=5 -3 -4 -5 -6 -7
leaf_value=0.1213777708796475 0 0.19162642507182021 -0.16356156565124957 0.14899232892447678 -0.15527688092352773 -0.22734100414153724
leaf_count=33 33 42 39 57 32 46
internal_value=0 0.0987172 -0.0309215 0.150877 -0.220387 -0.481554
internal_count=282 203 161 122 65 79
shrinkage=0.261741


Tree=61
num_leaves=6
num_cat=0
split_feature=147 108 82 31 63
split_gain=0.0408537 0.0503998 0.0421802 0.0408321 0.0258341
threshold=0.28285714285714308 0.070370370370370403 0.21825396825396801 1.0000000180025095e-35 0.43303571428571458
decision_type=2 2 2 2 2
left_child=1 -1 -2 -3 -5
right_child=2 3 -4 4 -6
leaf_value=0.062122199273548291 0.17634664364489672 0.0093017403426763328 -0.017618963856579576 -0.21019823140263422 -0.016567136875358789
leaf_count=54 58 41 40 57 32
internal_value=0 -0.141102 0.31979 -0.347171 -0.57755
internal_count=282 184 98 130 89
shrinkage=0.261741


Tree=62
num_leaves=6
num_cat=0
split_feature=81 65 53 51 73
split_gain=0.0452858 0.0481267 0.0447444 0.0733055 0.0390549
threshold=0.27922077922077954 0.10555555555555551 0.17156862745098053 0.43650793650793657 0.18465909090909102
decision_type=2 2 2 2 2
left_child=1 -1 -3 4 -4
right_child=-2 2 3 -5 -6
leaf_value=0.14158067788094117 -0.15080327720067879 -0.14505008326888663 0.18764701883888069 -0.11078692100940105 -0
leaf_count=51 53 44 53 47 34
internal_value=0 0.0900114 -0.0440632 0.0994278 0.414838
internal_count=282 229 178 134 87
shrinkage=0.261741


Tree=63
num_leaves=6
num_cat=0
split_feature=134 134 218 157 225
split_gain=0.0382585 0.0512249 0.0381735 0.0515459 0.0136986
threshold=1.0000000180025095e-35 0.19090909090909103 0.060661764705882353 0.074175824175824162 0.10874704491725752
decision_type=2 2 2 2 2
left_child=-1 4 -3 -4 -2
right_child=1 2 3 -5 -6
leaf_value=-0.12426969459462923 0.21606881524169846 0.065756924019667026 0.035947583371738631 -0.17955098225437549 0.038486105215450366
leaf_count=44 39 56 39 72 32
internal_value=0 0.0975096 -0.0659138 -0.312879 0.544731
internal_count=282 238 167 111 71
shrinkage=0.261741


Tree=64
num_leaves=6
num_cat=0
split_feature=252 79 232 73 5
split_gain=0.0344663 0.0494681 0.0281813 0.0402009 0.0216145
threshold=0.65942028985507262 0.13809523809523802 0.22649572649572652 1.0000000180025095e-35 0.34313725490196051
decision_type=2 2 2 2 2
left_child=1 2 3 -1 -3
right_child=-2 4 -4 -5 -6
leaf_value=0.206375237673147 0.10264589905815638 -0.18810588041221454 -0.074801135665793439 -0 -0.011026684989262981
leaf_count=42 50 66 39 52 33
internal_value=0 -0.116505 0.120405 0.321028 -0.460167
internal_count=282 232 133 94 99
shrinkage=0.261741


Tree=65
num_leaves=6
num_cat=0
split_feature=147 14 106 100 259
split_gain=0.0323819 0.0375913 0.0380607 0.02615 0.017968
threshold=0.28285714285714308 0.63068181818181812 0.14835164835164852 0.30384615384615404 0.14835164835164852
decision_type=2 2 2 2 2
left_child=1 2 -1 -2 -4
right_child=3 -3 4 -5 -6
leaf_value=0.031702309698855964 0.1609744108875332 0.10029178188158248 -0.20955782685261909 -0.0051382235745553104 -0.049035304079436785
leaf_count=41 61 33 47 37 63
internal_value=0 -0.147573 -0.292949 0.314157 -0.508262
internal_count=282 184 151 98 110
shrinkage=0.261741


Tree=66
num_leaves=7
num_cat=0
split_feature=78 147 208 138 266 183
split_gain=0.0287743 0.0265375 0.0256457 0.0371295 0.0214588 0.0196301
threshold=0.44949494949494956 0.28285714285714308 0.27922077922077954 0.17156862745098053 0.10555555555555551 0.15476190476190502
decision_type=2 2 2 2 2 2
left_child=1 2 3 4 -1 -3
right_child=-2 5 -4 -5 -6 -7
leaf_value=0 -0.16142976250364582 0.20152105400058321 -0.14537798962460979 -0.11101923894040021 0.16931623933323872 0.0082607257964503154
leaf_count=46 40 48 36 32 38 42
internal_value=0 0.0667753 -0.0588933 0.0467959 0.276855 0.388774
internal_count=282 242 152 116 84 90
shrinkage=0.261741


Tree=67
num_leaves=7
num_cat=0
split_feature=80 112 199 198 201 37
split_gain=0.0307277 0.0312225 0.0438766 0.0297991 0.023334 0.0133486
threshold=0.20714285714285705 0.40588235294117653 0.14550264550264552 0.074175824175824162 0.10263157894736852 0.19090909090909103
decision_type=2 2 2 2 2 2
left_child=1 2 3 -1 -5 -2
right_child=5 -3 -4 4 -6 -7
leaf_value=-0.062606734409035872 0 0.16047478182867625 -0.12903832530906709 0.20505456698882699 0.011687644439708539 -0.18499841910362996
leaf_count=33 37 42 45 36 47 42
internal_value=0 0.103534 -0.000384945 0.197354 0.412508 -0.475375
internal_count=282 203 161 116 83 79
shrinkage=0.261741


Tree=68
num_leaves=6
num_cat=0
split_feature=127 7 89 280 130
split_gain=0.0235504 0.0282407 0.0433365 0.0283508 0.0503372
threshold=0.4083333333333336 0.62828947368421062 0.27922077922077954 0.064583333333333368 0.054093567251462006
decision_type=2 2 2 2 2
left_child=1 3 -3 -1 -5
right_child=-2 2 -4 4 -6
leaf_value=-0.15225671094982807 -0.16707276796458614 0.1926535711080696 -0.026903637236203475 0.12599453327767132 -0.11586478378957704
leaf_count=33 38 63 36 56 56
internal_value=0 0.0655297 0.346421 -0.112224 0.0545805
internal_count=282 244 99 145 112
shrinkage=0.261741


Tree=69
num_leaves=7
num_cat=0
split_feature=49 79 199 73 9 107
split_gain=0.0225741 0.0305271 0.0191911 0.0261974 0.0143717 0.0109176
threshold=0.80909090909090919 0.14835164835164852 0.1742424242424245 0.21825396825396801 0.30625000000000008 0.16228070175438603
decision_type=2 2 2 2 2 2
left_child=1 2 3 5 -3 -1
right_child=-2 4 -4 -5 -6 -7
leaf_value=0.20975041938167965 0.11974354376169029 -0 -0.06723122089329428 -0.05223417678840038 -0.16994396336844628 0.02003770620436653
leaf_count=47 33 37 38 32 60 35
internal_value=0 -0.0957102 0.0979199 0.287876 -0.419512 0.534478
internal_count=282 249 152 114 97 82
shrinkage=0.261741


Tree=70
num_leaves=6
num_cat=0
split_feature=274 7 113 149 8
split_gain=0.021686 0.0278268 0.0255047 0.0159287 0.013952
threshold=0.37980769230769257 0.36602870813397154 0.21825396825396801 0.10319148936170201 0.46410256410256456
decision_type=2 2 2 2 2
left_child=1 -1 3 -3 -4
right_child=-2 2 4 -5 -6
leaf_value=-0.080042665204727748 -0.10540115939612191 0 -0.095016806867500123 0.21025489329288088 0.059963068257199791
leaf_count=57 62 34 36 49 44
internal_value=0 0.103441 0.272348 0.5686 -0
internal_count=282 220 163 83 80
shrinkage=0.261741


Tree=71
num_leaves=6
num_cat=0
split_feature=4 8 169 51 134
split_gain=0.0228685 0.0291397 0.0206687 0.0205805 0.0190179
threshold=0.16843971631205704 0.60555555555555562 0.12916666666666651 0.19259259259259254 0.19090909090909103
decision_type=2 2 2 2 2
left_child=2 3 -1 -2 -5
right_child=1 -3 -4 4 -6
leaf_value=0 0.093319104890246113 0.16797085588161209 -0.20058187043256981 0.046922132613056368 -0.11883442929347282
leaf_count=47 37 44 48 45 61
internal_value=0 0.135658 -0.350155 -0.00871942 -0.22587
internal_count=282 187 95 143 106
shrinkage=0.261741


Tree=72
num_leaves=6
num_cat=0
split_feature=207 53 266 38 259
split_gain=0.0173823 0.0188015 0.0228826 0.0136448 0.0117201
threshold=0.19090909090909103 0.43650793650793657 0.16228070175438603 0.10319148936170201 0.19090909090909103
decision_type=2 2 2 2 2
left_child=1 2 3 -1 -2
right_child=4 -3 -4 -5 -6
leaf_value=0.0031204468869947643 -0.18840252912002328 0.12800839096965669 0.10913004368977015 -0.12592984188037673 -0
leaf_count=49 36 50 51 49 47
internal_value=0 0.116535 -0.00924364 -0.234415 -0.336712
internal_count=282 199 149 98 83
shrinkage=0.261741


Tree=73
num_leaves=7
num_cat=0
split_feature=0 73 128 54 14 267
split_gain=0.0159624 0.0234847 0.0181551 0.0145359 0.00882111 0.00746869
threshold=0.55777777777777815 0.21825396825396801 0.087121212121212113 0.4083333333333336 0.34848484848484856 0.19090909090909103
decision_type=2 2 2 2 2 2
left_child=1 3 4 -1 -2 -4
right_child=2 -3 5 -5 -6 -7
leaf_value=-0.058068532058961571 0.052470973426833718 -0.18552668687360427 0.19077230865185468 0.11848256000881131 -0.073243907986850668 0.007647506082062174
leaf_count=45 34 60 33 35 43 32
internal_value=0 -0.221457 0.169909 0 -0.0370562 0.474632
internal_count=282 140 142 80 77 65
shrinkage=0.261741


Tree=74
num_leaves=5
num_cat=0
split_feature=81 101 106 2
split_gain=0.0144936 0.0166644 0.0226727 0.00937473
threshold=0.27922077922077954 1.0000000180025095e-35 0.4083333333333336 0.29814814814814805
decision_type=2 2 2 2
left_child=1 -1 3 -3
right_child=-2 2 -4 -5
leaf_value=-0.044736541027590365 -0.12147990187067907 0.0004758398737353719 -0.034733553858986646 0.17809501143875103
leaf_count=63 53 39 46 81
internal_value=0 0.083033 0.263593 0.493297
internal_count=282 229 166 120
shrinkage=0.261741


Tree=75
num_leaves=7
num_cat=0
split_feature=80 256 169 256 263 9
split_gain=0.0133463 0.0202836 0.0168658 0.0163031 0.00203906 0.00157715
threshold=0.084219858156028365 0.069047619047619066 0.12916666666666651 0.12916666666666651 0.10555555555555551 0.30625000000000008
decision_type=2 2 2 2 2 2
left_child=1 -1 3 -2 -4 -3
right_child=2 5 4 -5 -6 -7
leaf_value=-0.024816919107072379 0.12112471564028481 0.17397371174959719 -0.013594975214365658 -0.069469589070175183 -0.18972992791823373 0.02452350848144708
leaf_count=56 36 33 37 42 45 33
internal_value=0 0.184158 -0.189371 0.0161261 -0.539004 0.500878
internal_count=282 122 160 78 82 66
shrinkage=0.261741


Tree=76
num_leaves=6
num_cat=0
split_feature=147 9 80 169 8
split_gain=0.0121154 0.0126606 0.0125964 0.0120078 0.00563954
threshold=0.28285714285714308 0.18350168350168353 0.12916666666666651 0.074175824175824162 0.53589743589743566
decision_type=2 2 2 2 2
left_child=1 -1 -2 -3 -5
right_child=2 3 -4 4 -6
leaf_value=0.036577106356970257 0.14600969410517087 0 -0.0024476132509901145 -0.17281896242771325 -0
leaf_count=54 61 37 37 54 39
internal_value=0 -0.124602 0.270997 -0.296114 -0.487844
internal_count=282 184 98 130 93
shrinkage=0.261741


Tree=77
num_leaves=6
num_cat=0
split_feature=207 0 280 137 259
split_gain=0.0124544 0.0110855 0.0127092 0.0142692 0.00554752
threshold=0.19090909090909103 0.30625000000000008 0.11805555555555551 0.10263157894736852 0.19090909090909103
decision_type=2 2 2 2 2
left_child=1 -1 -3 -4 -2
right_child=4 2 3 -5 -6
leaf_value=-0.054159625227105886 -0.16703519480328602 -0.0063666637489236981 0.18891033077764088 0 -0
leaf_count=50 36 45 59 45 47
internal_value=0 0.107255 0.236833 0.427492 -0.327318
internal_count=282 199 149 104 83
shrinkage=0.261741


Tree=78
num_leaves=7
num_cat=0
split_feature=106 0 51 225 63 105
split_gain=0.0121139 0.0153853 0.00821533 0.0124675 0.00821528 0.00403541
threshold=0.14835164835164852 0.55777777777777815 0.44949494949494956 0.10874704491725752 0.32291666666666657 0.48333333333333356
decision_type=2 2 2 2 2 2
left_child=4 5 3 -3 -1 -2
right_child=1 2 -4 -5 -6 -7
leaf_value=0.13388100930116992 -0.16264834736183492 0.17052575423911095 -0.049804182552128089 -0 -0 -0
leaf_count=43 66 36 33 32 32 40
internal_value=0 -0.134148 0.0336785 0.258013 0.287755 -0.450232
internal_count=282 207 101 68 75 106
shrinkage=0.261741


Tree=79
num_leaves=6
num_cat=0
split_feature=252 79 58 151 123
split_gain=0.0100651 0.017786 0.00977269 0.00594555 0.00548764
threshold=0.65942028985507262 0.13809523809523802 0.21825396825396801 0.095454545454545472 0.12916666666666651
decision_type=2 2 2 2 2
left_child=1 2 -1 -4 -3
right_child=-2 4 3 -5 -6
leaf_value=0.10667745591229026 0.076073360769145754 -0.14706561654039876 0.011866180043472119 -0.10184109532628144 0
leaf_count=56 50 66 39 38 33
internal_value=0 -0.121685 0.070079 -0.0830837 -0.45353
internal_count=282 232 133 77 99
shrinkage=0.261741


Tree=80
num_leaves=7
num_cat=0
split_feature=80 128 72 257 152 61
split_gain=0.00798466 0.01024 0.0124422 0.00931653 0.00629858 0.00382328
threshold=0.20714285714285705 0.087121212121212113 0.18465909090909102 0.081666666666666665 0.12916666666666651 0.40588235294117653
decision_type=2 2 2 2 2 2
left_child=1 3 -3 -1 -5 -2
right_child=5 2 -4 4 -6 -7
leaf_value=-0.10348382086960442 -0 0.15841829138722907 -0 0.096411980516251189 -0.018521879364417956 -0.15156818911880116
leaf_count=36 34 56 38 41 32 45
internal_value=0 0.06873 0.330055 -0.063799 0.0781681 -0.341134
internal_count=282 203 94 109 73 79
shrinkage=0.261741


Tree=81
num_leaves=5
num_cat=0
split_feature=81 101 80 74
split_gain=0.00700118 0.0101632 0.0183122 0.00494437
threshold=0.27922077922077954 1.0000000180025095e-35 0.084219858156028365 0.11437908496732001
decision_type=2 2 2 2
left_child=1 -1 -3 -4
right_child=-2 2 3 -5
leaf_value=-0.046055348838184983 -0.10573533757973176 0.17010257387065181 0.052255986305262216 -0.059156506083543087
leaf_count=63 53 74 34 58
internal_value=0 0.0415702 0.221553 -0
internal_count=282 229 166 92
shrinkage=0.261741


Tree=82
num_leaves=6
num_cat=0
split_feature=147 31 53 51 211
split_gain=0.00677568 0.00909083 0.00741959 0.00642417 0.00535924
threshold=0.28285714285714308 0.060661764705882353 0.25265957446808507 0.45993589743589752 0.13392857142857154
decision_type=2 2 2 2 2
left_child=1 2 -1 -2 -3
right_child=3 4 -4 -5 -6
leaf_value=-0.030867742913658503 0.11469448706779947 -0 0.10217724681102204 -0 -0.13518702221269674
leaf_count=43 66 37 33 32 71
internal_value=0 -0.124821 0.0515953 0.213289 -0.338063
internal_count=282 184 76 98 108
shrinkage=0.261741


Tree=83
num_leaves=6
num_cat=0
split_feature=205 115 60 98 107
split_gain=0.00608164 0.00814032 0.00757076 0.00734046 0.00104252
threshold=0.12916666666666651 0.18465909090909102 0.11805555555555551 0.4083333333333336 0.21825396825396801
decision_type=2 2 2 2 2
left_child=2 3 -1 4 -2
right_child=1 -3 -4 -5 -6
leaf_value=0.13275566951666654 -0.010122201691416366 0.034666260735367771 -0 0 -0.17038067694979428
leaf_count=43 34 53 62 43 47
internal_value=0 -0.147633 0.158391 -0.303519 -0.485017
internal_count=282 177 105 124 81
shrinkage=0.261741


Tree=84
num_leaves=6
num_cat=0
split_feature=204 122 252 53 11
split_gain=0.0058775 0.010679 0.00867921 0.0115044 0.00480574
threshold=0.12916666666666651 0.095454545454545472 0.6201923076923076 0.25265957446808507 0.34523809523809507
decision_type=2 2 2 2 2
left_child=1 -1 3 -2 -5
right_child=2 -3 -4 4 -6
leaf_value=0.12316605168004112 -0.16274409958601338 -0.032942272526888583 0.039998131194750562 0.060063568907836797 -0.069809610304088915
leaf_count=65 63 32 39 44 39
internal_value=0 0.183434 -0.131857 -0.292704 -0
internal_count=282 97 185 146 83
shrinkage=0.261741


Tree=85
num_leaves=7
num_cat=0
split_feature=0 60 128 114 183 59
split_gain=0.00538728 0.0103428 0.00596307 0.00242807 0.00170221 0.000375242
threshold=0.55777777777777815 0.19375000000000003 0.087121212121212113 0.12632978723404253 0.12632978723404253 0.29285714285714304
decision_type=2 2 2 2 2 2
left_child=1 -1 3 -2 -4 -3
right_child=2 5 4 -5 -6 -7
leaf_value=0.02124389937464195 0.024210230893951329 -0 0.14532914924266152 -0.054077068335753105 0 -0.15596156612728293
leaf_count=45 37 37 33 40 32 58
internal_value=0 -0.187418 0.112491 -0 0.353081 -0.459985
internal_count=282 140 142 77 65 95
shrinkage=0.261741


Tree=86
num_leaves=7
num_cat=0
split_feature=79 3 259 133 256 74
split_gain=0.00493471 0.00606889 0.00593049 0.00657215 0.00174259 0.00172699
threshold=0.14835164835164852 0.16025641025641052 0.11805555555555551 0.11805555555555551 0.15476190476190502 0.14589665653495451
decision_type=2 2 2 2 2 2
left_child=2 -2 -1 -4 -5 -3
right_child=1 5 3 4 -6 -7
leaf_value=-0.02563970236458472 -0.12711402783214609 0.047591164190059813 -0 0.14592275299166366 0 -0.034117301759366503
leaf_count=50 51 32 34 49 33 33
internal_value=0 -0.183987 0.112286 0.272193 0.437728 0
internal_count=282 116 166 116 82 65
shrinkage=0.261741


Tree=87
num_leaves=7
num_cat=0
split_feature=207 2 169 269 280 257
split_gain=0.00451929 0.00602924 0.0115439 0.00543517 0.00400387 0.00121238
threshold=0.20526315789473704 0.44562647754137102 0.074175824175824162 0.074175824175824162 0.16025641025641052 0.30217391304347857
decision_type=2 2 2 2 2 2
left_child=1 2 -1 -4 -3 -2
right_child=5 4 3 -5 -6 -7
leaf_value=0.066004242916048492 -0 0 -0.14799712514783472 -0 0.13980509391432086 -0.10747590211459805
leaf_count=58 34 32 37 38 46 37
internal_value=0 0.057183 -0.0321172 -0.337767 0.317028 -0.292723
internal_count=282 211 133 75 78 71
shrinkage=0.261741


Tree=88
num_leaves=6
num_cat=0
split_feature=149 4 82 211 271
split_gain=0.00419273 0.00753004 0.00779988 0.00438753 0.00133649
threshold=0.087121212121212113 0.16843971631205704 0.21825396825396801 0.13392857142857154 0.072751322751322761
decision_type=2 2 2 2 2
left_child=3 4 -3 -1 -2
right_child=1 2 -4 -5 -6
leaf_value=0 -0.086638117827305863 0.11958687337183241 -0 -0.11215879029158728 0
leaf_count=39 33 75 60 42 33
internal_value=0 0.0790071 0.242926 -0.223823 -0.20931
internal_count=282 201 135 81 66
shrinkage=0.261741


Tree=89
num_leaves=6
num_cat=0
split_feature=263 281 151 169 226
split_gain=0.00357752 0.00669289 0.0108168 0.00528949 0.000962197
threshold=0.10555555555555551 0.069047619047619066 0.095454545454545472 0.14550264550264552 0.080128205128205107
decision_type=2 2 2 2 2
left_child=1 -1 -3 -2 -4
right_child=3 2 4 -5 -6
leaf_value=-0.052753939129032278 0 0.14538282044781034 0 -0.11917714725634472 -0.045936701079728637
leaf_count=32 53 72 32 56 37
internal_value=0 0.0775769 0.245657 -0.192631 -0
internal_count=282 173 141 109 69
shrinkage=0.261741


Tree=90
num_leaves=7
num_cat=0
split_feature=14 137 113 252 186 124
split_gain=0.00337615 0.0053828 0.00473675 0.00278185 0.00177988 0.00021972
threshold=0.63068181818181812 0.12916666666666651 0.21825396825396801 0.28869047619047655 0.10263157894736852 0.11805555555555551
decision_type=2 2 2 2 2 2
left_child=1 2 3 -1 -4 -3
right_child=-2 5 4 -5 -6 -7
leaf_value=-0 0.056927913626524614 -0.11784911370143539 -0.080424972499740358 0.098684343463015398 0 -0
leaf_count=32 56 34 46 48 34 32
internal_value=0 -0.0928101 0 0.212699 -0.182312 -0.377811
internal_count=282 226 160 80 80 66
shrinkage=0.261741


Tree=91
num_leaves=5
num_cat=0
split_feature=79 274 280 3
split_gain=0.00289807 0.00414027 0.00514994 0.00381944
threshold=0.14835164835164852 0.37980769230769257 0.11805555555555551 0.18665377176015502
decision_type=2 2 2 2
left_child=1 2 -1 -2
right_child=3 -3 -4 -5
leaf_value=-0 -0.1065845585066931 -0.038799051873404905 0.11332750837564931 0
leaf_count=55 54 32 79 62
internal_value=0 0.0781017 0.215512 -0.1691
internal_count=282 166 134 116
shrinkage=0.261741


Tree=92
num_leaves=5
num_cat=0
split_feature=0 60 199 159
split_gain=0.0033339 0.00538717 0.00397455 0.00469757
threshold=0.55777777777777815 0.19375000000000003 0.14550264550264552 0.12916666666666651
decision_type=2 2 2 2
left_child=1 -1 3 -2
right_child=2 -3 -4 -5
leaf_value=0 0.11400482905207417 -0.10472842922802952 -0.015741250123495126 -0
leaf_count=45 66 95 38 38
internal_value=0 -0.178814 0.0867988 0.256189
internal_count=282 140 142 104
shrinkage=0.261741


Tree=93
num_leaves=6
num_cat=0
split_feature=266 4 161 147 65
split_gain=0.00310964 0.00504169 0.00510957 0.00488286 0.00460764
threshold=0.10555555555555551 0.16843971631205704 0.22649572649572652 0.25462962962962959 0.12916666666666651
decision_type=2 2 2 2 2
left_child=3 -2 -3 4 -1
right_child=1 2 -4 -5 -6
leaf_value=0 -0.029882223734377704 0.13241631889353028 -0 0.018701223121858582 -0.12991857942239346
leaf_count=34 47 63 39 33 66
internal_value=0 0.103624 0.29441 -0.154497 -0.30967
internal_count=282 149 102 133 100
shrinkage=0.261741


Tree=94
num_leaves=6
num_cat=0
split_feature=7 155 266 50 186
split_gain=0.00256587 0.00418867 0.00354262 0.00293772 0.00174882
threshold=0.37980769230769257 0.22649572649572652 0.13809523809523802 0.43650793650793657 0.11805555555555551
decision_type=2 2 2 2 2
left_child=2 3 -1 -2 -3
right_child=1 4 -4 -5 -6
leaf_value=-0.10675731122733133 0 -0.068798110170033899 0 0.10997560702211123 0
leaf_count=51 56 45 34 61 35
internal_value=0 0.0539903 -0.209288 0.232149 -0.0917049
internal_count=282 197 85 117 80
shrinkage=0.261741


Tree=95
num_leaves=6
num_cat=0
split_feature=207 8 137 84 274
split_gain=0.00196484 0.00452061 0.00292982 0.00263116 0.00132715
threshold=0.19090909090909103 0.51470588235294112 0.072751322751322761 0.27718676122931457 0.22649572649572652
decision_type=2 2 2 2 2
left_child=1 2 3 -1 -2
right_child=4 -3 -4 -5 -6
leaf_value=0.07878272595188783 0 0.086511565239853566 -0.069022426554575245 -0.0030661898577617709 -0.082841209206802449
leaf_count=41 33 61 62 35 50
internal_value=0 0.0472646 -0.0255208 0.0460671 -0.193584
internal_count=282 199 138 76 83
shrinkage=0.261741


Tree=96
num_leaves=7
num_cat=0
split_feature=80 147 113 54 19 36
split_gain=0.00198828 0.00431323 0.00199015 0.00140207 0.00103264 4.21217e-05
threshold=0.20714285714285705 0.28285714285714308 0.21825396825396801 0.30384615384615404 0.24264705882352952 0.39230769230769258
decision_type=2 2 2 2 2 2
left_child=1 2 3 -1 -2 -3
right_child=4 5 -4 -5 -6 -7
leaf_value=-0 0 0 -0.058531382591912956 0.055010424002269083 -0.087156211621810989 0.097850284639081478
leaf_count=32 40 33 56 39 39 43
internal_value=0 0.0341509 -0.0263703 0.00418293 -0.23135 0.331778
internal_count=282 203 127 71 79 76
shrinkage=0.261741


Tree=97
num_leaves=7
num_cat=0
split_feature=79 123 218 259 18 32
split_gain=0.00188227 0.00262313 0.00241071 0.00180785 0.00121736 0.00112957
threshold=0.14835164835164852 0.11555555555555551 0.078461538461538458 0.26136363636363652 0.11555555555555551 0.095454545454545472
decision_type=2 2 2 2 2 2
left_child=2 4 5 -4 -2 -1
right_child=1 -3 3 -5 -6 -7
leaf_value=0 -0 0 -0.058554199036672451 0.019902059493098125 -0.10668800086438283 0.097062162358136264
leaf_count=33 32 41 57 36 43 40
internal_value=0 -0.15229 0.0653782 -0 -0.293975 0.245906
internal_count=282 116 166 93 75 73
shrinkage=0.261741


Tree=98
num_leaves=6
num_cat=0
split_feature=7 274 113 266 60
split_gain=0.00141025 0.00351959 0.00368743 0.00256792 0.000134951
threshold=0.37980769230769257 0.37980769230769257 0.21825396825396801 0.13809523809523802 0.19375000000000003
decision_type=2 2 2 2 2
left_child=3 2 -2 -1 -4
right_child=1 -3 4 -5 -6
leaf_value=-0.090990817874796251 0.1019736052692144 -0.044065267512791211 0.009858410416269418 0 -0.014393824128435963
leaf_count=51 80 40 32 34 45
internal_value=0 0.0483147 0.186276 -0.160339 -0
internal_count=282 197 157 85 77
shrinkage=0.261741


Tree=99
num_leaves=5
num_cat=0
split_feature=252 61 8 106
split_gain=0.00143281 0.00297692 0.00291891 0.000947988
threshold=0.68333333333333357 0.12916666666666651 0.60555555555555562 0.21825396825396801
decision_type=2 2 2 2
left_child=1 -1 3 -3
right_child=-2 2 -4 -5
leaf_value=0.02294735822489305 0.040004803989339421 -0 0 -0.097566527614485435
leaf_count=53 44 35 50 100
internal_value=0 -0.072682 -0.194242 -0.307137
internal_count=282 238 185 135
shrinkage=0.261741


Tree=100
num_leaves=5
num_cat=0
split_feature=263 101 81 80
split_gain=0.00128966 0.00301399 0.00309604 0.00204019
threshold=0.10555555555555551 1.0000000180025095e-35 0.20714285714285705 0.075498575498575513
decision_type=2 2 2 2
left_child=1 -1 -3 -2
right_child=3 2 -4 -5
leaf_value=-0.012545930978279688 0 0.096472608217916478 -0 -0.072775861324850116
leaf_count=38 32 98 37 77
internal_value=0 0.0728541 0.23196 -0.122677
internal_count=282 173 135 109
shrinkage=0.261741


Tree=101
num_leaves=5
num_cat=0
split_feature=0 60 222 57
split_gain=0.00123563 0.00268014 0.00191327 0.00392329
threshold=0.55777777777777815 0.19375000000000003 1.0000000180025095e-35 0.17156862745098053
decision_type=2 2 2 2
left_child=1 -1 3 -2
right_child=2 -3 -4 -5
leaf_value=0 -0 -0.079066080048670009 -0 0.11163556104105769
leaf_count=45 33 95 61 48
internal_value=0 -0.11618 0.0717358 0.212001
internal_count=282 140 142 81
shrinkage=0.261741


Tree=102
num_leaves=5
num_cat=0
split_feature=147 106 8 200
split_gain=0.00109479 0.00202801 0.00213855 0.00192293
threshold=0.28285714285714308 0.14835164835164852 0.51470588235294112 0.15692307692307703
decision_type=2 2 2 2
left_child=1 -1 -3 -2
right_child=3 2 -4 -5
leaf_value=0 0.072321462481513304 -0.088562975945487898 0 -0
leaf_count=52 65 78 54 33
internal_value=0 -0.0758372 -0.201856 0.111204
internal_count=282 184 132 98
shrinkage=0.261741


Tree=103
num_leaves=6
num_cat=0
split_feature=127 231 256 53 88
split_gain=0.00101096 0.00234806 0.00272521 0.00200573 0.000672711
threshold=0.29285714285714304 0.072751322751322761 0.1742424242424245 0.25265957446808507 0.25543478260869557
decision_type=2 2 2 2 2
left_child=1 -1 3 -3 -2
right_child=4 2 -4 -5 -6
leaf_value=-0.01447395225169138 0 0 -0 0.13162315905576502 -0.068326931397993951
leaf_count=63 36 37 56 46 44
internal_value=0 0.046879 0.187548 0.33269 -0.148288
internal_count=282 202 139 83 80
shrinkage=0.261741


Tree=104
num_leaves=6
num_cat=0
split_feature=205 248 89 67 130
split_gain=0.000995458 0.00228811 0.00227236 0.00150169 9.68846e-05
threshold=0.12916666666666651 0.16843971631205704 0.11437908496732001 1.0000000180025095e-35 1.0000000180025095e-35
decision_type=2 2 2 2 2
left_child=3 2 -2 -1 -3
right_child=1 4 -4 -5 -6
leaf_value=-0 0 0.017715674675735003 -0.097849204055231426 0.062130808864612343 -0
leaf_count=35 34 33 77 70 33
internal_value=0 -0.0869231 -0.238713 0.0872149 0
internal_count=282 177 111 105 66
shrinkage=0.261741


Tree=105
num_leaves=6
num_cat=0
split_feature=79 2 67 252 14
split_gain=0.000761776 0.00237306 0.00174892 0.00144383 0.000191046
threshold=0.14835164835164852 0.25462962962962959 0.22649572649572652 0.51923076923076905 0.32456140350877205
decision_type=2 2 2 2 2
left_child=1 -1 -3 4 -2
right_child=3 2 -4 -5 -6
leaf_value=-0.0075231341457441554 -0 0.09123527339546797 -0 0 -0.072025302755173867
leaf_count=61 33 72 33 36 47
internal_value=0 0.0561775 0.223353 -0.0991386 -0.230738
internal_count=282 166 105 116 80
shrinkage=0.261741


Tree=106
num_leaves=6
num_cat=0
split_feature=266 148 4 65 50
split_gain=0.000812364 0.00287833 0.00339034 0.00148677 0.00185173
threshold=0.087121212121212113 0.38194444444444459 0.16843971631205704 0.12916666666666651 0.43650793650793657
decision_type=2 2 2 2 2
left_child=3 2 -2 -1 -5
right_child=1 -3 -4 4 -6
leaf_value=0 -0 -0.017251200719324875 0.10829071324429375 -0.098049433600212968 0
leaf_count=43 37 51 81 36 34
internal_value=0 0.0567395 0.24626 -0.101643 -0.234406
internal_count=282 169 118 113 70
shrinkage=0.261741


Tree=107
num_leaves=6
num_cat=0
split_feature=200 147 182 18 128
split_gain=0.00064441 0.00143146 0.00132693 0.00118552 0.000328811
threshold=0.15692307692307703 0.14589665653495451 0.10263157894736852 0.10263157894736852 0.087121212121212113
decision_type=2 2 2 2 2
left_child=1 4 -3 -2 -1
right_child=3 2 -4 -5 -6
leaf_value=-0.030441009937170083 0 -0 0.079585918698015942 -0.062301957393240681 0
leaf_count=32 34 50 67 59 40
internal_value=0 0.0287992 0.169035 -0.115441 -0.0033272
internal_count=282 189 117 93 72
shrinkage=0.261741


Tree=108
num_leaves=6
num_cat=0
split_feature=263 11 281 80 37
split_gain=0.000500169 0.0014768 0.00199593 0.0010061 0.000163046
threshold=0.10555555555555551 0.37980769230769257 0.10263157894736852 0.075498575498575513 0.23764705882352952
decision_type=2 2 2 2 2
left_child=1 2 -1 -2 -4
right_child=3 -3 4 -5 -6
leaf_value=-0 0 -0.0087248912104045725 0.095043782809586669 -0.056765824740053913 0
leaf_count=32 32 40 65 77 36
internal_value=0 0.0254679 0.162242 -0.100542 0.29049
internal_count=282 173 133 109 101
shrinkage=0.261741


Tree=109
num_leaves=5
num_cat=0
split_feature=199 169 106 234
split_gain=0.000506791 0.00216177 0.00317245 0.0013609
threshold=0.14550264550264552 0.15692307692307703 0.4083333333333336 0.10263157894736852
decision_type=2 2 2 2
left_child=1 2 -1 -2
right_child=3 -3 -4 -5
leaf_value=0.096028312174552696 -0.064922910585316462 -0.019324574701952483 -0 0
leaf_count=91 55 70 34 32
internal_value=0 0.0193711 0.197232 -0.107427
internal_count=282 195 125 87
shrinkage=0.261741


Tree=110
num_leaves=6
num_cat=0
split_feature=7 89 19 116 5
split_gain=0.000471553 0.00151828 0.00116323 0.000105272 4.76989e-05
threshold=0.61250000000000016 0.27922077922077954 0.24264705882352952 0.13392857142857154 0.34313725490196051
decision_type=2 2 2 2 2
left_child=2 4 3 -1 -2
right_child=1 -3 -4 -5 -6
leaf_value=0.01582748455726719 0 -0 -0.060321740435761495 -0.00033090926747417313 0.070917143896394669
leaf_count=68 36 45 62 34 37
internal_value=0 0.0237954 -0.0842335 0 0.21561
internal_count=282 118 164 102 73
shrinkage=0.261741


Tree=111
num_leaves=5
num_cat=0
split_feature=107 8 263 280
split_gain=0.000428001 0.00171394 0.0008976 0.0015859
threshold=0.29285714285714304 0.60555555555555562 0.10555555555555551 0.087121212121212113
decision_type=2 2 2 2
left_child=2 -2 3 -1
right_child=1 -3 -4 -5
leaf_value=-0 -0.066885076906949503 0 -0 0.069815899458508815
leaf_count=33 80 34 51 84
internal_value=0 -0.0946084 0.00769016 0.13406
internal_count=282 114 168 117
shrinkage=0.261741


Tree=112
num_leaves=5
num_cat=0
split_feature=205 248 89 60
split_gain=0.000418068 0.00137762 0.0014665 0.0006182
threshold=0.12916666666666651 0.16843971631205704 0.11437908496732001 0.12916666666666651
decision_type=2 2 2 2
left_child=3 2 -2 -1
right_child=1 -3 -4 -5
leaf_value=0.046001830056071669 0 0 -0.08323048275502018 -0
leaf_count=51 34 66 77 54
internal_value=0 -0.0785043 -0.20312 0.0195288
internal_count=282 177 111 105
shrinkage=0.261741


Tree=113
num_leaves=6
num_cat=0
split_feature=147 106 8 201 51
split_gain=0.000297033 0.00138499 0.00126655 0.00153713 0.000605969
threshold=0.28285714285714308 0.14835164835164852 0.51470588235294112 0.095454545454545472 0.45993589743589752
decision_type=2 2 2 2 2
left_child=1 -1 3 -3 -2
right_child=4 2 -4 -5 -6
leaf_value=0 0.04232983698010747 0 0 -0.10676118393867447 -0
leaf_count=52 66 32 54 46 32
internal_value=0 -0.0578696 -0.178862 -0.292374 0.0384399
internal_count=282 184 132 78 98
shrinkage=0.261741


Tree=114
num_leaves=6
num_cat=0
split_feature=232 80 231 186 256
split_gain=0.000237108 0.000916522 0.00158872 0.000895396 7.41818e-05
threshold=0.22649572649572652 0.11555555555555551 0.087121212121212113 0.11805555555555551 0.1742424242424245
decision_type=2 2 2 2 2
left_child=1 2 -1 -2 -3
right_child=3 4 -4 -5 -6
leaf_value=-0 -0.052084327984800338 0 0.073547996772470675 0 -0.017214523863020404
leaf_count=34 63 35 71 46 33
internal_value=0 0.020169 0.145149 -0.072472 -0
internal_count=282 173 105 109 68
shrinkage=0.261741


Tree=115
num_leaves=6
num_cat=0
split_feature=78 266 150 8 199
split_gain=0.000222998 0.000959976 0.000924647 0.000584162 0.000225536
threshold=0.27922077922077954 0.087121212121212113 0.17028985507246402 0.55902777777777812 0.095454545454545472
decision_type=2 2 2 2 2
left_child=1 4 -3 -2 -1
right_child=3 2 -4 -5 -6
leaf_value=0 -0.048737574751329851 0.06700532832151794 -0 0 -0.027093904661096745
leaf_count=38 63 73 32 42 34
internal_value=0 0.00956792 0.153273 -0.0782599 -0
internal_count=282 177 105 105 72
shrinkage=0.261741


Tree=116
num_leaves=6
num_cat=0
split_feature=79 123 122 199 18
split_gain=0.000185622 0.00104372 0.000881564 0.00162245 0.000248491
threshold=0.14835164835164852 0.11555555555555551 0.12916666666666651 0.12771739130434803 0.11555555555555551
decision_type=2 2 2 2 2
left_child=2 4 3 -1 -2
right_child=1 -3 -4 -5 -6
leaf_value=0.072863116754458321 -0 0 -0 -0 -0.065997952974840235
leaf_count=94 32 41 35 37 43
internal_value=0 -0.0645767 0.00735683 0.138661 -0.192742
internal_count=282 116 166 131 75
shrinkage=0.261741


Tree=117
num_leaves=6
num_cat=0
split_feature=7 266 274 122 231
split_gain=0.00026398 0.000784479 0.00077366 0.00172385 0.00085715
threshold=0.37980769230769257 0.13809523809523802 0.37980769230769257 0.11805555555555551 0.11437908496732001
decision_type=2 2 2 2 2
left_child=1 -1 3 4 -2
right_child=2 -3 -4 -5 -6
leaf_value=-0.056769409399184484 0 0 -0.0055069399333634913 -0 0.093350026966380659
leaf_count=51 48 34 40 42 67
internal_value=0 -0.0914696 0 0.115368 0.241874
internal_count=282 85 197 157 115
shrinkage=0.261741


Tree=118
num_leaves=5
num_cat=0
split_feature=147 14 218 200
split_gain=0.000246787 0.00109941 0.00100692 0.000298192
threshold=0.28285714285714308 0.63068181818181812 0.060661764705882353 0.15692307692307703
decision_type=2 2 2 2
left_child=1 2 -1 -2
right_child=3 -3 -4 -5
leaf_value=0 0.028871765336379536 0 -0.06886707274814155 -0
leaf_count=50 65 33 101 33
internal_value=0 -0.0612457 -0.156881 0.00180448
internal_count=282 184 151 98
shrinkage=0.261741


Tree=119
num_leaves=5
num_cat=0
split_feature=0 60 199 259
split_gain=0.000143151 0.00102212 0.00040352 0.000405655
threshold=0.55777777777777815 0.19375000000000003 0.14550264550264552 0.15587044534412953
decision_type=2 2 2 2
left_child=1 -1 3 -2
right_child=2 -3 -4 -5
leaf_value=0 -0 -0.053230538731602349 -0 0.04604095721504279
leaf_count=45 34 95 38 70
internal_value=0 -0.057535 0 0.102777
internal_count=282 140 142 104
shrinkage=0.261741


Tree=120
num_leaves=6
num_cat=0
split_feature=252 79 37 2 199
split_gain=0.000132945 0.00101027 0.000263416 7.96582e-05 8.69278e-05
threshold=0.68333333333333357 0.13809523809523802 0.27525252525252558 0.25462962962962959 0.095454545454545472
decision_type=2 2 2 2 2
left_child=1 3 -3 -1 -5
right_child=-2 2 -4 4 -6
leaf_value=-0 0.0058281727298801229 -0.063494136862848854 -0 0.023465217484707205 -0
leaf_count=50 44 66 35 44 43
internal_value=0 -0.04079 -0.183788 0 0.0487831
internal_count=282 238 101 137 87
shrinkage=0.261741


Tree=121
num_leaves=6
num_cat=0
split_feature=80 198 199 79 212
split_gain=9.42526e-05 0.000460094 0.00108216 0.000882938 3.64074e-05
threshold=0.20714285714285705 0.069047619047619066 0.1742424242424245 0.12916666666666651 0.11437908496732001
decision_type=2 2 2 2 2
left_child=1 -1 3 -3 -2
right_child=4 2 -4 -5 -6
leaf_value=-0 0 0.085205117078372444 -0 0 -0.023531348053836779
leaf_count=53 32 63 42 45 47
internal_value=0 0 0.0920356 0.20013 -0.0652971
internal_count=282 203 150 108 79
shrinkage=0.261741


Tree=122
num_leaves=6
num_cat=0
split_feature=252 204 112 187 122
split_gain=0.000141357 0.000810387 0.000769004 0.00012523 1.40735e-05
threshold=0.68333333333333357 0.14550264550264552 0.34848484848484856 0.087121212121212113 0.069047619047619066
decision_type=2 2 2 2 2
left_child=1 4 3 -3 -1
right_child=-2 2 -4 -5 -6
leaf_value=0.0065849242033774293 0.0026228473008767135 -0.074064276471245943 0 -0 -0
leaf_count=61 44 51 36 54 36
internal_value=0 -0.0443844 -0.148744 -0.22683 0
internal_count=282 238 141 105 97
shrinkage=0.261741


Tree=123
num_leaves=5
num_cat=0
split_feature=200 101 80 51
split_gain=8.67107e-05 0.000650835 0.00102517 0.000195127
threshold=0.15692307692307703 1.0000000180025095e-35 0.084219858156028365 0.28991596638655504
decision_type=2 2 2 2
left_child=1 -1 -3 -2
right_child=3 2 -4 -5
leaf_value=-0 0 0.072023153541426133 -0 -0.028326926524145066
leaf_count=51 36 64 74 57
internal_value=0 0 0.127049 -0.0504553
internal_count=282 189 138 93
shrinkage=0.261741


Tree=124
num_leaves=6
num_cat=0
split_feature=252 60 11 113 205
split_gain=9.60234e-05 0.000608903 0.000778002 0.000114266 1.16395e-07
threshold=0.68333333333333357 0.12916666666666651 0.15037593984962402 0.21825396825396801 0.11437908496732001
decision_type=2 2 2 2 2
left_child=1 4 -3 -4 -1
right_child=-2 2 3 -5 -6
leaf_value=0.00072610245549833627 0.0011556259919561704 0 -0 -0.069838861974411012 -0
leaf_count=43 44 49 48 61 37
internal_value=0 -0.0372992 -0.119572 -0.20121 0
internal_count=282 238 158 109 80
shrinkage=0.261741


Tree=125
num_leaves=5
num_cat=0
split_feature=7 172 266 0
split_gain=5.54152e-05 0.000470121 0.000458736 0.000771762
threshold=0.61250000000000016 0.074175824175824162 0.12632978723404253 0.70714285714285707
decision_type=2 2 2 2
left_child=2 -2 3 -1
right_child=1 -3 -4 -5
leaf_value=-0.064776173687087796 0.033611556171460645 -0 0 0
leaf_count=62 80 38 67 35
internal_value=0 0.00519117 -0.0329458 -0.124117
internal_count=282 118 164 97
shrinkage=0.261741


Tree=126
num_leaves=6
num_cat=0
split_feature=127 280 51 127 149
split_gain=3.37334e-05 0.000544762 0.00138596 0.000452456 3.77047e-05
threshold=0.29285714285714304 0.046315789473684206 0.45993589743589752 0.047777777777777808 0.22875816993464052
decision_type=2 2 2 2 2
left_child=1 -1 3 -3 -2
right_child=4 2 -4 -5 -6
leaf_value=-0 -0.017275785789744404 0 -0 0.076188405093803105 0
leaf_count=42 48 35 38 87 32
internal_value=0 0 0.102428 0.218942 -0.0365152
internal_count=282 202 160 122 80
shrinkage=0.261741


Tree=127
num_leaves=5
num_cat=0
split_feature=252 106 147 201
split_gain=9.63913e-05 0.000606045 0.000687219 0.000307659
threshold=0.68333333333333357 0.14835164835164852 0.28285714285714308 0.087121212121212113
decision_type=2 2 2 2
left_child=1 -1 3 -3
right_child=-2 2 -4 -5
leaf_value=0 0 -0 0 -0.064246525939755647
leaf_count=60 44 45 62 71
internal_value=0 -0.0381566 -0.11559 -0.193822
internal_count=282 238 178 116
shrinkage=0.261741


Tree=128
num_leaves=6
num_cat=0
split_feature=4 266 122 106 7
split_gain=2.25712e-05 0.000643676 0.000278526 0.000265783 4.2728e-05
threshold=0.16843971631205704 0.10555555555555551 0.081939799331103666 0.36931818181818205 0.62828947368421062
decision_type=2 2 2 2 2
left_child=2 4 -1 -3 -2
right_child=1 3 -4 -5 -6
leaf_value=0 -0.011049698949024717 0.054284403617788753 -0.033631019472174707 0 0
leaf_count=43 52 62 52 40 33
internal_value=0 0 -0.0284503 0.138693 -0
internal_count=282 187 95 102 85
shrinkage=0.261741


Tree=129
num_leaves=6
num_cat=0
split_feature=0 51 205 51 82
split_gain=2.30274e-05 0.000236098 0.000153758 0.000384604 9.34717e-05
threshold=0.55777777777777815 0.19259259259259254 0.22649572649572652 0.34523809523809507 0.15587044534412953
decision_type=2 2 2 2 2
left_child=1 -1 3 -2 -3
right_child=2 4 -4 -5 -6
leaf_value=0 0.039978654227821042 -0 -0 -0 -0.034875822978071125
leaf_count=36 63 38 44 35 66
internal_value=0 -0.0244735 0 0.0664838 -0.0954051
internal_count=282 140 142 98 104
shrinkage=0.261741


Tree=130
num_leaves=6
num_cat=0
split_feature=49 79 14 199 2
split_gain=3.07719e-05 0.000396492 0.000213936 1.71287e-05 1.84826e-05
threshold=0.80909090909090919 0.14835164835164852 0.25462962962962959 0.1742424242424245 0.25462962962962959
decision_type=2 2 2 2 2
left_child=1 3 -3 4 -1
right_child=-2 2 -4 -5 -6
leaf_value=-0 0 0 -0.040628103610504639 -0 0.010000451121728447
leaf_count=45 33 35 62 38 69
internal_value=0 -0.0210394 -0.117312 0 0.0225638
internal_count=282 249 97 152 114
shrinkage=0.261741


Tree=131
num_leaves=6
num_cat=0
split_feature=2 65 207 65 7
split_gain=1.54518e-05 0.000463268 0.000239616 0.00019277 0.000161135
threshold=0.30384615384615404 0.11437908496732001 0.19090909090909103 0.38194444444444459 0.61250000000000016
decision_type=2 2 2 2 2
left_child=1 -1 4 -3 -2
right_child=2 3 -4 -5 -6
leaf_value=0 -0 -0.047251576758538312 -0 0 0.032476647358596983
leaf_count=35 51 60 38 34 64
internal_value=0 -0.0210375 0 -0.137813 0.0761792
internal_count=282 129 153 94 115
shrinkage=0.261741


Tree=132
num_leaves=4
num_cat=0
split_feature=252 200 205
split_gain=1.18727e-05 0.000225989 0.000143458
threshold=0.68333333333333357 0.095454545454545472 0.11437908496732001
decision_type=2 2 2
left_child=1 -1 -3
right_child=-2 2 -4
leaf_value=0 0 0 -0.032701249981335265
leaf_count=112 44 41 85
internal_value=0 -0.0137025 -0.0831571
internal_count=282 238 126
shrinkage=0.261741


Tree=133
num_leaves=4
num_cat=0
split_feature=252 106 147
split_gain=1.52651e-06 0.000345289 0.000298023
threshold=0.6201923076923076 0.14835164835164852 0.28285714285714308
decision_type=2 2 2
left_child=1 -1 -3
right_child=-2 2 -4
leaf_value=0 0 -0.035860005142824822 0
leaf_count=57 56 111 58
internal_value=0 -0.00500889 -0.0844548
internal_count=282 226 169
shrinkage=0.261741


Tree=134
num_leaves=4
num_cat=0
split_feature=127 107 127
split_gain=2.01197e-06 0.000446036 0.000550482
threshold=0.29285714285714304 0.29285714285714304 0.047777777777777808
decision_type=2 2 2
left_child=1 2 -1
right_child=-2 -3 -4
leaf_value=-0 -0 -0 0.049626965182325504
leaf_count=46 80 67 89
internal_value=0 0.00571143 0.103018
internal_count=282 202 135
shrinkage=0.261741


Tree=135
num_leaves=4
num_cat=0
split_feature=49 106 232
split_gain=8.99687e-07 0.000429982 7.0619e-05
threshold=0.80909090909090919 0.12132352941176451 0.22649572649572652
decision_type=2 2 2
left_child=1 -1 -3
right_child=-2 2 -4
leaf_value=0 0 -0 -0.036484788272836563
leaf_count=59 33 109 81
internal_value=0 -0.00365792 -0.091857
internal_count=282 249 190
shrinkage=0.261741



feature importances:
V148=31
V107=26
V81=25
V267=22
V1=20
V8=20
V80=20
V200=18
V253=17
V82=16
V3=15
V9=13
V52=13
V260=12
V102=11
V170=11
V61=11
V208=11
V74=10
V206=10
V128=10
V54=10
V90=9
V5=9
V281=9
V50=8
V79=8
V123=8
V264=8
V108=8
V66=8
V15=7
V275=7
V135=7
V114=7
V201=6
V202=6
V226=6
V257=6
V254=6
V131=5
V124=5
V129=5
V6=5
V51=5
V173=4
V205=4
V184=4
V152=4
V156=4
V75=4
V85=4
V83=4
V209=4
V212=4
V213=4
V219=4
V68=4
V32=4
V10=4
V39=3
V158=3
V38=3
V138=3
V258=3
V19=3
V12=3
V150=3
V160=3
V282=3
V89=3
V233=3
V232=3
V187=3
V59=3
V227=3
V199=3
V62=3
V115=3
V113=3
V109=3
V249=2
V167=2
V223=2
V132=2
V117=2
V55=2
V60=2
V64=2
V71=2
V73=2
V99=2
V101=2
V37=2
V20=2
V4=2
V149=2
V40=1
V286=1
V234=1
V283=1
V235=1
V246=1
V41=1
V11=1
V276=1
V251=1
V18=1
V269=1
V272=1
V255=1
V256=1
V33=1
V67=1
V25=1
V23=1
V261=1
V22=1
V270=1
V268=1
V188=1
V153=1
V162=1
V163=1
V164=1
V151=1
V169=1
V139=1
V174=1
V183=1
V134=1
V185=1
V125=1
V58=1
V197=1
V198=1
V116=1
V110=1
V106=1
V204=1
V104=1
V76=1
V216=1
V69=1
V159=1
