tree
version=v2
num_class=1
num_tree_per_iteration=1
label_index=0
max_feature_idx=49
objective=binary sigmoid:1
feature_names=V1 V2 V3 V4 V5 V6 V7 V8 V9 V10 V11 V12 V13 V14 V15 V16 V17 V18 V19 V20 V21 V22 V23 V24 V25 V26 V27 V28 V29 V30 V31 V32 V33 V34 V35 V36 V37 V38 V39 V40 V41 V42 V43 V44 V45 V46 V47 V48 V49 V50
feature_infos=[0.23481064065857901:47.274649825597898] [0.25622159527731297:31.277672359360199] [0:28.4181237244192] [0.50362591217364605:31.755194074770301] [0:4.3342859657556696] [0.95524907508983403:31.3514754298198] [0:14.273842472113101] [0.95524907508983403:27.696259493784599] [0:10.960271898229699] [0.47984054208222798:27.0183446793569] [0.23992027104111399:41.0668675252669] [0.71885117945730403:27.025547786476501] [0.22673195427885701:9.17604158921554] [0:15.5482926928374] [0:17.190781754762899] [0.46995720617512698:21.249716335748602] [0.46962128131715902:20.294672904928401] [0:5.9227827754414299] [0:14.0797407163166] [0.70619995634555999:31.277672359360199] [0.021853578739536:0.031940585522756401] [0.022224636206959601:0.030705738641056801] [0.0187451328809073:0.029416952895869701] [0.020549137541912701:0.030081854801728699] [0.019276310063650898:0.0292910871508919] [0.022004670629144199:0.028887066365561102] [0.021089801722363601:0.030095420520967898] [0.0209242816446959:0.028058999126451399] [0.016585899390117301:0.028996132112143701] [0.0201594571400487:0.027788247157944701] [0.020595255900950099:0.0302096979906008] [0.0209875617937119:0.029447019882290801] [0.0216661761832222:0.028228646826441699] [0.017647497047660499:0.0285984031884964] [0.0199492560522933:0.0294839855971912] [0.020310994556428999:0.030791025717363502] [0.019729428011564298:0.027574086659815599] [0.016959512885564201:0.030329528522595399] [0.0202876870327716:0.028426679462855299] [0.0204484604341706:0.029575785168927799] [0.0193887291715884:0.028705578998262201] [0.021303392796011799:0.030181608737794199] [0.018409317770754299:0.031071065359690699] [0.020506102456355601:0.0280556449407998] [0.019564321891450898:0.031075409949772499] [0.0190924816540953:0.028581357181634601] [0.0188449305735423:0.030436067021831398] [0.020345859986202999:0.031236519686728598] [0.0213840029566836:0.029756250676240201] [0.0203568162692408:0.0316957712376294]
tree_sizes=1677 1418 1516 1808 1524 1588 1819 1596 943 1310 1388 1463 1472 1074 1381 1155 948 1604 1336 1631 1419 1707 1027 1307 1543 1298 1241 1750 1070 1797 1074 1361 1081 1378 1176 1634 936 1693 1168 1118 1466 1248 1393 1479 1055 954 1465 791 1106 1157 1010 1326 724 1151 1480 1363 1132 1167 950 891 1012 1012 773 746 855 976 916 759 840 858 760 702 818 735 781 788 803 715 645 622 619 617 665 643 613 586 557 569 564 585 580 548 565 492 547 471 528 491 557 496 549 416 569 479 476 473 494 412 510 478 469 430 419 417 474 414 413 481 496 425 420 437 418 430 418 355 484 401 418 399 424 411 408 419 418 351 418 417 416 421 396 401 336 439 399 414 400 422 416 393 422 408 356 419 420 337 419 341 419 339 396 340 411 341 357 356 340 422 358 334 358 357 403 422 357 395 341 339 339 337 342 416 360 397 342 337 335 339 342 341 435 339 337 401 338 339 358 333 319 337 340 336 341 395 341 339 338 337 342 333 319 338 318 319 342 340 343 318 337 343 340 364 336 340 333 316 342 330 318 319 342 329 321 333 319 317 333 330 322 327 322 330 317 322 316 321 324

Tree=0
num_leaves=22
num_cat=0
split_feature=13 0 9 9 20 12 24 23 0 35 42 35 47 39 13 6 36 9 0 29 8
split_gain=41.2657 42.0134 19.6617 17.246 11.0101 9.49315 9.41152 8.29578 7.34791 8.80211 5.69841 4.84051 10.8218 4.59315 4.44656 3.49984 3.14341 2.19497 1.33201 0.916365 0.689702
threshold=5.0747815300973604 6.9146824899557906 3.0371559894456355 7.440901002938566 0.026748257355585604 5.5710438468211407 0.025709037011454702 0.026306810564951006 6.2133612949348604 0.025121842347085803 0.024811233646796254 0.025611398120029754 0.024290805501263304 0.026158634384773002 8.4445064668778418 2.8986202734103905 0.022361442740386803 1.9399602451485103 5.7656845340106253 0.024081729667402404 2.2707744379901702
decision_type=2 2 2 2 2 2 2 2 2 2 2 2 2 2 2 2 2 2 2 2 2
left_child=1 2 4 6 16 15 10 11 18 -10 -2 13 -13 -3 -7 -5 -1 -6 -4 -17 -12
right_child=3 7 8 5 17 14 -8 -9 9 -11 20 12 -14 -15 -16 19 -18 -19 -20 -21 -22
leaf_value=-0 -0.18406121699814965 0.32075876623527361 -0.37176220528939619 -0 -0 0.36875916187617097 -0.36945233033304781 -0.22146733274836544 -0.3687591618761708 0.36945233033304781 0.18406121699815003 0.3699156252116817 -0.36945233033304781 0.040935144552000056 -0.18406121699815012 -0.18406121699815028 0.37131121825897884 -0.36945233033304781 -0.20581251961534169 -0.37199552770524774 0.3708450662470178
leaf_count=4 4 87 29 4 4 4 5 5 4 5 4 6 5 9 4 4 15 5 9 56 10
internal_value=0 0.545291 -0.612897 -1.07319 0.713007 -1.5547 0.433601 1.32094 -1.40304 0.219936 1.10844 1.43871 0.180059 1.58268 0.496361 -1.81141 1.57566 -1.10579 -1.78766 -1.93211 1.70953
internal_count=282 187 75 95 28 72 23 112 47 9 18 107 11 96 8 64 19 9 38 60 14
shrinkage=0.186123


Tree=1
num_leaves=18
num_cat=0
split_feature=13 0 4 9 40 20 18 18 19 12 35 19 31 6 40 10 0
split_gain=28.6755 34.0706 11.6728 10.2658 10.6845 9.32492 5.80532 5.33426 5.33102 5.03542 4.85595 6.54366 2.98014 2.67263 1.0228 0.535997 0.0422479
threshold=5.485599800230256 8.3513252918929624 0.6311511678865096 7.440901002938566 0.025563317800938051 0.026434795095000605 2.8747965162494205 0.28244724581656855 17.171865116102804 5.5710438468211407 0.025109577985330655 7.5336646004391215 0.023535769486757955 3.1558931431238402 0.025865250858499354 9.733136401867327 7.1813240366137263
decision_type=2 2 2 2 2 2 2 2 2 2 2 2 2 2 2 2 2
left_child=1 2 5 4 15 6 -1 -7 10 13 14 -12 -4 -5 -3 -2 -14
right_child=3 8 12 9 -6 7 -8 -9 -10 -11 11 -13 16 -15 -16 -17 -18
leaf_value=0.15423761773950548 0.15530932947684759 0.3279331448351106 -0.048657448051486286 -0 -0.34172837463527728 0.18715933430344511 -0.17861444057763329 -0.29355622578445983 -0.18498616627080952 0.04388930152458604 -0.098526307036767666 0.27852235766467104 -0.31848982179597862 -0.31570324590516891 0.12854613828834605 0.32844692095495326 -0.37590378081405323
leaf_count=43 4 60 7 4 6 4 9 17 4 7 11 16 20 54 4 8 4
internal_value=0 0.416413 -0.38572 -1.00225 0.349836 0.056956 0.518417 -1.07999 1.29189 -1.37834 1.39221 0.669856 -1.42676 -1.57565 1.69572 1.46013 -1.7664
internal_count=282 199 104 83 18 73 52 21 95 65 91 27 31 58 64 12 24
shrinkage=0.186123


Tree=2
num_leaves=19
num_cat=0
split_feature=11 0 9 37 40 14 12 17 14 0 17 14 23 31 0 10 7 12
split_gain=22.9825 22.8388 15.7941 11.3791 9.1537 7.69656 6.71085 6.23224 6.09118 3.82 2.28535 2.29128 1.41043 2.12694 0.359128 0.0608766 0.0383063 0.00986547
threshold=10.283244351998801 6.2133612949348604 3.0371559894456355 0.024098597208729002 0.026039386902704905 0.77812522224709857 0.46828524760307405 1.0493851859151653 5.421858676728136 9.9930489404060605 0.27259715160132209 4.8327629533105556 0.026043396435628252 0.025700413293415204 15.014750397123253 9.9272013504273868 15.831786007187551 1.2032561349185602
decision_type=2 2 2 2 2 2 2 2 2 2 2 2 2 2 2 2 2 2
left_child=1 2 5 14 7 6 -1 9 -9 -3 11 -5 17 -14 -2 -12 -17 -4
right_child=3 4 12 10 -6 -7 -8 8 -10 -11 15 -13 13 -15 -16 16 -18 -19
leaf_value=0.2062981469489906 0.31004930006707754 0.14005067706706614 -0.32664634968726847 -0.27697923446467509 -0.31935020954196358 0.30514231368375427 -0.32562752033672193 -0.15900088962121706 0.18905843147830595 0.28505829173758279 -0.34693397319997799 0.14218741405482394 0.078190788541273815 -0.29680335660957291 0.14202788464995136 -0.28185815110037071 -0.32532396787253925 -0.29402915366845106
leaf_count=6 4 55 7 4 6 14 8 15 15 54 4 4 4 5 4 40 6 27
internal_value=0 0.323442 -0.63358 -1.08585 0.797943 0.561573 -0.510861 0.906139 0.067034 1.13668 -1.41187 -0.357343 -1.4259 -0.691184 1.23344 -1.57705 -1.54802 -1.61959
internal_count=282 216 71 66 145 28 14 139 30 109 58 8 43 9 8 50 46 34
shrinkage=0.186123


Tree=3
num_leaves=23
num_cat=0
split_feature=18 0 11 0 9 14 0 15 44 4 40 7 14 6 46 5 38 40 5 41 6 7
split_gain=17.5522 18.6453 10.2865 11.9118 7.72828 5.68595 4.70876 6.82722 3.98653 3.83821 4.2486 3.48582 4.08934 2.82737 5.87797 2.38499 2.05222 3.29036 1.53454 0.556564 0.505207 0.413116
threshold=3.4924046329225003 6.9146824899557906 10.283244351998801 10.493598518888051 3.0371559894456355 0.77812522224709857 5.7656845340106253 4.0210695107951357 0.025846457280337801 0.89031506681379058 0.024452857259828552 9.2489869215966767 5.6461040795753661 5.9590504098204358 0.024961891436857904 10.842811427248252 0.023676758773517805 0.024889626840106354 5.8997253047803655 0.024941519332036904 2.4304086459411653 14.142500500186502
decision_type=2 2 2 2 2 2 2 2 2 2 2 2 2 2 2 2 2 2 2 2 2 2
left_child=1 4 3 11 5 8 -6 -8 -1 16 20 12 -2 19 -15 -13 17 -3 -12 -5 -11 -18
right_child=2 9 -4 13 6 -7 7 -9 -10 10 18 15 -14 14 -16 -17 21 -19 -20 -21 -22 -23
leaf_value=-0.23897392237503479 -0.30201181133607469 0.27120883971434079 -0.26779710785279198 0.28268734680608437 -0.27205057655758635 0.27387504259168333 0.31703896488260658 -0.2115513879667649 0.19743373821590432 0.29406011017975425 -0.34288514871235259 0.27215258775670814 0.13056021847270458 -0.29636536982131934 0.29590349936038385 -0.1581783639655599 0.27753533813690634 -0.090197996021829027 0.0029890541610400525 0.11104335247277487 0.10305228038390048 0.13717966656218658
leaf_count=9 24 9 48 16 29 14 6 10 5 5 4 4 4 5 5 4 58 7 4 4 4 4
internal_value=0 0.437507 -0.655133 -0.121292 -0.377872 0.495954 -0.934934 -0.0117681 -0.445847 1.06327 0.151152 -0.943399 -1.29505 0.867496 -0.0256205 0.293052 1.26715 0.583019 -0.975336 1.34267 1.14445 1.44589
internal_count=282 168 114 66 73 28 45 16 14 95 17 36 28 30 10 8 78 16 8 20 9 62
shrinkage=0.186123


Tree=4
num_leaves=19
num_cat=0
split_feature=11 19 37 10 5 9 6 23 4 26 2 27 16 24 25 13 21 43
split_gain=12.8774 12.1013 6.86187 6.83021 5.07307 5.57354 3.83145 4.89539 3.46309 3.96755 2.78759 1.80879 1.33193 1.27669 0.631955 0.387597 0.338618 0.327823
threshold=10.283244351998801 6.664530874372951 0.024098597208729002 7.1926644633372954 5.3774664514534161 3.0371559894456355 5.9590504098204358 0.024577356369283803 0.98687772320080858 0.025335138517500456 3.0395191833730206 0.023938130831805203 5.0793660612279856 0.024340544851611804 0.027208309414566954 4.0936847562824612 0.025720598106548753 0.024614251478947604
decision_type=2 2 2 2 2 2 2 2 2 2 2 2 2 2 2 2 2 2
left_child=1 3 17 4 5 -1 8 16 11 -10 -5 -3 -6 -4 -12 -15 -8 -2
right_child=2 6 13 10 12 -7 7 -9 9 -11 14 -13 -14 15 -16 -17 -18 -19
leaf_value=0.085266051341115562 0.26984991542768982 0.090238852008584072 0.015274758103503863 0.082128487602547151 0.26288246149840871 -0.1790222374970474 0.26903558146411088 -0.27856746098696067 0.13990734926715076 -0.27873738966307687 -0.27213905246423498 0.25569929417065962 -0.010066647261237285 -0.1106486337853362 -0.091823067227897348 -0.24940725405270536 0.093356436474880289 0.09837554329933601
leaf_count=28 4 14 4 5 15 27 4 7 14 5 26 59 4 4 4 50 4 4
internal_value=0 0.255624 -0.901241 -0.266239 0.118394 -0.22404 0.79155 -0.232007 0.966718 0.132059 -1.07592 1.19468 1.11414 -1.18909 -1.33536 -1.28199 1.00426 1.02238
internal_count=282 216 66 109 74 55 107 15 92 19 35 73 19 58 30 54 8 8
shrinkage=0.186123


Tree=5
num_leaves=20
num_cat=0
split_feature=18 0 11 0 18 19 9 7 12 7 6 46 19 11 17 25 23 23 9
split_gain=10.481 11.6351 6.41538 7.15602 4.54366 2.89974 5.82945 2.27735 3.02023 2.24523 1.7732 3.52261 1.64701 1.60201 1.5179 1.14564 0.45674 0.349659 0.0293911
threshold=3.4924046329225003 6.9146824899557906 10.283244351998801 10.493598518888051 0.28244724581656855 2.3895871461316904 3.2389546911688751 4.774763971051911 1.3144297607715203 9.2489869215966767 5.9590504098204358 0.024961891436857904 8.5856295101334918 12.260915629908451 1.0493851859151653 0.027020557260193003 0.023347243775214101 0.025109086185381751 2.0914519872940756
decision_type=2 2 2 2 2 2 2 2 2 2 2 2 2 2 2 2 2 2 2
left_child=1 4 3 9 17 18 -7 8 -3 15 16 -12 -11 14 -9 -2 -5 -1 -6
right_child=2 7 -4 10 5 6 -8 13 -10 12 11 -13 -14 -15 -16 -17 -18 -19 -20
leaf_value=0.10992179697437826 -0.24187610226401526 0.17127055692337251 -0.23686196732510814 0.077008489015296444 -0.30016780068444299 0.19661475745922599 -0.14333721719792225 0.22521316729424457 -0.283312720761906 0.24585551306358278 -0.25354392852985019 0.24996474518524819 -0.14294463129184903 -0.042748700007439355 -0.0098357246267124446 0.0089374089892285992 0.2473112397039855 0.27380770179577113 -0.24701127826601993
leaf_count=4 24 6 48 4 5 13 37 75 4 4 5 5 4 5 5 4 16 5 9
internal_value=0 0.362133 -0.565936 -0.112181 -0.329245 -0.562675 -0.282612 0.904528 -0.0754046 -0.803209 0.735627 -0.0400135 0.275402 1.03797 1.12028 -1.11174 1.15157 1.09708 -1.44835
internal_count=282 168 114 66 73 64 50 95 10 36 30 10 8 85 80 28 20 9 14
shrinkage=0.186123


Tree=6
num_leaves=23
num_cat=0
split_feature=18 0 11 0 12 4 33 20 12 41 39 36 16 14 3 37 38 7 0 39 5 11
split_gain=7.94612 9.0503 5.21078 5.37208 5.05301 4.28625 2.46533 3.27742 1.81901 4.09757 1.77422 1.75575 1.62186 1.49152 2.97648 1.28587 1.43705 1.2053 0.722206 0.658793 0.250381 0.221456
threshold=3.4924046329225003 5.2672777743149153 10.283244351998801 10.493598518888051 0.46828524760307405 0.89031506681379058 0.024540760961486403 0.025224866009894754 2.8778901717317207 0.024891206153853405 0.026198191910653704 0.024046380165783355 6.4468144079859764 2.1207606158306453 3.5106832720679804 0.025092719415112204 0.025883376448054902 2.3346673908434603 9.7178477628217106 0.026110295645070003 5.2461601947877563 7.0180312480548404
decision_type=2 2 2 2 2 2 2 2 2 2 2 2 2 2 2 2 2 2 2 2 2 2
left_child=1 4 3 10 17 8 18 -8 19 -10 11 -2 -12 20 -15 21 -17 -1 -7 -3 -6 -5
right_child=2 5 -4 15 13 6 7 -9 9 -11 12 -13 -14 14 -16 16 -18 -19 -20 -21 -22 -23
leaf_value=0.24912180512789792 0.027089900249444535 0.23163122076060283 -0.22628126186106146 0.10262983484098229 -0.24699538426953169 -0.26287435705580442 -0.18040337233091452 0.26517767810150328 0.20268689989779951 -0.2571245342305214 -0.15171401410348015 -0.24832916259360277 0.24274434591748498 0.17416298873275288 -0.2320196152121006 -0.094008130994631442 0.23692654079950567 -0.039421220581275895 -0.027265662816545196 0.08082025256310002 -0.11141846635925477 0.23561220992554638
leaf_count=8 6 65 48 4 23 7 5 8 13 5 4 22 4 7 9 8 4 4 4 6 4 14
internal_value=0 0.327244 -0.525415 -0.10069 -0.480185 0.722588 -0.139971 0.533707 0.983453 0.296236 -0.721192 -1.01602 0.25271 -0.895389 -0.274173 0.683966 0.0777217 0.824451 -0.965542 1.16531 -1.2366 1.1211
internal_count=282 168 114 66 55 113 24 13 89 18 36 28 8 43 16 30 12 12 11 71 27 18
shrinkage=0.186123


Tree=7
num_leaves=20
num_cat=0
split_feature=18 19 11 7 9 14 27 6 11 3 9 19 6 10 28 2 21 20 47
split_gain=6.07835 6.07515 4.29884 3.598 3.43068 3.70757 2.88 2.87352 1.87954 2.29134 2.58153 1.66005 1.55765 2.19885 1.48368 1.13585 1.02841 0.889864 0.0383293
threshold=3.4924046329225003 5.8561584179099357 10.283244351998801 9.0515482038793582 3.0371559894456355 0.77812522224709857 0.026034658981312703 5.9590504098204358 6.6033845805108156 6.8197398932193805 4.7256090151191215 7.6903044955960107 2.7866879478223257 4.9974796363464113 0.025101382303196054 5.3379272668275908 0.024967094194475903 0.024647764778354803 0.024132121583121453
decision_type=2 2 2 2 2 2 2 2 2 2 2 2 2 2 2 2 2 2 2
left_child=1 4 3 11 5 6 -1 -5 -3 10 -10 17 13 -6 -9 -13 -11 -2 -14
right_child=2 8 -4 7 12 -7 -8 14 9 16 -12 15 18 -15 -16 -17 -18 -19 -20
leaf_value=-0.20524488793148946 0.041654408675204549 0.22721100219991602 -0.21818281782562365 0.22624388130142253 -0.17768652167998322 0.23204858071992679 0.23774385385016839 -0.18921978613259435 0.246853221570699 -0.037832515461076528 -0.11063534402237266 -0.12239244816241512 -0.28298647267187338 0.074002911832695487 0.1350176013613435 0.23485747110551328 0.2264921295869694 -0.21492820025985043 -0.22073081589127547
leaf_count=10 4 39 48 19 17 17 4 8 6 4 18 4 4 14 5 4 23 22 12
internal_value=0 0.301473 -0.488265 -0.0902393 -0.200318 0.420468 -0.444687 0.538859 0.777684 0.450701 -0.109732 -0.661359 -0.646504 -0.316457 -0.350841 0.356532 0.993388 -0.971065 -1.30508
internal_count=282 168 114 66 78 31 14 32 90 51 24 34 47 31 13 8 27 26 16
shrinkage=0.186123


Tree=8
num_leaves=11
num_cat=0
split_feature=13 40 7 15 1 41 17 4 23 38
split_gain=4.55401 4.03682 2.97644 3.86781 3.11579 2.42367 2.08187 1.10331 0.945853 0.369924
threshold=7.7458581189518156 0.026039386902704905 7.7509895461615557 5.0947466504974264 9.5170756055455819 0.025075458959502053 1.3870582896101702 0.25230725570034157 0.023617345556576155 0.025897218920599853
decision_type=2 2 2 2 2 2 2 2 2 2
left_child=1 2 3 5 6 -1 -4 -5 -3 -2
right_child=9 8 4 7 -6 -7 -8 -9 -10 -11
leaf_value=0.10881221345845447 -0.21410340685685655 0.052708057173511701 0.16078090320387486 -0.0023427548999241884 -0.22228377389574211 -0.060452000333379018 -0.048586675622301879 -0.22904893046663363 -0.22737715714732284 -0.032201627452771213
leaf_count=51 31 4 87 8 7 34 15 22 19 4
internal_value=0 0.119368 0.230859 -0.0617396 0.569781 0.217256 0.696631 -0.922019 -0.976924 -1.03582
internal_count=282 247 224 115 109 85 102 30 23 35
shrinkage=0.186123


Tree=9
num_leaves=16
num_cat=0
split_feature=0 11 11 18 20 41 2 10 0 22 23 26 27 19 40
split_gain=4.30194 5.43296 3.77015 2.71637 2.38235 2.2747 2.41132 1.87806 2.67059 1.38151 0.807318 0.782714 0.741078 0.839815 0.159497
threshold=8.3513252918929624 11.97789720799855 7.7936210595864965 3.5327344547040704 0.026434795095000605 0.025671237226405654 3.9585404687790353 2.3547606790933804 5.2672777743149153 0.024235780125769001 0.023693237414333202 0.025556896230818003 0.023098960046564754 7.6903044955960107 0.024364313571596553
decision_type=2 2 2 2 2 2 2 2 2 2 2 2 2 2 2
left_child=2 3 4 12 7 6 -5 -1 -9 11 -3 -6 13 -2 -4
right_child=1 10 14 5 9 -7 -8 8 -10 -11 -12 -13 -14 -15 -16
leaf_value=0.22565297310667312 -0.092496858687783068 0.058316175866413793 -0.084304942537664171 -0.24124461755995821 0.15589229035488494 -0.22080075105386285 0.1273172137460121 -0.14643959168721238 0.078985229432586762 -0.23255124462550142 -0.21539757379883931 -0.13230410883122112 0.21502788354948213 0.21281241456800376 -0.21670752593411549
leaf_count=11 4 4 4 4 4 9 37 22 35 16 22 5 59 5 41
internal_value=0 0.364413 -0.34481 0.619957 -0.066278 0.125115 0.40618 0.193561 -7.87982e-05 -0.77071 -0.920511 0.0492128 1.01847 0.302046 -1.10982
internal_count=282 144 138 118 93 50 41 68 57 25 26 9 68 9 45
shrinkage=0.186123


Tree=10
num_leaves=17
num_cat=0
split_feature=11 0 18 4 21 6 0 10 6 46 29 17 32 12 5 40
split_gain=3.35702 4.05096 2.86214 2.15239 1.91894 1.78597 1.88832 0.978685 0.880806 1.14525 0.877307 0.638161 0.540085 0.343879 0.113885 0.0897911
threshold=10.283244351998801 10.493598518888051 2.2917849828657002 1.0000000180025095e-35 0.024435760545717253 3.2709842284226256 4.5002305043613609 6.7327733771099014 5.9590504098204358 0.024961891436857904 0.023074169219072255 0.26805055184498205 0.024985978614582054 1.0268848574819438 2.9436433829779056 0.023705254033618301
decision_type=2 2 2 2 2 2 2 2 2 2 2 2 2 2 2 2
left_child=1 3 11 4 14 6 -5 -7 13 12 -6 -2 -10 -3 -1 -4
right_child=2 8 15 5 10 7 -8 -9 9 -11 -12 -13 -14 -15 -16 -17
leaf_value=-0.08314613558771923 0.21391118210283053 0.036806265079598964 -0.095556126980422804 -0.16653469956002862 -0.049633524003579219 0.049415805108505441 0.031951117604383773 -0.21768455620321581 -0.21967671382087725 0.21912765115745078 0.15454600730708351 -0.048587470604592092 0.068179695200394574 0.20894251224551857 -0.22333958914848609 -0.20640359564845756
leaf_count=4 7 5 4 19 7 5 52 26 4 5 33 4 4 48 4 51
internal_value=0 0.155649 -0.687328 -0.0831232 0.405108 -0.32105 -0.0866764 -0.9339 0.832271 0.176047 0.643897 0.597812 -0.543861 1.03882 -0.916806 -1.069
internal_count=282 216 66 150 48 102 71 31 66 13 40 11 8 53 8 55
shrinkage=0.186123


Tree=11
num_leaves=18
num_cat=0
split_feature=18 0 11 0 4 37 15 3 7 22 32 6 27 15 24 42 0
split_gain=2.79643 3.97676 2.02916 2.21771 1.60758 1.96824 1.47942 1.12201 1.08476 0.777088 0.775305 0.705253 0.642291 0.633085 0.604663 0.12397 0.00979877
threshold=3.5327344547040704 8.3853410969364113 10.283244351998801 10.493598518888051 1.0048876069523052 0.026101730492308402 4.440050362807396 6.8197398932193805 9.2489869215966767 0.023242882207042504 0.026222339035019002 7.0367313979000956 0.025485440560181254 6.3661975469629057 0.025212369899387101 0.026098539183566655 7.6465920612631804
decision_type=2 2 2 2 2 2 2 2 2 2 2 2 2 2 2 2 2
left_child=1 4 3 8 5 6 -1 16 12 -3 -11 14 -2 -10 -5 -7 -6
right_child=2 9 -4 11 7 15 -8 -9 13 10 -12 -13 -14 -15 -16 -17 -18
leaf_value=0.083784067278011548 -0.21832319412942527 -0.031165140475775698 -0.20128159531221812 0.20524453946020355 -0.20543652042594818 -0.21795840275114522 -0.12166278377866763 0.10537510031703665 0.21064235506724632 0.20703242743029554 -0.015084743300609788 -0.095348277016804317 0.0057996196255189533 -0.114106512201712 0.0073279404869759862 -0.086477277034827632 -0.25356703281468662
leaf_count=55 20 5 48 19 13 9 12 4 4 60 5 4 5 4 7 4 4
internal_value=0 0.226521 -0.434579 -0.114511 -0.111416 0.0645313 0.253821 -0.870362 -0.639797 0.867481 0.985342 0.525743 -0.937578 0.36118 0.753336 -1.00151 -1.21283
internal_count=282 171 111 63 101 80 67 21 33 70 65 30 25 8 26 13 17
shrinkage=0.186123


Tree=12
num_leaves=18
num_cat=0
split_feature=20 41 43 43 19 6 0 6 34 10 0 32 42 24 30 8 30
split_gain=2.33149 1.91567 1.44331 1.40558 1.67712 1.531 1.71127 1.49037 1.33023 0.724931 0.876786 0.698484 0.548035 0.514496 0.50286 0.111433 0.0308064
threshold=0.024195877461101353 0.025484137038274252 0.024806803852133356 0.024304079614040953 6.0016748081416056 2.8659605889536954 11.1323215886755 3.8452085985582403 0.025473565503338954 9.545711166496373 10.881813076793152 0.024064493714611754 0.026332736653197502 0.026560259640049953 0.024265691753545652 0.55288674138519867 0.023934281958241904
decision_type=2 2 2 2 2 2 2 2 2 2 2 2 2 2 2 2 2
left_child=9 3 8 4 13 11 -7 -6 14 12 -11 -5 -1 -2 -3 -4 -17
right_child=1 2 15 5 7 6 -8 -9 -10 10 -12 -13 -14 -15 -16 16 -18
leaf_value=0.21093676956591387 -0.22207211223835963 -0.064304308186143896 -0.096862230093522753 -0.076737395031647559 0.097266381033289648 -0.13149144354307687 0.076509320961778232 -0.12112059286433154 -0.2197043934550609 -0.20290143151295731 0.14924013321007332 0.14609072983055149 -0.010325297664568746 0.0041006520273415082 0.2165024169742199 -0.27440205602206336 -0.21351955581879772
leaf_count=26 18 4 4 6 28 33 39 23 6 5 7 45 4 4 6 4 20
internal_value=0 -0.133213 -0.727483 0.0154095 -0.333365 0.247897 -0.11504 0.0341029 0.0235243 0.703803 -0.0401181 0.652512 0.950467 -0.990651 0.706756 -1.1692 -1.23823
internal_count=282 240 44 196 73 123 72 51 16 42 12 51 30 22 10 28 24
shrinkage=0.186123


Tree=13
num_leaves=13
num_cat=0
split_feature=11 0 11 20 9 32 41 17 22 24 17 3
split_gain=2.20118 2.9047 1.62323 1.41861 1.28756 1.12098 1.29304 1.32051 0.737552 0.45963 0.420804 0.267886
threshold=11.97789720799855 8.3513252918929624 7.7936210595864965 0.026434795095000605 3.0371559894456355 0.026240294588860204 0.025671237226405654 0.71819093269146606 0.024235780125769001 0.025745738118959704 0.27259715160132209 8.3618879615998765
decision_type=2 2 2 2 2 2 2 2 2 2 2 2
left_child=1 2 3 4 -1 6 9 -8 -5 -3 -2 -4
right_child=10 5 11 8 -6 -7 7 -9 -10 -11 -12 -13
leaf_value=0.1563321205789063 0.037612133949403471 0.16905454460143773 -0.20745907104804784 -0.0032875852652392351 -0.016464320177896081 -0.13463538292018049 0.19496618870978316 -0.21101840634479702 -0.21288895209096678 0.050493121964171835 -0.2003259366260132 -0
leaf_count=20 4 78 28 9 48 7 7 9 16 17 35 4
internal_value=0 0.0968087 -0.223172 -0.0488594 0.168442 0.524824 0.623524 -0.341474 -0.706941 0.782307 -0.919682 -0.992821
internal_count=282 243 125 93 68 118 111 16 25 95 39 32
shrinkage=0.186123


Tree=14
num_leaves=17
num_cat=0
split_feature=18 19 12 11 7 46 11 6 11 5 33 46 14 12 21 45
split_gain=1.76131 2.26112 1.90107 1.38445 1.31727 1.14964 1.45721 1.10407 1.03256 1.21124 0.989051 0.968577 0.858666 0.826711 0.647529 0.44921
threshold=3.4924046329225003 5.8561584179099357 1.3837855686618952 10.283244351998801 9.0515482038793582 0.023985992614011804 5.4481113588973313 5.9590504098204358 6.6033845805108156 6.5225638574989153 0.024403213155304752 0.024938851727506303 5.6461040795753661 2.9468383792050106 0.024754933685873403 0.025762339404848605
decision_type=2 2 2 2 2 2 2 2 2 2 2 2 2 2 2 2
left_child=1 2 5 4 12 10 -7 -6 -3 -10 -1 -9 15 -4 -11 -2
right_child=3 8 13 -5 7 6 -8 11 9 14 -12 -13 -14 -15 -16 -17
leaf_value=0.074759583402324789 -0.18697089988610233 0.20397167723328977 -0.21570696937019543 -0.19616684349825214 0.20003423969603881 0.14481193843352277 -0.20536312922635594 -0.21161423253379635 -0.15201231498758053 -0.14036968069038505 -0.21764977102104144 0.12710459862396661 0.11211521200362905 0.08542783124185481 0.1339145156759525 0.034279228514275797
leaf_count=9 24 39 21 48 19 29 6 6 6 4 9 7 4 4 41 6
internal_value=0 0.202776 -0.179368 -0.395531 -0.116471 0.172988 0.509104 0.428067 0.622462 0.295523 -0.513066 -0.274174 -0.57008 -0.909673 0.567927 -0.820339
internal_count=282 168 78 114 66 53 35 32 90 51 18 13 34 25 45 30
shrinkage=0.186123


Tree=15
num_leaves=14
num_cat=0
split_feature=11 19 11 6 7 7 13 14 48 8 12 4 10
split_gain=1.40913 1.47302 1.25119 0.89024 1.44174 0.824941 0.802985 0.861931 0.795789 0.351468 0.285249 0.177155 0.065995
threshold=11.97789720799855 8.7943431777526424 8.5167479117567169 2.6842728465502104 2.1127341831617854 9.1514096571100811 6.3000180018487404 7.8214688248195809 0.022658878453183904 1.0758569462358654 1.3837855686618952 1.0836395518872652 15.097470121611352
decision_type=2 2 2 2 2 2 2 2 2 2 2 2 2
left_child=1 2 3 4 -1 -5 8 12 -3 -2 -4 -10 -8
right_child=9 6 10 5 -6 -7 7 -9 11 -11 -12 -13 -14
leaf_value=-0.12279332826232491 0.043540118049148216 -0.11585041704979759 0.015618734029062595 -0.1035224320875875 0.083710880273839813 0.11332754851434952 -0.06705689907249747 0.19926651715124544 0.192545173110788 -0.19538293250093849 -0.20189178504602787 0.025894427343409937 -0.20494888167065653
leaf_count=18 4 4 4 42 69 11 4 5 51 35 25 4 6
internal_value=0 0.0772814 -0.0905877 0.0250188 0.232203 -0.347434 0.575623 -0.217427 0.802879 -0.868074 -0.91123 0.963366 -0.887494
internal_count=282 243 169 140 87 53 74 15 59 39 29 55 10
shrinkage=0.186123


Tree=16
num_leaves=11
num_cat=0
split_feature=40 11 41 43 34 21 21 24 5 8
split_gain=1.29995 1.33328 1.04596 1.84784 1.15391 0.939071 1.01342 0.358823 0.316491 0.299774
threshold=0.026039386902704905 11.97789720799855 0.025484137038274252 0.024806803852133356 0.025498649139744405 0.024287958302456853 0.026179440782118656 0.024395540139751554 2.9436433829779056 0.55288674138519867
decision_type=2 2 2 2 2 2 2 2 2 2
left_child=1 2 5 4 -4 -1 -7 -3 -2 -5
right_child=8 7 3 9 -6 6 -8 -9 -10 -11
leaf_value=-0.21031275434608387 0.032632092551211793 0.062515236868798951 0.17656068646840226 0.039077605222893011 -0.20532762205849067 0.11529501802931724 0.00083275707185922272 -0.1936214462234222 -0.20132481858488765 -0.20920399404881965
leaf_count=5 4 4 17 4 4 101 65 34 23 21
internal_value=0 0.0750548 0.164717 -0.321327 0.483578 0.308955 0.365638 -0.834237 -0.889838 -0.992516
internal_count=282 255 217 46 21 171 166 38 27 25
shrinkage=0.186123


Tree=17
num_leaves=20
num_cat=0
split_feature=0 9 18 14 46 7 47 9 27 21 20 43 23 23 22 47 10 38 0
split_gain=1.41633 1.93859 1.41866 1.07122 0.969207 0.870726 1.53001 1.49956 0.805399 0.737623 0.582264 0.50046 0.48232 0.7849 0.338405 0.285549 0.26494 0.147628 0.146787
threshold=6.2133612949348604 3.0371559894456355 3.5327344547040704 0.77812522224709857 0.024938851727506303 7.1560294436156058 0.023883918906651803 5.0620733053196059 0.026034658981312703 0.026363758853868203 0.026203997379360505 0.025609464721777307 0.026043396435628252 0.026421752870610053 0.023128803611738805 0.024290805501263304 12.892339785776851 0.023778072329708903 1.1591384604576052
decision_type=2 2 2 2 2 2 2 2 2 2 2 2 2 2 2 2 2 2 2
left_child=1 3 5 8 11 6 -2 -8 18 10 -6 17 -3 -14 -7 -11 -16 -4 -1
right_child=2 12 4 -5 9 14 7 -9 -10 15 -12 -13 13 -15 16 -17 -18 -19 -20
leaf_value=-0.027147172779444756 0.20435444983835843 -0.20403755027160475 -0.0014199882110064049 0.20155650945184728 0.12821853826100832 -0 0.12768852582371093 -0.18131055619809791 0.19543453581118361 0.0638161233261723 -0.19102171564287787 0.10970358823575287 0.14501893696286833 -0.19945863998573968 0.19834807802612511 -0.19735256328768022 -0.028452705815467296 -0.20123767403864812 -0.20623499623636576
leaf_count=4 15 45 4 14 30 5 13 15 4 5 4 7 4 7 55 14 4 27 6
internal_value=0 -0.417972 0.198531 0.334017 -0.237458 0.49247 0.136259 -0.331477 -0.334367 0.153763 0.486115 -0.792035 -0.875651 -0.242163 0.864068 -0.69321 0.984896 -0.985912 -0.845904
internal_count=282 84 198 28 91 107 43 28 14 53 34 38 56 11 64 19 59 31 10
shrinkage=0.186123


Tree=18
num_leaves=16
num_cat=0
split_feature=20 11 19 28 25 41 43 49 48 20 45 36 47 28 8
split_gain=0.994903 0.97487 1.19649 0.936847 0.933539 0.718444 0.571703 0.438113 0.428639 0.38409 0.343849 0.315803 0.162232 0.132821 0.097285
threshold=0.024195877461101353 10.283244351998801 6.664530874372951 0.026728007689483305 0.025672904043802805 0.025484137038274252 0.024806803852133356 0.023983920246119454 0.022745970019916503 0.026748257355585604 0.024885858032702501 0.023360425606866103 0.023398838498519602 0.025033274124743553 2.1897458862180406
decision_type=2 2 2 2 2 2 2 2 2 2 2 2 2 2 2
left_child=7 2 3 4 -2 8 -7 10 -4 -5 13 -3 -13 -1 -9
right_child=1 11 5 9 -6 6 -8 14 -10 -11 -12 12 -14 -15 -16
leaf_value=-0.040361069365698714 -0.14704521552052346 0.10393535172378843 -0.11403414538561238 0.20600854392753448 0.020113219405466055 0.10594962320885251 -0.22218467096279348 0.1970124570812066 0.11475019227679685 -0.060972486914301197 -0.13818628695708826 0.016901363212195517 -0.19290366053720484 0.18784836966318988 0.043567521785103328
leaf_count=4 48 4 4 7 29 6 6 23 78 5 5 4 49 6 4
internal_value=0 -0.116587 -0.00401034 -0.307889 -0.472104 0.360918 -0.524349 0.625725 0.526119 0.658365 -0.000622928 -0.810295 -0.940368 0.626355 0.954789
internal_count=282 240 183 89 77 94 12 42 82 12 15 57 53 10 27
shrinkage=0.186123


Tree=19
num_leaves=20
num_cat=0
split_feature=4 18 19 12 24 12 25 39 17 11 19 30 32 33 26 5 38 8 30
split_gain=0.918399 0.81574 0.936613 0.808861 0.733409 0.678652 0.569529 0.53135 0.726682 0.519767 0.585678 0.507723 0.251848 0.397908 0.226961 0.378079 0.223803 0.14081 0.030368
threshold=1.0048876069523052 2.8747965162494205 5.1058056589406915 1.3837855686618952 0.025328188375024253 3.1161271777914856 0.025604118756922454 0.025713841032963005 0.53108933520318902 10.283244351998801 7.6903044955960107 0.024080586673184804 0.024717404533095701 0.024594849698939106 0.024670686621412256 11.006392674019152 0.024346965290546852 0.74929625391092158 0.025202032880222155
decision_type=2 2 2 2 2 2 2 2 2 2 2 2 2 2 2 2 2 2 2
left_child=1 2 3 6 9 17 -1 12 -9 10 -3 -7 13 -2 -6 -16 -15 -4 -14
right_child=7 4 5 -5 14 11 -8 8 -10 -11 -12 -13 18 16 15 -17 -18 -19 -20
leaf_value=-0.038653670628279041 -0.19011217542483619 -0.038938028023844586 0.028536265239731202 -0.2018884409794664 -0.19753822864787393 -0.19528198352916246 0.13320250821205123 -0.16324942216819149 0.20006259961654924 -0.18566839416514672 0.14830360295927278 0.18243491122482697 -0.20133779808060592 0.18801230508517533 0.11028132709535719 -0.19156052957094216 -0.068458579208447695 0.19186657439994118 -0.09597691581043212
leaf_count=22 13 21 4 8 25 4 20 4 6 15 28 6 23 5 6 6 7 55 4
internal_value=0 0.129972 0.356438 -0.0173537 -0.212521 0.751082 0.214107 -0.500335 0.216543 0.103226 0.28056 -0.292519 -0.748966 -0.319777 -0.766092 -0.246781 0.320406 0.960521 -1.02253
internal_count=282 220 119 50 101 69 42 62 10 64 49 10 52 25 37 12 12 59 27
shrinkage=0.186123


Tree=20
num_leaves=17
num_cat=0
split_feature=4 37 41 49 12 40 9 7 7 10 29 35 20 47 44 25
split_gain=0.755819 0.573976 0.519627 0.511771 0.881681 0.469949 0.517739 0.784235 0.679508 0.448062 0.265492 0.216641 0.215488 0.164107 0.0396835 0.0102538
threshold=1.0000000180025095e-35 0.025893833723210854 0.025671237226405654 0.025871570069371054 0.77916680982339115 0.026039386902704905 5.7875085773380057 4.6363301388688951 7.1560294436156058 13.573718471619202 0.026837286585650304 0.024326767387320754 0.026294802419003553 0.025226291417905906 0.024379889151452304 0.026684347068581655
decision_type=2 2 2 2 2 2 2 2 2 2 2 2 2 2 2 2
left_child=1 3 5 9 14 6 7 -2 -8 10 -1 -4 -3 -11 -5 -13
right_child=2 12 11 4 -6 -7 8 -9 -10 13 -12 15 -14 -15 -16 -17
leaf_value=0.18624714223835012 -0.055428156527536618 0.047835341989381434 0.029927176839001989 0.072952269459405528 -0.20096545984751568 -0.18992084165601314 -0.14629797721306054 0.16703136843905092 0.011855767091654822 -0.18530423370855545 -0.027819138360269564 -0.19524450849541597 -0.19196848692064625 0.10229708659907168 0.19394067230085443 -0.090471874724943543
leaf_count=44 14 5 5 4 6 15 34 30 74 5 4 21 7 5 5 4
internal_value=0 0.345187 -0.185303 0.497273 -0.116893 -0.0825869 -0.0099996 0.380322 -0.215043 0.736223 0.887184 -0.816225 -0.589528 -0.438074 0.815013 -1.00954
internal_count=282 85 197 73 15 167 152 44 108 58 48 30 12 10 9 25
shrinkage=0.186123


Tree=21
num_leaves=21
num_cat=0
split_feature=0 9 18 14 4 38 46 33 48 41 12 11 43 36 33 43 38 48 12 15
split_gain=0.701095 1.19978 0.882036 0.719364 0.688861 0.754845 0.642662 0.694686 0.539013 0.526608 0.478812 0.448652 0.330061 0.325805 0.472949 0.27851 0.102641 0.0531165 0.0402378 0.0288074
threshold=6.2133612949348604 3.0371559894456355 3.5327344547040704 0.77812522224709857 0.89031506681379058 0.023676758773517805 0.024938851727506303 0.024181139061871904 0.024710174810464305 0.024179522046187753 0.46828524760307405 10.9099853917812 0.025609464721777307 0.025962448116615102 0.024939649610172504 0.024098278296399201 0.023778072329708903 0.024893993143345405 4.0571061620261561 5.0947466504974264
decision_type=2 2 2 2 2 2 2 2 2 2 2 2 2 2 2 2 2 2 2 2
left_child=1 3 4 10 5 9 12 17 15 -2 -1 -9 16 -3 -15 -6 -4 -8 -7 -10
right_child=2 13 6 -5 8 18 7 11 19 -11 -12 -13 -14 14 -16 -17 -18 -19 -20 -21
leaf_value=0.10555199113336772 0.18742150212257389 -0.19660460210667199 -0.0043473962526900172 0.19515906560848784 0.088305358302380066 0.1952036632993874 -0.01288380040664555 0.13701738054928503 0.19446072912897955 -0.12291018909421615 -0.19334053006474872 -0.17815597506335373 0.10385027495337114 0.12972060683144948 -0.19033156581532895 -0.16702625778128188 -0.19682774633272807 -0.1937233505199919 0.059568880768440184 0.06165463229252495
leaf_count=6 8 44 4 14 4 62 4 29 4 10 8 10 7 4 8 11 27 10 4 4
internal_value=0 -0.362784 0.169799 0.340569 0.464663 0.716529 -0.234396 0.148407 -0.171936 -0.0934407 -0.347084 0.51348 -0.770628 -0.820584 -0.19656 -0.602641 -0.95812 -0.893286 1.01841 0.851911
internal_count=282 84 198 28 107 84 91 53 23 18 14 39 38 56 12 15 31 14 66 8
shrinkage=0.186123


Tree=22
num_leaves=12
num_cat=0
split_feature=11 40 41 4 43 32 16 34 40 23 17
split_gain=0.516023 0.583813 0.442764 0.549151 0.414062 0.377099 0.340705 0.292708 0.193061 0.146853 0.138621
threshold=11.97789720799855 0.026039386902704905 0.025075458959502053 1.0999774205253352 0.023610149902210702 0.023403833126169803 7.2213732051714468 0.025254058879793654 0.024731661200631704 0.023617345556576155 0.27259715160132209
decision_type=2 2 2 2 2 2 2 2 2 2 2
left_child=1 2 3 5 7 -1 -6 -4 -5 -3 -2
right_child=10 9 4 8 6 -7 -8 -9 -10 -11 -12
leaf_value=-0.12171191386852753 0.04414708380459683 0.042128328977235417 0.18217377168136309 0.028133880372443746 -0.087854624638549553 0.094397788217275125 0.11247942165680022 -0.11162207499350134 -0.19437493442098269 -0.18918300672561927 -0.18745748159667641
leaf_count=7 4 4 14 4 57 112 11 4 8 22 35
internal_value=0 0.0563231 0.130543 0.31418 -0.159604 0.430779 -0.333521 0.58046 -0.60905 -0.821717 -0.829852
internal_count=282 243 217 131 86 119 68 18 12 26 39
shrinkage=0.186123


Tree=23
num_leaves=16
num_cat=0
split_feature=0 11 8 0 9 14 8 4 14 11 37 19 4 7 10
split_gain=0.541498 0.800624 0.620965 0.431906 1.03304 0.618241 0.87597 0.602455 0.522076 0.3259 0.230482 0.191733 0.18102 0.165289 0.0162398
threshold=10.493598518888051 8.5167479117567169 3.0350555835584907 5.7656845340106253 3.0371559894456355 3.6361968012799304 2.4888757956952907 1.0048876069523052 0.77812522224709857 10.9099853917812 0.025092719415112204 6.7499523772262355 0.24333461348222754 8.3919372137792312 14.530441933096652
decision_type=2 2 2 2 2 2 2 2 2 2 2 2 2 2 2
left_child=1 3 11 4 8 7 -7 -5 -1 10 -4 13 -3 -2 -13
right_child=2 12 9 5 -6 6 -8 -9 -10 -11 -12 14 -14 -15 -16
leaf_value=-0.059901020066750965 0.17760250342403475 0.0078334444868676349 0.18178412364574717 0.17184881279454214 -0.19394452175896076 -0.16633090675262102 0.11697157714221176 -0.090165741020506715 0.19196211482072734 -0.18472525423479372 -0.069076190932480019 0.18936011112457807 -0.19380484480911878 -0.086862310172000592 0.0797383893408809
leaf_count=14 4 6 10 37 30 18 13 7 13 22 6 49 45 4 4
internal_value=0 -0.153277 0.404086 0.00836084 -0.336189 0.235046 -0.232721 0.628695 0.328732 -0.273908 0.247864 0.791576 -0.885066 0.0960046 0.97948
internal_count=282 183 99 132 57 75 31 44 27 38 16 61 51 8 53
shrinkage=0.186123


Tree=24
num_leaves=19
num_cat=0
split_feature=0 9 18 4 18 15 14 27 39 12 12 43 23 23 23 0 21 21
split_gain=0.450119 0.792109 0.589543 0.455294 0.476393 0.549187 0.441063 0.36692 0.362612 0.317461 0.302112 0.34988 0.248851 0.241926 0.332451 0.0527587 0.0192495 0.0170967
threshold=6.2133612949348604 3.0371559894456355 3.5327344547040704 0.52720325173133109 1.3372404527528052 5.7894248641063966 0.77812522224709857 0.026034658981312703 0.026397544428923555 2.8778901717317207 5.5710438468211407 0.025415626640288905 0.023985674784224954 0.026043396435628252 0.026421752870610053 1.1591384604576052 0.025864204688924152 0.024754933685873403
decision_type=2 2 2 2 2 2 2 2 2 2 2 2 2 2 2 2 2 2
left_child=1 6 3 9 -5 -6 7 15 10 17 11 -4 -11 -3 -15 -1 -12 -2
right_child=2 13 8 4 5 -7 -8 -9 -10 12 16 -13 -14 14 -16 -17 -18 -19
leaf_value=-0.038575315325040327 0.092710061525638057 -0.1929468791219332 -0.13212871719266797 -0.18108234697498579 0.17500976189721704 -0.1095797320772947 0.18967694814335934 0.18173652619310957 0.17482989118484321 0.17700387661431755 0.18041228613595692 0.069241457662094774 -0.12245945036429745 0.13634925578505813 -0.18414048018827686 -0.18904167723653034 0.036046008023070827 0.19184795124712725
leaf_count=4 4 45 58 6 23 11 14 4 7 8 4 18 6 4 7 6 4 49
internal_value=0 -0.347089 0.156973 0.439454 -0 0.360579 0.319359 -0.267183 -0.228434 0.770244 -0.36412 -0.493501 -0.0208387 -0.795974 -0.146112 -0.76729 0.764846 0.992633
internal_count=282 84 198 107 40 34 28 14 91 67 84 76 14 56 11 10 8 53
shrinkage=0.186123


Tree=25
num_leaves=16
num_cat=0
split_feature=0 11 8 15 24 0 5 11 17 46 44 37 4 1 35
split_gain=0.401546 0.567483 0.464332 0.357823 0.50531 0.635367 0.326838 0.244147 0.240708 0.20389 0.264122 0.177654 0.140097 0.104411 0.00711333
threshold=10.493598518888051 8.5167479117567169 3.0350555835584907 5.0947466504974264 0.024240955696673155 5.2672777743149153 6.1239567443119958 10.9099853917812 1.2537935298907352 0.025106433887812151 0.025846457280337801 0.025092719415112204 0.24333461348222754 3.4205085130158506 0.026032732750910701
decision_type=2 2 2 2 2 2 2 2 2 2 2 2 2 2 2
left_child=1 3 8 4 6 -6 -1 11 14 13 -11 -4 -3 -5 -2
right_child=2 12 7 9 5 -7 -8 -9 -10 10 -12 -13 -14 -15 -16
leaf_value=-0.16184581968323392 0.18549419990467578 0 0.17844070062858358 0.028352575910294355 -0.029205544496984311 0.15575410212550689 0.10722065879558858 -0.18197294316710444 -0.04500517732649939 0.18278269793533308 -0.17613416912818811 -0.063160434640761737 -0.19036650560702814 -0.1929011198182794 0.081000697272073707
leaf_count=15 53 6 10 5 41 45 6 22 4 4 4 6 45 12 4
internal_value=0 -0.148495 0.391491 0.0052941 0.153678 0.373958 -0.519072 -0.258101 0.77086 -0.558674 0.145365 0.223461 -0.852162 -0.878702 0.967637
internal_count=282 183 99 132 107 86 21 38 61 25 8 16 51 17 57
shrinkage=0.186123


Tree=26
num_leaves=15
num_cat=0
split_feature=20 22 19 11 20 28 23 37 34 20 30 4 34 2
split_gain=0.390453 0.395245 0.354469 0.425936 0.317417 0.332274 0.272746 0.153181 0.143612 0.121584 0.0818526 0.104893 0.0572372 0.0290165
threshold=0.024195877461101353 0.022866556359127703 6.664530874372951 10.283244351998801 0.026294802419003553 0.025494650112681854 0.023985674784224954 0.024098597208729002 0.025603579417611402 0.025224866009894754 0.023565515503053854 0.27363442722671455 0.026962772548568405 5.795094071128176
decision_type=2 2 2 2 2 2 2 2 2 2 2 2 2 2
left_child=8 9 4 6 5 -3 -4 -5 10 -2 11 -1 -6 -12
right_child=1 2 3 7 12 -7 -8 -9 -10 -11 13 -13 -14 -15
leaf_value=0.16592332445782182 -0.015833440185326064 -0.11277919371671657 0.15691579559407046 0.10610426439473521 -0.18664062394810818 0.059565268113448457 0.0070155107615583355 -0.18463423892663913 -0.09288024030483745 0.18871620890620558 0.18798667677701372 -0.12091557070183884 0 0.03630464060607138
leaf_count=4 4 32 35 4 30 24 57 40 4 10 25 4 4 5
internal_value=0 -0.10351 -0.189363 0.0679785 -0.462855 -0.184259 0.265259 -0.768098 0.619956 0.732553 0.764754 0.0989076 -0.937834 0.932844
internal_count=282 240 226 136 90 56 92 44 42 14 38 8 34 30
shrinkage=0.186123


Tree=27
num_leaves=22
num_cat=0
split_feature=0 6 25 23 8 21 18 22 8 38 14 21 41 6 13 47 4 19 29 29 26
split_gain=0.290324 0.356341 0.414955 0.370681 0.331732 0.295176 0.275597 0.253233 0.310272 0.204543 0.1828 0.173736 0.140691 0.137657 0.0911792 0.0714926 0.0544768 0.0371246 0.0295282 0.0281851 0.00927897
threshold=10.493598518888051 2.8986202734103905 0.025672904043802805 0.023513376608401405 2.2934772426018006 0.025380705722191952 1.7807472158993602 0.022560595969507904 2.3772916924071854 0.025812852391243601 6.2475698214936104 0.026114158341362801 0.025703640083934002 7.2333212312349007 8.7794504910986628 0.025853584299313902 0.77700072433075662 8.7943431777526424 0.024489343677189652 0.025105412534700906 0.022976269877502151
decision_type=2 2 2 2 2 2 2 2 2 2 2 2 2 2 2 2 2 2 2 2 2
left_child=1 2 7 19 12 6 -4 -1 -9 -7 17 13 20 16 -15 -12 -6 -5 -13 -3 -2
right_child=4 3 5 10 11 9 -8 8 -10 -11 15 18 -14 14 -16 -17 -18 -19 -20 -21 -22
leaf_value=0.13218120275144837 0.064192638853602796 0.17535517609595649 0.11720574895261696 -0.1854505752757972 0.17873928128229685 0.17544774110782119 -0.18486421476163914 -0.12570798091541333 0.074440981681222346 -0.055849912928236774 -0.14070951678663643 -0 -0.05174477014129121 -0.1772776390804493 0.072733728340758017 0.14033478698756055 -0.0041261644912639513 -0.031538170079813216 -0.1807331483687464 0 0.18660768358753393
leaf_count=7 4 7 6 49 13 29 8 39 14 6 4 4 6 5 4 4 5 6 14 4 44
internal_value=0 -0.134297 0.0487849 -0.575395 0.375963 0.454708 -0.254094 -0.279495 -0.427873 0.750092 -0.792176 -0.130061 0.810342 0.227699 -0.399448 0.287155 0.695352 -0.940485 -0.816391 0.730368 0.965073
internal_count=282 183 109 74 99 49 14 60 53 35 63 45 54 27 9 8 18 55 18 11 48
shrinkage=0.186123


Tree=28
num_leaves=13
num_cat=0
split_feature=20 40 41 11 43 43 17 36 4 42 2 11
split_gain=0.290342 0.302189 0.310215 0.345043 0.273223 0.202062 0.18754 0.110922 0.104519 0.0813103 0.0560379 0.036002
threshold=0.024195877461101353 0.026039386902704905 0.025484137038274252 10.283244351998801 0.024252703381608152 0.024806803852133356 0.26391678811257108 0.023625319511540004 1.0604899583257301 0.026332736653197502 5.795094071128176 11.089523030985701
decision_type=2 2 2 2 2 2 2 2 2 2 2 2
left_child=8 2 3 4 -2 6 -4 -5 9 10 -1 -7
right_child=1 -3 5 7 -6 11 -8 -9 -10 -11 -12 -13
leaf_value=0.18579737786362144 -0.024619554147697665 -0.18400720702842063 -0.17401245690453845 0.094034406628962217 0.089104466424328344 -0.1900159710682407 0.12908698272407887 -0.17447475186385353 -0.097062041882491748 -0.023889072894264299 0 0
leaf_count=28 47 24 4 4 86 19 10 41 4 4 6 5
internal_value=0 -0.0948588 -0.0199069 0.110512 0.229744 -0.579278 0.0808347 -0.735167 0.602393 0.732989 0.87843 -0.952872
internal_count=282 240 216 178 133 38 14 45 42 38 34 24
shrinkage=0.186123


Tree=29
num_leaves=22
num_cat=0
split_feature=18 7 44 46 19 11 15 40 46 47 9 10 28 14 30 10 31 7 29 33 22
split_gain=0.233026 0.347878 0.301722 0.27159 0.291512 0.241127 0.229425 0.233091 0.206352 0.141536 0.139913 0.129931 0.0996617 0.0682815 0.0639275 0.0610217 0.0581427 0.048869 0.0455963 0.029389 0.00458787
threshold=3.5327344547040704 7.1560294436156058 0.023417088356233306 0.024938851727506303 7.6903044955960107 9.7205302397785367 4.440050362807396 0.025833055253039302 0.025660620071988553 0.023515572340928253 2.0914519872940756 7.3812910473570463 0.024543144419039705 7.8214688248195809 0.023993763872681654 12.892339785776851 0.024130931190609703 12.878607999256003 0.025957239766365502 0.023503819933506451 0.024152603686081454
decision_type=2 2 2 2 2 2 2 2 2 2 2 2 2 2 2 2 2 2 2 2 2
left_child=1 2 10 13 11 -6 7 -4 15 -8 -1 -5 -10 16 -13 19 18 -7 -2 -3 -18
right_child=3 8 6 4 5 17 9 -9 12 -11 -12 14 -14 -15 -16 -17 20 -19 -20 -21 -22
leaf_value=0.07690304778772708 -0.14894592957276459 0.0053428130639698616 0.088900381448004231 0.13356693968063349 0.18579668100715607 -0.16790294947521409 0.15575919715934469 -0.11061910612026958 -0.15876889848905368 -0.14981119388114736 -0.18911319378805422 0.01557114927897742 0.090353910802350224 0.070656868906624981 -0.18495480007856968 -0.024176240310291319 -0.045181315415328202 0.062992400118694489 0.08423779905716898 0.18700596577955581 -0.18842140936069193
leaf_count=4 5 4 52 4 18 14 4 14 4 16 14 6 6 5 18 4 4 4 4 49 29
internal_value=0 0.146542 -0.0640985 -0.319061 0.0434554 0.567137 0.116943 0.300799 0.645515 -0.55698 -0.777215 -0.569914 -0.224422 -0.783407 -0.804059 0.882745 -0.861623 -0.541933 -0.107568 0.955572 -0.986664
internal_count=282 171 104 111 64 36 86 66 67 20 18 28 10 47 24 57 42 18 9 53 33
shrinkage=0.186123


Tree=30
num_leaves=13
num_cat=0
split_feature=20 9 5 11 5 3 18 19 18 8 12 2
split_gain=0.206756 0.271906 0.336413 0.347662 0.229891 0.182214 0.173717 0.165006 0.242488 0.216859 0.0728373 0.00597697
threshold=0.026294802419003553 3.0371559894456355 4.8785490156526361 6.5652465233868558 6.9909272453451061 5.1006136308727763 3.5327344547040704 6.4355458823319358 0.28244724581656855 2.6618097823347253 1.3070875858072803 3.5292434858856452
decision_type=2 2 2 2 2 2 2 2 2 2 2 2
left_child=1 10 5 6 -5 -3 -4 8 -2 11 -1 -9
right_child=7 2 3 4 -6 -7 -8 9 -10 -11 -12 -13
leaf_value=0.18492747341239235 0.092799501810213694 -0.18788426866212804 0.18303081594659851 -0.14950352908264422 0.015292779454437818 0.11942202067389032 -0.0039002653635853948 0.026398307101243114 -0.1866656093276258 -0.17183436381257489 -0 0.17650766743960819
leaf_count=19 5 15 35 15 122 5 10 4 30 6 4 12
internal_value=0 0.106464 -0.00434094 0.14454 -0.112234 -0.75636 0.684546 -0.425292 -0.700435 0.209759 0.812001 0.868032
internal_count=282 225 202 182 137 20 45 57 35 22 23 16
shrinkage=0.186123


Tree=31
num_leaves=17
num_cat=0
split_feature=0 18 3 40 4 37 37 31 20 16 30 22 0 31 20 35
split_gain=0.190136 0.303529 0.271199 0.237105 0.290334 0.183495 0.166531 0.194663 0.141549 0.171549 0.140639 0.137284 0.0899763 0.0572857 0.0326791 0.0103902
threshold=5.7656845340106253 3.5327344547040704 2.9203968067152104 0.024452857259828552 0.52720325173133109 0.025235958368531802 0.026101730492308402 0.024570959945348105 0.024309803022649203 6.0022952236278506 0.024265691753545652 0.023297961047900901 8.3513252918929624 0.025774516107791402 0.024195877461101353 0.024234771159451152
decision_type=2 2 2 2 2 2 2 2 2 2 2 2 2 2 2 2
left_child=2 3 6 13 5 -5 7 11 -3 15 -11 -1 -6 -2 -4 -10
right_child=1 8 14 4 12 -7 -8 -9 9 10 -12 -13 -14 -15 -16 -17
leaf_value=0.093185754004350155 0.1835120397323069 0.14293751498323423 -0 0.17567422656489518 -0.17089690093447177 -0.042465148598926465 -0.17339940185550612 0.18190206864535566 -0.038168839645904416 0.12745186358091329 -0.059207570979039913 -0.17574418787365162 0 -0 -0.18524423928948552 -0.18408062416935181
leaf_count=6 49 8 4 28 10 9 7 12 4 13 51 6 13 4 37 21
internal_value=0 0.128667 -0.360766 0.410228 0.103671 0.560169 0.0798029 0.347218 -0.243152 -0.355194 -0.0828526 -0.264038 -0.516081 0.886922 -0.916035 -0.927013
internal_count=282 210 72 113 60 37 31 24 97 89 64 12 23 53 41 25
shrinkage=0.186123


Tree=32
num_leaves=13
num_cat=0
split_feature=11 0 37 46 11 15 0 46 4 24 8 2
split_gain=0.161985 0.247988 0.179193 0.194586 0.168577 0.166444 0.225556 0.0972647 0.072336 0.0329213 0.0322722 0.026106
threshold=11.97789720799855 10.493598518888051 0.025092719415112204 0.025314340272255955 8.5167479117567169 5.0947466504974264 5.2672777743149153 0.025106433887812151 0.24577878273867754 0.025745738118959704 1.0758569462358654 6.0847421021117851
decision_type=2 2 2 2 2 2 2 2 2 2 2 2
left_child=1 4 9 11 5 6 -1 -7 -6 -3 -2 -4
right_child=10 2 3 -5 8 7 -8 -9 -10 -11 -12 -13
leaf_value=-0.047060634586170526 0.014315624981985513 0.18015270738072908 -0 0.1719454773453073 0.01175914473220192 -0.15424058800844609 0.087842836108931829 0.029704462583135822 -0.18191628615933658 0.024605332885472841 -0.17747972125216183 -0.17775295804630956
leaf_count=50 4 55 4 7 6 17 57 8 28 6 35 5
internal_value=0 0.0504126 0.531955 -0.104818 -0.103225 0.000403575 0.144674 -0.533165 -0.738319 0.872354 -0.814581 -0.750198
internal_count=282 243 77 16 166 132 107 25 34 61 39 9
shrinkage=0.186123


Tree=33
num_leaves=17
num_cat=0
split_feature=20 41 11 43 0 43 20 17 49 35 36 24 8 16 11 45
split_gain=0.138496 0.169695 0.171592 0.165456 0.17332 0.106457 0.106154 0.0857335 0.0684081 0.0693065 0.0596026 0.0363029 0.0284413 0.0269862 0.0182839 0.00510457
threshold=0.024195877461101353 0.025484137038274252 10.283244351998801 0.024304079614040953 5.7656845340106253 0.024806803852133356 0.026294802419003553 0.26391678811257108 0.023983920246119454 0.023723260144009103 0.023625319511540004 0.025226372837855403 2.1897458862180406 5.7441579979398663 11.089523030985701 0.023909123246623552
decision_type=2 2 2 2 2 2 2 2 2 2 2 2 2 2 2 2
left_child=8 2 3 4 -2 7 -5 -3 9 -1 -4 -9 -10 -11 -7 -12
right_child=1 5 10 6 -6 14 -8 11 12 13 15 -13 -14 -15 -16 -17
leaf_value=0.15478822618033933 -0.18026704504536864 -0.16011063501351688 0.075264912690843414 0.10062798626101367 0.0087586573271503324 -0.18444539044271938 -0.027751170622706784 -0.03566353322778696 0.17942914931606285 -0.15345280739805117 -0.017703452517095458 0.16516411898324337 0 0.036291976413543661 -0 -0.1779781963838499
leaf_count=5 14 5 4 70 45 22 20 5 23 5 4 6 4 5 6 39
internal_value=0 -0.0847863 0.0284069 0.12593 -0.191706 -0.600571 0.372654 0.0041154 0.527814 -0 -0.724381 0.519692 0.827753 -0.50352 -0.927396 -0.906819
internal_count=282 240 196 149 59 44 90 16 42 15 47 11 27 10 28 43
shrinkage=0.186123


Tree=34
num_leaves=14
num_cat=0
split_feature=4 13 20 41 6 43 39 17 0 31 47 0 23
split_gain=0.130032 0.169133 0.190004 0.148888 0.133162 0.105171 0.104499 0.150962 0.103066 0.0880693 0.0591879 0.045849 0.088861
threshold=1.0048876069523052 7.7458581189518156 0.026294802419003553 0.025177185650922654 1.9784779516311801 0.027361678995712607 0.025713841032963005 0.53108933520318902 7.9082354343692458 0.022489146771192802 0.023515572340928253 10.881813076793152 0.024291960423103102
decision_type=2 2 2 2 2 2 2 2 2 2 2 2 2
left_child=1 2 3 9 -5 8 10 -8 -4 -1 -2 -12 -13
right_child=6 -3 5 4 -6 -7 7 -9 -10 -11 11 12 -14
leaf_value=-0.10546686858720732 0.050608681122523848 -0.17460061869407473 -0.16274287225585068 0.11852606073007849 -0.08334430775146888 0.13388297318412462 -0.13221079897473387 0.1735269700288973 0.017494680435935907 0.11076612808700027 -0.1820290812172185 0.14830392664242456 -0.16455156370107213
leaf_count=5 7 20 22 14 35 4 4 6 19 101 35 5 5
internal_value=0 0.103317 0.172433 0.335785 -0.108071 -0.346501 -0.390705 0.180645 -0.527656 0.529901 -0.650479 -0.77704 -0.178761
internal_count=282 220 200 155 49 45 62 10 41 106 52 45 10
shrinkage=0.186123


Tree=35
num_leaves=20
num_cat=0
split_feature=18 0 25 26 22 22 5 12 49 27 43 11 6 32 38 22 23 47 21
split_gain=0.115233 0.195077 0.128186 0.124394 0.142574 0.113399 0.13145 0.0953745 0.0986168 0.105531 0.137665 0.136796 0.0771284 0.0741183 0.0530957 0.0454002 0.0173138 0.00918138 0.00229187
threshold=3.5327344547040704 8.3853410969364113 0.025672904043802805 0.023694428604394854 0.024235780125769001 0.022866556359127703 6.9909272453451061 5.5710438468211407 0.025314816227240852 0.024903803372787255 0.025445836479632302 9.4827640047424868 3.3822180701065556 0.026222339035019002 0.025868520693521805 0.023242882207042504 0.023770631792301603 0.025693882525435755 0.025864204688924152
decision_type=2 2 2 2 2 2 2 2 2 2 2 2 2 2 2 2 2 2 2
left_child=1 2 5 4 -4 14 -7 8 9 10 -2 -11 -5 15 -1 -3 17 -10 -9
right_child=7 13 3 12 -6 6 -8 18 16 11 -12 -13 -14 -15 -16 -17 -18 -19 -20
leaf_value=-0.041950003725545873 -0.15899558222836552 -0 0.16046338172778804 0.15386538529158197 -0.15548883027152419 -0.14599918401950718 0.031441952496888748 0.15650698196829038 0.020391353432263296 0.13114559950677429 0.15297040065876297 -0.15923358891025582 -0.13012396296923209 -0.041292475113366645 0.16851878564280787 0.18169781413032382 -0.18111243431859439 -0.099970462546731031 0.025579541427288646
leaf_count=4 30 5 4 23 11 32 18 4 4 16 6 18 4 5 5 60 25 4 4
internal_value=0 0.137481 -0.0535065 0.311652 -0.280287 -0.308806 -0.491022 -0.288933 -0.387002 -0.133843 -0.540606 0.300539 0.677812 0.685514 0.443245 0.847139 -0.844852 -0.254214 0.707316
internal_count=282 171 101 42 15 59 50 111 103 70 36 34 27 70 9 65 33 8 8
shrinkage=0.186123


Tree=36
num_leaves=11
num_cat=0
split_feature=40 9 5 15 21 46 7 9 20 20
split_gain=0.100986 0.112564 0.146694 0.167599 0.168653 0.137451 0.110111 0.0868044 0.0482813 0.0240458
threshold=0.026039386902704905 3.0371559894456355 4.8785490156526361 4.1097273202241711 0.026363758853868203 0.023985992614011804 6.6544698698784854 7.4846508560074758 0.024891847239872554 0.026601068516011902
decision_type=2 2 2 2 2 2 2 2 2 2
left_child=1 5 6 7 -5 -1 9 -4 -2 -3
right_child=8 2 3 4 -6 -7 -8 -9 -10 -11
leaf_value=-0.087115984703681329 0.044533938178850214 -0.18148114053954498 0.15385051450630818 0.025044005541961595 -0.12363639475045113 0.18024348037419147 0.14406045595760536 -0.09469555142615424 -0.17517167440168202 -0
leaf_count=7 4 18 38 105 51 20 5 7 23 4
internal_value=0 0.0503897 -0.0380156 0.0810564 -0.0939695 0.591018 -0.647592 0.647763 -0.699596 -0.870152
internal_count=282 255 228 201 156 27 27 45 27 22
shrinkage=0.186123


Tree=37
num_leaves=21
num_cat=0
split_feature=18 46 0 19 28 25 26 14 36 40 27 13 43 0 19 13 43 18 24 18
split_gain=0.0815775 0.151901 0.148378 0.145626 0.0936094 0.0944051 0.115952 0.0724467 0.072059 0.059069 0.0685619 0.0547353 0.0411996 0.0333097 0.0327439 0.0306925 0.028264 0.0262574 0.0247212 0.00690304
threshold=3.5327344547040704 0.024938851727506303 8.3513252918929624 7.6903044955960107 0.026728007689483305 0.025672904043802805 0.023342689807631056 1.4704654711901652 0.026282639342439504 0.024973654070618155 0.023659974049096304 7.0750999242567003 0.025609464721777307 11.1323215886755 1.6055091234485552 4.3149688513693265 0.025445836479632302 8.243841368028562 0.026525704165422753 6.1562864511857756
decision_type=2 2 2 2 2 2 2 2 2 2 2 2 2 2 2 2 2 2 2 2
left_child=2 12 4 8 5 7 -7 -1 16 -4 -11 19 18 -14 -6 -12 -3 -13 -2 -5
right_child=1 3 9 11 14 6 -8 -9 -10 10 15 17 13 -15 -16 -17 -18 -19 -20 -21
leaf_value=-0.1779215829394645 -0.18168655203269424 -0.17499134246283693 0.17870342080820323 0.17699388202685581 -0.034898243325694689 -0.12222404390019791 0.10237117423540112 -0.032768744725996134 0.1071458178027211 -0.10832047372390161 0.16636448185526145 -0.13458456084731807 -0.12542764595133588 0.13050028329343122 0.17143399967472897 -0.033243021925391275 0.018879952884126593 0.081353277571961466 -0 0.011403071355725963
leaf_count=14 34 18 48 17 4 7 28 37 5 5 16 10 4 5 8 4 5 4 4 5
internal_value=0 -0.260468 0.131147 0.114655 -0.0636462 -0.179703 0.202527 -0.436543 -0.483798 0.631704 0.171921 0.626544 -0.74282 0 0.689047 0.627298 -0.780251 -0.144341 -0.884261 0.88427
internal_count=282 111 171 64 98 86 35 51 28 73 25 36 47 9 12 20 23 14 38 22
shrinkage=0.186123


Tree=38
num_leaves=14
num_cat=0
split_feature=37 4 32 13 34 42 7 11 32 13 11 35 19
split_gain=0.0862224 0.100978 0.12018 0.096661 0.0951355 0.092429 0.0803552 0.075895 0.0578516 0.0429917 0.0337465 0.0274664 0.0191402
threshold=0.025871047661815406 0.75300248325028918 0.024717404533095701 7.7458581189518156 0.025787070705449205 0.026332736653197502 6.509496652430486 6.5652465233868558 0.026033754727826354 1.3441964333321952 10.055725618015252 0.023695807350708455 8.9403564914657618
decision_type=2 2 2 2 2 2 2 2 2 2 2 2 2
left_child=1 3 6 5 11 7 -3 -1 12 -7 -8 -4 -2
right_child=8 2 4 -5 -6 9 10 -9 -10 -11 -12 -13 -14
leaf_value=0.12431041940517706 -0.17548772553385603 -0.14565755740620742 0.021956442508132477 -0.16015912952570352 0.074655348259122872 0.052827440402249404 0.16487089825679746 0.022171341352224001 0.052212854204306124 -0.15100380979122219 -0.013747741330615895 -0.17121698403427524 0
leaf_count=62 23 11 5 17 7 4 14 73 7 10 10 33 6
internal_value=0 0.0664625 -0.271217 0.227929 -0.606995 0.298383 0.319091 0.402072 -0.56797 -0.439428 0.641602 -0.841574 -0.831477
internal_count=282 246 80 166 45 149 35 135 36 14 24 38 29
shrinkage=0.186123


Tree=39
num_leaves=13
num_cat=0
split_feature=20 40 41 11 20 47 34 13 48 16 0 4
split_gain=0.0800514 0.0935467 0.0914806 0.102558 0.0857371 0.060962 0.0372141 0.0339083 0.0315537 0.0290571 0.0243738 0.0455583
threshold=0.024195877461101353 0.026039386902704905 0.025484137038274252 10.283244351998801 0.024872522429535103 0.023614102287922756 0.025603579417611402 3.8528727779660756 0.024462022328785804 7.2213732051714468 6.8228742796540951 0.27363442722671455
decision_type=2 2 2 2 2 2 2 2 2 2 2 2
left_child=6 2 3 4 -2 8 10 -5 -4 -7 11 -1
right_child=1 -3 5 7 -6 9 -8 -9 -10 -11 -12 -13
leaf_value=0.14490586023890681 -0.042623303777509843 -0.17102277483106454 -0.076719915977752587 0.024195262751412382 0.069062483849909276 -0.17410114059775295 -0.074314912749500445 -0.16985378016424824 0.14404704282120198 0.014267708123284879 0.17266523092643676 -0.12928613406912348
leaf_count=5 31 24 5 4 102 24 4 41 4 5 28 5
internal_value=0 -0.0855548 -0.0168189 0.0941987 0.198909 -0.529429 0.532412 -0.666393 0.212522 -0.800078 0.685563 0.121579
internal_count=282 240 216 178 133 38 42 45 9 29 38 10
shrinkage=0.186123


Tree=40
num_leaves=18
num_cat=0
split_feature=0 9 6 7 9 6 49 32 4 23 4 46 23 23 43 25 0
split_gain=0.0756374 0.171264 0.0848769 0.0742813 0.114903 0.105779 0.0676896 0.0659118 0.0639903 0.0554431 0.062106 0.0532066 0.0497386 0.0562625 0.0447024 0.0246286 0.0103206
threshold=6.2133612949348604 3.0371559894456355 2.35523432890658 8.6402618297776517 5.0620733053196059 6.3065489371788912 0.025565872663498652 0.024551667582963153 0.23381431279032952 0.023862962435840605 0.51043285005781314 0.024906422003651653 0.026043396435628252 0.026421752870610053 0.024304079614040953 0.026054228490470052 9.9930489404060605
decision_type=2 2 2 2 2 2 2 2 2 2 2 2 2 2 2 2 2
left_child=1 7 9 4 -4 6 -5 15 -6 10 -2 -7 -3 -14 -9 -1 -12
right_child=2 12 3 5 8 11 -8 14 -10 -11 16 -13 13 -15 -16 -17 -18
leaf_value=-0.14975114662679265 0.13548643469398269 -0.18021737939186452 0.1569869035999332 0.1488272810459963 0.042142181228408064 -0.15583483436426421 -0.046910728529304994 -0.050398043852890505 -0.14485439031415728 0.17630171093697319 -0.13965421201922798 0.056545819808900354 0.10827044410873596 -0.15106829130515687 0.17326522995596261 0.047551171832693293 0
leaf_count=5 11 45 12 47 13 15 14 4 38 26 4 14 4 7 15 4 4
internal_value=0 -0.301224 0.133154 -0.0212778 -0.33432 0.239533 0.563374 0.339982 -0.562534 0.577217 0.0714625 -0.41451 -0.738453 -0.0885248 0.6863 -0.400327 -0.535848
internal_count=282 84 198 153 63 90 61 28 51 45 19 29 56 11 19 9 8
shrinkage=0.186123


Tree=41
num_leaves=15
num_cat=0
split_feature=0 8 11 40 12 0 34 21 11 20 23 41 40 9
split_gain=0.0623261 0.0884337 0.0848421 0.0602657 0.0667922 0.0968792 0.0931667 0.0409472 0.04085 0.0373645 0.0307671 0.0303065 0.0281849 0.000786523
threshold=10.493598518888051 2.2934772426018006 8.5167479117567169 0.025833055253039302 2.8558905182480507 5.2672777743149153 0.026307833007965801 0.026114158341362801 13.5896113091763 0.024587968817565805 0.023650908132380553 0.025703640083934002 0.024240935881180304 11.459652330280653
decision_type=2 2 2 2 2 2 2 2 2 2 2 2 2 2
left_child=2 11 3 4 5 -1 -6 8 9 -3 -5 -2 -4 -9
right_child=1 7 12 10 6 -7 -8 13 -10 -11 -12 -13 -14 -15
leaf_value=-0.032231054434273924 0.17009346391200789 -0.051984545879295477 -0 0.024167638329992497 -0.13291143953656573 0.11117309349461231 0.1479672694851964 -0.15293863000870198 -0.13147831267396215 0.16159410974864402 -0.16066747781747967 -0.026829066549688103 -0.17375848029163399 -0.021831219594533532
leaf_count=39 48 5 7 4 16 51 4 10 8 14 18 6 44 8
internal_value=0 0.322562 -0.126264 -0.00384764 0.0927851 0.258095 -0.37314 -0.12649 0.175037 0.482938 -0.605172 0.777846 -0.72725 -0.719177
internal_count=282 99 183 132 110 90 20 45 27 19 22 54 51 18
shrinkage=0.186123


Tree=42
num_leaves=17
num_cat=0
split_feature=4 37 18 31 0 27 3 0 25 41 32 35 41 45 8 37
split_gain=0.0529094 0.0635568 0.0625041 0.0801052 0.0707467 0.0665279 0.0472244 0.046261 0.0442808 0.0385454 0.0369139 0.0363139 0.0245659 0.0206128 0.0196247 0.00290264
threshold=1.0048876069523052 0.025871047661815406 3.4924046329225003 0.024153663838116804 9.2594456318542502 0.024903803372787255 6.8197398932193805 9.7178477628217106 0.025836063508570106 0.025671237226405654 0.026222339035019002 0.024792608331606552 0.024500390803784754 0.025347254208036754 2.5171752431778005 0.025452415986333705
decision_type=2 2 2 2 2 2 2 2 2 2 2 2 2 2 2 2
left_child=1 2 3 4 -1 11 7 -2 14 -7 -5 -4 13 -3 -8 -10
right_child=6 12 5 10 -6 9 8 -9 15 -11 -12 -13 -14 -15 -16 -17
leaf_value=-0.04478640902031128 -0.17438547645583327 -0.093668559623422451 -0 0.15510344725979219 0.15931047440936982 0.099347121385920167 0.043167473878736734 0.04516008302362709 0.14673855488854054 -0.12239649758504052 -0.013838441463078104 -0.16234940301825646 -0.15374698970152351 0.11828549908231957 -0.14893261775916514 0.014876908053982131
leaf_count=31 26 6 21 53 26 30 4 8 5 6 6 18 18 5 13 6
internal_value=0 0.0869603 0.176326 0.362196 0 -0.146283 -0.374813 -0.697342 0.0648493 0.312497 0.703965 -0.523703 -0.531657 0 -0.475614 0.629042
internal_count=282 220 191 116 57 75 62 34 28 36 59 39 29 11 17 11
shrinkage=0.186123


Tree=43
num_leaves=18
num_cat=0
split_feature=20 4 41 11 25 36 6 7 43 4 29 21 2 17 26 36 36
split_gain=0.0528792 0.0657302 0.0638691 0.06916 0.0591941 0.0552143 0.0480338 0.0529553 0.0359798 0.0333027 0.0211394 0.01868 0.0201868 0.0184652 0.0144644 0.0121288 0.0017776
threshold=0.026294802419003553 1.0507949514343302 0.025177185650922654 8.6831872812707562 0.025774921988543951 0.022523533091266753 1.9784779516311801 8.3112467449528982 0.027361678995712607 0.51043285005781314 0.024135422725531906 0.026495379778613205 2.6142349653160655 0.53904003326675909 0.023737598447981751 0.023510538881114606 0.025789402019278804
decision_type=2 2 2 2 2 2 2 2 2 2 2 2 2 2 2 2 2
left_child=1 2 3 5 10 -1 14 -8 11 -5 -3 15 -13 -6 -4 -2 -17
right_child=8 4 6 9 13 -7 7 -9 -10 -11 -12 12 -14 -15 -16 16 -18
leaf_value=-0.075361476275061748 -0 0.003926713638108148 -0.013361447031266953 0.048395840405611706 -0.052384462079128204 0.13932929590624824 -0.16139214120199655 0.020734384600514258 0.099238446961915597 -0.10416730860320282 -0.16649776453313306 -0.11736852584079237 0.085875969518275252 0.123260045041043 0.14777692637099007 -0.1646533077969991 -0.057371728998745035
leaf_count=4 9 6 4 31 6 67 21 23 4 18 26 4 10 9 10 20 10
internal_value=0 0.0880477 0.215829 0.400071 -0.39035 0.627334 -0.179602 -0.425388 -0.403076 -0.0951981 -0.742624 -0.534289 -0 0.319528 0.517509 -0.678258 -0.783104
internal_count=282 225 178 120 47 71 58 44 57 49 32 53 14 15 14 39 30
shrinkage=0.186123


Tree=44
num_leaves=13
num_cat=0
split_feature=20 22 19 11 25 0 33 6 8 10 40 16
split_gain=0.0449111 0.0535373 0.0748861 0.0609856 0.0549115 0.0527616 0.0395443 0.0257289 0.0200312 0.0195289 0.0127225 0.0113354
threshold=0.024195877461101353 0.022866556359127703 6.664530874372951 10.283244351998801 0.025672904043802805 6.2133612949348604 0.024594849698939106 1.9784779516311801 2.9531820491134906 9.545711166496373 0.024190695961996054 2.3303919131572957
decision_type=2 2 2 2 2 2 2 2 2 2 2 2
left_child=9 7 4 5 8 -4 -6 -2 -3 11 -5 -1
right_child=1 2 3 10 6 -7 -8 -9 -10 -11 -12 -13
leaf_value=0 0.16190392646325161 -0.15387267121168813 -0.14164673764004138 0 0.096750913908768596 0.068568037824879455 -0.069495955316847616 -0.020393396706709511 0 -0.01223197428304886 -0.15700016639185096 0.16345285328372572
leaf_count=5 10 44 4 9 14 88 26 4 6 12 35 25
internal_value=0 -0.081634 -0.157072 0.0960285 -0.447994 0.253872 -0.021919 0.573186 -0.735187 0.522208 -0.630072 0.729511
internal_count=282 240 226 136 90 92 40 14 50 42 44 30
shrinkage=0.186123


Tree=45
num_leaves=11
num_cat=0
split_feature=11 19 45 11 30 11 11 16 13 45
split_gain=0.0379247 0.0467767 0.0517422 0.0429874 0.0513344 0.0379415 0.0462855 0.0322246 0.0508008 0.00137667
threshold=11.97789720799855 8.6711844848927466 0.024916172952946052 7.4967017554454856 0.023599061494963502 6.9374073794618107 6.5652465233868558 6.0022952236278506 6.2142161813499213 0.025762339404848605
decision_type=2 2 2 2 2 2 2 2 2 2
left_child=1 3 -3 5 -5 6 -1 -4 -9 -6
right_child=-2 2 7 4 9 -7 -8 8 -10 -11
leaf_value=0.010616816354551745 -0.13369950611872028 0.16036717220205607 -0.13934175043750993 0.098860533177619003 -0.16700733076699467 0.1346962498187449 -0.13264274848963825 0.15723578404318056 -0.068751021396768072 -0.032563994774750665
leaf_count=101 39 47 5 6 28 10 12 17 8 9
internal_value=0 0.032226 0.386154 -0.0864251 -0.552847 0.0222361 -0.0542464 -0 0.252203 -0.824556
internal_count=282 243 77 166 43 123 113 30 25 37
shrinkage=0.186123


Tree=46
num_leaves=18
num_cat=0
split_feature=0 10 18 40 4 12 20 48 12 30 28 27 20 41 32 31 28
split_gain=0.0366628 0.0809548 0.058764 0.0550319 0.0473254 0.0617331 0.0364404 0.0297668 0.0279496 0.0356886 0.0346255 0.0253378 0.0240904 0.0215383 0.011775 0.00912658 0.00153327
threshold=5.7656845340106253 2.3547606790933804 3.5327344547040704 0.024452857259828552 0.52720325173133109 2.8778901717317207 0.026748257355585604 0.024025019983210504 5.5710438468211407 0.024112381809605603 0.025863396142374404 0.024680324169607103 0.025150264453367002 0.025075458959502053 0.024842471465385155 0.025774516107791402 0.025494650112681854
decision_type=2 2 2 2 2 2 2 2 2 2 2 2 2 2 2 2 2
left_child=1 6 3 15 5 -5 -1 13 9 11 -11 -4 -6 16 -8 -2 -3
right_child=2 7 8 4 12 -7 14 -9 -10 10 -12 -13 -14 -15 -16 -17 -18
leaf_value=0.156898472891775 0.16892028275139778 0 -0.068107283133102395 0.15844886334629868 -0.1365425440521954 -0.070819214879386763 -0.12266538333145641 -0.17280130968603213 0.1093209958327678 -0.12507705323701945 0.045361987336522802 0.12681977163181821 0.021559086955232919 -0.12558843746321868 0.037548260187016035 0 0.098821742606278531
leaf_count=11 49 4 11 26 12 11 5 35 8 55 13 10 11 9 4 4 4
internal_value=0 -0.304401 0.102294 0.350581 0.0640614 0.419685 0.37621 -0.674382 -0.197999 -0.298685 -0.493264 0.248685 -0.394019 -0.0385609 -0.257469 0.822383 0.372736
internal_count=282 72 210 113 60 37 20 52 97 89 68 21 23 17 9 53 8
shrinkage=0.186123


Tree=47
num_leaves=9
num_cat=0
split_feature=40 22 11 5 6 31 44 42
split_gain=0.0305344 0.0341309 0.0276318 0.0358132 0.0490823 0.0356921 0.00861947 0.00441356
threshold=0.026039386902704905 0.022866556359127703 11.97789720799855 6.9909272453451061 3.1558931431238402 0.024451885215458553 0.026507829807866205 0.023614730657210554
decision_type=2 2 2 2 2 2 2 2
left_child=1 7 3 5 -5 -3 -2 -1
right_child=6 2 -4 4 -6 -7 -8 -9
leaf_value=0.0023354006563211295 -0.15068576342489567 -0.095390717233128378 -0.12460422673636004 0.1252817244496226 -0.002086636626628524 0.0211825163242041 -0 0.15223366178093339
leaf_count=4 19 35 38 45 79 44 8 10
internal_value=0 0.0414246 -0.0140989 0.0322068 0.224055 -0.20426 -0.623849 0.675386
internal_count=282 255 241 203 124 79 27 14
shrinkage=0.186123


Tree=48
num_leaves=13
num_cat=0
split_feature=0 3 9 0 12 4 14 14 46 17 12 6
split_gain=0.0339437 0.0485903 0.0416785 0.0771519 0.0496795 0.056175 0.0438271 0.0356602 0.0320182 0.0305081 0.0249531 0.000546282
threshold=10.493598518888051 11.117579021362502 3.0371559894456355 5.7656845340106253 2.8558905182480507 1.0048876069523052 0.77812522224709857 5.6461040795753661 0.025269789672853253 1.3870582896101702 0.46828524760307405 7.0118870260039055
decision_type=2 2 2 2 2 2 2 2 2 2 2 2
left_child=2 9 6 -4 5 -5 10 -6 -3 -2 -1 -10
right_child=1 8 3 4 7 -7 -8 -9 11 -11 -12 -13
leaf_value=0.068543547505205943 0.16003055585332585 -0.12663582587556457 -0.17110677685859441 0.093950207453990298 -0.13858981693031971 -0.088834713836551046 0.16060189324094271 0.045114816748047348 0.00066936581273434185 -0.034805985598944628 -0.13758732664851422 0.10472081322492802
leaf_count=6 59 20 45 51 25 20 16 12 7 9 8 4
internal_value=0 0.309223 -0.122276 -0.248082 -0.0319759 0.221725 0.354385 -0.469626 -0.22798 0.655154 -0.204258 0.419553
internal_count=282 99 183 153 108 71 30 37 31 68 14 11
shrinkage=0.186123


Tree=49
num_leaves=14
num_cat=0
split_feature=37 4 0 11 25 6 49 12 12 46 39 42 11
split_gain=0.0282243 0.0308157 0.0431603 0.0373356 0.036472 0.0339958 0.0249002 0.0441296 0.0291722 0.0141302 0.0111575 0.00857287 0.00663503
threshold=0.025871047661815406 1.0000000180025095e-35 10.493598518888051 8.5167479117567169 0.025774921988543951 6.7513542774879367 0.025871570069371054 0.77916680982339115 4.1239803256167908 0.024906422003651653 0.025798790429673351 0.026147198603010204 10.207395625343402
decision_type=2 2 2 2 2 2 2 2 2 2 2 2 2
left_child=1 6 3 4 -3 12 8 -8 11 -7 -2 -1 -4
right_child=10 2 5 -5 -6 9 7 -9 -10 -11 -12 -13 -14
leaf_value=0.1614575854551428 -0.13271345512738203 -0.058288819594542601 0.16058659525258143 -0.16093329467502521 0.075278844995338448 -0.12517171624696968 0.11946409405137919 -0.14290592623671466 -0.062344397013456697 0.04100608994193055 0 0.0018616758118292578 0
leaf_count=43 28 49 35 41 24 8 9 6 8 9 8 7 7
internal_value=0 0.0578325 -0.0714342 -0.250775 -0.0781989 0.381802 0.361684 -0.0768597 0.583676 -0.21176 -0.510218 0.75714 0.736542
internal_count=282 246 173 114 73 59 73 15 58 17 36 50 42
shrinkage=0.186123


Tree=50
num_leaves=12
num_cat=0
split_feature=20 13 0 35 10 0 47 40 43 13 42
split_gain=0.0288294 0.0242079 0.0205834 0.0338869 0.0258556 0.0259977 0.0202385 0.0156609 0.0135006 0.00897509 0.00555869
threshold=0.026294802419003553 7.7458581189518156 9.3648221802696714 0.024980993776692204 2.3547606790933804 5.2672777743149153 0.023163720826042952 0.023508532170739355 0.024749060369138601 9.9886307041129019 0.023871663581946603
decision_type=2 2 2 2 2 2 2 2 2 2 2
left_child=1 2 4 -4 -1 -6 -2 -8 -5 -3 -9
right_child=6 9 3 8 5 -7 7 10 -10 -11 -12
leaf_value=0.13945841099810163 0.059758427606819993 -0.13893587636882138 0.14756161174590493 0.094545090181497329 -0.098930351805116792 0.014707383825138833 0.026410443397376037 -0 -0.061267412955231727 0 -0.14617428760648671
leaf_count=10 11 21 55 8 30 73 6 7 17 11 33
internal_value=0 0.0891893 0.15569 0.435172 0.0182486 -0.0601002 -0.387218 -0.548086 -0.0417783 -0.501987 -0.686691
internal_count=282 225 193 80 113 103 57 46 25 32 40
shrinkage=0.186123


Tree=51
num_leaves=16
num_cat=0
split_feature=20 4 41 11 25 33 14 19 7 15 6 43 15 25 0
split_gain=0.0212029 0.0313943 0.0336894 0.0395198 0.0285283 0.0230756 0.0209325 0.020026 0.0198764 0.0231794 0.0215722 0.018068 0.0123198 0.00819442 0.00629846
threshold=0.026294802419003553 1.0507949514343302 0.025177185650922654 8.6831872812707562 0.025774921988543951 0.026439517834915705 3.3404306954759053 6.4355458823319358 8.3112467449528982 6.3661975469629057 1.9784779516311801 0.026748336546272303 6.2508568425990356 0.026010936859459703 10.881813076793152
decision_type=2 2 2 2 2 2 2 2 2 2 2 2 2 2 2
left_child=1 2 3 5 14 -1 -5 11 10 -10 -4 -2 -9 -6 -3
right_child=7 4 8 6 13 -7 -8 12 9 -11 -12 -13 -14 -15 -16
leaf_value=0.13263087871285845 -0.14566345865945629 -0.15641885638870062 0.035231811839567723 -0.12538099793694316 0.10541546005637514 -0.049407766862083313 0.035576917397154594 0.10881567746085935 0.12589915562574067 -0.071526391736151024 -0.14645849332974614 0.026098372760151277 -0.058574965306869176 -0.024067783926759338 -0
leaf_count=66 29 24 8 13 7 5 36 14 18 11 21 6 8 8 8
internal_value=0 0.0792039 0.201073 0.382164 -0.348558 0.61353 -0.103685 -0.344292 -0.172828 0.195595 -0.489182 -0.586614 0.156276 0.227179 -0.692238
internal_count=282 225 178 120 47 71 49 57 58 29 29 35 22 15 32
shrinkage=0.186123


Tree=52
num_leaves=8
num_cat=0
split_feature=20 40 22 41 11 43 10
split_gain=0.0196852 0.0217591 0.0247336 0.0220828 0.0287466 0.0165307 0.00928841
threshold=0.024195877461101353 0.026039386902704905 0.022866556359127703 0.025484137038274252 10.283244351998801 0.024806803852133356 9.545711166496373
decision_type=2 2 2 2 2 2 2
left_child=6 2 -2 4 -4 -5 -1
right_child=1 -3 3 5 -6 -7 -8
leaf_value=0.12295689314967546 0.11891369931054796 -0.13928389168190142 0.020448437659698972 0.0044514265842823929 -0.12260774496363744 -0.1456843259953598 -0
leaf_count=30 13 24 124 11 44 24 12
internal_value=0 -0.0693566 -0.0102876 -0.0808839 0.00732584 -0.516387 0.459257
internal_count=282 240 216 203 168 35 42
shrinkage=0.186123


Tree=53
num_leaves=14
num_cat=0
split_feature=0 9 11 6 9 7 9 19 31 26 22 5 33
split_gain=0.0191731 0.0637784 0.0267643 0.0298981 0.0272125 0.0483531 0.0220166 0.0185823 0.0169785 0.00861823 0.00861643 0.00851532 0.00368876
threshold=5.7656845340106253 3.0371559894456355 6.5652465233868558 2.8072955450859456 4.8888162424978256 8.6402618297776517 7.440901002938566 7.9402073446137162 0.024570959945348105 0.025615281420554203 0.023297961047900901 8.5882706137639726 0.024181139061871904
decision_type=2 2 2 2 2 2 2 2 2 2 2 2 2
left_child=1 8 3 9 -4 12 -7 11 10 -2 -1 -5 -6
right_child=2 -3 4 7 5 6 -8 -9 -10 -11 -12 -13 -14
leaf_value=0.037309302780772179 0.16311602261307709 -0.16404484055876528 0.13206629104111892 0 -0.0080504192230305902 0.13056099112281494 -0.012040545248133678 0.10943382574105075 0.12643233459152076 0 -0.10546785205744717 -0.13033467360886611 -0.15437767873526281
leaf_count=6 36 45 11 8 12 19 66 11 15 5 6 7 35
internal_value=0 -0.295083 0.0916417 0.410261 -0.0712206 -0.182388 0.100764 -0.0525109 0.293442 0.748623 -0.124929 -0.407797 -0.732646
internal_count=282 72 210 67 143 132 85 26 27 41 12 15 47
shrinkage=0.186123


Tree=54
num_leaves=18
num_cat=0
split_feature=18 46 19 9 16 32 11 20 32 38 15 30 12 11 19 43 19
split_gain=0.0185589 0.0338917 0.0310849 0.0314693 0.0262546 0.0186713 0.017439 0.0162167 0.0131608 0.00860851 0.00772759 0.00741062 0.00621752 0.00454814 0.00422907 0.00137025 0.000465363
threshold=3.5327344547040704 0.024938851727506303 5.8561584179099357 3.0371559894456355 5.7077149113236256 0.024376089444104205 9.7205302397785367 0.026748257355585604 0.023994593663153905 0.024875252291116656 5.1939598268144254 0.024482707596659204 3.1161271777914856 8.6831872812707562 2.3895871461316904 0.025395007017520402 5.1625503848316763
decision_type=2 2 2 2 2 2 2 2 2 2 2 2 2 2 2 2 2
left_child=2 15 3 7 -3 8 10 14 -4 16 -6 -11 13 -7 -1 -2 -5
right_child=1 4 5 9 6 12 -8 -9 -10 11 -12 -13 -14 -15 -16 -17 -18
leaf_value=0 -0.14666333130013881 -0.10117506530345785 0.080311744982143524 -0.14827087334110697 0 0.16164737966505427 -0.049671498727830991 -0.043312809411464946 -0.090720940637756903 0.041882836431807062 0.14874266468147071 -0.073286608205370099 0.0027210020952705759 0.025695305129218214 0.14243980972435036 -0.029516507704801503 -0.022814522820079917
leaf_count=6 35 17 14 17 6 41 22 9 7 10 19 16 12 17 16 12 6
internal_value=0 -0.235053 0.127412 -0.125323 0.0819476 0.433143 0.38553 0.315802 -0.0435719 -0.448943 0.620431 -0.0725486 0.623616 0.731358 0.600845 -0.678654 -0.689046
internal_count=282 111 171 80 64 91 47 31 21 49 25 26 70 58 22 47 23
shrinkage=0.186123


Tree=55
num_leaves=17
num_cat=0
split_feature=0 12 18 46 33 4 33 12 48 47 2 47 22 8 49 14
split_gain=0.0149623 0.0284445 0.0233947 0.0282476 0.0292884 0.0210756 0.0202211 0.0186323 0.013863 0.011321 0.00896042 0.00697266 0.00672995 0.00562284 0.0047273 0.00176828
threshold=6.2133612949348604 1.1491000417673753 3.5327344547040704 0.024938851727506303 0.024181139061871904 0.89031506681379058 0.024380582286571955 2.8778901717317207 0.024710174810464305 0.025519669259708003 4.7183666299834357 0.024049315678325703 0.024863282142343002 1.9058604904805103 0.025536339720883202 1.8473370478366102
decision_type=2 2 2 2 2 2 2 2 2 2 2 2 2 2 2 2
left_child=1 6 5 12 -5 7 -1 15 13 -3 -9 -8 -4 -7 -6 -2
right_child=2 9 3 4 14 8 11 10 -10 -11 -12 -13 -14 -15 -16 -17
leaf_value=0.13284333662652009 0.020254795499821107 -0.15653738627742883 -0.0038417053864633617 -0.10426010060133338 0.11650155354046077 -0.11868121526231036 0.026974425979210463 -0.0737133500430108 0.087982326318005455 -0 0.074257864291082679 -0.086726892402488764 -0.14938004423323456 0 0 0.1619961719085348
leaf_count=11 8 36 19 14 32 9 7 5 8 17 12 13 19 6 7 59
internal_value=0 -0.24792 0.103806 -0.142657 0.165598 0.339947 0.140326 0.55573 -0.0905046 -0.629255 -0 -0.199234 -0.595895 -0.410099 0.500927 0.785204
internal_count=282 84 198 91 53 107 31 84 23 53 17 20 38 15 39 67
shrinkage=0.186123


Tree=56
num_leaves=14
num_cat=0
split_feature=18 0 7 11 9 0 48 14 21 19 28 36 19
split_gain=0.013141 0.0269053 0.0184517 0.0168531 0.01405 0.0264159 0.0227251 0.0184035 0.0135494 0.00983909 0.00879342 0.00311526 0.00170692
threshold=3.5327344547040704 8.3513252918929624 9.0515482038793582 9.4827640047424868 3.0371559894456355 5.7656845340106253 0.024893993143345405 0.77812522224709857 0.025647864796589901 7.6903044955960107 0.023800594383370451 0.024723783444854652 13.70042607731005
decision_type=2 2 2 2 2 2 2 2 2 2 2 2 2
left_child=1 4 9 11 7 -6 -7 -1 -5 -2 -3 -4 -12
right_child=2 10 3 8 5 6 -8 -9 -10 -11 12 -13 -14
leaf_value=-0.030865111895768609 -0.13899783912089078 -0 0 0.032873706895308726 -0.14891060410292201 -0.058442252178668205 0.10173217855762305 0.13752717551429611 -0.12871850562588372 -0 0.15223595492437109 0.1262051708094748 0.015219479447067388
leaf_count=14 40 14 10 11 31 18 20 15 21 17 51 12 8
internal_value=0 0.115258 -0.215722 0.0608916 -0.0602497 -0.23394 0.0190448 0.278611 -0.279931 -0.531387 0.553891 0.49268 0.70896
internal_count=282 171 111 54 98 69 38 29 32 57 73 22 59
shrinkage=0.186123


Tree=57
num_leaves=14
num_cat=0
split_feature=0 8 15 25 45 4 38 5 11 21 6 17 40
split_gain=0.0120709 0.0225479 0.0181415 0.0198307 0.017083 0.0132225 0.0114517 0.016083 0.0102701 0.00782587 0.00659557 0.00560785 0.0023364
threshold=10.493598518888051 3.0350555835584907 5.2546608976501963 0.025658877004649704 0.025549998586869602 0.24333461348222754 0.025868520693521805 6.9909272453451061 10.9099853917812 0.025720598106548753 2.0521550460570803 0.96937767638801109 0.025505330045275002
decision_type=2 2 2 2 2 2 2 2 2 2 2 2 2
left_child=2 11 3 6 12 -4 7 -1 9 -3 -8 -2 -5
right_child=1 8 5 4 -6 -7 10 -9 -10 -11 -12 -13 -14
leaf_value=-0.11649267918420024 0.1451942515416727 0.092122506712512514 0.013260861541213646 0.13731992602362075 -0.026206680845855732 -0.12811723125092869 0.10420215928803117 0.017053906468743961 -0.1152786336755999 -0.042680651141359667 -0.016163706753379609 0 0.0075578420617542783
leaf_count=32 52 9 8 25 18 48 9 21 22 7 12 9 10
internal_value=0 0.249471 -0.103497 0.0240782 0.355821 -0.481028 -0.196416 -0.365788 -0.145699 0.103148 0.20264 0.627557 0.622616
internal_count=282 99 183 127 53 56 74 53 38 16 21 61 35
shrinkage=0.186123


Tree=58
num_leaves=11
num_cat=0
split_feature=20 11 5 11 20 15 26 13 19 30
split_gain=0.0110515 0.0109613 0.0114717 0.0230373 0.0154341 0.0149334 0.0114075 0.00920676 0.00755777 0.00559236
threshold=0.026294802419003553 10.283244351998801 6.9909272453451061 6.5652465233868558 0.025053066791227752 5.2546608976501963 0.025335138517500456 5.0747815300973604 6.8561126027188104 0.024505901068834501
decision_type=2 2 2 2 2 2 2 2 2 2
left_child=1 2 3 4 -1 -4 -7 -3 9 -2
right_child=8 7 5 -5 -6 6 -8 -9 -10 -11
leaf_value=-0.015865101851036231 -0 0.012347868458920263 0.13187449234273935 -0.11452363653726026 0.11555074022673052 0.050590938040616242 -0.073891333697668607 -0.12385512116020801 0.0075205501585696912 -0.13593031643010622
leaf_count=32 16 15 38 16 26 43 11 44 20 21
internal_value=0 0.0788541 0.154799 -0.0310593 0.202966 0.331935 0.0548441 -0.332191 -0.316524 -0.501384
internal_count=282 225 166 74 58 92 54 59 57 37
shrinkage=0.186123


Tree=59
num_leaves=11
num_cat=0
split_feature=20 47 7 41 11 32 17 6 6 43
split_gain=0.0106136 0.0117377 0.0141101 0.0164808 0.0134585 0.0124009 0.00815415 0.00540409 0.00521656 0.00159071
threshold=0.024195877461101353 0.023937435428974505 12.131866314605803 0.024116074545308851 5.2417903805403956 0.025027669433625954 0.2658402059490706 2.7866879478223257 7.2333212312349007 0.024779453653378605
decision_type=2 2 2 2 2 2 2 2 2 2
left_child=9 6 3 5 -5 -3 -2 -8 -4 -1
right_child=1 2 8 4 -6 -7 7 -9 -10 -11
leaf_value=0.10312354447641194 -0.012227833275483971 -0.047039835655408514 0.10729087780063136 0 -0.10753916808766611 0.090694879327578262 0.12815850079969748 0 -0 0
leaf_count=28 20 23 16 23 89 24 19 19 7 14
internal_value=0 -0.0625367 -0.165318 -0.263188 -0.427142 0.100822 0.244314 0.482239 0.314086 0.420146
internal_count=282 240 182 159 112 47 58 38 23 42
shrinkage=0.186123


Tree=60
num_leaves=12
num_cat=0
split_feature=7 15 6 46 28 21 21 25 49 45 4
split_gain=0.009668 0.019446 0.0190635 0.0122372 0.0121597 0.0104642 0.0104331 0.0106509 0.00739248 0.00607436 0.000861872
threshold=8.0174817508521681 5.0947466504974264 6.0783838715102609 0.024906422003651653 0.024045226759963605 0.025272566654690656 0.024088029005801054 0.025658877004649704 0.024320158407934053 0.025409672911872652 0.25433089406817855
decision_type=2 2 2 2 2 2 2 2 2 2 2
left_child=1 6 4 -4 -2 -6 -1 8 -8 -9 -3
right_child=2 10 3 -5 5 -7 7 9 -10 -11 -12
leaf_value=-0.096595755830606644 -0.013694446628744193 -0.015567984744343344 -0.11850534908902449 0.039303501379205852 -0 0.13840700509882814 0.06803867250624572 0.11541848835294752 -0.041257518752163429 -0 -0.13608145607495251
leaf_count=11 16 12 18 15 13 61 19 28 37 15 37
internal_value=0 -0.124972 0.188649 -0.27288 0.416501 0.586562 0.0282968 0.141339 -0.0444605 0.446146 -0.604648
internal_count=282 159 123 33 90 74 110 99 56 43 49
shrinkage=0.186123


Tree=61
num_leaves=12
num_cat=0
split_feature=37 4 49 47 47 7 47 17 17 22 41
split_gain=0.0094082 0.00962389 0.0124669 0.0148928 0.0130375 0.0105247 0.00777058 0.00724953 0.00463129 0.00323329 0.00211487
threshold=0.025871047661815406 0.75300248325028918 0.025565872663498652 0.024437192872836005 0.023937435428974505 6.509496652430486 0.024688106028980854 1.0205426412117851 0.51483323653734359 0.024291150760229054 0.024739578861717453
decision_type=2 2 2 2 2 2 2 2 2 2 2
left_child=1 2 3 4 -1 -3 -4 8 -7 -5 -2
right_child=10 5 6 9 -6 7 -8 -9 -10 -11 -12
leaf_value=0.070404412416143106 -0 -0.11313690735918272 0.02341199458185397 0.024482575025429134 -0.075472858506322543 -0 -0.087395506579505552 -0.054379828284945031 0.099661138182070841 0.13527620141144986 -0.10834332306621099
leaf_count=30 16 26 23 28 20 19 20 20 15 45 20
internal_value=0 0.0591655 0.179997 0.327802 -0 -0.173784 -0.153987 0.00623816 0.289356 0.571977 -0.412577
internal_count=282 246 166 123 50 80 43 54 34 73 36
shrinkage=0.186123


Tree=62
num_leaves=9
num_cat=0
split_feature=40 22 20 9 7 13 47 25
split_gain=0.00811616 0.0107246 0.0105896 0.0116481 0.0136605 0.00873449 0.00501676 0.00240289
threshold=0.025833055253039302 0.022866556359127703 0.026352930475895753 6.5586065035928014 4.6363301388688951 5.2159189735093063 0.024961476386882304 0.025658877004649704
decision_type=2 2 2 2 2 2 2 2
left_child=1 -1 3 4 -3 -5 -2 -4
right_child=6 2 7 5 -6 -7 -8 -9
leaf_value=0.11520323033344781 0 -0.0049454511787016108 -0.10089023040358525 0.019699164027276124 0.11057161503628754 -0.071253462025741149 -0.11790420450466053 -0
leaf_count=13 18 27 25 50 53 60 21 15
internal_value=0 0.0556097 -0 0.0863225 0.313514 -0.109056 -0.37864 -0.394569
internal_count=282 243 230 190 80 110 39 40
shrinkage=0.186123


Tree=63
num_leaves=8
num_cat=0
split_feature=20 40 22 22 36 44 26
split_gain=0.00717264 0.00728866 0.0110731 0.0102873 0.0127105 0.00680197 4.68765e-05
threshold=0.024195877461101353 0.025833055253039302 0.022866556359127703 0.025310096457960205 0.025925036372066303 0.024820756967308556 0.024655448808962005
decision_type=2 2 2 2 2 2 2
left_child=-1 2 -2 4 -4 -5 -3
right_child=1 6 3 5 -6 -7 -8
leaf_value=0.068514582861729179 0.11166498235961621 -0.10522023738973524 -0.059935039976726778 -0.017997694058225714 0.052800829818340771 0.089948377415757591 -0.0060957925246144387
leaf_count=42 12 18 128 18 19 28 17
internal_value=0 -0.0617986 0 -0.0654943 -0.190961 0.261273 -0.438919
internal_count=282 240 205 193 147 46 35
shrinkage=0.186123


Tree=64
num_leaves=10
num_cat=0
split_feature=0 8 11 14 0 8 9 37 29
split_gain=0.0083776 0.0138246 0.0104414 0.00778555 0.0127527 0.0121359 0.0115673 0.00505205 0.00378229
threshold=10.493598518888051 3.0350555835584907 8.5167479117567169 3.5597443151207355 4.5002305043613609 2.4888757956952907 2.3878267090107506 0.025510433931661053 0.025715168923302351
decision_type=2 2 2 2 2 2 2 2 2
left_child=2 -2 3 4 6 -5 -1 -6 -3
right_child=1 8 -4 5 7 -7 -8 -9 -10
leaf_value=0.024927248967546087 0.11051723797221644 -0.064977247566713664 -0.10230698611447987 -0.10901175853965223 0.11065353774925443 0.02472743030659438 -0.11767646170632243 -0 0.019693498582951118
leaf_count=23 61 26 51 22 34 17 24 12 12
internal_value=0 0.242224 -0.104125 -0 0.142121 -0.256218 -0.140801 0.441685 -0.0937928
internal_count=282 99 183 132 93 39 47 46 38
shrinkage=0.186123


Tree=65
num_leaves=11
num_cat=0
split_feature=41 43 43 11 0 43 18 40 23 27
split_gain=0.00723307 0.0100713 0.00856335 0.0108455 0.0106339 0.00968099 0.00906483 0.00865394 0.0119486 0.000928005
threshold=0.025484137038274252 0.024806803852133356 0.024304079614040953 10.283244351998801 5.7656845340106253 0.024098278296399201 3.5327344547040704 0.024731661200631704 0.025109086185381751 0.024026608564412705
decision_type=2 2 2 2 2 2 2 2 2 2
left_child=2 -2 4 7 -1 6 -6 9 -9 -4
right_child=1 -3 3 -5 5 -7 -8 8 -10 -11
leaf_value=-0.11809000543815126 0.01390130092844678 -0.11465163053574358 0.012528378561204319 -0.051362365902549834 0.11526381878929233 -0.064672006805731819 -0.013081160056129788 0.064827219961541241 -0.082893014943737506 0.13683458667744292
leaf_count=17 25 32 14 38 33 17 20 36 14 36
internal_value=0 -0.297313 0.073763 0.232109 -0.124707 0.0281212 0.308927 0.357853 0.0395102 0.623127
internal_count=282 57 225 138 87 70 53 100 50 50
shrinkage=0.186123


Tree=66
num_leaves=11
num_cat=0
split_feature=7 9 14 6 22 16 21 36 20 29
split_gain=0.00630293 0.0117309 0.0105834 0.0102618 0.0100443 0.00601919 0.00585662 0.00488465 0.00394218 0.00244662
threshold=8.0174817508521681 3.0371559894456355 0.77812522224709857 6.0783838715102609 0.025310096457960205 5.3462786088770313 0.025720598106548753 0.025962448116615102 0.025669760864078305 0.024939240643727403
decision_type=2 2 2 2 2 2 2 2 2 2
left_child=1 2 -1 5 7 -2 -5 9 -7 -3
right_child=3 4 -4 6 -6 8 -8 -9 -10 -11
leaf_value=-0.027250299552103521 -0 -0.023636390837221823 0.12000349375170655 0.013461210450311512 0.015982384607791559 0.13009450992405711 -0.098913016715404908 -0 0 -0.14016877291286159
leaf_count=14 27 38 19 13 39 42 20 14 21 35
internal_value=0 -0.131376 0.242026 0.160356 -0.300932 0.356616 -0.202357 -0.469609 0.516537 -0.578018
internal_count=282 159 33 123 126 90 33 87 63 73
shrinkage=0.186123


Tree=67
num_leaves=9
num_cat=0
split_feature=37 18 5 31 39 31 40 15
split_gain=0.00527298 0.00527945 0.0104311 0.014773 0.00930346 0.00543054 0.0027523 0.00244547
threshold=0.025871047661815406 3.5327344547040704 6.1239567443119958 0.024748347683884255 0.026110295645070003 0.024264762421949904 0.024452857259828552 6.4624076219594606
decision_type=2 2 2 2 2 2 2 2
left_child=1 2 3 6 5 -3 -1 -4
right_child=-2 4 7 -5 -6 -7 -8 -9
leaf_value=-0 -0.06627794028003528 0 0.11077685538186503 0.077565762091505175 0.04530146169759542 -0.09482891921352693 -0.09112181669070997 0
leaf_count=18 36 23 57 33 22 55 18 20
internal_value=0 0.0470287 0.171352 -0.0159547 -0.111096 -0.339871 -0.348866 0.473366
internal_count=282 246 146 69 100 78 36 77
shrinkage=0.186123


Tree=68
num_leaves=10
num_cat=0
split_feature=7 15 6 25 45 33 25 45 19
split_gain=0.0055734 0.00905037 0.00794789 0.00668853 0.00627506 0.00520378 0.00402967 0.00240307 0.00180581
threshold=9.0515482038793582 5.0947466504974264 6.3065489371788912 0.025658877004649704 0.025440051920171954 0.024864377387743854 0.025927922033739902 0.023550580539460002 7.6903044955960107
decision_type=2 2 2 2 2 2 2 2 2
left_child=1 3 6 4 7 -5 -2 -1 -3
right_child=2 8 -4 5 -6 -7 -8 -9 -10
leaf_value=-0 0.10779998306214111 -0.11541514669526434 -0.022637661212375194 0.098063888208364952 0.028665954726889611 -0 0 -0.08953611429963966 -0.0035747994759611715
leaf_count=18 49 36 29 30 22 24 18 32 24
internal_value=0 -0.10295 0.197613 0.0163809 -0.138992 0.292547 0.417991 -0.34877 -0.445771
internal_count=282 186 96 126 72 54 67 50 60
shrinkage=0.186123


Tree=69
num_leaves=10
num_cat=0
split_feature=0 12 33 30 29 33 10 37 43
split_gain=0.00519778 0.00939735 0.00802682 0.00711123 0.00644923 0.00299197 0.00244927 0.00239323 0.00163739
threshold=6.2133612949348604 0.62491643456070112 0.024507558958132555 0.024588546875401605 0.024509819377060604 0.024739596893965255 9.9272013504273868 0.025452415986333705 0.024749060369138601
decision_type=2 2 2 2 2 2 2 2 2
left_child=1 -1 4 6 -2 -3 -4 -5 -6
right_child=2 5 3 7 8 -7 -8 -9 -10
leaf_value=0.039048198172341259 0.032453595238367168 -0 0.12885121326921395 0.028404639964863376 -0 -0.11219323915648473 0.006689439716905614 -0.045188234599460829 -0.08805175235885794
leaf_count=18 26 33 38 41 25 33 20 16 32
internal_value=0 -0.207044 0.0910854 0.277336 -0.124519 -0.427888 0.508955 -0 -0.348803
internal_count=282 84 198 115 83 66 58 57 57
shrinkage=0.186123


Tree=70
num_leaves=9
num_cat=0
split_feature=20 4 48 25 45 21 45 26
split_gain=0.00480488 0.00623843 0.00799581 0.00704411 0.00393687 0.00450861 0.00359292 0.00243308
threshold=0.026294802419003553 1.0507949514343302 0.024601090334285154 0.025774921988543951 0.025409672911872652 0.026363758853868203 0.025495852871204702 0.024482103728787855
decision_type=2 2 2 2 2 2 2 2
left_child=1 2 6 -3 5 -4 -1 -2
right_child=7 3 4 -5 -6 -7 -8 -9
leaf_value=0.10761354750805395 -0.082024970088059326 -0.094866951654535375 0 0.02322181223996073 0.052960758834622326 -0.079986688370426065 0 -0
leaf_count=51 31 32 53 15 24 31 19 26
internal_value=0 0.0671195 0.175784 -0.207875 -0 -0.13676 0.438326 -0.26844
internal_count=282 225 178 47 108 84 70 57
shrinkage=0.186123


Tree=71
num_leaves=8
num_cat=0
split_feature=0 9 33 42 20 20 7
split_gain=0.00456169 0.0116845 0.00645676 0.00608917 0.00497044 0.00381134 0.00182638
threshold=6.2133612949348604 3.0371559894456355 0.024507558958132555 0.025248753664486052 0.024885494397749206 0.026072670430189553 8.1613620202403379
decision_type=2 2 2 2 2 2 2
left_child=1 -1 4 6 -2 -6 -4
right_child=2 -3 3 -5 5 -7 -8
leaf_value=0.028740560870837026 0.035050065732248468 -0.10068338408778095 0 -0.00055579790474230074 -0.088108063438258097 0 0.10331307386663152
leaf_count=28 24 56 25 38 40 19 52
internal_value=0 -0.198039 0.0916061 0.265315 -0.102986 -0.293093 0.435626
internal_count=282 84 198 115 83 59 77
shrinkage=0.186123


Tree=72
num_leaves=10
num_cat=0
split_feature=20 4 48 25 42 9 45 22 23
split_gain=0.00375435 0.00502113 0.00608871 0.00477492 0.00331646 0.00304188 0.0025298 0.00245632 0.00241264
threshold=0.026294802419003553 1.0507949514343302 0.024601090334285154 0.025719956012532602 0.024910628505348056 7.440901002938566 0.025495852871204702 0.024045905085496356 0.024523315909390404
decision_type=2 2 2 2 2 2 2 2 2
left_child=1 2 6 -3 8 -6 -1 -2 -4
right_child=7 3 4 -5 5 -7 -8 -9 -10
leaf_value=0.099384789825765915 0 -0.084364500129296957 0 0.01207628316751873 0.069278255107984368 -0 0 -0.075577428690388707 -0.070617986564939006
leaf_count=51 20 31 25 16 30 29 19 37 24
internal_value=0 0.0666375 0.167889 -0.186721 -0 0.176643 0.40766 -0.237418 -0.183477
internal_count=282 225 178 47 108 59 70 57 49
shrinkage=0.186123


Tree=73
num_leaves=8
num_cat=0
split_feature=18 46 7 9 19 40 49
split_gain=0.00364504 0.00880872 0.00704415 0.00537061 0.00472085 0.00383919 0.00100208
threshold=3.5327344547040704 0.024938851727506303 4.878488859378816 3.0371559894456355 7.6903044955960107 0.024576863460128651 0.024633399808697054
decision_type=2 2 2 2 2 2 2
left_child=2 -2 3 -1 -3 -4 -7
right_child=1 4 5 -5 -6 6 -8
leaf_value=0.021610659590575097 -0.094475619983751327 -0.033814156596592454 0.099489769793813576 -0.069114897546121892 0.062570864658595834 -0.0092918397345579766 0.035614089127103732
leaf_count=29 47 28 56 37 36 28 21
internal_value=0 -0.158234 0.0986083 -0.103041 0.0657354 0.308902 0
internal_count=282 111 171 66 64 105 49
shrinkage=0.186123


Tree=74
num_leaves=9
num_cat=0
split_feature=11 0 37 4 17 17 7 30
split_gain=0.00341285 0.00697948 0.00422933 0.00357545 0.00515298 0.00378128 0.00363271 0.00147166
threshold=10.283244351998801 10.493598518888051 0.025092719415112204 1.0000000180025095e-35 0.53108933520318902 1.0205426412117851 2.1127341831617854 0.024184659462049205
decision_type=2 2 2 2 2 2 2 2
left_child=1 3 -3 6 7 -6 -1 -5
right_child=-2 2 -4 4 5 -7 -8 -9
leaf_value=-0.015220970444884073 -0.054325990055091089 0.10871394154102955 -0 -0 0.059162341128261867 -0.03048799603030964 0.06421100648067983 -0.094996461514034333
leaf_count=15 66 52 14 23 24 23 33 32
internal_value=0 0.0519314 0.3757 -0.0398384 -0.166578 0.0166305 0.135395 -0.375678
internal_count=282 216 66 150 102 47 48 55
shrinkage=0.186123


Tree=75
num_leaves=9
num_cat=0
split_feature=20 11 5 13 46 40 46 30
split_gain=0.00306949 0.00421265 0.00555879 0.00570771 0.00593403 0.00462586 0.00384349 0.00214707
threshold=0.026294802419003553 6.5652465233868558 6.9909272453451061 4.7484889511525559 0.024938851727506303 0.025451651051028253 0.024200659678420104 0.024505901068834501
decision_type=2 2 2 2 2 2 2 2
left_child=1 5 -3 -4 -5 6 -1 -2
right_child=7 2 3 4 -6 -7 -8 -9
leaf_value=-0 0 -0.084511066800880039 0.074520392561398918 -0.086742863310858953 0.019940684566375339 -0.0058163515699812176 0.10493672830461263 -0.073985813860809699
leaf_count=23 25 20 42 34 46 20 40 32
internal_value=0 0.0595089 -0.0507601 0.0470581 -0.104469 0.243318 0.397905 -0.225234
internal_count=282 225 142 122 80 83 63 57
shrinkage=0.186123


Tree=76
num_leaves=9
num_cat=0
split_feature=0 10 18 4 46 33 48 29
split_gain=0.00335281 0.00573619 0.00542248 0.00559798 0.00538922 0.00224555 0.00198104 0.000787395
threshold=6.2133612949348604 2.3547606790933804 3.5327344547040704 0.89031506681379058 0.024938851727506303 0.024830342427952002 0.024025019983210504 0.025348393554167601
decision_type=2 2 2 2 2 2 2 2
left_child=1 -1 3 7 -4 -6 -3 -2
right_child=2 6 4 -5 5 -7 -8 -9
leaf_value=0.02459816786246679 0.1092844727176337 -0 -0.074707460039761878 -0.0016057540226733062 -0.0030055545620393505 0.05930178845212921 -0.099668309898548732 0.0023865231057029401
leaf_count=20 56 21 38 23 32 21 43 28
internal_value=0 -0.18725 0.0805074 0.280201 -0.0802565 0.0870494 -0.388392 0.465417
internal_count=282 84 198 107 91 53 64 84
shrinkage=0.186123


Tree=77
num_leaves=8
num_cat=0
split_feature=37 4 32 42 11 31 18
split_gain=0.00302587 0.00358578 0.0071341 0.00377697 0.00486883 0.00413924 0.00176047
threshold=0.025871047661815406 0.75300248325028918 0.024717404533095701 0.026213551400634354 7.4967017554454856 0.024185559850639603 3.5948450289639506
decision_type=2 2 2 2 2 2 2
left_child=1 3 -3 4 5 -1 -6
right_child=-2 2 -4 -5 6 -7 -8
leaf_value=0 -0.056274937321713563 0.035215085257277859 -0.079483809571099767 -0.025473799050965772 0.034716143762777867 0.11248499347437518 -0.030476560674962117
leaf_count=33 36 35 45 18 33 41 41
internal_value=0 0.0427666 -0.13098 0.152961 0.24166 0.418309 -0
internal_count=282 246 80 166 148 74 74
shrinkage=0.186123


Tree=78
num_leaves=7
num_cat=0
split_feature=41 43 40 17 23 43
split_gain=0.00292459 0.00362935 0.00361123 0.00354125 0.00284377 0.00253955
threshold=0.025484137038274252 0.024304079614040953 0.024731661200631704 0.51982188952722508 0.024762035365965804 0.024823392049564356
decision_type=2 2 2 2 2 2
left_child=1 3 -3 -1 -4 -2
right_child=5 2 4 -5 -6 -7
leaf_value=-0.06102063113120737 0 0.071175415631360317 0.031354781785844693 0.012433168498973902 -0.048967943469731975 -0.081108922178325465
leaf_count=41 27 71 39 46 28 30
internal_value=0 0.0564967 0.190326 -0.0960626 -0 -0.235653
internal_count=282 225 138 87 67 57
shrinkage=0.186123


Tree=79
num_leaves=7
num_cat=0
split_feature=0 12 42 17 22 1
split_gain=0.00259206 0.00444175 0.00539421 0.00407738 0.00369223 0.00343723
threshold=8.3513252918929624 1.2032561349185602 0.024558703183698252 1.0205426412117851 0.024045905085496356 5.9046059618078059
decision_type=2 2 2 2 2 2
left_child=1 4 -3 5 -1 -2
right_child=3 2 -4 -5 -6 -7
leaf_value=0.069181086769492403 0.085066553664802286 -0.10637757035759196 0 -0.016764884251597816 -0.019021388026051491 -0
leaf_count=19 77 34 61 39 24 28
internal_value=0 -0.115168 -0.290913 0.115853 0.0766532 0.2888
internal_count=282 138 95 144 43 105
shrinkage=0.186123


Tree=80
num_leaves=7
num_cat=0
split_feature=0 9 9 29 18 18
split_gain=0.00229275 0.00725496 0.00478202 0.00280954 0.00313416 0.00185846
threshold=5.7656845340106253 3.0371559894456355 6.5223946239426107 0.025623434335853953 3.5948450289639506 2.8747965162494205
decision_type=2 2 2 2 2 2
left_child=1 -1 5 4 -4 -2
right_child=2 -3 3 -5 -6 -7
leaf_value=0.01263938586497944 0.077475776655189996 -0.10810609546867528 0 0.021391675647287393 -0.077345449315046749 0
leaf_count=27 58 45 39 34 52 27
internal_value=0 -0.190703 0.0554977 -0.0711461 -0.215735 0.279428
internal_count=282 72 210 125 91 85
shrinkage=0.186123


Tree=81
num_leaves=7
num_cat=0
split_feature=0 15 8 25 33 45
split_gain=0.00241434 0.0040571 0.00371293 0.00314588 0.00221888 0.0020605
threshold=10.493598518888051 5.0947466504974264 3.0350555835584907 0.025658877004649704 0.024864377387743854 0.025323095656158104
decision_type=2 2 2 2 2 2
left_child=1 3 -2 5 -5 -1
right_child=2 -3 -4 4 -6 -7
leaf_value=-0.050793908044366558 0.075819964016251795 -0.066938988222841764 -0 0.077764281521580644 -0 0.0016887643135914808
leaf_count=47 61 61 38 26 26 23
internal_value=0 -0.0849675 0.16046 0 0.222231 -0.124125
internal_count=282 183 99 122 52 70
shrinkage=0.186123


Tree=82
num_leaves=8
num_cat=0
split_feature=11 0 9 0 6 6 17
split_gain=0.00246451 0.00451 0.0022166 0.00367745 0.00211034 0.00154259 0.00016486
threshold=10.283244351998801 10.493598518888051 5.7875085773380057 4.5002305043613609 2.2390920417527806 2.6474959311745154 1.0493851859151653
decision_type=2 2 2 2 2 2 2
left_child=1 2 3 -1 -4 -5 -3
right_child=-2 6 4 5 -6 -7 -8
leaf_value=-0.023543479409234312 -0.050497096401005123 0.08177008153859798 0 0.080740881620357252 -0.067797653813071609 0 0
leaf_count=46 66 51 19 23 38 24 15
