tree
version=v2
num_class=1
num_tree_per_iteration=1
label_index=0
max_feature_idx=99
objective=binary sigmoid:1
feature_names=V1 V2 V3 V4 V5 V6 V7 V8 V9 V10 V11 V12 V13 V14 V15 V16 V17 V18 V19 V20 V21 V22 V23 V24 V25 V26 V27 V28 V29 V30 V31 V32 V33 V34 V35 V36 V37 V38 V39 V40 V41 V42 V43 V44 V45 V46 V47 V48 V49 V50 V51 V52 V53 V54 V55 V56 V57 V58 V59 V60 V61 V62 V63 V64 V65 V66 V67 V68 V69 V70 V71 V72 V73 V74 V75 V76 V77 V78 V79 V80 V81 V82 V83 V84 V85 V86 V87 V88 V89 V90 V91 V92 V93 V94 V95 V96 V97 V98 V99 V100
feature_infos=[0.0140148813093016:0.27306253128773] [0:0.135346534283729] [0:0.11202920088802799] [0.012304230389429901:0.13412092291108399] [0:0.033530230727770997] [0.0185127139856088:0.174699025673094] [0:0.105307884980173] [0.025175101323152298:0.16602875974864101] [0:0.0577491338256143] [0.015796182747025999:0.18684993613641701] [0.013884535489206601:0.160308704227409] [0.0125434459623579:0.19901167534529501] [0.0060167287682657902:0.0578132460941361] [0:0.116055515613484] [0:0.084952627326974506] [0.0049037452596175004:0.098433843115439498] [0.0096018131357232007:0.110738073504869] [0:0.0332709129655109] [0:0.066031082588321702] [0.0185459561788377:0.201181384366626] [6.1953772944502404e-07:1.5198894406659999e-05] [0:6.9170400401037399e-06] [0:3.9535759812351996e-06] [6.28821821827613e-07:4.7445113402971198e-06] [0:1.1793292824158701e-06] [1.0304335190955901e-06:7.4792813707011498e-06] [0:4.5185822288544002e-06] [8.5404296423691702e-07:6.3616977556843103e-06] [0:2.5152872873104499e-06] [6.7778733432815899e-07:6.6069916405292403e-06] [6.5968230228068001e-07:6.1602590265715502e-06] [4.8289533535275003e-07:1.1077160330277599e-05] [2.0077063801696401e-07:2.4781509177800898e-06] [0:4.6177761159647603e-06] [0:4.1217340763823797e-06] [2.02162638872592e-07:5.0305745746208998e-06] [4.1775263204001401e-07:5.6593963964485103e-06] [0:1.32232626432195e-06] [0:2.5619274876655399e-06] [7.3771847209799296e-07:8.0008678588430392e-06] [0.0317379741945008:0.050784359359147997] [0.032048399865313:0.047420633436731502] [0.029661885374899701:0.046113129830153497] [0.028436407110173801:0.046148277505647303] [0.027100805508410701:0.042919942580903599] [0.031030231589260798:0.043960637055944399] [0.029591810797853502:0.0437490503816583] [0.030509358662206301:0.040694321088944801] [0.021255814553623201:0.040943667086473103] [0.0281770548166996:0.042480901168003599] [0.029331232208226699:0.041864359368992701] [0.030263040492468599:0.041293121809895798] [0.027932090235227702:0.038383187822141902] [0.022038816733912302:0.040289510809251701] [0.025052226735267202:0.038291073934628703] [0.028053795551166199:0.040172425048434601] [0.0262629345617022:0.036782505870305397] [0.021123602304152202:0.039337316298909901] [0.024788661512402901:0.035857802622151998] [0.024999147163031098:0.039992133429471499] [0.023681895083887499:0.037782790042636703] [0.024830697781179401:0.039113495925968599] [0.0229057942198365:0.036350234077136799] [0.026320772575377498:0.0353108670338418] [0.022309450015357699:0.038415583764189298] [0.0236866930505048:0.035797941607726001] [0.020208225538457698:0.036317049233269803] [0.022163682015929501:0.035594421839258497] [0.0186436686724188:0.036509338398630298] [0.016595636743210001:0.037985223330344403] [0.0323843194420897:0.0547887491042994] [0.032781974993178101:0.046266613740908] [0.030778369011874598:0.045053446407314499] [0.029819778492174299:0.048505714036165902] [0.029133627211255599:0.045575932228694001] [0.032381785833896497:0.044350756758366798] [0.029668963857642401:0.043463085186684201] [0.0290645884580653:0.042167095392171797] [0.021926672135349101:0.04042142238772] [0.028782174065692199:0.040420508724913901] [0.029643304887399999:0.041498032531152799] [0.029505584190194601:0.040711140297568102] [0.029488519930043099:0.0414657213405972] [0.0233855599116846:0.039533017220649197] [0.026621111364490701:0.039579592645144102] [0.0258774169507432:0.041061668019926403] [0.026344788730509602:0.036816049160155698] [0.0221123047338142:0.038679289293576398] [0.024371842051014:0.0369188484824804] [0.028082239330088399:0.040308163509087801] [0.024259816666371999:0.037482714799727597] [0.023302649278957401:0.038175011454183602] [0.020795634414835899:0.036444568259684701] [0.0236996833265011:0.035265836669778103] [0.0226282842824676:0.037046248921876697] [0.022612813459826599:0.035172181698825203] [0.0228634823212121:0.036364896756374401] [0.020573025054557499:0.035602602932898797] [0.021471163747983898:0.035895563811102697] [0.018886418705309899:0.038447973398740398]
tree_sizes=1242 2087 2023 1796 1879 1577 1566 1808 1816 1503 1514 1958 1403 1333 1404 1272 1251 1353 1207 922 931 775 732 654 664 576 595 571 563 512 432 483 475 499 418 357 417 416 358 355 356 357 356 356 356 358 357 361 357 357 339 340 358 279 360 279 277 357 362 337 338 339 358 279 277 337 338 275 279 276 279 279 276 277 275 277 277 276 277 276 277 277 276 277 275 278 278 276 277 275 276 276 277 277 274 277 279 277 279 277 278 278 279 276 276 277 278 277 279 278 277 278 279 277 277 279 278 277 279 278 278 276 280 279 279 279 277 278 278 280 278 279 277 281 278 280 281 281 279 279 280 280 279 280 279 279 278 282 280 278 279 279 282 278 280 280 279 282 278 280 280 279 277 280 280 282 279 279 280 279 279 279 279 280 280 280 280 282 282 279 282 280 279 281 279 281 279 280 282 282 277 280 280 279 279 282 279 280 281 279 280 282 279 279 280 280 280 282 280 279 280 282 281 279 282 281 282 279 279 280 279 280 279 280 280 282 280 279 280 278 281 280 279 279 280 279 282 280 282 278 278 280 280 278 281 277 280 280 279 278 280 282 279 279 277 281 279 279 282 280 280 279 279 280 279 278 280 281 279 279 282 279 280 278 279 280 279 281 280 280 279 282 282 279 279 278 280 282 282 280 280 280 282 280 280 278 280 282 278 280

Tree=0
num_leaves=15
num_cat=0
split_feature=20 27 27 77 31 23 24 0 8 33 83 29 12 0
split_gain=102.646 26.4809 14.0665 9.35367 8.45067 7.109 4.65339 3.95437 4.57287 3.54134 3.33108 3.21241 0.505772 0.263948
threshold=3.2409319433061254e-06 2.6726300444977604e-06 2.0570752261811256e-06 0.035380359946871602 2.1269934422638451e-06 2.2832387118698253e-06 2.5609783575043456e-07 0.090768904992349367 0.018491130527672355 1.2429152815054701e-06 0.031624970569440455 1.9195861501024403e-06 0.031676585808362655 0.072149089524047319
decision_type=2 2 2 2 2 2 2 2 2 2 2 2 2 2
left_child=1 4 -2 7 -1 9 13 8 -4 -3 -9 -6 -12 -7
right_child=2 5 3 -5 11 6 -8 10 -10 -11 12 -13 -14 -15
leaf_value=-0.0881940139931775 -0.52194221237255845 -0.89280305735210574 0.95728214274778101 -0.088194013993177597 -0.45915989351363523 0.81921368777832126 -0.16354018462344613 0.38246167378555401 -0.1272909820022792 0.1272909820022792 1.1508207832551365 -1.1508719150525752 0.81921368777832182 1.1470504393557592
leaf_count=13 11 9 12 13 10 7 7 9 9 9 74 85 7 7
internal_value=0 -1.15625 1.25901 1.45131 -1.66627 0.25614 1.04625 1.63926 0.855981 -0.665556 1.8217 -1.87318 1.95 1.71113
internal_count=282 147 135 124 108 39 21 111 21 18 90 95 81 14
shrinkage=0.575608


Tree=1
num_leaves=26
num_cat=0
split_feature=7 91 7 52 23 10 6 7 80 8 33 6 2 17 22 28 3 31 7 7 38 31 41 32 95
split_gain=24.5354 8.89069 9.6648 7.54593 6.85565 5.99058 4.14391 4.16881 10.1185 5.22104 4.43608 3.40411 2.61235 2.36121 1.70819 1.27938 2.25176 1.26759 0.637439 0.385478 0.232816 0.119188 0.0677918 0.00947522 0.00442701
threshold=0.066195353672981613 0.031958618528391804 0.05361585698461916 0.031802308965816102 3.1548715857250901e-06 0.10950020181561002 0.025273721106992053 0.07221045235731996 0.033658089238457006 0.021947173325521502 1.3034652086029402e-06 0.022781687232908156 0.039381366967270758 0.0061236854307694854 1.7388121193219452e-06 5.1609669364841409e-07 0.062816690899758373 3.3030502770630956e-06 0.077147688193386868 0.060163333853759653 1.1687648172873552e-06 2.3391940071652256e-06 0.035843151915697154 9.5690249001039567e-07 0.033208179046608159
decision_type=2 2 2 2 2 2 2 2 2 2 2 2 2 2 2 2 2 2 2 2 2 2 2 2 2
left_child=1 2 13 -2 11 6 17 8 -8 14 -11 -3 -4 -1 20 16 23 18 -5 21 -9 -17 -20 -13 -23
right_child=3 4 12 5 -6 -7 7 9 -10 10 -12 15 -14 -15 -16 19 -18 -19 22 -21 -22 24 -24 -25 -26
leaf_value=0.12205075284850507 -0.71685635918871304 0.023902533311530787 0.1221797771854425 1.2438413934073211 0.62789149883410855 -0.60359174400857907 -0.89148444379939917 0.79472166003530864 0.99717246070686028 -0.66398426827947032 0.57488237387019125 -0.7542702113343922 1.1302575530992098 -0.79911398711909831 0.27266074084527731 -0.93395428422428539 0.052094673342572492 0.33730722213640096 0.91257927305868969 -1.0874970129677368 1.0272743255993944 -0.75650906840795851 0.77453548173178466 -0.85814198065605241 -0.8177862565157501
leaf_count=7 9 10 7 7 7 8 11 25 7 9 9 8 11 14 10 12 8 8 11 11 10 23 20 7 13
internal_value=0 -0.679157 0.216729 0.629752 -1.03938 0.764554 0.883144 0.588709 -0.305423 0.864177 -0.116068 -1.20301 1.36668 -0.846011 1.27578 -1.35282 -0.894711 1.42267 1.58801 -1.52571 1.51041 -1.43145 1.43839 -1.40453 -1.35619
internal_count=282 138 39 144 99 135 127 81 18 63 18 92 18 21 45 82 23 46 38 59 35 48 31 15 36
shrinkage=0.575608


Tree=2
num_leaves=25
num_cat=0
split_feature=20 11 6 39 43 50 89 29 31 20 21 29 45 40 12 40 92 40 88 6 41 73 51 88
split_gain=18.3836 5.46275 4.78359 4.93222 3.67913 3.75379 3.60547 2.77085 1.94957 1.28258 2.8065 1.16282 1.15849 0.895207 0.519522 0.192299 0.148952 0.136658 0.051481 0.0489946 0.0476326 0.0267983 0.0236939 0.00714416
threshold=2.7946692037678755e-06 0.053333764947295005 0.028196085290865706 2.7844940239854155e-06 0.032952051182824661 0.034790298516316702 0.032418430578594705 1.7758299673454552e-06 2.0775916855022406e-06 3.5240776911382954e-06 1.5811939156640802e-06 2.6101068653068055e-06 0.037382605359192154 0.034415661359009309 0.030692405618118253 0.033935283468212403 0.033515319301825955 0.034081668509211606 0.033191463120640953 0.022781687232908156 0.035659717958533461 0.036673848619566012 0.034363564465670911 0.033754018069399254
decision_type=2 2 2 2 2 2 2 2 2 2 2 2 2 2 2 2 2 2 2 2 2 2 2 2
left_child=1 -1 9 8 16 6 11 -3 -4 10 -2 -6 15 -10 18 -9 -5 -17 20 -19 -11 -21 -22 -15
right_child=2 7 3 4 5 -7 -8 12 13 14 -12 -13 -14 23 -16 17 -18 19 -20 21 22 -23 -24 -25
leaf_value=0.49926714150617379 0.65659640405622222 0.19072686642512604 0.2455984110221382 0.68576629803045064 0.56084854733048439 0.8667629628102993 -0.70029821335433717 -0.92300055034172701 -0.19978944576899152 0.90070317531339217 -0.41118553882101455 -0.16407541353351854 -0.22681589835577456 -0.81412206546108723 0.3478199205810667 -0.46648843888874886 0.93677657858258223 -0.80555256644683904 0.68720735713732684 -0.67758053428372222 0.69629647559882957 -0.79020236642680075 0.82620086621935174 -0.71094196923949693
leaf_count=10 13 7 8 18 10 8 13 12 8 7 9 9 9 7 8 7 7 12 19 47 12 7 7 8
internal_value=0 -0.836888 0.505595 0.146963 0.545791 0.112505 -0.282162 -1.03317 -0.639025 0.995856 0.498663 0.442517 -1.17179 -0.983909 1.2212 -1.28438 1.35987 -1.22849 1.32912 -1.26351 1.39966 -1.21367 1.31278 -1.33684
internal_count=282 111 171 96 65 40 32 101 31 75 22 19 94 23 53 85 25 73 45 66 26 54 19 15
shrinkage=0.575608


Tree=3
num_leaves=22
num_cat=0
split_feature=0 20 35 56 7 36 75 4 48 69 23 34 11 13 69 70 80 75 70 75 95
split_gain=8.95032 3.07482 3.42526 2.62411 2.31848 1.88411 1.7782 1.28735 1.70433 1.68573 1.21299 0.849945 0.702944 0.696357 0.3763 0.238456 0.216604 0.212345 0.0730986 0.00789484 0.00686293
threshold=0.057932842379672063 3.6322597809459958e-06 2.4495504443856503e-06 0.031984694866223504 0.066942526865440513 1.5107475313327003e-06 0.036489459420020305 0.0016269855659053552 0.035093920506892556 0.031918414738605808 2.4275166595108202e-06 1.1650161865130653e-06 0.055665546020614208 0.042623604090074811 0.031801811465917755 0.034367537436323758 0.033658089238457006 0.033228146712901058 0.038435139864027357 0.034604209401867606 0.030952786757400052
decision_type=2 2 2 2 2 2 2 2 2 2 2 2 2 2 2 2 2 2 2 2 2
left_child=12 3 5 6 11 -3 10 14 9 -9 -2 -5 -1 17 -6 -14 19 -7 -17 -13 -19
right_child=1 2 -4 4 7 13 -8 8 -10 -11 -12 16 15 -15 -16 18 -18 20 -20 -21 -22
leaf_value=-0.11803603207104092 0.49751909542943079 -0.17285429253349857 -0.55919210301800815 -0.081313217959652781 0.16688552141111812 0.34744540003443275 0.8844153837199733 0.11644984383904726 0.49512937795783141 -0.71646530127707575 -0.51431417483337338 -0.66066341904270853 -0.31768159816532615 0.10397426090911852 0.73055703831618568 -0.64545825047679084 -0.33496135492798729 0.72500368059264297 -0.81833508561335389 -0.76385409235390633 0.66240864028452207
leaf_count=7 8 10 8 13 7 8 8 11 9 10 7 13 7 7 7 54 7 15 7 8 51
internal_value=0 0.28569 0.681764 -0.0322539 -0.272201 0.872076 0.774979 0.128271 -0.153588 -0.533757 0.0218318 -0.826065 -0.991531 1.03663 0.880208 -1.11833 -1.10985 1.13209 -1.18911 -1.24611 1.18584
internal_count=282 207 99 108 85 91 23 44 30 21 15 41 75 81 14 68 28 74 61 21 66
shrinkage=0.575608


Tree=4
num_leaves=23
num_cat=0
split_feature=20 26 28 20 52 7 30 15 43 15 48 81 32 48 7 58 10 23 64 45 52 20
split_gain=3.80762 2.1262 2.08641 2.06229 1.45 1.33175 1.31503 1.51312 1.06621 0.831206 0.724021 0.723951 0.657063 0.588859 0.535794 0.373636 0.130643 0.0684787 0.0438889 0.0228784 0.0117504 0.00283762
threshold=2.3500764548530753e-06 9.8886062737070966e-07 7.0034421198904709e-07 3.1863794109298556e-06 0.035008317575113752 0.050817292135550508 2.5705994612251753e-06 0.050422494699854652 0.032503081528560407 0.069767840147150414 0.035441109688412901 0.032550853244168558 1.1151900701777902e-06 0.032724540018377907 0.066195353672981613 0.034045158793039508 0.070430277915452658 2.1192356055458054e-06 0.03318169117286731 0.036469018559140358 0.032896957492204955 2.9499153713068253e-06
decision_type=2 2 2 2 2 2 2 2 2 2 2 2 2 2 2 2 2 2 2 2 2 2
left_child=9 6 3 14 8 -5 7 -2 -4 13 11 -10 20 -1 -3 18 -15 -13 21 -18 -7 -8
right_child=1 2 4 5 -6 12 15 -9 10 -11 -12 17 -14 16 -16 -17 19 -19 -20 -21 -22 -23
leaf_value=-0.074903802406509373 0.61022699770227162 -0.64032120850246543 0.2771429659446108 -0.32142496731210746 0.32228200902335657 0.73684260159972215 0.73298932389416394 -0.54062398513874421 0.062580628371419048 0.20516123862230115 -0.016763070727038462 -0.50544244991336917 0.061084923514225703 -0.28230963008075616 0.056536239984816453 0.14974133995160838 -0.62300954530251551 -0.73148307442526661 0.483115884247377 -0.74996920982573323 0.633059606380597 0.65011601681144271
leaf_count=11 9 12 7 8 11 7 7 7 7 7 10 8 8 7 7 12 42 21 7 8 33 26
internal_value=0 0.217404 -0.0119819 0.408647 -0.40361 0.739855 0.720119 -0.0736773 -0.632672 -0.768258 -0.812652 -1.01527 0.961744 -0.916281 -0.609831 1.00658 -1.08711 -1.19225 1.12551 -1.15009 1.15727 1.17507
internal_count=282 207 139 75 64 56 68 16 53 75 46 36 48 68 19 52 57 29 40 50 40 33
shrinkage=0.575608


Tree=5
num_leaves=19
num_cat=0
split_feature=27 38 29 86 91 29 28 56 32 68 19 68 31 36 64 73 74 28
split_gain=2.10957 1.63406 1.68835 1.4396 1.15759 1.11972 1.05034 1.22345 1.27376 0.921943 0.850269 0.485386 0.407863 0.232209 0.147482 0.0693029 0.0682557 0.0673663
threshold=2.6726300444977604e-06 1.0663296959279901e-06 2.4508092142173754e-06 0.034841885399118505 0.031958618528391804 2.6584163546203805e-06 6.7372948053074164e-07 0.033750046272346561 9.2796043230285058e-07 0.031581473909895762 0.084143002593277019 0.032312559037394308 2.7338230798874355e-06 2.1759971625851753e-06 0.033782968847368054 0.033798191026917355 0.033260407726926657 4.046220886501875e-07
decision_type=2 2 2 2 2 2 2 2 2 2 2 2 2 2 2 2 2 2
left_child=1 2 13 6 5 -3 14 8 10 -10 11 -8 -4 17 -2 -9 -6 -1
right_child=3 4 12 -5 16 -7 7 15 9 -11 -12 -13 -14 -15 -16 -17 -18 -19
leaf_value=0.36970990111516067 0.61997332573503361 0.40435127824026235 -0.0082201280955010621 -0.43788993295564327 -0.33085933928633066 -0.61735003571830094 0.3939689341629975 0.33966742488348295 -0.65873945148682822 0.1150550221549063 0.64639637219871982 -0.46487657982039599 -0.6077155611268712 0.1087642495971974 0.19089978292025703 0.66879725947075441 -0.6447009642243029 0.67221582454079065
leaf_count=7 46 12 9 11 8 12 7 7 11 12 15 7 22 8 7 12 57 12
internal_value=0 -0.368118 0.16817 0.332972 -0.744707 -0.00627942 0.476662 0.223645 -0.0519226 -0.593168 0.526052 -0.195663 -0.603062 0.822711 0.991035 1.03995 -1.075 1.02745
internal_count=282 147 58 135 89 24 124 71 52 23 29 14 31 27 53 19 65 19
shrinkage=0.575608


Tree=6
num_leaves=19
num_cat=0
split_feature=20 24 19 16 62 82 14 32 65 54 90 19 14 14 62 41 6 86
split_gain=1.43165 1.51007 1.13657 1.07839 1.09079 0.877321 0.629928 0.332328 0.258099 0.514232 0.232221 0.211252 0.24935 0.20485 0.185549 0.157416 0.0519668 0.0227415
threshold=3.2409319433061254e-06 3.3120614111777653e-07 0.049501905902675301 0.048866541139500362 0.032671034190341758 0.035593385118122607 0.041755369459568904 1.2545385528104851e-06 0.030534503575432154 0.033099520937535057 0.031786058988254755 0.068721733408599314 0.036957958020277355 0.018900107001911155 0.031886549983785609 0.034392748027423307 0.014844290676383202 0.033134655311591106
decision_type=2 2 2 2 2 2 2 2 2 2 2 2 2 2 2 2 2 2
left_child=3 2 -2 6 5 14 13 11 -3 -10 -6 12 -4 -1 -5 -13 -15 -12
right_child=1 8 7 4 10 -7 -8 -9 9 -11 17 15 -14 16 -16 -17 -18 -19
leaf_value=-0.020965796948869769 -0.40339786460633292 -0.6276964512556592 -0.091939080946291107 -0.62826444273606363 0.017095160436326612 0.43204799224313817 0.14609705289297997 -0.081108101622864526 0.58226667887417971 -0.50625688979821226 0.41621992821900999 0.11629475430935746 0.58612787404618161 -0.35003661763220772 -0.16341147337590176 0.6157109213522628 -0.62373021189126299 0.63948931325761704
leaf_count=8 8 7 9 16 8 8 8 8 7 7 7 7 11 7 11 71 66 8
internal_value=0 0.35917 0.618105 -0.327864 0.088382 -0.419043 -0.739579 0.80275 -0.634367 -0.163649 0.773834 0.888544 0.390783 -0.939419 -0.833741 1.0039 -1.02613 1.00911
internal_count=282 135 114 147 58 35 89 106 21 14 23 98 20 81 27 78 73 15
shrinkage=0.575608


Tree=7
num_leaves=22
num_cat=0
split_feature=7 97 19 12 52 13 61 68 19 23 51 39 40 82 7 97 91 62 82 60 61
split_gain=0.915477 0.588298 0.849317 0.595985 0.584754 0.558529 0.484147 0.396393 0.331693 0.615576 0.271304 0.256575 0.129402 0.129324 0.0853637 0.209615 0.165786 0.0787632 0.0167682 0.000937649 5.26471e-05
threshold=0.05361585698461916 0.033240963089398105 0.064778065471131713 0.031676585808362655 0.033041068365603658 0.030921261461966904 0.032307281963543856 0.031247764668524605 0.059511126251617259 2.2096423119971003e-06 0.032603868871022207 2.8809799334605453e-06 0.03571090726897911 0.033383520184045355 0.07221045235731996 0.031649565387900404 0.032061579591279907 0.032671034190341758 0.033482535510215655 0.033968345122485706 0.03269089439161376
decision_type=2 2 2 2 2 2 2 2 2 2 2 2 2 2 2 2 2 2 2 2 2
left_child=5 3 -3 4 6 11 12 -5 9 -6 -4 -1 -2 17 15 20 -17 -8 -12 -7 -10
right_child=1 2 10 7 8 19 13 -9 14 -11 18 -13 -14 -15 -16 16 -18 -19 -20 -21 -22
leaf_value=-0.55692001587932261 0.56105096525824283 0.48901133789509155 0.20879697761200799 -0.60462593062942283 0.57068591447400185 -0.60163127395464933 -0.5747547188722939 0.26812944272320144 0.46068465528574243 -0.47050509445788785 -0.46326473880718366 0.39570814088904516 0.069045255905950273 0.037749223513867773 0.59814531942484717 0.44735765936582172 -0.362471388294688 -0.091665291986300954 -0.65637208490953514 -0.4053906973341988 0.61169465611494478
leaf_count=7 7 11 7 10 8 52 13 8 7 11 7 8 9 10 60 7 7 9 8 8 8
internal_value=0 0.169556 -0.377219 0.324173 0.456005 -0.658178 -0.0411538 -0.507581 0.706615 0.120076 -0.826583 0.25525 0.563169 -0.548174 0.889002 0.633598 -0.000267436 -0.791017 -1.02701 -1.02626 1.00018
internal_count=282 207 33 174 156 75 48 18 108 19 22 15 16 32 89 29 14 22 15 60 15
shrinkage=0.575608


Tree=8
num_leaves=22
num_cat=0
split_feature=27 75 97 66 51 41 84 29 59 94 70 70 98 14 1 1 33 41 91 98 81
split_gain=0.498388 0.478227 0.400734 0.445394 0.360746 0.319621 0.375344 0.371356 0.209599 0.217313 0.160598 0.141414 0.139618 0.12601 0.122416 0.111766 0.0751972 0.0440782 0.0350497 0.0119774 0.00610746
threshold=2.6726300444977604e-06 0.034432438402442506 0.031258306631920411 0.031155351921848453 0.033543221347520753 0.035379500264918456 0.033555548857827612 2.4640376194192553e-06 0.033764754586875105 0.031815127034976208 0.03623166216480201 0.034367537436323758 0.031807418880488554 0.033006593496357407 0.045456255068009856 0.028665658874092403 2.0638601419260107e-06 0.035000589057846358 0.031408577857651006 0.033203925339609856 0.033347037710235762
decision_type=2 2 2 2 2 2 2 2 2 2 2 2 2 2 2 2 2 2 2 2 2
left_child=1 16 3 13 10 12 20 -8 15 -10 11 -2 -6 -3 -12 -4 -1 -5 -17 -13 -7
right_child=4 2 8 17 5 6 7 -9 9 -11 14 19 -14 -15 -16 18 -18 -19 -20 -21 -22
leaf_value=-0.59668687275965915 -0.026940057358256161 -0.57570741843718454 0.17453141310303613 0.084730432052546475 -0.58455959558621151 0.33561379631123944 0.56416527288970031 -0.51264782718624635 -0.42332624883533071 0.54828039119810934 0.30677725370835462 0.58976635049349624 -0.0096874341576464271 0.08825459998057586 -0.32780655220230714 -0.14553457204263284 -0.078581661282488169 0.57871751406204885 -0.58839174141229689 0.37552107523337974 0.58233413882260854
leaf_count=39 10 9 8 7 9 7 7 9 7 7 11 36 10 8 8 7 10 16 29 9 19
internal_value=0 -0.298044 -0.0286949 0.411577 0.282864 -0.058713 0.301511 -0.310339 -0.482364 0.212197 0.62699 0.822055 -0.632164 -0.457767 0.0830973 -0.785118 -0.921933 0.91208 -0.930568 0.965771 0.944048
internal_count=282 147 98 40 135 61 42 16 58 14 74 55 19 17 19 44 49 23 36 45 26
shrinkage=0.575608


Tree=9
num_leaves=18
num_cat=0
split_feature=20 32 6 43 36 83 96 79 10 84 6 58 84 25 88 22 85
split_gain=0.496818 0.336523 0.234679 0.318739 0.243223 0.220555 0.220307 0.199131 0.156803 0.112335 0.133952 0.0833801 0.0293985 0.027942 0.0237477 0.079639 0.0156611
threshold=3.6322597809459958e-06 9.8089320636379655e-07 0.027181570369721103 0.032952051182824661 1.8606886638347951e-06 0.033341448608197509 0.033218771937845455 0.033865786706692706 0.054196934313206206 0.032490449037306711 0.036361403841448758 0.03318127916871836 0.032371834054579156 3.3632075693995256e-06 0.033951498513640606 1.5776623366382403e-06 0.033803951284983806
decision_type=2 2 2 2 2 2 2 2 2 2 2 2 2 2 2 2 2
left_child=2 14 4 7 6 -3 13 -4 -5 10 -10 16 -7 -1 -2 -16 -6
right_child=1 5 3 8 11 12 -8 -9 9 -11 -12 -13 -14 -15 15 -17 -18
leaf_value=-0.56933215204760546 0.58267863747284188 -0.38054910157961575 -0.216494994820216 0.043967502542562695 0.57884701716448816 0.063027388204164855 0.4653593224082952 0.5383360692221032 0.22319560926845924 -0.5887205670872464 -0.4899441533934048 -0.043135221640103895 0.55336738311528244 -0.15043277388558451 0.55703177089053857 -0.19547101090405167 0.25008273774083822
leaf_count=17 46 12 13 10 14 7 7 11 10 67 13 7 11 7 16 7 7
internal_value=0 0.508287 -0.239575 -0.4424 0.178231 -0.135909 -0.376712 0.284296 -0.676831 -0.823261 -0.33229 0.659357 0.688652 -0.809102 0.905237 0.572587 0.888534
internal_count=282 99 183 124 59 30 31 24 100 90 23 28 18 24 69 23 21
shrinkage=0.575608


Tree=10
num_leaves=18
num_cat=0
split_feature=20 81 63 9 50 6 36 34 64 64 6 89 29 70 49 89 35
split_gain=0.245629 0.185224 0.153854 0.157412 0.133375 0.172325 0.114547 0.105594 0.114876 0.141709 0.117397 0.0766775 0.0554792 0.0514685 0.0419878 0.0157208 0.00609567
threshold=3.6322597809459958e-06 0.035138548978452859 0.032198559663144805 0.076406701223377713 0.033106635782548154 0.028196085290865706 1.5107475313327003e-06 1.8180064962925252e-06 0.031880755450530603 0.031470887723252107 0.025273721106992053 0.034928915314000754 2.1420342575397303e-06 0.036059379364252658 0.034809522831157458 0.031469476587459758 1.4163210721467852e-06
decision_type=2 2 2 2 2 2 2 2 2 2 2 2 2 2 2 2 2
left_child=2 6 3 4 5 -1 -2 8 9 10 -4 -8 -6 -5 15 -10 -17
right_child=1 -3 7 13 12 -7 11 -9 14 -11 -12 -13 -14 -15 -16 16 -18
leaf_value=0.51302248659020866 -0.1032475856013861 -0.22105963513807569 0.26358883043096104 0.029666996689752406 0.55444445149755472 -0.46721191363775499 0.57478290704098911 0.2245742139205793 -0.033071115311873019 0.38933047223895278 -0.56273892373502388 -0.15901683192089874 0.070669395904735685 -0.55733941652936059 -0.061122032285363045 -0.28038402726809863 -0.58003791580645792
leaf_count=8 9 13 7 11 15 13 70 8 7 12 20 7 13 13 8 7 41
internal_value=0 0.447099 -0.186942 0.13191 0.37624 -0.197165 0.696636 -0.429749 -0.542545 -0.121916 -0.554375 0.885218 0.729736 -0.614155 -0.821269 -0.92404 -0.962373
internal_count=282 99 183 73 49 21 86 110 102 39 27 77 28 24 63 55 48
shrinkage=0.575608


Tree=11
num_leaves=24
num_cat=0
split_feature=4 11 63 29 1 77 5 90 47 1 77 3 14 31 66 55 52 87 31 83 46 87 49
split_gain=0.11768 0.104635 0.0908281 0.114357 0.105939 0.0895877 0.111346 0.192803 0.0847817 0.0781691 0.06396 0.0423328 0.0573184 0.037642 0.029583 0.0290095 0.0254456 0.0249592 0.0157861 0.00883152 0.00693937 0.00338977 0.00334125
threshold=0.0016269855659053552 0.053333764947295005 0.033216721680534557 3.2106152326834556e-06 0.048212071856528559 0.032732284760941456 0.062260851041155307 0.032226746496410656 0.033980840675765907 0.04025989784052416 0.033304766044732405 0.053978573017023405 0.041755369459568904 2.6863804843621453e-06 0.030026339514622805 0.033215193123802104 0.032793988750503163 0.033932614105969906 3.7632145771862855e-06 0.034557226238973456 0.032789302401692207 0.03356086945604126 0.033470477701161856
decision_type=2 2 2 2 2 2 2 2 2 2 2 2 2 2 2 2 2 2 2 2 2 2 2
left_child=2 8 3 11 15 21 14 10 22 16 -8 12 -1 -11 -7 -4 -9 19 -5 -12 -13 -3 -2
right_child=1 5 4 18 -6 6 7 9 -10 13 17 20 -14 -15 -16 -17 -18 -19 -20 -21 -22 -23 -24
leaf_value=-0.31940345524032571 0.24984984750007111 -0.56009663700427048 -0.10180888095625926 0.0028967731148272142 -0.51709515141238194 -0.0092211637127868722 0.30298905112749885 0.061715903995514361 -0.17353677389426653 0.2629856266662256 -0.53960393058308131 0.21043877539566958 0.50736538350307536 -0.44650828374743329 -0.56230950376119293 0.52212963731811457 0.54415991567477529 -0 -0.5038412014514374 -0.14831076101896121 0.55631013608840663 -0.26554899467741033 0.54974870188468761
leaf_count=9 7 21 7 7 8 8 7 7 9 10 22 7 8 9 20 7 29 9 8 7 33 10 13
internal_value=0 -0.169413 0.33084 0.551346 -0.231187 -0.306859 -0.161687 0.038611 0.394898 0.535311 -0.537093 0.74608 0.14622 -0.253687 -0.790325 0.514808 0.802065 -0.722901 -0.545813 -0.851691 0.911145 -0.889398 0.845328
internal_count=282 188 94 72 22 159 128 100 29 55 45 57 17 19 28 14 36 38 15 29 40 31 20
shrinkage=0.575608


Tree=12
num_leaves=17
num_cat=0
split_feature=0 31 24 39 27 91 56 53 6 76 97 8 93 67 58 91
split_gain=0.138501 0.145458 0.106317 0.112269 0.0821261 0.0815685 0.0443551 0.043611 0.043138 0.0395703 0.0315013 0.0235071 0.020458 0.0161136 0.00607138 0.000545416
threshold=0.072149089524047319 2.1269934422638451e-06 3.3120614111777653e-07 1.9040437165720103e-06 2.8119598063045702e-06 0.032912280718880811 0.034432419194870202 0.033339506658581104 0.035109550752804052 0.036030355585639558 0.033240963089398105 0.031580521490841507 0.032578483165976911 0.031621137712933713 0.031873829398226104 0.034152251793186351
decision_type=2 2 2 2 2 2 2 2 2 2 2 2 2 2 2 2
left_child=1 -1 3 -2 5 8 13 -7 12 11 14 15 -5 -4 -6 -3
right_child=2 9 6 4 10 7 -8 -9 -10 -11 -12 -13 -14 -15 -16 -17
leaf_value=0.36441642760038578 -0.39317715353569421 -0.56423977079925314 -0.11827639245916463 0.54884125651435656 0.28131338928025768 -0.53343750291595415 0.24488452665458565 0.15068019701619453 -0.23454833950256815 0.067656582199144971 -0 -0 0.055593300329463718 -0.52840845599618524 0.56659939896482681 -0.26605056129271437
leaf_count=11 10 74 8 18 13 12 8 9 7 7 7 9 9 9 61 10
internal_value=0 -0.448548 0.216585 0.382226 0.513414 0.126468 -0.427771 -0.497499 0.525902 -0.736319 0.819421 -0.85851 0.745823 -0.672324 0.914122 -0.945983
internal_count=282 111 171 146 136 55 25 21 34 100 81 93 27 17 74 84
shrinkage=0.575608


Tree=13
num_leaves=16
num_cat=0
split_feature=20 79 5 7 14 16 55 4 76 62 48 41 13 64 7
split_gain=0.100983 0.0808093 0.0606898 0.0746998 0.0632907 0.0456605 0.042764 0.049483 0.0441871 0.039563 0.0324773 0.0260765 0.0167279 0.0132834 0.00741344
threshold=3.2409319433061254e-06 0.035994757221789707 0.062260851041155307 0.080313104419611911 0.041755369459568904 0.051556321534969557 0.031680035360921857 0.0091987479045492603 0.034370399636521408 0.031587416998469356 0.033263148068385352 0.034658245955716559 0.043845463790609614 0.031880755450530603 0.036484368543982161
decision_type=2 2 2 2 2 2 2 2 2 2 2 2 2 2 2
left_child=2 6 -1 4 5 14 9 11 -9 -2 -7 -8 -13 -5 -4
right_child=1 -3 3 13 -6 10 7 8 -10 -11 -12 12 -14 -15 -16
leaf_value=-0.54555082747754946 0.43175580049262391 -0.43261438080949466 -0.051902053379297895 0.51975214633771427 0.29159554645182878 -0.29724450144702358 -0 0.39626297738482708 -0.41646612791827387 -0.41203225578896346 0.36206801259028881 0.56178621250363492 0.13149308089771411 0.0080246606104746113 -0.55203849575336839
leaf_count=33 7 11 8 9 13 11 13 9 7 11 9 68 9 7 57
internal_value=0 0.309763 -0.314119 -0.122234 -0.354659 -0.58059 0.452415 0.582557 -0.108343 -0.233656 -0 0.759623 0.866442 0.664232 -0.890241
internal_count=282 135 147 114 98 85 124 106 16 18 20 90 77 16 65
shrinkage=0.575608


Tree=14
num_leaves=17
num_cat=0
split_feature=43 6 20 81 9 39 70 39 42 6 47 15 58 64 61 39
split_gain=0.0582973 0.059545 0.0413144 0.0364656 0.0306837 0.029609 0.031481 0.0293078 0.0320762 0.0218003 0.0147757 0.00995592 0.00899926 0.00880711 0.00622456 0.00437232
threshold=0.032952051182824661 0.028196085290865706 3.6322597809459958e-06 0.033963362774687554 0.041989202529075856 2.0976871486564008e-06 0.036543861699874204 2.0544579319000207e-06 0.033198244877324055 0.021365135695947203 0.032029724065467759 0.045362048324529156 0.033843857169544307 0.032562585792673508 0.03269089439161376 3.5259693084827104e-06
decision_type=2 2 2 2 2 2 2 2 2 2 2 2 2 2 2 2
left_child=7 5 4 13 -3 14 12 -1 11 -8 -6 -9 -7 -4 -2 -12
right_child=1 2 3 -5 10 6 9 8 -10 -11 15 -13 -14 -15 -16 -17
leaf_value=-0.2651664160001681 -0.43208055316145405 0.10680585142424615 0.49308374064692079 -0.2396400884430778 -0 0.51883886854022288 -0.36679042047309252 -0.3257878289162407 0.53053565948436421 0.27933609033581513 -0.55285860119515828 0.17530640054288596 0.0012034072359126675 -0.025797623471744156 0 -0.17253682804842138
leaf_count=7 11 8 13 13 11 35 11 7 44 11 71 8 11 7 7 7
internal_value=0 -0.160555 -0.41004 0.0760817 -0.646802 0.26896 0.460593 0.495515 0.654489 -0.109713 -0.7938 -0.0743459 0.78154 0.668688 -0.459904 -0.890525
internal_count=282 216 130 33 97 86 68 66 59 22 89 15 46 20 18 78
shrinkage=0.575608


Tree=15
num_leaves=15
num_cat=0
split_feature=7 12 20 29 45 95 7 98 77 21 36 69 13 35
split_gain=0.0431026 0.0413281 0.0390524 0.0292982 0.0209887 0.0201014 0.0307974 0.0269442 0.0177542 0.0115193 0.00978879 0.00800965 0.00273611 0.00126647
threshold=0.05361585698461916 0.031676585808362655 3.6322597809459958e-06 2.0311962396598651e-06 0.037018797341269401 0.031120698900491506 0.07221045235731996 0.031509499494460753 0.03368931832358401 2.0961746613778557e-06 2.0115637156869756e-06 0.031222751171604453 0.030064037374839755 2.2804139674424156e-06
decision_type=2 2 2 2 2 2 2 2 2 2 2 2 2 2
left_child=3 2 4 -1 5 -2 7 -7 -8 13 -3 -9 -10 -4
right_child=1 10 9 -5 -6 6 8 11 12 -11 -12 -13 -14 -15
leaf_value=0.13921785309149454 -0.39103692022097469 -0.42799301263645079 0.53313973206565723 -0.52404395813570814 0.40042275622083451 0.2371323536650074 -0.12788643658657123 0.012038922257707757 0.084027514759509481 -0 0.07954125038106015 -0.44325930821565729 0.50447486858348878 0.090924753360211219
leaf_count=13 13 14 62 62 13 13 9 8 7 8 8 29 15 8
internal_value=0 0.137893 0.270218 -0.585858 0.0475217 -0.0698009 0.0688638 -0.28679 0.512731 0.755052 -0.569835 -0.625043 0.764782 0.879502
internal_count=282 207 185 75 107 94 81 50 31 78 22 37 22 70
shrinkage=0.575608


Tree=16
num_leaves=15
num_cat=0
split_feature=0 5 31 7 43 4 87 47 28 74 47 26 74 64
split_gain=0.0257671 0.0232452 0.0272134 0.0234516 0.025025 0.017152 0.0178119 0.0138908 0.0119635 0.00791428 0.00766262 0.00660026 0.0038375 0.00282407
threshold=0.090768904992349367 0.062260851041155307 2.1269934422638451e-06 0.080313104419611911 0.032952051182824661 0.0059072932395126962 0.033932614105969906 0.033380526603501257 1.0035186915206904e-06 0.035370120439060307 0.03477003341361886 1.1403017145918751e-06 0.034469912103692303 0.03179056555454151
decision_type=2 2 2 2 2 2 2 2 2 2 2 2 2 2
left_child=1 12 10 4 9 6 -2 -7 -6 -4 -3 -9 -1 -5
right_child=5 2 3 13 8 7 -8 11 -10 -11 -12 -13 -14 -15
leaf_value=-0.011321288386207752 0.49317021750236878 0.4346192266841673 0.35298073012866965 0.3925960205898063 -0.52195562864675504 0.30318602941664319 -0.1046589184120247 0.033876314040615876 0.049589954488630475 -0.17905860360055251 0 -0.39746190577172302 -0.47660327888375709 0
leaf_count=14 60 13 10 8 65 14 15 10 14 7 9 9 27 7
internal_value=0 -0.180369 -0.00375526 -0.258751 -0.480261 0.349332 0.628307 -0.0584126 -0.75724 0.278044 0.521784 -0.411815 -0.713815 0.457377
internal_count=282 174 133 111 96 108 75 33 79 17 22 19 41 15
shrinkage=0.575608


Tree=17
num_leaves=16
num_cat=0
split_feature=6 0 83 20 28 49 11 14 47 88 14 1 35 35 34
split_gain=0.0188327 0.0132581 0.0135685 0.0126634 0.0173102 0.0124379 0.0117766 0.009413 0.00827556 0.00693328 0.0066178 0.00507608 0.00173011 0.00233199 0.00147208
threshold=0.025273721106992053 0.057932842379672063 0.031624970569440455 3.2409319433061254e-06 7.4218045951088868e-07 0.034947541639933903 0.093221029054100721 0.033826487547834953 0.035480863779147706 0.033191463120640953 0.046611176135698505 0.048212071856528559 1.9671892107523906e-06 2.2804139674424156e-06 9.5617800391422509e-07
decision_type=2 2 2 2 2 2 2 2 2 2 2 2 2 2 2
left_child=1 -1 -3 5 6 8 11 -6 12 -7 -9 -5 -2 -14 -4
right_child=3 2 14 4 7 9 -8 10 -10 -11 -12 -13 13 -15 -16
leaf_value=-0.21509281219852294 -0.4960510294773598 -0.18414936688355713 0.056228639327018722 0.45422507921605942 -0.37460703236921605 0.29757649823198734 -0.19685880132058789 0.2929262557816395 0.072366049207435279 -0.17978997432618968 -0.18479303043125503 -0 0.01361261282518204 -0.29464863238148042 0.48565746568550805
leaf_count=17 58 7 11 41 12 13 8 12 8 7 8 9 10 12 49
internal_value=0 0.41494 0.593366 -0.144585 0.0777852 -0.397438 0.449136 -0.298617 -0.609879 0.119812 0.0987402 0.653067 -0.735129 -0.242382 0.771656
internal_count=282 84 67 198 90 108 58 32 88 20 20 50 80 22 60
shrinkage=0.575608


Tree=18
num_leaves=14
num_cat=0
split_feature=27 9 43 32 43 20 98 86 79 58 79 7 9
split_gain=0.0179223 0.0123462 0.00819672 0.00787867 0.00865371 0.00585091 0.00527081 0.00482539 0.00388053 0.0036324 0.00325348 0.00124966 0.000785554
threshold=2.6726300444977604e-06 0.045046048738657307 0.032952051182824661 1.1151900701777902e-06 0.034137006586248006 3.6322597809459958e-06 0.033565579727256808 0.033495985727769802 0.034063698761648456 0.03318127916871836 0.032683643613284658 0.091924989756338268 0.053515313648301657
decision_type=2 2 2 2 2 2 2 2 2 2 2 2 2
left_child=1 8 11 4 5 9 10 -6 -1 -4 -3 -2 -12
right_child=2 6 3 -5 7 -7 -8 -9 -10 -11 12 -13 -14
leaf_value=-0.049596920625693174 0.43900568493093067 -0.00011322447829362515 0.010687279015573365 -0.23701571618809913 0.44124961175476302 0.21335796682276625 0.021543441288698881 -0 0.34070963214827221 -0.34076715153827153 -0.10865184925893545 0.03794857387155473 -0.4511386825056275
leaf_count=8 28 24 9 16 30 19 19 11 9 10 21 12 66
internal_value=0 -0.310943 0.249844 0.0671358 0.231421 -0.0701642 -0.494221 0.570107 0.286507 -0.336807 -0.596753 0.648119 -0.692019
internal_count=282 147 135 95 79 38 130 41 17 19 111 40 87
shrinkage=0.575608


Tree=19
num_leaves=11
num_cat=0
split_feature=7 12 64 25 39 63 56 65 15 97
split_gain=0.0100634 0.00713946 0.00843298 0.0104659 0.0059421 0.00479762 0.0046339 0.00432612 0.00302573 0.00119097
threshold=0.05361585698461916 0.034256458318774712 0.032787917790541354 2.3758116961409804e-06 2.8809799334605453e-06 0.033216721680534557 0.033750046272346561 0.031811171105656559 0.065734485267902168 0.031649565387900404
decision_type=2 2 2 2 2 2 2 2 2 2
left_child=4 2 3 9 -1 8 7 -4 -5 -2
right_child=1 -3 6 5 -6 -7 -8 -9 -10 -11
leaf_value=-0.41997289762717904 -0.23487340732186546 -0.24367193293282666 0.019951605836264576 0.42817629504648835 0.034974023760329639 0 0.17610550533346414 -0.33610731973107633 0 0
leaf_count=61 8 13 18 75 14 24 20 27 10 12
internal_value=0 0.123582 0.205482 0.373177 -0.466811 0.534074 -0.131041 -0.322397 0.653052 -0.2302
internal_count=282 207 194 129 75 109 65 45 85 20
shrinkage=0.575608


Tree=20
num_leaves=11
num_cat=0
split_feature=43 27 93 59 65 91 7 65 25 98
split_gain=0.00871728 0.0096436 0.00514412 0.00636778 0.00474932 0.00442527 0.00212966 0.00177538 0.00128472 0.000780531
threshold=0.032952051182824661 3.2657271484577257e-06 0.032464154893283352 0.033257990063162657 0.029954886140572751 0.032683529524788459 0.066195353672981613 0.032441264184337411 2.2915124485019753e-06 0.032863584048115006
decision_type=2 2 2 2 2 2 2 2 2 2
left_child=5 2 3 6 -3 -1 -2 -5 -6 -4
right_child=1 4 9 7 8 -7 -8 -9 -10 -11
leaf_value=0.37630974922749039 -0.30644386068460761 -0.11215828675877809 -0.38197271254018661 -0 0.015063713157482343 -0 0 0.2949960352258032 0.37397542958815549 -0.045319752187316743
leaf_count=37 38 11 52 18 11 29 16 16 33 21
internal_value=0 -0.138647 -0.322632 -0.0465593 0.274631 0.398046 -0.362262 0.312537 0.490952 -0.572415
internal_count=282 216 161 88 55 66 54 34 44 73
shrinkage=0.575608


Tree=21
num_leaves=9
num_cat=0
split_feature=0 12 16 52 6 45 23 95
split_gain=0.00770859 0.00676748 0.00386905 0.00410338 0.00330869 0.0032419 0.00263396 0.00201612
threshold=0.090768904992349367 0.031676585808362655 0.048866541139500362 0.032793988750503163 0.029492325941005103 0.036469018559140358 1.8682786803507901e-06 0.032346768355560655
decision_type=2 2 2 2 2 2 2 2
left_child=2 6 5 -4 -5 -1 -2 -6
right_child=1 -3 3 4 7 -7 -8 -9
leaf_value=-0.33529264632302475 0 -0.13759534283403205 -0.1917199870488476 0.31254228629885666 0.12466520268536113 0 0.36730043779406629 -0.16834510801546371
leaf_count=82 23 12 23 21 15 17 73 16
internal_value=0 0.306649 -0.180254 0 0.220708 -0.413806 0.506051 -0.0103001
internal_count=282 108 174 75 52 99 96 31
shrinkage=0.575608


Tree=22
num_leaves=8
num_cat=0
split_feature=19 24 20 6 95 95 84
split_gain=0.00495068 0.00666302 0.00686554 0.00421131 0.00397215 0.00134024 0.00065909
threshold=0.05220412397816631 3.3120614111777653e-07 3.2409319433061254e-06 0.029492325941005103 0.031120698900491506 0.032346768355560655 0.033055768735998706
decision_type=2 2 2 2 2 2 2
left_child=6 2 3 -2 -3 -5 -1
right_child=1 4 -4 5 -6 -7 -8
leaf_value=-0.31219285930491003 0.17549068690735742 -0.34053877256049608 0.32234211242012717 -0 0.027221341345950216 -0.29959586226029961 -0.0071055858510576516
leaf_count=24 30 14 103 19 32 27 33
internal_value=0 0.110001 0.283421 -0.0329671 -0.264002 -0.32729 -0.397625
internal_count=282 225 179 76 46 46 57
shrinkage=0.575608


Tree=23
num_leaves=7
num_cat=0
split_feature=29 5 66 27 27 82
split_gain=0.00392928 0.00417885 0.00309935 0.00233247 0.00216215 0.00128986
threshold=2.1420342575397303e-06 0.086186243799199716 0.032019664560337058 3.2657271484577257e-06 2.4914113227744856e-06 0.033482535510215655
decision_type=2 2 2 2 2 2
left_child=2 3 -1 -2 -3 -4
right_child=1 4 5 -5 -6 -7
leaf_value=0.25833012358555968 -0.30245952687458633 -0.05756337746320251 0.076109295607961605 -0 0.23531916413268741 -0.15227289369995697
leaf_count=40 89 31 26 36 33 27
internal_value=0 -0.188621 0.203364 -0.369292 0.132526 -0.0398267
internal_count=282 189 93 125 64 53
shrinkage=0.575608


Tree=24
num_leaves=7
num_cat=0
split_feature=26 29 52 16 59 12
split_gain=0.00335948 0.00294055 0.00221592 0.00207908 0.00175923 0.00172789
threshold=9.8886062737070966e-07 2.6942795067687054e-06 0.032896957492204955 0.048215132462831357 0.032269275899473711 0.020640178135121853
decision_type=2 2 2 2 2 2
left_child=2 3 -1 5 -5 -2
right_child=1 -3 -4 4 -6 -7
leaf_value=-0.010755828971665325 0.016171715783975218 -0.25700170144198303 0.26600239943971055 -0.039394002963226052 0.20280230812968011 -0.23366950061543507
leaf_count=27 34 63 57 21 52 28
internal_value=0 -0.139756 0.264521 0 0.182329 -0.202456
internal_count=282 198 84 135 73 62
shrinkage=0.575608


Tree=25
num_leaves=6
num_cat=0
split_feature=20 35 97 14 39
split_gain=0.00278036 0.00320475 0.00276776 0.0022826 0.0021263
threshold=2.6670514304459904e-06 2.2804139674424156e-06 0.033119210364256503 0.040253590813510209 2.5684291230455404e-06
decision_type=2 2 2 2 2
left_child=3 2 4 -1 -2
right_child=1 -3 -4 -5 -6
leaf_value=-0.27571630710506473 -0 -0.15362140181611253 -0.060106527580491925 0.012432696015857161 0.28864820945814851
leaf_count=80 30 28 28 22 94
internal_value=0 0.102824 0.233071 -0.276639 0.366873
internal_count=282 180 152 102 124
shrinkage=0.575608


Tree=26
num_leaves=6
num_cat=0
split_feature=26 43 50 38 78
split_gain=0.00219152 0.0029168 0.00193795 0.00137203 0.000755639
threshold=9.8886062737070966e-07 0.032952051182824661 0.033106635782548154 1.1070232650805054e-06 0.033960991867831351
decision_type=2 2 2 2 2
left_child=3 -2 -3 -1 -4
right_child=1 2 4 -5 -6
leaf_value=0.22102366455979663 0.10241630579080219 -0.29135042131561967 -0.10575547539892911 -0.00024809550734069511 0.05835071683236874
leaf_count=47 51 63 51 37 33
internal_value=0 -0.140316 -0.281786 0.210009 -0.0156436
internal_count=282 198 147 84 84
shrinkage=0.575608


Tree=27
num_leaves=6
num_cat=0
split_feature=29 7 16 52 25
split_gain=0.0015503 0.00174792 0.0016769 0.00112639 0.000546347
threshold=2.0535959778019901e-06 0.074301072249821257 0.047917998731584907 0.033139047433260509 3.4560794551608252e-06
decision_type=2 2 2 2 2
left_child=2 4 -1 -3 -2
right_child=1 3 -4 -5 -6
leaf_value=-0.02351863685912952 -0.2215131459404881 -0.063411736698710253 0.21872538838149974 0.1436873562389539 -0
leaf_count=33 88 23 42 53 43
internal_value=0 -0.124052 0.172014 0.0495282 -0.287987
internal_count=282 207 75 76 131
shrinkage=0.575608


Tree=28
num_leaves=6
num_cat=0
split_feature=0 5 31 19 24
split_gain=0.00163211 0.00193402 0.00219331 0.00131627 0.00032881
threshold=0.096608278003783757 0.062260851041155307 2.1269934422638451e-06 0.077866017365022064 2.1619262936962904e-07
decision_type=2 2 2 2 2
left_child=1 -1 -3 -4 -2
right_child=4 2 3 -5 -6
leaf_value=-0.23096256980170166 0.17131916520565135 0.18311809904049065 -0.1816423556713784 0.023678819922881938 0
leaf_count=43 58 25 89 35 32
internal_value=0 -0.119479 0 -0.146342 0.202872
internal_count=282 192 149 124 90
shrinkage=0.575608


Tree=29
num_leaves=5
num_cat=0
split_feature=3 36 84 54
split_gain=0.00176291 0.00141362 0.00179606 0.00168834
threshold=0.048239225877293353 1.8088529353389502e-06 0.033244921248771354 0.033581613003288303
decision_type=2 2 2 2
left_child=-1 2 -2 -3
right_child=1 3 -4 -5
leaf_value=-0.15922535995142373 -0.18365594175778238 0.22628859500818874 0.087798758235853203 -0.002855196348807286
leaf_count=57 49 81 47 48
internal_value=0 0.0939569 -0.0679046 0.23282
internal_count=282 225 96 129
shrinkage=0.575608


Tree=30
num_leaves=4
num_cat=0
split_feature=0 75 28
split_gain=0.00146686 0.00146592 0.00144279
threshold=0.085300238535071612 0.035641688838003054 8.3830570492293411e-07
decision_type=2 2 2
left_child=1 -1 -2
right_child=2 -3 -4
leaf_value=-0.1885311250567098 0.17870496417520654 0.018219124092879867 -0.035253513291140348
leaf_count=102 90 54 36
internal_value=0 -0.157775 0.14485
internal_count=282 156 126
shrinkage=0.575608


Tree=31
num_leaves=5
num_cat=0
split_feature=6 33 42 29
split_gain=0.00114337 0.00092279 0.000785769 0.0010751
threshold=0.028196085290865706 1.1475896055306002e-06 0.034187531074602706 2.190367681332655e-06
decision_type=2 2 2 2
left_child=1 -1 -2 -4
right_child=2 -3 3 -5
leaf_value=-0 -0.15185502869511516 0.18207267066067653 0.11406689103208378 -0.10355821004804804
leaf_count=45 77 66 39 55
internal_value=0 0.1606 -0.118419 0
internal_count=282 111 171 94
shrinkage=0.575608


Tree=32
num_leaves=5
num_cat=0
split_feature=27 70 67 51
split_gain=0.00102265 0.00137307 0.000757806 0.000415736
threshold=2.6726300444977604e-06 0.03623166216480201 0.031621137712933713 0.033607403701746703
decision_type=2 2 2 2
left_child=2 3 -1 -2
right_child=1 -3 -4 -5
leaf_value=0 0.21610475668197465 -0.051123177847410328 -0.16566848315263386 0
leaf_count=60 59 41 87 35
internal_value=0 0.107475 -0.157745 0.266767
internal_count=282 135 147 94
shrinkage=0.575608


Tree=33
num_leaves=5
num_cat=0
split_feature=3 38 23 12
split_gain=0.000688163 0.000688853 0.000637527 0.000327259
threshold=0.048239225877293353 1.0149784851629501e-06 2.4275166595108202e-06 0.023657489444790753
decision_type=2 2 2 2
left_child=-1 3 -3 -2
right_child=1 2 -4 -5
leaf_value=-0.10568338865241832 0.16535191475304883 0.04180341378197433 -0.11446031713064261 0
leaf_count=57 63 69 48 45
internal_value=0 0.0663592 -0.0214437 0.193943
internal_count=282 225 117 108
shrinkage=0.575608


Tree=34
num_leaves=4
num_cat=0
split_feature=13 27 50
split_gain=0.000712912 0.000754578 0.000535389
threshold=0.030064037374839755 2.6726300444977604e-06 0.033426425279883161
decision_type=2 2 2
left_child=2 -2 -1
right_child=1 -3 -4
leaf_value=-0.1430948522255702 -0.0066093485002827294 0.13706530001175005 0
leaf_count=45 116 73 48
internal_value=0 0.102926 -0.126567
internal_count=282 189 93
shrinkage=0.575608


Tree=35
num_leaves=3
num_cat=0
split_feature=14 82
split_gain=0.00066492 0.000703934
threshold=0.041755369459568904 0.033655537357587459
decision_type=2 2
left_child=1 -1
right_child=-2 -3
leaf_value=0.011838081637754969 0.089674405625518025 -0.11882779777778715
leaf_count=116 63 103
internal_value=0 -0.0821652
internal_count=282 219
shrinkage=0.575608


Tree=36
num_leaves=4
num_cat=0
split_feature=20 75 8
split_gain=0.000704202 0.000634031 0.000468964
threshold=3.2409319433061254e-06 0.035641688838003054 0.018491130527672355
decision_type=2 2 2
left_child=1 -1 -2
right_child=2 -3 -4
leaf_value=-0.13284270007516838 0.13810245135798405 0.002411035450081562 -0
leaf_count=99 81 48 54
internal_value=0 -0.106129 0.124312
internal_count=282 147 135
shrinkage=0.575608


Tree=37
num_leaves=4
num_cat=0
split_feature=43 6 60
split_gain=0.000535283 0.000980256 0.000819112
threshold=0.032952051182824661 0.028605642561546105 0.03259413841134761
decision_type=2 2 2
left_child=-1 -2 -3
right_child=1 2 -4
leaf_value=0.099300075999380386 0.050188212879999868 -0.19825113187761034 0
leaf_count=66 94 66 56
internal_value=0 -0.0510954 -0.198484
internal_count=282 216 122
shrinkage=0.575608


Tree=38
num_leaves=3
num_cat=0
split_feature=32 0
split_gain=0.000496061 0.000808663
threshold=1.1151900701777902e-06 0.085300238535071612
decision_type=2 2
left_child=1 -1
right_child=-2 -3
leaf_value=-0.010107230065880119 -0.076135421965220218 0.1359492144422268
leaf_count=125 54 103
internal_value=0 0.0809683
internal_count=282 228
shrinkage=0.575608


Tree=39
num_leaves=3
num_cat=0
split_feature=67 58
split_gain=0.000501361 0.0008206
threshold=0.030727416725556605 0.03318127916871836
decision_type=2 2
left_child=-1 -2
right_child=1 -3
leaf_value=0.086861609729053199 0.021207900866557914 -0.12905164667523153
leaf_count=66 116 100
internal_value=0 -0.0674696
internal_count=282 216
shrinkage=0.575608


Tree=40
num_leaves=3
num_cat=0
split_feature=62 12
split_gain=0.000517672 0.000639444
threshold=0.032671034190341758 0.021357180426736452
decision_type=2 2
left_child=1 -1
right_child=-2 -3
leaf_value=0.018498665214093352 0.072779304572095291 -0.1209846253375625
leaf_count=84 126 72
internal_value=0 -0.0807999
internal_count=282 156
shrinkage=0.575608


Tree=41
num_leaves=3
num_cat=0
split_feature=91 91
split_gain=0.000659351 0.000509156
threshold=0.031958618528391804 0.033167421326575013
decision_type=2 2
left_child=-1 -2
right_child=1 -3
leaf_value=0.092497294271049302 -0.10631011737782989 0.010317276176860818
leaf_count=84 117 81
internal_value=0 -0.0788513
internal_count=282 198
shrinkage=0.575608


Tree=42
num_leaves=3
num_cat=0
split_feature=5 7
split_gain=0.00038853 0.000332604
threshold=0.085318248082200468 0.074301072249821257
decision_type=2 2
left_child=1 -1
right_child=-2 -3
leaf_value=-0.087744229362943585 0.075764081024521826 0.0018552054427703041
leaf_count=108 99 75
internal_value=0 -0.0509062
internal_count=282 183
shrinkage=0.575608


Tree=43
num_leaves=3
num_cat=0
split_feature=41 41
split_gain=0.000519716 0.00072643
threshold=0.035379500264918456 0.036656560212253005
decision_type=2 2
left_child=-1 -2
right_child=1 -3
leaf_value=-0.067402368687804137 0.14148611115006973 -0.0014334463550650025
leaf_count=93 90 99
internal_value=0 0.0991662
internal_count=282 189
shrinkage=0.575608


Tree=44
num_leaves=3
num_cat=0
split_feature=11 0
split_gain=0.000288622 0.000848769
threshold=0.053333764947295005 0.085300238535071612
decision_type=2 2
left_child=-1 -2
right_child=1 -3
leaf_value=0.069752149277837225 -0.1211481835702307 0.040914749711167639
leaf_count=48 134 100
internal_value=0 -0.0495355
internal_count=282 234
shrinkage=0.575608


Tree=45
num_leaves=3
num_cat=0
split_feature=16 52
split_gain=0.000387616 0.000677723
threshold=0.046573237971208402 0.033139047433260509
decision_type=2 2
left_child=-1 -2
right_child=1 -3
leaf_value=-0.055232304113637574 -0.013295433469543027 0.13080010804780184
leaf_count=111 58 113
internal_value=0 0.0911792
internal_count=282 171
shrinkage=0.575608


Tree=46
num_leaves=3
num_cat=0
split_feature=24 88
split_gain=0.00030772 0.000933306
threshold=6.568595844318801e-08 0.032704829395711212
decision_type=2 2
left_child=-1 -2
right_child=1 -3
leaf_value=0.061451529761782198 0.045218299475360567 -0.13352168153260519
leaf_count=94 84 104
internal_value=0 -0.0654568
internal_count=282 188
shrinkage=0.575608


Tree=47
num_leaves=3
num_cat=0
split_feature=26 46
split_gain=0.000243653 0.000326786
threshold=9.8886062737070966e-07 0.033430801707175155
decision_type=2 2
left_child=-1 -2
right_child=1 -3
leaf_value=0.066864305336987076 -0.087755615856837554 0.0037083269179747492
leaf_count=84 96 102
internal_value=0 -0.0415122
internal_count=282 198
shrinkage=0.575608


Tree=48
num_leaves=3
num_cat=0
split_feature=4 19
split_gain=0.000229426 0.000516039
threshold=0.0071364724742309813 0.065986273722079256
decision_type=2 2
left_child=1 -1
right_child=-2 -3
leaf_value=-0.015982080162599242 -0.045571249884008409 0.10551484884271742
leaf_count=91 72 119
internal_value=0 0.0700308
internal_count=282 210
shrinkage=0.575608


Tree=49
num_leaves=3
num_cat=0
split_feature=91 81
split_gain=0.000155069 0.000446047
threshold=0.031958618528391804 0.033617776294920403
decision_type=2 2
left_child=-1 -2
right_child=1 -3
leaf_value=0.042557079019835395 -0.10577311877013046 0.010798085191837522
leaf_count=84 101 97
internal_value=0 -0.0503219
internal_count=282 198
shrinkage=0.575608


Tree=50
num_leaves=3
num_cat=0
split_feature=53 99
split_gain=0.000266745 0.000321086
threshold=0.034052546522079605 0.031612798866618254
decision_type=2 2
left_child=1 -1
right_child=-2 -3
leaf_value=0.098998565000044503 -0.057897719117284752 -0
leaf_count=76 81 125
internal_value=0 0.0662856
internal_count=282 201
shrinkage=0.575608


Tree=51
num_leaves=3
num_cat=0
split_feature=29 5
split_gain=0.000211479 0.000276848
threshold=2.1420342575397303e-06 0.082982116062711622
decision_type=2 2
left_child=-1 -2
right_child=1 -3
leaf_value=0.048485423742576472 -0.088006105403996004 0
leaf_count=93 106 83
internal_value=0 -0.0613653
internal_count=282 189
shrinkage=0.575608


Tree=52
num_leaves=3
num_cat=0
split_feature=85 54
split_gain=0.000168683 0.000420939
threshold=0.033503264908056808 0.033099520937535057
decision_type=2 2
left_child=1 -1
right_child=-2 -3
leaf_value=0.10742204156810695 -0.038387657804481563 -0.0054055107630421317
leaf_count=77 117 88
internal_value=0 0.0624379
internal_count=282 165
shrinkage=0.575608


Tree=53
num_leaves=2
num_cat=0
split_feature=27
split_gain=0.000210129
threshold=2.6726300444977604e-06
decision_type=2
left_child=-1
right_child=-2
leaf_value=-0.048804221144730167 0.034696277602134021
leaf_count=147 135
internal_value=0
internal_count=282
shrinkage=0.575608


Tree=54
num_leaves=3
num_cat=0
split_feature=26 16
split_gain=0.000186757 0.00028296
threshold=1.4315544466508352e-06 0.047917998731584907
decision_type=2 2
left_child=1 -1
right_child=-2 -3
leaf_value=-0.00057245894978354248 -0.052989461611334436 0.082402234212469047
leaf_count=80 90 112
internal_value=0 0.048757
internal_count=282 192
shrinkage=0.575608


Tree=55
num_leaves=2
num_cat=0
split_feature=29
split_gain=0.000122517
threshold=2.4640376194192553e-06
decision_type=2
left_child=-1
right_child=-2
leaf_value=0.020193560841939309 -0.041922139480168069
leaf_count=147 135
internal_value=0
internal_count=282
shrinkage=0.575608


Tree=56
num_leaves=2
num_cat=0
split_feature=62
split_gain=0.000127314
threshold=0.032671034190341758
decision_type=2
left_child=-1
right_child=-2
leaf_value=-0.033770705088248851 0.031102395271235633
leaf_count=156 126
internal_value=0
internal_count=282
shrinkage=0.575608


Tree=57
num_leaves=3
num_cat=0
split_feature=41 41
split_gain=0.00013206 0.00028336
threshold=0.035379500264918456 0.036656560212253005
decision_type=2 2
left_child=-1 -2
right_child=1 -3
leaf_value=-0.045831524341208942 0.085642438056866499 -0.00086034485792431934
leaf_count=93 90 99
internal_value=0 0.0398474
internal_count=282 189
shrinkage=0.575608


Tree=58
num_leaves=3
num_cat=0
split_feature=16 23
split_gain=9.16804e-05 0.000203283
threshold=0.046573237971208402 2.2832387118698253e-06
decision_type=2 2
left_child=-1 -2
right_child=1 -3
leaf_value=-0.039131949349267052 -0.00010530894334806723 0.071606868459965028
leaf_count=111 83 88
internal_value=0 0.0266525
internal_count=282 171
shrinkage=0.575608


Tree=59
num_leaves=3
num_cat=0
split_feature=1 9
split_gain=0.000148444 6.75223e-05
threshold=0.043981960764282159 0.060947487965444559
decision_type=2 2
left_child=1 -1
right_child=-2 -3
leaf_value=0.046257510816474778 -0.050263893017623067 -0
leaf_count=78 90 114
internal_value=0 0.0327088
internal_count=282 192
shrinkage=0.575608


Tree=60
num_leaves=3
num_cat=0
split_feature=14 69
split_gain=0.000113345 0.000200097
threshold=0.036957958020277355 0.031651135682090652
decision_type=2 2
left_child=1 -1
right_child=-2 -3
leaf_value=-0.079229968037737172 0.028242879445053954 0
leaf_count=88 99 95
internal_value=0 -0.0573584
internal_count=282 183
shrinkage=0.575608


Tree=61
num_leaves=3
num_cat=0
split_feature=0 63
split_gain=8.83147e-05 0.000180491
threshold=0.090768904992349367 0.032198559663144805
decision_type=2 2
left_child=1 -1
right_child=-2 -3
leaf_value=0 0.032311787358395509 -0.070682126931873285
leaf_count=71 108 103
internal_value=0 -0.0419029
internal_count=282 174
shrinkage=0.575608


Tree=62
num_leaves=3
num_cat=0
split_feature=5 63
split_gain=8.30768e-05 0.000250848
threshold=0.085318248082200468 0.032198559663144805
decision_type=2 2
left_child=1 -1
right_child=-2 -3
leaf_value=0.0026942779755925214 0.035864965877240799 -0.080182562323916004
leaf_count=82 99 101
internal_value=0 -0.0326155
internal_count=282 183
shrinkage=0.575608


Tree=63
num_leaves=2
num_cat=0
split_feature=27
split_gain=0.000114807
threshold=2.6726300444977604e-06
decision_type=2
left_child=-1
right_child=-2
leaf_value=-0.026958115605035055 0.035026822230470517
leaf_count=147 135
internal_value=0
internal_count=282
shrinkage=0.575608


Tree=64
num_leaves=2
num_cat=0
split_feature=62
split_gain=7.87805e-05
threshold=0.032671034190341758
decision_type=2
left_child=-1
right_child=-2
leaf_value=-0.019040012482541752 0.033381046126428164
leaf_count=156 126
internal_value=0
internal_count=282
shrinkage=0.575608


Tree=65
num_leaves=3
num_cat=0
split_feature=6 60
split_gain=7.14537e-05 0.000194934
threshold=0.028196085290865706 0.03259413841134761
decision_type=2 2
left_child=-1 -2
right_child=1 -3
leaf_value=0.033684509969234555 -0.071029706448704294 0
leaf_count=111 90 81
internal_value=0 -0.0299469
internal_count=282 171
shrinkage=0.575608


Tree=66
num_leaves=3
num_cat=0
split_feature=4 58
split_gain=6.59245e-05 0.000143723
threshold=0.0016269855659053552 0.032992604316609705
decision_type=2 2
left_child=-1 -2
right_child=1 -3
leaf_value=0.036244890107182723 0 -0.059682902298792521
leaf_count=94 90 98
internal_value=0 -0.0192106
internal_count=282 188
shrinkage=0.575608


Tree=67
num_leaves=2
num_cat=0
split_feature=1
split_gain=7.57563e-05
threshold=0.043981960764282159
decision_type=2
left_child=-1
right_child=-2
leaf_value=0.030405041088072092 -0.018115224610167048
leaf_count=192 90
internal_value=0
internal_count=282
shrinkage=0.575608


Tree=68
num_leaves=2
num_cat=0
split_feature=31
split_gain=5.97582e-05
threshold=2.7338230798874355e-06
decision_type=2
left_child=-1
right_child=-2
leaf_value=0.024135637082136476 -0.021540999075593082
leaf_count=156 126
internal_value=0
internal_count=282
shrinkage=0.575608


Tree=69
num_leaves=2
num_cat=0
split_feature=52
split_gain=5.87784e-05
threshold=0.033311765620537857
decision_type=2
left_child=-1
right_child=-2
leaf_value=-0.022379104930256709 0.02340369256002919
leaf_count=111 171
internal_value=0
internal_count=282
shrinkage=0.575608


Tree=70
num_leaves=2
num_cat=0
split_feature=20
split_gain=4.74746e-05
threshold=3.2409319433061254e-06
decision_type=2
left_child=-1
right_child=-2
leaf_value=-0.019500141547975271 0.021715282162380875
leaf_count=147 135
internal_value=0
internal_count=282
shrinkage=0.575608


Tree=71
num_leaves=2
num_cat=0
split_feature=27
split_gain=4.59277e-05
threshold=2.6726300444977604e-06
decision_type=2
left_child=-1
right_child=-2
leaf_value=-0.022009166302614465 0.018862767643062519
leaf_count=147 135
internal_value=0
internal_count=282
shrinkage=0.575608


Tree=72
num_leaves=2
num_cat=0
split_feature=53
split_gain=4.37333e-05
threshold=0.033784269369460808
decision_type=2
left_child=-1
right_child=-2
leaf_value=0.016148448646361235 -0.024401611759753191
leaf_count=183 99
internal_value=0
internal_count=282
shrinkage=0.575608


Tree=73
num_leaves=2
num_cat=0
split_feature=46
split_gain=3.92532e-05
threshold=0.033430801707175155
decision_type=2
left_child=-1
right_child=-2
leaf_value=-0.020478097511382441 0.017178126206680661
leaf_count=138 144
internal_value=0
internal_count=282
shrinkage=0.575608


Tree=74
num_leaves=2
num_cat=0
split_feature=5
split_gain=5.23459e-05
threshold=0.085318248082200468
decision_type=2
left_child=-1
right_child=-2
leaf_value=-0.018127356144898615 0.026385308239806993
leaf_count=183 99
internal_value=0
internal_count=282
shrinkage=0.575608


Tree=75
num_leaves=2
num_cat=0
split_feature=42
split_gain=3.65453e-05
threshold=0.034187531074602706
decision_type=2
left_child=-1
right_child=-2
leaf_value=-0.019890647073108496 0.016721488734689836
leaf_count=138 144
internal_value=0
internal_count=282
shrinkage=0.575608


Tree=76
num_leaves=2
num_cat=0
split_feature=62
split_gain=3.91118e-05
threshold=0.032671034190341758
decision_type=2
left_child=-1
right_child=-2
leaf_value=-0.016708567390156151 0.021260252609598625
leaf_count=156 126
internal_value=0
internal_count=282
shrinkage=0.575608


Tree=77
num_leaves=2
num_cat=0
split_feature=67
split_gain=4.46695e-05
threshold=0.031209497166571055
decision_type=2
left_child=-1
right_child=-2
leaf_value=0.025471415132082273 -0.015792850264602955
leaf_count=93 189
internal_value=0
internal_count=282
shrinkage=0.575608


Tree=78
num_leaves=2
num_cat=0
split_feature=65
split_gain=4.28374e-05
threshold=0.032441264184337411
decision_type=2
left_child=-1
right_child=-2
leaf_value=-0.015758948823780067 0.024188302411400284
leaf_count=156 126
internal_value=0
internal_count=282
shrinkage=0.575608


Tree=79
num_leaves=2
num_cat=0
split_feature=7
split_gain=4.01935e-05
threshold=0.074301072249821257
decision_type=2
left_child=-1
right_child=-2
leaf_value=-0.016369486987641336 0.021978805688130466
leaf_count=174 108
internal_value=0
internal_count=282
shrinkage=0.575608


Tree=80
num_leaves=2
num_cat=0
split_feature=70
split_gain=4.20901e-05
threshold=0.036059379364252658
decision_type=2
left_child=-1
right_child=-2
leaf_value=0.018170218906494347 -0.021348846292863422
leaf_count=174 108
internal_value=0
internal_count=282
shrinkage=0.575608


Tree=81
num_leaves=2
num_cat=0
split_feature=88
split_gain=2.85807e-05
threshold=0.032704829395711212
decision_type=2
left_child=-1
right_child=-2
leaf_value=0.016918212069255784 -0.015451994947202839
leaf_count=129 153
internal_value=0
internal_count=282
shrinkage=0.575608


Tree=82
num_leaves=2
num_cat=0
split_feature=14
split_gain=2.93694e-05
threshold=0.036957958020277355
decision_type=2
left_child=-1
right_child=-2
leaf_value=-0.013387081844896592 0.020013263814969949
leaf_count=183 99
internal_value=0
internal_count=282
shrinkage=0.575608


Tree=83
num_leaves=2
num_cat=0
split_feature=97
split_gain=2.73698e-05
threshold=0.031852320151985004
decision_type=2
left_child=-1
right_child=-2
leaf_value=0.016539889349581484 -0.015132106132093849
leaf_count=129 153
internal_value=0
internal_count=282
shrinkage=0.575608


Tree=84
num_leaves=2
num_cat=0
split_feature=5
split_gain=3.04156e-05
threshold=0.085318248082200468
decision_type=2
left_child=-1
right_child=-2
leaf_value=-0.013059320728578124 0.021146219079875926
leaf_count=183 99
internal_value=0
internal_count=282
shrinkage=0.575608


Tree=85
num_leaves=2
num_cat=0
split_feature=31
split_gain=2.96381e-05
threshold=2.7338230798874355e-06
decision_type=2
left_child=-1
right_child=-2
leaf_value=0.01472933926679001 -0.018781881840578996
leaf_count=156 126
internal_value=0
internal_count=282
shrinkage=0.575608


Tree=86
num_leaves=2
num_cat=0
split_feature=20
split_gain=3.1794e-05
threshold=3.2409319433061254e-06
decision_type=2
left_child=-1
right_child=-2
leaf_value=-0.017299998510996888 0.016945029294946873
leaf_count=147 135
internal_value=0
internal_count=282
shrinkage=0.575608


Tree=87
num_leaves=2
num_cat=0
split_feature=6
split_gain=3.27192e-05
threshold=0.028196085290865706
decision_type=2
left_child=-1
right_child=-2
leaf_value=0.021484605986396871 -0.014071113336846117
leaf_count=111 171
internal_value=0
internal_count=282
shrinkage=0.575608


Tree=88
num_leaves=2
num_cat=0
split_feature=50
split_gain=3.14227e-05
threshold=0.033106635782548154
decision_type=2
left_child=-1
right_child=-2
leaf_value=-0.018151099446120617 0.016088153138678934
leaf_count=120 162
internal_value=0
internal_count=282
shrinkage=0.575608


Tree=89
num_leaves=2
num_cat=0
split_feature=13
split_gain=2.77834e-05
threshold=0.030064037374839755
decision_type=2
left_child=-1
right_child=-2
leaf_value=-0.017462956708949165 0.01475154967571368
leaf_count=93 189
internal_value=0
internal_count=282
shrinkage=0.575608


Tree=90
num_leaves=2
num_cat=0
split_feature=91
split_gain=2.57595e-05
threshold=0.031958618528391804
decision_type=2
left_child=-1
right_child=-2
leaf_value=0.018665880864527785 -0.012866403822276495
leaf_count=84 198
internal_value=0
internal_count=282
shrinkage=0.575608


Tree=91
num_leaves=2
num_cat=0
split_feature=0
split_gain=2.61418e-05
threshold=0.075504310630621005
decision_type=2
left_child=-1
right_child=-2
leaf_value=-0.018420690464327389 0.013306821200099276
leaf_count=120 162
internal_value=0
internal_count=282
shrinkage=0.575608


Tree=92
num_leaves=2
num_cat=0
split_feature=58
split_gain=2.23221e-05
threshold=0.032547374528287307
decision_type=2
left_child=-1
right_child=-2
leaf_value=0.017097042575193479 -0.012224994747835482
leaf_count=102 180
internal_value=0
internal_count=282
shrinkage=0.575608


Tree=93
num_leaves=2
num_cat=0
split_feature=65
split_gain=2.48007e-05
threshold=0.032235181614332552
decision_type=2
left_child=-1
right_child=-2
leaf_value=-0.013385763091862304 0.017159081261511906
leaf_count=138 144
internal_value=0
internal_count=282
shrinkage=0.575608


Tree=94
num_leaves=2
num_cat=0
split_feature=1
split_gain=2.41459e-05
threshold=0.043981960764282159
decision_type=2
left_child=-1
right_child=-2
leaf_value=0.013321319187254469 -0.01704027085708238
leaf_count=192 90
internal_value=0
internal_count=282
shrinkage=0.575608


Tree=95
num_leaves=2
num_cat=0
split_feature=4
split_gain=2.23105e-05
threshold=0.0045046022872863413
decision_type=2
left_child=-1
right_child=-2
leaf_value=0.013729489184286042 -0.015157796421816876
leaf_count=156 126
internal_value=0
internal_count=282
shrinkage=0.575608


Tree=96
num_leaves=2
num_cat=0
split_feature=35
split_gain=2.00502e-05
threshold=1.6996904492484201e-06
decision_type=2
left_child=-1
right_child=-2
leaf_value=0.015033610754320486 -0.012500268100779368
leaf_count=120 162
internal_value=0
internal_count=282
shrinkage=0.575608


Tree=97
num_leaves=2
num_cat=0
split_feature=70
split_gain=2.05649e-05
threshold=0.036059379364252658
decision_type=2
left_child=-1
right_child=-2
leaf_value=0.012291569701470951 -0.015702045313101796
leaf_count=174 108
internal_value=0
internal_count=282
shrinkage=0.575608


Tree=98
num_leaves=2
num_cat=0
split_feature=27
split_gain=2.23941e-05
threshold=2.8119598063045702e-06
decision_type=2
left_child=-1
right_child=-2
leaf_value=-0.014564434475660207 0.014404611885206444
leaf_count=165 117
internal_value=0
internal_count=282
shrinkage=0.575608


Tree=99
num_leaves=2
num_cat=0
split_feature=42
split_gain=2.04647e-05
threshold=0.034187531074602706
decision_type=2
left_child=-1
right_child=-2
leaf_value=-0.015568453727377144 0.012306442692380877
leaf_count=138 144
internal_value=0
internal_count=282
shrinkage=0.575608


Tree=100
num_leaves=2
num_cat=0
split_feature=46
split_gain=1.67225e-05
threshold=0.033430801707175155
decision_type=2
left_child=-1
right_child=-2
leaf_value=-0.013442119904667805 0.011636554030593054
leaf_count=138 144
internal_value=0
internal_count=282
shrinkage=0.575608


Tree=101
num_leaves=2
num_cat=0
split_feature=85
split_gain=2.28331e-05
threshold=0.033503264908056808
decision_type=2
left_child=-1
right_child=-2
leaf_value=0.012673252389670164 -0.016834005146633423
leaf_count=165 117
internal_value=0
internal_count=282
shrinkage=0.575608


Tree=102
num_leaves=2
num_cat=0
split_feature=16
split_gain=1.53123e-05
threshold=0.046573237971208402
decision_type=2
left_child=-1
right_child=-2
leaf_value=-0.014585991802989315 0.0097051449164658517
leaf_count=111 171
internal_value=0
internal_count=282
shrinkage=0.575608


Tree=103
num_leaves=2
num_cat=0
split_feature=53
split_gain=1.82282e-05
threshold=0.033784269369460808
decision_type=2
left_child=-1
right_child=-2
leaf_value=0.01005029870355988 -0.016640320423661689
leaf_count=183 99
internal_value=0
internal_count=282
shrinkage=0.575608


Tree=104
num_leaves=2
num_cat=0
split_feature=1
split_gain=1.4887e-05
threshold=0.043981960764282159
decision_type=2
left_child=-1
right_child=-2
leaf_value=0.0091765343137351022 -0.014747642221258824
leaf_count=192 90
internal_value=0
internal_count=282
shrinkage=0.575608


Tree=105
num_leaves=2
num_cat=0
split_feature=14
split_gain=1.7951e-05
threshold=0.032385703846855553
decision_type=2
left_child=-1
right_child=-2
leaf_value=-0.015189601463733066 0.010900925378858025
leaf_count=129 153
internal_value=0
internal_count=282
shrinkage=0.575608


Tree=106
num_leaves=2
num_cat=0
split_feature=62
split_gain=1.37782e-05
threshold=0.032671034190341758
decision_type=2
left_child=-1
right_child=-2
leaf_value=-0.010826649972399644 0.012127624810739243
leaf_count=156 126
internal_value=0
internal_count=282
shrinkage=0.575608


Tree=107
num_leaves=2
num_cat=0
split_feature=97
split_gain=1.6078e-05
threshold=0.031852320151985004
decision_type=2
left_child=-1
right_child=-2
leaf_value=0.012150690456259763 -0.012515216793806317
leaf_count=129 153
internal_value=0
internal_count=282
shrinkage=0.575608


Tree=108
num_leaves=2
num_cat=0
split_feature=20
split_gain=1.40908e-05
threshold=3.2409319433061254e-06
decision_type=2
left_child=-1
right_child=-2
leaf_value=-0.011850301200005029 0.01125747082528772
leaf_count=147 135
internal_value=0
internal_count=282
shrinkage=0.575608


Tree=109
num_leaves=2
num_cat=0
split_feature=85
split_gain=1.38493e-05
threshold=0.033503264908056808
decision_type=2
left_child=-1
right_child=-2
leaf_value=0.010073779830805221 -0.013003343256406992
leaf_count=165 117
internal_value=0
internal_count=282
shrinkage=0.575608


Tree=110
num_leaves=2
num_cat=0
split_feature=75
split_gain=1.44771e-05
threshold=0.035641688838003054
decision_type=2
left_child=-1
right_child=-2
leaf_value=-0.011286076721016641 0.012200634581163062
leaf_count=183 99
internal_value=0
internal_count=282
shrinkage=0.575608


Tree=111
num_leaves=2
num_cat=0
split_feature=52
split_gain=1.52332e-05
threshold=0.033311765620537857
decision_type=2
left_child=-1
right_child=-2
leaf_value=-0.013099902099063827 0.011038977892653623
leaf_count=111 171
internal_value=0
internal_count=282
shrinkage=0.575608


Tree=112
num_leaves=2
num_cat=0
split_feature=77
split_gain=1.21951e-05
threshold=0.034142865784082703
decision_type=2
left_child=-1
right_child=-2
leaf_value=0.0090464971793630389 -0.012730063983451485
leaf_count=165 117
internal_value=0
internal_count=282
shrinkage=0.575608


Tree=113
num_leaves=2
num_cat=0
split_feature=7
split_gain=1.71404e-05
threshold=0.074301072249821257
decision_type=2
left_child=-1
right_child=-2
leaf_value=-0.012281021225986791 0.013321729236694167
leaf_count=174 108
internal_value=0
internal_count=282
shrinkage=0.575608


Tree=114
num_leaves=2
num_cat=0
split_feature=82
split_gain=1.2375e-05
threshold=0.034201783558270353
decision_type=2
left_child=-1
right_child=-2
leaf_value=0.0091392340220584779 -0.012865114036123726
leaf_count=192 90
internal_value=0
internal_count=282
shrinkage=0.575608


Tree=115
num_leaves=2
num_cat=0
split_feature=58
split_gain=1.18153e-05
threshold=0.032547374528287307
decision_type=2
left_child=-1
right_child=-2
leaf_value=0.012404102241563068 -0.0091866141718816401
leaf_count=102 180
internal_value=0
internal_count=282
shrinkage=0.575608


Tree=116
num_leaves=2
num_cat=0
split_feature=65
split_gain=1.40761e-05
threshold=0.032235181614332552
decision_type=2
left_child=-1
right_child=-2
leaf_value=-0.010321484920388521 0.012980932233807235
leaf_count=138 144
internal_value=0
internal_count=282
shrinkage=0.575608


Tree=117
num_leaves=2
num_cat=0
split_feature=46
split_gain=1.2292e-05
threshold=0.033430801707175155
decision_type=2
left_child=-1
right_child=-2
leaf_value=-0.010994654497338691 0.010690415773240206
leaf_count=138 144
internal_value=0
internal_count=282
shrinkage=0.575608


Tree=118
num_leaves=2
num_cat=0
split_feature=36
split_gain=1.12895e-05
threshold=1.8088529353389502e-06
decision_type=2
left_child=-1
right_child=-2
leaf_value=-0.012155276825530111 0.00890958909744494
leaf_count=111 171
internal_value=0
internal_count=282
shrinkage=0.575608


Tree=119
num_leaves=2
num_cat=0
split_feature=50
split_gain=1.07572e-05
threshold=0.033106635782548154
decision_type=2
left_child=-1
right_child=-2
leaf_value=-0.01137494357716773 0.0089950554218138235
leaf_count=120 162
internal_value=0
internal_count=282
shrinkage=0.575608


Tree=120
num_leaves=2
num_cat=0
split_feature=13
split_gain=9.51554e-06
threshold=0.030064037374839755
decision_type=2
left_child=-1
right_child=-2
leaf_value=-0.010807458373066408 0.0083559050113327822
leaf_count=93 189
internal_value=0
internal_count=282
shrinkage=0.575608


Tree=121
num_leaves=2
num_cat=0
split_feature=6
split_gain=9.739e-06
threshold=0.028605642561546105
decision_type=2
left_child=-1
right_child=-2
leaf_value=0.010985518211447493 -0.0085820349859867286
leaf_count=120 162
internal_value=0
internal_count=282
shrinkage=0.575608


Tree=122
num_leaves=2
num_cat=0
split_feature=20
split_gain=1.13252e-05
threshold=3.2409319433061254e-06
decision_type=2
left_child=-1
right_child=-2
leaf_value=-0.010520977221255256 0.010328284334138998
leaf_count=147 135
internal_value=0
internal_count=282
shrinkage=0.575608


Tree=123
num_leaves=2
num_cat=0
split_feature=31
split_gain=1.0075e-05
threshold=2.7338230798874355e-06
decision_type=2
left_child=-1
right_child=-2
leaf_value=0.008272160357334914 -0.011699043611443648
leaf_count=156 126
internal_value=0
internal_count=282
shrinkage=0.575608


Tree=124
num_leaves=2
num_cat=0
split_feature=75
split_gain=9.15265e-06
threshold=0.035641688838003054
decision_type=2
left_child=-1
right_child=-2
leaf_value=-0.0091153596117361513 0.0096687080318986381
leaf_count=183 99
internal_value=0
internal_count=282
shrinkage=0.575608


Tree=125
num_leaves=2
num_cat=0
split_feature=70
split_gain=1.06316e-05
threshold=0.036059379364252658
decision_type=2
left_child=-1
right_child=-2
leaf_value=0.0088152816547385823 -0.011571582568948177
leaf_count=174 108
internal_value=0
internal_count=282
shrinkage=0.575608


Tree=126
num_leaves=2
num_cat=0
split_feature=97
split_gain=9.83324e-06
threshold=0.031258306631920411
decision_type=2
left_child=-1
right_child=-2
leaf_value=0.01124000990723735 -0.0084941830590860735
leaf_count=93 189
internal_value=0
internal_count=282
shrinkage=0.575608


Tree=127
num_leaves=2
num_cat=0
split_feature=52
split_gain=9.30908e-06
threshold=0.033311765620537857
decision_type=2
left_child=-1
right_child=-2
leaf_value=-0.010117102792304737 0.008879885381334331
leaf_count=111 171
internal_value=0
internal_count=282
shrinkage=0.575608


Tree=128
num_leaves=2
num_cat=0
split_feature=7
split_gain=9.77031e-06
threshold=0.074301072249821257
decision_type=2
left_child=-1
right_child=-2
leaf_value=-0.0090672331531607923 0.010396262526958865
leaf_count=174 108
internal_value=0
internal_count=282
shrinkage=0.575608


Tree=129
num_leaves=2
num_cat=0
split_feature=4
split_gain=9.23395e-06
threshold=0.0045046022872863413
decision_type=2
left_child=-1
right_child=-2
leaf_value=0.0091498510612774663 -0.0097426714858069741
leaf_count=156 126
internal_value=0
internal_count=282
shrinkage=0.575608


Tree=130
num_leaves=2
num_cat=0
split_feature=98
split_gain=9.12958e-06
threshold=0.030926116088660954
decision_type=2
left_child=-1
right_child=-2
leaf_value=-0.010846925592931522 0.0081225999713878446
leaf_count=84 198
internal_value=0
internal_count=282
shrinkage=0.575608


Tree=131
num_leaves=2
num_cat=0
split_feature=62
split_gain=9.14996e-06
threshold=0.032671034190341758
decision_type=2
left_child=-1
right_child=-2
leaf_value=-0.0085543385613523915 0.010392954900563122
leaf_count=156 126
internal_value=0
internal_count=282
shrinkage=0.575608


Tree=132
num_leaves=2
num_cat=0
split_feature=1
split_gain=8.31871e-06
threshold=0.043981960764282159
decision_type=2
left_child=-1
right_child=-2
leaf_value=0.0077397171646648739 -0.010414805877500634
leaf_count=192 90
internal_value=0
internal_count=282
shrinkage=0.575608


Tree=133
num_leaves=2
num_cat=0
split_feature=35
split_gain=7.38456e-06
threshold=1.6996904492484201e-06
decision_type=2
left_child=-1
right_child=-2
leaf_value=0.009170373804872135 -0.0078262290016051783
leaf_count=120 162
internal_value=0
internal_count=282
shrinkage=0.575608


Tree=134
num_leaves=2
num_cat=0
split_feature=7
split_gain=7.67762e-06
threshold=0.074301072249821257
decision_type=2
left_child=-1
right_child=-2
leaf_value=-0.007972601537514775 0.0093192811797986018
leaf_count=174 108
internal_value=0
internal_count=282
shrinkage=0.575608


Tree=135
num_leaves=2
num_cat=0
split_feature=42
split_gain=7.32831e-06
threshold=0.034187531074602706
decision_type=2
left_child=-1
right_child=-2
leaf_value=-0.0092755412253099079 0.0076803274591012568
leaf_count=138 144
internal_value=0
internal_count=282
shrinkage=0.575608


Tree=136
num_leaves=2
num_cat=0
split_feature=32
split_gain=7.9257e-06
threshold=9.2796043230285058e-07
decision_type=2
left_child=-1
right_child=-2
leaf_value=0.0084414882517128108 -0.0090963544427067628
leaf_count=174 108
internal_value=0
internal_count=282
shrinkage=0.575608


Tree=137
num_leaves=2
num_cat=0
split_feature=28
split_gain=7.95954e-06
threshold=7.0034421198904709e-07
decision_type=2
left_child=-1
right_child=-2
leaf_value=0.010297892260943763 -0.0075275789619595069
leaf_count=134 148
internal_value=0
internal_count=282
shrinkage=0.575608


Tree=138
num_leaves=2
num_cat=0
split_feature=58
split_gain=6.50383e-06
threshold=0.03318127916871836
decision_type=2
left_child=-1
right_child=-2
leaf_value=0.0077897222990179092 -0.0081164467724687047
leaf_count=147 135
internal_value=0
internal_count=282
shrinkage=0.575608


Tree=139
num_leaves=2
num_cat=0
split_feature=85
split_gain=7.84326e-06
threshold=0.033503264908056808
decision_type=2
left_child=-1
right_child=-2
leaf_value=0.0078438499814035695 -0.009730599901360347
leaf_count=165 117
internal_value=0
internal_count=282
shrinkage=0.575608


Tree=140
num_leaves=2
num_cat=0
split_feature=16
split_gain=6.80564e-06
threshold=0.046573237971208402
decision_type=2
left_child=-1
right_child=-2
leaf_value=-0.0097035997658745793 0.0067715424254726096
leaf_count=111 171
internal_value=0
internal_count=282
shrinkage=0.575608


Tree=141
num_leaves=2
num_cat=0
split_feature=14
split_gain=6.95812e-06
threshold=0.032385703846855553
decision_type=2
left_child=-1
right_child=-2
leaf_value=-0.0093607231890326086 0.0071483275785411598
leaf_count=129 153
internal_value=0
internal_count=282
shrinkage=0.575608


Tree=142
num_leaves=2
num_cat=0
split_feature=50
split_gain=5.50397e-06
threshold=0.033106635782548154
decision_type=2
left_child=-1
right_child=-2
leaf_value=-0.008380138499569572 0.0063032037373303464
leaf_count=120 162
internal_value=0
internal_count=282
shrinkage=0.575608


Tree=143
num_leaves=2
num_cat=0
split_feature=97
split_gain=6.42848e-06
threshold=0.031852320151985004
decision_type=2
left_child=-1
right_child=-2
leaf_value=0.0075639341580067973 -0.0082463352710122062
leaf_count=129 153
internal_value=0
internal_count=282
shrinkage=0.575608


Tree=144
num_leaves=2
num_cat=0
split_feature=65
split_gain=5.78991e-06
threshold=0.032235181614332552
decision_type=2
left_child=-1
right_child=-2
leaf_value=-0.006989805466128575 0.0081089805927251381
leaf_count=138 144
internal_value=0
internal_count=282
shrinkage=0.575608


Tree=145
num_leaves=2
num_cat=0
split_feature=5
split_gain=6.90328e-06
threshold=0.082982116062711622
decision_type=2
left_child=-1
right_child=-2
leaf_value=-0.0072607467329915635 0.0092681012155375712
leaf_count=165 117
internal_value=0
internal_count=282
shrinkage=0.575608


Tree=146
num_leaves=2
num_cat=0
split_feature=75
split_gain=6.07286e-06
threshold=0.035641688838003054
decision_type=2
left_child=-1
right_child=-2
leaf_value=-0.007019177815078474 0.0084032881163607336
leaf_count=183 99
internal_value=0
internal_count=282
shrinkage=0.575608


Tree=147
num_leaves=2
num_cat=0
split_feature=20
split_gain=5.90695e-06
threshold=3.2409319433061254e-06
decision_type=2
left_child=-1
right_child=-2
leaf_value=-0.0075031995005271461 0.0076823881525198007
leaf_count=147 135
internal_value=0
internal_count=282
shrinkage=0.575608


Tree=148
num_leaves=2
num_cat=0
split_feature=70
split_gain=5.13249e-06
threshold=0.036059379364252658
decision_type=2
left_child=-1
right_child=-2
leaf_value=0.0063520018112026679 -0.0079228035767164272
leaf_count=174 108
internal_value=0
internal_count=282
shrinkage=0.575608


Tree=149
num_leaves=2
num_cat=0
split_feature=46
split_gain=4.5418e-06
threshold=0.033430801707175155
decision_type=2
left_child=-1
right_child=-2
leaf_value=-0.007053607150863052 0.0062833702778556204
leaf_count=138 144
internal_value=0
internal_count=282
shrinkage=0.575608


Tree=150
num_leaves=2
num_cat=0
split_feature=6
split_gain=6.70427e-06
threshold=0.028605642561546105
decision_type=2
left_child=-1
right_child=-2
leaf_value=0.0094013779162803734 -0.0070061824308477816
leaf_count=120 162
internal_value=0
internal_count=282
shrinkage=0.575608


Tree=151
num_leaves=2
num_cat=0
split_feature=85
split_gain=4.45188e-06
threshold=0.033503264908056808
decision_type=2
left_child=-1
right_child=-2
leaf_value=0.006080138802890522 -0.0072006490621182558
leaf_count=165 117
internal_value=0
internal_count=282
shrinkage=0.575608


Tree=152
num_leaves=2
num_cat=0
split_feature=32
split_gain=4.33244e-06
threshold=9.2796043230285058e-07
decision_type=2
left_child=-1
right_child=-2
leaf_value=0.0063253428923204218 -0.0067055621958195298
leaf_count=174 108
internal_value=0
internal_count=282
shrinkage=0.575608


Tree=153
num_leaves=2
num_cat=0
split_feature=58
split_gain=4.04791e-06
threshold=0.03318127916871836
decision_type=2
left_child=-1
right_child=-2
leaf_value=0.0059391908467956913 -0.006671510053799224
leaf_count=147 135
internal_value=0
internal_count=282
shrinkage=0.575608


Tree=154
num_leaves=2
num_cat=0
split_feature=16
split_gain=4.50166e-06
threshold=0.046573237971208402
decision_type=2
left_child=-1
right_child=-2
leaf_value=-0.0078964016882771184 0.0055606110575305706
leaf_count=111 171
internal_value=0
internal_count=282
shrinkage=0.575608


Tree=155
num_leaves=2
num_cat=0
split_feature=62
split_gain=5.42992e-06
threshold=0.032671034190341758
decision_type=2
left_child=-1
right_child=-2
leaf_value=-0.0066995152282687872 0.0080016019669681242
leaf_count=156 126
internal_value=0
internal_count=282
shrinkage=0.575608


Tree=156
num_leaves=2
num_cat=0
split_feature=7
split_gain=4.30689e-06
threshold=0.074301072249821257
decision_type=2
left_child=-1
right_child=-2
leaf_value=-0.0060237262869811386 0.0070141815406064264
leaf_count=174 108
internal_value=0
internal_count=282
shrinkage=0.575608


Tree=157
num_leaves=2
num_cat=0
split_feature=35
split_gain=5.00991e-06
threshold=1.6996904492484201e-06
decision_type=2
left_child=-1
right_child=-2
leaf_value=0.0078900482433866756 -0.0062122918372596011
leaf_count=120 162
internal_value=0
internal_count=282
shrinkage=0.575608


Tree=158
num_leaves=2
num_cat=0
split_feature=1
split_gain=5.21919e-06
threshold=0.043981960764282159
decision_type=2
left_child=-1
right_child=-2
leaf_value=0.0063375691182899025 -0.0081501372991643981
leaf_count=192 90
internal_value=0
internal_count=282
shrinkage=0.575608


Tree=159
num_leaves=2
num_cat=0
split_feature=4
split_gain=5.29573e-06
threshold=0.0045046022872863413
decision_type=2
left_child=-1
right_child=-2
leaf_value=0.0068288281101185535 -0.0076122852790994639
leaf_count=156 126
internal_value=0
internal_count=282
shrinkage=0.575608


Tree=160
num_leaves=2
num_cat=0
split_feature=14
split_gain=3.94918e-06
threshold=0.032385703846855553
decision_type=2
left_child=-1
right_child=-2
leaf_value=-0.0069382404506701054 0.0055752190820232929
leaf_count=129 153
internal_value=0
internal_count=282
shrinkage=0.575608


Tree=161
num_leaves=2
num_cat=0
split_feature=5
split_gain=3.61572e-06
threshold=0.082982116062711622
decision_type=2
left_child=-1
right_child=-2
leaf_value=-0.0054699133373488319 0.0065402110399535446
leaf_count=165 117
internal_value=0
internal_count=282
shrinkage=0.575608


Tree=162
num_leaves=2
num_cat=0
split_feature=82
split_gain=4.11642e-06
threshold=0.034201783558270353
decision_type=2
left_child=-1
right_child=-2
leaf_value=0.005445022675790878 -0.007452444024895425
leaf_count=192 90
internal_value=0
internal_count=282
shrinkage=0.575608


Tree=163
num_leaves=2
num_cat=0
split_feature=77
split_gain=3.59991e-06
threshold=0.034142865784082703
decision_type=2
left_child=-1
right_child=-2
leaf_value=0.0049348671574567628 -0.0071026848921731615
leaf_count=165 117
internal_value=0
internal_count=282
shrinkage=0.575608


Tree=164
num_leaves=2
num_cat=0
split_feature=97
split_gain=4.08975e-06
threshold=0.031852320151985004
decision_type=2
left_child=-1
right_child=-2
leaf_value=0.0060596055260696445 -0.0066231174642054974
leaf_count=129 153
internal_value=0
internal_count=282
shrinkage=0.575608


Tree=165
num_leaves=2
num_cat=0
split_feature=20
split_gain=4.16244e-06
threshold=3.2409319433061254e-06
decision_type=2
left_child=-1
right_child=-2
leaf_value=-0.0066915180673628302 0.0061169584438954486
leaf_count=147 135
internal_value=0
internal_count=282
shrinkage=0.575608


Tree=166
num_leaves=2
num_cat=0
split_feature=65
split_gain=3.15566e-06
threshold=0.032235181614332552
decision_type=2
left_child=-1
right_child=-2
leaf_value=-0.0051694306320238708 0.006043705901495406
leaf_count=138 144
internal_value=0
internal_count=282
shrinkage=0.575608


Tree=167
num_leaves=2
num_cat=0
split_feature=46
split_gain=3.4779e-06
threshold=0.033430801707175155
decision_type=2
left_child=-1
right_child=-2
leaf_value=-0.0060752779300330337 0.0056510213942228505
leaf_count=138 144
internal_value=0
internal_count=282
shrinkage=0.575608


Tree=168
num_leaves=2
num_cat=0
split_feature=52
split_gain=3.00473e-06
threshold=0.033311765620537857
decision_type=2
left_child=-1
right_child=-2
leaf_value=-0.0059218368575567858 0.0050045545528360083
leaf_count=111 171
internal_value=0
internal_count=282
shrinkage=0.575608


Tree=169
num_leaves=2
num_cat=0
split_feature=7
split_gain=3.31554e-06
threshold=0.074301072249821257
decision_type=2
left_child=-1
right_child=-2
leaf_value=-0.0054210596256830043 0.0060524088978352241
leaf_count=174 108
internal_value=0
internal_count=282
shrinkage=0.575608


Tree=170
num_leaves=2
num_cat=0
split_feature=62
split_gain=2.94221e-06
threshold=0.032671034190341758
decision_type=2
left_child=-1
right_child=-2
leaf_value=-0.0047370959747724027 0.006131326259626097
leaf_count=156 126
internal_value=0
internal_count=282
shrinkage=0.575608


Tree=171
num_leaves=2
num_cat=0
split_feature=75
split_gain=3.26522e-06
threshold=0.035641688838003054
decision_type=2
left_child=-1
right_child=-2
leaf_value=-0.0051943572024218832 0.0061856674275006856
leaf_count=183 99
internal_value=0
internal_count=282
shrinkage=0.575608


Tree=172
num_leaves=2
num_cat=0
split_feature=13
split_gain=3.04818e-06
threshold=0.030064037374839755
decision_type=2
left_child=-1
right_child=-2
leaf_value=-0.0058596077565766071 0.0051633803883297828
leaf_count=93 189
internal_value=0
internal_count=282
shrinkage=0.575608


Tree=173
num_leaves=2
num_cat=0
split_feature=85
split_gain=2.83368e-06
threshold=0.033503264908056808
decision_type=2
left_child=-1
right_child=-2
leaf_value=0.0047329624025808396 -0.0059229351059008391
leaf_count=165 117
internal_value=0
internal_count=282
shrinkage=0.575608


Tree=174
num_leaves=2
num_cat=0
split_feature=14
split_gain=2.11632e-06
threshold=0.032385703846855553
decision_type=2
left_child=-1
right_child=-2
leaf_value=-0.0051254885791943263 0.0040619407073632374
leaf_count=129 153
internal_value=0
internal_count=282
shrinkage=0.575608


Tree=175
num_leaves=2
num_cat=0
split_feature=88
split_gain=2.57658e-06
threshold=0.032704829395711212
decision_type=2
left_child=-1
right_child=-2
leaf_value=0.0050190527348173437 -0.0050806755626791392
leaf_count=129 153
internal_value=0
internal_count=282
shrinkage=0.575608


Tree=176
num_leaves=2
num_cat=0
split_feature=50
split_gain=3.00495e-06
threshold=0.033106635782548154
decision_type=2
left_child=-1
right_child=-2
leaf_value=-0.0060336342082407436 0.0049193607885682101
leaf_count=120 162
internal_value=0
internal_count=282
shrinkage=0.575608


Tree=177
num_leaves=2
num_cat=0
split_feature=20
split_gain=2.51026e-06
threshold=3.2409319433061254e-06
decision_type=2
left_child=-1
right_child=-2
leaf_value=-0.0052190390565644961 0.0047532153276345565
leaf_count=147 135
internal_value=0
internal_count=282
shrinkage=0.575608


Tree=178
num_leaves=2
num_cat=0
split_feature=23
split_gain=2.50827e-06
threshold=2.2832387118698253e-06
decision_type=2
left_child=-1
right_child=-2
leaf_value=-0.0052911220274150846 0.0046868248777794438
leaf_count=138 144
internal_value=0
internal_count=282
shrinkage=0.575608


Tree=179
num_leaves=2
num_cat=0
split_feature=5
split_gain=2.30488e-06
threshold=0.082982116062711622
decision_type=2
left_child=-1
right_child=-2
leaf_value=-0.0043387601010528368 0.0052908938709592861
leaf_count=165 117
internal_value=0
internal_count=282
shrinkage=0.575608


Tree=180
num_leaves=2
num_cat=0
split_feature=27
split_gain=2.83972e-06
threshold=2.8119598063045702e-06
decision_type=2
left_child=-1
right_child=-2
leaf_value=-0.0052211705238411768 0.0053935573349717866
leaf_count=165 117
internal_value=0
internal_count=282
shrinkage=0.575608


Tree=181
num_leaves=2
num_cat=0
split_feature=65
split_gain=2.65025e-06
threshold=0.032235181614332552
decision_type=2
left_child=-1
right_child=-2
leaf_value=-0.0045905792266651251 0.0057197602483025642
leaf_count=138 144
internal_value=0
internal_count=282
shrinkage=0.575608


Tree=182
num_leaves=2
num_cat=0
split_feature=42
split_gain=2.64156e-06
threshold=0.034187531074602706
decision_type=2
left_child=-1
right_child=-2
leaf_value=-0.005600770478697792 0.0047029809743705936
leaf_count=138 144
internal_value=0
internal_count=282
shrinkage=0.575608


Tree=183
num_leaves=2
num_cat=0
split_feature=32
split_gain=2.7231e-06
threshold=9.2796043230285058e-07
decision_type=2
left_child=-1
right_child=-2
leaf_value=0.0050442068764493739 -0.0053593552170764181
leaf_count=174 108
internal_value=0
internal_count=282
shrinkage=0.575608


Tree=184
num_leaves=2
num_cat=0
split_feature=58
split_gain=2.40405e-06
threshold=0.03318127916871836
decision_type=2
left_child=-1
right_child=-2
leaf_value=0.0045978720007160117 -0.0051889666278496539
leaf_count=147 135
internal_value=0
internal_count=282
shrinkage=0.575608


Tree=185
num_leaves=2
num_cat=0
split_feature=35
split_gain=2.21812e-06
threshold=1.6996904492484201e-06
decision_type=2
left_child=-1
right_child=-2
leaf_value=0.0051324877649592086 -0.004308097166832052
leaf_count=120 162
internal_value=0
internal_count=282
shrinkage=0.575608


Tree=186
num_leaves=2
num_cat=0
split_feature=8
split_gain=2.10074e-06
threshold=0.018491130527672355
decision_type=2
left_child=-1
right_child=-2
leaf_value=0.0052899324175313678 -0.0039359545019563569
leaf_count=143 139
internal_value=0
internal_count=282
shrinkage=0.575608


Tree=187
num_leaves=2
num_cat=0
split_feature=77
split_gain=1.84343e-06
threshold=0.034142865784082703
decision_type=2
left_child=-1
right_child=-2
leaf_value=0.0038379310231278566 -0.0048172070208801427
leaf_count=165 117
internal_value=0
internal_count=282
shrinkage=0.575608


Tree=188
num_leaves=2
num_cat=0
split_feature=27
split_gain=1.82269e-06
threshold=2.8119598063045702e-06
decision_type=2
left_child=-1
right_child=-2
leaf_value=-0.0042569170769373183 0.0042601131868993808
leaf_count=165 117
internal_value=0
internal_count=282
shrinkage=0.575608


Tree=189
num_leaves=2
num_cat=0
split_feature=24
split_gain=1.65008e-06
threshold=2.1883973904925851e-07
decision_type=2
left_child=-1
right_child=-2
leaf_value=0.0035400099949682031 -0.0046351127133483563
leaf_count=180 102
internal_value=0
internal_count=282
shrinkage=0.575608


Tree=190
num_leaves=2
num_cat=0
split_feature=97
split_gain=1.82743e-06
threshold=0.031852320151985004
decision_type=2
left_child=-1
right_child=-2
leaf_value=0.004154203462480569 -0.00437345109756067
leaf_count=129 153
internal_value=0
internal_count=282
shrinkage=0.575608


Tree=191
num_leaves=2
num_cat=0
split_feature=52
split_gain=1.65098e-06
threshold=0.033311765620537857
decision_type=2
left_child=-1
right_child=-2
leaf_value=-0.0044562243460272086 0.0036772987853529709
leaf_count=111 171
internal_value=0
internal_count=282
shrinkage=0.575608


Tree=192
num_leaves=2
num_cat=0
split_feature=82
split_gain=1.93932e-06
threshold=0.033655537357587459
decision_type=2
left_child=-1
right_child=-2
leaf_value=0.0044941066213128756 -0.0043034272585090088
leaf_count=147 135
internal_value=0
internal_count=282
shrinkage=0.575608


Tree=193
num_leaves=2
num_cat=0
split_feature=75
split_gain=1.75255e-06
threshold=0.035641688838003054
decision_type=2
left_child=-1
right_child=-2
leaf_value=-0.0039585334096505333 0.0044149801178090435
leaf_count=183 99
internal_value=0
internal_count=282
shrinkage=0.575608


Tree=194
num_leaves=2
num_cat=0
split_feature=62
split_gain=1.8153e-06
threshold=0.032671034190341758
decision_type=2
left_child=-1
right_child=-2
leaf_value=-0.0037166082788016772 0.0048583126335126096
leaf_count=156 126
internal_value=0
internal_count=282
shrinkage=0.575608


Tree=195
num_leaves=2
num_cat=0
split_feature=20
split_gain=1.53682e-06
threshold=3.2409319433061254e-06
decision_type=2
left_child=-1
right_child=-2
leaf_value=-0.0038565686588815391 0.0039698594097130613
leaf_count=147 135
internal_value=0
internal_count=282
shrinkage=0.575608


Tree=196
num_leaves=2
num_cat=0
split_feature=13
split_gain=1.58871e-06
threshold=0.030064037374839755
decision_type=2
left_child=-1
right_child=-2
leaf_value=-0.0042997403847333266 0.0036948089912114614
leaf_count=93 189
internal_value=0
internal_count=282
shrinkage=0.575608


Tree=197
num_leaves=2
num_cat=0
split_feature=50
split_gain=1.50453e-06
threshold=0.033106635782548154
decision_type=2
left_child=-1
right_child=-2
leaf_value=-0.0042651992996316597 0.0035138099912748249
leaf_count=120 162
internal_value=0
internal_count=282
shrinkage=0.575608


Tree=198
num_leaves=2
num_cat=0
split_feature=27
split_gain=1.3517e-06
threshold=2.6726300444977604e-06
decision_type=2
left_child=-1
right_child=-2
leaf_value=-0.0042133316295225745 0.0031800182006018782
leaf_count=147 135
internal_value=0
internal_count=282
shrinkage=0.575608


Tree=199
num_leaves=2
num_cat=0
split_feature=5
split_gain=1.50397e-06
threshold=0.082982116062711622
decision_type=2
left_child=-1
right_child=-2
leaf_value=-0.0035688619060934997 0.0042334294108139613
leaf_count=165 117
internal_value=0
internal_count=282
shrinkage=0.575608


Tree=200
num_leaves=2
num_cat=0
split_feature=65
split_gain=1.34111e-06
threshold=0.032235181614332552
decision_type=2
left_child=-1
right_child=-2
leaf_value=-0.0032988708478260626 0.0040581979757412963
leaf_count=138 144
internal_value=0
internal_count=282
shrinkage=0.575608


Tree=201
num_leaves=2
num_cat=0
split_feature=31
split_gain=1.51084e-06
threshold=2.4502144571801907e-06
decision_type=2
left_child=-1
right_child=-2
leaf_value=0.0040905649902021647 -0.0036814703440154139
leaf_count=111 171
internal_value=0
internal_count=282
shrinkage=0.575608


Tree=202
num_leaves=2
num_cat=0
split_feature=75
split_gain=1.44657e-06
threshold=0.035641688838003054
decision_type=2
left_child=-1
right_child=-2
leaf_value=-0.0035022258301189808 0.0041140117354034941
leaf_count=183 99
internal_value=0
internal_count=282
shrinkage=0.575608


Tree=203
num_leaves=2
num_cat=0
split_feature=88
split_gain=1.48851e-06
threshold=0.032704829395711212
decision_type=2
left_child=-1
right_child=-2
leaf_value=0.0040414036284808696 -0.003672691327436741
leaf_count=129 153
internal_value=0
internal_count=282
shrinkage=0.575608


Tree=204
num_leaves=2
num_cat=0
split_feature=70
split_gain=1.35969e-06
threshold=0.036059379364252658
decision_type=2
left_child=-1
right_child=-2
leaf_value=0.0033346700244817383 -0.0040938450056708922
leaf_count=174 108
internal_value=0
internal_count=282
shrinkage=0.575608


Tree=205
num_leaves=2
num_cat=0
split_feature=46
split_gain=1.33026e-06
threshold=0.033430801707175155
decision_type=2
left_child=-1
right_child=-2
leaf_value=-0.0038415517751867172 0.0034585826070476816
leaf_count=138 144
internal_value=0
internal_count=282
shrinkage=0.575608


Tree=206
num_leaves=2
num_cat=0
split_feature=85
split_gain=1.14581e-06
threshold=0.033503264908056808
decision_type=2
left_child=-1
right_child=-2
leaf_value=0.0029726124491317599 -0.0038390963403086191
leaf_count=165 117
internal_value=0
internal_count=282
shrinkage=0.575608


Tree=207
num_leaves=2
num_cat=0
split_feature=32
split_gain=1.24316e-06
threshold=9.2796043230285058e-07
decision_type=2
left_child=-1
right_child=-2
leaf_value=0.0033326771387562778 -0.0037193973078161573
leaf_count=174 108
internal_value=0
internal_count=282
shrinkage=0.575608


Tree=208
num_leaves=2
num_cat=0
split_feature=52
split_gain=1.11925e-06
threshold=0.033311765620537857
decision_type=2
left_child=-1
right_child=-2
leaf_value=-0.0037064013402657325 0.0030059982793299942
leaf_count=111 171
internal_value=0
internal_count=282
shrinkage=0.575608


Tree=209
num_leaves=2
num_cat=0
split_feature=82
split_gain=1.28748e-06
threshold=0.033655537357587459
decision_type=2
left_child=-1
right_child=-2
leaf_value=0.003654019972210406 -0.0035308381561262757
leaf_count=147 135
internal_value=0
internal_count=282
shrinkage=0.575608


Tree=210
num_leaves=2
num_cat=0
split_feature=42
split_gain=1.29315e-06
threshold=0.034187531074602706
decision_type=2
left_child=-1
right_child=-2
leaf_value=-0.0040545183157753122 0.0031866031085691685
leaf_count=138 144
internal_value=0
internal_count=282
shrinkage=0.575608


Tree=211
num_leaves=2
num_cat=0
split_feature=27
split_gain=1.19786e-06
threshold=2.8119598063045702e-06
decision_type=2
left_child=-1
right_child=-2
leaf_value=-0.0035378903854481618 0.0033869371226935363
leaf_count=165 117
internal_value=0
internal_count=282
shrinkage=0.575608


Tree=212
num_leaves=2
num_cat=0
split_feature=20
split_gain=1.0741e-06
threshold=3.2409319433061254e-06
decision_type=2
left_child=-1
right_child=-2
leaf_value=-0.0034022018744873572 0.0031588067311505881
leaf_count=147 135
internal_value=0
internal_count=282
shrinkage=0.575608


Tree=213
num_leaves=2
num_cat=0
split_feature=5
split_gain=9.15372e-07
threshold=0.082982116062711622
decision_type=2
left_child=-1
right_child=-2
leaf_value=-0.0027296735157476583 0.0033720846974114264
leaf_count=165 117
internal_value=0
internal_count=282
shrinkage=0.575608


Tree=214
num_leaves=2
num_cat=0
split_feature=31
split_gain=9.23383e-07
threshold=2.4502144571801907e-06
decision_type=2
left_child=-1
right_child=-2
leaf_value=0.0031874690322734218 -0.0028997501684775765
leaf_count=111 171
internal_value=0
internal_count=282
shrinkage=0.575608


Tree=215
num_leaves=2
num_cat=0
split_feature=23
split_gain=8.04645e-07
threshold=2.2832387118698253e-06
decision_type=2
left_child=-1
right_child=-2
leaf_value=-0.0029010072921052568 0.002782736394920631
leaf_count=138 144
internal_value=0
internal_count=282
shrinkage=0.575608


Tree=216
num_leaves=2
num_cat=0
split_feature=35
split_gain=9.83979e-07
threshold=1.6996904492484201e-06
decision_type=2
left_child=-1
right_child=-2
leaf_value=0.0034943760341470706 -0.0028221237445803173
leaf_count=120 162
internal_value=0
internal_count=282
shrinkage=0.575608


Tree=217
num_leaves=2
num_cat=0
split_feature=8
split_gain=8.96716e-07
threshold=0.018491130527672355
decision_type=2
left_child=-1
right_child=-2
leaf_value=0.0035118473703175629 -0.0025414143868635573
leaf_count=143 139
internal_value=0
internal_count=282
shrinkage=0.575608


Tree=218
num_leaves=2
num_cat=0
split_feature=7
split_gain=1.06735e-06
threshold=0.074301072249821257
decision_type=2
left_child=-1
right_child=-2
leaf_value=-0.0029138449503353613 0.0036428554664371814
leaf_count=174 108
internal_value=0
internal_count=282
shrinkage=0.575608


Tree=219
num_leaves=2
num_cat=0
split_feature=65
split_gain=1.05298e-06
threshold=0.032235181614332552
decision_type=2
left_child=-1
right_child=-2
leaf_value=-0.0028050429576144983 0.0037250438702619523
leaf_count=138 144
internal_value=0
internal_count=282
shrinkage=0.575608


Tree=220
num_leaves=2
num_cat=0
split_feature=58
split_gain=8.45191e-07
threshold=0.03318127916871836
decision_type=2
left_child=-1
right_child=-2
leaf_value=0.0029095020940333402 -0.0029160933874042799
leaf_count=147 135
internal_value=0
internal_count=282
shrinkage=0.575608


Tree=221
num_leaves=2
num_cat=0
split_feature=97
split_gain=9.38222e-07
threshold=0.031852320151985004
decision_type=2
left_child=-1
right_child=-2
leaf_value=0.0031340901447313185 -0.0030028209057086702
leaf_count=129 153
internal_value=0
internal_count=282
shrinkage=0.575608


Tree=222
num_leaves=2
num_cat=0
split_feature=46
split_gain=9.65378e-07
threshold=0.033430801707175155
decision_type=2
left_child=-1
right_child=-2
