tree
version=v2
num_class=1
num_tree_per_iteration=1
label_index=0
max_feature_idx=99
objective=binary sigmoid:1
feature_names=V1 V2 V3 V4 V5 V6 V7 V8 V9 V10 V11 V12 V13 V14 V15 V16 V17 V18 V19 V20 V21 V22 V23 V24 V25 V26 V27 V28 V29 V30 V31 V32 V33 V34 V35 V36 V37 V38 V39 V40 V41 V42 V43 V44 V45 V46 V47 V48 V49 V50 V51 V52 V53 V54 V55 V56 V57 V58 V59 V60 V61 V62 V63 V64 V65 V66 V67 V68 V69 V70 V71 V72 V73 V74 V75 V76 V77 V78 V79 V80 V81 V82 V83 V84 V85 V86 V87 V88 V89 V90 V91 V92 V93 V94 V95 V96 V97 V98 V99 V100
feature_infos=[0.0111872570644477:0.27306253128773] [0:0.11471317729821] [0:0.11202920088802799] [0.020856941326947299:0.13412092291108399] [0:0.033530230727770997] [0.0185127139856088:0.174699025673094] [0:0.105307884980173] [0.025175101323152298:0.16602875974864101] [0:0.0577491338256143] [0.015796182747025999:0.18684993613641701] [0.013884535489206601:0.160308704227409] [0.0125434459623579:0.19901167534529501] [0.0060167287682657902:0.080599755966686004] [0:0.116055515613484] [0:0.084952627326974506] [0.013884535489206601:0.095506827562179999] [0.0096018131357232007:0.106122319476672] [0:0.0332709129655109] [0:0.060861927069970199] [0.028508418336660998:0.201181384366626] [5.0196947724396703e-07:1.5198894406659999e-05] [0:4.1481314327148202e-06] [0:3.80049119085428e-06] [7.5420571503905796e-07:4.7445113402971198e-06] [0:1.1793292824158701e-06] [1.0304335190955901e-06:7.4792813707011498e-06] [0:4.5185822288544002e-06] [8.5404296423691702e-07:6.3616977556843103e-06] [0:2.2127644367597601e-06] [6.7778733432815899e-07:6.6069916405292403e-06] [6.5968230228068001e-07:5.6800127318021202e-06] [4.8289533535275003e-07:1.1077160330277599e-05] [2.0077063801696401e-07:3.00662851344168e-06] [0:4.6177761159647603e-06] [0:4.1217340763823797e-06] [6.0826999012412796e-07:3.80632283511432e-06] [4.1775263204001401e-07:4.6369508359301797e-06] [0:1.32232626432195e-06] [0:2.2003685752770901e-06] [9.6818641112612706e-07:8.0008678588430392e-06] [0.0317379741945008:0.050784359359147997] [0.0329210497395971:0.047420633436731502] [0.029661885374899701:0.043278059823964203] [0.028436407110173801:0.043474949899414202] [0.027100805508410701:0.042978363651100297] [0.031030231589260798:0.043960637055944399] [0.030084324370077301:0.0437490503816583] [0.0298053127123847:0.041093235853860301] [0.021255814553623201:0.042207446786701401] [0.028667886871997301:0.042480901168003599] [0.029331232208226699:0.041864359368992701] [0.027610501264865899:0.041293121809895798] [0.027932090235227702:0.037002602559626001] [0.022038816733912302:0.0380371711728359] [0.026635231526537999:0.038291073934628703] [0.028053795551166199:0.040172425048434601] [0.026898428912384:0.0363413443973667] [0.021123602304152202:0.039337316298909901] [0.024788661512402901:0.036632722338807697] [0.0273038101012925:0.039992133429471499] [0.023681895083887499:0.037782790042636703] [0.0249053645196625:0.039113495925968599] [0.019621602154561001:0.036350234077136799] [0.0265243824067221:0.0353108670338418] [0.022309450015357699:0.038415583764189298] [0.0242203006304057:0.035624335090074601] [0.022006910534175899:0.036317049233269803] [0.022163682015929501:0.035594421839258497] [0.0186436686724188:0.036509338398630298] [0.016595636743210001:0.037985223330344403] [0.0295215934211462:0.0547887491042994] [0.033122359688947001:0.046266613740908] [0.031184854780484099:0.049167945466877701] [0.029819778492174299:0.048505714036165902] [0.029133627211255599:0.045575932228694001] [0.032175231198231603:0.044350756758366798] [0.029668963857642401:0.043463085186684201] [0.0290645884580653:0.042167095392171797] [0.021926672135349101:0.04042142238772] [0.0291630718490637:0.040420508724913901] [0.029917238420571601:0.047006171874549398] [0.029373848693459801:0.040711140297568102] [0.030201620032122199:0.0414657213405972] [0.0233855599116846:0.039533017220649197] [0.027687058190540199:0.039579592645144102] [0.0258774169507432:0.041061668019926403] [0.024804784587889799:0.036328529735559001] [0.0221123047338142:0.0367177825807369] [0.024371842051014:0.036644408634788503] [0.028099314102045001:0.040308163509087801] [0.024259816666371999:0.037482714799727597] [0.023302649278957401:0.038175011454183602] [0.018052258852384401:0.036444568259684701] [0.0236996833265011:0.035239129442761703] [0.0226282842824676:0.037046248921876697] [0.022612813459826599:0.035111609382868801] [0.0237004888680739:0.034866906000450899] [0.0225399941383276:0.035602602932898797] [0.021471163747983898:0.035895563811102697] [0.018886418705309899:0.038447973398740398]
tree_sizes=796 1029 880 956 877 948 948 797 953 883 946 957 950 878 955 951 804 881 966 898 891 895 810 809 886 864 884 797 889 810 817 812 895 809 821 896 815 889 862 796 889 803 962 893 780 787 786 793 878 783 725 707 866 792 711 774 786 702 638 736 638 630 574 583 475 615 556 571 476 541 475 497 553 497 419 417 420 477 463 470 414 421 490 403 405 402 421 402 429 420 401 340 437 423 339 399 406 417 400 339 342 339 361 420 339 403 339 339 338 338 338 338 343 341 402 358 345 339 341 343 342 342 341 339 344 341 346 346 341 282 341 282 341 341 339 282 341 281 340 341 282 341 344 339 348 342 337 319 342 282 340 283 345 322 335 321 323 346 321 323 337 322 337 320

Tree=0
num_leaves=9
num_cat=0
split_feature=20 11 27 8 27 24 80 56
split_gain=97.6787 23.6201 11.2063 10.0767 9.41567 5.20964 1.92106 1.27383
threshold=3.2020842704814854e-06 0.054435759891727505 2.6605047113249756e-06 0.015552522835201001 2.6605047113249756e-06 3.1028535518822003e-07 0.034445383377760909 0.032028752018174858
decision_type=2 2 2 2 2 2 2 2
left_child=1 -1 3 -2 7 6 -4 -3
right_child=2 4 5 -5 -6 -7 -8 -9
leaf_value=0.24669958929253835 0.43185159103773424 -0.48470685962728183 0.67947081742331161 -0.22610169936004962 -0.19706908795901126 0.22610169936004965 0.44262345379054741 -0.67957095794748479
leaf_count=22 22 21 54 21 31 21 23 67
internal_value=0 -1.17693 1.17693 0.325057 -1.52886 1.55035 1.79124 -1.86276
internal_count=282 141 141 43 119 98 77 88
shrinkage=0.339994


Tree=1
num_leaves=12
num_cat=0
split_feature=0 39 14 77 37 77 0 32 44 51 66
split_gain=45.5531 14.5785 8.25081 7.51459 7.6489 2.51237 2.20088 0.22256 0.211532 0.0400061 0.0207513
threshold=0.07239693804576712 2.2846316578072055e-06 0.041395275488483305 0.035097756304827706 3.1370071862986605e-07 0.032959428572694606 0.060277357626306254 7.1931839641308967e-07 0.034141436765975912 0.033184502319874506 0.031949389986901305
decision_type=2 2 2 2 2 2 2 2 2 2 2
left_child=2 -2 6 4 5 -3 7 -1 -7 -10 -9
right_child=1 3 -4 -5 -6 8 -8 10 9 -11 -12
leaf_value=-0.46046372570765992 -0.26616918244557158 0.26750532190102017 0.0072701396525770229 -0.045270300008636695 0.068827881021606807 0.48116073204820342 -0.27263224749750758 -0.57982056535669957 0.53740541314897461 0.59233256399654521 -0.52949701443144204
leaf_count=21 25 21 24 24 29 22 24 21 21 29 21
internal_value=0 0.664135 -1.03619 0.914039 1.12272 1.41299 -1.33759 -1.54323 1.59846 1.67681 -1.63443
internal_count=282 171 111 146 122 93 87 63 72 50 42
shrinkage=0.339994


Tree=2
num_leaves=10
num_cat=0
split_feature=27 24 4 9 26 51 33 98 20
split_gain=28.1966 12.2508 10.9789 4.78392 4.70922 3.2971 2.07357 0.838338 0.409572
threshold=2.6605047113249756e-06 3.2561662963341804e-07 1.0000000180025095e-35 0.06732957024398202 9.400627383314451e-07 0.033633605781095109 1.3350821221548102e-06 0.032461373819575756 2.4130780376665104e-06
decision_type=2 2 2 2 2 2 2 2 2
left_child=2 3 -1 7 -4 -5 -6 -2 -8
right_child=1 -3 4 5 6 -7 8 -9 -10
leaf_value=0.11278150345292569 0.55561000956360806 -0.13707313113049419 -0.052975506001309576 0.38417369213685937 -0.24906863141469604 -0.013269710929481654 -0.46288044564404468 0.37179529540953099 -0.59405990580281143
leaf_count=35 40 33 21 22 23 24 41 22 21
internal_value=0 0.676572 -0.693312 1.04906 -1.0542 0.515074 -1.29337 1.44573 -1.50841
internal_count=282 141 141 108 106 46 85 62 62
shrinkage=0.339994


Tree=3
num_leaves=11
num_cat=0
split_feature=20 11 32 9 2 90 26 71 13 27
split_gain=19.5682 7.35067 5.84018 5.29212 5.00555 3.08389 1.97062 0.219118 0.127612 0.0701145
threshold=3.2020842704814854e-06 0.054435759891727505 1.0869722735201952e-06 0.050641877397576057 0.049649335854192157 0.032676401895869005 9.4333247216139809e-07 0.035449431998149157 0.041107691941798009 3.0812086899742856e-06
decision_type=2 2 2 2 2 2 2 2 2 2
left_child=1 -1 4 -3 5 9 -5 -8 -9 -2
right_child=2 3 -4 6 -6 -7 7 8 -10 -11
leaf_value=0.16837533020938567 0.54228841562418606 0.023447294783833617 -0.083970619486763959 -0.18456807304050751 -0.027253153719533324 0.21191198995794547 -0.37253511046659638 -0.50917026258093845 -0.4171620019906439 0.47181915589204954
leaf_count=22 21 25 31 21 23 41 22 29 22 25
internal_value=0 -0.605521 0.593574 -0.853369 0.845908 1.10105 -1.1142 -1.31661 -1.4024 1.49168
internal_count=282 141 141 119 110 87 94 73 51 46
shrinkage=0.339994


Tree=4
num_leaves=10
num_cat=0
split_feature=20 43 39 17 77 4 94 9 0
split_gain=12.4926 6.34908 6.31711 5.10334 5.98102 2.01857 0.949828 0.307525 0.0524209
threshold=2.7514387532382855e-06 0.034750522432159106 2.2846316578072055e-06 0.0060835000288598055 0.033349169189373307 0.003550712350346995 0.031596914417143553 0.063266908276580117 0.059463253179851558
decision_type=2 2 2 2 2 2 2 2 2
left_child=1 6 -2 5 -5 7 -1 -4 -8
right_child=2 -3 3 4 -6 -7 8 -9 -10
leaf_value=-0.23090066761905026 -0.21360240627543758 0.059140598091864567 0.47938377794190279 0.34978859180799077 -0.16606050323519359 0.17550167207414941 -0.41059279223160489 0.34463722477109199 -0.47639108449442374
leaf_count=21 26 32 33 21 36 36 34 22 21
internal_value=0 -0.678828 0.374614 0.574189 0.0627624 0.953593 -1.10391 1.26072 -1.29797
internal_count=282 108 174 148 57 91 76 55 55
shrinkage=0.339994


Tree=5
num_leaves=11
num_cat=0
split_feature=27 75 16 27 51 31 9 81 0 20
split_gain=10.3399 6.72498 6.01173 5.69516 4.4374 3.88521 3.23363 1.44636 0.2053 0.166636
threshold=2.6605047113249756e-06 0.034416431551819407 0.046021915436441956 2.0137841384392653e-06 0.033602223781895806 2.4871797378900857e-06 0.070541461384887219 0.032667334153709558 0.061013854962535606 3.5782257313254552e-06
decision_type=2 2 2 2 2 2 2 2 2 2
left_child=1 8 -2 -3 7 -5 -6 -4 -1 -9
right_child=2 3 4 5 6 -7 -8 9 -10 -11
leaf_value=-0.38452397902716173 -0.13696878760719314 -0.35109332148249706 0.21280483111661794 0.33537740913341074 0.30633629667627232 -0.09192631050402475 -0.13811631136385347 0.54741132492555744 -0.51833260854167496 0.43032855571070988
leaf_count=26 34 34 21 24 21 36 23 21 21 21
internal_value=0 -0.508609 0.459124 -0.139007 0.75833 0.293259 0.18656 1.20757 -1.37626 1.46685
internal_count=282 141 141 94 107 60 44 63 47 42
shrinkage=0.339994


Tree=6
num_leaves=11
num_cat=0
split_feature=0 12 4 7 6 54 79 28 93 27
split_gain=7.4952 5.64001 5.07723 5.55909 4.57074 3.70533 3.32109 1.59928 0.910558 0.0236556
threshold=0.059463253179851558 0.032881417283233259 0.0014731784206209752 0.074115243945568857 0.028053560091719106 0.033833988311481808 0.03381241611646766 9.1645078501833161e-07 0.031820888886521057 1.9857632848018305e-06
decision_type=2 2 2 2 2 2 2 2 2 2
left_child=7 2 6 4 -4 8 -2 9 -5 -1
right_child=1 -3 3 5 -6 -7 -8 -9 -10 -11
leaf_value=-0.36884340897613505 0.076756120651185089 -0.31676813371700091 0.11115470032101875 0.47067132458783495 -0.38221770317662884 -0.10267999205692481 0.48272567589538268 -0.096021173073682659 0.21432814195568717 -0.43530001549940311
leaf_count=25 28 21 24 22 33 21 40 21 21 26
internal_value=0 0.215746 0.3689 0.0608358 -0.510075 0.585982 0.951328 -0.869997 1.0174 -1.21479
internal_count=282 210 189 121 57 64 68 72 43 51
shrinkage=0.339994


Tree=7
num_leaves=9
num_cat=0
split_feature=7 9 22 22 84 88 37 17
split_gain=5.58082 3.62654 5.15397 4.7763 4.4809 2.418 2.69659 1.66026
threshold=0.053218719710480755 0.066049465575975963 1.9040536824541001e-06 1.2193218092583302e-06 0.032556300690874652 0.032645267984324204 2.4499324596694051e-07 0.0055477531910341866
decision_type=2 2 2 2 2 2 2 2
left_child=7 3 4 -2 -3 -5 -7 -1
right_child=1 2 -4 5 -6 6 -8 -9
leaf_value=-0.048411261672951671 -0.17650555953758976 0.34851506389971054 -0.36943822495005368 0.41540347533686833 -0.13772029918142181 0.30707149478047874 -0.12601951788200666 -0.43383489825257077
leaf_count=24 29 30 33 39 32 35 21 39
internal_value=0 0.177294 -0.211474 0.488244 0.230027 0.772466 0.357266 -0.894113
internal_count=282 219 95 124 62 95 56 63
shrinkage=0.339994


Tree=8
num_leaves=11
num_cat=0
split_feature=24 6 20 76 53 26 75 60 87 12
split_gain=3.70649 3.38626 4.2414 3.16827 4.56222 3.46694 2.52566 2.18078 1.69376 0.757469
threshold=1.5532892832728353e-07 0.026651661856095351 3.9226590383160259e-06 0.034365612933086757 0.032554811004307758 1.3666000981483603e-06 0.035669388396727557 0.032878307783814904 0.033169898801945354 0.019837085482737455
decision_type=2 2 2 2 2 2 2 2 2 2
left_child=1 9 6 4 -2 7 -3 -6 -5 -1
right_child=3 2 -4 8 5 -7 -8 -9 -10 -11
leaf_value=0.44457183882950857 -0.36437019002165366 -0.3191851181106975 0.3672257632814061 -0.48248319424979386 0.3900120434319575 -0.30238516034061608 0.086938182876355213 -0.010888434521909707 -0.10417111499752513 0.1885399425038925
leaf_count=27 28 35 24 22 31 22 27 22 23 21
internal_value=0 0.360801 0.00691568 -0.3179 -0.0139984 0.365453 -0.395924 0.695436 -0.933982 0.985535
internal_count=282 134 86 148 103 75 62 53 45 48
shrinkage=0.339994


Tree=9
num_leaves=10
num_cat=0
split_feature=27 24 75 29 91 22 89 0 88
split_gain=2.87698 3.26749 3.05734 3.20191 2.71412 1.95845 1.64747 0.0122776 0.0078529
threshold=2.6605047113249756e-06 3.2561662963341804e-07 0.034416431551819407 2.6218156915609805e-06 0.032600489316777413 1.9040536824541001e-06 0.033739011611649605 0.061013854962535606 0.032588988634183462
decision_type=2 2 2 2 2 2 2 2 2
left_child=2 5 7 4 -4 6 8 -1 -2
right_child=1 -3 3 -5 -6 -7 -8 -9 -10
leaf_value=-0.35279802269715327 0.42470828313829068 -0.12899918744034428 0.28806897151012434 -0.30841455530590722 -0.15019505631797542 -0.038512522821929497 0.066087890372266533 -0.42675793928630007 0.37665470935134554
leaf_count=26 22 33 32 36 26 24 24 21 38
internal_value=0 0.297016 -0.340914 -0.065081 0.320932 0.608498 0.863711 -1.19463 1.1785
internal_count=282 141 141 94 58 108 84 47 60
shrinkage=0.339994


Tree=10
num_leaves=11
num_cat=0
split_feature=12 16 20 75 67 54 23 40 22 87
split_gain=2.35848 2.5328 2.15501 2.45736 1.60036 2.12942 1.90098 0.657261 0.44738 0.307108
threshold=0.034256458318774712 0.048822634369250002 3.904649797486196e-06 0.035790664371035806 0.031224568353431455 0.033689482368488212 1.9216707563766853e-06 0.034811594057808357 1.8387119375439153e-06 0.033105022131088103
decision_type=2 2 2 2 2 2 2 2 2 2
left_child=1 2 3 9 8 6 -6 -8 -3 -1
right_child=-2 4 -4 -5 5 -7 7 -9 -10 -11
leaf_value=-0.42830762313883142 -0.32027010401636419 0.4134575409063671 0.18336629350065839 0.025883546723201332 -0.11264898119113005 -0.19669737107679 0.41309388120396734 0.13897278680639941 0.180622104041991 -0.23514531998717442
leaf_count=32 21 22 26 33 22 30 24 21 22 29
internal_value=0 0.104375 -0.261684 -0.519874 0.402809 0.16312 0.489811 0.868396 0.926955 -1.0425
internal_count=282 261 120 94 141 97 67 45 44 61
shrinkage=0.339994


Tree=11
num_leaves=11
num_cat=0
split_feature=0 15 67 2 37 54 65 99 88 34
split_gain=2.39408 2.4769 2.10471 2.33111 2.29739 0.929917 0.811336 0.447751 0.384407 0.0985536
threshold=0.059463253179851558 0.061952801811586709 0.030815513787025201 0.049649335854192157 3.1662369677607054e-07 0.033936217118359806 0.032647682785291156 0.031827914356344258 0.032985783650221014 1.1604942018183352e-06
decision_type=2 2 2 2 2 2 2 2 2 2
left_child=6 2 8 4 5 7 9 -4 -2 -1
right_child=1 -3 3 -5 -6 -7 -8 -9 -10 -11
leaf_value=-0.25709431455345072 0.38965521062374331 -0.23724476491495036 0.40457729283309518 -0.25717955604133724 -0.1131762033959726 0.020025706077504649 -0.0061254212314586073 0.17801477085953335 0.17081956101892568 -0.40233448606178307
leaf_count=21 26 26 33 26 33 22 24 23 21 27
internal_value=0 0.152098 0.304928 0.0922616 0.320742 0.691151 -0.718388 0.934926 0.91813 -1.02542
internal_count=282 210 184 137 111 78 72 56 47 48
shrinkage=0.339994


Tree=12
num_leaves=11
num_cat=0
split_feature=11 4 7 93 81 47 29 61 76 75
split_gain=1.77537 1.50831 1.61585 1.80966 1.23907 1.6096 1.0399 0.689664 0.586221 0.01495
threshold=0.096639397147813513 0.0015751883712760803 0.055444359627557206 0.031383528809346459 0.033070905129187207 0.033502530386323705 2.6218156915609805e-06 0.032412375153142305 0.033660637015320356 0.03455238740595111
decision_type=2 2 2 2 2 2 2 2 2 2
left_child=1 6 9 8 -5 -6 7 -1 -4 -3
right_child=-2 2 3 4 5 -7 -8 -9 -10 -11
leaf_value=0.39059210701991404 -0.32766834002564144 -0.27210451549783277 0.36639456485017186 -0.23238954843575979 0.25249189415193468 -0.15827665601732546 -0.022016646276855328 0.096219532224353851 0.083870132527753757 -0.37390829657855024
leaf_count=27 27 21 22 40 26 24 27 24 21 23
internal_value=0 0.100874 -0.092523 0.0431034 -0.22477 0.123583 0.516889 0.81669 0.647329 -1.02246
internal_count=282 255 177 133 90 50 78 51 43 44
shrinkage=0.339994


Tree=13
num_leaves=10
num_cat=0
split_feature=27 97 4 57 22 5 50 54 77
split_gain=1.50229 1.50996 1.36642 1.33514 1.36975 1.08662 0.75216 0.368348 0.189259
threshold=2.6605047113249756e-06 0.031243749052650153 0.0090288778439238174 0.032757093348814707 1.7418408697791252e-06 0.08350115246305391 0.032570008977651554 0.03286879687965346 0.033735482463236509
decision_type=2 2 2 2 2 2 2 2 2
left_child=1 5 3 4 -2 -1 -3 -8 -5
right_child=2 6 -4 8 -6 -7 7 -9 -10
leaf_value=-0.1401884847822745 0.22176572640703096 0.0055471057772279566 -0.089255162044402467 0.20979771899774799 -0.19248677284470928 0.26582938124288547 -0.15428800475204368 -0.38239261259711999 0.38798381085098033
leaf_count=22 34 21 32 21 22 23 26 49 32
internal_value=0 -0.315132 0.262768 0.512966 0.098521 0.235666 -0.659968 -0.886825 0.971913
internal_count=282 141 141 109 56 45 96 75 53
shrinkage=0.339994


Tree=14
num_leaves=11
num_cat=0
split_feature=19 16 51 97 6 20 3 5 41 80
split_gain=1.26604 1.13956 1.1408 1.78892 1.22963 1.66485 0.985901 0.536586 0.370689 0.251687
threshold=0.051172170060717455 0.040848227037885258 0.033633605781095109 0.030574797887980603 0.026651661856095351 3.2020842704814854e-06 0.058089578167643707 0.077298162722259769 0.036236659436498807 0.033329024232078709
decision_type=2 2 2 2 2 2 2 2 2 2
left_child=8 6 4 -4 -3 -6 -2 -5 -1 -7
right_child=1 2 3 7 5 9 -8 -9 -10 -11
leaf_value=-0.084249479291279378 -0.34376757250643286 0.3655586487217875 0.20540457514698723 -0.30495119591799452 -0.19095470854442229 0.36742443770570288 0.047512201223806436 -0.011371527274192345 -0.39650163567183094 0.12799491230317664
leaf_count=21 22 41 32 26 31 21 21 22 24 21
internal_value=0 0.110643 0.252091 -0.0915535 0.537645 0.175675 -0.442202 -0.578508 -0.772677 0.767392
internal_count=282 237 194 80 114 73 43 48 45 42
shrinkage=0.339994


Tree=15
num_leaves=11
num_cat=0
split_feature=12 7 0 91 88 49 78 4 22 14
split_gain=0.989157 1.26472 1.55721 1.01814 1.34319 0.836968 0.734692 1.36028 0.2059 0.0979905
threshold=0.03345055807812871 0.079290406024922364 0.10104460153845903 0.032974118356461558 0.032121677796159258 0.033559263445124957 0.034319188530608009 0.0041431881693055157 1.9913544637503206e-06 0.032412590470639456
decision_type=2 2 2 2 2 2 2 2 2 2
left_child=1 2 3 4 -1 -6 7 -3 -5 -8
right_child=-2 6 -4 8 5 -7 9 -9 -10 -11
leaf_value=0.24653322461472504 -0.25116987756606313 0.36310398303886493 0.28782914398639825 -0.36693722973864962 0.045017923260842856 -0.30224203082437595 0.21731896509027004 -0.1732711239036217 -0.13420129896529298 0.37289856009406247
leaf_count=22 27 21 29 26 33 35 22 21 21 25
internal_value=0 0.103408 -0.128805 -0.321729 -0.057478 -0.421598 0.529094 0.12337 -0.880708 0.932237
internal_count=282 255 166 137 90 68 89 42 47 47
shrinkage=0.339994


Tree=16
num_leaves=9
num_cat=0
split_feature=9 76 36 32 53 2 98 6
split_gain=0.862879 1.06158 1.01978 0.864846 0.89788 0.53515 0.520814 0.437709
threshold=0.06732957024398202 0.033186656912211558 2.0452738349220105e-06 7.3368292760969958e-07 0.03291903061074581 0.049649335854192157 0.031449961780531707 0.029635092472795655
decision_type=2 2 2 2 2 2 2 2
left_child=2 7 3 -1 -5 -3 -4 -2
right_child=1 5 6 4 -6 -7 -8 -9
leaf_value=0.19232839577936234 0.28849438615063239 -0.081030806287763005 0.37420777310213621 -0.32098339768811696 0.048940510670601935 -0.34657653945183675 0.090390312640751688 -0.10952375638623763
leaf_count=36 21 36 27 33 32 36 40 21
internal_value=0 -0.311734 0.227219 -0.0779177 -0.380332 -0.599961 0.674606 0.432202
internal_count=282 114 168 101 65 72 67 42
shrinkage=0.339994


Tree=17
num_leaves=10
num_cat=0
split_feature=77 9 83 23 0 42 33 92 49
split_gain=0.867443 1.01884 0.900571 0.864593 0.805954 0.756261 0.546711 0.615542 0.385473
threshold=0.035067847462722714 0.058448357829949553 0.033691932110626106 1.9857464939006204e-06 0.08717761997350941 0.034249339872626759 1.1362432695534903e-06 0.032675417409145806 0.034094495252672906
decision_type=2 2 2 2 2 2 2 2 2
left_child=2 -2 3 -1 5 -5 -4 -8 -6
right_child=1 -3 6 4 8 -7 7 -9 -10
leaf_value=-0.25146072973492717 0.11798023590423355 -0.34217229027896423 0.36522271417091356 -0.30372862367629472 0.34679600218410028 0.09689323509982202 0.26273203065597212 -0.14460218330329522 0.042678610210098313
leaf_count=38 22 35 29 35 25 26 29 22 21
internal_value=0 -0.521854 0.156877 -0.080886 0.152899 -0.265898 0.594881 0.216024 0.61686
internal_count=282 57 225 145 107 61 80 51 46
shrinkage=0.339994


Tree=18
num_leaves=11
num_cat=0
split_feature=43 16 65 45 68 85 38 88 62 43
split_gain=0.606106 0.679814 0.676932 0.553495 0.464333 0.448284 0.232502 0.145132 0.0994523 0.0216555
threshold=0.032407095146879658 0.048822634369250002 0.031906580084031307 0.035232597487858557 0.032802777765244408 0.033578380857909707 9.8943102316741478e-07 0.032564015384048857 0.032713540295055306 0.03405456018897441
decision_type=2 2 2 2 2 2 2 2 2 2
left_child=6 3 5 7 8 -3 -1 -2 -4 -9
right_child=1 2 4 -5 -6 -7 -8 9 -10 -11
leaf_value=0.35036951712219527 -0.10890021128905553 -0.20144297768950936 0.17566819680048351 0.005225096678714727 -0.022137511974910276 0.10577084753075149 0.066934510484095086 -0.36602743557393363 0.35796373022118483 -0.25393751129720959
leaf_count=21 21 40 26 41 22 24 21 22 23 21
internal_value=0 -0.0946637 0.149521 -0.436883 0.514915 -0.240256 0.624619 -0.796676 0.83943 -0.964823
internal_count=282 240 135 105 71 64 42 64 49 43
shrinkage=0.339994


Tree=19
num_leaves=10
num_cat=0
split_feature=27 24 29 91 38 80 45 53 32
split_gain=0.558284 0.924003 0.535542 0.555957 0.707965 0.426058 0.209851 0.130529 0.0436371
threshold=2.7285708853707156e-06 3.2561662963341804e-07 2.6930487236419605e-06 0.032600489316777413 1.2284470781209703e-06 0.034793146720555355 0.03461149755701496 0.032638430670098854 8.0438911823619916e-07
decision_type=2 2 2 2 2 2 2 2 2
left_child=2 5 3 4 -1 7 -5 -2 -4
right_child=1 -3 8 6 -6 -7 -8 -9 -10
leaf_value=0.30553491005473965 0.14985295644390867 -0.12511787248969874 -0.17975771000177071 -0.34507537549866901 -0.10775149447184451 0.0042956020377300395 -0.067285993559332638 0.34713972926256592 -0.35809393572320836
leaf_count=26 21 30 21 27 28 27 23 54 25
internal_value=0 0.257629 -0.253642 -0.0555704 0.288107 0.592821 -0.558743 0.85041 -0.908139
internal_count=282 132 150 104 54 102 50 75 46
shrinkage=0.339994


Tree=20
num_leaves=10
num_cat=0
split_feature=11 0 54 80 28 38 47 4 91
split_gain=0.459883 0.740633 0.529681 0.48536 0.457254 0.362039 0.295308 0.283156 0.0413545
threshold=0.051741695684225257 0.060277357626306254 0.03178064832538386 0.032981520344553102 6.3411259181896665e-07 1.2912513839931052e-06 0.034387543330246857 0.004832355363976421 0.033386605021368761
decision_type=2 2 2 2 2 2 2 2 2
left_child=-1 8 -3 5 7 -4 -6 -5 -2
right_child=1 2 3 4 6 -7 -8 -9 -10
leaf_value=0.19798171448668561 -0.34552327242813141 0.27739271923382919 0.24580628800961246 0.30703597084970408 -0.30713735499404771 -0.087323762785783257 -0.021296558304967107 -0.053884255156117507 -0.16647175578402967
leaf_count=39 47 24 37 23 27 21 21 21 22
internal_value=0 -0.0961891 0.0499354 -0.0781059 -0.315771 0.364102 -0.617663 0.18548 -0.890647
internal_count=282 243 174 150 92 58 48 44 69
shrinkage=0.339994


Tree=21
num_leaves=10
num_cat=0
split_feature=12 7 12 31 25 18 35 30 52
split_gain=0.41564 0.489795 0.502006 0.429167 0.345231 0.340594 0.189233 0.156447 0.0100165
threshold=0.03345055807812871 0.079290406024922364 0.014106281067108001 2.1700328025255155e-06 2.5243932250912155e-06 0.016791380387237955 1.4603644218682802e-06 3.0555275546146855e-06 0.033820429924558811
decision_type=2 2 2 2 2 2 2 2 2
left_child=1 2 -1 -4 -3 -5 -7 -6 -8
right_child=-2 4 3 5 7 6 8 -9 -10
leaf_value=0.28894082686611144 -0.23105554814049933 -0.016945705054459206 0.10182180018497003 0.046675023737969154 0.34746794460617669 -0.079517347036211813 -0.34974055066420967 0.088936535127068755 -0.24126240971683116
leaf_count=26 27 24 25 22 43 28 42 22 23
internal_value=0 0.0967664 -0.117782 -0.255137 0.485512 -0.487575 -0.718538 0.79218 -0.952478
internal_count=282 255 166 140 89 115 93 65 65
shrinkage=0.339994


Tree=22
num_leaves=9
num_cat=0
split_feature=77 33 83 20 60 65 33 92
split_gain=0.409103 0.489394 0.353332 0.328122 0.364979 0.39509 0.304327 0.215504
threshold=0.035097756304827706 1.4497506794670002e-06 0.033667424784722857 2.2623109874156002e-06 0.033241034438836255 0.032664978854126205 1.1362432695534903e-06 0.032675417409145806
decision_type=2 2 2 2 2 2 2 2
left_child=2 -2 3 -1 5 -5 -4 -8
right_child=1 -3 6 4 -6 -7 7 -9
leaf_value=-0.33503544872576985 -0.2970208795400105 0.15500913795536417 0.34572118264197699 0.24922372425150691 -0.16901451465107217 -0.071089405711363116 0.21324812755849709 -0.10655194801677224
leaf_count=39 30 24 30 38 34 35 29 23
internal_value=0 -0.484773 0.146312 -0.0623269 0.058215 0.311403 0.515485 0.143299
internal_count=282 54 228 146 107 73 82 52
shrinkage=0.339994


Tree=23
num_leaves=9
num_cat=0
split_feature=4 31 19 46 5 68 22 7
split_gain=0.344153 0.450928 0.337386 0.318605 0.334398 0.304789 0.35317 0.224653
threshold=0.0068307878809993009 2.1173328191295302e-06 0.051172170060717455 0.033208657694437857 0.072510840090415363 0.032824151219257712 1.9040536824541001e-06 0.063333769932417711
decision_type=2 2 2 2 2 2 2 2
left_child=1 -1 -3 -2 -5 6 7 -4
right_child=3 2 5 4 -6 -7 -8 -9
leaf_value=0.28519236142897247 0.11618744958761859 -0.33705642046454842 0.0075589067373996593 -0.32959847526552505 0.003725936207546624 -0.18879456192149549 -0.10207172519885761 0.34324844704931273
leaf_count=37 29 28 23 30 26 23 35 51
internal_value=0 0.205964 -0.0144443 -0.327166 -0.570635 0.12852 0.340937 0.681597
internal_count=282 197 160 85 56 132 109 74
shrinkage=0.339994


Tree=24
num_leaves=10
num_cat=0
split_feature=35 0 27 11 51 75 44 44 19
split_gain=0.28041 0.400278 0.22586 0.276905 0.339766 0.232656 0.225209 0.221687 0.193726
threshold=2.5557858838538654e-06 0.10104460153845903 2.6837940017205305e-06 0.062268583812925306 0.033602223781895806 0.034436159978837554 0.034163029497768956 0.035346971911408308 0.058677002269841412
decision_type=2 2 2 2 2 2 2 2 2
left_child=1 2 5 -4 -5 -1 -3 8 -7
right_child=-2 6 3 4 -6 7 -8 -9 -10
leaf_value=-0.32259386523509576 -0.2428120280119366 -0.011058725756972126 0.26744593937284361 0.16213629864836526 -0.23241060514094608 -0.21204752387210671 0.33205001226972708 -0.24403032955589443 0.19099242051737894
leaf_count=47 21 23 34 21 23 21 45 25 22
internal_value=0 0.0923846 -0.0889806 0.185121 -0.119164 -0.362496 0.644391 -0.0953344 0.23967
internal_count=282 261 193 78 44 115 68 68 43
shrinkage=0.339994


Tree=25
num_leaves=10
num_cat=0
split_feature=24 7 48 80 9 87 50 15 84
split_gain=0.238251 0.232157 0.223167 0.301904 0.20584 0.200754 0.106254 0.0975095 0.00340762
threshold=7.4360996595526272e-08 0.055444359627557206 0.035108940032793509 0.032981520344553102 0.069700828346645274 0.033692594307823058 0.033275310068590559 0.045445511641380255 0.03317946684307501
decision_type=2 2 2 2 2 2 2 2 2
left_child=4 8 3 -3 6 7 -1 -5 -2
right_child=1 2 -4 5 -6 -7 -8 -9 -10
leaf_value=0 -0.1634421270128972 0.13660063048019633 0.1616475673230946 -0.11229434306949682 -0.081355968329878958 0.07244059092773221 0.30846537546058378 -0.33840866897322641 -0.33605729321161609
leaf_count=21 21 29 41 22 29 22 42 23 32
internal_value=0 -0.1516 -0.0392832 -0.218803 0.403937 -0.487467 0.698374 -0.71138 -0.911279
internal_count=282 190 137 96 92 67 63 45 53
shrinkage=0.339994


Tree=26
num_leaves=10
num_cat=0
split_feature=12 9 76 46 60 7 0 91 71
split_gain=0.181205 0.203649 0.267958 0.214432 0.160133 0.20576 0.129154 0.0787449 0.0679126
threshold=0.012412444360998002 0.066725264553476757 0.033257712245376006 0.032797787259185203 0.03338792828483126 0.055444359627557206 0.07784818916003107 0.032778473878814711 0.036144734422461654
decision_type=2 2 2 2 2 2 2 2 2
left_child=-1 3 6 -2 5 -5 -3 -7 -4
right_child=1 2 8 4 -6 7 -8 -9 -10
leaf_value=0.24019127791784198 -0.18186003624802374 -0.16848476061387202 -0.074738088186419194 -0.082551484407571041 -0.092930884753100351 0.31839434108507386 0.21897454495067975 0.072915015282738291 -0.30107976637519429
leaf_count=33 32 22 21 22 28 42 22 21 39
internal_value=0 -0.0773214 -0.384784 0.137119 0.31263 0.499643 0.255953 0.747519 -0.710668
internal_count=282 249 104 145 113 85 44 63 60
shrinkage=0.339994


Tree=27
num_leaves=9
num_cat=0
split_feature=4 7 75 11 39 46 88 58
split_gain=0.1715 0.179484 0.251543 0.173693 0.179922 0.170352 0.145593 0.0609909
threshold=0.0068307878809993009 0.079290406024922364 0.034416431551819407 0.059883579434452862 2.6245160436260254e-06 0.033208657694437857 0.03291786739279081 0.032312742366445706
decision_type=2 2 2 2 2 2 2 2
left_child=1 2 -1 -4 -5 -2 -7 -3
right_child=5 7 3 4 -6 6 -8 -9
leaf_value=-0.27288569231344045 0.10673125680305807 0.069608721234062976 0.28597498929337789 -0.2015812351011381 0.13136788373676461 -0.0056915050710991243 -0.2996265623584955 0.33142103571087633
leaf_count=35 29 21 21 37 41 22 34 42
internal_value=0 0.189291 0 0.229334 -0.0320676 -0.303507 -0.541799 0.707317
internal_count=282 197 134 99 78 85 56 63
shrinkage=0.339994


Tree=28
num_leaves=10
num_cat=0
split_feature=26 54 53 61 43 32 14 31 1
split_gain=0.160281 0.123084 0.120307 0.156681 0.118468 0.117204 0.107862 0.0980597 0.0481405
threshold=1.4644415270772952e-06 0.03178064832538386 0.032638430670098854 0.033129240039617508 0.03345204014277086 7.494630042361957e-07 0.033879704886188459 2.8017906475682406e-06 0.03748856649811471
decision_type=2 2 2 2 2 2 2 2 2
left_child=1 -1 5 7 -2 -3 -6 8 -4
right_child=4 2 3 -5 6 -7 -8 -9 -10
leaf_value=0.26002453183472957 0.12021355133937003 0.10943891456878178 0.076956352641220402 -0.12766766548783501 -0.31960695986712401 -0.23334337989547474 -0.0092352018520738283 -0.011629073178062051 0.30550948472298728
leaf_count=27 23 23 21 36 33 37 24 24 34
internal_value=0 0.154299 0.045614 0.230201 -0.397493 -0.355318 -0.609044 0.458635 0.696151
internal_count=282 202 175 115 80 60 57 79 55
shrinkage=0.339994


Tree=29
num_leaves=9
num_cat=0
split_feature=20 35 5 88 29 3 69 16
split_gain=0.135807 0.161521 0.130855 0.163731 0.12262 0.110977 0.125633 0.110896
threshold=3.2373846954245856e-06 2.2681185490711552e-06 0.062943853924466511 0.032675647313178312 2.6585656056841006e-06 0.062542057789840622 0.031188736789150254 0.050418274494659757
decision_type=2 2 2 2 2 2 2 2
left_child=2 5 -1 4 -4 6 -2 -5
right_child=1 -3 3 7 -6 -7 -8 -9
leaf_value=-0.32591524151048357 0.23973330078894431 -0.1594883816367883 0.27486145487525421 -0.30194766190511024 -0.092523034768349943 0.30111385901272669 -0.063265961660211256 0.020551116941654457
leaf_count=34 29 21 24 41 23 48 40 22
internal_value=0 0.230644 -0.25244 -0.0807026 0.37151 0.417168 0.165097 -0.476541
internal_count=282 138 144 110 47 117 69 63
shrinkage=0.339994


Tree=30
num_leaves=9
num_cat=0
split_feature=27 97 24 22 5 59 89 10
split_gain=0.148254 0.130155 0.124276 0.120562 0.0729887 0.0572379 0.0571657 0.00385706
threshold=2.6605047113249756e-06 0.031243749052650153 3.2561662963341804e-07 1.9040536824541001e-06 0.08350115246305391 0.033318251402158959 0.033739011611649605 0.075793497363359705
decision_type=2 2 2 2 2 2 2 2
left_child=1 4 3 6 -1 7 -2 -3
right_child=2 5 -4 -5 -6 -7 -8 -9
leaf_value=-0.10667573203817209 0.33263041966682494 -0.17955517337486923 -0.061487830331746679 -0.031311920384268756 0.20477486528543984 -0.04303805057940583 0.065904897070243884 -0.32857329491837384
leaf_count=22 60 22 33 24 23 31 24 43
internal_value=0 -0.316942 0.230119 0.48242 0.166466 -0.627555 0.760357 -0.859545
internal_count=282 141 141 108 45 96 84 65
shrinkage=0.339994


Tree=31
num_leaves=9
num_cat=0
split_feature=9 77 7 36 84 32 83 27
split_gain=0.102363 0.153657 0.153472 0.104307 0.114319 0.116642 0.061707 0.0537246
threshold=0.066725264553476757 0.034952249416631657 0.074115243945568857 2.0171219416387408e-06 0.033763912061317354 7.7323814766911914e-07 0.033667424784722857 2.6605047113249756e-06
decision_type=2 2 2 2 2 2 2 2
left_child=3 2 -2 4 5 -1 -4 -5
right_child=1 -3 6 7 -6 -7 -8 -9
leaf_value=0.12385075019379262 -0.22947426008923427 -0.29377508569398109 0.0010486146312918224 0.045766645659122598 0.18756555026821262 -0.26077962541799049 0.29094666190232876 0.29187370924053146
leaf_count=21 40 33 24 25 34 36 23 46
internal_value=0 -0.265372 0.0485663 0.210996 -0.0684578 -0.382202 0.441655 0.568058
internal_count=282 120 87 162 91 57 47 71
shrinkage=0.339994


Tree=32
num_leaves=10
num_cat=0
split_feature=20 18 78 18 20 98 3 19 74
split_gain=0.0983887 0.102768 0.118715 0.0767213 0.0968734 0.0562318 0.0501756 0.0212442 0.0202664
threshold=3.2020842704814854e-06 0.018130478317598151 0.033097184439621057 0.033370303147473503 2.1058967566208655e-06 0.031755957649413503 0.056313289683798007 0.072309551002002412 0.035052568817491504
decision_type=2 2 2 2 2 2 2 2 2
left_child=3 5 -3 4 -1 -2 -6 -4 -5
right_child=1 2 7 8 6 -7 -8 -9 -10
leaf_value=-0.25362819410780651 -0.2081650246559327 -0.075647625845098154 0.14394289484494818 -0.31892300173869759 -0.049480252071938777 0.085830151762407131 0.20686598733154543 0.32739704481863674 -0.096628634018716145
leaf_count=31 21 23 28 31 24 26 30 43 25
internal_value=0 0.229341 0.472652 -0.270644 -0.0157965 -0.24834 0.260861 0.75813 -0.700887
internal_count=282 141 94 141 85 47 54 71 56
shrinkage=0.339994


Tree=33
num_leaves=9
num_cat=0
split_feature=11 4 7 51 97 3 89 14
split_gain=0.069805 0.076071 0.0686423 0.103999 0.0727968 0.0614935 0.0980516 0.019369
threshold=0.083386611690088222 0.0031967388989720155 0.074115243945568857 0.033707062014519257 0.031039617522813905 0.054709228806961906 0.032807222667310502 0.029872715126998402
decision_type=2 2 2 2 2 2 2 2
left_child=2 -2 4 7 -1 -6 -7 -4
right_child=1 -3 3 -5 5 6 -8 -9
leaf_value=0.12830328960782736 0.043757349019813339 -0.30961299395746117 0.095942162261576369 -0.042122330894293548 -0.29666170478744419 -0.2123040918231788 0.17188568538409491 0.32374795143372609
leaf_count=31 30 36 22 33 30 34 23 43
internal_value=0 -0.451988 0.110904 0.385427 -0.106657 -0.341228 -0.0614539 0.777689
internal_count=282 66 216 98 118 87 57 65
shrinkage=0.339994


Tree=34
num_leaves=9
num_cat=0
split_feature=20 6 33 69 27 78 10 91
split_gain=0.0606937 0.0791189 0.0617719 0.0578286 0.0537163 0.0540985 0.02156 0.000984995
threshold=3.2020842704814854e-06 0.026651661856095351 9.8000980441852631e-07 0.029921759430635655 2.7285708853707156e-06 0.033731653247833955 0.073358389781977965 0.032882565467840456
decision_type=2 2 2 2 2 2 2 2
left_child=1 -1 -2 -3 5 -4 -5 -6
right_child=2 3 4 6 7 -7 -8 -9
leaf_value=0.073944647214564452 -0.07450240743548682 0.060059178687816808 -0.13080882560014534 -0.079326641183985941 0.31296456809502377 0.17234629180900982 -0.32205062137898166 0.15210738846099248
leaf_count=39 41 21 21 21 35 23 60 21
internal_value=0 -0.242842 0.201635 -0.540092 0.414519 0.0931615 -0.760124 0.80297
internal_count=282 141 141 102 100 44 81 56
shrinkage=0.339994


Tree=35
num_leaves=10
num_cat=0
split_feature=83 63 82 94 0 51 2 98 32
split_gain=0.0539912 0.0539827 0.0509264 0.104285 0.0457282 0.0356163 0.0235927 0.0189149 0.00809055
threshold=0.034383921522261308 0.030568086684680102 0.033125351307389507 0.031305735362463956 0.10018816534518651 0.034254606111709107 0.043997340729806357 0.032616228746806607 7.3368292760969958e-07
decision_type=2 2 2 2 2 2 2 2 2
left_child=1 -1 5 -4 8 7 -2 -3 -5
right_child=6 2 3 4 -6 -7 -8 -9 -10
leaf_value=-0.18801551816893072 0.29733781854951447 0.28010316357026116 0.17659557668689252 -0.092600511950739151 0.0063415625340111897 -0.097103010441386972 0.036247235697906104 0.036773487198963797 -0.28581895973599925
leaf_count=34 25 32 29 22 28 22 26 21 43
internal_value=0 -0.0970714 0.025152 -0.153483 -0.454381 0.398479 0.495276 0.593991 -0.71321
internal_count=282 231 197 122 93 75 51 53 65
shrinkage=0.339994


Tree=36
num_leaves=9
num_cat=0
split_feature=4 29 7 5 93 53 53 79
split_gain=0.0484019 0.0553041 0.0503976 0.0637331 0.0516065 0.0453011 0.045358 0.0186535
threshold=0.0014731784206209752 2.9491898062359052e-06 0.054455458184793207 0.072510840090415363 0.031627541900925857 0.032848515895519813 0.034198646610183313 0.033427006735571009
decision_type=2 2 2 2 2 2 2 2
left_child=1 7 -2 4 -4 -5 -7 -1
right_child=2 -3 3 5 -6 6 -8 -9
leaf_value=0.037824489367432587 -0.294296187958552 -0.081033744588431017 0.062749774724029331 -0.084126412941452788 -0.24492204476579932 0.26476138628700985 -0.020909543772630452 0.29313690791061059
leaf_count=22 52 23 21 24 35 42 22 41
internal_value=0 0.346831 -0.135864 -0.0341976 -0.413025 0.222666 0.464924 0.655157
internal_count=282 86 196 144 56 88 64 63
shrinkage=0.339994


Tree=37
num_leaves=10
num_cat=0
split_feature=20 88 39 52 80 49 54 11 13
split_gain=0.0416556 0.0558795 0.0467995 0.0553217 0.0459628 0.0341882 0.0311601 0.011837 0.00684456
threshold=2.9151861184584455e-06 0.033120793428014758 2.2846316578072055e-06 0.033820429924558811 0.033016847852485508 0.033932638352562106 0.033153177585517161 0.073063057970614062 0.046027185746001002
decision_type=2 2 2 2 2 2 2 2 2
left_child=1 5 -2 4 -4 -1 -6 -5 -3
right_child=2 8 3 7 6 -7 -8 -9 -10
leaf_value=-0.14940017799637295 -0.15079494869897006 -0.30540011103886128 0.24045171578304897 0.29387880347691631 0.071634933160278996 0.14902560927231873 -0.1724448373272022 0.084892501830306999 -0.050876061788135155
leaf_count=31 23 36 23 45 23 25 30 24 22
internal_value=0 -0.298134 0.157509 0.286544 0 0.075583 -0.21066 0.676963 -0.770576
internal_count=282 114 168 145 76 56 53 69 58
shrinkage=0.339994


Tree=38
num_leaves=10
num_cat=0
split_feature=9 77 27 75 7 50 53 78 81
split_gain=0.0372174 0.0461653 0.0446518 0.0489398 0.0436623 0.0317117 0.0229972 0.020193 0.00133794
threshold=0.06732957024398202 0.03501960239646091 2.6605047113249756e-06 0.034416431551819407 0.074115243945568857 0.032973485030496956 0.03291903061074581 0.034381172171483107 0.032921640002586357
decision_type=2 2 2 2 2 2 2 2 2
left_child=2 4 3 -1 -2 -4 -5 -6 -7
right_child=1 -3 5 6 7 8 -8 -9 -10
leaf_value=-0.28369042194312966 -0.17537154816225417 -0.26634579001557585 -0 -0.074084972427404125 0.0015899461036165184 0.12339694096605865 0.1552999661910679 0.27453288502801115 0.3038365558704485
leaf_count=31 40 29 31 27 23 21 30 22 28
internal_value=0 -0.255153 0.183714 -0.105002 0 0.500587 0.147739 0.363072 0.768785
internal_count=282 114 168 88 85 80 57 45 49
shrinkage=0.339994


Tree=39
num_leaves=9
num_cat=0
split_feature=20 11 80 78 9 11 6 76
split_gain=0.0338161 0.0440739 0.035276 0.0285096 0.0226715 0.0207245 0.0184794 0.00303072
threshold=3.2020842704814854e-06 0.054435759891727505 0.034752020773144161 0.033115802257576356 0.050641877397576057 0.078093290505086913 0.025846480099517202 0.034236744624110908
decision_type=2 2 2 2 2 2 2 2
left_child=1 -1 3 -2 -3 7 -6 -5
right_child=2 4 -4 5 6 -7 -8 -9
leaf_value=0.12656103174722311 -0.026217531851154493 0.01734037438516562 -0.09510370495975877 0.30389180530872273 -0.03600259537086619 -0 -0.29250907609817667 0.12611438650035492
leaf_count=22 24 25 31 44 21 21 73 21
internal_value=0 -0.240074 0.199708 0.379345 -0.460756 0.57749 -0.631851 0.740037
internal_count=282 141 141 110 119 86 94 65
shrinkage=0.339994


Tree=40
num_leaves=10
num_cat=0
split_feature=4 78 53 76 81 87 81 42 55
split_gain=0.0321119 0.0273208 0.0324353 0.0364826 0.0328416 0.0268549 0.0233762 0.0020642 0.000622057
threshold=0.0014731784206209752 0.032913457566135708 0.032554811004307758 0.033693979126440357 0.033305574258546557 0.033371829733241307 0.033858595926375204 0.034249339872626759 0.032851833543918303
decision_type=2 2 2 2 2 2 2 2 2
left_child=6 -2 4 7 -3 -5 8 -4 -1
right_child=1 2 3 5 -6 -7 -8 -9 -10
leaf_value=0.061396067246952332 -0.19431623029927916 -0.28554400749063669 0.08880045894960889 -0.14969315177518225 0.045761138860598752 0.14448359170117825 -0.0014030866909276903 0.27717533253547122 0.26055252445049504
leaf_count=21 41 22 26 28 31 22 29 26 36
internal_value=0 -0.135844 0 0.215355 -0.407846 -0.110376 0.357091 0.651587 0.678633
internal_count=282 196 155 102 53 50 86 52 57
shrinkage=0.339994


Tree=41
num_leaves=9
num_cat=0
split_feature=12 7 0 31 4 54 51 84
split_gain=0.0286504 0.0306895 0.0388829 0.0325822 0.0239186 0.0130896 0.00792665 0.00212062
threshold=0.03345055807812871 0.079290406024922364 0.10104460153845903 2.1700328025255155e-06 0.006261742893530666 0.032409224982869106 0.032598730541561656 0.034415601243481905
decision_type=2 2 2 2 2 2 2 2
left_child=1 2 3 -1 -3 -5 -7 -8
right_child=-2 4 -4 5 -6 6 7 -9
leaf_value=0.082649195907266132 -0.19887289062855898 0.27134338192651697 0.19109180040891247 -0 0.015072840963534449 -0.026305778608180445 -0.29649138806545389 -0.075024288143831053
leaf_count=24 27 56 29 25 33 21 46 21
internal_value=0 0.0940449 -0.0834848 -0.262722 0.419439 -0.489348 -0.631552 -0.762377
internal_count=282 255 166 137 89 113 88 67
shrinkage=0.339994


Tree=42
num_leaves=11
num_cat=0
split_feature=12 35 0 74 43 43 9 95 11 52
split_gain=0.0206899 0.0258848 0.0290896 0.0196566 0.0192361 0.0207766 0.0184435 0.0142621 0.0112752 0.00800223
threshold=0.014374281633049451 2.3778443477678302e-06 0.099016277996263363 0.034582480168910905 0.032821217892539507 0.034515370186752513 0.066049465575975963 0.032022712804415959 0.078093290505086913 0.034141290415242657
decision_type=2 2 2 2 2 2 2 2 2 2
left_child=8 2 4 -4 7 9 -7 -2 -1 -6
right_child=1 -3 3 -5 5 6 -8 -9 -10 -11
leaf_value=0.24517204073000115 0.22845480552743955 -0.23893600995227962 -0.0069335029499095393 0.27381210968685882 -0.2475975748308705 0.13031170522295923 -0.13699868941346105 -0.036959977753365007 -0 -0.021828006790374711
leaf_count=24 21 21 21 33 50 25 24 21 21 21
internal_value=0 -0.0778858 0.00794093 0.466711 -0.143579 -0.292151 0.0166214 0.269782 0.474658 -0.561901
internal_count=282 237 216 54 162 120 49 42 45 71
shrinkage=0.339994


Tree=43
num_leaves=10
num_cat=0
split_feature=4 5 6 16 46 20 39 4 70
split_gain=0.0209676 0.0222357 0.0191674 0.0186967 0.0183302 0.0166491 0.0111513 0.00910887 0.00738541
threshold=0.0045276331343082109 0.072510840090415363 0.026651661856095351 0.040848227037885258 0.033208657694437857 3.9226590383160259e-06 2.8985717934379505e-06 0.0064230906686661505 0.036083718675215058
decision_type=2 2 2 2 2 2 2 2 2
left_child=2 4 8 -3 -2 6 -4 -5 -1
right_child=1 3 5 7 -6 -7 -8 -9 -10
leaf_value=0.27292283268479184 0.017190664735138531 -0.14701973547960021 -0.17018391533333105 -0.025075636025401599 -0.25442345687776929 0.20458009339271885 0.025500390988679809 0.17603713562856821 0.0083038825219593979
leaf_count=32 21 21 38 21 39 25 30 34 21
internal_value=0 -0.195532 0.228874 0.0715353 -0.508533 -0 -0.184826 0.328681 0.601607
internal_count=282 136 146 76 60 93 68 55 53
shrinkage=0.339994


Tree=44
num_leaves=9
num_cat=0
split_feature=27 65 49 51 97 54 77 56
split_gain=0.0173706 0.0221514 0.0180421 0.0197527 0.0175789 0.0123445 0.00879571 0.00633325
threshold=2.6605047113249756e-06 0.030076135784987502 0.034673916491977305 0.033602223781895806 0.031243749052650153 0.032409224982869106 0.033735482463236509 0.032565956117710806
decision_type=2 2 2 2 2 2 2 2
left_child=4 -2 3 6 7 -6 -3 -1
right_child=1 2 -4 -5 5 -7 -8 -9
leaf_value=0.13223365642975204 -0.12494056722309327 0 0.27513197958340668 -0.079422432430796233 0 -0.2313950411918464 0.25520658581842054 -0.042036555574896842
leaf_count=23 23 21 38 31 21 75 28 22
internal_value=0 0.185854 0.344442 0.109151 -0.223558 -0.477254 0.476254 0.125568
internal_count=282 141 118 80 141 96 49 45
shrinkage=0.339994


Tree=45
num_leaves=9
num_cat=0
split_feature=20 4 88 17 58 6 37 96
split_gain=0.0156433 0.0167141 0.0158162 0.0172847 0.0104041 0.0072277 0.00379568 0.00214919
threshold=2.1058967566208655e-06 0.0014731784206209752 0.032715811235237903 0.0060835000288598055 0.031907778472559059 0.035936885884553807 3.4255858160714655e-07 0.032304340546637958
decision_type=2 2 2 2 2 2 2 2
left_child=6 5 4 -4 -3 -2 -1 -5
right_child=1 2 3 7 -6 -7 -8 -9
leaf_value=-0.21422335110266547 0.21358296684566727 -0.018000557064043424 0.036996138316796191 -0.24975825651168015 0.17075870520590047 0 0 -0.051386049716261373
leaf_count=35 51 28 39 21 38 27 22 21
internal_value=0 0.0969744 -0.0357282 -0.276299 0.223811 0.449577 -0.485921 -0.573164
internal_count=282 225 147 81 66 78 57 42
shrinkage=0.339994


Tree=46
num_leaves=9
num_cat=0
split_feature=27 83 69 5 9 59 41 57
split_gain=0.0126324 0.0170255 0.0161279 0.0135908 0.00938615 0.00725484 0.00790218 0.000674559
threshold=2.6605047113249756e-06 0.033691932110626106 0.032365152175857156 0.091918406567815664 0.070541461384887219 0.033855144476720007 0.037098153254242101 0.032539093238006557
decision_type=2 2 2 2 2 2 2 2
left_child=3 2 4 5 -2 6 -1 -3
right_child=1 7 -4 -5 -6 -7 -8 -9
leaf_value=-0.25296931886104468 0.0051395217978616103 0.050805535583171323 0.17296892433294242 0.069346590334566152 -0.18163304596963695 0 -0 0.24181626789866717
leaf_count=60 34 21 29 33 26 27 21 31
internal_value=0 0.175994 -0.0206619 -0.203405 -0.241307 -0.394094 -0.54838 0.576495
internal_count=282 141 89 141 60 108 81 52
shrinkage=0.339994


Tree=47
num_leaves=9
num_cat=0
split_feature=9 2 36 12 83 84 91 90
split_gain=0.0119493 0.0229938 0.0155555 0.0137746 0.0129289 0.011152 0.00511833 0.00401509
threshold=0.066049465575975963 0.049649335854192157 2.0171219416387408e-06 0.027537807517903305 0.033839497237459361 0.033763912061317354 0.032600489316777413 0.032659214372220004
decision_type=2 2 2 2 2 2 2 2
left_child=2 3 4 7 5 -1 -4 -2
right_child=1 -3 6 -5 -6 -7 -8 -9
leaf_value=-0.18826298679623529 0.21523202892969304 -0.22346043996611953 0.2412469564425625 -0.1026941237179915 0.14674002905710931 0.045975599041981639 0.02101617672566277 0
leaf_count=40 22 59 36 21 24 25 34 21
internal_value=0 -0.203123 0.181365 0.116559 -0.0567283 -0.287257 0.503439 0.446505
internal_count=282 123 159 64 89 65 70 43
shrinkage=0.339994


Tree=48
num_leaves=10
num_cat=0
split_feature=20 43 88 8 82 63 14 13 35
split_gain=0.0107903 0.010343 0.00970942 0.00932188 0.0127493 0.0100184 0.00541503 0.00240024 0.00148199
threshold=2.9151861184584455e-06 0.032821217892539507 0.033120793428014758 0.014319413095490651 0.034645834406226657 0.032517105415054003 0.032591401421775461 0.046027185746001002 1.7187801081813252e-06
decision_type=2 2 2 2 2 2 2 2 2
left_child=2 8 6 -3 5 -5 -1 -4 -2
right_child=1 3 7 4 -6 -7 -8 -9 -10
leaf_value=-0.10655804204176704 0.021152014779757759 0.13495064739867618 -0.23528803344209667 -0.19783183435491311 0.11398290620954819 0.025413224799930145 0.086884816991283254 -0 0.23089746696047522
leaf_count=25 21 35 36 35 25 24 31 22 28
internal_value=0 0.159371 -0.241924 0 -0.141627 -0.359008 0.00693449 -0.565894 0.526774
internal_count=282 168 114 119 84 59 56 58 49
shrinkage=0.339994


Tree=49
num_leaves=9
num_cat=0
split_feature=7 9 54 77 5 14 97 80
split_gain=0.00980181 0.0113048 0.0105577 0.012169 0.00861351 0.00819652 0.00387432 0.00246583
threshold=0.074115243945568857 0.06581999254095007 0.034397437326250759 0.034702060858339358 0.088126230409425368 0.040628370108382557 0.031039617522813905 0.033655718735110557
decision_type=2 2 2 2 2 2 2 2
left_child=1 4 3 -2 5 7 -3 -1
right_child=2 6 -4 -5 -6 -7 -8 -9
leaf_value=-0.19675212685698776 0.22887967305702911 -0 -0.061690370340819312 -0.016406115033983808 0.14908812987965295 0.063487156026078947 -0.23527806415044231 -0
leaf_count=26 66 21 26 22 35 21 44 21
internal_value=0 -0.138455 0.244142 0.430698 0.0372195 -0.130907 -0.500564 -0.410118
internal_count=282 168 114 88 103 68 65 47
shrinkage=0.339994


Tree=50
num_leaves=8
num_cat=0
split_feature=20 11 32 49 39 59 18
split_gain=0.00846572 0.0095107 0.00820371 0.0073234 0.00669846 0.00934684 0.00252315
threshold=3.2020842704814854e-06 0.054435759891727505 1.1094676953477254e-06 0.034126229011271506 2.8725843814894502e-06 0.033004394709971609 0.013940215583638801
decision_type=2 2 2 2 2 2 2
left_child=1 -1 4 -3 5 -2 -6
right_child=2 3 -4 -5 6 -7 -8
leaf_value=0.073753893910093751 -0.10432160724779095 -0.20092871656665137 -0.066349659301704667 0 0.0073183862970882876 0.15145032245227313 0.24143436031160231
leaf_count=22 21 80 28 39 22 23 47
internal_value=0 -0.193393 0.176927 -0.372523 0.322701 0 0.556899
internal_count=282 141 141 119 113 44 69
shrinkage=0.339994


Tree=51
num_leaves=8
num_cat=0
split_feature=4 77 27 19 80 40 66
split_gain=0.00779803 0.00742179 0.00739988 0.00807439 0.00763141 0.00498399 0.0037537
threshold=0.006645260440919956 0.033321207169107456 2.7285708853707156e-06 0.057614166546748509 0.034793146720555355 0.036180520435395207 0.031201605349798402
decision_type=2 2 2 2 2 2 2
left_child=2 -2 3 -1 -4 -3 -5
right_child=1 5 4 6 -6 -7 -8
leaf_value=-0.15199681939249121 0.043942483097656471 -0.20367989491389724 0.21970696787124894 -0.031553252698573474 -0 0 0.11748966913641233
leaf_count=43 28 39 66 21 25 21 39
internal_value=0 -0.212914 0.162434 -0.017947 0.410223 -0.411969 0.16828
internal_count=282 88 194 103 91 60 60
shrinkage=0.339994


Tree=52
num_leaves=10
num_cat=0
split_feature=16 75 65 64 85 66 7 0 67
split_gain=0.00651086 0.0108029 0.00641855 0.00441231 0.00373568 0.00354497 0.00232908 0.00216005 0.000169789
threshold=0.048822634369250002 0.035824359713905157 0.031906580084031307 0.03290911660383871 0.033578380857909707 0.031245390453004653 0.080812635387152318 0.094409120198812466 0.032768161484010058
decision_type=2 2 2 2 2 2 2 2 2
left_child=1 7 4 8 6 -3 -2 -1 -4
right_child=2 5 3 -5 -6 -7 -8 -9 -10
leaf_value=-0.21793370771949502 -0.15832011525896181 -0.017035175707252694 0.21785945660214731 -0 0.057924275626269436 0.13682322865928148 0 -0.012051705453916733 0.032704041360299703
leaf_count=64 22 22 39 25 24 21 21 22 22
internal_value=0 -0.184429 0.165336 0.373559 -0.0531955 0.145488 -0.281616 -0.475258 0.515515
internal_count=282 129 153 86 67 43 43 86 61
shrinkage=0.339994


Tree=53
num_leaves=9
num_cat=0
split_feature=24 31 47 29 89 51 65 50
split_gain=0.00489129 0.00628707 0.005762 0.00502657 0.00477886 0.00385372 0.00342557 0.0022852
threshold=7.4360996595526272e-08 2.6941452128164553e-06 0.033451337987202061 2.9491898062359052e-06 0.032823791554162859 0.032780998506589457 0.032691692839717811 0.033311321276188008
decision_type=2 2 2 2 2 2 2 2
left_child=3 2 4 7 -2 -3 -4 -1
right_child=1 5 6 -5 -6 -7 -8 -9
leaf_value=0 -0.0028990815986323771 -0 -0.12898431992671811 -0.025958627230079211 0.17954494059476062 -0.19391460580021511 0.013374477438021552 0.18841987181872813
leaf_count=24 23 24 28 26 30 57 28 42
internal_value=0 -0.100636 0.0377346 0.235638 0.309486 -0.376257 -0.157155 0.427283
internal_count=282 190 109 92 53 81 56 66
shrinkage=0.339994


Tree=54
num_leaves=8
num_cat=0
split_feature=26 74 80 0 50 52 84
split_gain=0.00454445 0.00552451 0.00469158 0.00481989 0.00430767 0.00351165 0.000655562
threshold=1.4410009135462902e-06 0.034504375659649554 0.034752020773144161 0.07239693804576712 0.033311321276188008 0.034484726797263311 0.033630192973328109
decision_type=2 2 2 2 2 2 2
left_child=1 4 3 -3 -1 6 -2
right_child=5 2 -4 -5 -6 -7 -8
leaf_value=-0.13006804253651807 -0.16475790572360591 -0 -0.011648240403059009 0.19024481143180438 0.032764599810993833 0.016618331257329276 -0
leaf_count=36 36 32 25 70 36 22 25
internal_value=0 0.103128 0.271621 0.409508 -0.11436 -0.237149 -0.387806
internal_count=282 199 127 102 72 83 61
shrinkage=0.339994


Tree=55
num_leaves=9
num_cat=0
split_feature=36 9 85 31 22 91 32 91
split_gain=0.00407107 0.00573916 0.00451847 0.00491902 0.00256694 0.00243398 0.00224374 0.00129659
threshold=2.0171219416387408e-06 0.066725264553476757 0.032774466085923402 2.4232379886401054e-06 1.9040536824541001e-06 0.032600489316777413 7.8208128865286207e-07 0.031766930841639056
decision_type=2 2 2 2 2 2 2 2
left_child=2 5 6 -4 -3 -2 -1 -5
right_child=1 4 3 7 -6 -7 -8 -9
leaf_value=0.116581507255117 0.18804396977884308 0.016946837190606925 0 -0 -0.12372967330483614 0 -0.014652342805666007 -0.20030445739498925
leaf_count=24 37 32 33 21 23 34 27 51
internal_value=0 0.15749 -0.146157 -0.299904 -0.0943781 0.384686 0.102434 -0.482446
internal_count=282 126 156 105 55 71 51 72
shrinkage=0.339994


Tree=56
num_leaves=9
num_cat=0
split_feature=7 38 0 22 84 22 54 85
split_gain=0.00410717 0.00477648 0.00425578 0.00410838 0.00405943 0.00417973 0.00276765 0.000921722
threshold=0.074115243945568857 6.4209190248954515e-07 0.10104460153845903 1.7418408697791252e-06 0.034259401699198409 1.7313932026035101e-06 0.033857676965826054 0.032925867858183154
decision_type=2 2 2 2 2 2 2 2
left_child=2 -2 4 6 5 -1 -3 -7
right_child=1 3 -4 -5 -6 7 -8 -9
leaf_value=-0.19829222236953253 -0.04825226295617091 0.21827202206905688 0.062057518263502476 -0 0.017272684534932543 0.040975046427411406 0 -0.057145814968902149
leaf_count=50 24 43 26 26 35 21 21 36
internal_value=0 0.174907 -0.140942 0.339774 -0.259364 -0.38076 0.490629 -0
internal_count=282 114 168 90 142 107 64 57
shrinkage=0.339994


Tree=57
num_leaves=8
num_cat=0
split_feature=12 7 75 11 2 9 54
split_gain=0.00353673 0.00377223 0.00370762 0.00401571 0.00344434 0.002619 0.00147473
threshold=0.03345055807812871 0.079290406024922364 0.034416431551819407 0.064203629776621265 0.049422485731898551 0.054267227675112002 0.033857676965826054
decision_type=2 2 2 2 2 2 2
left_child=1 2 -1 -4 6 -5 -3
right_child=-2 4 3 5 -6 -7 -8
leaf_value=-0.11869788801347567 -0.11707494483212764 0.19632167870263204 0.10865203168040985 0.030441884755244179 -0 -0.10914387533774937 0
leaf_count=54 27 45 38 23 22 51 22
internal_value=0 0.0670838 -0.0364666 0.0614545 0.285869 -0.114978 0.4455
internal_count=282 255 166 112 89 74 67
shrinkage=0.339994


Tree=58
num_leaves=7
num_cat=0
split_feature=24 0 27 22 28 61
split_gain=0.00282224 0.00463668 0.00314706 0.00265284 0.00261037 0.00251307
threshold=3.3998726818575354e-07 0.10104460153845903 2.7285708853707156e-06 1.9040536824541001e-06 7.5776950987140908e-07 0.032239363379810509
decision_type=2 2 2 2 2 2
left_child=1 2 5 -4 -2 -1
right_child=4 -3 3 -5 -6 -7
leaf_value=0 -0.13742912305897051 0.15121226923411552 0.12668781717013416 -0.0052986784295215653 0 -0.12612511395552317
leaf_count=33 35 56 45 23 26 64
internal_value=0 0.0898113 -0.00255207 0.163929 -0.211653 -0.19755
internal_count=282 221 165 68 61 97
shrinkage=0.339994


Tree=59
num_leaves=8
num_cat=0
split_feature=9 77 42 60 27 7 6
split_gain=0.00311561 0.00442793 0.00391737 0.00486457 0.00227344 0.00125434 0.00019362
threshold=0.066049465575975963 0.03501960239646091 0.034249339872626759 0.033139182734342555 2.4305465953695901e-06 0.074115243945568857 0.04223319810447581
decision_type=2 2 2 2 2 2 2
left_child=2 5 4 6 -1 -2 -4
right_child=1 -3 3 -5 -6 -7 -8
leaf_value=-0.1144873849183153 -0.043687763552003496 -0.16502549587937887 0.18983860622477872 -0.021998762188556984 0.02144023660362411 0.059081556809529902 0.0030488532295964732
leaf_count=38 42 32 33 25 40 49 23
internal_value=0 -0.170616 0.130162 0.298954 -0.0943412 0 0.470156
internal_count=282 123 159 81 78 91 56
shrinkage=0.339994


Tree=60
num_leaves=7
num_cat=0
split_feature=24 56 31 9 94 39
split_gain=0.00250871 0.00211652 0.00358993 0.00205005 0.00167775 0.00116145
threshold=7.4360996595526272e-08 0.033704218635205209 2.1962966125245603e-06 0.069700828346645274 0.032112265811500555 3.489956191270295e-06
decision_type=2 2 2 2 2 2
left_child=3 2 -2 -1 -3 -4
right_child=1 4 5 -5 -6 -7
leaf_value=0.11789645705243904 0.01401674186628986 0.089951422222861774 -0.15952624428647208 -0 -0.025019123764936455 -0
leaf_count=63 31 24 83 29 27 25
internal_value=0 -0.0955876 -0.212065 0.198095 0.0539365 -0.371281
internal_count=282 190 139 92 51 108
shrinkage=0.339994


Tree=61
num_leaves=7
num_cat=0
split_feature=20 35 67 88 35 78
split_gain=0.00220535 0.00356098 0.00271407 0.00189968 0.00162498 0.000207675
threshold=2.9151861184584455e-06 2.2681185490711552e-06 0.031969410980427306 0.032675647313178312 1.7927252349028502e-06 0.033816845425506205
decision_type=2 2 2 2 2 2
left_child=3 2 5 -1 -4 -2
right_child=1 -3 4 -5 -6 -7
leaf_value=0 0 -0.064897288031377384 -0.053127922313504959 -0.1236919207333888 0.072376562999176261 0.16920241430545616
leaf_count=47 22 26 41 67 34 45
internal_value=0 0.0957179 0.225058 -0.178545 0 0.406721
internal_count=282 168 142 114 75 67
shrinkage=0.339994


Tree=62
num_leaves=6
num_cat=0
split_feature=12 20 85 12 80
split_gain=0.00166343 0.00267805 0.00203222 0.00306606 0.00134544
threshold=0.030980709647553704 3.904649797486196e-06 0.032774466085923402 0.024508277738394604 0.034126849510325304
decision_type=2 2 2 2 2
left_child=1 2 4 -4 -1
right_child=-2 -3 3 -5 -6
leaf_value=-0 -0.076022508271803874 0.10653977557649502 -0.12537665541606283 0.013678434555191374 0.10062823723677498
leaf_count=36 42 64 79 32 29
internal_value=0 0.0619023 -0.0120268 -0.171581 0.130633
internal_count=282 240 176 111 65
shrinkage=0.339994


Tree=63
num_leaves=6
num_cat=0
split_feature=9 77 60 42 84
split_gain=0.00178563 0.00267358 0.00257252 0.00361392 0.000803457
threshold=0.066049465575975963 0.03501960239646091 0.033506056957626207 0.034249339872626759 0.03263738848929796
decision_type=2 2 2 2 2
left_child=2 4 3 -1 -2
right_child=1 -3 -4 -5 -6
leaf_value=-0.0012591220452437273 0.060100752053774527 -0.13778711878805991 -0.046671377103907057 0.14150954804851612 -0.024572212560196427
leaf_count=63 40 32 35 61 51
internal_value=0 -0.136469 0.110866 0.231016 0
internal_count=282 123 159 124 91
shrinkage=0.339994


Tree=64
num_leaves=5
num_cat=0
split_feature=16 60 9 37
split_gain=0.00178152 0.00235672 0.00263032 0.00201406
threshold=0.040848227037885258 0.03338792828483126 0.069448450019402516 3.1662369677607054e-07
decision_type=2 2 2 2
left_child=-1 2 3 -2
right_child=1 -3 -4 -5
leaf_value=-0.075984965604756455 0.16879965847098469 -0.043784619593037366 -0 0
leaf_count=54 63 68 58 39
internal_value=0 0.0602599 0.184294 0.331746
internal_count=282 228 160 102
shrinkage=0.339994


Tree=65
num_leaves=7
num_cat=0
split_feature=4 27 77 38 90 40
split_gain=0.00139909 0.00224639 0.0015829 0.00102936 0.00068334 0.000204067
threshold=0.006645260440919956 2.6605047113249756e-06 0.033321207169107456 9.5666169745358927e-07 0.032064297367910305 0.035918584853833958
decision_type=2 2 2 2 2 2
left_child=1 3 -2 -1 -3 -4
right_child=2 4 5 -5 -6 -7
leaf_value=0.012067487764956497 0 0 -0.12305022353728481 -0.06896191729599381 0.12310858805816523 -0
leaf_count=32 28 33 34 65 64 26
internal_value=0 0.0735048 -0.152533 -0.0515342 0.260642 -0.282805
internal_count=282 194 88 97 97 60
shrinkage=0.339994


Tree=66
num_leaves=6
num_cat=0
split_feature=31 99 5 3 32
split_gain=0.00117426 0.00179223 0.00201356 0.00166652 0.000941487
threshold=3.0500717060755857e-06 0.031614526534243508 0.074882260044662266 0.056313289683798007 9.2773893291031955e-07
decision_type=2 2 2 2 2
left_child=1 2 -1 -3 -2
right_child=4 3 -4 -5 -6
leaf_value=-0 0 -0.09246889866043792 0.12432664909748442 0.016698947405038057 -0.10407059883109518
leaf_count=36 49 40 55 76 26
internal_value=0 0.0558448 0.218279 -0.0432124 -0.171802
internal_count=282 207 91 116 75
shrinkage=0.339994


Tree=67
num_leaves=6
num_cat=0
split_feature=20 15 67 14 27
split_gain=0.0011894 0.00202446 0.00167968 0.000792403 0.000653478
threshold=2.9151861184584455e-06 0.061952801811586709 0.031608345095256458 0.041395275488483305 2.6605047113249756e-06
decision_type=2 2 2 2 2
left_child=3 2 -2 -1 -4
right_child=1 -3 4 -5 -6
leaf_value=-0.088495679320251069 0.12371652668769455 -0.050136441464574653 -0.040890983072198926 0 0.039654788509992815
leaf_count=89 56 23 31 25 58
internal_value=0 0.0620163 0.181526 -0.158205 0
internal_count=282 168 145 114 89
shrinkage=0.339994


Tree=68
num_leaves=5
num_cat=0
split_feature=83 56 69 27
split_gain=0.00116427 0.00155288 0.00180661 0.00124902
threshold=0.033691932110626106 0.033799600976900261 0.032273526994057007 2.6605047113249756e-06
decision_type=2 2 2 2
left_child=1 2 -1 -2
right_child=3 -3 -4 -5
leaf_value=-0.11729005795656215 -0 0.012628446973738746 0 0.09349378408671162
leaf_count=82 50 42 56 52
internal_value=0 -0.103449 -0.217095 0.111984
internal_count=282 180 138 102
shrinkage=0.339994


Tree=69
num_leaves=6
num_cat=0
split_feature=24 78 31 81 81
split_gain=0.00104873 0.00165719 0.000936128 0.000725937 0.000428238
threshold=7.4360996595526272e-08 0.034319188530608009 2.2224866021768556e-06 0.033858595926375204 0.033408336616427108
decision_type=2 2 2 2 2
left_child=3 2 -2 -1 -3
right_child=1 4 -4 -5 -6
leaf_value=0.086838205302172261 0 -0 -0.1023125484229537 -0 0.052221966041641782
leaf_count=63 29 36 85 29 40
internal_value=0 -0.077097 -0.213921 0.141573 0.0432669
internal_count=282 190 114 92 76
shrinkage=0.339994


Tree=70
num_leaves=5
num_cat=0
split_feature=19 2 4 75
split_gain=0.00083918 0.00200681 0.00201476 0.000268162
threshold=0.057614166546748509 0.050040166948415753 0.0093454899622726073 0.034935087400328711
decision_type=2 2 2 2
left_child=-1 2 3 -2
right_child=1 -3 -4 -5
leaf_value=-0.054880442049552253 0 -0.040266213399257865 -0 0.13213240155111183
leaf_count=75 57 54 31 65
internal_value=0 0.0541362 0.183134 0.310928
internal_count=282 207 153 122
shrinkage=0.339994


Tree=71
num_leaves=5
num_cat=0
split_feature=10 76 87 40
split_gain=0.000746249 0.00178095 0.00211106 0.000454409
threshold=0.070274864978306067 0.034439385165631407 0.032976422031919854 0.035047370395244609
decision_type=2 2 2 2
left_child=3 2 -2 -1
right_child=1 -3 -4 -5
leaf_value=0.070176805689774996 0.090010689268109484 -0.090943460485042149 -0.041007568292619673 -0
leaf_count=40 65 62 68 47
internal_value=0 -0.0705441 0.014823 0.115251
internal_count=282 195 133 87
shrinkage=0.339994


Tree=72
num_leaves=6
num_cat=0
split_feature=6 20 60 91 13
split_gain=0.000701185 0.00134308 0.00142011 0.00113728 0.000910167
threshold=0.024811218154698153 3.2373846954245856e-06 0.032048672568525706 0.032016055049887311 0.029852688009093103
decision_type=2 2 2 2 2
left_child=4 3 -3 -2 -1
right_child=1 2 -4 -5 -6
leaf_value=-0 0 -0.036268531843730953 0.07637576158392391 -0.12356711977876807 0.08155236688587629
leaf_count=31 39 30 58 70 54
internal_value=0 -0.0699421 0.01216 -0.223183 0.10999
internal_count=282 197 88 109 85
shrinkage=0.339994


Tree=73
num_leaves=5
num_cat=0
split_feature=27 24 97 9
split_gain=0.00071933 0.00146108 0.00142292 0.000756808
threshold=2.6605047113249756e-06 3.2561662963341804e-07 0.031243749052650153 0.06732957024398202
decision_type=2 2 2 2
left_child=2 3 -1 -2
right_child=1 -3 -4 -5
leaf_value=0.0010578992259173564 0.1157886977008433 -0.015980989628866148 -0.089175647707174191 0
leaf_count=45 62 33 96 46
internal_value=0 0.0730816 -0.105219 0.223076
internal_count=282 141 141 108
shrinkage=0.339994


Tree=74
num_leaves=4
num_cat=0
split_feature=66 91 12
split_gain=0.000550136 0.00142742 0.000989077
threshold=0.031201605349798402 0.032418717516911055 0.021109488577986706
decision_type=2 2 2
left_child=2 -2 -1
right_child=1 -3 -4
leaf_value=0 0.077064162787356685 -0.011300956525523057 -0.080795460988759199
leaf_count=41 87 108 46
internal_value=0 0.0617936 -0.0989717
internal_count=282 195 87
shrinkage=0.339994


Tree=75
num_leaves=4
num_cat=0
split_feature=16 53 76
split_gain=0.000492271 0.00135667 0.00187458
threshold=0.040848227037885258 0.032638430670098854 0.034467699349952703
decision_type=2 2 2
left_child=-1 -2 -3
right_child=1 2 -4
leaf_value=-0.044106361667701058 -0.028927869695933892 0.10661802110747752 -0
leaf_count=54 76 104 48
internal_value=0 0.0394574 0.166397
internal_count=282 228 152
shrinkage=0.339994


Tree=76
num_leaves=4
num_cat=0
split_feature=43 34 3
split_gain=0.000519504 0.00122215 0.000915273
threshold=0.032964418485914061 1.6213964934438151e-06 0.065804447916820566
decision_type=2 2 2
left_child=-1 2 -2
right_child=1 -3 -4
leaf_value=0.031689768882910856 -0.093152660787167163 0.016817005876391494 0
leaf_count=81 104 52 45
internal_value=0 -0.0702385 -0.180362
internal_count=282 201 149
shrinkage=0.339994


Tree=77
num_leaves=5
num_cat=0
split_feature=25 99 72 82
split_gain=0.000419846 0.00115781 0.00115436 0.000571228
threshold=2.5243932250912155e-06 0.031614526534243508 0.036576607431518457 0.033125351307389507
decision_type=2 2 2 2
left_child=-1 2 -2 -3
right_child=1 3 -4 -5
leaf_value=-0.037501526285101935 0.1081693145830384 0 -0 -0.058954414285182798
leaf_count=72 72 52 29 57
internal_value=0 0.0417932 0.186 -0.0406455
internal_count=282 210 101 109
shrinkage=0.339994


Tree=78
num_leaves=5
num_cat=0
split_feature=7 24 97 59
split_gain=0.000470953 0.000853152 0.000777476 8.955e-05
threshold=0.074115243945568857 3.2561662963341804e-07 0.031039617522813905 0.032920481783545862
decision_type=2 2 2 2
left_child=2 -2 -1 -4
right_child=1 -3 3 -5
leaf_value=0 0.070699438052094277 -0 -0.076422580623755551 -0
leaf_count=48 84 30 67 53
internal_value=0 0.0768649 -0.0743283 -0.173828
internal_count=282 114 168 120
shrinkage=0.339994


Tree=79
num_leaves=5
num_cat=0
split_feature=9 36 2 0
split_gain=0.000460759 0.00098226 0.000937546 2.31121e-05
threshold=0.066049465575975963 2.0171219416387408e-06 0.049422485731898551 0.090660732237769368
decision_type=2 2 2 2
left_child=1 3 -2 -1
right_child=2 -3 -4 -5
leaf_value=-0.011548685943658817 0 0.07400022999958436 -0.084889729636312278 0
leaf_count=52 63 70 60 37
internal_value=0 0.056405 -0.0940698 -0
internal_count=282 159 123 89
shrinkage=0.339994


Tree=80
num_leaves=4
num_cat=0
split_feature=20 28 19
split_gain=0.00043588 0.000831401 0.000137967
threshold=2.9151861184584455e-06 6.6712518043213207e-07 0.072309551002002412
decision_type=2 2 2
left_child=-1 -2 -3
right_child=1 2 -4
leaf_value=-0.035469733179830432 0.064726259775842787 -0.02758623953170173 0
leaf_count=114 81 41 46
internal_value=0 0.0466791 -0
internal_count=282 168 87
shrinkage=0.339994


Tree=81
num_leaves=4
num_cat=0
split_feature=26 54 43
split_gain=0.000355624 0.00108229 0.000933899
threshold=1.1441690765481703e-06 0.033997499794661552 0.033658347661199454
decision_type=2 2 2
left_child=1 -1 -2
right_child=2 -3 -4
leaf_value=0.071371214523151358 0 -0.010480713440528212 -0.068535284186821407
leaf_count=89 62 41 90
internal_value=0 0.0564096 -0.0757685
internal_count=282 130 152
shrinkage=0.339994


Tree=82
num_leaves=5
num_cat=0
split_feature=19 2 52 78
split_gain=0.000320237 0.000803147 0.00122074 1.74969e-05
threshold=0.057614166546748509 0.050040166948415753 0.033866693701613861 0.033923711487017803
decision_type=2 2 2 2
left_child=-1 2 3 -2
right_child=1 -3 -4 -5
leaf_value=-0.039195088714539139 -0.0098542939090446331 -0.020317544807557909 0.10492038827749545 0
leaf_count=75 44 54 64 45
internal_value=0 0.0298519 0.132031 -0
internal_count=282 207 153 89
shrinkage=0.339994


Tree=83
num_leaves=4
num_cat=0
split_feature=24 88 17
split_gain=0.000337394 0.000799892 0.000415884
threshold=7.4360996595526272e-08 0.032645267984324204 0.006300457750887516
decision_type=2 2 2
left_child=-1 -2 -3
right_child=1 2 -4
leaf_value=0.026825837061433915 0 -0 -0.088566201040237519
leaf_count=92 77 56 57
internal_value=0 -0.0585116 -0.173636
internal_count=282 190 113
shrinkage=0.339994


Tree=84
num_leaves=4
num_cat=0
split_feature=29 31 66
split_gain=0.000291199 0.000669404 0.000588642
threshold=2.4078948031019304e-06 2.9149065580505654e-06 0.032095833844439155
decision_type=2 2 2
left_child=2 -2 -1
right_child=1 -3 -4
leaf_value=0.057241995018967262 0 -0.069729713456550282 -0
leaf_count=58 82 68 74
internal_value=0 -0.0687819 0.0541542
internal_count=282 150 132
shrinkage=0.339994


Tree=85
num_leaves=4
num_cat=0
split_feature=83 14 16
split_gain=0.000274796 0.000522462 0.000247797
threshold=0.033691932110626106 0.037256627870360361 0.048822634369250002
decision_type=2 2 2
left_child=1 2 -1
right_child=-2 -3 -4
leaf_value=-0.070527119193131343 0.022277246820146965 0 -0
leaf_count=62 102 62 56
internal_value=0 -0.0564115 -0.142888
internal_count=282 180 118
shrinkage=0.339994


Tree=86
num_leaves=4
num_cat=0
split_feature=12 82 36
split_gain=0.000230423 0.00071134 0.000358754
threshold=0.017154305269434605 0.033009837725768106 2.0171219416387408e-06
decision_type=2 2 2
left_child=-1 -2 -3
right_child=1 2 -4
leaf_value=0.027144759234772831 0.0098984932353051499 -0.070487688371951518 0
leaf_count=75 65 81 61
internal_value=0 -0.0396191 -0.142017
internal_count=282 207 142
shrinkage=0.339994


Tree=87
num_leaves=4
num_cat=0
split_feature=20 24 19
split_gain=0.0002456 0.000485322 0.000138325
threshold=2.9151861184584455e-06 2.5876565647762907e-07 0.072309551002002412
decision_type=2 2 2
left_child=-1 2 -2
right_child=1 -3 -4
leaf_value=-0.022796913089540419 0 -0 0.062167854150285438
leaf_count=114 52 36 80
internal_value=0 0.0508415 0.132362
internal_count=282 168 132
shrinkage=0.339994


Tree=88
num_leaves=4
num_cat=0
split_feature=77 83 0
split_gain=0.000221017 0.000688676 0.000326928
threshold=0.035067847462722714 0.033691932110626106 0.08717761997350941
decision_type=2 2 2
left_child=1 2 -1
right_child=-2 -3 -4
leaf_value=-0.04115449164436976 -0.028758172973503252 0.059194827418679791 0.0034768793773864658
leaf_count=82 57 80 63
internal_value=0 0.0362427 -0
internal_count=282 225 145
shrinkage=0.339994


Tree=89
num_leaves=4
num_cat=0
split_feature=9 42 42
split_gain=0.000181753 0.000628128 0.000277171
threshold=0.066049465575975963 0.034249339872626759 0.034535379436345402
decision_type=2 2 2
left_child=1 -1 -2
right_child=2 -3 -4
leaf_value=-0.00031646764681194788 0 0.052465003331690623 -0.046024435009411391
leaf_count=78 69 81 54
internal_value=0 0.0439562 -0.056551
internal_count=282 159 123
shrinkage=0.339994


Tree=90
num_leaves=4
num_cat=0
split_feature=7 97 51
split_gain=0.000221003 0.000511356 0.000435241
threshold=0.074115243945568857 0.031243749052650153 0.033707062014519257
decision_type=2 2 2
left_child=1 -1 -2
right_child=2 -3 -4
leaf_value=0 0.054510800587686897 -0.050744374988889472 -0
leaf_count=53 69 115 45
internal_value=0 -0.0559587 0.0541561
internal_count=282 168 114
shrinkage=0.339994


Tree=91
num_leaves=3
num_cat=0
split_feature=24 78
split_gain=0.00016648 0.000534644
threshold=7.4360996595526272e-08 0.034319188530608009
decision_type=2 2
left_child=-1 -2
right_child=1 -3
leaf_value=0.022099972321988515 -0.046532491456858276 0
leaf_count=92 114 76
internal_value=0 -0.0365601
internal_count=282 190
shrinkage=0.339994


Tree=92
num_leaves=4
num_cat=0
split_feature=26 88 37
split_gain=0.000169744 0.000513482 0.000181716
threshold=1.4410009135462902e-06 0.032645267984324204 2.3523676855732702e-07
decision_type=2 2 2
left_child=1 -1 -3
right_child=-2 2 -4
leaf_value=0.051806624337975074 -0.021192326195330208 0.00015748490620420228 -0.032119095947567518
leaf_count=77 83 69 53
internal_value=0 0.0407788 -0
internal_count=282 199 122
shrinkage=0.339994


Tree=93
num_leaves=4
num_cat=0
split_feature=32 20 43
split_gain=0.000156144 0.00102299 0.000395148
threshold=1.1094676953477254e-06 3.5782257313254552e-06 0.034515370186752513
decision_type=2 2 2
left_child=1 2 -1
right_child=-2 -3 -4
leaf_value=-0.044284898062388681 -0.022512959484736663 0.072418257345205558 0
leaf_count=94 57 87 44
internal_value=0 0.0355884 -0.0153958
internal_count=282 225 138
shrinkage=0.339994


Tree=94
num_leaves=3
num_cat=0
split_feature=66 70
split_gain=0.000171685 0.000617803
threshold=0.031201605349798402 0.035472276743928909
decision_type=2 2
left_child=-1 -2
right_child=1 -3
leaf_value=-0.019314474913586302 -0 0.057102856976122718
leaf_count=87 93 102
internal_value=0 0.0438552
internal_count=282 195
shrinkage=0.339994


Tree=95
num_leaves=4
num_cat=0
split_feature=11 2 52
split_gain=0.00012629 0.000677656 0.000480465
threshold=0.068483572746264515 0.042234162669855357 0.033333445975542504
decision_type=2 2 2
left_child=2 -2 -1
right_child=1 -3 -4
leaf_value=-0 0 -0.063444370080851908 0.049740698367437212
leaf_count=54 66 81 81
internal_value=0 -0.0484563 0.0363697
internal_count=282 147 135
shrinkage=0.339994


Tree=96
num_leaves=4
num_cat=0
split_feature=27 24 72
split_gain=0.000116816 0.000530175 8.78582e-05
threshold=2.6605047113249756e-06 3.2561662963341804e-07 0.034994363066334709
decision_type=2 2 2
left_child=2 -2 -1
right_child=1 -3 -4
leaf_value=0 0.050470515352623702 -0 -0.030414773737518049
leaf_count=84 108 33 57
internal_value=0 0.0340917 -0.0480869
internal_count=282 141 141
shrinkage=0.339994


Tree=97
num_leaves=4
num_cat=0
split_feature=60 16 62
split_gain=0.000110222 0.000552053 0.000413979
threshold=0.03338792828483126 0.044304821398495606 0.032333616115730955
decision_type=2 2 2
left_child=1 -1 -3
right_child=-2 2 -4
leaf_value=-0.013010648349137429 -0.024164018469229456 -0 0.068188945177177523
leaf_count=69 75 58 80
internal_value=0 0.013403 0.123488
internal_count=282 207 138
shrinkage=0.339994


Tree=98
num_leaves=4
num_cat=0
split_feature=12 82 52
split_gain=0.000123544 0.000536225 0.000716725
threshold=0.017154305269434605 0.033009837725768106 0.034169049673152409
decision_type=2 2 2
left_child=-1 -2 -3
right_child=1 2 -4
leaf_value=0.012428269968896016 0 -0.081182674218277323 0
leaf_count=75 65 78 64
internal_value=0 -0.0452053 -0.134585
internal_count=282 207 142
shrinkage=0.339994


Tree=99
num_leaves=3
num_cat=0
split_feature=9 42
split_gain=9.64466e-05 0.000361679
threshold=0.066049465575975963 0.034827501262520356
decision_type=2 2
left_child=1 -1
right_child=-2 -3
leaf_value=-0 -0.016049052478650211 0.045215377996831903
leaf_count=104 123 55
internal_value=0 0.0286857
internal_count=282 159
shrinkage=0.339994


Tree=100
num_leaves=3
num_cat=0
split_feature=24 78
split_gain=8.83052e-05 0.000370572
threshold=7.4360996595526272e-08 0.034319188530608009
decision_type=2 2
left_child=-1 -2
right_child=1 -3
leaf_value=0.013671292173026622 -0.040805938459764608 0
leaf_count=92 114 76
internal_value=0 -0.0340729
internal_count=282 190
shrinkage=0.339994


Tree=101
num_leaves=3
num_cat=0
split_feature=6 20
split_gain=8.101e-05 0.000348891
threshold=0.024811218154698153 3.2373846954245856e-06
decision_type=2 2
left_child=-1 -2
right_child=1 -3
leaf_value=0.015255766190555776 -0.042763390528089168 0
leaf_count=85 109 88
internal_value=0 -0.0266457
internal_count=282 197
shrinkage=0.339994


Tree=102
num_leaves=3
num_cat=0
split_feature=11 39
split_gain=6.92023e-05 0.000495407
threshold=0.056035495652286001 2.8725843814894502e-06
decision_type=2 2
left_child=-1 -2
right_child=1 -3
leaf_value=0.018174795720753107 -0.0476359492887772 0.0021534799308925057
leaf_count=57 117 108
internal_value=0 -0.0145785
internal_count=282 225
shrinkage=0.339994


Tree=103
num_leaves=4
num_cat=0
split_feature=77 53 27
split_gain=8.32348e-05 0.000559045 0.000395083
threshold=0.03501960239646091 0.032638430670098854 2.6605047113249756e-06
decision_type=2 2 2
left_child=1 -1 -3
right_child=-2 2 -4
leaf_value=-0.0030452869522683149 -0.0110996522537105 -0 0.073796672380295747
leaf_count=66 60 73 83
internal_value=0 0.0367448 0.134703
internal_count=282 222 156
shrinkage=0.339994


Tree=104
num_leaves=3
num_cat=0
split_feature=9 36
split_gain=8.259e-05 0.000310054
threshold=0.066049465575975963 2.0171219416387408e-06
decision_type=2 2
left_child=1 -1
right_child=-2 -3
leaf_value=-0 -0.012503574613000577 0.044810786605077896
leaf_count=89 123 70
internal_value=0 0.0345237
internal_count=282 159
shrinkage=0.339994


Tree=105
num_leaves=4
num_cat=0
split_feature=25 16 27
split_gain=5.69488e-05 0.000307454 1.60602e-05
threshold=2.5243932250912155e-06 0.044304821398495606 2.6837940017205305e-06
decision_type=2 2 2
left_child=-1 -2 -3
right_child=1 2 -4
leaf_value=-0.014716275690623346 -0 0 0.043820747086586433
leaf_count=72 68 57 85
internal_value=0 0.019927 0.100813
internal_count=282 210 142
shrinkage=0.339994


Tree=106
num_leaves=3
num_cat=0
split_feature=66 79
split_gain=4.92976e-05 0.00028447
threshold=0.031201605349798402 0.034021912603665903
decision_type=2 2
left_child=-1 -2
right_child=1 -3
leaf_value=-0.013059780985110207 -0 0.040032778115409895
leaf_count=87 109 86
internal_value=0 0.0166489
internal_count=282 195
shrinkage=0.339994


Tree=107
num_leaves=3
num_cat=0
split_feature=6 69
split_gain=5.52774e-05 0.000343775
threshold=0.024811218154698153 0.030975623454929605
decision_type=2 2
left_child=-1 -2
right_child=1 -3
leaf_value=0.008459156297279273 0 -0.040443201795308595
leaf_count=85 66 131
internal_value=0 -0.0317041
internal_count=282 197
shrinkage=0.339994


Tree=108
num_leaves=3
num_cat=0
split_feature=4 7
split_gain=3.91238e-05 0.000172777
threshold=0.006645260440919956 0.063333769932417711
decision_type=2 2
left_child=1 -1
right_child=-2 -3
leaf_value=-0 -0.010074523607622279 0.029157130004960227
leaf_count=85 88 109
internal_value=0 0.0203469
internal_count=282 194
shrinkage=0.339994


Tree=109
num_leaves=3
num_cat=0
split_feature=9 59
split_gain=4.49585e-05 0.000188496
threshold=0.066049465575975963 0.032920481783545862
decision_type=2 2
left_child=1 -1
right_child=-2 -3
leaf_value=-0 -0.01180022331805569 0.033522731137982854
leaf_count=81 123 78
internal_value=0 0.0175842
internal_count=282 159
shrinkage=0.339994


Tree=110
num_leaves=3
num_cat=0
split_feature=0 88
split_gain=3.93534e-05 0.00030597
threshold=0.10104460153845903 0.032588988634183462
decision_type=2 2
left_child=1 -1
right_child=-2 -3
leaf_value=0 0.0088186548214215475 -0.037492393076506689
leaf_count=80 75 127
internal_value=0 -0.0242095
internal_count=282 207
shrinkage=0.339994


Tree=111
num_leaves=3
num_cat=0
split_feature=77 81
split_gain=3.2424e-05 0.000268642
threshold=0.03501960239646091 0.032921640002586357
decision_type=2 2
left_child=1 -1
right_child=-2 -3
leaf_value=-0 -0.010815521157500858 0.032258917240527922
leaf_count=82 60 140
internal_value=0 0.0165677
internal_count=282 222
shrinkage=0.339994


Tree=112
num_leaves=3
num_cat=0
split_feature=24 78
split_gain=3.61791e-05 0.000270543
threshold=7.4360996595526272e-08 0.034319188530608009
decision_type=2 2
left_child=-1 -2
right_child=1 -3
leaf_value=0.0076501550587882126 -0.035125481294632686 0
leaf_count=92 114 76
internal_value=0 -0.0245451
internal_count=282 190
shrinkage=0.339994


Tree=113
num_leaves=3
num_cat=0
split_feature=81 1
split_gain=3.84018e-05 0.000340645
threshold=0.033858595926375204 0.033719277221492351
decision_type=2 2
left_child=1 -1
right_child=-2 -3
leaf_value=0.044950981467872547 -0.0093520767327177363 -0
leaf_count=74 105 103
internal_value=0 0.0221465
internal_count=282 177
shrinkage=0.339994


Tree=114
num_leaves=4
num_cat=0
split_feature=31 6 19
split_gain=4.18633e-05 0.000356985 3.7241e-05
threshold=2.0954253318429854e-06 0.024811218154698153 0.078311860848659917
decision_type=2 2 2
left_child=-1 -2 -3
right_child=1 2 -4
leaf_value=0.010954783523000104 0 -0.048685486297811519 -0
leaf_count=54 67 98 63
internal_value=0 -0.0220895 -0.109637
internal_count=282 228 161
shrinkage=0.339994


Tree=115
num_leaves=3
num_cat=0
split_feature=10 77
split_gain=2.48386e-05 0.000388753
threshold=0.070274864978306067 0.033321207169107456
decision_type=2 2
left_child=-1 -2
right_child=1 -3
leaf_value=0.009689244358841869 0.00208449476572465 -0.039561380029964517
leaf_count=87 64 131
internal_value=0 -0.0128078
internal_count=282 195
shrinkage=0.339994


Tree=116
num_leaves=3
num_cat=0
split_feature=20 28
split_gain=3.73688e-05 0.000394199
threshold=2.9151861184584455e-06 6.7053248277257109e-07
decision_type=2 2
left_child=-1 -2
right_child=1 -3
leaf_value=-0.0050709316733831625 0.048225068045164216 -0
leaf_count=114 83 85
internal_value=0 0.0287328
internal_count=282 168
shrinkage=0.339994


Tree=117
num_leaves=3
num_cat=0
split_feature=9 48
split_gain=2.08839e-05 0.000155695
threshold=0.066049465575975963 0.034083853739762457
decision_type=2 2
left_child=1 -1
right_child=-2 -3
leaf_value=0.03082929681335669 -0.0055302456389764365 -0
leaf_count=80 123 79
internal_value=0 0.0197472
internal_count=282 159
shrinkage=0.339994


Tree=118
num_leaves=3
num_cat=0
split_feature=12 80
split_gain=1.97186e-05 0.000254522
threshold=0.017154305269434605 0.032981520344553102
decision_type=2 2
left_child=-1 -2
right_child=1 -3
leaf_value=0.0086809780179433887 0 -0.031606048126471706
leaf_count=75 77 130
internal_value=0 -0.0124801
internal_count=282 207
shrinkage=0.339994


Tree=119
num_leaves=3
num_cat=0
split_feature=26 53
split_gain=2.62347e-05 0.000201457
threshold=1.4410009135462902e-06 0.032848515895519813
decision_type=2 2
left_child=1 -1
right_child=-2 -3
leaf_value=-0 -0.0058755503801800769 0.029084499197946239
leaf_count=78 83 121
internal_value=0 0.0220071
internal_count=282 199
shrinkage=0.339994


Tree=120
num_leaves=3
num_cat=0
split_feature=31 7
split_gain=1.70002e-05 0.000196201
threshold=2.2432564953653105e-06 0.079290406024922364
decision_type=2 2
left_child=-1 -2
right_child=1 -3
leaf_value=0.0076704600168221275 -0.028668957844975997 0
leaf_count=72 147 63
internal_value=0 -0.0120986
internal_count=282 210
shrinkage=0.339994


Tree=121
num_leaves=3
num_cat=0
split_feature=4 26
split_gain=2.41515e-05 0.000144482
threshold=0.006645260440919956 1.1441690765481703e-06
decision_type=2 2
left_child=1 -1
right_child=-2 -3
leaf_value=0.030451040397265598 -0.0046972490611161353 -0
leaf_count=83 88 111
internal_value=0 0.0231873
internal_count=282 194
shrinkage=0.339994


Tree=122
num_leaves=3
num_cat=0
split_feature=81 83
split_gain=1.42785e-05 6.45671e-05
threshold=0.033825392550084453 0.03298515061754221
decision_type=2 2
left_child=1 -1
right_child=-2 -3
leaf_value=-0 -0.0045615036516023812 0.019349048891159272
leaf_count=67 108 107
internal_value=0 0.0165482
internal_count=282 174
shrinkage=0.339994


Tree=123
num_leaves=3
num_cat=0
split_feature=9 88
split_gain=1.5978e-05 0.000147269
threshold=0.066049465575975963 0.032645267984324204
decision_type=2 2
left_child=1 -1
right_child=-2 -3
leaf_value=0.028465983382230189 -0.0061327985733894211 -0
leaf_count=69 123 90
internal_value=0 0.0144855
internal_count=282 159
shrinkage=0.339994


Tree=124
num_leaves=3
num_cat=0
split_feature=25 72
split_gain=8.85216e-06 0.000158388
threshold=2.5243932250912155e-06 0.035772450505570659
decision_type=2 2
left_child=-1 -2
right_child=1 -3
leaf_value=-0.0068570878666701215 0.024897315450111954 -0
leaf_count=72 156 54
internal_value=0 0.00392803
internal_count=282 210
shrinkage=0.339994


Tree=125
num_leaves=3
num_cat=0
split_feature=4 56
split_gain=2.59548e-05 0.000143203
threshold=0.0015751883712760803 0.033668843684456558
decision_type=2 2
left_child=-1 -2
right_child=1 -3
leaf_value=0.0042830407606837687 -0.026239537459976918 0
leaf_count=89 137 56
internal_value=0 -0.0237797
internal_count=282 193
shrinkage=0.339994


Tree=126
num_leaves=3
num_cat=0
split_feature=20 32
split_gain=9.55631e-06 0.000132716
threshold=2.9151861184584455e-06 9.7417035676903579e-07
decision_type=2 2
left_child=-1 -2
right_child=1 -3
leaf_value=-0.0065060704319041844 0.024212821277356505 -0
leaf_count=114 110 58
internal_value=0 0.0053405
internal_count=282 168
shrinkage=0.339994


Tree=127
num_leaves=3
num_cat=0
split_feature=31 39
split_gain=1.65919e-05 0.000333991
threshold=2.2432564953653105e-06 2.8725843814894502e-06
decision_type=2 2
left_child=-1 -2
right_child=1 -3
leaf_value=0.0030339688398021802 -0.042626295694283022 0
leaf_count=72 106 104
internal_value=0 -0.0194738
internal_count=282 210
shrinkage=0.339994


Tree=128
num_leaves=3
num_cat=0
split_feature=9 88
split_gain=7.10471e-06 0.000112433
threshold=0.066049465575975963 0.032645267984324204
decision_type=2 2
left_child=1 -1
right_child=-2 -3
leaf_value=0.024743005630539612 -0.0044194343732322583 -0
leaf_count=69 123 90
internal_value=0 0.00876856
internal_count=282 159
shrinkage=0.339994


Tree=129
num_leaves=2
num_cat=0
split_feature=26
split_gain=1.05627e-05
threshold=1.1441690765481703e-06
decision_type=2
left_child=-1
right_child=-2
leaf_value=0.0025574306017136809 -0.0058380690877338397
leaf_count=130 152
internal_value=0
internal_count=282
shrinkage=0.339994


Tree=130
num_leaves=3
num_cat=0
split_feature=4 88
split_gain=7.53577e-06 0.000181015
threshold=0.0015751883712760803 0.032645267984324204
decision_type=2 2
left_child=-1 -2
right_child=1 -3
leaf_value=0.0037099269364651035 0 -0.029005672085238382
leaf_count=89 77 116
internal_value=0 -0.0112969
internal_count=282 193
shrinkage=0.339994


Tree=131
num_leaves=2
num_cat=0
split_feature=26
split_gain=7.58237e-06
threshold=1.1441690765481703e-06
decision_type=2
left_child=-1
right_child=-2
leaf_value=0.0048081189319156871 -0.0024034761036009953
leaf_count=130 152
internal_value=0
internal_count=282
shrinkage=0.339994


Tree=132
num_leaves=3
num_cat=0
split_feature=77 83
split_gain=5.28524e-06 0.000224692
threshold=0.034294810077232757 0.033209139454383509
decision_type=2 2
left_child=1 -1
right_child=-2 -3
leaf_value=-0 -0.0026555149328214944 0.033633339084885215
leaf_count=80 108 94
internal_value=0 0.0103335
internal_count=282 174
shrinkage=0.339994


Tree=133
num_leaves=3
num_cat=0
split_feature=56 83
split_gain=5.90168e-06 0.000207456
threshold=0.033799600976900261 0.033667424784722857
decision_type=2 2
left_child=1 -1
right_child=-2 -3
leaf_value=-0.029858320620351108 0.0026244298208932064 0
leaf_count=136 66 80
internal_value=0 -0.0108622
internal_count=282 216
shrinkage=0.339994


Tree=134
num_leaves=3
num_cat=0
split_feature=4 27
split_gain=5.01784e-06 0.000114479
threshold=0.006645260440919956 2.6605047113249756e-06
decision_type=2 2
left_child=1 -1
right_child=-2 -3
leaf_value=-0 -0.0018320167688845271 0.025638566641492496
leaf_count=97 88 97
internal_value=0 0.01111
internal_count=282 194
shrinkage=0.339994


Tree=135
num_leaves=2
num_cat=0
split_feature=26
split_gain=4.60548e-06
threshold=1.1441690765481703e-06
decision_type=2
left_child=-1
right_child=-2
leaf_value=0.0027954355486774682 -0.0031621429965254231
leaf_count=130 152
internal_value=0
internal_count=282
shrinkage=0.339994


Tree=136
num_leaves=3
num_cat=0
split_feature=9 66
split_gain=4.06644e-06 0.000101073
threshold=0.066049465575975963 0.032095833844439155
decision_type=2 2
left_child=1 -1
right_child=-2 -3
leaf_value=0.023582612045297623 -0.0032835249119666662 -0
leaf_count=71 123 88
internal_value=0 0.00693914
internal_count=282 159
shrinkage=0.339994


Tree=137
num_leaves=2
num_cat=0
split_feature=26
split_gain=5.1809e-06
threshold=1.1441690765481703e-06
decision_type=2
left_child=-1
right_child=-2
leaf_value=0.0013203393350576568 -0.0042995859909355123
leaf_count=130 152
internal_value=0
internal_count=282
shrinkage=0.339994


Tree=138
num_leaves=3
num_cat=0
split_feature=31 0
split_gain=6.56329e-06 0.00010116
threshold=2.2432564953653105e-06 0.09211901909496277
decision_type=2 2
left_child=-1 -2
right_child=1 -3
leaf_value=0.0034278649219413532 -0.021580007567546862 0
leaf_count=72 133 77
internal_value=0 -0.0107013
internal_count=282 210
shrinkage=0.339994


Tree=139
num_leaves=3
num_cat=0
split_feature=66 51
split_gain=4.02932e-06 9.75251e-05
threshold=0.031201605349798402 0.033633605781095109
decision_type=2 2
left_child=-1 -2
right_child=1 -3
leaf_value=-0.0024782011733263201 0.02265479032221774 -0
leaf_count=87 116 79
internal_value=0 0.00880527
internal_count=282 195
shrinkage=0.339994


Tree=140
num_leaves=2
num_cat=0
split_feature=26
split_gain=3.16673e-06
threshold=1.1441690765481703e-06
decision_type=2
left_child=-1
right_child=-2
leaf_value=0.0015452281966347071 -0.0031625174144946379
leaf_count=130 152
internal_value=0
internal_count=282
shrinkage=0.339994


Tree=141
num_leaves=3
num_cat=0
split_feature=4 6
split_gain=2.40785e-06 7.29404e-05
threshold=0.0015751883712760803 0.024811218154698153
decision_type=2 2
left_child=-1 -2
right_child=1 -3
leaf_value=0.0022466772439032417 0 -0.017642651570195015
leaf_count=89 59 134
internal_value=0 -0.00622641
internal_count=282 193
shrinkage=0.339994


Tree=142
num_leaves=3
num_cat=0
split_feature=52 31
split_gain=2.75185e-06 0.000125064
threshold=0.033333445975542504 2.6764676447297554e-06
decision_type=2 2
left_child=-1 -2
right_child=1 -3
leaf_value=-0.0012075441155740029 0.025349263560042887 -0
leaf_count=114 86 82
internal_value=0 0.00843347
internal_count=282 168
shrinkage=0.339994


Tree=143
num_leaves=3
num_cat=0
split_feature=10 77
split_gain=1.9222e-06 0.00017444
threshold=0.070274864978306067 0.033816781642795953
decision_type=2 2
left_child=-1 -2
right_child=1 -3
leaf_value=0.0016034738972945794 0 -0.029460184940191855
leaf_count=87 97 98
internal_value=0 -0.00616714
internal_count=282 195
shrinkage=0.339994


Tree=144
num_leaves=3
num_cat=0
split_feature=20 27
split_gain=2.87093e-06 0.000101542
threshold=2.7514387532382855e-06 2.6605047113249756e-06
decision_type=2 2
left_child=-1 -2
right_child=1 -3
leaf_value=-0.00082680495872361048 -0 0.022022991863111869
leaf_count=108 62 112
internal_value=0 0.00851044
internal_count=282 174
shrinkage=0.339994


Tree=145
num_leaves=3
num_cat=0
split_feature=4 56
split_gain=1.91633e-06 8.21907e-05
threshold=0.0015751883712760803 0.033668843684456558
decision_type=2 2
left_child=-1 -2
right_child=1 -3
leaf_value=0.0021865768493928468 -0.018942515593091326 0
leaf_count=89 137 56
internal_value=0 -0.00525915
internal_count=282 193
shrinkage=0.339994


Tree=146
num_leaves=3
num_cat=0
split_feature=31 20
split_gain=1.66565e-06 5.49908e-05
threshold=2.2432564953653105e-06 3.6711529816329756e-06
decision_type=2 2
left_child=-1 -2
right_child=1 -3
leaf_value=0.0030182600386821903 -0.015681587541655381 0
leaf_count=72 133 77
internal_value=0 -0
internal_count=282 210
shrinkage=0.339994


Tree=147
num_leaves=3
num_cat=0
split_feature=4 27
split_gain=4.40223e-06 8.1059e-05
threshold=0.006645260440919956 2.6605047113249756e-06
decision_type=2 2
left_child=1 -1
right_child=-2 -3
leaf_value=-0 -0 0.021937670856174582
leaf_count=97 88 97
internal_value=0 0.011365
internal_count=282 194
shrinkage=0.339994


Tree=148
num_leaves=3
num_cat=0
split_feature=9 66
split_gain=1.89514e-06 9.12301e-05
threshold=0.066049465575975963 0.032095833844439155
decision_type=2 2
left_child=1 -1
right_child=-2 -3
leaf_value=0.022572580897317319 -0.00039372278788227163 -0
leaf_count=71 123 88
internal_value=0 0.00750794
internal_count=282 159
shrinkage=0.339994


Tree=149
num_leaves=2
num_cat=0
split_feature=26
split_gain=1.05995e-06
threshold=1.1441690765481703e-06
decision_type=2
left_child=-1
right_child=-2
leaf_value=0.0011046068239805599 -0.0017240921212037096
leaf_count=130 152
internal_value=0
internal_count=282
shrinkage=0.339994


Tree=150
num_leaves=3
num_cat=0
split_feature=80 77
split_gain=8.99953e-07 5.54584e-05
threshold=0.032981520344553102 0.034294810077232757
decision_type=2 2
left_child=-1 -2
right_child=1 -3
leaf_value=0.001472881883017655 0 -0.017820617856924969
leaf_count=96 115 71
internal_value=0 -0.0036425
internal_count=282 186
shrinkage=0.339994


Tree=151
num_leaves=2
num_cat=0
split_feature=26
split_gain=9.01042e-07
threshold=1.1441690765481703e-06
decision_type=2
left_child=-1
right_child=-2
leaf_value=0.0018626237561237893 -0.00019752056413791972
leaf_count=130 152
internal_value=0
internal_count=282
shrinkage=0.339994


Tree=152
num_leaves=3
num_cat=0
split_feature=6 20
split_gain=5.44282e-07 3.54781e-05
threshold=0.027375495777219302 3.3097030268356607e-06
decision_type=2 2
left_child=-1 -2
right_child=1 -3
leaf_value=0.0015423853964520631 -0.014249637400669842 0
leaf_count=106 106 70
internal_value=0 -0.000260824
internal_count=282 176
shrinkage=0.339994


Tree=153
num_leaves=3
num_cat=0
split_feature=66 11
split_gain=1.27994e-06 2.99697e-05
threshold=0.031201605349798402 0.064738341683759665
decision_type=2 2
left_child=-1 -2
right_child=1 -3
leaf_value=-0 0.012819406239817401 -0
leaf_count=87 82 113
internal_value=0 0.00607103
internal_count=282 195
shrinkage=0.339994


Tree=154
num_leaves=3
num_cat=0
split_feature=24 81
split_gain=2.70369e-07 3.91533e-05
threshold=7.4360996595526272e-08 0.033070905129187207
decision_type=2 2
left_child=-1 -2
right_child=1 -3
leaf_value=0.0012302804371431431 -0.014872634465560102 0
leaf_count=92 72 118
internal_value=0 -0
internal_count=282 190
shrinkage=0.339994


Tree=155
num_leaves=3
num_cat=0
split_feature=81 6
split_gain=1.52151e-06 2.33866e-05
threshold=0.033825392550084453 0.029635092472795655
decision_type=2 2
left_child=1 -1
right_child=-2 -3
leaf_value=0.011883260752383398 -0 -0
leaf_count=78 108 96
internal_value=0 0.00685532
internal_count=282 174
shrinkage=0.339994


Tree=156
num_leaves=3
num_cat=0
split_feature=81 34
split_gain=2.2584e-07 1.39448e-05
threshold=0.033825392550084453 1.277443897619275e-06
decision_type=2 2
left_child=1 -1
right_child=-2 -3
leaf_value=-0 -0 0.0089708162462277079
leaf_count=84 108 90
internal_value=0 0.00264278
internal_count=282 174
shrinkage=0.339994


Tree=157
num_leaves=3
num_cat=0
split_feature=9 24
split_gain=8.61595e-09 6.25678e-06
threshold=0.066049465575975963 1.8156608472951751e-07
decision_type=2 2
left_child=1 -1
right_child=-2 -3
leaf_value=0.0058389755197972917 -0.00017087168236843407 -0
leaf_count=96 123 63
internal_value=0 0.000255158
internal_count=282 159
shrinkage=0.339994


Tree=158
num_leaves=3
num_cat=0
split_feature=80 4
split_gain=5.25539e-08 3.94422e-05
threshold=0.032981520344553102 0.0045276331343082109
decision_type=2 2
left_child=-1 -2
right_child=1 -3
leaf_value=0 0 -0.013694625881911915
leaf_count=96 95 91
internal_value=0 -0.00119858
internal_count=282 186
shrinkage=0.339994


Tree=159
num_leaves=3
num_cat=0
split_feature=81 34
split_gain=1.77514e-07 1.07903e-05
threshold=0.033825392550084453 1.277443897619275e-06
decision_type=2 2
left_child=1 -1
right_child=-2 -3
leaf_value=-0 -0 0.0079006225250472135
leaf_count=84 108 90
internal_value=0 0.0023451
internal_count=282 174
shrinkage=0.339994


Tree=160
num_leaves=3
num_cat=0
split_feature=31 20
split_gain=2.65418e-08 4.67509e-05
threshold=2.2432564953653105e-06 3.6711529816329756e-06
decision_type=2 2
left_child=-1 -2
right_child=1 -3
leaf_value=0.0003834654151125705 -0.014521949480024551 0
leaf_count=72 133 77
internal_value=0 -0
internal_count=282 210
shrinkage=0.339994


Tree=161
num_leaves=3
num_cat=0
split_feature=66 81
split_gain=6.71298e-07 2.77484e-05
threshold=0.031201605349798402 0.033665121123923156
decision_type=2 2
left_child=-1 -2
right_child=1 -3
leaf_value=-0 0.011899543452044149 -0
leaf_count=87 113 82
internal_value=0 0.00441042
internal_count=282 195
shrinkage=0.339994


Tree=162
num_leaves=3
num_cat=0
split_feature=3 26
split_gain=3.01623e-08 2.50719e-06
threshold=0.062542057789840622 1.0796215662208351e-06
decision_type=2 2
left_child=1 -1
right_child=-2 -3
leaf_value=0 0.00037739329956634966 -0.0035893744789023256
leaf_count=68 108 106
internal_value=0 -0
internal_count=282 174
shrinkage=0.339994


Tree=163
num_leaves=3
num_cat=0
split_feature=9 6
split_gain=1.08315e-07 1.28777e-05
threshold=0.066725264553476757 0.03279469514496141
decision_type=2 2
left_child=1 -1
right_child=-2 -3
leaf_value=0.0085215159882705335 -0 -0
leaf_count=82 120 80
internal_value=0 0.00181904
internal_count=282 162
shrinkage=0.339994



feature importances:
V10=35
V21=33
V28=30
V5=28
V1=23
V8=23
V25=21
V78=21
V32=18
V7=17
V27=17
V13=17
V89=17
V12=16
V82=15
V81=14
V55=13
V67=12
V33=12
V23=12
V52=12
V17=12
V84=12
V79=12
V92=11
V54=11
V76=11
V44=10
V20=10
V3=10
V6=10
V98=9
V40=9
V77=8
V53=8
V15=8
V61=8
V85=8
V36=7
V37=7
V4=7
V43=7
V30=7
V57=7
V38=6
V66=6
V51=5
V68=5
V86=5
V60=5
V83=5
V11=5
V70=5
V29=5
V50=5
V88=5
V34=5
V39=5
V99=4
V26=4
V35=4
V41=4
V18=4
V90=4
V47=4
V19=4
V14=4
V80=3
V91=3
V95=3
V94=3
V100=3
V73=3
V75=3
V16=3
V62=3
V45=3
V48=3
V2=2
V9=2
V24=2
V93=2
V42=2
V46=2
V49=2
V58=2
V59=2
V63=2
V64=2
V69=2
V71=2
V72=2
V56=1
V31=1
V65=1
V96=1
V97=1
