tree
version=v2
num_class=1
num_tree_per_iteration=1
label_index=0
max_feature_idx=49
objective=binary sigmoid:1
feature_names=V1 V2 V3 V4 V5 V6 V7 V8 V9 V10 V11 V12 V13 V14 V15 V16 V17 V18 V19 V20 V21 V22 V23 V24 V25 V26 V27 V28 V29 V30 V31 V32 V33 V34 V35 V36 V37 V38 V39 V40 V41 V42 V43 V44 V45 V46 V47 V48 V49 V50
feature_infos=[0.23481064065857901:47.274649825597898] [0:31.277672359360199] [0:24.500067868649101] [0.48101455618618:31.755194074770301] [0:4.3342859657556696] [0.88475480325590705:23.238494854407602] [0:11.1129600580303] [0.95524907508983403:27.696259493784599] [0:8.3566300196764001] [0.47984054208222798:22.573096238530699] [0.23992027104111399:41.0668675252669] [0.71885117945730403:27.025547786476501] [0:6.7847481033773303] [0:14.0226898892095] [0:17.190781754762899] [0.24721385628956399:21.249716335748602] [0.453253360113134:20.294672904928401] [0:6.1360182617667096] [0:11.0315030773881] [0.88475480325590705:31.277672359360199] [0.021853578739536:0.033662256278982401] [0.022635180966676501:0.030705738641056801] [0.0187451328809073:0.029416952895869701] [0.020549137541912701:0.0296376851789318] [0.019276310063650898:0.029551887596182699] [0.022482110862107399:0.030305398999187001] [0.019543429590347799:0.030095420520967898] [0.0209242816446959:0.027892251341589298] [0.016585899390117301:0.028996132112143701] [0.0201594571400487:0.027788247157944701] [0.020616849633010002:0.0302096979906008] [0.021587273716278301:0.029447019882290801] [0.020795357789313799:0.027668696566749001] [0.017647497047660499:0.0285984031884964] [0.019123461474586399:0.029730577311562] [0.020310994556428999:0.030791025717363502] [0.019729428011564298:0.028421341536105101] [0.016959512885564201:0.030329528522595399] [0.0187672581320763:0.0285509918338087] [0.0204484604341706:0.029575785168927799] [0.0193887291715884:0.028705578998262201] [0.021303392796011799:0.030181608737794199] [0.018409317770754299:0.031071065359690699] [0.020506102456355601:0.029543273333213299] [0.019564321891450898:0.031075409949772499] [0.0190924816540953:0.028581357181634601] [0.0188449305735423:0.030436067021831398] [0.018575498821096801:0.031236519686728598] [0.019340592886235901:0.029756250676240201] [0.0203568162692408:0.034634427049899497]
tree_sizes=1601 1450 1818 1598 1306 1535 1749 1311 1692 1537 1468 1395 1439 1640 871 1478 1110 1380 1169 1725 1242 1687 854 1644 1404 1479 961 1575 1448 1029 1061 1083 1079 1051 903 927 836 753 634 833 689 783 612 617 734 538 582 603 527 540 602 471 532 531 537 468 481 391 399 487 420 474 446 398 476 395 450 400 398 395 398 406 421 404 392 394 380 447 377 378 338 389 318 371

Tree=0
num_leaves=21
num_cat=0
split_feature=0 10 9 0 39 10 18 0 36 20 24 12 35 39 12 39 36 0 0 20
split_gain=46.0312 42.7854 28.4311 13.045 13.0447 11.4518 10.609 9.82365 7.45873 6.1982 5.38217 4.46624 5.6409 3.22206 3.10058 2.75511 1.51394 2.20292 0.846007 0.532471
threshold=6.2701225546321213 12.373584183983352 3.0570170592264403 14.522622643802952 0.023968041287916155 16.924080834236552 3.3181011144760753 10.252646102251202 0.024071274503476552 0.025589259743522504 0.025332471871855753 3.7944344273584805 0.024649815469767054 0.023274062217127255 1.1510740095319403 0.025037975435700004 0.025962448116615102 4.953506151316291 13.845726732892603 0.025214375989370652
decision_type=2 2 2 2 2 2 2 2 2 2 2 2 2 2 2 2 2 2 2 2
left_child=2 6 4 18 9 15 11 8 -8 -1 -9 13 -13 -2 -6 -5 -4 -18 -3 -7
right_child=1 3 16 5 14 19 7 10 -10 -11 -12 12 -14 -15 -16 -17 17 -19 -20 -21
leaf_value=0.33991091406558149 0.17032265842728228 -0.68492482073882643 -0.6853141816777264 -0 0.68437269160446901 -0.33991091406558238 0.68124695662659274 0.68445630893609832 -0.34223153292280367 -0.68367641592930395 -0.1355111745277201 0.68124695662659185 -0.40881569724599665 0.62981211326880693 -0 0.68367641592930395 -0.68212021996427341 -0 -0.33991091406558255 -0.68212021996427319
leaf_count=4 8 25 56 4 14 4 4 15 20 9 5 4 5 74 4 9 5 4 4 5
internal_value=0 0.580501 -1.12462 -0.979732 0.450822 0.180917 1.1701 0.363114 -0.498944 -1.07421 1.39795 1.55996 0.219943 1.70675 1.55313 1.38149 -1.87617 -1.10712 -1.86038 -1.55072
internal_count=282 186 96 51 31 22 135 44 24 13 20 91 9 82 18 13 65 9 29 9
shrinkage=0.342814


Tree=1
num_leaves=18
num_cat=0
split_feature=0 10 9 27 40 48 40 4 12 25 7 5 39 36 36 9 12
split_gain=22.7456 20.8042 14.2854 6.80803 6.72809 7.16708 6.52468 6.60134 7.18843 6.92713 5.36297 4.90363 1.06391 0.900657 2.20696 0.549871 0.521271
threshold=6.2701225546321213 12.373584183983352 3.0570170592264403 0.023261826295431453 0.025914860476616754 0.022135523362235905 0.026048408356333003 1.0999774205253352 3.7944344273584805 0.025938238834401901 14.306856588029101 18.023908675124904 0.025496592477499153 0.025962448116615102 0.026412348328156452 2.1048808965158252 0.23995326585021901
decision_type=2 2 2 2 2 2 2 2 2 2 2 2 2 2 2 2 2
left_child=2 6 4 -3 5 -1 7 8 -2 -9 12 -12 -5 -4 -15 -6 -7
right_child=1 3 13 10 15 16 -8 9 -10 -11 11 -13 -14 14 -16 -17 -18
leaf_value=-0.55786207435132373 0.45232151857618985 0.63644742296148427 -0.51527564467243181 -0.53879008540455997 -0.63644742296148382 0.25494766353915316 -0.49362899204666066 -0.549772995185975 -0.035304532092248458 0.51842902662447732 0.54418014581177643 -0.33799516926455569 -0.21931249236448161 0.11695811979772436 -0.58522408248933211 -0.25515613218532773 0.55418160084247181
leaf_count=4 99 4 56 27 4 4 5 8 18 5 6 7 7 4 5 4 15
internal_value=0 0.422427 -0.834347 -0.718354 0.328645 0.902924 0.848126 0.939478 1.09742 -0.452528 -0.945379 0.194688 -1.38447 -1.40029 -0.790169 -1.32005 1.43951
internal_count=282 186 96 51 31 23 135 130 117 13 47 13 34 65 9 8 19
shrinkage=0.342814


Tree=2
num_leaves=23
num_cat=0
split_feature=0 11 6 0 9 41 29 2 8 7 7 31 32 32 23 0 0 0 35 29 10 9
split_gain=13.5625 15.2693 8.42702 6.63427 6.82255 6.00344 5.82706 4.61684 4.27538 4.97127 3.81147 1.85066 2.71884 1.71631 1.56744 1.34778 0.521772 0.349446 0.118862 0.0353533 0.0255667 0.00377674
threshold=8.3618379646538674 12.191715800975901 3.3399093832993203 6.2701225546321213 3.0570170592264403 0.025756330570774606 0.026024338295048754 3.7684191038500905 2.9914330334733106 13.448668550114201 2.0787757813708603 0.024024125822113902 0.025320999888060403 0.023637659539996605 0.023823472985471151 5.5385267085197309 11.256375716010002 7.1365998015153513 0.025677891759672253 0.024826829631225154 15.331597732862951 4.3141674760840756
decision_type=2 2 2 2 2 2 2 2 2 2 2 2 2 2 2 2 2 2 2 2 2 2
left_child=2 5 3 4 10 8 17 -7 13 -10 -1 12 -5 -2 -3 -6 -9 21 -19 -13 -16 -4
right_child=1 14 6 11 15 7 -8 16 9 -11 -12 19 -14 -15 20 -17 -18 18 -20 -21 -22 -23
leaf_value=-0.15146821642307592 0.035476652746968131 0.044556901804996919 -0.51059583796604557 -0.37992132018792163 -0.45234500607769496 0.45538361087401719 0.39972975819953654 -0.58569887183740454 -0.30276859670647382 0.43814615324436912 0.40261877570581178 0.55567120370068512 0.45538361087401696 0.45956407045146558 -0.52898364705213252 -0.080127255788479942 -0.22197342292631192 -0.53767406354176051 -0.68563358527041396 0.45617306714371392 -0.45320917615979578 -0.44940489525717731
leaf_count=15 6 4 4 4 32 5 4 6 11 10 15 5 5 75 7 7 4 8 6 9 13 27
internal_value=0 0.485326 -0.50253 -0.0898974 -0.454804 0.816358 -1.24653 -0.49755 1.0114 0.120348 0.349669 0.938577 0.151829 1.2471 -1.15412 -1.104 -1.33176 -1.49272 -1.76489 1.44895 -1.41142 -1.33875
internal_count=282 141 141 92 69 117 49 15 102 21 30 23 9 81 24 39 10 45 14 14 20 31
shrinkage=0.342814


Tree=3
num_leaves=20
num_cat=0
split_feature=0 11 17 9 7 6 43 42 33 0 38 26 40 6 0 28 37 16 7
split_gain=7.84036 8.44006 5.04487 4.99684 3.60379 5.70358 3.48641 2.72203 2.4677 1.74466 1.58131 1.52865 1.45988 1.37359 1.70134 0.907 0.766244 0.238725 0.00767061
threshold=6.7064453045263113 12.191715800975901 0.54687600795797009 3.0570170592264403 11.780746146114602 4.4146121105814258 0.024278971050992856 0.023210022342924855 0.025992287256994352 7.8718992245378905 0.023862047381221704 0.025474255101351054 0.025611117428857553 1.5021294651546253 3.3320290600019704 0.026683284657201052 0.024548368036172503 7.7667243178902412 2.0787757813708603
decision_type=2 2 2 2 2 2 2 2 2 2 2 2 2 2 2 2 2 2 2
left_child=3 2 8 6 5 -4 11 -8 9 -2 -3 -1 -10 14 -5 17 -6 -15 -9
right_child=1 10 4 13 16 -7 7 18 12 -11 -12 -13 -14 15 -16 -17 -18 -19 -20
leaf_value=-0.48747935271956083 0.087104357343542479 0.13941040925474874 0.1465723914912383 -0.40374396407407415 0.037304621420086538 -0.37222837131678027 -0.19506446123080171 0.50610525472725509 0.21891890226583433 0.44792567661446836 -0.43310990307246544 0.17992178563781822 -0.39176241175524062 -0.42696526869492263 0.35404881550623118 0.0067630072972913588 0.47034176695060159 -0.18666253024711932 0.43428091767276467
leaf_count=7 11 4 34 5 4 23 6 5 7 57 23 4 4 54 4 4 13 4 9
internal_value=0 0.296915 0.510968 -0.568417 0.0689429 -0.204062 0.204486 0.798857 0.949426 1.12737 -1.00275 -0.863363 -0.109196 -0.972436 -0.0411585 -1.11336 1.08436 -1.20065 1.36108
internal_count=282 180 153 102 74 57 31 20 79 68 27 11 11 71 9 62 17 58 14
shrinkage=0.342814


Tree=4
num_leaves=16
num_cat=0
split_feature=11 19 6 39 39 14 26 20 15 32 16 40 23 24 2
split_gain=4.16567 6.25883 4.63511 3.52514 3.08776 2.51185 2.09095 1.99426 1.74018 2.32003 1.71691 1.3258 0.417378 0.183552 0.0107078
threshold=11.171760137867652 8.7837776605430111 3.2927251427000903 0.023423788871901052 0.02634898393255115 1.8922758268160103 0.023525784248272303 0.024154813891636703 7.0559272668128115 0.024150396787049801 6.6946428145048307 0.024745041400033505 0.023792645331003805 0.026368669265936156 6.596974540596956
decision_type=2 2 2 2 2 2 2 2 2 2 2 2 2 2 2
left_child=1 2 3 11 7 -5 -2 -4 13 -10 -11 -1 -8 14 -3
right_child=6 8 4 5 -6 -7 12 -9 9 10 -12 -13 -14 -15 -16
leaf_value=0.087695013958482587 0.20636688477804369 0.40920091937969932 0.11069572898221643 -0.043760873285070355 0.40948036757992756 0.24794392129633511 -0.043964854037897218 -0.42273202834226781 -0.4043547601396536 -0.26888024449949666 0.43828580554038121 -0.44006510908558588 -0.40241561298333151 0.17864092422248418 0.47921862172738217
leaf_count=6 6 36 7 43 4 60 4 38 5 4 12 14 35 4 4
internal_value=0 0.131452 -0.130437 0.156278 -0.795641 0.359634 -0.808385 -1.0073 0.853057 0.234544 0.777494 -0.865424 -1.07734 1.17338 1.22452
internal_count=282 237 172 123 49 103 45 45 65 21 16 20 39 44 40
shrinkage=0.342814


Tree=5
num_leaves=19
num_cat=0
split_feature=0 8 6 40 37 0 6 29 11 26 24 8 17 13 1 13 19 41
split_gain=4.11669 3.84009 3.50154 2.29316 2.73663 2.62551 2.2744 2.14737 1.91108 2.06254 1.59439 1.33196 1.48581 0.784992 0.684564 0.227119 0.17586 0.00419279
threshold=10.493598518888051 2.1130639391308557 3.3399093832993203 0.025358968193524702 0.022982405453859153 6.8269831593917809 1.4444173143457604 0.026122269002097853 11.910019239363701 0.024662725613818656 0.024545224210922905 1.0145493481759551 0.24890801124806802 2.3162693090831801 7.2954491213323314 0.26498850649767053 9.6242195789987068 0.024400286549598155
decision_type=2 2 2 2 2 2 2 2 2 2 2 2 2 2 2 2 2 2
left_child=2 14 3 4 6 -6 -1 13 9 10 -3 15 -13 -4 17 -5 -15 -2
right_child=1 8 7 11 5 -7 -8 -9 -10 -11 -12 12 -14 16 -16 -17 -18 -19
leaf_value=0.16226080423569783 0.43044902794532408 0.38684802185035599 0.080052975423679507 -0.15079530848025582 -0.0035758979442797926 0.36686771504441062 -0.62342512418466589 0.28069208929931472 -0.38603453378454294 0.41914824352404595 -0.23636205083031334 0.41257690342347686 -0.21298406259122793 -0.40943456671258521 0.0058028407647759952 -0.43835811421554927 -0.23422918745132276 0.38567923321102149
leaf_count=6 22 6 4 4 37 37 8 5 14 11 16 5 11 47 6 13 9 21
internal_value=0 0.495602 -0.254209 0.0171417 0.262222 0.485507 -0.871115 -0.838296 -0.0973226 0.241592 -0.268215 -0.603982 -0.0041387 -1.02288 1.08596 -1.12708 -1.12132 1.20339
internal_count=282 96 186 121 88 74 14 65 47 33 22 33 16 60 49 17 56 43
shrinkage=0.342814


Tree=6
num_leaves=22
num_cat=0
split_feature=0 18 11 32 25 41 31 20 39 1 0 12 11 4 34 45 23 33 33 21 41
split_gain=2.55422 2.68773 1.96566 1.92235 1.85652 1.6584 1.94559 1.55881 1.43574 1.3494 1.1314 0.949464 0.87022 0.797989 0.724979 0.64188 0.434827 0.434616 0.336261 0.196179 0.194584
threshold=10.493598518888051 5.1168846459799608 7.4027437881255009 0.023721233849894555 0.024980467750122803 0.025513105103971853 0.023150555007418853 0.024194130448144203 0.025280765023854502 3.8644299878990354 6.7064453045263113 4.0936969413485107 14.608458380408601 0.25276840483656809 0.024572548003117204 0.023759048335449704 0.024018343030961953 0.026098683584305452 0.024723545219018001 0.026334578649565555 0.025756330570774606
decision_type=2 2 2 2 2 2 2 2 2 2 2 2 2 2 2 2 2 2 2 2 2
left_child=2 11 3 4 18 6 -5 -7 16 10 -4 17 -10 -6 -13 -12 -3 20 -1 -16 -2
right_child=1 8 9 5 13 7 -8 -9 12 -11 15 14 -14 -15 19 -17 -18 -19 -20 -21 -22
leaf_value=-0.41307008326325528 0.39051824656598078 0.037309080549521395 -0.36953162087167152 -0.21712738309123528 0.42400015753696535 0.27345520133407925 0.21124958098539781 -0.28721991843596112 0.40155789184907514 -0.39078555151134481 -0.1138628651179492 -0.38010436753818627 -0.35343111175448289 -0.35271515511966994 -0 0.40073858924542427 -0.40587478865624771 0.0080227920922994311 -0.79756295066680116 0.37242428309816711 0.11347287854840819
leaf_count=9 48 4 10 15 4 7 64 22 7 37 4 4 4 4 4 6 13 4 4 4 4
internal_value=0 0.443867 -0.211377 -0.0150278 -0.87214 0.148082 0.385939 -0.456449 -0.400353 -0.746182 -0.0620952 0.808803 0.599531 0.480638 -0.0478534 0.538772 -0.944973 0.990038 -1.49377 0.590366 1.0804
internal_count=282 96 186 129 21 108 79 29 28 57 20 68 11 8 12 10 17 56 13 8 52
shrinkage=0.342814


Tree=7
num_leaves=16
num_cat=0
split_feature=18 19 39 2 40 48 23 20 11 38 19 7 4 28 4
split_gain=1.79321 2.02083 1.96197 1.57335 1.83916 2.24335 1.2115 0.922363 0.892853 0.698449 0.601952 0.433328 0.160082 0.132758 0.0290954
threshold=3.4923766347167207 8.7837776605430111 0.026113765900020052 5.6679424359723161 0.025310689451715804 0.022135523362235905 0.023762428441000401 0.025471777209703002 9.816439543620497 0.023393768129554352 15.688299833649802 17.491610766124104 0.75383527282665519 0.024118324069569454 0.26057250860375908
decision_type=2 2 2 2 2 2 2 2 2 2 2 2 2 2 2
left_child=1 3 6 4 5 -1 12 -6 -4 -8 -3 -11 -2 -5 -15
right_child=2 10 8 13 7 -7 9 -9 -10 11 -12 -13 -14 14 -16
leaf_value=-0.39041758611095845 0.3669133559243139 0.37129172083845291 0.40161853187426566 -0.59578075329057756 -0.020556071968234869 0.1959283028319313 0.10522078591543473 -0.37485979874822428 -0.20470639869268409 -0.33369088834716804 -0.15116900459055138 0.11601980550134312 0.006319706567602835 -0.17461454714795724 -0.37161298289867212
leaf_count=9 5 43 11 4 25 75 6 15 6 61 4 5 4 4 5
internal_value=0 0.191221 -0.402789 0.0140057 0.114477 0.385092 -0.643625 -0.476419 0.668393 -0.792017 0.935806 -0.905256 0.66823 -1.25176 -0.910985
internal_count=282 184 98 137 124 84 81 40 17 72 47 66 9 13 9
shrinkage=0.342814


Tree=8
num_leaves=21
num_cat=0
split_feature=4 20 22 25 7 12 38 6 6 30 7 28 10 40 43 32 4 36 32 2
split_gain=1.27725 1.37294 1.3259 1.26691 1.20029 1.19657 0.934528 1.02395 0.831612 1.05854 0.778312 1.02445 1.05186 0.484896 0.495628 0.417333 0.439427 0.229302 0.159536 0.0609892
threshold=0.54849940479680803 0.025323249829032553 0.024034677683627253 0.023750488201235351 5.0856068018355254 2.3340818975369753 0.025442960057901854 1.9555250952684402 3.9511684189541354 0.023096155023262555 7.3701231950560757 0.023936669084633752 10.037053710871552 0.026048408356333003 0.026221484302102752 0.025798065229892354 1.2832094410037902 0.025929853485685207 0.025182201173434303 3.2710745368606253
decision_type=2 2 2 2 2 2 2 2 2 2 2 2 2 2 2 2 2 2 2 2
left_child=1 6 8 -2 17 -6 13 19 9 -3 15 -12 -13 14 -1 -5 -17 -4 -9 -8
right_child=3 2 4 10 5 -7 7 18 -10 -11 11 12 -14 -15 -16 16 -18 -19 -20 -21
leaf_value=0.32618686416095094 0.36754297526166391 -0.245656412271336 -0.39031164948001357 -0.38448498914861845 0.36451801784846727 -0.1558373638855883 0.36839526917693294 -0.035232684136584411 -0.3126187169631211 0.37172601521221355 -0.46651490813756957 0.27011084830647891 -0.14809365475495376 -0.10848693836346741 -0.011182913992825583 0.29913841542295427 -0.353882499408052 -0.070050077758961535 -0.38436007426346874 0.12076168974933493
leaf_count=55 6 4 22 34 14 24 5 4 6 18 4 20 30 5 8 4 4 4 7 4
internal_value=0 0.173641 -0.134632 -0.364732 -0.454524 0.0339553 0.512384 -0.188198 0.468218 0.720814 -0.497683 -0.195492 0.0494475 0.724725 0.820868 -0.924531 -0.0704732 -0.999191 -0.876767 0.830086
internal_count=282 180 92 102 64 38 88 20 28 22 96 54 50 68 63 42 8 26 11 9
shrinkage=0.342814


Tree=9
num_leaves=19
num_cat=0
split_feature=0 6 10 10 15 5 12 23 11 30 16 27 8 31 8 47 29 49
split_gain=1.3864 1.31873 1.25755 1.01466 0.843443 1.25357 1.32379 0.776886 0.681851 0.603425 0.554692 0.523205 0.297542 0.281985 0.25691 0.173291 0.126207 0.0812476
threshold=10.493598518888051 3.2927251427000903 10.037053710871552 7.0583017021049859 5.2979469577248652 5.3654733025879162 0.53348777580038209 0.024609473163573505 14.608458380408601 0.023751107420605804 7.7667243178902412 0.025962525851046303 1.1017221712659702 0.025303873180833856 1.1017221712659702 0.026196935891891007 0.023956277305551252 0.024500501798899153
decision_type=2 2 2 2 2 2 2 2 2 2 2 2 2 2 2 2 2 2
left_child=1 4 -2 14 5 6 -1 8 10 -6 -4 -7 -5 17 -3 -14 -11 -9
right_child=2 3 7 12 9 11 -8 13 -10 16 -12 -13 15 -15 -16 -17 -18 -19
leaf_value=0.24384249710714728 0.36925708342469638 -0.19161214135200325 -0.14835010002611415 0.1532462466003699 0.34434120365726356 0.30222733128336993 -0.18111186587736494 -0.15241731202100026 -0.34617603559763249 -0.072179273584159973 0.33104641979348781 -0.11864943228417377 -0.37197553171669517 0.1470614146238477 0.36935178041879807 -0.012084173319864031 -0.40913567421783914 -0.37936383726394279
leaf_count=15 40 4 6 4 4 36 47 7 8 4 23 4 50 4 5 4 9 8
internal_value=0 -0.197462 0.437136 -0.724288 0.0202625 0.154849 -0.180503 0.0361222 0.417485 -0.753829 0.663123 0.693777 -0.946487 -0.63546 0.629524 -1.01927 -1.03807 -0.874174
internal_count=282 186 96 67 119 102 62 56 37 17 29 40 58 19 9 54 13 15
shrinkage=0.342814


Tree=10
num_leaves=18
num_cat=0
split_feature=0 9 11 31 9 17 14 11 31 18 0 36 32 26 8 36 13
split_gain=1.09799 1.70049 1.02228 0.782757 0.713972 0.709012 0.679653 0.741905 0.607865 0.669071 0.570048 0.541704 0.669991 0.384297 0.311299 0.164438 0.0602047
threshold=6.2701225546321213 3.0570170592264403 11.910019239363701 0.024597282113654705 1.4350217604158102 0.54687600795797009 5.3058946818526511 5.6398853874670563 0.022947608471066801 3.9157558540122905 9.1976433458240123 0.025962448116615102 0.024957302353455352 0.023935590308850254 2.0087281733466509 0.022991425210549154 0.96148946272840308
decision_type=2 2 2 2 2 2 2 2 2 2 2 2 2 2 2 2 2
left_child=1 3 5 4 -1 8 7 -7 10 -10 -2 -3 -13 -8 -4 -5 -6
right_child=2 11 14 15 16 6 13 -9 9 -11 -12 12 -14 -15 -16 -17 -18
leaf_value=0.30573286864744154 -0.30842128968963045 -0.36696667825335189 0.21332694007643341 0.0047158328123858874 -0.37187385038044429 0.24086559761484597 -0.1349047748381671 -0.18878133542649328 0.35928360885172128 -0.13893134650603278 0.34834235627584792 0.26971159752041768 -0.37014149996521689 0.31427296429733115 -0.35301763294174243 0.37555161978718388 -0.13936865814192212
leaf_count=5 5 56 4 4 6 11 5 40 64 6 6 4 5 20 25 12 4
internal_value=0 -0.365083 0.219974 0.328204 -0.293089 0.342227 0.0463861 -0.249831 0.666803 0.86592 -0.193157 -0.833651 -0.0938328 0.634047 -0.787088 0.923386 -0.875088
internal_count=282 96 186 31 15 157 76 51 81 70 11 65 9 25 29 16 10
shrinkage=0.342814


Tree=11
num_leaves=17
num_cat=0
split_feature=0 9 2 4 1 39 37 48 11 36 41 7 26 36 2 41
split_gain=0.71783 1.14517 0.809344 0.637024 0.758456 0.60547 0.599295 0.459165 0.561158 0.412782 0.467044 0.365111 0.292589 0.223393 0.216136 0.130222
threshold=6.2701225546321213 3.0570170592264403 3.1635124289344607 0.54849940479680803 4.7132054957789302 0.023968041287916155 0.025011287260041704 0.025156444613025752 11.511550714579352 0.025962448116615102 0.025385389355312652 1.9337816701204102 0.023199906607220402 0.022935513967382203 6.4385312140142164 0.023025514529026955
decision_type=2 2 2 2 2 2 2 2 2 2 2 2 2 2 2 2
left_child=1 5 15 4 14 11 -6 12 -9 -3 -11 -1 -5 -7 -4 -2
right_child=2 9 3 7 6 13 -8 8 -10 10 -12 -13 -14 -15 -16 -17
leaf_value=-0.35749250976251296 -0.0036912269391539678 -0.35902012336264305 0.31689302345125508 0.15811050811544408 0.14269767671339381 -0.016433406175747633 -0.25579978127879249 0.2527224849608305 -0.34140194695721643 0.22778742190560586 -0.35889057486247916 0.1467392333475902 -0.30834294483278607 0.36274715182163281 -0.12868367907175401 0.35710382958161074
leaf_count=8 4 56 40 7 28 4 18 12 13 4 5 5 29 14 4 31
internal_value=0 -0.339843 0.193269 0.0322364 0.309948 0.292357 -0.138812 -0.37557 0.195072 -0.790904 -0.0948782 -0.427022 -0.727274 0.794746 0.811759 0.932145
internal_count=282 96 186 151 90 31 46 61 25 65 9 13 36 18 44 35
shrinkage=0.342814


Tree=12
num_leaves=18
num_cat=0
split_feature=0 10 6 10 46 32 41 43 37 24 25 36 42 14 8 9 6
split_gain=0.496399 0.665331 0.584715 0.537715 0.448085 0.348105 0.372238 0.434032 0.424753 0.345929 0.315392 0.23015 0.145382 0.104982 0.0914783 0.0431066 0.0146034
threshold=10.493598518888051 10.037053710871552 3.2927251427000903 6.5904069851839813 0.025291300512839503 0.023721233849894555 0.025513105103971853 0.024880730639900806 0.022982405453859153 0.024476056632162003 0.024980467750122803 0.024267346635455805 0.025880502255545456 7.0008672016411158 1.1017221712659702 9.7346514589204922 4.9685649299634003
decision_type=2 2 2 2 2 2 2 2 2 2 2 2 2 2 2 2 2
left_child=2 -2 5 -4 9 10 8 -8 -7 15 -1 -11 16 14 -5 -3 -6
right_child=1 4 3 13 12 6 7 -9 -10 11 -12 -13 -14 -15 -16 -17 -18
leaf_value=-0.36287110547822277 0.35265585765179858 0.33727235641456005 0.28498787612643428 0 0.13030088930543296 -0.27501708605058833 0.10708008715819932 -0.31276613220679794 0.16709546696358762 0.070069857687679121 0.20558598969077135 -0.32225187277484729 -0.13669975839175993 0.022344112565539892 -0.3468533132444192 0 0.35253667770499275
leaf_count=11 40 5 7 5 4 6 13 16 66 7 7 22 4 4 51 4 10
internal_value=0 0.356233 -0.162194 -0.661088 -0.0153846 0.0284579 0.142719 -0.330913 0.348856 -0.37451 -0.663502 -0.652814 0.717303 -0.871971 -0.944221 0.700653 0.94442
internal_count=282 96 186 67 56 119 101 29 72 38 18 29 18 60 56 9 14
shrinkage=0.342814


Tree=13
num_leaves=20
num_cat=0
split_feature=0 9 12 4 43 27 30 23 43 19 3 32 25 40 25 17 32 41 49
split_gain=0.408095 0.710097 0.496493 0.574028 0.428698 0.34355 0.35048 0.292443 0.439242 0.289593 0.410867 0.250738 0.223175 0.209605 0.193206 0.160392 0.0522695 0.0389066 0.0191815
threshold=6.2701225546321213 3.0570170592264403 3.7944344273584805 1.0999774205253352 0.024278971050992856 0.025145691045583705 0.024337499462460353 0.026014472987625055 0.024717713673030953 10.815924104054352 11.554338682515152 0.024835207857416504 0.027515655032736352 0.024270589909958354 0.026159576240193053 4.351066297864671 0.025473047426723804 0.025146302292004503 0.025248250159580453
decision_type=2 2 2 2 2 2 2 2 2 2 2 2 2 2 2 2 2 2 2
left_child=1 4 3 5 12 14 -7 -3 -9 16 17 -6 -1 -5 -2 -12 -4 -11 -15
right_child=2 7 9 13 11 6 -8 8 -10 10 15 -13 -14 18 -16 -17 -18 -19 -20
leaf_value=-0.35049633801357488 0.33045451987078961 -0.35456787766008258 -0.36419125753337694 0.22075369514864757 -0.096744348429503149 0.34566468102004899 -0.12361654826594057 0.31525031547098326 -0.34204315217146569 0.34297487750766242 -0.34494923304866754 0.35562381361439638 0.17244533863794106 -0.35026957385216828 0.052647423089216883 0.13971131143848012 -0.081585536420429497 0.035646226160880576 -0.066955579666643728
leaf_count=7 71 51 11 6 6 11 20 4 10 11 12 14 4 12 15 5 4 4 4
internal_value=0 -0.312329 0.174418 0.38304 0.267663 0.56063 0.0416835 -0.753242 -0.0817787 -0.346151 0.0499044 0.716361 -0.528364 -0.604218 0.801783 -0.63621 -0.900231 0.832568 -0.936241
internal_count=282 96 186 139 31 117 31 65 14 47 32 20 11 22 86 17 15 15 16
shrinkage=0.342814


Tree=14
num_leaves=10
num_cat=0
split_feature=40 11 35 38 19 33 32 23 8
split_gain=0.296494 0.326817 0.311753 0.30397 0.365014 0.300314 0.203276 0.200708 0.094801
threshold=0.026048408356333003 11.910019239363701 0.025114772892885953 0.023373234242687255 8.9646904015158917 0.022799867370305753 0.022613982383943604 0.023635649078933004 1.7932622076001101
decision_type=2 2 2 2 2 2 2 2 2
left_child=1 2 5 -4 -5 -1 -7 -2 -3
right_child=7 8 3 4 -6 6 -8 -9 -10
leaf_value=-0.32218617637786878 0.21986517084699941 0.16300598257937038 0.3392963036820329 -0.15746942438720296 0.21617097462338972 -0.32326771964287127 0.17563925598995628 -0.3454754066990422 -0.34068644028201939
leaf_count=7 4 4 8 62 21 4 124 20 28
internal_value=0 0.0614534 0.132627 -0.139044 -0.259147 0.366458 0.453693 -0.731459 -0.814977
internal_count=282 258 226 91 83 135 128 24 32
shrinkage=0.342814


Tree=15
num_leaves=18
num_cat=0
split_feature=4 12 7 11 41 32 37 43 7 28 44 35 42 36 13 28 1
split_gain=0.244767 0.3191 0.28765 0.291589 0.357079 0.277805 0.256021 0.215265 0.18059 0.164582 0.152163 0.0900541 0.0855478 0.0693459 0.054235 0.0504931 0.0457855
threshold=0.23753480361558851 3.5574348242167502 3.4360266765297354 9.2459330093652969 0.025705426573500754 0.023649761238205703 0.025420535732816753 0.025731213129833706 12.069749277810402 0.024281740396650906 0.022333352450416354 0.023484719283808655 0.024892780479914955 0.024267346635455805 2.4691284178311004 0.023488325027187403 3.6557620329154603
decision_type=2 2 2 2 2 2 2 2 2 2 2 2 2 2 2 2 2
left_child=1 6 -2 4 5 -4 10 14 16 -10 -1 -6 -9 -3 -8 -12 -5
right_child=2 13 3 8 11 -7 7 12 9 -11 15 -13 -14 -15 -16 -17 -18
leaf_value=-0.17784859080179627 -0.34544991157142224 0.13898923710837893 -0.31952059187003928 0.06476613610796636 0.0093187124444046778 0.1527896986462329 -0.34282865744553509 -0.15068425388272771 -0.2936071015289401 0.21100287204512949 0.056889203533899174 -0.34739682795886406 0.334783328229665 -0.34567669374921867 0.041870575342843497 0.32032280482184522 -0.32858753577840116
leaf_count=4 20 4 6 5 5 87 7 4 8 13 6 10 5 9 4 47 38
internal_value=0 0.293818 -0.167661 -0.0656273 0.129221 0.321377 0.465704 -0.156533 -0.552593 0.0437654 0.737112 -0.726147 0.593185 -0.777029 -0.780695 0.850116 -0.89007
internal_count=282 90 192 172 108 93 77 20 64 21 57 15 9 13 11 53 43
shrinkage=0.342814


Tree=16
num_leaves=13
num_cat=0
split_feature=40 6 24 29 37 27 23 38 11 25 37 11
split_gain=0.174298 0.195338 0.259925 0.26316 0.194999 0.169016 0.144732 0.129181 0.0987162 0.0726486 0.0705098 0.00195887
threshold=0.026048408356333003 1.4444173143457604 0.025831660973375453 0.025748020451311856 0.024360019177817303 0.022852997929503256 0.023635649078933004 0.023373234242687255 8.5167479117567169 0.023832597496365703 0.025502022730959303 6.431230299604656
decision_type=2 2 2 2 2 2 2 2 2 2 2 2
left_child=1 5 3 4 -3 -1 -2 -4 -5 -7 -9 -11
right_child=6 2 7 8 -6 9 -8 10 -10 11 -12 -13
leaf_value=-0.20212151629280772 0.20028865999628853 -0.13275620679366071 0.23615861768117827 0.33725486407078231 0.078405832939925243 0.0035100471327808285 -0.33956907069870323 -0.3106314823906477 0.0037159554706963794 0.34553625015251993 -0.032523652965739322 0.14978312835001314
leaf_count=5 4 68 6 23 71 5 20 30 14 18 13 5
internal_value=0 0.0415918 -0.05525 0.0916687 -0.0705997 0.548562 -0.683821 -0.5866 0.712638 0.777408 -0.72445 0.963957
internal_count=282 258 225 176 139 33 24 49 37 28 43 23
shrinkage=0.342814


Tree=17
num_leaves=17
num_cat=0
split_feature=0 9 18 30 12 26 34 46 34 30 45 41 32 9 31 0
split_gain=0.213812 0.467194 0.293742 0.213378 0.178907 0.155567 0.150428 0.153825 0.128979 0.1261 0.118362 0.103513 0.103376 0.0805252 0.0580238 0.0455366
threshold=5.5385267085197309 3.0570170592264403 2.4630405145751606 0.025275322736628754 3.7944344273584805 0.022520556636878655 0.024227041146376856 0.025742687185771003 0.021007977116212554 0.024038223158138604 0.02586285019705355 0.026322824700669756 0.023299349279458703 9.7346514589204922 0.022995671338913604 14.460125250557203
decision_type=2 2 2 2 2 2 2 2 2 2 2 2 2 2 2 2
left_child=1 5 4 6 11 -1 13 -8 -7 -6 15 14 -10 -4 -2 -5
right_child=2 -3 3 10 9 8 7 -9 12 -11 -12 -13 -14 -15 -16 -17
leaf_value=-0.31621764047489054 0.10150111695233903 -0.34442137328372452 0.2921673740087542 -0.34550456005803709 -0.33197896708162467 -0.29517179095657214 -0.096733202361644191 0.30070700670162254 -0.17132123657556039 0.29333193463333967 0.1850030263809021 -0.17825575914682021 0.32354247377917944 -0.18890501261010331 0.34218417931405382 -0
leaf_count=4 13 51 24 20 4 4 56 11 4 5 4 4 18 6 50 4
internal_value=0 -0.383627 0.138844 -0.110975 0.569258 0.293565 0.105798 -0.106294 0.53564 -0.368304 -0.678272 0.756567 0.739602 0.668612 0.84994 -0.875026
internal_count=282 81 201 125 76 30 97 67 26 9 28 67 22 30 63 24
shrinkage=0.342814


Tree=18
num_leaves=14
num_cat=0
split_feature=11 19 6 10 18 39 14 47 18 2 32 41 25
split_gain=0.136372 0.184558 0.170412 0.148013 0.141453 0.134261 0.127019 0.114912 0.0946876 0.11111 0.0651239 0.0567511 0.0478533
threshold=11.171760137867652 8.7837776605430111 3.2927251427000903 7.0583017021049859 2.3082146339514007 0.023423788871901052 1.8922758268160103 0.023263859488742704 5.0330647405721605 6.8587124204429708 0.023637659539996605 0.023921168760047056 0.025955971988025205
decision_type=2 2 2 2 2 2 2 2 2 2 2 2 2
left_child=1 2 5 -4 -2 7 -7 -1 10 12 -3 -5 -10
right_child=4 8 3 11 -6 6 -8 -9 9 -11 -12 -13 -14
leaf_value=0.24571991600497439 0.28934922371114641 -0.046256292096652822 0.16889660959096273 0.03592834400182153 -0.32610568107437926 -0.047053468163898542 0.16119124814746155 -0.33287290468962899 -0.32371650448259109 0.31491352076808715 0.33852120527427426 -0.31647698390837858 0.077072645290270081
leaf_count=4 5 6 7 7 40 43 60 16 4 5 46 35 4
internal_value=0 0.0581568 -0.0773321 -0.550429 -0.647483 0.0863815 0.206642 -0.612442 0.541612 0 0.829616 -0.796248 -0.533851
internal_count=282 237 172 49 45 123 103 20 65 13 52 42 8
shrinkage=0.342814


Tree=19
num_leaves=22
num_cat=0
split_feature=4 33 33 34 47 38 41 12 24 38 47 38 8 47 32 12 24 2 46 10 43
split_gain=0.119386 0.128623 0.241258 0.113164 0.16184 0.147611 0.106377 0.0788035 0.166389 0.073796 0.0688115 0.0572083 0.0416115 0.0342163 0.0249199 0.0242277 0.0158177 0.0202585 0.0154429 0.0154061 0.0153212
threshold=0.54849940479680803 0.025304001127710352 0.024441591535074001 0.024888715576160802 0.026655994525162801 0.025442960057901854 0.025803008800240456 1.1510740095319403 0.025831660973375453 0.024823626555963905 0.025332175993320206 0.026065787799175504 0.82798014913011919 0.023369991516372604 0.024579738302700403 1.1914920599698402 0.025626637675119503 3.5623263998477555 0.0259167325770733 12.868127144726952 0.025497234428696853
decision_type=2 2 2 2 2 2 2 2 2 2 2 2 2 2 2 2 2 2 2 2 2
left_child=3 2 13 4 7 6 10 -1 -9 19 -5 -11 -6 14 -2 -3 17 -7 -17 -4 -15
right_child=1 15 9 5 12 16 -8 8 -10 11 -12 -13 -14 20 -16 18 -18 -19 -20 -21 -22
leaf_value=0.33741321648328093 -0.23149658736737685 0 0.32352682126927534 0.28569936996764433 -0.32422994202977784 0.066711496077332996 -0.30974543730953369 0.19715388359376324 -0.23211438900592879 -0.24902905529906152 -4.2209546909923025e-05 0.25095308055058407 0.029760811096051387 -0.30701622777243975 0.21510564419803196 -0.34200762896179038 -0.33085421219396921 -0.26048687721521707 0 -0 0
leaf_count=21 4 4 17 21 5 6 7 64 13 15 17 5 4 26 4 15 17 5 4 4 4
internal_value=0 -0.303186 -0.0411144 0.142725 0.351565 -0.167364 0.168408 0.51645 0.311814 0.547297 0.390976 -0.119493 -0.582456 -0.684242 0 -0.853961 -0.789214 -0.279967 -0.93749 0.867488 -0.83293
internal_count=282 102 79 180 107 73 45 98 77 41 38 20 9 38 8 23 28 11 19 21 30
shrinkage=0.342814


Tree=20
num_leaves=15
num_cat=0
split_feature=40 4 13 7 15 12 38 48 49 39 10 23 23 34
split_gain=0.0763309 0.0785011 0.108936 0.102228 0.138458 0.0889761 0.0850256 0.106409 0.132454 0.0763197 0.0440921 0.040733 0.0364061 0.0148101
threshold=0.026048408356333003 0.54849940479680803 7.722451132115336 7.766242758701571 4.0395023953848606 3.7944344273584805 0.024807078757277903 0.024935363878508702 0.024426815551808905 0.026082175627632851 15.830357047932852 0.023635649078933004 0.023792645331003805 0.024815046750998052
decision_type=2 2 2 2 2 2 2 2 2 2 2 2 2 2
left_child=1 2 3 4 -1 -5 7 8 -3 12 -9 -2 -8 -11
right_child=11 6 -4 5 -6 -7 9 10 -10 13 -12 -13 -14 -15
leaf_value=0.10315857158146233 0.078133681688266163 0.26129382583002658 -0.31370298949278186 0.33568374726199546 -0.20641441469173769 -0 0.027383166257064408 0.30573378905127413 -0.32683240492375709 -0.04487544586615045 -0.20420469342159883 -0.32276836385768881 -0.32644072363047139 0.27194586164771684
leaf_count=61 4 9 8 49 26 18 7 18 13 4 5 20 35 5
internal_value=0 0.0369192 0.179352 0.255011 0.0504621 0.664715 -0.237162 0.0930525 -0.387964 -0.605215 0.699657 -0.685488 -0.821861 0.42379
internal_count=282 258 162 154 87 67 96 45 22 51 23 24 42 9
shrinkage=0.342814


Tree=21
num_leaves=21
num_cat=0
split_feature=0 9 12 4 31 31 18 0 0 19 0 15 25 10 33 9 11 11 47 20
split_gain=0.142015 0.184016 0.114256 0.105103 0.108149 0.076986 0.0827003 0.0723273 0.0704138 0.067171 0.0449174 0.104527 0.0403138 0.0276526 0.0272901 0.0140981 0.0108734 0.00932257 0.00709819 0.00290159
threshold=6.7064453045263113 3.0570170592264403 3.7944344273584805 1.0999774205253352 0.025249947060672951 0.024597282113654705 0.27986366598845308 14.522622643802952 7.2201033008104654 14.167244392203903 5.5385267085197309 3.8760380554305951 0.025938238834401901 15.331597732862951 0.024993517897028156 10.323806934573351 14.608458380408601 7.2957954117175552 0.024952527215225655 0.026266778047596352
decision_type=2 2 2 2 2 2 2 2 2 2 2 2 2 2 2 2 2 2 2 2
left_child=1 5 3 4 13 6 -1 15 -6 -9 -3 -12 18 -2 -11 17 -17 -4 -5 -7
right_child=2 10 7 12 8 19 -8 9 -10 14 11 -13 -14 -15 -16 16 -18 -19 -20 -21
leaf_value=0.22549298373514182 0.30363848727724835 -0.33625120957752624 -0.022657731974277763 -0.30779262321992973 0.29699370679407605 0.32010174312440515 -0.27483143450248532 0.30748744550845702 -0.1525020935690104 -0.28969802724421567 0.21048092000155344 -0.31010772136079373 0.18226889827324225 -0.060174635296968239 0.11024824169846248 0.17020671080256564 -0.19486889169052746 -0.32553157289793028 -0 0.060526784790189213
leaf_count=5 86 51 4 12 4 12 10 10 18 8 5 15 5 4 4 4 7 10 4 4
internal_value=0 -0.351369 0.213708 0.424885 0.5793 0.279943 -0.185487 -0.278083 -0.0404025 0.224354 -0.733889 -0.292856 -0.445275 0.835369 -0.415013 -0.705924 -0 -0.829701 -0.78065 0.84019
internal_count=282 102 180 133 112 31 15 47 22 22 71 20 21 90 12 25 11 14 16 16
shrinkage=0.342814


Tree=22
num_leaves=10
num_cat=0
split_feature=11 14 8 29 4 17 17 26 26
split_gain=0.0631671 0.0560416 0.0620498 0.0519906 0.0498228 0.0390633 0.0222301 0.0170344 0.00633513
threshold=11.171760137867652 6.0750824365464258 3.0413871588990857 0.022066630777152704 1.007092639874785 0.5514586418650792 0.26866556835685357 0.023935590308850254 0.023960112691620752
decision_type=2 2 2 2 2 2 2 2 2
left_child=1 2 3 -1 -5 -4 8 -3 -2
right_child=6 7 5 4 -6 -7 -8 -9 -10
leaf_value=-0.29401981627634333 0.17899785707981419 -0 0.11976536284740481 0.071733043702496391 -0.1443022807569754 -0.31974949063370434 -0.30102958595668095 0.29862380640082709 -0.098610558475525537
leaf_count=9 4 4 6 157 33 13 35 15 6
internal_value=0 0.0491431 -0.014235 0.0617111 0.117282 -0.667612 -0.669997 0.686568 0
internal_count=282 237 218 199 190 19 45 19 10
shrinkage=0.342814


Tree=23
num_leaves=21
num_cat=0
split_feature=0 9 11 0 8 7 11 32 0 39 7 0 2 22 14 24 43 10 11 5
split_gain=0.0947943 0.117656 0.0788934 0.0663639 0.0624614 0.0563109 0.0627421 0.047455 0.0462197 0.0404851 0.0354086 0.0346615 0.0594697 0.0337445 0.0225295 0.020203 0.0114383 0.0108288 0.00723394 0.00201564
threshold=6.7064453045263113 3.0570170592264403 7.2214109639958766 10.252646102251202 2.3983133441518105 2.0787757813708603 2.4448648015095804 0.024456266480740403 9.0125608755057574 0.023423788871901052 13.448668550114201 5.5385267085197309 3.1635124289344607 0.025808220423356554 5.5143998444534557 0.025647483512280803 0.024115417493891154 1.6636127156308451 3.3659582488898052 11.177941316280853
decision_type=2 2 2 2 2 2 2 2 2 2 2 2 2 2 2 2 2 2 2 2
left_child=1 5 7 13 14 6 17 8 15 -9 -6 -3 -13 16 -5 -2 -4 -1 -7 -11
right_child=2 11 3 4 10 18 -8 9 -10 19 -12 12 -14 -15 -16 -17 -18 -19 -20 -21
leaf_value=-0 -0.29106459357832393 -0.33127280150062044 0 0.30351959072618051 -0.25519961083608617 0.31114690106753684 0.27267557503516843 -0.10793586932440623 0.2771750664212736 0.33144531274975741 0.064070476529129158 0.1350150997675125 -0.30543009752261324 0.18478919510561437 -0.048604992957729798 0.064658592776747556 -0.29068491418778841 -0.3035526693292287 0 0.023630220666844323
leaf_count=4 4 51 4 31 18 12 4 5 12 43 20 7 13 5 6 4 24 7 4 4
internal_value=0 -0.33808 0.202059 -0.0723307 0.211828 0.229474 -0.201698 0.557344 -0 0.798161 -0.204992 -0.705087 -0.247159 -0.585085 0.71994 -0.505742 -0.754045 -0.700294 0.800905 0.93244
internal_count=282 102 180 108 75 31 15 72 20 52 38 71 20 33 37 8 28 11 16 47
shrinkage=0.342814


Tree=24
num_leaves=17
num_cat=0
split_feature=0 9 11 12 19 4 1 27 43 36 32 33 23 18 11 32
split_gain=0.0633922 0.0892563 0.0574436 0.0415361 0.050313 0.0441075 0.0388139 0.0372807 0.0381141 0.0335287 0.0287129 0.026398 0.0259549 0.0229528 0.00304064 0.00147121
threshold=6.2701225546321213 3.0570170592264403 11.171760137867652 3.7944344273584805 10.815924104054352 0.54849940479680803 4.7132054957789302 0.022852997929503256 0.024278971050992856 0.025962448116615102 0.024957302353455352 0.025304001127710352 0.024712339628831955 3.1847832689860205 7.2957954117175552 0.024835207857416504
decision_type=2 2 2 2 2 2 2 2 2 2 2 2 2 2 2 2
left_child=1 7 3 5 14 6 -2 -1 -9 -3 -11 -7 -6 -4 -5 -10
right_child=2 9 13 4 12 11 -8 8 15 10 -12 -13 -14 -15 -16 -17
leaf_value=-0.18981629452732907 0.32881718687511835 -0.32798320190066554 0.060623503779570327 -0.021575011027362416 0.28765111766491103 0.11145648515022924 0.041219332571892746 -0.11315589721634982 0.033732341144501861 0.16539374875417515 -0.2598344373414091 -0.1797612861944444 -0.085315599709361672 -0.29990008361386378 -0.29687962926952205 0.30960235039504691
leaf_count=6 55 56 9 4 12 29 26 7 4 4 5 10 6 28 7 14
internal_value=0 -0.327875 0.175023 0.292166 -0.140279 0.452017 0.68374 0.212701 0.492529 -0.724583 -0.0393699 0 0.39299 -0.57432 -0.72746 0.81781
internal_count=282 96 186 149 29 120 81 31 25 65 9 39 18 37 11 18
shrinkage=0.342814


Tree=25
num_leaves=19
num_cat=0
split_feature=0 6 19 7 12 15 44 4 24 39 23 2 13 41 11 6 8 19
split_gain=0.0471889 0.0499235 0.0481162 0.0364539 0.0508856 0.0361368 0.0323906 0.0273422 0.0213242 0.0209192 0.0149115 0.0107465 0.00769268 0.00726688 0.00701973 0.00646402 0.00414763 0.00370824
threshold=10.493598518888051 3.2927251427000903 13.969583714823052 4.8225358284247459 1.3237479655872602 5.7833162047580613 0.023748353372755503 1.007092639874785 0.026231903229620355 0.02634898393255115 0.025049369612012654 3.0734850167981906 4.5489585144476061 0.025333934765478901 9.2459330093652969 2.8550759486992403 3.3111193929483305 9.2785036217326713
decision_type=2 2 2 2 2 2 2 2 2 2 2 2 2 2 2 2 2 2
left_child=1 3 8 4 6 7 -1 -5 10 11 -2 -3 -4 -14 -12 -7 -10 -13
right_child=2 9 12 5 -6 15 -8 -9 16 -11 14 17 13 -15 -16 -17 -18 -19
leaf_value=-0.17874085844438833 0.30400131927019858 0 0.021652382059324762 0.28777946028128276 -0.29457685042939463 -0.23125673104581651 0.11690701522234673 -0 0.034219818165349671 0.069023274385551836 0.17256623186559372 -0.31936552100707483 -0.26871963224071316 0 -0.13279337942329056 0 -0.16987658422821572 -0.031600147057637307
leaf_count=15 56 8 5 34 19 4 30 13 5 4 6 44 10 5 4 4 5 11
internal_value=0 -0.16206 0.352704 0 -0.226548 0.338021 0.0442771 0.569608 0.60997 -0.630537 0.752041 -0.759451 -0.372125 -0.569134 0 -0.425568 -0.0714648 -0.849723
internal_count=282 186 96 119 64 55 45 47 76 67 66 63 20 15 10 8 10 55
shrinkage=0.342814


Tree=26
num_leaves=12
num_cat=0
split_feature=40 11 19 35 38 42 10 23 32 48 48
split_gain=0.0221568 0.0243785 0.0331619 0.0283018 0.0394006 0.0307719 0.0169858 0.00883123 0.00874273 0.00903129 0.00769114
threshold=0.026048408356333003 10.071428755338951 8.7837776605430111 0.025114772892885953 0.023373234242687255 0.026526676197891303 11.836535529747902 0.024053308670144605 0.023637659539996605 0.025947790505524055 0.024625852800721253
decision_type=2 2 2 2 2 2 2 2 2 2 2
left_child=1 2 3 5 -5 -1 -3 -2 -4 -10 -8
right_child=7 6 8 4 -6 -7 10 -9 9 -11 -12
leaf_value=0.1321430470236872 0 0.060405077428957982 -0 0.25676652365910685 -0.13298772477627985 -0.23932522400889508 0 -0.28007706286497314 0.29747383906849595 0 -0.28265418085927141
leaf_count=73 6 14 6 8 57 7 12 18 43 6 32
internal_value=0 0.0299928 0.111336 0 -0.229761 0.248776 -0.428708 -0.609416 0.620175 0.730345 -0.67615
internal_count=282 258 200 145 65 80 58 24 55 49 44
shrinkage=0.342814


Tree=27
num_leaves=19
num_cat=0
split_feature=0 9 12 4 39 18 24 23 43 32 49 19 22 7 10 19 33 47
split_gain=0.0255867 0.048173 0.0330101 0.0349765 0.0263497 0.0259819 0.0219553 0.0194857 0.0230308 0.0183402 0.0172491 0.0146074 0.014463 0.0125312 0.0110322 0.00909138 0.00714973 0.000217162
threshold=6.2701225546321213 3.0570170592264403 3.7944344273584805 0.54849940479680803 0.023968041287916155 3.3819408872396255 0.025414397936282602 0.026014472987625055 0.024717713673030953 0.023820571859238054 0.024426815551808905 10.815924104054352 0.024882973624111553 1.9337816701204102 8.0540586116066173 13.969583714823052 0.024539071142262555 0.023752143935206655
decision_type=2 2 2 2 2 2 2 2 2 2 2 2 2 2 2 2 2 2
left_child=1 4 3 5 13 -2 -7 -3 -9 -6 14 17 -12 -1 -5 -13 -17 -4
right_child=2 7 11 10 9 6 -8 8 -10 -11 12 15 -14 -15 -16 16 -18 -19
leaf_value=-0.25578043476922685 0.3113447020537452 -0.31396993782398225 -0.009612057320015889 0.25150683602454121 -0.019588360568649661 0.15214698264321203 -0.22615335986851254 0.20021609548738542 -0.24191695411733524 0.2936601377107444 -0.23045539836255949 0.15482546056404103 0.046343855841943185 0.045103400921983325 -0.049545137348166408 -0.22308774837477802 0.016400340167001922 -0.27206764978100506
leaf_count=8 64 51 4 11 4 19 6 4 10 14 17 14 15 5 7 11 7 11
internal_value=0 -0.258462 0.140968 0.319649 0.174217 0.592365 0.0712327 -0.658732 -0.0197431 0.549277 -0.0811019 -0.308647 -0.384613 -0.352031 0.380285 0 -0.291456 -0.687027
internal_count=282 96 186 139 31 89 25 65 14 18 50 47 32 13 18 32 18 15
shrinkage=0.342814


Tree=28
num_leaves=18
num_cat=0
split_feature=0 6 11 10 13 33 12 40 37 28 23 39 10 0 46 46 8
split_gain=0.0198183 0.0277839 0.0249334 0.0175959 0.0165691 0.0287448 0.0271033 0.0251473 0.0191125 0.0148367 0.0114604 0.0107392 0.0115156 0.00750897 0.0043624 0.00273224 0.00020774
threshold=10.493598518888051 3.2927251427000903 9.2459330093652969 7.3224250996966953 1.5338216128605151 0.025952965661171206 0.47442770047768107 0.025086596213721602 0.024905157771015905 0.026141443638420303 0.023792645331003805 0.026082175627632851 11.391784871311852 1.6786116216744902 0.024192960005186653 0.024642616563485004 1.4203075067239652
decision_type=2 2 2 2 2 2 2 2 2 2 2 2 2 2 2 2 2
left_child=1 4 14 15 6 7 13 -6 -7 -8 -4 12 -12 -1 -2 -3 -5
right_child=2 3 10 16 5 8 9 -9 -10 -11 11 -13 -14 -15 -16 -17 -18
leaf_value=-0 0 -0.046126446497961535 0.19438505458442412 -0.017067530724569395 0.24424990335479699 -0.26993420034838966 -0.29631122876356392 -0.06397506345156008 0.13773752781719983 0 0.0083967143254822588 0.10183582157321128 -0.27277191116077881 0.2353550805791822 0.29261013793443658 0.12871708663088205 -0.30122266184513985
leaf_count=5 10 8 12 8 49 10 17 18 6 8 8 6 22 6 38 6 45
internal_value=0 -0.134437 0.29257 -0.575974 0.00866099 0.210352 -0.264321 0.459991 -0.391881 -0.600759 -0.0442415 -0.281706 -0.517243 0.354177 0.733347 0.00284474 -0.808689
internal_count=282 186 96 67 119 83 36 67 16 25 48 36 30 11 48 14 53
shrinkage=0.342814


Tree=29
num_leaves=13
num_cat=0
split_feature=18 33 10 41 11 31 20 20 43 28 6 19
split_gain=0.0125734 0.0206445 0.0195497 0.0196248 0.0198212 0.0130049 0.00953436 0.00686644 0.00595912 0.00375608 0.00214372 0.000662462
threshold=0.27986366598845308 0.024236498834329701 4.2576783630470807 0.025705426573500754 7.9892454545394811 0.025294947623426555 0.024194130448144203 0.025923754471838954 0.024541881961692002 0.026023202314133301 1.0326606428804401 8.7837776605430111
decision_type=2 2 2 2 2 2 2 2 2 2 2 2
left_child=10 5 9 4 -4 6 -2 -7 -5 -3 -1 -8
right_child=1 2 3 8 -6 7 11 -9 -10 -11 -12 -13
leaf_value=0.23623070134375451 0 -0.23355563660648432 0.20948975882684237 0 -0 0.14060021705344483 -0.27268007169639208 -0.10370720764066822 -0.23312130175010573 -0 0 -0.040874515434128747
leaf_count=7 12 14 66 11 68 13 31 11 17 8 6 18
internal_value=0 -0.0667061 0.0806326 0.208709 0.342044 -0.377614 -0.57564 0 -0.400646 -0.484619 0.521034 -0.699959
internal_count=282 269 184 162 134 85 61 24 28 22 13 49
shrinkage=0.342814


Tree=30
num_leaves=13
num_cat=0
split_feature=37 26 4 37 28 12 18 13 44 28 20 2
split_gain=0.00983775 0.0275611 0.0156272 0.0184783 0.014391 0.0142065 0.0125884 0.0104404 0.00771759 0.00668211 0.000888553 0.000237195
threshold=0.025185821943904403 0.024878190799496203 0.23753480361558851 0.022982405453859153 0.025976416201810053 3.2584396680567904 2.4842697753676402 1.8062790540060403 0.023884392687422405 0.023608535402156402 0.025267162289564906 3.1177622817133006
decision_type=2 2 2 2 2 2 2 2 2 2 2 2
left_child=2 4 5 -4 -2 9 7 -5 -8 -1 -3 -6
right_child=1 10 3 6 11 -7 8 -9 -10 -11 -12 -13
leaf_value=-0 -0.26829417045892534 0.20985660144057028 -0.24578514069267443 -0.030527717588666382 -0 -0.074299331703696972 0.08906097172125603 0.21901954068061394 -0.10112720429091526 0.26549591057359334 0 0.041165612914275264
leaf_count=10 44 9 15 10 6 12 20 36 59 42 11 8
internal_value=0 -0.25507 0.0791177 -0.0554632 -0.549313 0.434626 0.05826 0.408201 -0.124391 0.638901 0.460759 0
internal_count=282 78 204 140 58 64 125 46 79 52 20 14
shrinkage=0.342814


Tree=31
num_leaves=14
num_cat=0
split_feature=0 10 40 14 48 37 14 23 37 11 3 27 32
split_gain=0.0151198 0.0123384 0.0115937 0.0123895 0.0126431 0.00906251 0.00868415 0.0043958 0.00490744 0.00389885 0.0027207 0.00247144 0.00200776
threshold=10.493598518888051 10.037053710871552 0.025611117428857553 3.7872724093665151 0.022135523362235905 0.024360019177817303 5.9970756521853312 0.024577177440171953 0.025059738158534853 2.3895335434661855 11.554338682515152 0.025378560232436256 0.025980393003588256
decision_type=2 2 2 2 2 2 2 2 2 2 2 2 2
left_child=2 -2 3 4 -1 -6 12 8 -3 -4 -9 -11 -5
right_child=1 7 9 6 5 -7 -8 10 -10 11 -12 -13 -14
leaf_value=-0.17695885548180182 0.264647789849418 0.17892220882578855 -0 -0.22370319934233188 -0 0.17865273588353611 0.042594974648824738 0 -0 -0.2629555410820632 -0.17327265548357546 -0 -0
leaf_count=10 40 23 7 31 40 45 9 10 12 26 11 9 9
internal_value=0 0.305248 -0.142449 -0.000531553 0.158003 0.299851 -0.353269 0 0.252248 -0.509172 -0.222755 -0.630179 -0.545277
internal_count=282 96 186 144 95 85 49 56 35 42 21 35 40
shrinkage=0.342814


Tree=32
num_leaves=13
num_cat=0
split_feature=0 9 11 31 17 14 8 31 18 43 11 23
split_gain=0.0131786 0.0221252 0.0123765 0.00913259 0.00752054 0.0105497 0.0110823 0.00911883 0.010903 0.00463314 0.00426087 0.0021198
threshold=6.2701225546321213 3.0570170592264403 12.191715800975901 0.025268756929739504 0.54687600795797009 5.3058946818526511 2.6618097823347253 0.022947608471066801 3.6174661527104752 0.024380448777507155 9.5805124869829363 0.026014472987625055
decision_type=2 2 2 2 2 2 2 2 2 2 2 2
left_child=1 3 4 9 7 6 -6 -2 -9 -1 -7 -3
right_child=2 11 -4 -5 5 10 -8 8 -10 -11 -12 -13
leaf_value=-0.18217671583165365 -0.0060226487446489599 -0.28298431499868515 -0.18182956179335721 0.20553356231479331 0.018123901075746188 0.23415309144186058 -0.22838495423995372 0.28561452647617325 -0 0.013509726463987291 0 -0.030012350891073587
leaf_count=7 11 51 27 12 35 14 16 62 9 12 12 14
internal_value=0 -0.278702 0.129734 0.117962 0.225788 0.0120943 -0.179413 0.461111 0.629791 -0.11512 0.434831 -0.670272
internal_count=282 96 186 31 159 77 51 82 71 19 26 65
shrinkage=0.342814


Tree=33
num_leaves=13
num_cat=0
split_feature=49 39 48 35 6 4 21 21 45 48 0 45
split_gain=0.00770114 0.0113757 0.0106536 0.00627968 0.00594761 0.00644577 0.00573129 0.0105344 0.00582086 0.00343939 0.00177761 0.00164821
threshold=0.024385749929707452 0.025037975435700004 0.024038863048598706 0.025677891759672253 1.4444173143457604 0.23753480361558851 0.026359617969835804 0.025393533481854653 0.025089075757884802 0.025612126355601502 11.957425884489551 0.024986926779556353
decision_type=2 2 2 2 2 2 2 2 2 2 2 2
left_child=2 4 -1 9 -2 -6 7 -3 -8 11 -7 -4
right_child=1 6 3 -5 5 10 8 -9 -10 -11 -12 -13
leaf_value=0.2153482721583708 0 -0.052708201925590545 0.18949431922023335 -0.1545312530678995 0 -0.23375408122541547 -0.19274550654478059 0.23031766005885837 0.041669209197649923 -0.0094629577680697165 -0 0
leaf_count=29 18 14 26 17 23 53 14 26 14 15 15 18
internal_value=0 -0.147096 0.18898 -0 -0.356988 -0.466384 0.111127 0.353293 -0.130714 0.155511 -0.594494 0.367774
internal_count=282 177 105 76 109 91 68 40 28 59 68 44
shrinkage=0.342814


Tree=34
num_leaves=11
num_cat=0
split_feature=0 12 11 23 24 23 28 22 17 18
split_gain=0.0078372 0.0119664 0.0101713 0.010545 0.0068535 0.00605012 0.00579951 0.00462446 0.00441662 0.00685393
threshold=6.2701225546321213 0.53348777580038209 7.2214109639958766 0.023762428441000401 0.024856650424331304 0.023865654959175354 0.026728007689483305 0.024034677683627253 2.0745813135752904 3.9157558540122905
decision_type=2 2 2 2 2 2 2 2 2 2
left_child=1 -1 4 -4 5 -2 7 -3 9 -5
right_child=2 6 3 8 -6 -7 -8 -9 -10 -11
leaf_value=0.079247397502041156 -0.11279405236418343 -0 0.16214979473748031 -0 0.22171965391125348 0.1489852750646867 0 -0.27360795718784281 0.00068108816553451247 -0.25302193959187941
leaf_count=17 15 17 26 39 42 19 8 54 15 30
internal_value=0 -0.243638 0.110569 -0.080493 0.388515 0 -0.468823 -0.6072 -0.290149 -0.413041
internal_count=282 96 186 110 76 34 79 71 84 69
shrinkage=0.342814


Tree=35
num_leaves=12
num_cat=0
split_feature=0 6 1 8 25 32 44 43 9 8 19
split_gain=0.00480792 0.00817581 0.00598302 0.00567659 0.00967916 0.00610654 0.00432324 0.00347724 0.00217201 0.00144184 0.000290445
threshold=10.493598518888051 3.2359955751246554 7.0232546461335259 2.0087281733466509 0.025668836459407054 0.025669804434199854 0.025762911430465652 0.024880730639900806 5.9240885091301108 2.1130639391308557 14.771355617122451
decision_type=2 2 2 2 2 2 2 2 2 2 2
left_child=1 3 9 4 5 -1 -6 -5 -3 -2 -4
right_child=2 8 10 7 6 -7 -8 -9 -10 -11 -12
leaf_value=-0.20964640249799277 0.22352785070219772 -0 0 0.20012932169977776 -0 0 0.17920550395296278 -0 -0.21986812779687881 0 -0.048938441962980854
leaf_count=33 43 22 16 18 25 12 13 16 47 23 14
internal_value=0 -0.103744 0.211019 0 -0.106562 -0.408902 0.195656 0.341135 -0.471234 0.458106 -0.0390936
internal_count=282 186 96 117 83 45 38 34 69 66 30
shrinkage=0.342814


Tree=36
num_leaves=10
num_cat=0
split_feature=40 33 28 10 32 20 23 33 9
split_gain=0.00444522 0.00535748 0.0083894 0.0087244 0.00393541 0.00310011 0.00309192 0.00201903 0.000913941
threshold=0.025611117428857553 0.024103217897747654 0.023488325027187403 9.8162327186764617 0.025798065229892354 0.025471777209703002 0.025049369612012654 0.025811820657307204 4.4511954073698314
decision_type=2 2 2 2 2 2 2 2 2
left_child=1 4 -3 7 8 -2 -5 -4 -1
right_child=5 2 3 6 -6 -7 -8 -9 -10
leaf_value=-0 0 -0.11281578390143672 0.2328775350275103 0.055409834907334671 0.033155881366753202 -0.16761492932029473 -0.12348212150893555 0 -0.15382067136477798
leaf_count=14 26 17 60 41 15 28 22 21 38
internal_value=0 0.0701785 0.207624 0.333787 -0.142982 -0.278382 -0 0.578765 -0.344652
internal_count=282 228 161 144 67 54 63 81 52
shrinkage=0.342814


Tree=37
num_leaves=9
num_cat=0
split_feature=0 12 12 22 48 19 3 19
split_gain=0.00473437 0.00658962 0.00546222 0.00413437 0.00281481 0.00280482 0.00444151 0.00329141
threshold=6.7064453045263113 0.53348777580038209 2.6308839832716351 0.023844350546846953 0.024038863048598706 10.637176348031003 11.554338682515152 7.9306788479294008
decision_type=2 2 2 2 2 2 2 2
left_child=1 -1 3 -2 -3 7 -7 -4
right_child=2 4 5 -5 -6 6 -8 -9
leaf_value=0.048777607451912806 -0 -0 0 0.18452770000824345 -0.19455979283291061 0.165034427510071 -0.02944691843451425 -0.17929007790099008
leaf_count=17 21 31 22 68 54 27 23 19
internal_value=0 -0.198012 0.114561 0.362547 -0.391484 -0.0200121 0.115698 -0.24342
internal_count=282 102 180 89 85 91 50 41
shrinkage=0.342814


Tree=38
num_leaves=7
num_cat=0
split_feature=39 9 0 11 35 47
split_gain=0.00348387 0.00482906 0.00521849 0.00439708 0.00657099 0.00257654
threshold=0.023875766575085153 3.0570170592264403 5.5385267085197309 10.346705279684953 0.025231673179190357 0.023988575977894052
decision_type=2 2 2 2 2 2
left_child=5 -2 -3 4 -4 -1
right_child=1 2 3 -5 -6 -7
leaf_value=0 0.14575722791014528 -0.1800356881725145 0.13043987662379775 -0.1049205828522902 -0.036942987659180318 -0.14902425515992257
leaf_count=19 24 35 88 39 36 41
internal_value=0 0.0596692 -0 0.0515822 0.175358 -0.266185
internal_count=282 222 198 163 124 60
shrinkage=0.342814


Tree=39
num_leaves=10
num_cat=0
split_feature=49 21 48 35 39 21 4 42 46
split_gain=0.0031026 0.00534104 0.00344336 0.00243879 0.001845 0.00447319 0.00276727 0.00117817 0.000528886
threshold=0.024385749929707452 0.025467347821511905 0.024038863048598706 0.024514213560225203 0.025037975435700004 0.026359617969835804 0.27188264441025956 0.025382481983459104 0.024622508113220403
decision_type=2 2 2 2 2 2 2 2 2
left_child=2 3 -1 -2 6 -6 -3 -4 -8
right_child=1 4 7 -5 5 -7 8 -9 -10
leaf_value=0.15880349129354998 -0 0.018122910976858562 0.036596909653909923 -0.20249607252939136 0.17524916719354691 -0 -0 -0.070597336257671339 -0.16235393018934513
leaf_count=29 20 31 48 31 25 28 20 28 22
internal_value=0 -0.12343 0.148505 -0.413964 0 0.190364 -0.101858 -0 -0.332799
internal_count=282 177 105 51 126 53 73 76 42
shrinkage=0.342814


Tree=40
num_leaves=8
num_cat=0
split_feature=0 9 11 23 7 42 31
split_gain=0.00240775 0.00523592 0.00432033 0.00377929 0.00284104 0.0024515 0.00241899
threshold=6.2701225546321213 3.0570170592264403 7.2214109639958766 0.023792645331003805 10.766131567767502 0.024148063585985202 0.024597282113654705
decision_type=2 2 2 2 2 2 2
left_child=1 6 5 -4 -5 -2 -1
right_child=2 -3 3 4 -6 -7 -8
leaf_value=-0.035122528885991475 -0 -0.1649282649450341 0.086243831839023274 -0.14810291088824215 0 0.15946054691228925 0.12178646472686788
leaf_count=15 26 65 28 49 33 50 16
internal_value=0 -0.179707 0.063782 -0.0610507 -0.245744 0.310766 0
internal_count=282 96 186 110 82 76 31
shrinkage=0.342814


Tree=41
num_leaves=9
num_cat=0
split_feature=40 36 9 36 24 31 21 38
split_gain=0.00197894 0.00279267 0.00355542 0.00273412 0.00199248 0.00144142 0.00034793 0.000195398
threshold=0.025552539865286453 0.024696878704477402 6.4006173747578812 0.024112965389437104 0.024793745775701755 0.024059392367606906 0.025776479077215055 0.025158296951534102
decision_type=2 2 2 2 2 2 2 2
left_child=1 3 -3 4 -1 -2 -4 -5
right_child=5 2 6 7 -6 -7 -8 -9
leaf_value=-0.030697744125591273 -0.1414249207246622 0.15108913950345171 0.013918750919065885 -0 0.090231715671996809 -0 -0.046967780079130196 -0.14649071033081268
leaf_count=29 24 52 21 23 45 33 36 19
internal_value=0 0.044819 0.221555 -0.0519479 0.0366006 -0.218924 -0 -0.315491
internal_count=282 225 109 116 74 57 57 42
shrinkage=0.342814


Tree=42
num_leaves=7
num_cat=0
split_feature=0 6 1 27 40 14
split_gain=0.00165328 0.00344517 0.00267951 0.00207291 0.00184128 0.00170913
threshold=10.493598518888051 3.2927251427000903 7.0232546461335259 0.023616024712645404 0.025448436833488356 3.5597443151207355
decision_type=2 2 2 2 2 2
left_child=1 3 -2 -1 5 -5
right_child=2 -3 -4 4 -6 -7
leaf_value=-0.090467225256048681 0.11848469459561255 -0.13654416379746567 -0 0.11749633232139928 -0.0056986926907695691 -0
leaf_count=24 66 67 30 51 24 20
internal_value=0 -0.097545 0.121594 0 0.102946 0.22834
internal_count=282 186 96 119 95 71
shrinkage=0.342814


Tree=43
num_leaves=7
num_cat=0
split_feature=20 4 7 22 24 24
split_gain=0.00185773 0.00346094 0.00201337 0.00411641 0.0013728 0.000905378
threshold=0.025388100501358157 0.54849940479680803 6.3912030041462407 0.024034677683627253 0.025414397936282602 0.025083381170035005
decision_type=2 2 2 2 2 2
left_child=1 4 3 -2 -1 -4
right_child=2 -3 5 -5 -6 -7
leaf_value=0.14040846339296501 0 -0.043639356546573235 0.05253722722441951 -0.19728069851676508 0 -0.044025227275046687
leaf_count=63 20 46 46 39 32 36
internal_value=0 0.068043 -0.145593 -0.308078 0.271085 0
internal_count=282 141 141 59 95 82
shrinkage=0.342814


Tree=44
num_leaves=9
num_cat=0
split_feature=6 0 11 23 7 23 20 24
split_gain=0.00142734 0.00351917 0.00177117 0.00294048 0.00258303 0.00208433 0.00174326 0.000841657
threshold=1.4444173143457604 6.7064453045263113 7.0326389433038452 0.023882892833175805 11.780746146114602 0.023865654959175354 0.026146812681447151 0.025028049499880457
decision_type=2 2 2 2 2 2 2 2
left_child=6 7 5 -4 -5 -3 -1 -2
right_child=1 2 3 4 -6 -7 -8 -9
leaf_value=0.12754403304106404 -0 -0 0.053675362128574731 -0.14938546902478564 0 0.151628889843298 -0 -0.17327780296259462
leaf_count=22 33 27 33 52 23 34 19 39
internal_value=0 -0.0876468 0 -0.0774531 -0.263845 0.219634 0.144694 -0.365102
internal_count=282 241 169 108 75 61 41 72
shrinkage=0.342814


Tree=45
num_leaves=6
num_cat=0
split_feature=49 39 42 4 28
split_gain=0.00187438 0.00255494 0.00154111 0.0014372 0.000433403
threshold=0.024385749929707452 0.025037975435700004 0.025382481983459104 1.0000000180025095e-35 0.025601573599430803
decision_type=2 2 2 2 2
left_child=2 3 -1 -2 -3
right_child=1 4 -4 -5 -6
leaf_value=0.095006098330381164 0 -0 -0 -0.12372079025439392 0.055307133570381445
leaf_count=70 34 46 35 75 22
internal_value=0 -0.112758 0.134105 -0.261459 0.00768405
internal_count=282 177 105 109 68
shrinkage=0.342814


Tree=46
num_leaves=7
num_cat=0
split_feature=0 6 18 12 24 0
split_gain=0.00132111 0.00266702 0.0025594 0.00251252 0.00191614 0.000849454
threshold=6.2701225546321213 4.4146121105814258 3.7156148132974005 0.82232396181111012 0.024793745775701755 14.460125250557203
decision_type=2 2 2 2 2 2
left_child=3 2 4 -1 -2 -3
right_child=1 5 -4 -5 -6 -7
leaf_value=0 0 -0.081934611090317397 -0 -0.12730575806382291 0.19282702352118186 0
leaf_count=35 36 40 31 61 51 28
internal_value=0 0.0589216 0.235351 -0.151037 0.385256 -0.0794467
internal_count=282 186 118 96 87 68
shrinkage=0.342814


Tree=47
num_leaves=7
num_cat=0
split_feature=49 33 33 11 29 18
split_gain=0.00103101 0.00169911 0.00139194 0.0021721 0.000310269 3.00281e-05
threshold=0.023818964492504553 0.024103217897747654 0.025271828020755904 9.3063086182096075 0.024527505300279601 2.4842697753676402
decision_type=2 2 2 2 2 2
left_child=-1 5 3 -3 -4 -2
right_child=1 2 4 -5 -6 -7
leaf_value=0.05158298250477078 -0 0.11421061512479064 -0.077093492620257775 -0 -0 -0.1184740768733348
leaf_count=63 25 63 24 36 39 32
internal_value=0 -0.0653262 0 0.146981 -0.133639 -0.260266
internal_count=282 219 162 99 63 57
shrinkage=0.342814


Tree=48
num_leaves=6
num_cat=0
split_feature=0 9 13 33 26
split_gain=0.00078907 0.00219615 0.00165706 0.00233411 0.000975364
threshold=5.5385267085197309 2.8700058107478554 3.8462006049590651 0.025335946471803605 0.024662725613818656
decision_type=2 2 2 2 2
left_child=1 -1 3 -2 -4
right_child=2 -3 4 -5 -6
leaf_value=0 0.13621733911735834 -0.14335906610311291 -0.066459236549614276 -0 0
leaf_count=28 64 53 59 33 45
internal_value=0 -0.142846 0.0256982 0.20599 -0.0378672
internal_count=282 81 201 97 104
shrinkage=0.342814


Tree=49
num_leaves=6
num_cat=0
split_feature=49 39 4 29 36
split_gain=0.000953945 0.00189936 0.0007913 0.000962025 0.000451118
threshold=0.023818964492504553 0.025037975435700004 1.0000000180025095e-35 0.024233872713693556 0.024816857424223352
decision_type=2 2 2 2 2
left_child=-1 2 -2 -4 -3
right_child=1 4 3 -5 -6
leaf_value=0.046550742273923244 -0 -0 -0 -0.12916942250004829 0.051707339630156307
leaf_count=63 42 37 27 69 44
internal_value=0 -0.0730186 -0.20606 -0.276369 0.0254232
internal_count=282 219 138 96 81
shrinkage=0.342814


Tree=50
num_leaves=7
num_cat=0
split_feature=20 6 0 49 1 40
split_gain=0.000652421 0.00150863 0.00102678 0.00155387 0.000957771 0.000273175
threshold=0.026311697051388253 1.4444173143457604 10.493598518888051 0.024385749929707452 7.0232546461335259 0.024689757850548402
decision_type=2 2 2 2 2 2
left_child=1 -1 3 -3 -4 -5
right_child=-2 2 4 5 -6 -7
leaf_value=0.10522307244976402 -0.05438947368651062 0 0.087482021263275853 -0 -0 -0.12986791170936962
leaf_count=27 48 45 54 34 27 47
internal_value=0 0.0263833 -0 -0.125607 0.0951527 -0.275146
internal_count=282 234 207 126 81 81
shrinkage=0.342814


Tree=51
num_leaves=5
num_cat=0
split_feature=0 11 42 11
split_gain=0.000549283 0.00132835 0.00184259 0.000995956
threshold=6.2701225546321213 10.071428755338951 0.024125694505122704 3.3659582488898052
decision_type=2 2 2 2
left_child=3 2 -2 -1
right_child=1 -3 -4 -5
leaf_value=0 -0 -0.022424807273848803 0.099695772589084769 -0.091117113529097654
leaf_count=34 37 51 98 62
internal_value=0 0.0426229 0.163067 -0.103769
internal_count=282 186 135 96
shrinkage=0.342814


Tree=52
num_leaves=6
num_cat=0
split_feature=20 4 19 40 48
split_gain=0.000536686 0.00163073 0.00157033 0.00299738 0.000738639
threshold=0.025388100501358157 0.54849940479680803 6.8561126027188104 0.023847732565809455 0.025087719433270653
decision_type=2 2 2 2 2
left_child=1 4 3 -2 -1
right_child=2 -3 -4 -5 -6
leaf_value=0.11709254330149316 0 -0.018187357582842751 0 -0.16900138817269389 0
leaf_count=60 20 46 72 49 35
internal_value=0 0.0430424 -0.0901829 -0.248138 0.223571
internal_count=282 141 141 69 95
shrinkage=0.342814


Tree=53
num_leaves=6
num_cat=0
split_feature=38 35 45 19 41
split_gain=0.000470883 0.000997002 0.00126565 0.000843123 0.000288612
threshold=0.023373234242687255 0.024726918189941705 0.025441618764551605 8.1483478125539417 0.024333309461979404
decision_type=2 2 2 2 2
left_child=-1 4 3 -3 -2
right_child=1 2 -4 -5 -6
leaf_value=0.045460220415225613 -0 -0.1280361812548326 0 -0 0.039077095866284398
leaf_count=30 42 57 50 35 68
internal_value=0 -0.0463148 -0.148282 -0.261973 0
internal_count=282 252 142 92 110
shrinkage=0.342814


Tree=54
num_leaves=6
num_cat=0
split_feature=11 39 43 41 25
split_gain=0.000413588 0.00118683 0.00141307 0.00135968 4.57873e-05
threshold=10.346705279684953 0.024164092321904553 0.024278971050992856 0.025146302292004503 0.025365542218329606
decision_type=2 2 2 2 2
left_child=1 4 -3 -4 -1
right_child=-2 2 3 -5 -6
leaf_value=-0.034376515582337452 -0.050254350412663087 -0 0.12967067596028795 -0 -0
leaf_count=38 54 61 64 31 34
internal_value=0 0.0232586 0.139423 0.251847 -0.0645353
internal_count=282 228 156 95 72
shrinkage=0.342814


Tree=55
num_leaves=5
num_cat=0
split_feature=6 0 48 0
split_gain=0.000296755 0.00102523 0.0012936 0.00085983
threshold=3.5678298107283202 4.5002305043613609 0.024744546609791154 14.460125250557203
decision_type=2 2 2 2
left_child=1 -1 -3 -2
right_child=3 2 -4 -5
leaf_value=-0.015511609922315416 -0.074879514111433301 -0 0.12145656529082606 0
leaf_count=54 84 62 48 34
internal_value=0 0.0144972 0.159772 -0.0871147
internal_count=282 164 110 118
shrinkage=0.342814


Tree=56
num_leaves=5
num_cat=0
split_feature=49 18 11 0
split_gain=0.000292253 0.000775279 0.00115573 0.000684287
threshold=0.023818964492504553 2.4630405145751606 9.2459330093652969 5.2234924001637255
decision_type=2 2 2 2
left_child=-1 3 -3 -2
right_child=1 2 -4 -5
leaf_value=0.021930397543588408 -0.019774864505517367 0 -0.11420486126157732 0.059194260509867223
leaf_count=63 36 73 54 56
internal_value=0 -0.05238 -0.152916 0
internal_count=282 219 127 92
shrinkage=0.342814


Tree=57
num_leaves=4
num_cat=0
split_feature=29 12 19
split_gain=0.00027621 0.00105508 0.00159023
threshold=0.025748020451311856 1.3426560579174052 8.7837776605430111
decision_type=2 2 2
left_child=1 -1 -3
right_child=-2 2 -4
leaf_value=0 0.02312357377019034 -0.10714957739391877 0
leaf_count=67 60 91 64
internal_value=0 -0.0490359 -0.161907
internal_count=282 222 155
shrinkage=0.342814


Tree=58
num_leaves=4
num_cat=0
split_feature=20 19 42
split_gain=0.000175044 0.000838326 0.000762805
threshold=0.025388100501358157 6.8561126027188104 0.024865517928537303
decision_type=2 2 2
left_child=2 -2 -1
right_child=1 -3 -4
leaf_value=-0 -0.062122578997482046 0 0.069864429573812975
leaf_count=80 69 72 61
internal_value=0 -0.0384956 0.0485432
internal_count=282 141 141
shrinkage=0.342814


Tree=59
num_leaves=5
num_cat=0
split_feature=49 21 18 19
split_gain=0.000129008 0.000565539 0.000423845 0.000415367
threshold=0.023818964492504553 0.025424991714946051 3.5500793462967555 5.3260354048644816
decision_type=2 2 2 2
left_child=-1 -2 3 -3
right_child=1 2 -4 -5
leaf_value=0.024396977258451226 -0.053543301707334817 -0 -0.0094615619504506265 0.0761442171033095
leaf_count=63 64 35 70 50
internal_value=0 -0.0143261 0 0.118994
internal_count=282 219 155 85
shrinkage=0.342814


Tree=60
num_leaves=4
num_cat=0
split_feature=36 21 36
split_gain=9.34805e-05 0.00116324 0.000810243
threshold=0.024652139753388456 0.026167944478732903 0.024071274503476552
decision_type=2 2 2
left_child=2 -2 -1
right_child=1 -3 -4
leaf_value=0 0.071258327072848363 -0.0010711119946879011 -0.066625750015142593
leaf_count=84 77 64 57
internal_value=0 0.0383202 -0.0253454
internal_count=282 141 141
shrinkage=0.342814


Tree=61
num_leaves=5
num_cat=0
split_feature=11 39 29 0
split_gain=0.000102384 0.000910327 0.0014141 0.000717113
threshold=7.2957954117175552 0.023875766575085153 0.024368883474461055 13.845726732892603
decision_type=2 2 2 2
left_child=1 -1 -3 -2
right_child=3 2 -4 -5
leaf_value=-0.0065578803379673497 -0.063048424679746931 -0 0.10328439049551834 0
leaf_count=40 86 34 79 43
internal_value=0 0.0287627 0.157762 -0.040258
internal_count=282 153 113 129
shrinkage=0.342814


Tree=62
num_leaves=5
num_cat=0
split_feature=0 9 8 4
split_gain=8.624e-05 0.00099695 0.000661258 0.00067718
threshold=6.2701225546321213 3.0570170592264403 2.5433450323318652 0.53778076794932961
decision_type=2 2 2 2
left_child=1 -1 3 -2
right_child=2 -3 -4 -5
leaf_value=0 0.089321118989900472 -0.086688865391943939 -0 -0
leaf_count=31 75 65 70 41
internal_value=0 -0.0489305 0.0122616 0.14421
internal_count=282 96 186 116
shrinkage=0.342814


Tree=63
num_leaves=4
num_cat=0
split_feature=49 28 40
split_gain=0.000108414 0.00066125 0.0003645
threshold=0.024385749929707452 0.025315617637859552 0.024811395746076954
decision_type=2 2 2
left_child=2 -2 -1
right_child=1 -3 -4
leaf_value=0.049137060186663674 -0.051305335829649572 0 -0
leaf_count=58 118 59 47
internal_value=0 -0.0394748 0.028007
internal_count=282 177 105
shrinkage=0.342814


Tree=64
num_leaves=5
num_cat=0
split_feature=20 11 35 0
split_gain=6.01055e-05 0.000668309 0.000768496 7.72779e-05
threshold=0.026311697051388253 10.071428755338951 0.025231673179190357 6.7064453045263113
decision_type=2 2 2 2
left_child=1 2 3 -1
right_child=-2 -3 -4 -5
leaf_value=0 -0.018606264657476879 -0.019857295105944826 -0 0.084665898836491046
leaf_count=39 48 60 53 82
internal_value=0 0.00842224 0.107761 0.195194
internal_count=282 234 174 121
shrinkage=0.342814


Tree=65
num_leaves=4
num_cat=0
split_feature=40 15 0
split_gain=9.84519e-05 0.000547337 0.00041261
threshold=0.024811395746076954 4.9357587021731204 10.941040457888951
decision_type=2 2 2
left_child=1 -1 -2
right_child=2 -3 -4
leaf_value=0.04794188150561559 -0.046712055093894658 -0 0
leaf_count=86 91 67 38
internal_value=0 0.00825726 -0.0491871
internal_count=282 153 129
shrinkage=0.342814


Tree=66
num_leaves=5
num_cat=0
split_feature=25 18 36 40
split_gain=6.58681e-05 0.000497313 0.000211541 0.0001996
threshold=0.025061241481629203 3.4923766347167207 0.024696878704477402 0.024689757850548402
decision_type=2 2 2 2
left_child=2 3 -1 -2
right_child=1 -3 -4 -5
leaf_value=-0.037315313771095093 0.070616190381862495 -0 0 0
leaf_count=63 52 66 51 50
internal_value=0 0 -0.0427139 0.130081
internal_count=282 168 114 102
shrinkage=0.342814


Tree=67
num_leaves=4
num_cat=0
split_feature=39 2 42
split_gain=7.02044e-05 0.00051081 0.000442517
threshold=0.023875766575085153 3.0734850167981906 0.024797363280094156
decision_type=2 2 2
left_child=-1 -2 -3
right_child=1 2 -4
leaf_value=-0.020168562384860537 0.050894631657762937 -0.048454272642014566 0
leaf_count=60 59 71 92
internal_value=0 0 -0
internal_count=282 222 163
shrinkage=0.342814


Tree=68
num_leaves=4
num_cat=0
split_feature=20 19 4
split_gain=6.39677e-05 0.000655146 0.000506762
threshold=0.025388100501358157 6.8561126027188104 0.54849940479680803
decision_type=2 2 2
left_child=2 -2 -1
right_child=1 -3 -4
leaf_value=0.047519693774654301 -0.058078658338159214 0 -0
leaf_count=95 69 72 46
internal_value=0 -0.0389292 0.00240112
internal_count=282 141 141
shrinkage=0.342814


Tree=69
num_leaves=4
num_cat=0
split_feature=29 12 0
split_gain=4.0899e-05 0.000506082 0.000973219
threshold=0.025730446345705701 1.3426560579174052 9.3204973269868514
decision_type=2 2 2
left_child=1 -1 -3
right_child=-2 2 -4
leaf_value=0 0.0021434490359468566 -0.088207612461777274 0
leaf_count=65 63 87 67
internal_value=0 -0.0261576 -0.117312
internal_count=282 219 154
shrinkage=0.342814


Tree=70
num_leaves=4
num_cat=0
split_feature=33 33 4
split_gain=1.85893e-05 0.000411796 2.33317e-05
threshold=0.024103217897747654 0.025304001127710352 0.51218462297854817
decision_type=2 2 2
left_child=-1 2 -2
right_child=1 -3 -4
leaf_value=-0.0064942466551247396 0 -0 0.053151984817628568
leaf_count=81 62 78 61
internal_value=0 0.0129985 0.112258
internal_count=282 201 123
shrinkage=0.342814


Tree=71
num_leaves=4
num_cat=0
split_feature=4 19 6
split_gain=6.90093e-06 0.000341746 7.28931e-05
threshold=0.23753480361558851 5.6690936432546755 3.8527848535389757
decision_type=2 2 2
left_child=-1 -2 -3
right_child=1 2 -4
leaf_value=0.0017720577888619385 -0.047736396203693347 0.020654891657343747 -0
leaf_count=90 61 65 66
internal_value=0 -0.0109247 0
internal_count=282 192 131
shrinkage=0.342814


Tree=72
num_leaves=4
num_cat=0
split_feature=11 20 37
split_gain=2.13653e-05 0.000546633 0.000377885
threshold=9.2459330093652969 0.026203997379360505 0.024085827584824252
decision_type=2 2 2
left_child=1 2 -1
right_child=-2 -3 -4
leaf_value=-0 -0.0093301010570250396 -0.0024534828469429835 0.061349851981085925
leaf_count=47 84 51 100
internal_value=0 0.00870946 0.114757
internal_count=282 198 147
shrinkage=0.342814


Tree=73
num_leaves=4
num_cat=0
split_feature=28 40 36
split_gain=3.08201e-05 0.000362455 0.000142879
threshold=0.024281740396650906 0.024177665345971204 0.025073525298117454
decision_type=2 2 2
left_child=-1 -2 -3
right_child=1 2 -4
leaf_value=-0.012180710503549593 0.048866606668892074 0 -0.030582487780428203
leaf_count=93 49 84 56
internal_value=0 0 -0
internal_count=282 189 140
shrinkage=0.342814


Tree=74
num_leaves=4
num_cat=0
split_feature=35 40 20
split_gain=2.70748e-05 0.000281133 0.00026918
threshold=0.024726918189941705 0.024660785714910701 0.025589259743522504
decision_type=2 2 2
left_child=2 -2 -1
right_child=1 -3 -4
leaf_value=0.038950320333589257 0 -0.038059687577646675 -0
leaf_count=79 72 81 50
internal_value=0 -0.0246152 0
internal_count=282 153 129
shrinkage=0.342814


Tree=75
num_leaves=4
num_cat=0
split_feature=28 33 21
split_gain=1.97834e-05 0.000217903 0.000626598
threshold=0.024281740396650906 0.024103217897747654 0.026359617969835804
decision_type=2 2 2
left_child=-1 -2 -3
right_child=1 2 -4
leaf_value=-0.0097933628887238427 -0 0.061387150565322353 -0
leaf_count=93 51 82 56
internal_value=0 0 0.0746866
internal_count=282 189 138
shrinkage=0.342814


Tree=76
num_leaves=4
num_cat=0
split_feature=49 39 29
split_gain=5.98555e-05 0.000586196 0.00028152
threshold=0.023818964492504553 0.025037975435700004 0.024720832224989702
decision_type=2 2 2
left_child=-1 2 -2
right_child=1 -3 -4
leaf_value=0 -0 0 -0.070146295395605254
leaf_count=63 58 81 80
internal_value=0 -0.0322568 -0.13094
internal_count=282 219 138
shrinkage=0.342814


Tree=77
num_leaves=5
num_cat=0
split_feature=0 12 4 4
split_gain=2.06732e-05 0.00034827 0.000965602 4.21724e-05
threshold=6.2701225546321213 3.7944344273584805 0.53778076794932961 1.0000000180025095e-35
decision_type=2 2 2 2
left_child=3 2 -2 -1
right_child=1 -3 -4 -5
leaf_value=0 0.087217531817954247 -0 -0 -0.020987897468397257
leaf_count=34 86 47 53 62
internal_value=0 0 0.103889 -0.0268088
internal_count=282 186 139 96
shrinkage=0.342814


Tree=78
num_leaves=4
num_cat=0
split_feature=29 12 0
split_gain=6.31975e-05 0.00044752 0.000588418
threshold=0.025730446345705701 1.1510740095319403 7.9345047851007813
decision_type=2 2 2
left_child=1 -1 -3
right_child=-2 2 -4
leaf_value=0 0 -0.087229621779780608 -0
leaf_count=49 63 70 100
internal_value=0 -0.0339657 -0.112329
internal_count=282 219 170
shrinkage=0.342814


Tree=79
num_leaves=4
num_cat=0
split_feature=6 29 49
split_gain=1.2682e-05 0.00037629 0.000244298
threshold=1.4444173143457604 0.025730446345705701 0.024385749929707452
decision_type=2 2 2
left_child=-1 2 -2
right_child=1 -3 -4
leaf_value=0 0 0 -0.049878292008150554
leaf_count=41 71 53 117
internal_value=0 -0.0150103 -0.0938943
internal_count=282 241 188
shrinkage=0.342814


Tree=80
num_leaves=3
num_cat=0
split_feature=6 18
split_gain=4.43029e-07 0.000130229
threshold=3.5678298107283202 0.7533983281376696
decision_type=2 2
left_child=1 -1
right_child=-2 -3
leaf_value=-0 -0.00079351498919276182 0.021781464715587333
leaf_count=31 118 133
internal_value=0 0.00252048
internal_count=282 164
shrinkage=0.342814


Tree=81
num_leaves=4
num_cat=0
split_feature=11 39 18
split_gain=3.31773e-06 0.000196744 3.73996e-05
threshold=7.2957954117175552 0.023968041287916155 3.9157558540122905
decision_type=2 2 2
left_child=1 -1 -2
right_child=2 -3 -4
leaf_value=-0 0 0.027998463661707291 -0.015840195827779884
leaf_count=47 66 106 63
internal_value=0 0 -0.010289
internal_count=282 153 129
shrinkage=0.342814


Tree=82
num_leaves=3
num_cat=0
split_feature=38 0
split_gain=4.30478e-06 0.000240926
threshold=0.024375193325000401 5.7754443627640013
decision_type=2 2
left_child=-1 -2
right_child=1 -3
leaf_value=0 -0.040928984965772276 0
leaf_count=93 56 133
internal_value=0 -0.00969235
internal_count=282 189
shrinkage=0.342814


Tree=83
num_leaves=4
num_cat=0
split_feature=6 2 2
split_gain=8.13952e-08 3.90205e-05 0.000136282
threshold=1.4444173143457604 4.93024899885551 3.2710745368606253
decision_type=2 2 2
left_child=-1 2 -2
right_child=1 -3 -4
leaf_value=0 0 0 -0.032163207195258559
leaf_count=41 61 106 74
internal_value=0 -0.00121103 -0.03441
internal_count=282 241 135
shrinkage=0.342814



feature importances:
V1=65
V12=44
V5=29
V7=28
V13=27
V10=26
V20=25
V40=25
V41=24
V33=23
V24=23
V19=21
V11=21
V21=20
V37=19
V34=19
V8=19
V9=17
V42=16
V25=16
V29=15
V50=15
V44=14
V3=14
V30=14
V38=13
V39=13
V49=13
V32=13
V26=12
V36=11
V27=10
V43=10
V15=10
V14=9
V22=9
V2=8
V48=8
V18=8
V28=7
V16=6
V23=6
V47=6
V35=5
V46=5
V31=5
V45=4
V17=3
V6=3
V4=3
